451 16
N01 1.33912 -2.47946 0.21147 -1.55910 -0.35412 -2.04618 -0.48167 -0.49460 1.26344 0.02968 1.41045 -1.44915 0.33531 -1.80675 -1.10244 0.93303
... 1.03585 -2.04962 0.43750 -1.70511 -0.48688 0.36909 -2.18516 -1.62762 0.63334 1.71062 0.56759 0.44386 -1.80833 -1.66863 -1.26373 0.69998
N14 0.34000 -0.04179 -0.14723 -0.90980 -0.44531 1.73208 -1.93356 -1.13876 1.43829 1.44659 0.19865 -1.31112 -1.51043 -1.37225 -1.54263 3.56956
X 1.09923 -1.28368 0.43022 -1.32189 -0.72906 0.01095 -2.01917 -1.66875 0.90617 0.21696 0.85611 -0.47702 -1.56010 -1.30067 -0.99108 0.40483
N39B 1.88215 -1.73811 0.52205 0.01615 0.16093 -0.45396 -2.06255 -2.11340 2.87354 -0.09398 0.67772 1.13791 -0.83877 -2.24689 -0.16063 1.63470
M288 1.04063 -0.40679 0.41872 -0.29075 -0.40581 0.48426 -2.09708 -1.05426 0.60525 0.78984 -0.13145 -0.30100 -1.57280 -2.22577 -0.79181 1.15732
N30C 0.46006 -1.24779 1.93138 -0.52079 0.68817 -0.09819 -1.16632 -0.92394 1.63888 0.45280 1.64136 2.19118 -0.36193 -1.25661 -0.90007 1.01898
N34 1.45610 0.59789 0.60848 -0.24361 -0.27529 -0.39589 -2.80136 -0.69872 0.10770 1.45783 -1.70509 -0.49240 -2.43788 -2.36575 -1.06335 -0.00092
M388 0.05249 -1.00966 -0.70802 -0.95045 -0.91708 0.69029 -0.04675 -0.85626 0.56668 -0.24222 0.61399 -0.62608 -0.44665 0.46546 -0.36518 0.94766
N24 1.21789 -1.37085 1.44605 -0.31950 0.49631 -0.23746 -1.72318 -1.42595 2.05257 0.40484 1.04494 1.79772 -0.76500 -1.77286 -0.65165 1.14255
M218 0.80831 -1.15491 -1.04436 -0.05906 -0.90226 0.97823 -0.41482 -0.95710 0.83851 -0.30701 1.03547 -0.28007 -0.14911 -0.25754 0.05764 1.06005
M371 0.32397 -0.99851 -0.80814 -0.22647 -0.17827 -0.42513 -0.81227 -0.65485 0.74774 0.12086 -0.44644 -0.60044 -0.90869 -0.95369 0.43903 -0.11545
M124 0.33760 -0.46979 -0.40635 -0.31846 -0.31598 -0.12262 -0.70971 -0.15437 -0.02288 0.56602 0.03770 -0.81975 -0.47994 -0.80193 -0.34966 -0.14439
N45 1.07873 0.70020 0.55290 -0.16616 -0.13453 0.48300 -2.38883 -0.69175 0.45008 1.55744 -1.06077 -0.24656 -1.83061 -1.83509 -1.32981 1.10712
M297 0.75829 -0.98448 0.46202 -0.11096 0.02785 0.18665 -0.79707 -0.80388 1.34060 0.03655 0.64850 0.55772 -0.23976 -0.78752 -0.20652 1.07923
M054 -0.05999 -0.13394 -0.07200 -0.75711 -0.27083 -0.09319 -0.28050 -0.14023 0.12705 0.13767 -0.22441 -0.47829 -0.56377 0.08414 -0.79994 0.42028
M346 0.34762 -0.23214 -0.04714 -0.55123 -0.36763 0.01234 -0.30575 -0.23524 0.36745 0.32883 0.41284 -0.52170 -0.18334 -0.32739 -0.80406 0.85695
M387 0.35279 -0.81863 -0.15870 -0.44938 -0.61148 0.16965 -0.22717 -0.60835 0.65143 -0.10007 1.09141 0.19090 -0.22747 -0.28583 -0.36861 0.60201
M066 0.54876 -0.62606 0.27097 -0.29469 -0.61557 0.48784 -0.17084 -0.70155 -0.30059 -0.61135 0.47810 -0.58918 -0.09807 -0.83220 -0.04132 0.72343
M157 0.05867 -0.07082 -0.04963 -0.11560 -0.09414 -0.08305 -0.00576 -0.02420 -0.03764 -0.04636 0.06679 -0.22995 0.02271 0.00224 -0.06045 -0.00638
N23 0.51578 0.22929 -0.59182 -0.93149 -0.11624 0.84371 -0.25143 -0.92196 1.34814 0.81219 -0.19034 -0.63381 -0.18114 1.17168 -1.31159 1.49547
N30D 0.24144 -0.87933 1.53878 -0.36831 0.63957 0.18289 -0.94264 -0.75865 1.47279 0.39452 1.27533 1.72302 -0.29803 -0.89502 -0.77730 1.02556
M009 0.24617 -0.60214 -0.62648 -0.26808 -0.08251 -0.47404 -0.37486 -0.22338 0.41759 0.12113 -0.22110 -0.71173 -0.41611 -0.58306 0.05050 -0.06069
M096 0.07258 -0.48186 0.09979 -0.17807 -0.39717 0.56235 -0.75609 -0.44933 -0.52298 0.35286 0.48740 -0.28314 -0.11109 -0.77325 -0.16254 0.32263
M376 0.06859 -0.15659 0.38781 -0.80419 0.15715 -0.56446 -0.62384 0.27792 0.00018 0.91816 0.28131 -0.37731 -0.59780 -0.60033 -0.87881 -0.16488
M263 0.30677 -1.05836 -0.32542 -0.30812 -0.48856 -0.15995 -0.00991 -0.27970 -0.19139 -0.43526 0.71868 -0.31512 0.22988 -0.18160 0.22434 -0.18997
M001 0.10928 -0.41856 0.02349 -0.52745 -0.29915 -0.06394 -0.35960 -0.29054 0.35913 0.02435 0.41021 -0.48163 -0.29563 -0.28003 -0.38187 0.57985
N1@B -0.90075 0.08160 -0.67625 -0.07350 -0.01834 0.83858 0.66345 0.33348 -0.97620 0.42043 -0.55930 -0.87246 0.46984 0.48447 0.45981 0.74046
M036 0.57069 -1.00029 0.80092 -0.22129 0.32458 -0.90105 -0.26428 -0.41049 1.01567 -0.23907 0.93093 1.04280 0.20192 -0.64143 -0.20577 0.04172
M305 0.13098 -0.49932 0.15561 -0.54154 -0.38052 0.20096 -0.24969 -0.58968 0.40701 -0.07364 0.61259 0.07952 -0.35315 -0.07358 -0.29426 0.50025
M032 -0.17831 -0.34314 -0.20848 -0.43625 -0.35935 0.29403 -0.15340 -0.09973 -0.13208 0.35299 0.17484 -0.41006 -0.25449 -0.19275 -0.26349 0.54770
M370 0.09979 -0.14148 -0.01902 -0.44003 0.01497 -0.45807 -0.09034 0.40283 -0.19445 0.51469 0.05400 -0.29845 -0.15457 -0.05864 -0.52451 -0.45849
M004 0.40434 -0.88316 -0.76981 -0.19584 -0.49964 0.21639 0.26583 -0.37692 0.28566 -0.39775 0.70443 -0.47247 0.29111 0.30108 0.36593 0.17112
M354 -0.07780 0.43149 0.12400 -0.22062 0.28770 -0.17909 -0.18129 0.21635 0.34916 0.45759 -0.05450 -0.68795 -0.00044 -0.32779 -0.60962 0.84328
M367 0.39132 -0.20248 -0.09532 -0.46094 -0.16350 0.04046 -0.38242 -0.34354 0.45802 0.40738 0.06697 -0.43183 -0.15362 -0.16330 -0.62830 0.69043
M003~B 0.21263 -0.60965 -0.32856 -0.39869 -0.14591 -0.60320 -0.03548 -0.18425 0.22977 -0.12925 0.08562 -0.60295 -0.07192 -0.30066 -0.05584 -0.23961
M157~A -0.02697 0.19945 0.00474 -0.03423 -0.01646 0.07011 -0.19720 -0.01005 -0.03744 0.12585 -0.18107 -0.17302 -0.20353 -0.12025 -0.11335 0.15741
|M036+N30D| 0.29966 -0.23133 0.30885 -0.30230 0.08029 -0.00381 -0.44112 -0.08636 0.06205 0.63820 -0.01537 -0.18298 -0.04837 -0.67151 -0.55944 0.71637
M057 0.21670 -0.40167 0.07065 -0.37178 -0.20719 0.13893 -0.68583 -0.32348 -0.10758 -0.00845 0.06806 -0.43510 -0.53273 -0.45050 -0.11062 0.02373
M072 0.23029 -0.39955 0.09829 -0.33211 -0.01347 -0.20960 -0.07728 0.14620 0.22921 0.27734 0.29923 -0.21935 0.06575 -0.14934 -0.37606 0.25665
N51 -0.56972 1.09616 0.27910 0.09400 0.74721 0.04746 -0.23866 0.54009 0.08705 0.80061 -0.50628 -0.61364 -0.17750 -0.40647 -0.42010 0.74938
M219 0.30415 -0.43024 -0.44432 -0.16531 -0.44955 0.45327 -0.02549 -0.55470 0.49137 -0.40351 0.50580 -0.27825 -0.17061 -0.13073 -0.00358 0.67545
M347 0.12753 -0.75872 -1.04162 -0.11806 -0.31786 0.24887 -0.06355 -0.47915 0.55693 -0.17989 -0.27109 -0.41274 -0.59264 -0.00077 0.66129 -0.02158
N30C@B 0.36633 -0.15680 0.45671 0.26569 0.50509 -0.09590 -0.33499 -0.47201 0.59271 0.03603 0.09553 1.48313 -0.17982 -0.09968 0.20868 -0.30812
M297~B 0.54932 -0.56282 0.22540 0.03587 0.20963 -0.45226 -0.44534 -0.47788 1.05704 -0.13287 0.34847 0.27406 0.07730 -0.61896 -0.03581 0.55484
N08A -0.21282 -0.12155 0.74470 -0.65512 0.47309 -1.03529 0.07848 0.64829 -0.09360 0.32926 0.57148 0.04836 0.03536 -0.24038 -0.57758 -0.38407
N14@B 0.14722 0.21721 0.16800 0.23603 0.19684 0.76426 0.08679 0.15232 -0.97265 0.65221 -0.63765 0.34942 0.29680 -0.15017 -0.01747 0.25926
M259 0.16197 -0.29065 -0.64050 -0.09179 -0.45577 0.43396 -0.11771 -0.28813 -0.01962 -0.10640 0.21106 -0.50461 -0.17218 -0.09322 -0.00730 0.23980
M059 0.24088 -0.05692 0.02389 -0.18023 -0.04488 -0.01768 -0.56806 -0.31473 0.42397 0.17855 -0.07333 -0.33268 -0.31994 -0.41826 -0.26586 0.66300
N39B@B -0.22417 0.08160 0.11587 0.25866 0.27928 -0.14404 0.64229 -0.03473 -0.05658 -0.02978 -0.27690 0.57250 0.44998 0.34104 0.52804 -0.14041
M056~F 0.17762 0.38961 0.27853 -0.09275 -0.10125 0.11953 -0.72936 -0.02645 -0.27684 0.59691 -0.36423 -0.25974 -0.58194 -0.78887 -0.51620 0.39408
M386~A 0.21041 -0.25347 -0.42894 0.07615 -0.43403 0.23794 -0.11996 -0.27117 -0.49874 -0.01749 -0.05581 -0.67596 0.07933 -0.30458 0.22208 -0.32072
M373 0.18494 -0.31550 0.24343 -0.20979 0.15558 -0.70909 0.17000 0.22972 0.05356 -0.08825 0.27194 -0.02836 0.30425 -0.09762 -0.13091 -0.26362
N 0.29817 -0.35269 0.09470 -0.09014 -0.10351 0.10085 -0.62509 -0.65433 0.46852 -0.16857 0.39377 0.52650 -0.34585 -0.23856 0.03044 0.33661
M263~A 0.27935 -0.48421 0.15611 -0.23483 0.04612 -0.72475 0.00285 -0.07164 0.26870 -0.23854 0.39240 -0.04004 0.23420 -0.21954 -0.06241 -0.06528
M387~C -0.00614 -0.17155 -0.21759 -0.39735 -0.15172 -0.24306 0.25168 -0.11932 0.30122 0.04900 0.02720 -0.67244 0.04850 0.19234 -0.29160 -0.06335
M153 0.11704 0.02269 -0.14196 -0.17372 -0.12465 0.00658 -0.00521 0.00834 0.19167 0.13801 0.08200 -0.24019 -0.09135 -0.02076 -0.30449 0.30876
M377~E 0.14062 -0.72318 -0.83816 -0.10667 -0.27498 0.21605 0.00968 -0.32871 0.39147 -0.21614 -0.07314 -0.21911 -0.35480 0.15650 0.52985 -0.08755
M377 -0.07775 0.09375 -0.03066 -0.15670 -0.17746 0.50135 -0.68544 -0.24431 -0.30295 0.27943 -0.11162 -0.10056 -0.65487 -0.11523 -0.09529 -0.17058
M387~EF 0.23924 -0.49220 0.09813 -0.01988 -0.09826 -0.08874 -0.04580 -0.21983 0.09766 -0.27266 0.24768 0.22057 0.01783 -0.21588 0.20255 -0.06216
M387~A 0.05643 -0.47058 0.26894 -0.13087 0.06436 -0.32950 0.14285 0.04179 0.11615 -0.10386 0.40203 0.33700 0.26475 -0.01871 -0.02919 -0.17970
M101 0.08930 -0.10627 0.01100 -0.25782 -0.30833 0.10512 -0.06153 -0.26182 -0.24372 -0.36498 0.18584 -0.50669 -0.21627 -0.30915 -0.07482 0.03331
M365 0.06629 -0.07277 -0.02113 -0.35010 -0.14948 0.08157 -0.24147 -0.09060 -0.02599 0.33605 -0.00060 -0.34142 -0.23013 -0.12723 -0.37057 0.28335
M005~A 0.06126 0.00818 0.09750 -0.25198 -0.07588 0.27847 -0.46903 -0.20436 0.09569 0.37416 0.06217 0.03453 -0.45294 -0.13726 -0.30709 0.26742
M304 0.23326 -0.17227 0.10079 -0.15365 -0.03311 -0.28125 -0.30913 -0.20263 0.27423 0.05583 -0.00824 -0.18891 -0.21597 -0.42786 -0.14213 0.09878
M240 0.00015 -0.02084 -0.03733 -0.02571 -0.26528 0.29767 -0.29561 -0.20452 -0.63352 0.24369 -0.10326 -0.38453 0.00415 -0.22083 -0.01340 -0.25503
M317 0.05340 -0.09696 -0.45385 -0.12632 -0.22251 0.10243 -0.11244 0.01985 0.06656 0.20237 -0.17641 -0.55685 -0.18286 -0.08048 -0.12135 0.24473
M320 0.19447 -0.34409 0.04827 -0.23081 -0.09549 -0.29269 0.03432 -0.10600 0.01013 -0.13176 0.24989 -0.11976 0.11638 -0.14048 -0.11128 -0.04446
N39C -0.29424 -0.17608 0.94131 0.12356 0.63554 0.10650 0.08211 -0.02320 0.80289 -0.00943 0.80629 1.25000 0.33762 -0.01811 -0.18687 0.45235
M006 0.06921 -0.08092 -0.03282 -0.20015 -0.04729 -0.09826 -0.04697 0.08472 0.06900 0.11626 -0.01215 -0.41002 0.00004 -0.12148 -0.25334 0.28337
M024 0.00670 -0.27729 -0.26796 -0.05073 -0.17040 -0.03658 -0.30483 -0.26074 -0.17677 0.15956 -0.26375 -0.07747 -0.34703 -0.23090 0.25653 -0.43524
M263~1 0.14927 -0.31496 -0.40618 -0.19253 -0.35277 0.12839 0.09008 -0.24962 0.03614 -0.18617 0.15580 -0.34809 -0.09668 0.17265 0.16422 -0.03244
M097~H 0.22737 -0.50646 -0.43016 0.03173 -0.29618 0.09206 0.20343 -0.24210 0.10484 -0.34232 0.47534 -0.14691 0.31195 0.26456 0.37315 -0.10295
M348 0.12137 -0.04109 0.14165 -0.30950 -0.18870 0.26804 -0.47636 -0.16545 0.00763 0.37972 0.02000 -0.20324 -0.43414 -0.40521 -0.44383 0.60449
M262 -0.08188 -0.12891 -0.16169 -0.11669 -0.22404 0.15232 -0.02638 -0.00552 -0.47498 0.09778 0.14668 -0.23439 0.08252 0.00967 -0.04728 -0.17558
N48 0.41564 1.25697 -0.08811 0.34628 -0.22477 0.21105 -0.92907 0.05961 -0.56597 0.49096 -1.46162 -0.41750 -1.05717 -0.24233 -0.26577 -0.58205
M010~2 0.23132 -0.19557 0.49977 -0.13160 0.20953 0.02817 -0.54901 -0.29264 0.69836 0.24230 0.32660 0.42794 -0.20762 -0.46620 -0.42813 0.68263
M387~L 0.00439 0.03653 -0.02280 -0.17845 -0.11452 0.04870 -0.12596 -0.04932 0.02090 -0.03242 0.06283 -0.32489 -0.12611 0.00083 -0.14734 0.24973
|M136+M365| 0.08738 0.00424 0.01777 -0.07813 0.00384 -0.01801 -0.22285 0.00244 -0.01183 0.24223 -0.11074 0.00125 -0.17819 -0.14396 -0.18038 0.02998
M066~A -0.03772 -0.27152 -0.14569 -0.20024 -0.24654 -0.02879 0.37758 -0.05196 -0.04993 -0.31496 0.29574 -0.27936 0.24524 0.18545 0.00654 0.07308
M057~A 0.17726 -0.05818 0.22899 -0.10686 -0.01654 0.04211 -0.35773 -0.22744 0.12901 0.10822 -0.00779 0.01461 -0.22915 -0.26940 -0.16735 0.13469
M081 0.07943 -0.21990 0.20807 0.03857 -0.03273 -0.28624 0.20318 0.01565 0.27265 -0.24918 0.45802 0.24865 0.28771 -0.11611 -0.05578 0.08565
M146 0.03346 -0.34410 -0.48070 -0.10740 -0.33490 0.29701 0.02292 -0.27210 -0.06589 -0.09219 -0.00549 -0.31404 -0.16456 0.08234 0.29638 0.02079
M352~O 0.06321 -0.13683 0.00487 0.00299 -0.33522 0.40366 0.22922 -0.20543 -0.40234 -0.47640 0.16881 -0.25714 0.13478 0.00604 0.17199 0.07727
M352~N 0.09604 -0.26676 -0.08259 -0.19392 -0.28438 0.32081 0.13740 -0.24021 -0.24588 -0.18651 0.19679 -0.22202 -0.01902 -0.05080 0.02058 0.18400
M099 0.12603 -0.44016 -0.09963 -0.17098 -0.15027 -0.07656 -0.23708 -0.31527 0.13897 -0.06054 0.15577 0.03856 -0.25195 -0.16821 0.15756 -0.12210
M260 0.07516 -0.24495 0.04096 -0.19171 0.05039 -0.48382 0.24578 0.21151 0.02469 -0.04648 0.11872 -0.31495 0.25831 -0.08371 -0.09329 -0.08195
M002 -0.10651 0.11640 0.61673 0.01751 0.40681 0.10159 -0.15173 0.04138 0.42960 0.17899 0.26302 0.56422 0.07177 -0.05154 -0.32894 0.44174
M033 -0.15882 -0.09558 -0.35641 -0.03726 -0.11195 -0.18429 -0.01182 0.02463 -0.19682 0.05823 -0.31041 -0.32686 -0.16930 -0.00160 0.24677 -0.47893
M139 -0.27945 -0.20750 -0.21404 -0.19902 -0.21572 0.28864 0.34234 -0.09370 0.03873 -0.20166 0.21176 0.10126 -0.06269 0.51114 0.12631 0.01603
M309~A 0.06935 -0.23527 0.02681 -0.04746 0.00969 -0.43651 0.31649 0.17444 0.02915 -0.18583 0.12933 -0.13806 0.38143 0.02610 0.00941 -0.09214
M329 0.10574 -0.41523 -0.07965 -0.18918 -0.13920 -0.18006 0.04812 -0.08743 -0.11501 -0.05995 0.24254 -0.00697 0.05712 -0.02472 0.02730 -0.30293
M263~B1 0.08391 -0.31633 -0.04749 -0.27313 -0.14919 -0.20581 0.22589 0.05923 0.14774 -0.03849 0.44264 -0.08126 0.14634 0.07487 -0.17924 0.11347
M046 0.03863 -0.32716 0.04799 -0.09035 -0.02471 -0.42082 0.23131 0.15431 -0.04298 -0.13638 0.17703 -0.06614 0.23669 -0.10251 0.05908 -0.15005
M203~C 0.08945 0.21817 0.14872 -0.03104 -0.05670 0.00580 -0.45749 -0.08322 0.04298 0.27057 -0.17446 -0.16786 -0.36189 -0.48295 -0.28425 0.24639
M314 -0.04462 -0.23455 -0.10784 -0.19528 -0.26238 0.45995 -0.07147 -0.27953 -0.09241 0.08260 0.20255 0.12702 -0.23008 0.12385 -0.01209 0.04611
|M327+M342| -0.21617 0.20719 -0.06624 0.14252 0.02469 0.02151 0.25640 0.18153 -0.21450 -0.13595 -0.09569 0.06978 0.14071 0.29987 0.19082 -0.16034
M149~A 0.14687 -0.10070 0.10070 -0.21041 -0.05909 -0.08335 -0.11007 -0.10710 0.23543 0.01956 0.16545 -0.23700 -0.05786 -0.12197 -0.20790 0.28481
M206~D 0.19846 -0.40029 0.10365 -0.28960 -0.05681 -0.41618 -0.06540 -0.07717 0.04019 0.02137 0.21680 -0.16302 -0.01133 -0.28222 -0.12772 -0.25835
M206~G 0.08290 -0.37865 0.00605 -0.13033 -0.02941 -0.30417 0.17558 0.01456 0.02803 -0.12431 0.23846 0.03139 0.20504 -0.01591 0.02730 -0.15416
M106 0.22218 -0.38866 0.20521 -0.22631 0.05965 -0.36807 -0.30324 -0.12035 0.19249 0.16271 0.13802 0.06933 -0.12351 -0.47116 -0.19601 0.08613
M106~A 0.16992 -0.28825 0.40325 0.08270 0.22521 -0.14898 -0.08276 -0.25496 0.43209 -0.12046 0.27562 0.75132 0.08282 -0.12311 0.10426 0.05030
M175 0.02286 0.03427 -0.07087 -0.06903 -0.00353 0.00004 -0.00552 0.10482 -0.12803 0.14668 -0.06216 -0.18705 -0.00772 -0.05347 -0.12996 0.03325
M362 0.19250 -0.11501 -0.03403 -0.17112 -0.12011 0.07406 -0.29004 -0.24515 0.25758 0.13898 0.05371 -0.13405 -0.15526 -0.12974 -0.26742 0.30007
M390 0.07570 -0.47493 -0.39739 -0.08479 -0.38864 0.18870 0.08415 -0.21471 0.06460 -0.16997 0.41546 -0.11531 0.05558 0.09184 0.11706 0.00118
M391 -0.01074 -0.23424 -0.05230 -0.12451 -0.00495 -0.41046 0.38664 0.22700 -0.09900 -0.15819 0.17185 -0.23445 0.37116 0.08324 0.02413 -0.15914
M372 0.03427 -0.09894 0.10093 -0.10855 -0.08509 -0.05702 -0.09667 -0.15478 0.03509 -0.20253 0.18631 -0.11712 -0.10233 -0.15390 0.00296 0.01981
N01@B -0.56577 0.55872 -0.17530 -0.03147 0.02106 0.12699 0.75246 0.30746 -0.60407 -0.01976 -0.26090 -0.01992 0.21033 0.88113 0.23869 -0.35253
N02 -0.55343 0.86334 -0.01252 0.30283 0.07310 -0.08991 0.38409 0.53178 -0.79903 -0.31676 -0.99649 0.21405 -0.09450 0.58022 0.11484 -0.53832
|M195+M057| -0.30498 0.09296 -0.07471 -0.04107 -0.04141 0.25721 0.19315 0.08845 0.00145 -0.13840 -0.06437 0.07757 -0.08138 0.55064 0.06766 -0.10471
M296 0.25682 -0.37154 0.08139 0.03139 0.08305 -0.30512 -0.17994 -0.25852 0.46718 -0.01631 0.15232 0.26260 0.06530 -0.37232 -0.00629 0.10091
M341 0.02641 -0.16214 -0.00680 -0.16728 -0.02355 -0.08037 0.01993 0.04703 -0.07961 0.03442 0.07094 -0.17097 -0.01604 -0.08332 -0.07582 -0.04101
M102~E 0.01158 -0.29558 0.00073 -0.13957 0.12245 -0.63984 0.38080 0.29351 0.01267 -0.24721 0.22693 -0.18337 0.46039 0.12262 0.01234 -0.23844
M203~A -0.01637 0.04444 -0.07812 -0.10030 -0.01970 -0.00603 0.08319 0.22835 -0.18278 0.17988 -0.03392 -0.25769 0.03244 0.06055 -0.13671 -0.06003
M327 -0.11693 0.06392 0.05239 -0.03113 0.14426 -0.20496 0.15311 0.23979 -0.07414 0.06847 -0.01888 -0.06895 0.18480 0.04611 -0.08601 0.00633
|M351+N14| 0.14872 -0.28382 -0.00640 -0.20580 -0.10289 -0.08812 -0.19868 -0.16323 0.01705 0.17137 0.05814 -0.06672 -0.14391 -0.27875 -0.14566 0.03011
M223 0.14578 -0.08440 -0.42308 0.09628 -0.12086 0.46213 -0.01717 -0.20463 0.44962 -0.05704 0.15014 -0.05250 -0.00526 0.19896 0.04717 0.58674
M266~B 0.14294 -0.24236 0.29027 0.07927 0.27496 -0.75080 0.14342 0.08112 0.28057 -0.24927 0.21901 0.32970 0.33797 -0.23418 0.11195 -0.26061
M380 -0.04736 -0.07938 -0.33623 0.08592 -0.04192 0.11504 -0.13183 -0.12585 0.05245 0.05704 -0.32842 -0.08890 -0.23903 -0.05255 0.28544 -0.02967
|M296+M296| -0.00941 -0.36396 -0.12944 -0.12720 -0.15470 -0.06456 0.29152 0.03015 -0.28023 -0.43898 0.25407 -0.10766 0.16923 0.24184 0.22721 -0.43143
M054~I -0.00420 0.20693 0.03345 -0.02990 0.07878 -0.13623 -0.07293 0.18191 0.17067 0.12903 -0.05906 -0.33144 0.04036 -0.15434 -0.28069 0.41196
M217 -0.14925 0.22260 -0.18482 0.01216 -0.12622 0.15120 -0.17258 0.08147 -0.24842 0.25221 -0.23513 -0.35541 -0.21335 -0.11730 -0.10900 -0.14835
M254~A -0.02378 -0.09816 -0.04632 -0.18349 -0.19583 0.13268 -0.02820 -0.18887 -0.21334 -0.05674 0.10206 0.00451 -0.17676 0.14019 0.05155 -0.22812
M325 0.06205 -0.11839 0.09219 -0.05861 0.10605 -0.22265 0.02137 0.02621 0.20594 0.04634 0.14790 0.11977 0.12272 -0.07983 -0.12372 0.11530
M048~C 0.02494 -0.05621 -0.14649 -0.05791 -0.15778 -0.01605 -0.16053 0.01911 -0.22252 0.07307 0.01164 -0.20922 -0.15601 -0.07806 0.00910 -0.33035
M260~1 0.03033 -0.32853 -0.09611 -0.17105 -0.05781 -0.29877 0.23162 0.11363 0.02364 -0.14185 0.22406 -0.23120 0.23414 0.07000 0.00757 -0.11424
M338~B 0.01882 -0.20369 -0.01177 -0.11943 -0.07623 0.09986 0.03335 -0.13365 -0.19275 -0.03517 -0.02963 -0.01147 -0.08108 -0.07147 0.05758 -0.07666
M340 -0.11962 -0.09172 -0.15672 -0.26310 -0.08694 -0.41310 0.31454 0.28480 -0.22775 -0.22632 -0.15266 -0.38743 0.05723 0.23048 -0.12935 -0.29917
|M218+M288| 0.15083 0.27692 0.09711 0.06465 -0.16761 0.50889 -0.59597 -0.27042 -0.02359 0.30675 -0.16151 -0.03867 -0.51248 -0.43305 -0.24405 0.31780
M111~A -0.13082 -0.14222 -0.07867 -0.09286 -0.13575 -0.08839 0.41535 0.06822 -0.07273 -0.31316 0.14427 -0.04258 0.29722 0.42329 0.09782 -0.05132
M242~B -0.20344 -0.09361 -0.00814 0.06263 -0.02546 0.16331 0.06428 0.08025 -0.53047 -0.05390 0.17769 -0.00812 0.29192 0.06022 0.13053 -0.25783
M262~1 -0.08927 -0.02520 -0.17573 -0.10391 -0.15993 0.41381 0.00437 0.00715 -0.23129 0.28391 0.11272 -0.07895 0.02778 0.09620 -0.17251 0.25643
M269~B 0.07710 -0.17985 0.02443 -0.12506 0.04294 -0.38176 0.21356 0.15728 0.02361 -0.03695 0.08590 -0.18245 0.25970 -0.00670 -0.08030 -0.05675
M301 -0.07794 -0.15610 0.02748 0.01486 0.01401 -0.18716 0.23411 0.21287 -0.37639 -0.30218 0.05522 -0.07141 0.16036 -0.01049 0.18917 -0.42937
M374~C -0.14152 0.41401 -0.14654 0.15766 0.06215 -0.32342 0.47251 0.56984 -0.42691 -0.03800 -0.35800 -0.54872 0.43533 0.25827 0.00979 -0.24973
M057~B 0.03432 -0.12624 -0.14942 -0.06657 -0.19285 0.12581 0.00420 -0.04811 -0.05967 0.02481 0.20535 0.00146 -0.02255 0.12240 -0.01650 -0.08624
|M131+M388| 0.07137 -0.46022 -0.08632 -0.12401 -0.14273 -0.15888 0.24514 -0.12866 -0.14565 -0.48261 0.35437 0.02494 0.20059 0.22364 0.33210 -0.44437
M264~A 0.04086 0.18996 0.02765 0.01838 0.12020 -0.17704 0.08194 0.21392 0.04923 -0.00828 -0.08494 -0.20684 0.14186 0.01546 -0.15473 0.16505
N24@B -0.06067 0.16058 0.02759 0.45554 0.29775 -0.32616 0.42640 0.00563 0.20361 -0.29213 -0.15918 0.59411 0.41058 0.30300 0.53833 -0.36052
|M305+M342| -0.10176 0.10246 -0.04611 0.00983 0.02371 -0.04339 0.22228 0.18375 -0.24715 -0.00609 -0.09170 0.05142 0.08547 0.22779 0.05018 -0.23821
M048~D -0.09928 0.06635 -0.25863 0.03563 -0.26908 0.15584 0.15570 0.04413 -0.54227 -0.13890 -0.06711 -0.22454 0.06692 0.29312 0.24961 -0.39134
M122 -0.16142 0.66019 -0.16408 -0.03380 0.00599 0.35181 -0.29788 0.13383 -0.03325 0.34494 -0.47276 -0.50269 -0.35822 0.07364 -0.37095 0.48988
M332~D -0.01369 -0.33152 -0.30401 -0.01382 -0.20138 0.12588 0.14524 -0.11246 -0.07844 -0.11838 0.12632 0.07252 0.03113 0.13639 0.22034 -0.15050
|M305+X| -0.02613 0.23307 0.02626 0.07571 0.08463 0.08509 -0.05721 0.19012 -0.01594 0.12118 -0.20713 -0.11641 -0.02049 0.07129 -0.06524 0.17098
M131 0.05396 -0.08828 -0.28197 -0.00404 -0.23065 0.25752 0.03745 -0.20224 0.01187 -0.26775 0.06534 -0.16331 -0.08398 0.22966 0.18739 -0.04439
M243~J 0.22127 -0.07959 0.27596 0.33212 0.29444 -0.07911 -0.18152 -0.34250 0.65255 -0.21864 0.08644 0.73609 0.05233 -0.18540 0.25088 0.21591
|M106+M288| 0.03990 -0.23342 0.05320 -0.06278 -0.06522 0.11807 0.09008 -0.12624 -0.09781 -0.01482 0.22193 0.22021 0.05890 -0.03086 0.03563 -0.03771
M102~D 0.02264 -0.15553 0.03644 -0.17908 0.02055 -0.11473 0.03614 0.09010 -0.04132 0.18612 0.10085 -0.01624 0.04161 -0.00381 -0.15267 -0.05492
M380~B 0.00730 -0.21344 -0.12639 0.03983 0.03686 -0.05501 -0.12964 -0.13618 -0.01519 0.04683 -0.20087 0.08426 -0.21157 -0.18307 0.27827 -0.30631
|M153+M342| -0.16199 0.18735 -0.04657 0.14099 0.11198 0.09012 0.25271 0.18810 -0.12270 -0.12126 -0.06390 -0.02326 0.20882 0.24436 0.10001 -0.09463
M038~BX -0.03844 0.37604 0.00680 0.23374 0.10011 -0.04638 0.11567 0.16435 -0.03801 -0.04566 -0.25123 -0.06927 0.14663 0.07458 0.01497 0.02725
M105~A 0.04029 -0.11134 -0.07720 -0.12895 -0.08746 -0.23974 0.14598 0.02315 -0.06554 -0.11784 0.05906 -0.29376 0.11030 0.08927 0.03638 -0.23969
M145 -0.09980 -0.08007 0.02067 -0.04169 0.06777 -0.40576 0.50816 0.30089 -0.16948 -0.31193 0.12603 -0.14911 0.44536 0.20575 0.07807 -0.22012
M195 -0.03373 0.34815 -0.05875 0.07649 -0.01899 0.33887 -0.25028 -0.02688 0.01901 0.24772 -0.21453 -0.01949 -0.24408 -0.05058 -0.18951 0.32431
M220 0.11434 -0.17985 -0.06231 0.00576 -0.06370 0.05034 0.08010 -0.11302 0.16911 -0.05554 0.16266 0.09243 0.05849 0.02028 0.05829 0.04564
M269~A 0.08430 -0.31142 -0.01576 -0.08662 -0.01167 -0.00049 -0.04809 -0.10057 0.02751 0.01961 0.13953 0.18516 -0.05560 -0.04835 0.07140 -0.13607
M292~F 0.06227 -0.11070 0.04117 -0.09567 0.03203 -0.00403 -0.12471 -0.06729 0.11433 0.17734 0.04059 0.07156 -0.06393 -0.12041 -0.13168 0.16670
N39B@C -0.39126 0.41202 -0.06307 0.36109 0.10621 0.05272 0.47755 0.19500 -0.10601 -0.22499 -0.07029 0.01318 0.31209 0.30987 0.40059 -0.26016
M128 -0.38885 0.15109 -0.19989 0.08757 -0.20224 0.41784 0.23469 0.11991 -0.61927 0.04840 -0.00390 -0.00496 0.17226 0.33435 0.09638 -0.25414
M387~CA -0.09394 0.13920 -0.05131 0.07763 0.01069 0.16849 -0.01386 -0.04783 0.04854 0.04558 -0.10005 0.08989 -0.03157 0.05737 0.00394 0.21768
|M036+N14| -0.11236 0.26297 0.06242 0.05301 0.12591 -0.03576 0.09361 0.24916 -0.08821 0.07397 -0.10263 -0.21549 0.14320 -0.01740 -0.12191 0.16206
|M327+X| -0.23120 0.40817 -0.02701 0.19396 0.08052 0.15258 0.21970 0.20216 -0.16646 -0.09810 -0.19166 0.01500 0.10333 0.34282 0.12725 -0.05899
M005 0.00825 -0.14699 0.04091 -0.01795 0.09995 -0.54006 0.32041 0.26301 -0.01590 -0.23042 0.09218 -0.19760 0.41241 0.04530 0.06729 -0.17723
M038~E -0.07936 0.06315 0.06362 -0.00947 0.11559 -0.30743 0.33292 0.28948 -0.19155 -0.09499 -0.04284 -0.09936 0.25850 0.16346 0.05950 -0.24336
M109 -0.03702 -0.12817 -0.02932 -0.01228 -0.03005 -0.08788 0.34983 0.08048 -0.18463 -0.23197 0.13207 -0.02976 0.24602 0.14832 0.16818 -0.20026
M250~BA -0.03836 -0.13125 -0.37011 0.11646 -0.20653 0.29242 0.25876 -0.05730 -0.03218 -0.17106 0.25829 0.25507 0.09968 0.35263 0.20490 -0.12025
M387~EE 0.13723 -0.18955 0.42696 0.21568 0.28939 0.05794 -0.14470 -0.12732 0.48580 -0.01052 0.13878 0.77689 0.00674 -0.07915 0.14955 0.10704
|M136+X| -0.11246 0.43242 -0.08797 0.09688 -0.07268 0.31189 -0.27356 -0.01492 -0.05038 0.23923 -0.31570 -0.21341 -0.27304 -0.06991 -0.11899 0.28990
M029~B -0.08700 0.20376 -0.00433 0.04587 0.01898 -0.17985 0.25077 0.23618 -0.25793 -0.13966 -0.12234 -0.15736 0.18650 0.18150 0.03704 -0.20088
M041 -0.10075 0.13751 0.02940 0.10979 0.12942 -0.24187 0.30808 0.29168 -0.05565 -0.07785 -0.06759 -0.09581 0.27807 0.13192 0.09661 -0.10498
M125 -0.03885 0.06191 0.04371 0.10494 0.15462 -0.05468 0.08193 0.07148 0.01070 -0.06487 -0.02594 0.16183 0.08542 0.09135 0.08906 -0.15613
M218~B -0.16369 0.05346 -0.01991 0.00284 -0.02602 0.12320 0.22533 0.11677 -0.34921 0.02215 -0.02033 0.09269 0.06783 0.16518 0.10224 -0.19880
M265~F -0.04572 -0.05969 0.25936 -0.06513 0.11965 -0.10523 -0.05870 -0.01053 0.09506 -0.00837 0.15652 0.15066 0.00535 -0.12441 -0.08092 0.05165
M286 0.01395 0.09077 -0.06490 0.12335 0.02923 -0.09800 0.10117 0.09718 -0.03508 -0.07851 -0.08962 -0.05066 0.11494 0.06013 0.09697 -0.09128
M318~A1 -0.25876 0.05867 -0.40203 0.28450 0.12354 -0.23513 0.35869 0.35764 -0.38691 -0.29702 -0.25042 -0.13693 0.13211 0.12842 0.54972 -0.64030
|M370~B+M072| -0.00971 -0.17187 0.02306 -0.03286 0.00675 -0.40119 0.30979 0.16387 -0.04000 -0.23882 0.10892 -0.13593 0.29454 0.08569 0.16939 -0.16331
M048~K -0.13003 0.14571 -0.01985 0.08926 -0.06971 -0.00419 0.18159 0.05847 -0.22523 -0.24997 0.04796 -0.01403 0.12706 0.16455 0.13144 -0.19421
M145~A -0.19835 -0.04312 -0.22599 0.08212 -0.02024 -0.01219 0.19793 0.07154 -0.15524 -0.09695 -0.17092 0.03882 -0.05782 0.11237 0.30489 -0.33070
M291 -0.13007 0.14213 -0.25544 0.04184 -0.17160 0.37894 -0.00928 -0.09995 -0.00163 -0.04275 -0.11306 -0.25774 -0.09788 0.14737 0.06582 0.31280
M292 -0.07042 -0.11368 -0.10474 -0.12627 -0.07664 -0.11029 0.23462 0.09322 -0.02360 -0.06728 0.08860 -0.22739 0.18213 0.17224 -0.05310 -0.00621
M338 0.06032 -0.19201 0.05911 -0.12847 -0.03256 0.19825 -0.27433 -0.24420 0.13835 0.23538 0.03840 0.29674 -0.30105 -0.05929 -0.03636 0.08546
N8B -0.05623 -0.14174 0.07220 -0.11542 0.12586 -0.40257 0.28690 0.24494 -0.00713 -0.11375 0.23082 -0.17619 0.33094 0.03342 -0.02710 -0.11799
M131~E -0.18027 0.09385 -0.09929 0.08401 -0.03110 -0.03228 0.28439 0.18377 -0.27667 -0.16324 -0.05594 0.02548 0.16347 0.32173 0.19245 -0.32607
M136~C -0.02110 0.16581 0.12584 -0.01754 -0.00728 -0.11363 0.08840 0.07981 -0.02634 -0.05994 0.00239 -0.10601 0.03202 0.10760 -0.01737 -0.07751
M147 -0.32353 0.22587 -0.09105 0.11805 0.02117 0.13114 0.33374 0.23232 -0.12004 -0.21473 -0.11726 0.04841 0.09959 0.53150 0.16299 -0.21661
M319 -0.18048 0.09805 -0.16586 0.00524 -0.01465 0.18105 0.11568 0.09638 -0.04916 0.02017 -0.01224 -0.11941 0.07063 0.20980 -0.02764 0.14619
M327~P -0.14220 0.08837 -0.00196 0.10615 -0.00030 0.07511 0.13865 0.04044 -0.21130 -0.06719 -0.06355 0.19166 0.05936 0.19302 0.18024 -0.23902
M328~B -0.18713 0.27026 -0.03678 0.09241 0.03388 0.03403 0.17554 0.19211 -0.26042 0.01123 -0.16115 -0.09673 0.11460 0.19968 0.07707 -0.07131
M362~A -0.01302 0.27928 0.02231 0.00954 0.00300 0.07134 -0.14031 0.03834 0.07505 0.11519 -0.09043 -0.16621 -0.11260 -0.07614 -0.15578 0.36756
M367~C 0.08868 0.30932 0.10468 -0.00372 0.14479 -0.02692 0.03912 -0.04336 0.19603 0.05590 -0.20452 -0.00108 0.08050 0.31574 -0.15230 0.00976
M369 -0.07085 0.22275 0.02695 -0.00421 0.08311 -0.05170 0.03480 0.20851 -0.06904 0.12241 -0.10617 -0.19870 0.04843 -0.02327 -0.15497 0.16446
N08 0.00027 -0.08246 0.09319 -0.10340 0.06105 -0.31850 0.26701 0.23591 -0.06824 -0.08527 0.19734 -0.06046 0.24504 0.06080 -0.08336 -0.18434
|M370~B+M388| 0.04108 -0.01582 0.00268 -0.01678 -0.00508 -0.04967 0.05218 -0.01514 0.06176 -0.05293 0.00124 -0.02982 0.03475 0.00057 -0.05027 0.00341
|M377+M320+M377| -0.15398 0.18022 0.00402 0.14508 0.03604 0.20880 0.05825 0.08967 -0.18118 0.04614 -0.13268 0.16241 -0.02183 0.19269 0.16354 -0.16846
M029~A -0.03286 0.34080 0.02160 0.17299 0.03887 0.18370 -0.10393 0.02633 -0.10192 0.08207 -0.31774 0.10719 -0.19303 0.01716 0.03295 -0.06328
M230 -0.07975 0.01707 0.05710 0.01779 -0.09268 0.19138 -0.14525 -0.05973 -0.29564 0.02423 0.05806 0.11375 -0.08196 0.01883 0.03515 -0.28000
M315 -0.11326 0.09099 0.02089 0.10392 -0.02301 0.20728 0.23503 0.09370 -0.20671 -0.16561 -0.03123 -0.01978 0.15865 0.21991 0.12705 -0.02836
M381 -0.10595 0.10776 -0.05862 0.04960 -0.01121 -0.18828 0.37728 0.22903 -0.20957 -0.14877 -0.04750 -0.12812 0.25504 0.17470 0.05348 -0.25244
M384~AB -0.11208 0.44011 -0.03828 0.04425 0.04569 0.15094 -0.01472 0.19868 -0.10115 0.19935 -0.26559 -0.28878 -0.02997 0.08077 -0.18745 0.29070
M387~I -0.47008 0.77288 -0.34202 0.20978 0.04416 0.19745 0.70743 0.54262 -0.29844 -0.02892 -0.42065 -0.34134 0.33717 0.88272 0.08869 -0.01879
N34@B 0.09895 0.01331 0.04248 0.26553 -0.06694 0.01213 0.37895 0.20062 -0.42547 -0.55410 0.24637 0.41169 0.39396 0.36398 0.12774 -0.76765
N51G 0.05984 0.49619 0.07037 -0.00965 0.26783 0.16575 0.04630 -0.03041 0.29570 0.29801 -0.33659 0.08385 0.06341 0.48922 -0.27296 0.21978
|M036+N30C| -0.03675 0.08266 0.22304 0.03900 0.13830 0.10053 -0.03413 -0.02651 0.17949 0.04354 0.10669 0.22466 0.01715 -0.03743 -0.09176 0.23341
M010 -0.04906 -0.10720 0.49031 0.12865 0.30743 -0.03204 0.10411 -0.01881 0.28551 -0.09067 0.33966 0.80526 0.20998 0.05952 -0.00001 -0.06023
M038~A -0.08855 0.02105 0.05606 0.05321 0.03703 0.04362 -0.01732 0.01161 -0.14933 0.02660 -0.07579 0.21423 -0.02950 0.09548 0.08617 -0.26277
M051~B -0.17109 0.16023 -0.06886 0.12835 -0.00095 -0.19977 0.42959 0.29471 -0.25066 -0.18027 -0.10458 -0.09296 0.28608 0.28171 0.20297 -0.31095
M136 -0.11592 0.11786 -0.10055 -0.09568 -0.06940 0.19520 -0.18397 -0.08346 -0.08739 0.16710 -0.12542 -0.15416 -0.20738 0.07018 -0.05302 0.08812
M281~F -0.18430 0.08110 -0.00598 0.09644 0.04612 -0.08089 0.18820 0.20753 -0.41470 -0.02963 0.00961 0.01453 0.25438 0.11728 0.14093 -0.32535
M346~A 0.03046 -0.04708 -0.04271 0.03591 0.01236 -0.25925 0.24409 0.13712 -0.03288 -0.15792 0.05793 -0.11184 0.27429 0.07141 0.04216 -0.15127
N30D@B -0.19217 0.29370 0.03695 0.20062 0.10643 0.11495 0.00686 0.07339 -0.12531 -0.03551 -0.14922 0.28567 -0.05309 0.22441 0.16948 -0.25507
|M217+M388| -0.00361 -0.08932 0.05791 0.00432 0.02242 -0.32752 0.27932 0.19255 -0.13167 -0.25300 0.13400 -0.15832 0.33835 0.02034 0.07849 -0.09705
|M218+M320| -0.06788 0.15481 -0.20538 0.23478 -0.00566 0.05073 0.10292 -0.02039 0.01954 -0.10632 -0.27700 0.15812 -0.09827 0.17394 0.35962 -0.21813
M003 0.08246 -0.24158 0.06114 -0.03536 0.06511 -0.41416 0.22222 0.13253 -0.01071 -0.14079 0.09768 -0.00356 0.31375 -0.02009 0.03598 -0.17929
M044 0.09566 -0.12221 0.11626 0.14527 0.19078 -0.20831 -0.04412 -0.02675 0.25895 -0.13068 0.07894 0.31553 0.12787 -0.07743 0.10920 -0.05253
M050~K -0.20923 0.05527 0.44555 0.07867 0.26082 0.01537 0.25486 0.16079 0.04964 0.01337 0.23422 0.58624 0.19657 0.11858 0.01521 -0.03479
M057~B1 -0.21501 0.13906 -0.07725 0.09086 -0.04423 0.26937 0.18085 0.05835 -0.18654 0.02859 0.01834 0.20564 0.00227 0.29287 0.15600 -0.15121
M069~A -0.01468 -0.10054 -0.07555 -0.08146 -0.22861 0.29717 -0.09860 -0.22645 0.03346 -0.00078 0.25953 0.18517 -0.15406 0.06118 -0.08291 0.08237
M073~B -0.22149 0.10239 -0.04071 0.06722 0.07868 -0.07077 0.33060 0.29159 -0.34182 -0.07060 -0.10363 -0.00043 0.21053 0.25155 0.16922 -0.26737
M144 -0.05126 -0.03459 -0.00314 0.00096 0.03184 -0.05824 0.04735 0.06342 -0.11934 0.06603 -0.08989 0.07862 -0.01227 0.01942 0.03978 -0.25402
M149~A2 -0.02615 0.06400 0.05113 0.04690 0.06705 -0.16566 0.11054 0.15169 -0.01022 -0.07298 0.00545 -0.01494 0.12912 0.05367 0.02232 -0.05263
M207 -0.12639 0.35038 0.01873 0.06820 0.09382 0.16696 -0.06677 0.09942 -0.05807 0.17040 -0.15817 0.01526 -0.11214 0.04386 -0.07240 0.19748
M221 0.01815 0.07702 0.17266 0.21557 0.19510 0.02601 -0.09160 -0.02615 0.18114 -0.00300 -0.02821 0.34025 0.03641 -0.11089 0.06233 0.05486
M222 -0.05710 0.10539 -0.20914 0.12188 -0.09254 0.19411 0.11910 0.00485 -0.00626 -0.09798 -0.07435 -0.11499 0.06794 0.14446 0.06735 0.12422
M228~GA -0.08859 0.49038 0.06173 0.16117 0.12128 0.26714 -0.08039 0.12633 -0.04301 0.17475 -0.27447 0.05232 -0.07905 0.12682 -0.10568 0.28778
M240~E -0.22531 0.25333 -0.02832 0.16370 0.07657 0.03681 0.21103 0.24176 -0.32786 -0.00048 -0.12886 0.00722 0.18036 0.28394 0.19100 -0.32964
M269 -0.09698 0.11101 -0.12993 0.07816 -0.01141 -0.14325 0.22271 0.15641 -0.10056 -0.08091 -0.07187 -0.26337 0.20613 0.08168 0.07940 -0.10476
M297~D 0.16762 -0.10007 0.12622 0.11614 0.17306 -0.33041 0.02177 -0.04486 0.34093 -0.09275 0.09004 0.20612 0.16686 -0.15505 0.06740 -0.01018
M367~A -0.02406 -0.07865 -0.02702 0.03747 0.06161 -0.37075 0.36556 0.21026 -0.01195 -0.27713 0.13472 -0.09510 0.34083 0.11654 0.11769 -0.20495
M384~D -0.19712 0.07392 -0.11063 -0.02402 -0.02941 -0.14285 0.42981 0.29293 -0.33660 -0.14700 -0.07577 -0.08863 0.20050 0.35166 0.11230 -0.31506
N(N01) -0.05451 0.24330 0.14584 0.06842 0.08323 0.07728 -0.17362 0.03810 0.02222 0.17053 -0.17644 0.07926 -0.10971 -0.04946 -0.07572 0.20854
N46 -0.31262 0.95009 -0.28015 0.45783 0.12308 0.27331 0.35081 0.52563 -0.62704 0.01552 -0.76202 -0.24941 0.09939 0.44717 0.19089 -0.25018
|M175+M288| -0.21410 0.31612 0.03747 0.19891 0.13145 -0.04595 0.32402 0.27269 -0.22067 -0.15361 -0.10635 0.14731 0.22511 0.35652 0.14674 -0.30290
|M370+M072+M370| -0.05227 -0.07469 -0.02203 0.01983 0.03319 -0.13824 0.24076 0.08627 -0.06102 -0.15512 0.02897 -0.01353 0.20644 0.15996 0.10141 -0.25218
M002~B -0.21157 0.14298 0.45095 0.25824 0.35447 0.08077 0.15864 0.15790 0.04488 -0.12059 0.20548 0.74441 0.24943 0.18101 0.09574 -0.10034
M035 -0.07802 0.09345 -0.07729 0.10045 -0.09960 0.12782 0.28684 0.06691 -0.27914 -0.24912 -0.06866 -0.13291 0.12240 0.16298 0.19363 -0.16596
M051~A -0.20308 0.26795 -0.08297 0.04832 0.00810 0.07653 0.21532 0.16838 -0.19738 -0.01391 -0.15380 -0.12646 0.11426 0.28229 -0.00501 -0.08411
M051~C -0.06671 -0.01628 -0.08736 0.00028 0.00318 -0.19400 0.23697 0.18315 -0.15939 -0.02299 -0.04056 -0.13769 0.18419 0.04422 0.06092 -0.12326
M053~A -0.02766 -0.00605 0.03367 0.05175 0.03293 -0.29193 0.26073 0.17508 -0.03788 -0.17724 0.06621 -0.08649 0.25109 0.00784 0.06480 -0.15045
M056 0.06270 0.04411 -0.02466 0.16432 0.07083 -0.09553 -0.09165 -0.01262 0.07459 -0.09867 -0.08554 0.07095 0.03681 -0.05202 0.12294 -0.08070
M110 -0.13951 0.03312 -0.07324 0.16018 0.08521 0.03479 0.15624 0.07279 -0.11110 -0.08555 -0.12681 0.26476 0.04662 0.19832 0.26669 -0.29252
M223~B -0.00608 0.06092 -0.12545 0.15796 -0.11179 0.20964 0.21139 -0.02017 -0.08550 -0.26760 0.05388 0.10330 0.11443 0.29826 0.18018 -0.17939
M263~B -0.05231 -0.00683 0.04056 -0.00659 0.04461 -0.13010 0.06920 0.09473 -0.00735 0.08918 -0.01336 0.05333 0.09312 0.01392 -0.02552 -0.03637
M264~B -0.02264 0.04117 0.04997 0.05995 0.05381 -0.22210 0.20665 0.16037 -0.00183 -0.09187 0.04632 -0.04669 0.22903 0.02838 0.02220 -0.01929
M269~2 -0.05040 0.07720 0.02514 0.09760 -0.03247 0.28908 -0.20734 -0.14606 -0.03434 0.10598 -0.09169 0.22071 -0.22700 -0.02164 0.09208 -0.04297
M269~A1 -0.03097 -0.16349 -0.01623 0.01064 0.07063 -0.27611 0.27459 0.15284 -0.02477 -0.14274 0.10054 0.01035 0.29610 0.12933 0.12301 -0.22352
M310 -0.15055 -0.01697 -0.02390 0.08578 0.07375 -0.19821 0.37036 0.20828 -0.12340 -0.16874 -0.00202 0.01343 0.31772 0.19651 0.17366 -0.20222
M325~D -0.11650 0.09454 0.00140 0.07934 0.04166 -0.05854 0.25141 0.15152 -0.12828 -0.08505 -0.03965 0.06606 0.16543 0.19796 0.11681 -0.13823
M341~Q -0.02415 -0.09025 0.00402 0.00924 -0.05969 0.15042 -0.06751 -0.14837 -0.11123 0.02628 0.01979 0.27283 -0.12195 0.05132 0.14145 -0.19161
M346~B -0.02557 -0.15687 0.02855 -0.00170 0.04973 -0.35796 0.27617 0.18727 -0.01478 -0.11937 0.09469 -0.01333 0.28642 0.02333 0.05891 -0.19421
M417~H 0.08287 -0.07518 0.07212 -0.04398 0.03778 -0.10532 -0.06853 0.01647 0.08710 0.09694 0.04639 0.05236 -0.01970 -0.08688 -0.07387 0.02764
|M036+N24| 0.02161 0.03502 0.04004 0.03184 0.09364 -0.28330 0.19486 0.19083 0.03395 -0.08609 0.10720 -0.06442 0.23958 0.00874 -0.04193 -0.06874
|M106~2+M288| -0.21909 0.41739 0.04198 0.24299 0.10337 0.14321 0.07571 0.17139 -0.31579 0.00228 -0.36087 0.28538 -0.06968 0.23338 0.15152 -0.26758
M001~B -0.14236 0.39474 -0.16039 0.19387 -0.00189 0.03475 0.27765 0.22678 -0.17273 0.01114 -0.30610 -0.12878 0.13525 0.27157 0.09318 -0.07637
M009~A -0.13941 0.25627 -0.06301 0.15209 0.02189 0.02678 0.12633 0.05928 -0.10171 -0.07118 -0.11008 0.06363 0.01603 0.14452 0.13352 -0.22098
M024~1 -0.23944 0.25874 -0.22233 0.23308 0.02695 0.13341 0.31612 0.21091 -0.29881 -0.11501 -0.29853 0.00205 0.10198 0.38308 0.30377 -0.39850
M041~G -0.17548 0.33597 0.04104 0.17677 0.03870 0.15981 0.09729 0.09969 -0.21561 -0.01058 -0.14919 0.16308 -0.01372 0.16681 0.10538 -0.14938
M056~E -0.03495 0.67811 0.04415 0.28023 0.02750 0.43715 -0.37509 0.08092 -0.25871 0.31600 -0.51220 -0.02413 -0.39101 -0.27193 -0.16671 0.21049
M061 -0.09653 0.19641 -0.10401 0.01176 -0.00083 -0.04205 0.19606 0.17693 -0.10764 -0.03778 -0.12252 -0.28236 0.10097 0.14972 0.02290 0.03610
M136~B -0.10923 0.15353 -0.03132 0.10854 0.03429 -0.02026 0.18514 0.10910 -0.13256 -0.17691 -0.04460 -0.00957 0.12763 0.18865 0.11851 -0.18383
M136~I -0.16507 0.19091 -0.06247 0.07088 0.01180 -0.02732 0.16988 0.22159 -0.17861 -0.02637 -0.11309 -0.13788 0.11818 0.16460 0.03400 -0.08682
M210~G -0.05051 0.22676 -0.00718 0.13761 0.05537 -0.02715 0.07346 0.07248 -0.00160 -0.05259 -0.17062 0.08916 0.03387 0.15371 0.04919 -0.05978
M230~A -0.23465 0.19376 -0.03715 0.10320 0.11096 0.07130 0.24119 0.28638 -0.33132 0.02523 -0.11880 0.00105 0.18299 0.25239 0.11590 -0.18068
M242~AB -0.04217 0.15494 -0.00730 0.00940 0.02459 0.06031 0.03044 0.08889 -0.20888 -0.02511 -0.04875 -0.14701 0.02849 0.08591 0.02052 -0.10931
M247~G -0.21231 0.22825 -0.08317 0.17607 0.01408 0.15863 0.16413 0.09566 -0.17894 -0.12523 -0.11642 0.01890 0.06154 0.18446 0.14388 -0.19059
M265 0.13440 -0.02065 0.12298 0.19088 0.16412 -0.19057 0.04538 -0.05746 0.24485 -0.18073 0.04246 0.26485 0.18770 -0.00112 0.17711 -0.00376
M295 -0.02362 -0.00708 -0.22514 0.17195 -0.04223 0.10228 0.25808 0.04012 -0.02693 -0.15341 0.05682 0.06062 0.24378 0.27990 0.20242 -0.08399
M316~E2 -0.07529 0.15049 -0.07998 0.11208 0.08008 -0.05410 0.18760 0.17175 -0.08300 -0.06392 -0.07906 -0.04060 0.13446 0.13728 0.10756 -0.09652
M318~A -0.24351 0.33009 -0.15887 0.21666 0.06974 0.14258 0.14359 0.20330 -0.33392 -0.01348 -0.28944 -0.03039 0.05542 0.20639 0.18934 -0.19629
M323 -0.10791 0.10423 0.06887 0.02161 0.05328 -0.14957 0.29071 0.18829 -0.20228 -0.15936 0.01539 0.06374 0.17971 0.23584 0.09829 -0.28470
M373~A -0.15821 0.15219 -0.05468 0.08370 0.09928 -0.16772 0.30756 0.27990 -0.17580 -0.13865 -0.08772 -0.07722 0.25909 0.24478 0.11476 -0.11611
M379 -0.00027 0.03006 0.24743 0.15970 0.23768 -0.13202 0.05571 0.00510 0.27173 -0.08785 0.11236 0.36798 0.18803 -0.01109 0.05432 0.06242
M384 -0.23655 0.44691 -0.08279 0.13827 0.05644 0.24503 0.07610 0.23325 -0.25152 0.16882 -0.30241 -0.03567 -0.03867 0.22190 -0.00607 0.04083
|M195+M038~A| -0.14121 0.30689 0.03033 0.20981 0.10553 0.17961 0.09820 0.15135 -0.17186 -0.01170 -0.20481 0.08258 -0.01469 0.04266 0.11638 -0.10192
|M288+N01| -0.06289 0.01472 0.07707 -0.00256 0.04052 -0.08281 0.05870 0.14076 -0.18565 -0.02777 0.07343 -0.15128 0.17421 -0.10097 -0.05184 0.00237
|M305+M136| -0.16018 0.15938 -0.10223 0.11478 0.00990 -0.02675 0.34655 0.21245 -0.24894 -0.05591 -0.09290 0.01188 0.20960 0.27466 0.16071 -0.20909
|M327+M059| -0.11846 0.22813 -0.01733 0.23090 0.10979 0.06208 0.15008 0.16315 -0.12676 -0.06186 -0.09800 0.15773 0.16158 0.22393 0.18470 -0.11995
|M370+M388+M370| -0.03151 0.05433 0.06271 0.01407 0.04740 -0.09916 0.11948 0.12242 -0.05756 -0.01174 -0.00147 -0.00048 0.11912 0.06463 -0.00021 -0.03845
M006@G -0.08828 0.09744 -0.00467 0.05798 0.03585 -0.13146 0.17159 0.16865 -0.09639 -0.12596 -0.01426 -0.08092 0.18311 0.11566 0.04451 -0.04146
M047 -0.24965 0.27248 -0.13882 0.15874 -0.01252 0.07960 0.31500 0.22573 -0.34217 -0.11928 -0.12985 -0.02411 0.15620 0.37218 0.20802 -0.33272
M058 -0.30430 0.23366 -0.03243 0.19061 0.13610 -0.06332 0.34073 0.33180 -0.36949 -0.27387 -0.12503 0.03941 0.16903 0.35834 0.34631 -0.55472
M075~G -0.07152 0.00946 -0.02930 0.11667 0.04673 -0.16421 0.19321 0.16356 -0.09146 -0.14315 0.00658 -0.01811 0.19553 0.05851 0.15140 -0.19670
M080~A -0.21215 0.10170 -0.15901 0.15016 -0.06535 0.06027 0.49747 0.16281 -0.23750 -0.28602 -0.05861 -0.01855 0.27617 0.40740 0.30546 -0.21836
M103 -0.20220 0.27251 -0.04615 0.20556 0.01573 0.16579 0.33783 0.17726 -0.27998 -0.10719 -0.13634 0.22789 0.08122 0.36513 0.24983 -0.31951
M147~E -0.47242 0.34862 -0.13190 0.25907 0.08281 0.21940 0.58197 0.32885 -0.31501 -0.25300 -0.15388 0.26293 0.23725 0.76439 0.38390 -0.41288
M205~C -0.04600 0.07923 0.05746 0.20552 0.12327 -0.09190 0.23164 0.13368 -0.01874 -0.14284 0.00794 0.16945 0.22623 0.09539 0.20220 -0.16277
M208 -0.13056 0.19363 -0.11130 0.13612 0.03377 -0.04761 0.26697 0.25338 -0.25283 -0.08434 -0.13635 -0.12991 0.17748 0.13755 0.12734 -0.17673
M210 -0.11329 0.25486 -0.04128 0.15308 0.09682 0.06296 0.20695 0.17256 -0.05139 -0.02486 -0.16939 0.01196 0.11604 0.15425 0.04739 0.04085
M210~D -0.21405 0.25800 0.02057 0.10944 0.12414 -0.02501 0.37579 0.27926 -0.25326 -0.09181 -0.07152 -0.01901 0.26389 0.30166 0.08431 -0.27128
M226~C -0.27090 -0.01342 -0.10174 0.03884 0.00421 0.10125 0.23464 0.06253 -0.18437 -0.05345 -0.00276 0.16791 0.06977 0.27584 0.22985 -0.21863
M251~C -0.18282 0.11225 -0.16747 0.17484 0.10385 0.02026 0.20879 0.13144 -0.12713 -0.04230 -0.18842 0.14761 0.08534 0.27476 0.25586 -0.28289
M254~C -0.20097 0.27603 -0.15058 0.23590 0.02765 0.12977 0.18398 0.15755 -0.18958 -0.10867 -0.27889 0.00334 0.04255 0.24210 0.25588 -0.16934
M261~B1 0.00094 0.05113 0.07016 0.05427 0.05242 -0.06321 0.04353 0.03888 0.00772 -0.03909 -0.00661 0.04140 0.02630 -0.02046 0.05694 -0.07702
M311~B -0.08740 0.22204 0.28916 0.29035 0.32883 0.03094 -0.00593 0.06329 0.14635 -0.00317 -0.00452 0.56698 0.08538 0.01180 0.12416 -0.03333
M312 -0.08584 0.22061 0.02979 0.11198 0.07895 0.08530 0.02808 0.06331 0.01581 0.04394 -0.10008 0.03575 0.03483 0.08211 -0.01028 0.05073
M318 -0.08260 0.14354 -0.16552 0.13920 -0.00892 -0.03398 0.05723 0.01418 -0.12182 -0.08015 -0.20865 -0.12521 -0.05104 0.02418 0.24353 -0.27288
M367~G 0.05286 -0.02805 0.05476 -0.01303 0.00180 -0.11828 -0.00117 0.00674 -0.02170 -0.08297 0.00657 0.00213 0.00961 -0.05530 -0.00254 -0.02034
M367~I -0.02570 0.05451 -0.02367 0.02993 -0.01898 -0.08066 0.06874 0.05195 0.00269 -0.08764 0.03386 -0.07786 0.09370 0.07558 0.03010 -0.02837
M383 -0.25821 0.43261 -0.00172 0.13905 0.07661 0.09090 0.12765 0.25670 -0.17742 0.07833 -0.18228 -0.05364 0.02987 0.19907 0.02038 0.00105
M418~C 0.05749 -0.06323 0.03244 -0.06065 -0.02093 -0.01622 -0.11009 -0.03434 0.04559 0.01700 0.02796 -0.06598 -0.05894 -0.07999 -0.06309 0.08101
N51@B 0.03717 -0.05045 0.00334 0.12031 0.07857 0.10731 0.01170 0.04119 -0.05624 0.01564 -0.02834 0.08672 0.13792 -0.03714 0.02648 -0.00563
|M175+M136| -0.30548 0.50064 -0.06798 0.29074 0.18179 -0.11430 0.41855 0.39482 -0.35279 -0.12810 -0.29957 0.04180 0.26009 0.36355 0.21099 -0.42574
|M370+M046+M370| -0.03824 0.09614 -0.00064 0.06107 0.06168 -0.12259 0.13823 0.13543 -0.11505 -0.07355 -0.06984 -0.00581 0.14486 0.12666 0.05848 -0.10437
|M377+M377| -0.06466 0.13283 0.06161 0.14932 0.03758 0.00008 0.10215 0.03287 -0.16354 0.00108 -0.08953 0.30502 0.00083 0.08536 0.17031 -0.29185
M003~C -0.14789 0.24990 -0.12239 0.15116 0.12307 -0.08029 0.24021 0.21327 -0.14545 -0.07027 -0.20613 -0.05184 0.11249 0.17162 0.14584 -0.18640
M057~A2 -0.03634 0.09353 0.00567 0.10199 0.04782 -0.14254 0.14073 0.10316 -0.07679 -0.10675 -0.03903 0.06647 0.13191 0.10328 0.09196 -0.21339
M057~A4 -0.14924 0.21734 -0.00347 0.11847 0.02815 -0.17297 0.34279 0.25134 -0.26594 -0.10822 -0.12511 -0.00275 0.21345 0.20305 0.12608 -0.25130
M103~3 -0.14375 0.32077 -0.02957 0.19732 0.02618 0.11614 0.16919 0.12746 -0.16874 -0.07705 -0.17535 0.12279 -0.02319 0.19706 0.18021 -0.21270
M110~A -0.19818 0.08597 -0.14159 0.14588 0.00812 0.05948 0.41708 0.17663 -0.21279 -0.25388 0.05571 0.08903 0.29643 0.42004 0.23429 -0.26169
M115~A -0.24061 0.37967 -0.06764 0.23078 0.05982 0.01557 0.23754 0.24449 -0.34195 -0.09631 -0.22254 0.01744 0.13069 0.27390 0.19314 -0.34205
M146~D -0.22580 0.24116 -0.04179 0.16057 0.06219 -0.04617 0.30225 0.21221 -0.24348 -0.06423 -0.15014 0.04285 0.18880 0.22483 0.15067 -0.25610
M149~A1 -0.14204 0.20230 -0.01307 0.14343 0.04031 0.01956 0.18687 0.11738 -0.12684 -0.08041 -0.04361 0.09852 0.14086 0.16348 0.08443 -0.10036
M195~D -0.12630 0.31923 0.03562 0.12280 -0.01445 0.31911 -0.06097 0.03530 -0.19418 0.12677 -0.20413 0.10031 -0.14010 0.06652 -0.03391 -0.01129
M206~B -0.11863 0.19139 0.00586 0.14785 0.10380 -0.07884 0.18884 0.15110 -0.10279 -0.11837 -0.10281 0.04156 0.21013 0.18107 0.08762 -0.10440
M246~B -0.10797 0.16005 -0.05859 0.11509 -0.01921 -0.04889 0.32123 0.16007 -0.24975 -0.23173 -0.10396 -0.19095 0.22766 0.19909 0.18514 -0.19656
M263~E -0.05149 0.07192 0.03660 0.05909 0.14699 -0.16453 0.17710 0.19651 0.00326 -0.02483 -0.03917 -0.01816 0.16219 0.02064 0.00675 -0.05422
M264~D -0.09753 0.16248 -0.02173 0.08153 0.03559 -0.04466 0.22712 0.16355 -0.19092 -0.09039 -0.05464 0.02842 0.15621 0.23930 0.12880 -0.15296
M281~C -0.14574 0.10128 0.00947 0.09560 -0.04886 0.00577 0.19931 0.03299 -0.25035 -0.26218 0.00600 0.03267 0.11838 0.21722 0.21480 -0.31386
M285~C 0.02475 -0.01178 -0.13621 0.05526 -0.05219 0.00756 -0.00077 -0.01377 -0.08861 0.04840 -0.09071 0.07066 -0.05416 0.01072 0.07959 -0.18777
M309~D -0.11172 0.20965 -0.02272 0.08183 0.06281 -0.01362 0.19728 0.16238 -0.04605 -0.05738 -0.10094 -0.12750 0.13566 0.15173 0.03805 0.03599
M317~A -0.19819 0.25438 -0.07302 0.17378 0.07318 0.04125 0.19842 0.14552 -0.21866 -0.10450 -0.11530 0.07795 0.15213 0.26288 0.18738 -0.15975
N39A -0.44529 0.70080 0.03491 0.48252 0.22220 0.13713 0.50546 0.53432 -0.27651 -0.20908 -0.33543 0.06338 0.29275 0.50070 0.26167 -0.36158
|M153+X| -0.09312 0.13829 0.05981 0.09594 0.03729 0.01290 0.09558 0.06851 -0.11262 -0.03768 -0.06710 0.11155 0.06462 0.07572 0.05058 -0.12955
|M218+M101| -0.07776 -0.06060 -0.23619 0.15783 -0.00642 -0.16992 0.40779 0.17225 -0.08571 -0.30645 0.01401 -0.08535 0.26585 0.23590 0.36769 -0.37024
M010~1 -0.19734 0.29603 0.01694 0.20997 0.13738 0.17208 0.15523 0.17947 -0.19851 -0.05905 -0.11404 0.25187 0.09197 0.28601 0.11728 -0.19120
M010~6 -0.14246 0.20141 0.05281 0.11557 0.06909 0.04060 0.12134 0.13310 -0.10915 -0.01074 -0.03062 0.14512 0.07452 0.18466 0.06300 -0.14467
M038~A2 -0.21031 0.29568 -0.04750 0.18741 0.05697 0.19793 0.18748 0.14685 -0.17942 -0.02389 -0.16190 0.16015 0.05591 0.30402 0.14751 -0.11451
M038~B1 0.04854 0.10840 0.08687 0.16139 0.04755 -0.15080 -0.00609 0.02728 -0.01052 -0.06905 -0.14608 0.17152 0.00742 -0.09212 0.07513 -0.14717
M049~D -0.20239 0.22014 -0.08719 0.14202 0.05397 0.14580 0.23576 0.12602 -0.15009 -0.03265 -0.10609 0.13467 0.08184 0.31115 0.15177 -0.19474
M075~M -0.04128 0.28529 0.13071 0.36780 0.21838 0.06728 0.00287 -0.01687 0.15148 -0.09947 -0.13414 0.46452 0.08959 0.12757 0.22746 -0.06592
M075~O 0.09342 0.07696 0.13225 0.18274 0.11605 0.20609 -0.27301 -0.25523 0.24847 -0.05209 -0.07772 0.39469 -0.17363 -0.07697 0.09619 0.10994
M096~D -0.13295 0.10767 -0.11101 0.14798 0.02071 -0.04382 0.21931 0.19707 -0.15925 -0.13272 -0.06778 -0.01766 0.12112 0.17677 0.18840 -0.28292
M110~B -0.11413 0.18536 -0.02485 0.18206 0.08435 0.00866 0.12603 0.10591 -0.14799 -0.12009 -0.18769 0.02565 0.03552 0.08188 0.20299 -0.26407
M112 -0.17137 0.30054 0.00756 0.22733 0.15109 -0.06950 0.34384 0.30601 -0.19936 -0.13161 -0.17865 0.00527 0.28353 0.29298 0.20468 -0.15760
M128~D -0.36645 0.29988 -0.18259 0.26856 0.01362 0.06474 0.57435 0.21131 -0.31043 -0.34530 -0.08631 0.04733 0.36921 0.60650 0.43642 -0.40938
M143 -0.16914 0.10137 -0.05302 0.11818 0.05269 -0.13539 0.31532 0.17314 -0.15517 -0.15723 -0.03686 0.07474 0.21796 0.24761 0.20382 -0.29007
M158~H -0.19970 0.19858 -0.09780 0.18892 0.03666 0.11988 0.17144 0.11404 -0.18622 -0.03748 -0.11414 0.21898 0.08184 0.23304 0.17439 -0.17854
M180 -0.12722 0.24681 -0.00377 0.19149 0.06766 0.22930 0.11483 0.10877 -0.17494 0.03408 -0.18257 0.18871 0.00371 0.20813 0.15866 -0.11954
M193 -0.11403 0.19282 -0.00569 0.09901 0.09098 -0.08484 0.23732 0.19227 -0.10393 -0.09303 -0.11350 0.05261 0.16189 0.21441 0.04516 -0.11047
M243 -0.06517 0.10694 -0.06058 0.10654 0.04382 -0.11711 0.21034 0.13079 -0.03315 -0.10861 -0.05287 -0.01880 0.18498 0.19595 0.12134 -0.15006
M246 -0.14429 0.05236 -0.12202 0.10165 0.05640 -0.15592 0.50936 0.31490 -0.18436 -0.20649 0.03621 -0.07734 0.36705 0.29846 0.18363 -0.25619
M288~I -0.02011 -0.07889 0.08765 -0.00407 0.01112 -0.16375 0.16677 0.11473 -0.09340 -0.02507 0.10126 -0.01037 0.19509 -0.00529 0.04889 -0.08308
M294~A -0.00768 -0.14072 0.20738 -0.05241 0.08761 0.03752 -0.01199 -0.06164 0.13945 0.01743 0.18652 0.27153 0.00869 -0.07799 -0.05857 0.12214
M298 -0.17033 0.08012 -0.08205 0.11542 0.07453 -0.07231 0.27841 0.19896 -0.22517 -0.11749 -0.05751 0.03147 0.21288 0.18411 0.17813 -0.24861
M309 -0.14744 0.10948 0.00354 0.08824 0.05657 0.00827 0.23388 0.15108 -0.19527 -0.02646 -0.12481 0.13858 0.10265 0.26143 0.14295 -0.29912
M346~D -0.08707 0.37997 0.04566 0.16443 -0.02209 0.39819 -0.37057 -0.08818 -0.05794 0.20842 -0.27261 0.02615 -0.34790 -0.20878 -0.08344 0.26195
M356 -0.22412 0.36445 -0.00714 0.13462 0.07653 0.07860 0.13577 0.23769 -0.28653 0.00572 -0.24931 -0.04082 0.04458 0.19447 0.07439 -0.08294
M376~B -0.06324 0.15598 -0.04126 0.09255 0.03421 -0.15243 0.23413 0.17606 -0.09177 -0.10460 -0.06455 -0.10339 0.19513 0.09718 0.06288 -0.04393
M379~C -0.21625 0.19701 0.31649 0.18768 0.23551 0.12804 0.11628 0.06971 -0.02491 -0.03923 0.07867 0.55006 0.10643 0.13441 0.05854 -0.13490
N1B 0.02388 0.05536 -0.02193 0.05194 -0.03177 0.09269 -0.05313 0.01692 -0.08492 -0.17229 0.04828 -0.11697 0.04780 0.05532 0.04634 0.05216
|M036+N39C| 0.07429 -0.06213 0.20535 0.09648 0.11070 -0.05209 0.02473 -0.00508 0.08542 -0.10124 0.05322 0.29239 0.09841 -0.01451 0.04600 -0.03412
|M175+M175| -0.19355 0.21152 -0.07527 0.15332 0.05788 0.03694 0.28850 0.22692 -0.19901 -0.11942 -0.11409 0.01826 0.16972 0.31317 0.17950 -0.19618
|M218~D+M288| -0.19506 0.27418 -0.03940 0.22207 0.03427 0.05701 0.25117 0.19766 -0.26707 -0.09128 -0.16512 0.10245 0.16166 0.26172 0.21160 -0.18558
|M260~1+N24| -0.02477 0.10351 -0.03293 0.12367 0.10010 -0.12232 0.17791 0.18881 -0.07425 -0.04255 -0.01919 -0.04545 0.23443 0.04099 0.03858 -0.07176
|M260~2+N24| -0.21277 0.22959 -0.09264 0.14380 0.07243 -0.07942 0.30091 0.30106 -0.22823 -0.10371 -0.08577 -0.14448 0.24897 0.24711 0.12165 -0.25553
|M362+X| -0.20510 0.31957 -0.03704 0.18071 0.05210 0.10223 0.13430 0.15632 -0.16814 -0.05894 -0.19068 0.02578 0.06595 0.18900 0.09741 -0.07523
M016 -0.18123 0.27205 0.00505 0.13224 0.05726 0.00758 0.19858 0.20037 -0.14964 -0.03902 -0.07273 -0.01891 0.11774 0.22061 0.13220 -0.14789
M024~A1 -0.18004 0.25686 -0.02102 0.20390 0.10807 0.10539 0.18117 0.18225 -0.23296 -0.08161 -0.16356 0.15791 0.05917 0.22861 0.20019 -0.25415
M037 -0.26296 0.43078 -0.01995 0.26345 0.08744 0.04282 0.26441 0.30007 -0.35323 -0.05194 -0.27688 0.07498 0.17054 0.30783 0.17517 -0.25678
M038~I -0.16817 0.15759 -0.04773 0.12843 0.03368 -0.14385 0.38153 0.25537 -0.22264 -0.21556 -0.08041 -0.03451 0.27309 0.30863 0.17128 -0.31342
M048~E -0.20626 0.19606 -0.07899 0.12530 0.04884 0.00464 0.35388 0.23065 -0.22928 -0.04331 -0.14364 0.01872 0.21628 0.31299 0.15613 -0.19230
M048~I -0.21787 0.32655 -0.03809 0.22945 0.06209 0.10008 0.16565 0.16505 -0.24687 -0.13939 -0.13797 0.03060 0.14124 0.23367 0.17261 -0.16158
M059~D -0.10940 0.43630 -0.04900 0.19473 0.08810 0.24784 -0.00595 0.13350 -0.08221 0.10181 -0.24226 -0.06809 -0.02563 0.12641 0.02243 0.14472
M075~K 0.05769 0.09065 0.14958 0.19336 0.13569 0.17820 -0.13315 -0.15822 0.14945 -0.02004 -0.03299 0.41146 -0.06563 -0.05651 0.09451 0.05289
M103~2 -0.19382 0.18369 -0.06697 0.11458 0.00253 0.10920 0.06961 0.05266 -0.27566 -0.08649 -0.12677 0.14768 -0.01515 0.21743 0.15982 -0.27519
M105 -0.10675 0.13500 -0.00993 0.15118 0.04757 0.01863 0.22573 0.17285 -0.10911 -0.09919 -0.09873 0.00430 0.17684 0.17083 0.13049 -0.08417
M111 -0.14259 0.20727 0.05241 0.08986 0.09569 -0.03918 0.25072 0.19189 -0.14385 -0.12306 -0.02110 0.07860 0.15373 0.21383 0.02655 -0.17455
M123~B -0.10987 0.28831 0.02856 0.16384 0.09512 -0.12517 0.19246 0.19404 -0.13810 -0.06629 -0.14327 0.04783 0.14195 0.14696 0.07958 -0.21229
M126 -0.18008 0.22855 -0.00448 0.17429 0.05220 -0.04519 0.27079 0.21171 -0.19319 -0.15583 -0.11298 -0.01115 0.20749 0.24280 0.18057 -0.19681
M131~K -0.14967 0.28289 -0.02566 0.19326 0.05893 -0.04680 0.25669 0.21749 -0.23494 -0.14561 -0.15449 0.03139 0.20785 0.27820 0.15427 -0.22434
M136~A -0.25077 0.22473 -0.07500 0.16085 0.05621 -0.05073 0.44186 0.29786 -0.32035 -0.16754 -0.12727 -0.00550 0.29218 0.37093 0.20411 -0.34383
M136~Q 0.02894 -0.04502 -0.02862 -0.03436 -0.00260 -0.05196 -0.02521 -0.00972 -0.00125 0.02251 0.02138 0.00175 0.02209 0.00103 -0.03564 0.00686
M158 -0.13932 0.07824 -0.01025 0.11920 0.10970 -0.14760 0.29960 0.17238 -0.10384 -0.19042 -0.00881 0.15482 0.21689 0.20538 0.16441 -0.23521
M176 -0.17245 0.22473 -0.05624 0.19481 0.08639 0.05446 0.23144 0.15838 -0.19112 -0.13049 -0.15933 0.13944 0.13444 0.24781 0.18153 -0.19438
M206~FA 0.05222 0.25597 0.04409 0.04254 0.06594 -0.07316 -0.26664 0.07544 -0.10135 0.28101 -0.34616 -0.09588 -0.22824 -0.25305 -0.12482 0.00245
M207~M -0.17609 0.29668 0.05493 0.22786 0.12275 0.10359 0.20177 0.13606 -0.10430 -0.12894 -0.10550 0.24866 0.10975 0.22995 0.14548 -0.08569
M209~D -0.15518 0.22329 -0.07934 0.10380 -0.03769 0.14425 0.09094 0.07298 -0.26385 -0.03166 -0.16875 0.01200 -0.00920 0.21994 0.12474 -0.20466
M243~E -0.06564 0.23673 0.16057 0.28698 0.22840 0.00760 0.00460 -0.00760 0.17549 -0.07867 -0.11472 0.41669 0.05732 0.01844 0.11480 -0.02841
M244 -0.20529 0.39627 -0.03639 0.22261 0.12436 0.03885 0.22123 0.25136 -0.20240 -0.06836 -0.20382 -0.00467 0.15539 0.21383 0.09959 -0.11554
M248~A -0.20422 0.26220 -0.06632 0.22026 0.06572 0.04824 0.28406 0.25295 -0.23588 -0.12992 -0.17242 0.03733 0.21852 0.29353 0.17797 -0.12580
M252~Q -0.26697 0.54686 -0.06881 0.25941 0.08458 0.20941 0.19324 0.28667 -0.29776 0.02182 -0.31365 0.02904 0.08746 0.28699 0.03011 -0.02334
M264~A1 -0.17160 0.19457 -0.06603 0.10931 0.06122 -0.13892 0.34411 0.24381 -0.11115 -0.12183 -0.06082 -0.06024 0.24959 0.22510 0.09108 -0.09839
M277 -0.12063 0.13687 -0.07085 0.11300 0.06226 -0.03557 0.22892 0.20208 -0.17404 -0.07149 -0.12293 -0.09673 0.18292 0.13609 0.08247 -0.15104
M288~D -0.13944 0.32619 0.02990 0.18004 0.10489 0.00677 0.19739 0.23113 -0.17955 -0.01755 -0.16567 0.01471 0.13897 0.19404 0.09641 -0.14392
M292~C -0.05974 0.03123 -0.01563 0.08131 0.06298 -0.18079 0.24816 0.19127 -0.08344 -0.10010 0.02328 -0.02816 0.22828 0.13514 0.14812 -0.15347
M292~I -0.27193 0.35631 -0.06284 0.19695 0.05560 0.19877 0.19849 0.17492 -0.18639 0.00754 -0.22963 0.05636 0.04364 0.28564 0.16868 -0.11960
M319~C -0.25325 0.40282 0.08203 0.32995 0.22943 0.01194 0.40053 0.29134 -0.24235 -0.21446 -0.17788 0.34944 0.26194 0.45829 0.33177 -0.35945
M321 -0.07099 0.16867 0.02176 0.11749 0.04490 -0.03311 0.26685 0.13673 -0.11753 -0.07716 -0.07456 0.04551 0.18335 0.19109 0.10744 -0.16135
M324~D -0.15177 0.15965 0.01361 0.10269 0.05872 0.06246 0.12566 0.11083 -0.14108 0.00254 -0.10129 0.11808 0.06429 0.18429 0.09336 -0.15316
M342 -0.25865 0.21679 -0.13839 0.10077 0.02745 0.10639 0.19904 0.20878 -0.40907 0.02599 -0.24359 0.02158 0.02553 0.27987 0.16823 -0.36537
M352~C -0.12792 0.09191 -0.00681 0.13090 0.03583 -0.06090 0.25231 0.16483 -0.18782 -0.13132 -0.00688 0.06080 0.19448 0.15503 0.15238 -0.26798
M352~S -0.15448 0.16386 -0.02473 0.12304 0.08037 0.08413 0.13073 0.06088 -0.11578 0.05406 -0.02225 0.25448 0.09649 0.20504 0.09670 -0.14907
M359 -0.17295 0.29292 -0.00909 0.13290 0.06242 0.05662 0.14478 0.18236 -0.13422 -0.02794 -0.17224 -0.03659 0.10204 0.20201 0.06714 0.01565
M362+X -0.18731 0.47057 -0.04334 0.21910 0.08767 0.23378 0.02369 0.18364 -0.10949 0.09626 -0.29080 0.01235 -0.03185 0.17082 0.01649 0.12041
M387~H -0.23433 0.17499 -0.06119 0.15140 0.09961 -0.14338 0.48977 0.31979 -0.19651 -0.19311 -0.06286 0.07131 0.29707 0.37812 0.22622 -0.32581
M418~B -0.08231 -0.06288 -0.01153 0.00308 0.06760 -0.22870 0.26484 0.19593 -0.07917 -0.07790 0.04055 0.01059 0.24730 0.19816 0.09636 -0.20091
N8A -0.43346 0.45695 -0.18316 0.36161 0.22654 0.34988 0.44910 0.35938 -0.38186 -0.14315 -0.25777 0.26703 0.24157 0.62526 0.35425 -0.33465
|M157+M288| -0.20173 0.22744 -0.03083 0.18575 0.06007 0.16134 0.14356 0.10555 -0.21129 0.00125 -0.15045 0.26573 0.02423 0.26186 0.16313 -0.30822
|M175+M153| -0.17554 0.31257 -0.06144 0.20786 0.09793 0.08189 0.31417 0.22064 -0.23454 -0.07203 -0.16296 0.04955 0.16406 0.27370 0.21183 -0.19593
|M195+M038| -0.20639 0.50011 0.06554 0.28339 0.11003 0.11375 0.16314 0.25508 -0.28171 -0.02804 -0.25384 0.09016 0.08103 0.19638 0.10525 -0.21439
|M218+X| -0.19035 0.29128 0.03640 0.24160 0.12561 0.09368 0.21458 0.18697 -0.17200 -0.11406 -0.11345 0.20657 0.10475 0.23011 0.19258 -0.22061
|M260+N24| -0.20753 0.30403 -0.07939 0.14336 0.06650 0.08062 0.14666 0.15863 -0.10339 -0.01652 -0.14048 0.03284 0.07129 0.23362 0.05626 -0.06419
|M305+M009| -0.23252 0.39386 -0.08911 0.20287 0.04000 0.10413 0.32986 0.24854 -0.41168 -0.08206 -0.24219 0.07236 0.10799 0.34375 0.19134 -0.34697
|M305+M320| -0.15958 0.34533 0.04838 0.21448 0.10059 0.23650 0.12657 0.15888 -0.17111 0.01060 -0.21406 0.18372 -0.00434 0.20462 0.11472 -0.09215
|M351+X| -0.26240 0.48363 -0.02471 0.22586 0.16332 0.26015 0.09714 0.15524 -0.12989 0.04914 -0.26510 0.01936 0.02106 0.21189 0.06767 0.04091
M038~B -0.27227 0.24634 -0.10905 0.15932 0.00074 -0.05837 0.48826 0.30344 -0.37556 -0.21040 -0.11084 0.01761 0.28548 0.45375 0.24950 -0.40217
M039~A -0.21641 0.66050 -0.04896 0.36257 0.05200 0.20278 0.12042 0.26159 -0.37559 0.01673 -0.46138 0.05460 0.03145 0.27974 0.13738 -0.15819
M039~C -0.20060 0.17198 -0.02932 0.15180 0.07594 -0.15539 0.38767 0.25054 -0.17807 -0.21423 -0.06972 0.03804 0.27891 0.35692 0.25970 -0.24940
M041~J -0.24917 0.40508 0.02018 0.24571 0.13565 0.05225 0.30793 0.28464 -0.24174 -0.08489 -0.23652 0.15656 0.17147 0.33563 0.15994 -0.16443
M052~A -0.10683 0.20756 -0.00840 0.17252 0.07829 -0.05984 0.20433 0.17920 -0.12219 -0.07020 -0.12701 0.10093 0.15062 0.17565 0.11504 -0.15096
M054~C -0.20533 0.22997 -0.00654 0.12809 0.13256 0.02720 0.22015 0.20176 -0.16152 -0.09643 -0.10496 0.04377 0.12698 0.23224 0.13706 -0.14416
M064~A -0.18416 0.29394 -0.08144 0.18811 0.07825 0.05805 0.30947 0.27390 -0.24198 -0.00501 -0.19274 0.03605 0.18537 0.31699 0.13754 -0.19687
M073~A -0.13469 0.16096 -0.02831 0.13203 0.06283 -0.16955 0.32507 0.22748 -0.17062 -0.15142 -0.10740 0.07897 0.23567 0.30144 0.18207 -0.25019
M080~B -0.20144 0.30863 -0.00238 0.20306 0.08333 -0.00763 0.34528 0.21788 -0.22082 -0.22245 -0.15996 0.04361 0.23129 0.37840 0.24275 -0.23262
M086 -0.28129 0.35050 -0.00678 0.27795 0.10218 0.10813 0.37903 0.25382 -0.27968 -0.13431 -0.20544 0.16472 0.26307 0.36546 0.22041 -0.18834
M096~1 -0.15175 0.29330 0.06048 0.18582 0.11235 -0.01523 0.12269 0.17022 -0.17838 0.02702 -0.20772 0.09735 0.10224 0.09621 0.08717 -0.11255
M097~F -0.20747 0.41118 -0.04298 0.28419 0.08559 0.07411 0.33391 0.27850 -0.27812 -0.10797 -0.22416 0.06673 0.22530 0.35944 0.19013 -0.26360
M102~DA -0.15066 0.12401 -0.11723 0.16549 0.06755 -0.00525 0.37176 0.22039 -0.18251 -0.21577 -0.03074 0.02332 0.25840 0.35976 0.25286 -0.27481
M125~A -0.24564 0.29766 0.08178 0.19151 0.13822 -0.03388 0.21291 0.25143 -0.23167 -0.03986 -0.16118 0.10737 0.15944 0.18102 0.14081 -0.21393
M136~R -0.04487 0.39450 0.00586 0.25723 0.04370 0.14532 -0.02971 0.10350 -0.22534 0.03497 -0.35746 0.11920 -0.07553 0.09924 0.09470 -0.20611
M145~BB 0.15473 -0.12868 -0.01607 -0.03638 -0.03009 -0.08838 -0.23788 -0.21686 0.23826 0.03603 -0.01590 -0.04297 -0.12187 -0.21972 -0.01979 0.13272
M147~D -0.21633 0.28714 -0.04760 0.22367 0.06429 -0.01804 0.37887 0.26047 -0.27547 -0.16198 -0.12792 0.06837 0.25164 0.35773 0.24268 -0.34608
M150~A 0.03163 -0.01824 0.22279 0.03350 0.12880 -0.03512 -0.08036 -0.03154 0.19636 -0.00485 0.04480 0.25233 -0.04386 -0.06572 0.01595 0.08927
M180~B -0.27773 0.34281 -0.09159 0.25699 0.00237 0.10381 0.33742 0.28390 -0.39526 -0.16805 -0.21271 0.09716 0.14155 0.38942 0.28214 -0.33062
M206~F 0.08720 0.11761 -0.01076 0.04109 0.00272 -0.07594 -0.09567 0.03090 -0.09755 0.07126 -0.25075 -0.05660 -0.11562 -0.11339 -0.03201 -0.10253
M224 -0.13456 0.17408 -0.05760 0.16935 0.04005 0.08260 0.14941 0.08239 -0.21500 -0.09109 -0.12540 0.11127 0.11049 0.22826 0.20976 -0.22031
M242~D -0.20794 0.43597 -0.00344 0.30721 0.09904 0.09441 0.17502 0.21856 -0.31486 -0.07276 -0.25790 0.12603 0.12411 0.20481 0.19798 -0.19454
M247~A -0.25304 0.42198 -0.02318 0.31579 0.14142 0.12108 0.30678 0.27675 -0.25751 -0.06384 -0.22608 0.13387 0.20815 0.28668 0.20818 -0.20033
M248 -0.03929 0.16503 -0.07593 0.10981 0.03190 0.03224 0.06833 0.12624 -0.19797 0.04287 -0.18913 -0.07794 0.05482 0.06078 0.06794 -0.12273
M251 -0.24254 0.29057 -0.01226 0.23887 0.09191 0.02593 0.26811 0.28910 -0.26997 -0.15859 -0.13627 0.04651 0.19758 0.28376 0.18679 -0.31235
M271~CA -0.15558 0.16461 -0.07414 0.14904 0.04790 0.00703 0.20678 0.16739 -0.17957 -0.10370 -0.08624 0.05717 0.17735 0.23907 0.13493 -0.15417
M278 -0.09574 0.10771 -0.03393 0.13858 0.09736 -0.07594 0.20871 0.16428 -0.09322 -0.15057 -0.08012 0.03352 0.21974 0.22178 0.15063 -0.13012
M293~A -0.16525 0.40784 0.01748 0.13701 0.06938 0.02465 0.19274 0.22900 -0.23772 0.02984 -0.22975 -0.03859 0.09669 0.23927 0.05449 -0.08643
M293~B -0.08406 0.29867 -0.01734 0.22964 0.08134 0.15384 0.00567 0.02046 -0.01241 -0.01711 -0.19624 0.09779 -0.02919 0.06141 0.13474 -0.01094
M295~E -0.12775 0.22753 -0.10089 0.24696 0.04318 0.13549 0.20479 0.09901 -0.21549 -0.19688 -0.04675 0.11585 0.17251 0.30165 0.24952 -0.28488
M301~A -0.20436 0.29908 -0.02974 0.23892 0.06975 0.06831 0.31474 0.24849 -0.27272 -0.17974 -0.15760 0.11154 0.18592 0.33730 0.23526 -0.23681
M318~A3 -0.24145 0.33969 -0.19793 0.25920 0.06856 0.02045 0.26393 0.23971 -0.25903 -0.12632 -0.31071 -0.04365 0.09745 0.26574 0.25913 -0.31846
M321~B -0.13019 0.04149 -0.02477 0.09187 0.06691 -0.19478 0.28276 0.18811 -0.10041 -0.13919 -0.00586 0.07535 0.23902 0.21345 0.13020 -0.26486
M323~I -0.17082 0.27416 -0.09582 0.17060 0.01762 0.11342 0.31372 0.15090 -0.22524 -0.08294 -0.16370 0.00250 0.17563 0.35431 0.19310 -0.19963
M325~E -0.19144 0.32816 -0.08483 0.22196 0.05681 0.03065 0.27278 0.22668 -0.31793 -0.08481 -0.21805 -0.06434 0.16513 0.20589 0.21637 -0.26935
M361~A -0.29170 0.36740 -0.01241 0.26007 0.10874 -0.03466 0.33354 0.30687 -0.26751 -0.14269 -0.20784 0.09178 0.25345 0.33724 0.17553 -0.27303
M367~E -0.15461 0.20972 -0.02232 0.15434 0.04127 -0.05554 0.32732 0.21749 -0.22423 -0.19024 -0.08819 0.00938 0.21669 0.27466 0.16859 -0.24599
M370~C -0.26231 0.38052 0.01167 0.27553 0.14272 0.13926 0.28504 0.29927 -0.28014 -0.11749 -0.13441 0.17181 0.16115 0.39147 0.27308 -0.27902
M371~A -0.23057 0.32309 0.02822 0.23341 0.07911 0.18146 0.25490 0.15658 -0.20601 -0.11429 -0.11816 0.24024 0.08873 0.28694 0.22038 -0.17840
M383~E -0.21210 0.25539 -0.04480 0.22468 0.06253 -0.02940 0.27113 0.25426 -0.23989 -0.14410 -0.11775 0.02601 0.21964 0.24023 0.20664 -0.22618
M386 -0.22929 0.34036 -0.12775 0.31495 0.10901 0.12572 0.23728 0.23421 -0.20683 -0.18914 -0.18387 0.11043 0.13969 0.34435 0.27501 -0.27338
M417~F -0.23552 0.33604 -0.06373 0.24680 0.14686 -0.01371 0.40132 0.30861 -0.25253 -0.15713 -0.17727 0.06505 0.28869 0.34680 0.17101 -0.30032
N(N@B) -0.12028 0.27344 -0.01994 0.22585 0.07500 0.11469 0.18330 0.07965 -0.06698 -0.01255 -0.13677 0.23777 0.05823 0.17576 0.15047 -0.14311
|M054+M365+M054~I| -0.21576 0.32619 -0.01323 0.21424 0.11007 -0.03035 0.39332 0.33082 -0.27333 -0.16149 -0.20796 0.05277 0.23480 0.38658 0.22299 -0.25388
|M157+X| -0.28008 0.39602 -0.02768 0.29590 0.12155 -0.00074 0.33791 0.26547 -0.27023 -0.17629 -0.17871 0.19367 0.23569 0.43043 0.26196 -0.38863
|M351+3(N01)| -0.26870 0.36275 -0.08006 0.23871 0.09922 0.07935 0.26236 0.21006 -0.28930 -0.08041 -0.23082 0.12023 0.15899 0.34183 0.20802 -0.25732
<unk> -0.17082 0.26476 -0.02689 0.18478 0.07862 0.03277 0.21925 0.19050 -0.19154 -0.08006 -0.15081 0.07215 0.13786 0.23520 0.15046 -0.18268
