451 16
N01 0.75647 -1.23535 -0.99467 -1.82211 -0.58348 0.48924 -2.50633 -1.49810 3.29988 0.03465 0.45690 -0.27335 -2.31350 -0.13338 -1.48020 1.90136
... 0.31755 -0.58404 -1.20566 -0.39112 -0.77674 -0.51946 -0.84239 -1.41670 0.71270 -0.38192 0.65508 -2.86532 0.13943 -1.89626 -0.03892 1.93722
N14 0.99590 -0.47866 0.73728 -0.19092 -0.21942 0.60722 -2.59625 -1.28796 0.11908 0.95352 0.94312 -0.56910 -0.69657 -3.29170 -1.82342 1.39360
X 0.51093 -0.56108 -1.80042 -0.65890 -1.08484 -0.29335 -0.98743 -0.88931 0.54482 0.02942 0.58523 -2.62856 -0.23261 -1.25514 -0.91248 1.09230
N39B 1.21846 -1.76420 -0.32938 -0.94818 -0.23745 -2.41160 -1.52420 -0.64340 0.94168 -1.47310 1.95391 -1.13537 0.14856 -1.53866 -0.67197 -0.29131
M288 1.27086 -0.56063 -0.25748 0.01951 -0.38159 0.23375 -1.00690 -0.41267 0.44809 -0.27114 1.22422 -1.28070 -0.01725 -1.93073 -1.06370 1.15137
N30C 0.73964 -1.98891 -0.96665 -0.36575 -0.39519 -1.90137 -0.75870 -1.57791 0.53784 -1.29156 1.45943 0.41279 0.56962 -1.53265 1.31312 -0.81790
N34 1.75799 -1.27781 1.25108 0.09506 -0.38266 1.50536 0.44818 0.20018 0.24616 0.20680 1.73155 -0.89478 0.22433 -1.88973 -1.58309 1.80312
M388 -0.42778 0.87331 -0.95067 -0.43833 -0.70667 -0.36135 -0.98894 -0.88946 0.28039 0.27904 -0.74930 -1.79535 -0.57936 -0.39816 -0.75144 0.47825
N24 1.02369 -2.02924 -0.59990 -0.52147 -0.33220 -1.96523 -0.88247 -1.10573 0.61560 -1.40424 1.71438 -0.34757 0.48133 -1.65955 0.47770 -0.45824
M218 -0.18508 1.04469 -1.61777 -0.23412 -0.18262 -1.10938 -1.21459 -0.18083 0.57789 -0.22271 -0.47515 -2.21349 -0.87481 -0.82275 -0.80449 0.23360
M371 -0.55692 0.56455 -0.36435 -0.56383 -0.21515 -0.40673 -0.21218 -0.03282 0.51770 -0.41182 0.59798 -1.65897 0.10482 0.15954 -1.16408 1.08666
M124 -0.07029 0.42188 -0.68433 -0.37139 -0.10247 0.47325 -0.30488 -0.06277 0.60553 0.21341 0.19101 -1.06890 -0.55758 -0.38752 -0.74689 1.26314
N45 1.72255 -1.23525 1.31214 0.19552 -0.09600 1.00820 -0.25710 -0.16691 -0.11941 0.39869 1.47066 -0.25556 0.03392 -2.47555 -1.12322 1.25151
M297 0.49572 -0.73826 -0.49422 -0.49476 -0.06652 -1.05215 -0.94124 -0.70002 0.62309 -0.74463 0.57535 -0.36723 -0.06189 -1.04321 -0.24799 -0.19902
M054 0.14426 -0.03299 0.22754 -0.25185 -0.61418 0.42875 -0.17244 -0.69383 0.13693 0.42594 -0.09547 -0.22289 -0.34625 -0.30211 -0.61806 0.74499
M346 0.46013 -0.28097 0.02962 -0.30511 -0.25996 0.42658 -0.88823 -0.55726 0.63394 0.49279 0.07224 -0.11542 -0.91359 -0.77348 -0.56948 0.56286
M387 0.10797 0.11678 -0.92897 -0.22900 -0.40230 -0.56082 -0.82712 -0.67022 0.77889 -0.00826 0.06521 -0.98836 -0.71411 -0.56470 -0.18870 -0.03493
M066 0.43526 0.45928 -1.37409 0.06456 -0.65090 -0.00065 -1.16477 -0.03833 0.15773 -0.53597 -0.51892 -1.33367 -0.13038 -0.24840 -0.22560 0.33184
M157 -0.00718 0.04486 -0.14732 -0.09960 -0.07671 0.12867 -0.12187 -0.00840 0.12664 0.10929 -0.10269 -0.13223 -0.16344 0.03950 -0.13916 0.14828
N23 0.46677 -1.06563 1.74672 -0.55001 0.24438 0.20662 -0.81465 -0.73802 -0.90533 1.38864 -0.20257 0.04587 -0.87430 -1.21428 -0.63936 0.17116
N30D 0.55069 -1.56536 -0.69000 -0.31162 -0.25405 -1.59501 -0.65714 -1.34471 0.16941 -1.01892 1.19361 0.45495 0.53921 -1.38373 1.01829 -0.73945
M009 -0.37889 0.34123 -0.22024 -0.47605 -0.16760 0.00617 -0.25423 -0.03398 0.49925 -0.05249 0.28420 -0.87553 -0.34879 0.17968 -0.90037 0.98198
M096 0.36216 0.35796 -1.03971 0.11649 0.00975 0.08978 -0.74151 -0.05319 0.24418 0.13497 -0.07476 -0.93078 0.13754 -0.64680 0.15342 0.57319
M376 0.11795 -0.76189 0.04824 -0.20294 -0.13933 0.93909 -0.12314 -0.64564 0.73201 0.56563 0.59503 0.21104 -0.58268 -0.52685 -0.31898 1.04705
M263 -0.17442 0.51674 -1.35154 -0.22153 -0.18917 -0.28046 -0.54874 -0.11174 0.84162 -0.10900 -0.53071 -1.15193 -0.40452 0.36609 -0.17367 0.37643
M001 0.09925 -0.07136 -0.38876 -0.34514 -0.35872 0.16419 -0.73250 -0.52710 0.57442 0.24601 0.07179 -0.38360 -0.43231 -0.43007 -0.57088 0.42904
N1@B -0.67751 1.16117 0.46731 0.32330 0.35631 0.57309 -0.56519 0.24400 -0.48229 0.38735 -0.93044 0.02087 0.38687 0.19225 0.11368 0.66213
M036 0.39873 -1.21175 -0.49326 -0.51781 -0.18403 -1.07835 -0.35748 -0.65580 0.91161 -0.75788 0.72411 0.32359 -0.13270 -0.04203 0.48608 -0.50048
M305 -0.01112 -0.01185 -0.65072 -0.17969 -0.50551 -0.33499 -0.55329 -0.54192 0.20274 -0.03231 -0.03645 -0.81121 -0.13379 -0.43212 -0.05184 -0.02503
M032 -0.06237 0.40076 -0.19192 -0.03898 -0.17784 0.32873 -0.57549 -0.42700 0.39309 0.27913 -0.15469 -0.46045 -0.25884 -0.41970 -0.29099 0.61465
M370 -0.05807 -0.20920 0.00094 -0.18724 -0.02378 0.67502 0.22352 -0.29954 0.55760 0.38422 0.02487 0.09115 -0.61036 -0.02495 -0.22493 0.76323
M004 -0.56525 0.72431 -1.12176 -0.30651 -0.03554 -0.48146 -0.66152 0.04439 0.51120 -0.02476 -0.71133 -1.35262 -0.65136 0.20835 -0.42578 0.15465
M354 0.29884 -0.59155 0.78601 -0.23969 0.07048 0.68270 -0.67808 -0.23730 0.17157 0.56328 0.45999 1.00075 -0.53204 -0.57466 -0.52035 0.45789
M367 0.48526 -0.53027 0.47971 -0.31503 0.02623 0.32809 -0.66922 -0.42130 0.30270 0.50145 0.13036 -0.00516 -0.58212 -0.63688 -0.49012 0.46020
M003~B -0.21205 0.12403 -0.36633 -0.49924 -0.23631 0.10028 -0.28771 -0.15070 0.54566 0.02945 0.03015 -0.59552 -0.45591 0.43284 -0.52671 0.64633
M157~A 0.14645 -0.07478 0.26094 0.07233 -0.01176 0.25030 -0.05316 0.00329 -0.07658 0.18092 0.13058 0.07674 0.02713 -0.19675 -0.19379 0.14696
|M036+N30D| 0.66211 -0.64130 0.48325 -0.09696 0.14101 0.43313 -0.68420 -0.37584 0.43827 0.15386 0.28499 0.41197 -0.27483 -0.72169 -0.10730 0.60426
M057 0.14246 -0.00029 -0.61308 -0.00762 -0.21201 0.21067 -0.28837 -0.18983 0.17561 0.07046 0.01657 -0.82110 0.10347 -0.24571 -0.47301 0.57579
M072 0.15682 -0.35186 -0.03058 -0.30525 0.05843 0.29913 -0.40325 -0.46697 0.72219 0.14421 0.01038 0.23661 -0.58959 -0.30212 -0.29941 0.40871
N51 -0.04783 -0.45340 1.11466 0.07321 0.21801 0.81228 -0.24467 0.11327 -0.54184 0.46718 0.76258 1.42106 0.10133 -0.64646 -0.26087 0.45054
M219 -0.00198 0.35682 -0.54888 -0.02275 -0.24237 -0.40298 -0.77552 -0.19674 0.11680 -0.04177 -0.14662 -0.94720 -0.44344 -0.23875 -0.48441 -0.04278
M347 -0.83430 0.90981 -0.30316 -0.17850 -0.05616 -0.48971 -0.08609 0.00057 0.05243 -0.30517 -0.10408 -1.61669 0.03786 0.33307 -0.87568 0.44400
N30C@B -0.04607 -0.70942 -0.00914 0.18185 0.01098 -1.36481 0.66265 0.15624 -0.59394 -0.82169 0.56299 -0.18127 0.80789 -0.08602 0.92962 -0.80423
M297~B 0.42895 -0.83197 0.08742 -0.48496 0.07832 -0.69921 -0.63931 -0.26508 0.57469 -0.36025 0.67157 0.23381 -0.16428 -0.31071 -0.24375 -0.22011
N08A 0.05210 -1.09155 0.13178 -0.12773 -0.10529 0.68790 -0.01997 -0.65732 0.85853 0.34738 0.48752 1.17881 -0.46766 0.18959 0.21849 0.32622
N14@B 0.68057 -0.25109 0.96524 0.79503 0.65395 0.42145 0.04246 0.30811 -0.59243 -0.05665 -0.36460 0.45794 0.47826 -0.31051 0.79231 0.18072
M259 -0.24381 0.80827 -0.73700 -0.00538 -0.19212 -0.12014 -0.37672 0.08919 0.03837 0.09283 -0.34328 -1.15178 -0.37576 -0.14908 -0.46497 0.44158
M059 0.32745 -0.33851 0.25496 -0.20300 -0.09743 0.09318 -0.53405 -0.16386 0.19930 0.18516 0.34141 -0.04460 -0.12529 -0.56663 -0.54538 0.32188
N39B@B -0.42069 0.10944 0.37843 0.01066 0.06587 -0.51537 0.31035 0.37361 -0.48577 -0.51839 -0.15114 0.23233 0.59292 0.51316 0.83046 -0.55424
M056~F 0.63714 -0.26322 0.40307 0.21620 -0.12101 0.71038 -0.17263 -0.00609 0.06301 0.24689 0.43749 0.07215 -0.02323 -0.81494 -0.30501 0.62436
M386~A -0.11392 0.84785 -0.84233 -0.10600 -0.00041 0.20899 -0.19610 0.47579 -0.02076 -0.00965 -0.42671 -1.17167 -0.09572 0.16547 -0.17899 0.55211
M373 0.09036 -0.49008 -0.06849 -0.27784 -0.01679 0.14730 -0.08714 -0.18090 0.63934 -0.01227 0.04621 0.45445 -0.39023 0.32692 0.02368 0.12099
N 0.15979 -0.28889 -0.39772 0.06406 -0.22537 -0.83818 -0.23007 -0.09267 -0.00401 -0.16385 0.30107 -0.64700 0.30184 -0.39055 0.07859 -0.30892
M263~A 0.05501 -0.39331 -0.31676 -0.38564 -0.18147 -0.17672 -0.30454 -0.14620 0.66933 -0.09449 0.09892 0.07574 -0.34460 0.26593 -0.07517 0.08903
M387~C -0.35332 0.25793 -0.21407 -0.62499 -0.26790 0.26763 -0.19656 -0.20786 0.06844 0.16546 -0.18929 -0.35583 -0.49928 0.18910 -0.35948 0.42005
M153 0.10116 -0.06923 0.18329 -0.09045 -0.06278 0.23061 -0.25274 -0.18805 0.20762 0.24318 0.02960 0.03369 -0.45993 -0.25677 -0.31851 0.20632
M377~E -0.68537 0.73198 -0.41294 -0.12486 -0.01887 -0.49463 -0.02459 -0.04237 0.13488 -0.24691 -0.24701 -1.30471 -0.02945 0.30984 -0.61360 0.29081
M377 -0.07982 0.28069 -0.44255 0.25984 -0.12867 0.11568 0.23749 0.04245 -0.40804 0.20241 0.02472 -0.85576 0.41892 -0.40660 -0.10483 0.34671
M387~EF 0.02310 0.01323 -0.50491 -0.05193 -0.11047 -0.38293 -0.13652 -0.06831 0.27909 -0.40146 -0.05287 -0.42334 0.07162 0.12798 0.07103 -0.09639
M387~A 0.02566 -0.25620 -0.32366 -0.20173 -0.01329 -0.25414 -0.05496 -0.31177 0.46310 -0.23113 -0.00834 0.17833 -0.10116 0.18595 0.29768 -0.13871
M101 0.10799 0.24330 -0.59083 0.09090 -0.37565 0.26169 -0.37804 -0.00780 -0.05008 0.03306 -0.15522 -0.66225 -0.11926 0.12766 -0.24789 0.23494
M365 0.10053 -0.04024 0.04097 -0.09514 -0.12491 0.36620 -0.27719 -0.22754 0.14280 0.28824 -0.02621 -0.20443 -0.23922 -0.36942 -0.24865 0.48101
M005~A 0.06054 -0.12212 -0.05627 0.07213 -0.12837 0.05615 -0.08412 -0.20855 -0.09072 0.15688 0.15458 -0.34090 0.05472 -0.57664 -0.08813 0.23271
M304 0.20331 -0.26981 0.02318 -0.23160 -0.12002 0.09875 -0.23713 -0.12061 0.28187 -0.02455 0.31469 -0.11610 -0.13505 -0.13433 -0.30739 0.24266
M240 0.07260 0.46941 -0.54261 0.02183 0.01348 0.31178 -0.04755 0.30746 -0.21788 0.14404 -0.28724 -0.70067 0.20974 -0.09086 0.16581 0.44005
M317 -0.04189 0.31018 0.14788 -0.13595 0.03647 0.35674 -0.24832 -0.09209 0.26518 0.28741 -0.06910 -0.27708 -0.39292 -0.18442 -0.61852 0.54368
M320 0.08712 -0.11928 -0.28740 -0.16957 -0.14873 0.00404 -0.24557 -0.12010 0.34388 -0.01537 -0.08271 -0.17099 -0.26123 0.15650 -0.02259 0.16150
N39C 0.06012 -0.81783 -0.20138 -0.10609 0.07864 -1.06551 -0.13558 -0.67562 -0.12074 -0.65407 0.57416 1.06791 0.42228 -0.41002 0.98005 -1.02659
M006 0.15884 -0.12459 0.16756 -0.17361 -0.00746 0.37876 -0.33709 -0.21574 0.32614 0.21763 -0.00680 0.19645 -0.36300 -0.15771 -0.37327 0.36269
M024 -0.29179 0.46433 -0.32407 -0.04712 -0.08840 -0.09895 0.25763 0.19687 -0.05655 -0.13396 0.02691 -0.92182 0.33141 0.16912 -0.05739 0.39635
M263~1 -0.30927 0.45541 -0.46741 -0.09912 -0.15365 -0.04667 -0.18920 0.04396 0.09692 0.06193 -0.35843 -0.88252 -0.23030 0.15013 -0.30599 0.16379
M097~H -0.45065 0.57148 -0.93158 -0.21681 -0.02816 -0.49105 -0.23825 0.21430 0.22572 -0.13761 -0.50218 -0.91084 -0.25377 0.24952 -0.06011 -0.08271
M348 0.32420 -0.11433 0.04294 0.05799 -0.19927 0.32510 -0.42636 -0.31748 0.17565 0.17479 0.12935 -0.20174 -0.14062 -0.72188 -0.29187 0.46074
M262 -0.10862 0.43740 -0.51548 0.05657 -0.04843 0.15792 -0.05768 0.09631 0.03449 0.18109 -0.33223 -0.48294 -0.06552 0.04298 0.12189 0.32867
N48 0.68065 -0.07746 1.04933 0.44192 0.02376 1.15089 1.08382 0.74853 -0.74290 0.50439 0.31084 -0.24713 0.29449 -0.52886 -0.75342 0.50805
M010~2 0.48148 -0.80480 0.15661 -0.15073 -0.02164 -0.36720 -0.44006 -0.51415 0.21198 -0.15137 0.60515 0.39666 0.00649 -0.76760 0.01813 -0.14415
M387~L 0.02988 0.01465 -0.08339 -0.05049 -0.14969 0.20072 -0.24607 -0.09000 0.07401 0.21724 -0.06235 -0.09817 -0.15155 -0.16695 -0.29551 0.17262
|M136+M365| 0.09823 -0.09548 0.11624 0.00396 -0.01683 0.11478 0.05352 -0.05687 0.05858 0.06081 0.10620 -0.03761 -0.03805 -0.21496 -0.07968 0.24430
M066~A -0.08997 0.25664 -0.32930 -0.13558 -0.15043 0.05243 -0.33921 -0.15558 0.22569 0.06671 -0.36465 -0.20624 -0.32396 0.28469 -0.06748 -0.00051
M057~A 0.23337 -0.24640 -0.05426 -0.05930 -0.09243 0.00933 -0.11606 -0.10451 -0.01650 -0.05532 0.18067 -0.14859 0.09635 -0.30196 -0.06266 0.08972
M081 0.16816 -0.20001 -0.21887 -0.18644 -0.06668 -0.23871 -0.24053 -0.22146 0.46422 -0.18387 0.11803 0.32037 -0.29245 0.06174 0.13399 -0.32977
M146 -0.40221 0.68119 -0.46842 -0.01689 -0.11057 -0.12877 -0.15575 0.10694 -0.02871 -0.05492 -0.35964 -1.02193 0.01202 0.11374 -0.25878 0.25810
M352~O -0.01209 0.56617 -0.78132 0.14244 -0.26730 -0.03083 -0.28015 0.15954 -0.21304 -0.24750 -0.57122 -0.68195 0.06516 0.17330 0.07699 -0.05624
M352~N -0.16637 0.49767 -0.68497 0.07577 -0.32204 -0.07542 -0.31496 0.02716 -0.11906 -0.20007 -0.45665 -0.80931 -0.04754 0.02178 0.04333 0.19312
M099 -0.23321 0.18302 -0.51401 -0.11640 -0.19572 -0.31719 -0.05247 -0.04658 0.16283 -0.18891 0.02405 -0.77174 0.11399 0.05231 -0.08710 0.15006
M260 0.00676 -0.18178 0.01393 -0.28619 -0.00292 0.30424 -0.22311 -0.15934 0.52412 0.05108 -0.04875 0.31803 -0.42339 0.28040 -0.17059 0.25995
M002 0.26139 -0.69832 0.22651 -0.02900 0.07514 -0.31514 -0.10483 -0.40911 -0.11913 -0.16290 0.39799 0.85658 0.19417 -0.50175 0.38575 -0.41958
M033 -0.35792 0.45829 -0.07262 -0.11083 -0.01030 0.18887 0.26846 0.16972 0.03323 0.07617 -0.04266 -0.46817 0.10239 0.38606 -0.22600 0.37309
M139 -0.49476 0.51046 -0.37623 0.01541 -0.23320 -0.28589 0.05155 -0.22921 -0.14675 -0.05973 -0.38540 -0.50918 0.05792 0.17593 0.09366 -0.17847
M309~A 0.03865 -0.09859 -0.02527 -0.26971 0.01276 0.09574 -0.15487 -0.08764 0.47528 -0.03952 -0.12465 0.33576 -0.33543 0.33310 -0.04838 0.03503
M329 -0.18968 0.19490 -0.55007 -0.12225 -0.14015 -0.12861 0.00339 -0.04045 0.25021 -0.10054 -0.19693 -0.51897 -0.12312 0.23550 0.10084 0.19754
M263~B1 -0.04172 -0.06748 -0.19763 -0.17552 -0.09727 0.06497 -0.30983 -0.31458 0.53253 0.11933 -0.11925 0.00797 -0.53076 0.02522 -0.08874 0.06964
M046 -0.04304 -0.00570 -0.19490 -0.19547 -0.05539 0.06178 -0.12437 -0.11235 0.53179 -0.12206 -0.07729 0.12507 -0.24672 0.30988 -0.01305 0.11320
M203~C 0.38462 -0.20832 0.26368 0.02023 -0.06848 0.34120 -0.14523 -0.05706 0.07096 0.15042 0.39142 0.08580 -0.03495 -0.45915 -0.27691 0.26669
M314 -0.21131 0.38713 -0.48395 0.12492 -0.16128 -0.21219 -0.02886 -0.13720 -0.19521 -0.05313 -0.24719 -0.79169 0.13290 -0.17963 0.16588 0.03793
|M327+M342| -0.17461 0.20314 0.06703 0.12760 0.02855 -0.00398 0.23520 0.16823 -0.16537 0.02651 -0.17493 0.16044 0.13951 0.24350 0.14728 -0.20238
M149~A 0.13747 -0.23370 -0.02059 -0.18913 -0.09836 0.15147 -0.35742 -0.20275 0.23331 0.11419 0.07099 0.02454 -0.26587 -0.20874 -0.25369 0.11882
M206~D 0.05028 -0.19596 -0.29090 -0.24987 -0.10562 0.14734 -0.15143 -0.17902 0.44418 -0.02021 0.08105 -0.20984 -0.26248 0.17254 -0.07224 0.30094
M206~G -0.08732 -0.00751 -0.28711 -0.18255 -0.06678 -0.12071 -0.09419 -0.11775 0.36763 -0.12576 -0.11080 -0.07835 -0.19134 0.26476 0.07869 0.06084
M106 0.16693 -0.34623 -0.10443 -0.19797 -0.12413 -0.06543 -0.21732 -0.23808 0.45177 -0.14145 0.28678 -0.04282 -0.10642 -0.14560 -0.05768 0.31132
M106~A 0.07804 -0.45832 -0.13478 -0.07078 -0.03160 -0.74334 0.03071 -0.13039 0.01035 -0.51050 0.27806 0.11049 0.31903 -0.05271 0.47176 -0.51599
M175 0.01205 0.03839 0.05637 0.01581 0.01180 0.22464 -0.04256 0.00669 0.05045 0.11595 -0.05589 0.01710 -0.15766 -0.05828 -0.09335 0.26469
M362 0.23406 -0.18105 0.07821 -0.14560 -0.03664 0.03160 -0.27454 -0.19044 0.10536 0.16637 0.10770 -0.15395 -0.18645 -0.34749 -0.23864 0.16552
M390 -0.29828 0.61624 -0.78494 -0.14236 -0.12871 -0.31390 -0.23383 -0.06680 0.27904 -0.05812 -0.33642 -0.86056 -0.28383 0.04795 -0.12124 0.09226
M391 -0.08484 -0.00203 -0.08611 -0.20258 0.00854 0.19252 -0.15517 -0.07344 0.44916 0.05513 -0.20123 0.24496 -0.36859 0.41645 -0.03345 0.12399
M372 -0.02205 0.04050 -0.39448 -0.05086 -0.22453 -0.05589 -0.16518 -0.02901 0.04294 -0.06845 0.02205 -0.28164 0.01129 0.03202 -0.07957 0.00839
N01@B -0.64701 0.50737 0.26201 0.28415 -0.09713 0.23459 0.51901 0.35157 -0.69405 0.24450 -0.56445 0.07977 0.26764 0.54775 0.50155 -0.24732
N02 0.01580 0.35259 0.81367 0.48858 -0.20696 0.34389 1.08520 0.34115 -0.69537 0.07487 -0.27567 0.65534 0.59545 0.60618 0.18884 -0.20169
|M195+M057| -0.32832 0.29304 -0.07982 0.02219 -0.08683 -0.09268 0.30495 -0.14868 -0.28400 0.02639 -0.26529 -0.06977 0.18333 0.10655 0.00784 -0.20127
M296 0.21349 -0.35215 0.03669 -0.25047 0.04999 -0.41221 -0.21018 -0.13294 0.31501 -0.25174 0.37069 0.04402 -0.05085 -0.04066 0.02884 -0.08508
M341 -0.02839 0.00068 -0.12263 -0.03956 -0.04094 0.16480 -0.10631 -0.10849 0.16987 0.03689 -0.05971 -0.08656 -0.14406 0.06132 -0.08312 0.23620
M102~E -0.07692 -0.21211 -0.05392 -0.29213 0.03176 0.10726 -0.11595 -0.11951 0.56957 0.06421 -0.12882 0.47183 -0.40567 0.53536 -0.05111 0.07992
M203~A -0.02646 0.04136 0.07138 -0.00127 0.07809 0.38864 -0.00219 -0.04604 0.14216 0.20544 -0.12988 0.10847 -0.25729 -0.01962 -0.13179 0.28181
M327 -0.00441 -0.12671 0.20674 -0.05035 0.05978 0.17025 -0.01388 -0.04927 0.13136 0.10194 0.00628 0.45553 -0.11680 0.10026 0.04034 0.08455
|M351+N14| 0.07082 -0.02313 -0.14342 -0.09809 -0.09886 0.03457 -0.15740 -0.13116 0.21695 -0.01987 0.06574 -0.33289 -0.10056 -0.11454 -0.05989 0.32436
M223 -0.11132 0.21400 -0.00779 -0.00608 0.09677 -0.38284 -0.33973 -0.02671 -0.07583 0.04466 -0.11771 -0.29930 -0.22785 -0.35010 -0.31766 -0.12448
M266~B 0.16746 -0.58647 0.10972 -0.22476 0.06876 -0.26420 -0.00857 -0.04628 0.47046 -0.25042 0.35747 0.60760 -0.08256 0.41568 0.20859 -0.29212
M380 -0.22666 0.31983 0.12376 0.03037 0.06035 -0.11683 0.10731 0.14480 -0.12945 -0.07659 0.04914 -0.41732 0.24116 0.06876 -0.22762 0.16627
|M296+M296| -0.25473 0.32026 -0.65511 0.02354 -0.11057 -0.08375 0.06272 0.00259 0.12435 -0.09060 -0.44834 -0.45987 -0.05807 0.55238 0.05272 -0.00636
M054~I 0.28365 -0.30085 0.47028 -0.12056 0.07855 0.38676 -0.32085 -0.14711 0.25930 0.29574 0.21490 0.63624 -0.34662 -0.26264 -0.37232 0.17657
M217 -0.00671 0.31065 0.04094 0.03643 0.04245 0.42333 0.11325 0.08148 -0.10385 0.26219 0.04597 -0.17278 -0.03452 -0.10960 -0.21581 0.36289
M254~A -0.22526 0.27994 -0.44725 0.08575 -0.22208 -0.06562 0.12369 0.05122 -0.18576 0.00564 -0.23161 -0.66395 0.14240 0.09637 0.13433 0.04287
M325 0.11505 -0.30571 0.15258 -0.11531 0.04185 -0.08020 -0.13745 -0.15955 0.23966 0.00339 0.16002 0.32079 -0.16321 -0.03344 0.04732 -0.03664
M048~C -0.09299 0.24101 -0.32191 0.00845 -0.02321 0.20142 0.12858 0.08722 0.10654 0.13438 -0.05787 -0.41958 -0.07555 0.05134 -0.14301 0.27957
M260~1 -0.09189 0.00763 -0.18755 -0.22382 0.00432 0.11073 -0.19000 -0.16004 0.45279 0.06912 -0.16271 0.04270 -0.35139 0.29449 -0.13914 0.14461
M338~B -0.16622 0.27629 -0.35130 0.04982 -0.18951 -0.10244 0.01351 0.03176 -0.14249 -0.22479 -0.20282 -0.50927 0.15694 0.11457 0.12912 0.18157
M340 -0.13936 0.17418 0.01340 -0.15563 -0.23551 0.37911 0.14767 -0.15086 0.26834 0.16505 -0.28864 0.09402 -0.31014 0.50122 -0.28819 0.35631
|M218+M288| 0.37081 0.01867 0.01800 0.22298 -0.05532 0.16238 -0.08591 0.04091 -0.29752 0.06009 0.26306 -0.37013 0.15625 -0.70867 -0.17043 0.16321
M111~A -0.11913 0.15462 -0.09091 -0.09799 -0.06764 -0.02774 -0.05206 -0.10967 0.14503 0.06326 -0.37358 0.08116 -0.12677 0.35034 0.06309 -0.19790
M242~B -0.07646 0.31001 -0.49385 0.15674 0.10769 -0.03045 0.02142 0.15796 -0.09341 0.04612 -0.29970 -0.14209 0.19459 0.20848 0.38581 0.03920
M262~1 0.00015 0.25325 -0.05538 0.15043 0.07978 0.12784 -0.18651 -0.08931 -0.04251 0.23166 -0.23768 -0.18321 -0.13120 -0.29572 0.09268 0.20329
M269~B 0.03475 -0.16897 0.06335 -0.22468 0.01951 0.18541 -0.14952 -0.10404 0.39137 0.04944 -0.06554 0.29462 -0.32934 0.21897 -0.07618 0.14998
M301 -0.12956 0.20602 -0.40256 0.08158 -0.05837 0.07159 0.15201 0.08124 0.12036 -0.16380 -0.22340 -0.06309 0.03584 0.49776 0.09537 0.07081
M374~C 0.00036 0.13452 0.43120 -0.08779 0.17420 0.71178 0.14986 0.28655 0.13330 0.31437 -0.28949 0.71132 -0.35410 0.40883 -0.19932 0.20677
M057~B -0.12858 0.24124 -0.34208 0.00245 -0.04343 -0.05394 0.00895 -0.02216 0.09267 0.07338 -0.17667 -0.38929 -0.14525 -0.05161 0.00826 0.04101
|M131+M388| -0.27241 0.20205 -0.70520 -0.03427 -0.10932 -0.28973 0.01677 0.05480 0.14676 -0.15428 -0.37553 -0.55763 0.02331 0.58258 0.15442 -0.15853
M264~A 0.16245 -0.24420 0.34741 -0.05950 0.06275 0.25823 -0.10486 -0.00535 0.12306 0.16864 0.04068 0.53336 -0.25612 -0.02092 -0.20051 0.06836
N24@B -0.23622 -0.10123 0.32192 -0.03253 0.17514 -0.62531 0.44725 0.42727 -0.31025 -0.39953 0.10206 0.38000 0.40847 0.55677 0.52358 -0.74731
|M305+M342| -0.14137 0.11550 0.05499 0.10442 0.00353 0.09312 0.25555 0.09322 -0.09149 0.03137 -0.18375 0.06785 0.02283 0.21855 0.15220 -0.01012
M048~D -0.20350 0.52537 -0.32792 0.16616 -0.00538 0.19996 0.20421 0.31388 -0.13071 0.17649 -0.46002 -0.49183 0.07354 0.30964 0.05015 0.05758
M122 0.20787 -0.05112 0.74945 0.14959 0.05166 0.61761 -0.05697 0.00363 -0.35580 0.58915 0.12842 0.36517 -0.09175 -0.53546 -0.52967 0.32343
M332~D -0.30973 0.48930 -0.43575 0.01066 -0.06271 -0.29957 0.04456 0.03493 0.05180 -0.15149 -0.28027 -0.62161 0.00978 0.20479 0.06943 0.03183
|M305+X| 0.11690 -0.12615 0.36030 0.04490 0.13467 0.25370 0.02097 0.00101 -0.01001 0.14630 0.01491 0.38788 -0.02723 -0.19125 -0.18944 0.05168
M131 -0.23670 0.41328 -0.41375 0.01726 -0.11670 -0.17765 -0.00870 0.12424 -0.17951 -0.01148 -0.29470 -0.65790 0.00859 0.10498 -0.17424 -0.06020
M243~J 0.19871 -0.53783 0.20478 -0.02476 0.11239 -0.86069 0.00053 0.05596 -0.16634 -0.49950 0.48516 0.26072 0.41390 -0.10740 0.29051 -0.70729
|M106+M288| -0.10040 0.14663 -0.38454 0.06809 -0.09287 -0.24914 -0.04092 -0.02656 -0.03822 -0.21881 -0.14833 -0.35414 0.06795 0.03037 0.31820 -0.04782
M102~D -0.00911 -0.11852 0.00900 -0.06667 0.03004 0.14110 -0.03760 -0.16562 0.21294 0.08094 -0.02830 0.06842 -0.17572 -0.01527 0.05062 0.19114
M380~B -0.27431 0.23720 -0.17728 -0.00274 -0.02379 -0.22163 0.23186 0.14354 -0.10482 -0.28631 0.09229 -0.51511 0.32209 0.20064 0.02468 0.16281
|M153+M342| -0.06450 0.05680 0.12796 0.09651 0.14809 0.04861 0.11874 0.09558 -0.20646 0.04997 -0.12806 0.30484 0.04705 0.20345 0.09770 -0.17308
M038~BX 0.13391 -0.06529 0.39142 0.02569 0.10723 0.15401 0.11051 0.20407 -0.15818 0.07046 0.04071 0.46326 -0.00456 0.04011 -0.04091 -0.13665
M105~A -0.11363 0.06890 -0.17342 -0.18190 -0.05449 0.18806 -0.03458 0.03533 0.17149 0.10282 -0.15515 -0.13546 -0.19759 0.28625 -0.12127 0.12519
M145 -0.06102 -0.04794 0.00327 -0.10448 0.01145 0.16920 -0.04067 -0.01746 0.28555 0.03605 -0.22996 0.45759 -0.25725 0.55123 0.07367 -0.07359
M195 0.20976 -0.04194 0.40484 0.18975 0.07037 0.15161 -0.00559 0.01227 -0.26081 0.21541 0.15588 0.11689 0.04838 -0.44375 -0.13629 0.04604
M220 -0.05554 0.04533 -0.15333 -0.06386 0.00936 -0.20150 -0.09642 -0.04091 0.07435 -0.12423 -0.04496 -0.19435 -0.09729 -0.00453 0.02962 -0.10596
M269~A -0.11467 0.02452 -0.26405 0.00886 -0.01167 -0.22548 0.03918 -0.07878 0.08835 -0.16444 -0.02670 -0.33062 0.06065 0.05575 0.12017 0.04213
M292~F 0.04938 -0.12344 0.05722 -0.04503 -0.01270 -0.05841 -0.10777 -0.12338 0.08224 -0.01512 0.09894 -0.00872 -0.03619 -0.19270 0.01540 0.11776
N39B@C -0.24321 0.24254 0.17757 0.08360 0.21293 0.01461 0.20785 0.30354 -0.35134 0.00550 -0.01699 0.39279 0.20991 0.42334 0.24787 -0.52217
M128 -0.16301 0.61366 -0.23699 0.26212 0.08789 0.12125 0.20960 0.14454 -0.31142 0.19717 -0.41790 -0.21744 0.18229 0.15534 0.37770 -0.02823
M387~CA 0.01660 0.05304 0.20866 0.08067 0.01411 -0.10104 -0.01351 0.02319 -0.18528 0.02076 0.03545 0.07670 0.12061 -0.13380 0.04036 -0.10087
|M036+N14| 0.16661 -0.16572 0.37201 0.02970 0.13807 0.35453 -0.11466 -0.00624 0.02706 0.20437 0.05746 0.58933 -0.13666 -0.04817 -0.09373 0.05731
|M327+X| -0.07352 0.09130 0.27946 0.17505 0.10370 0.10632 0.23741 0.17689 -0.33751 0.11565 -0.11753 0.34705 0.16020 0.12070 0.08465 -0.26896
M005 0.01920 -0.18056 0.05566 -0.24508 0.06430 0.16806 -0.10707 -0.02076 0.46364 0.03454 -0.07295 0.50612 -0.29424 0.44284 -0.07488 0.01764
M038~E -0.10569 -0.05282 0.08877 -0.05055 0.02190 0.21650 0.12220 0.07167 0.11717 0.02003 -0.14792 0.36494 -0.10797 0.36141 0.08063 0.00615
M109 -0.16225 0.16432 -0.24715 0.01372 -0.03052 -0.02579 0.00107 0.07111 0.04430 -0.10574 -0.26656 -0.07217 -0.05294 0.37628 0.16268 -0.08829
M250~BA -0.32763 0.51006 -0.40739 0.14963 -0.00510 -0.43007 0.14184 0.09699 -0.10048 -0.07812 -0.31268 -0.52067 -0.06759 0.13330 0.18168 -0.25044
M387~EE 0.07212 -0.43834 -0.01687 -0.03459 0.11963 -0.67428 0.13382 -0.16402 -0.03633 -0.56333 0.30296 0.25740 0.39572 -0.23702 0.35818 -0.53987
|M136+X| 0.18602 0.06253 0.42876 0.14165 0.06788 0.31878 -0.02321 0.08387 -0.25223 0.29742 0.15740 0.10304 0.08793 -0.40225 -0.25612 0.10345
M029~B 0.00678 0.02158 0.14769 0.03402 0.01138 0.27374 0.13777 0.13895 0.00147 0.13136 -0.16261 0.30379 -0.08038 0.29156 0.00369 -0.02301
M041 -0.03968 -0.07569 0.24272 -0.07065 0.12664 0.19497 0.05118 0.07255 0.13377 0.03772 -0.03821 0.52204 -0.11955 0.25534 -0.00021 -0.09286
M125 -0.10267 -0.04338 -0.00358 0.03124 0.04362 -0.16150 0.19172 0.09328 -0.14922 -0.11490 0.01893 0.12380 0.12684 0.14358 0.15652 -0.14433
M218~B -0.15583 0.22399 -0.07343 0.19786 0.00931 0.06647 0.17892 0.08397 -0.16128 -0.01851 -0.21827 -0.08282 0.12821 0.17956 0.28128 -0.03210
M265~F 0.06089 -0.23168 -0.07614 -0.03922 -0.06031 -0.09189 -0.07108 -0.15292 0.05893 -0.09492 0.16172 0.19862 0.07806 -0.04890 0.14152 -0.08619
M286 -0.02615 0.04376 0.07322 -0.02009 0.05441 0.02853 0.08231 0.14827 0.01114 -0.00455 -0.04037 0.11946 -0.03588 0.13412 -0.04061 -0.04455
M318~A1 -0.58813 0.61833 -0.23797 0.14828 0.04719 -0.06746 0.47689 0.47087 -0.10752 -0.18189 -0.18074 -0.18057 0.17807 0.77419 -0.02108 0.09716
|M370~B+M072| -0.10622 -0.01502 -0.09194 -0.18476 -0.01833 0.08259 -0.08127 0.01036 0.37721 -0.04516 -0.14257 0.20959 -0.17414 0.40006 -0.03623 -0.03626
M048~K -0.03792 0.16208 -0.13238 0.11027 -0.03937 0.02187 0.10530 0.15274 -0.11575 0.05832 -0.14695 0.01232 0.06324 0.25866 0.12076 -0.20339
M145~A -0.35130 0.40422 -0.07514 0.08477 -0.01542 -0.09218 0.29284 0.13068 -0.12292 -0.14408 -0.09027 -0.27094 0.20139 0.37533 0.04918 0.00741
M291 -0.08762 0.36312 0.03311 0.06054 -0.02204 0.04359 -0.15962 0.05468 -0.21766 0.14847 -0.15723 -0.23391 0.03649 -0.15418 -0.23804 0.01714
M292 -0.10885 0.12908 -0.07657 -0.16955 -0.03934 0.13253 -0.11892 -0.10727 0.18496 0.11095 -0.20499 0.04688 -0.24610 0.16734 -0.08691 0.10655
M338 -0.10767 0.00539 -0.14931 0.03119 -0.09353 -0.28319 0.06412 -0.13269 -0.10130 -0.15343 0.07787 -0.44743 0.23264 -0.29795 0.12856 0.04482
N8B -0.04182 -0.20452 -0.02241 -0.17372 0.06045 0.17970 -0.16522 -0.11768 0.37825 0.09318 -0.02886 0.44253 -0.30406 0.32191 0.00116 0.04442
M131~E -0.16830 0.21803 -0.02389 0.09651 0.04833 0.05765 0.26659 0.13269 -0.07367 0.05694 -0.24069 0.06210 0.07330 0.35653 0.13955 -0.14539
M136~C -0.02781 -0.05217 -0.00862 -0.07271 -0.07541 0.17761 0.05025 0.04503 0.00352 0.06016 -0.04217 0.13430 -0.05454 0.04824 -0.03221 -0.07930
M147 -0.29490 0.30048 0.01220 0.06180 0.00137 -0.02145 0.36047 0.03219 -0.26726 0.02536 -0.26388 0.16689 0.14765 0.27740 0.06281 -0.26867
M319 -0.11583 0.19455 0.06476 0.03720 0.04276 0.04351 -0.04421 -0.02757 -0.10203 0.15739 -0.13926 0.08331 -0.05269 -0.02813 -0.04910 0.02497
M327~P -0.13533 0.17438 -0.05540 0.13576 0.01864 -0.10182 0.26439 0.14281 -0.21235 -0.06998 -0.12957 -0.06222 0.24411 0.19007 0.26637 -0.18885
M328~B -0.11015 0.16272 0.13601 0.09179 0.03610 0.18335 0.14398 0.17957 -0.16800 0.11185 -0.15316 0.19628 0.07900 0.11598 0.07790 -0.02417
M362~A 0.16626 -0.13122 0.32084 0.04278 -0.01019 0.21946 -0.17545 -0.00357 -0.00972 0.21187 0.13857 0.26859 -0.09747 -0.31588 -0.22690 0.05118
M367~C 0.17184 -0.43579 0.54769 -0.09432 0.12694 0.11283 0.13184 0.03816 -0.32319 0.20844 0.03586 0.40720 0.00047 -0.04312 0.02526 -0.22440
M369 0.09960 -0.10988 0.30224 0.01335 0.05019 0.31392 -0.07973 -0.01132 0.04856 0.18872 0.04479 0.41655 -0.15359 -0.10092 -0.12728 0.13932
N08 0.04112 -0.20860 0.00988 -0.07633 0.04177 0.20682 -0.03901 -0.12175 0.31833 0.08816 -0.05001 0.37354 -0.30273 0.25798 0.05104 0.00004
|M370~B+M388| 0.04600 -0.04005 0.02867 -0.05677 -0.02405 0.00562 -0.02565 -0.03589 0.01330 -0.01444 0.00032 0.03907 -0.07816 0.04211 -0.03106 -0.00957
|M377+M320+M377| -0.11337 0.13757 0.06041 0.17851 0.11197 -0.00840 0.28003 0.12547 -0.26231 -0.02391 -0.07893 0.01539 0.26566 0.03427 0.18269 -0.16749
M029~A 0.07238 0.02200 0.27897 0.20011 0.04068 0.07487 0.29246 0.17245 -0.35060 -0.01159 0.08599 0.04585 0.24085 -0.10904 0.02008 -0.08648
M230 0.00460 0.15676 -0.32024 0.15869 0.00360 -0.01202 0.19349 0.07238 -0.17275 0.03208 -0.08276 -0.29719 0.23035 -0.00143 0.22416 -0.02903
M315 -0.10840 0.25426 -0.16977 0.08438 -0.01067 -0.00427 0.06831 0.09664 -0.20276 -0.10441 -0.29711 -0.00430 0.11360 0.12356 0.12602 -0.13996
M381 -0.04059 0.10124 0.09519 -0.01555 0.03407 0.22418 0.11314 0.08466 0.05445 0.07035 -0.16706 0.26130 -0.16017 0.37384 0.05911 -0.04974
M384~AB 0.13544 -0.04774 0.49515 0.08343 0.08655 0.42985 -0.05269 0.05667 -0.15425 0.32090 0.00680 0.43344 -0.10585 -0.25490 -0.21222 0.13204
M387~I -0.27350 0.32667 0.78413 0.14175 0.22805 0.53840 0.32493 0.24844 -0.43695 0.49974 -0.42976 0.75227 -0.15288 0.28720 -0.07544 -0.23761
N34@B 0.18692 0.04549 -0.42769 0.29627 0.12243 -0.18318 0.51310 0.17061 -0.11421 -0.11353 -0.37122 0.06215 -0.04275 0.57371 0.45507 -0.51864
N51G 0.19128 -0.60386 0.98112 -0.01765 0.26618 0.13088 0.16417 0.01184 -0.57946 0.34258 0.07025 0.63329 0.02833 -0.25660 0.09564 -0.26792
|M036+N30C| 0.09022 -0.22474 0.08288 0.02630 0.01119 -0.15824 -0.07947 -0.11344 -0.11224 -0.09601 0.15495 0.27645 0.09452 -0.21361 0.16235 -0.21427
M010 0.03852 -0.41099 -0.14649 0.00477 0.03663 -0.62388 0.17787 -0.20900 -0.11978 -0.44256 0.20693 0.42992 0.29755 -0.01922 0.65189 -0.61527
M038~A -0.07775 0.06536 -0.06795 0.08598 0.02131 -0.10164 0.28683 0.06028 -0.16914 -0.07968 -0.03364 -0.07977 0.25412 0.09637 0.22991 -0.08465
M051~B -0.13076 0.16228 0.13132 0.00118 0.07831 0.21694 0.20436 0.16317 0.05901 0.05635 -0.21098 0.31579 -0.06407 0.43801 0.07037 -0.14393
M136 -0.09749 0.15378 0.02855 0.04863 -0.05143 0.10854 0.01566 0.02656 -0.20112 0.19601 -0.03505 -0.23468 0.12748 -0.17193 -0.09155 0.16836
M281~F -0.09604 0.15473 -0.10848 0.11580 0.10358 0.09699 0.17643 0.19850 -0.03526 0.06828 -0.16898 0.13857 0.10219 0.29931 0.28925 -0.02359
M346~A 0.00438 -0.01915 -0.00310 -0.12340 0.04523 0.07738 -0.02267 0.04950 0.20124 0.02122 -0.09591 0.21472 -0.21572 0.28355 -0.01400 -0.02780
N30D@B -0.11488 0.05579 0.10156 0.20264 0.06775 -0.13889 0.42021 0.18541 -0.37561 -0.01868 0.03720 0.09786 0.36538 0.09403 0.23946 -0.30026
|M217+M388| 0.01770 -0.03597 -0.11363 -0.10382 -0.01107 0.12150 -0.13184 0.03695 0.31272 -0.00782 -0.14820 0.29766 -0.20157 0.33628 -0.00003 -0.01957
|M218+M320| -0.21109 0.22227 0.20091 0.11852 0.06906 -0.17132 0.34195 0.26073 -0.24953 -0.12060 0.01491 -0.15885 0.26558 0.21715 0.00240 -0.23786
M003 0.06242 -0.17659 0.00187 -0.17617 0.05005 0.02107 -0.05547 -0.05533 0.37950 -0.07102 -0.05407 0.28795 -0.19426 0.33377 0.05927 0.01430
M044 0.08701 -0.30093 0.06021 -0.06631 0.10795 -0.35516 0.05094 -0.00773 0.09878 -0.20134 0.21565 0.26543 0.09919 0.09025 0.11554 -0.25615
M050~K -0.01129 -0.30112 0.05335 0.10718 0.07345 -0.23801 0.14566 -0.19259 -0.09778 -0.26359 0.11637 0.56925 0.23604 0.01381 0.58570 -0.49471
M057~B1 -0.25829 0.30399 -0.10073 0.19334 0.02946 -0.10459 0.25142 0.09818 -0.28052 -0.01701 -0.17109 -0.15633 0.19505 0.05896 0.27461 -0.21135
M069~A -0.02538 0.20633 -0.32961 0.09536 -0.12877 -0.23159 -0.04604 -0.12215 -0.07951 0.02769 -0.06268 -0.46558 0.00328 -0.20302 0.11443 -0.11008
M073~B -0.18392 0.16177 0.07170 0.12041 0.08223 0.14083 0.22882 0.12008 -0.05516 0.02416 -0.22375 0.23733 0.08175 0.35625 0.18345 -0.04123
M144 -0.07954 0.05981 -0.00267 0.01729 0.02788 0.02426 0.20912 0.01736 -0.03382 -0.05861 -0.01392 -0.04396 0.08615 0.14183 0.11726 0.05738
M149~A2 0.03766 -0.11612 0.11811 -0.02818 0.05237 0.08778 0.02390 0.00974 0.12402 0.04094 0.01302 0.31339 -0.07815 0.11272 -0.01705 -0.07359
M207 0.02072 -0.04901 0.32706 0.17982 0.03856 0.12478 0.06134 0.07626 -0.24215 0.14396 0.09455 0.24604 0.10090 -0.22401 0.00314 -0.02176
M221 0.11768 -0.21791 0.13633 0.04542 0.11287 -0.28621 0.09047 0.03568 -0.13489 -0.21373 0.24118 0.27679 0.22430 -0.09925 0.18395 -0.27129
M222 -0.05239 0.27075 0.02759 0.02703 0.02531 -0.02770 -0.03449 0.09165 -0.12581 0.04111 -0.14615 -0.06038 -0.04804 0.00521 -0.10669 -0.05671
M228~GA 0.14102 -0.12198 0.49999 0.20767 0.09895 0.14693 0.10906 0.11254 -0.35035 0.15579 0.06356 0.41828 0.13547 -0.33050 -0.00900 -0.11286
M240~E -0.14977 0.14374 0.08738 0.12985 0.17670 0.15574 0.30498 0.22474 -0.19895 0.10887 -0.15878 0.22030 0.16660 0.24860 0.20786 -0.13897
M269 -0.05773 0.13411 0.09614 -0.08837 0.07393 0.21152 -0.01984 0.12553 0.07012 0.12328 -0.08262 0.19603 -0.14947 0.23750 -0.09426 0.03332
M297~D 0.12232 -0.37279 0.15489 -0.16588 0.09503 -0.24316 -0.05862 0.00714 0.18731 -0.17813 0.27475 0.31981 -0.05454 0.09337 0.05877 -0.22625
M367~A -0.10113 -0.01355 -0.07496 -0.13912 0.01254 0.02472 -0.01442 0.04160 0.26439 -0.03322 -0.10681 0.29389 -0.23252 0.43381 0.00213 -0.09831
M384~D -0.21648 0.22998 0.03350 0.06166 -0.02106 0.21225 0.23507 0.06898 0.02325 0.08545 -0.32237 0.14427 -0.07584 0.43986 0.09238 -0.00730
N(N01) 0.16724 -0.19040 0.35621 0.07474 0.05414 0.10326 0.02517 -0.00259 -0.09407 0.07620 0.16635 0.31794 0.15096 -0.27596 -0.01199 -0.04799
N46 -0.05477 0.34842 0.77134 0.45704 0.26671 0.56882 0.60317 0.60649 -0.69640 0.30672 -0.25412 0.55598 0.18937 0.24718 -0.03674 -0.07380
|M175+M288| -0.12887 0.06257 0.13407 0.12875 0.08132 0.02020 0.37272 0.19297 -0.24616 0.01288 -0.13883 0.38468 0.13788 0.31432 0.25372 -0.30611
|M370+M072+M370| -0.11281 0.06332 -0.09669 -0.08284 0.03171 -0.02516 0.10515 0.02906 0.01831 -0.05603 -0.13772 0.06432 -0.02535 0.32419 0.10057 -0.07943
M002~B 0.00933 -0.30142 -0.03223 0.18492 0.12140 -0.48213 0.30115 -0.05409 -0.28156 -0.33038 0.12520 0.61751 0.41924 0.03562 0.66676 -0.65929
M035 -0.12857 0.34762 -0.20000 0.10715 -0.05136 0.07790 0.08884 0.19173 -0.19120 -0.08806 -0.30642 -0.16770 0.05932 0.28460 0.05614 -0.09024
M051~A -0.06677 0.13805 0.20248 0.06292 0.05262 0.20769 0.14710 0.08477 -0.21367 0.18555 -0.16266 0.22092 0.00785 0.13724 0.04261 -0.04670
M051~C -0.06266 0.08036 0.09277 -0.03446 0.04936 0.18307 0.00138 0.05169 0.17135 0.05715 -0.10239 0.17294 -0.14368 0.24914 -0.00226 0.09620
M053~A 0.04646 -0.07604 0.05983 -0.08942 0.05110 0.13447 -0.03546 0.01417 0.23642 0.00873 -0.00855 0.34150 -0.18211 0.29895 -0.00247 -0.08666
M056 0.10807 -0.12381 0.13317 0.00978 0.11939 -0.10288 0.07654 0.12345 0.00343 -0.01824 0.13217 0.13430 0.08630 0.07333 -0.04639 -0.12440
M110 -0.19505 0.14301 0.04616 0.13978 0.09602 -0.20529 0.34419 0.13714 -0.20835 -0.14390 -0.05908 -0.01398 0.28258 0.27346 0.22830 -0.21066
M223~B -0.10001 0.25921 -0.21552 0.11001 0.01880 -0.17526 0.17458 0.14703 -0.21744 -0.07006 -0.25810 -0.20881 0.04820 0.18478 0.10821 -0.30002
M263~B 0.05441 -0.11835 0.19927 -0.04357 0.08725 0.08456 0.01569 -0.06389 0.13670 0.05727 0.05662 0.26302 -0.04554 0.03953 0.06746 -0.01026
M264~B 0.01719 -0.06352 0.07334 -0.09261 0.02549 0.07708 -0.04700 0.02801 0.17843 -0.00397 -0.01668 0.33725 -0.15096 0.15199 0.01556 -0.07265
M269~2 -0.05632 0.14561 -0.09698 0.14521 -0.00201 -0.17682 0.18966 0.07738 -0.29137 -0.11093 0.06148 -0.30764 0.33706 -0.18242 0.13439 -0.09762
M269~A1 -0.10113 -0.03234 -0.04831 -0.12402 0.08340 -0.03019 0.03273 -0.00704 0.22486 -0.04639 -0.10613 0.21236 -0.11178 0.35456 0.09371 -0.06848
M310 -0.13754 0.08889 0.03529 -0.05177 0.07158 0.00357 0.09574 0.06142 0.08226 -0.05682 -0.15325 0.29156 -0.01653 0.39178 0.14959 -0.13377
M325~D -0.10513 0.07382 0.06863 0.04095 0.03569 0.01779 0.14548 0.08333 -0.04768 -0.02267 -0.12530 0.18700 0.04023 0.21311 0.14534 -0.14636
M341~Q -0.14361 0.16491 -0.23518 0.12682 -0.04827 -0.24279 0.20616 0.07122 -0.18831 -0.14737 -0.06166 -0.41540 0.28674 0.02648 0.25787 -0.09849
M346~B 0.00456 -0.09339 0.04182 -0.14942 0.07209 0.07453 -0.01758 -0.06993 0.34893 -0.03112 -0.02575 0.33450 -0.19313 0.33140 0.04936 -0.03258
M417~H 0.02334 -0.12262 -0.00463 -0.07299 -0.01175 -0.01012 -0.02253 -0.06576 0.14968 -0.04045 0.07652 0.04785 -0.07355 -0.09351 -0.01398 0.06903
|M036+N24| 0.05285 -0.17344 0.09105 -0.09283 0.06079 0.10745 -0.05032 0.00255 0.21947 0.05710 0.03692 0.40009 -0.25308 0.17072 -0.01028 -0.04831
|M106~2+M288| -0.08338 0.15004 0.24647 0.29895 0.02717 -0.01654 0.54553 0.26045 -0.47045 -0.06010 -0.05087 0.16057 0.42234 0.11674 0.27203 -0.21899
M001~B -0.02725 0.14620 0.45246 0.08230 0.13988 0.27747 0.20318 0.22299 -0.18118 0.17542 -0.11875 0.33363 -0.03680 0.14220 -0.03635 -0.10360
M009~A -0.07457 0.09609 0.13341 0.11954 0.05893 0.01692 0.24222 0.18203 -0.24868 0.05186 0.02497 0.07387 0.13020 0.17901 0.11343 -0.20624
M024~1 -0.28772 0.39163 0.10486 0.16537 0.13131 0.04935 0.45325 0.28833 -0.36731 -0.00631 -0.24508 -0.00234 0.22130 0.38689 0.11732 -0.15088
M041~G -0.06005 0.12619 0.11101 0.21859 0.02794 0.01644 0.29795 0.19171 -0.34953 -0.00234 -0.03718 0.10345 0.24754 0.05296 0.22060 -0.22378
M056~E 0.36130 0.01333 0.52972 0.41637 0.08628 0.36557 0.21492 0.25357 -0.49702 0.14168 0.25750 0.18912 0.24484 -0.51470 -0.11741 0.10557
M061 -0.04155 0.06009 0.23212 0.00340 0.04751 0.29919 -0.03766 0.07992 -0.00149 0.19125 -0.11200 0.23958 -0.13962 0.11903 -0.15903 0.04918
M136~B -0.09225 0.10745 -0.02184 0.06009 0.01319 0.00244 0.16433 0.14457 -0.15505 0.01064 -0.11455 0.10344 0.06489 0.23953 0.08116 -0.15544
M136~I -0.03158 0.09843 0.16592 0.03601 0.07645 0.23141 0.09651 0.06483 -0.00755 0.15291 -0.09878 0.27889 -0.04503 0.13600 -0.03792 -0.00352
M210~G 0.00157 -0.01216 0.22734 0.03768 0.02198 -0.02182 0.20370 0.12323 -0.16212 0.01005 0.00865 0.20210 0.08803 0.06184 0.03479 -0.16456
M230~A -0.13719 0.12836 0.13164 0.16820 0.15414 0.15705 0.21488 0.12907 -0.16180 0.08964 -0.18634 0.28599 0.11282 0.20283 0.18796 -0.04409
M242~AB -0.01237 0.01873 -0.00598 0.10977 0.04737 0.18693 0.06038 0.12588 -0.14304 0.13140 -0.10383 0.03356 0.02496 0.07779 0.00317 0.03122
M247~G -0.10038 0.23645 0.01692 0.14222 0.06443 0.00263 0.22534 0.15187 -0.30797 0.01297 -0.08594 0.05333 0.17345 0.19371 0.11656 -0.17897
M265 0.03988 -0.24690 0.06144 -0.07980 0.06829 -0.34817 0.03025 0.12920 0.00533 -0.22786 0.12204 0.22543 0.10814 0.10485 0.13341 -0.33965
M295 -0.19487 0.27837 -0.13066 0.01428 0.09270 -0.21853 0.08211 0.17524 -0.08634 -0.05093 -0.24158 -0.10032 -0.03716 0.18720 0.10006 -0.19339
M316~E2 -0.07260 0.02605 0.16381 0.06243 0.10402 0.07625 0.10327 0.13132 -0.05391 0.05371 -0.05081 0.22966 -0.02616 0.17930 0.01043 -0.08081
M318~A -0.16544 0.29520 0.16158 0.22134 0.10736 0.09174 0.31685 0.29340 -0.35247 0.06981 -0.13114 0.10363 0.23366 0.19557 0.10184 -0.04225
M323 -0.06525 -0.04008 0.04893 0.07743 0.02418 0.10105 0.19687 0.06874 -0.02942 0.03366 -0.13865 0.24332 0.01482 0.33277 0.18558 -0.18479
M373~A -0.07905 0.01397 0.21603 0.03841 0.09036 0.14305 0.10519 0.10663 0.02837 0.10609 -0.14589 0.42492 -0.04616 0.31077 0.03512 -0.08852
M379 0.09862 -0.35755 0.15291 -0.05076 0.10258 -0.31734 0.01575 -0.03653 -0.02307 -0.19398 0.22820 0.47230 0.13157 0.00861 0.25024 -0.39751
M384 0.00011 0.09811 0.45585 0.24900 0.14752 0.28125 0.22044 0.13069 -0.31211 0.23252 -0.05143 0.33153 0.12361 -0.08946 0.02320 -0.03051
|M195+M038~A| 0.03867 0.02863 0.25297 0.24558 0.14475 0.11169 0.21594 0.14390 -0.30398 -0.02491 0.04592 0.24632 0.20149 0.06299 0.10719 -0.16863
|M288+N01| 0.11694 -0.05036 -0.03501 0.01343 0.05600 0.19595 -0.13926 -0.00302 0.12900 0.08817 -0.02793 0.25825 -0.09065 0.07321 0.02980 0.08829
|M305+M136| -0.18790 0.22156 0.08222 0.08255 0.06145 0.08324 0.21092 0.18072 -0.09844 0.02332 -0.21941 0.13921 0.01554 0.28173 0.17048 -0.10953
|M327+M059| -0.07158 0.04430 0.14590 0.14055 0.15362 -0.06760 0.22918 0.20521 -0.18929 -0.00485 -0.07055 0.26168 0.16398 0.12167 0.17444 -0.25438
|M370+M388+M370| 0.02623 -0.08360 0.10528 -0.00855 0.04322 0.10037 0.02030 0.00251 0.06898 0.03380 -0.03129 0.24301 -0.05061 0.07699 0.04952 -0.04710
M006@G 0.01049 -0.00755 0.09670 -0.00753 0.03686 0.10824 0.00962 0.05078 0.07666 0.08279 -0.07591 0.30276 -0.06977 0.17310 -0.01110 -0.06724
M047 -0.21854 0.31057 0.02912 0.16154 0.08230 0.12148 0.33055 0.23793 -0.25214 0.10439 -0.25245 0.08242 0.11496 0.33005 0.15892 -0.16813
M058 -0.25334 0.16666 0.00038 0.21110 0.13825 0.10100 0.45525 0.23175 -0.23058 0.01898 -0.17552 0.24977 0.24974 0.56388 0.18548 -0.25834
M075~G -0.06207 0.06039 -0.02095 -0.02042 0.07734 0.02465 0.08200 0.09325 0.10490 -0.03412 -0.04766 0.19240 -0.02971 0.27205 0.03929 -0.08559
M080~A -0.25804 0.38051 -0.04390 0.07759 0.03298 -0.00941 0.17727 0.17970 -0.15520 -0.05097 -0.36282 0.03121 0.06335 0.44056 0.15228 -0.26402
M103 -0.24268 0.28538 0.02775 0.24275 0.04413 -0.04435 0.43300 0.23141 -0.36044 -0.09570 -0.22030 0.01465 0.23518 0.26691 0.30226 -0.31368
M147~E -0.48624 0.45056 0.04599 0.24036 0.09195 -0.13708 0.59782 0.21762 -0.50322 -0.04496 -0.39879 0.20131 0.34666 0.49156 0.38088 -0.50453
M205~C -0.05413 -0.02967 0.04929 0.03402 0.12115 -0.11313 0.13720 0.14003 -0.03783 -0.14630 -0.00712 0.27170 0.07691 0.22776 0.18815 -0.28016
M208 -0.05370 0.13767 0.16599 0.10614 0.11796 0.22200 0.13218 0.17222 -0.04124 0.08903 -0.12871 0.25439 -0.04677 0.26882 0.00980 -0.02457
M210 0.00337 0.01124 0.33108 0.09918 0.10944 0.08369 0.10422 0.09195 -0.17299 0.03151 -0.02993 0.35682 0.01922 0.07238 0.03465 -0.13761
M210~D -0.10650 0.04602 0.14622 0.09676 0.12502 0.17848 0.23124 0.12922 -0.20824 0.07891 -0.16515 0.38808 0.02762 0.32783 0.21870 -0.17841
M226~C -0.32678 0.30837 -0.11529 0.11157 0.01170 -0.16035 0.22765 0.06168 -0.19044 -0.06505 -0.17653 -0.13161 0.24197 0.26317 0.27234 -0.14821
M251~C -0.33665 0.28095 0.02953 0.08164 0.06626 -0.17980 0.37726 0.22214 -0.26790 -0.10660 -0.12597 -0.03452 0.23301 0.28844 0.17937 -0.11771
M254~C -0.13635 0.25224 0.21044 0.16548 0.11642 0.04797 0.28883 0.23054 -0.27759 0.01308 -0.11121 0.11604 0.21473 0.21556 0.02125 -0.16984
M261~B1 0.01064 -0.07347 0.03855 0.01100 0.03012 0.01511 0.04931 0.04074 -0.00749 -0.04863 0.05683 0.10739 0.03254 0.06584 0.03972 -0.09101
M311~B 0.05759 -0.32672 0.22661 0.16129 0.16524 -0.37114 0.25774 0.08328 -0.28762 -0.24538 0.28820 0.49668 0.37607 -0.04805 0.41401 -0.49593
M312 0.03337 -0.04258 0.20908 0.04208 0.08136 0.03214 0.07455 0.05597 -0.17567 0.04963 0.05305 0.24177 0.07132 -0.06313 0.04553 -0.12249
M318 -0.19430 0.25636 -0.00834 0.04145 0.01659 0.03991 0.21001 0.27623 -0.19181 -0.02396 -0.00528 -0.19472 0.15253 0.25305 -0.05231 0.00194
M367~G 0.02475 -0.03008 -0.06765 -0.01732 -0.08608 -0.01661 -0.00121 0.02182 0.06774 -0.06127 -0.00840 0.00016 -0.01366 0.05643 -0.01284 0.01826
M367~I 0.02434 -0.02417 0.04293 -0.03961 0.03427 0.06783 -0.02707 0.02739 0.07467 0.09865 -0.01835 0.13648 -0.08004 0.08125 -0.05494 -0.07425
M383 -0.04317 0.05779 0.33764 0.14743 0.09635 0.25839 0.17449 0.11962 -0.19935 0.19973 0.00029 0.41601 0.07305 -0.01448 0.02425 -0.10857
M418~C 0.04478 -0.04274 -0.06638 -0.05005 -0.04603 0.02529 -0.08810 -0.05983 0.09087 0.00873 0.02116 -0.04958 -0.04300 -0.09553 -0.10315 0.09561
N51@B 0.09134 -0.01378 0.00651 0.05137 0.15483 -0.08178 0.01168 0.03197 -0.05090 -0.09432 -0.03860 0.10259 0.05180 -0.00263 0.10958 -0.01630
|M175+M136| -0.13796 0.10944 0.39426 0.19867 0.17279 0.19465 0.48665 0.34031 -0.33602 0.11088 -0.09804 0.55240 0.15044 0.47095 0.23041 -0.26509
|M370+M046+M370| -0.03183 -0.00986 0.08865 0.01551 0.02652 0.04686 0.10778 0.11090 -0.00995 0.02656 -0.08891 0.19909 0.00143 0.16765 0.05632 -0.05022
|M377+M377| -0.12107 0.10234 -0.01790 0.14415 -0.00338 -0.13658 0.34741 0.19668 -0.21550 -0.16448 -0.01184 -0.06564 0.25303 0.14675 0.32008 -0.20926
M003~C -0.17336 0.12618 0.20879 0.08871 0.06550 0.07628 0.23821 0.22326 -0.19553 0.02350 -0.05558 0.21862 0.05543 0.28016 0.03804 -0.05704
M057~A2 -0.00926 -0.02574 0.07363 0.01687 0.05192 0.00396 0.16623 0.11313 -0.01702 0.00085 -0.01701 0.17722 0.01934 0.21761 0.09756 -0.14190
M057~A4 -0.09246 0.11805 0.14420 0.05855 0.01398 0.16673 0.22837 0.18313 -0.03528 0.02187 -0.14957 0.28834 0.00011 0.32968 0.15106 -0.12247
M103~3 -0.09589 0.13593 0.16240 0.21345 0.05754 0.04563 0.32510 0.20644 -0.30191 -0.01357 -0.03880 0.09208 0.18797 0.15070 0.12518 -0.24959
M110~A -0.24898 0.27935 -0.12008 0.10989 0.07221 -0.11818 0.22092 0.15871 -0.17324 -0.01039 -0.31235 0.07168 0.05287 0.39636 0.23579 -0.28376
M115~A -0.14712 0.22818 0.12580 0.17728 0.08163 0.12336 0.39334 0.30714 -0.30507 0.07190 -0.13573 0.20673 0.18892 0.30009 0.17456 -0.17668
M146~D -0.12660 0.16434 0.16098 0.09129 0.08011 0.09042 0.26717 0.18283 -0.18091 0.02539 -0.10865 0.25812 0.11091 0.30050 0.20573 -0.16017
M149~A1 -0.02926 0.06937 0.11532 0.10488 0.05843 -0.01031 0.15072 0.12347 -0.15361 0.02901 -0.05048 0.21752 0.07458 0.14409 0.16979 -0.20608
M195~D 0.08109 0.09810 0.18311 0.23328 0.05314 0.11583 0.21448 0.08612 -0.36179 0.05805 0.00214 0.03905 0.21783 -0.16683 0.11904 -0.08510
M206~B -0.00070 -0.01667 0.18549 0.03829 0.08516 0.00763 0.14408 0.13532 -0.12113 0.03569 -0.05794 0.34869 0.07069 0.20453 0.12045 -0.17955
M246~B -0.08549 0.19232 -0.00028 0.03356 0.03089 0.17772 0.08766 0.20709 -0.09940 0.02577 -0.23904 0.12626 0.00062 0.35457 0.02494 -0.10400
M263~E 0.02040 -0.13944 0.21663 -0.01849 0.10520 0.10312 0.02935 -0.00227 0.06916 0.00603 0.05230 0.40699 -0.08790 0.15324 0.01721 -0.03738
M264~D -0.08435 0.04172 0.11063 0.10243 0.05974 0.07695 0.16008 0.14946 -0.08116 0.06555 -0.15211 0.18946 0.03816 0.21231 0.12490 -0.15070
M281~C -0.15935 0.24117 -0.25336 0.08055 -0.06619 -0.05628 0.21490 0.19372 -0.20277 -0.05433 -0.20761 -0.12156 0.19282 0.33285 0.19642 -0.21803
M285~C -0.07890 0.15426 -0.01720 0.05846 0.01975 -0.04786 0.18009 0.11488 -0.04930 -0.03206 -0.02623 -0.21819 0.04282 0.07967 0.04537 0.04465
M309~D -0.03208 0.01818 0.21129 0.00552 0.06134 0.15517 0.01565 0.07408 -0.07693 0.08422 -0.06317 0.31320 -0.04554 0.09797 -0.04133 -0.07870
M317~A -0.12818 0.13503 0.12777 0.16411 0.08585 -0.02558 0.23090 0.23181 -0.25545 0.06376 -0.11920 0.18532 0.18332 0.22651 0.18859 -0.21232
N39A -0.12264 0.17780 0.41901 0.21327 0.27739 0.24063 0.55757 0.27927 -0.46811 0.04113 -0.10837 0.83229 0.22401 0.36578 0.17770 -0.51160
|M153+X| 0.04438 -0.01486 0.11696 0.08818 0.05763 0.02668 0.14976 0.06060 -0.12549 -0.00280 0.00256 0.17450 0.11318 0.10221 0.15708 -0.15647
|M218+M101| -0.27009 0.25259 -0.09716 -0.02325 0.12153 -0.03426 0.14893 0.19105 0.08578 -0.06460 -0.19281 0.00094 -0.07492 0.54650 -0.01301 -0.16775
M010~1 -0.08304 0.06444 0.12853 0.24582 0.11997 -0.08843 0.36078 0.15977 -0.37308 -0.00790 -0.08151 0.24722 0.25280 0.12604 0.27950 -0.28596
M010~6 -0.07314 0.03016 0.06298 0.09574 0.05605 -0.00689 0.22027 0.08696 -0.16290 0.01501 -0.03185 0.19431 0.11762 0.07438 0.18439 -0.19563
M038~A2 -0.14919 0.18678 0.14893 0.19516 0.07743 -0.03580 0.30537 0.16913 -0.34497 0.00179 -0.12732 0.13968 0.22287 0.09249 0.19827 -0.23718
M038~B1 0.13473 -0.10264 0.16984 0.03575 0.01951 -0.04172 0.18342 0.11612 -0.01365 -0.11879 0.13540 0.17025 0.10807 0.09405 0.07118 -0.14262
M049~D -0.19773 0.18757 0.10158 0.15127 0.08673 -0.04653 0.29458 0.14553 -0.31596 0.00903 -0.12712 0.07738 0.16774 0.17974 0.21124 -0.21792
M075~M 0.05421 -0.19109 0.28429 0.13051 0.17683 -0.37423 0.30184 0.22449 -0.36064 -0.18491 0.19444 0.34736 0.38429 0.01536 0.29025 -0.54449
M075~O 0.11577 -0.18584 0.07090 0.11904 0.02763 -0.43912 0.12290 0.07304 -0.35184 -0.22948 0.23210 -0.07817 0.39376 -0.20541 0.13823 -0.32823
M096~D -0.15284 0.18963 -0.01165 0.06256 0.08717 0.05352 0.22610 0.14232 -0.04007 0.00209 -0.10637 0.09731 0.02320 0.28958 0.03028 -0.10302
M110~B -0.09003 0.11129 0.07290 0.11257 0.07611 0.01960 0.26121 0.20187 -0.23749 -0.07488 -0.01301 0.07969 0.20138 0.25266 0.07987 -0.13530
M112 -0.10986 0.05204 0.24377 0.08322 0.14015 0.10856 0.22858 0.23440 -0.15016 0.00620 -0.15548 0.47377 0.08832 0.28787 0.12913 -0.22634
M128~D -0.36110 0.39966 0.01917 0.14077 0.12741 -0.05957 0.36475 0.34192 -0.37865 0.04378 -0.35941 0.15733 0.22457 0.59955 0.30839 -0.47896
M143 -0.14800 0.09499 0.08054 0.04526 0.08035 -0.00112 0.21932 0.13572 -0.05389 0.00703 -0.11143 0.21132 0.06396 0.37902 0.17965 -0.21384
M158~H -0.10331 0.16649 0.15375 0.20497 0.11326 -0.09423 0.28967 0.15906 -0.24816 0.01291 -0.06975 0.11541 0.20790 0.16584 0.23908 -0.23493
M180 -0.12165 0.15125 0.11430 0.20732 0.09483 -0.04224 0.30339 0.18222 -0.34280 -0.07746 -0.10071 0.05198 0.25936 0.02893 0.20469 -0.19251
M193 -0.02683 -0.01641 0.22999 0.06000 0.05140 0.05712 0.18118 0.08348 -0.09882 0.03926 -0.07696 0.34574 0.01119 0.20337 0.09714 -0.14692
M243 -0.06410 0.01326 0.13478 -0.02868 0.09372 0.03749 0.11610 0.11095 -0.00565 0.05081 -0.07094 0.22587 -0.03249 0.22580 0.02934 -0.14857
M246 -0.19116 0.14710 0.03864 0.01450 0.11959 0.11381 0.11446 0.10580 0.07514 0.02099 -0.24626 0.31148 -0.16664 0.46232 0.09768 -0.13877
M288~I -0.01371 -0.02046 -0.07072 -0.06796 0.02853 0.08079 -0.05383 -0.00563 0.20673 -0.03900 -0.06889 0.16178 -0.08449 0.13651 0.10550 -0.01741
M294~A 0.05356 -0.18985 -0.06545 0.01204 -0.01783 -0.20685 -0.08689 -0.19791 0.02641 -0.16514 0.10685 0.10345 0.08146 -0.10433 0.20540 -0.14570
M298 -0.12765 0.12472 0.06493 0.09914 0.10849 0.02730 0.18204 0.13698 -0.07027 0.01127 -0.12883 0.19715 0.06571 0.34701 0.16674 -0.10820
M309 -0.17432 0.13366 0.04372 0.07600 0.05369 0.00343 0.32735 0.10689 -0.18269 -0.06330 -0.15556 0.07932 0.16357 0.24463 0.22771 -0.13873
M346~D 0.18160 0.08845 0.20664 0.22885 -0.00407 0.08130 0.05986 0.10039 -0.37128 0.04873 0.21984 -0.04140 0.28996 -0.46001 -0.08065 0.02558
M356 -0.02839 0.08586 0.29302 0.19309 0.08054 0.22905 0.22585 0.16521 -0.23901 0.13478 -0.08354 0.32754 0.15619 0.10024 0.06392 -0.07101
M376~B 0.00019 0.01185 0.18278 -0.00197 0.04571 0.14484 0.01797 0.11708 0.04818 0.07066 -0.06077 0.30983 -0.10975 0.19659 -0.01382 -0.07050
M379~C -0.02251 -0.14209 0.00759 0.18211 0.05690 -0.32119 0.30129 0.00120 -0.37404 -0.22752 0.11296 0.35445 0.38919 0.03248 0.55330 -0.48327
N1B 0.08967 -0.00037 -0.09698 0.08280 0.03527 0.03694 -0.07883 0.06957 -0.01547 0.10072 -0.10043 0.02310 -0.00499 0.00188 -0.10898 -0.05594
|M036+N39C| 0.07482 -0.16885 -0.05741 -0.00620 0.00788 -0.23647 0.08222 -0.02008 -0.00763 -0.24443 0.03717 0.15610 0.12677 0.02179 0.19482 -0.22172
|M175+M175| -0.15808 0.16178 0.11343 0.11377 0.10138 0.06471 0.24155 0.15407 -0.16722 0.03990 -0.17899 0.22647 0.08693 0.26094 0.10967 -0.18373
|M218~D+M288| -0.11615 0.20241 0.12968 0.16110 0.08309 0.02974 0.28105 0.23885 -0.21263 -0.00402 -0.16137 0.20558 0.18123 0.21488 0.19728 -0.22571
|M260~1+N24| 0.04126 -0.06080 0.15895 0.01122 0.14504 0.09322 0.01908 0.10424 0.05491 0.05374 -0.01316 0.35019 -0.11471 0.15661 0.03942 -0.05064
|M260~2+N24| -0.11270 0.13026 0.12142 0.03883 0.14798 0.21715 0.18023 0.15445 -0.05885 0.14772 -0.13534 0.35642 -0.04658 0.31856 0.03987 -0.08589
|M362+X| 0.00175 0.08783 0.26275 0.15682 0.10072 0.09778 0.20091 0.14177 -0.24601 0.09619 -0.03388 0.29039 0.15214 0.10639 0.07469 -0.18105
M016 -0.09146 0.04846 0.16016 0.08726 0.11150 0.15787 0.16885 0.13974 -0.12084 0.10836 -0.05798 0.28727 0.06238 0.14751 0.08154 -0.18747
M024~A1 -0.16851 0.16443 0.06071 0.21459 0.07636 -0.04017 0.36377 0.22027 -0.32378 -0.06601 -0.10386 0.11767 0.25135 0.21055 0.20872 -0.20290
M037 -0.07711 0.16527 0.28506 0.20189 0.13014 0.15852 0.39363 0.27894 -0.29403 0.07905 -0.13956 0.39172 0.20828 0.23849 0.20653 -0.22000
M038~I -0.11851 0.12959 0.07626 0.02332 0.06903 0.11986 0.23514 0.14560 -0.04052 0.03929 -0.20721 0.29260 -0.00810 0.42068 0.11094 -0.18422
M048~E -0.15503 0.16596 0.19914 0.08593 0.11347 0.11196 0.22577 0.14355 -0.14708 0.04790 -0.19600 0.25856 0.06121 0.27797 0.17354 -0.14646
M048~I -0.08958 0.18667 0.06287 0.16646 0.07507 0.01416 0.24446 0.25248 -0.30356 0.05009 -0.11839 0.20329 0.20411 0.18906 0.15193 -0.22161
M059~D 0.05253 -0.00014 0.39172 0.18812 0.16221 0.18074 0.09641 0.18371 -0.31984 0.16832 0.02776 0.30280 0.10151 -0.16444 -0.05478 -0.10117
M075~K 0.08017 -0.15326 0.05727 0.14280 0.05512 -0.38088 0.13700 0.09163 -0.32227 -0.24257 0.17654 0.00938 0.33362 -0.13795 0.25232 -0.32874
M103~2 -0.14742 0.22539 -0.04103 0.20635 -0.00554 -0.08193 0.34084 0.19268 -0.32064 0.01591 -0.11892 -0.09795 0.28999 0.20055 0.21730 -0.14578
M105 -0.02856 0.07295 0.13168 0.04406 0.11046 0.06926 0.11191 0.08917 -0.06109 -0.01867 -0.11258 0.26686 0.03861 0.16567 0.05895 -0.15364
M111 -0.08616 0.03738 0.03358 0.08344 -0.00522 0.02127 0.21292 0.08670 -0.17264 -0.00735 -0.09885 0.26231 0.03432 0.21119 0.17874 -0.17660
M123~B 0.00647 -0.03964 0.25002 0.07196 0.08396 0.11827 0.24040 0.17673 -0.12483 0.05775 0.00846 0.36371 0.04733 0.21029 0.11808 -0.18107
M126 -0.07686 0.10449 0.12288 0.06300 0.09116 0.10270 0.19555 0.16994 -0.11205 0.03510 -0.13122 0.30647 0.08791 0.27506 0.10485 -0.21199
M131~K -0.05347 0.09056 0.16793 0.10671 0.08701 0.08520 0.26740 0.22598 -0.17054 0.06001 -0.15096 0.30681 0.09367 0.27194 0.13807 -0.21397
M136~A -0.17222 0.20447 0.12259 0.10316 0.11484 0.13830 0.30060 0.18820 -0.16162 0.05173 -0.25134 0.30853 0.06446 0.44338 0.20527 -0.20094
M136~Q 0.00899 -0.02545 -0.00138 -0.02076 -0.00645 -0.02266 -0.01766 -0.00469 0.05214 0.03745 -0.01030 -0.01227 -0.04146 -0.00164 0.00283 0.05103
M158 -0.10712 0.01249 0.08743 0.07235 0.06003 -0.08819 0.20618 0.09668 -0.06299 -0.05328 -0.06793 0.27493 0.06857 0.36004 0.20456 -0.23759
M176 -0.09693 0.12432 0.15883 0.17339 0.08967 -0.05024 0.28814 0.18743 -0.26811 -0.02536 -0.11051 0.20288 0.19060 0.25324 0.19158 -0.23061
M206~FA 0.20164 -0.16208 0.41408 0.07916 0.05070 0.32107 0.12400 0.10657 -0.03884 0.12199 0.24291 0.17515 0.05338 -0.19843 -0.15119 0.25323
M207~M -0.07666 0.06157 0.14158 0.18562 0.04515 -0.13725 0.27272 0.16593 -0.32850 -0.09011 -0.04394 0.27401 0.23562 0.12930 0.25021 -0.34736
M209~D -0.11396 0.23230 0.02740 0.15752 0.02118 0.06896 0.26861 0.18814 -0.28173 0.06687 -0.15553 -0.07091 0.19116 0.12967 0.11249 -0.08631
M243~E 0.09952 -0.22631 0.29875 0.09585 0.11929 -0.31598 0.23363 0.10816 -0.30095 -0.18759 0.26270 0.39714 0.31234 0.01668 0.25912 -0.44025
M244 -0.02064 0.05420 0.31312 0.16641 0.13602 0.14289 0.23160 0.21208 -0.26626 0.10605 -0.04468 0.43083 0.09880 0.17570 0.09895 -0.18659
M248~A -0.08832 0.17406 0.18158 0.13311 0.11381 0.05565 0.23204 0.19071 -0.17335 0.02816 -0.18570 0.33113 0.11432 0.23074 0.12164 -0.19823
M252~Q -0.00787 0.17195 0.39887 0.26323 0.10988 0.18330 0.31402 0.23572 -0.40619 0.15485 -0.10543 0.42913 0.14904 0.02924 0.11639 -0.16324
M264~A1 -0.07733 0.05705 0.22434 0.01255 0.07528 0.13047 0.09200 0.09730 -0.00014 0.09392 -0.09614 0.40371 -0.08752 0.27718 0.05253 -0.14494
M277 -0.05524 0.10935 0.11709 0.03631 0.10033 0.13770 0.12204 0.11502 -0.07266 0.03807 -0.11614 0.23740 -0.01551 0.23202 0.03566 -0.02181
M288~D -0.02727 0.00900 0.24845 0.11324 0.12632 0.16322 0.22381 0.18228 -0.18223 0.06481 -0.05550 0.36959 0.07956 0.13355 0.10965 -0.16814
M292~C -0.11206 0.02026 0.02665 -0.03317 0.07952 0.05845 0.06201 0.10189 0.11803 -0.00334 -0.09516 0.23536 -0.06912 0.25168 0.05582 -0.09462
M292~I -0.10967 0.16407 0.29992 0.18684 0.15015 0.11291 0.27598 0.15727 -0.33763 0.08611 -0.07052 0.24687 0.22174 0.11150 0.12827 -0.22594
M319~C -0.18774 0.02619 0.24053 0.25376 0.15926 -0.12247 0.51671 0.31219 -0.42197 -0.10178 -0.14037 0.47164 0.35633 0.39843 0.41647 -0.53418
M321 -0.01903 -0.00097 0.17062 0.05234 0.09732 0.08864 0.14909 0.12013 -0.10686 0.00463 -0.09672 0.24769 0.01939 0.20598 0.14928 -0.20180
M324~D -0.08479 0.07470 0.09848 0.09655 0.06937 0.00285 0.22428 0.08926 -0.18720 0.00106 -0.06452 0.13786 0.16262 0.11005 0.17631 -0.14384
M342 -0.25462 0.33494 0.04662 0.20567 0.05720 0.11507 0.41542 0.21496 -0.31268 0.05232 -0.21601 -0.04054 0.23034 0.27973 0.19345 0.01001
M352~C -0.09162 0.11739 -0.03335 0.06160 0.07116 0.01994 0.18743 0.12583 -0.05692 -0.03448 -0.11149 0.15487 0.05057 0.28917 0.17864 -0.16437
M352~S -0.12475 0.06588 0.09481 0.14201 0.09216 -0.14256 0.24090 0.13374 -0.25274 0.00789 -0.02865 0.09433 0.18166 0.08873 0.32189 -0.21753
M359 0.00796 0.02246 0.29985 0.09953 0.10067 0.15586 0.11363 0.10647 -0.15034 0.12587 -0.06151 0.36609 0.08039 0.06084 0.02036 -0.13654
M362+X 0.05463 0.03380 0.45954 0.20807 0.14592 0.16500 0.18418 0.14944 -0.32074 0.16106 0.03573 0.39108 0.14625 -0.14163 -0.01793 -0.13741
M387~H -0.23478 0.14149 0.13200 0.06525 0.09481 0.05090 0.29685 0.14211 -0.07472 -0.00993 -0.19534 0.36474 0.01833 0.46772 0.19722 -0.25783
M418~B -0.13393 -0.00160 0.01653 -0.08364 0.06372 0.03231 0.09587 0.00805 0.16343 0.00840 -0.13271 0.23952 -0.07873 0.29234 0.09646 -0.05323
N8A -0.30911 0.28562 0.29957 0.42906 0.30409 -0.09919 0.56950 0.31187 -0.66120 0.04183 -0.27179 0.38084 0.40586 0.39958 0.39877 -0.44324
|M157+M288| -0.15334 0.18088 0.07169 0.20157 0.09372 -0.09725 0.42554 0.17007 -0.36600 -0.04581 -0.07856 0.03141 0.29451 0.16300 0.30578 -0.24055
|M175+M153| -0.15258 0.13870 0.20122 0.19335 0.13735 0.08266 0.26628 0.25460 -0.29147 0.01372 -0.14150 0.23880 0.13361 0.24886 0.18512 -0.22422
|M195+M038| 0.02144 0.06259 0.28187 0.23280 0.13151 0.17782 0.36996 0.25971 -0.36499 0.05829 -0.02227 0.40118 0.21057 0.11075 0.18195 -0.25299
|M218+X| -0.13967 0.12022 0.06559 0.19099 0.07769 -0.07727 0.34199 0.20435 -0.31871 -0.09334 -0.06481 0.21986 0.23934 0.19273 0.24509 -0.30386
|M260+N24| -0.05039 0.06829 0.27359 0.12534 0.10450 0.06772 0.19521 0.11005 -0.22923 0.14120 -0.01900 0.29062 0.08602 0.09076 0.07201 -0.16810
|M305+M009| -0.19386 0.28319 0.14062 0.26862 0.05287 0.12313 0.44425 0.31595 -0.40327 0.03587 -0.22832 0.11906 0.19639 0.31640 0.25095 -0.18677
|M305+M320| -0.04029 0.07249 0.22894 0.24262 0.10986 0.03062 0.31285 0.15359 -0.37700 -0.04360 -0.04888 0.22319 0.25429 0.01371 0.18310 -0.24086
|M351+X| -0.08554 0.10456 0.32427 0.20374 0.11830 0.06152 0.22505 0.21025 -0.51223 0.08449 0.00589 0.32036 0.25612 -0.02554 0.11576 -0.18185
M038~B -0.23391 0.28445 0.07168 0.13247 0.07095 0.12734 0.35932 0.22973 -0.16374 0.07076 -0.31684 0.22853 0.07029 0.49502 0.22819 -0.24531
M039~A 0.05486 0.16503 0.48361 0.31050 0.15291 0.24209 0.45681 0.39123 -0.47411 0.15241 -0.08339 0.38650 0.27340 0.04770 0.11231 -0.23113
M039~C -0.21185 0.12263 0.09150 0.03043 0.06190 0.02148 0.23428 0.18680 -0.05384 0.00167 -0.19807 0.31345 0.07822 0.40420 0.15136 -0.26292
M041~J -0.10111 0.09989 0.30700 0.19623 0.09787 0.05543 0.36461 0.21672 -0.31790 0.00416 -0.12291 0.44067 0.20792 0.21562 0.22916 -0.29193
M052~A -0.05579 0.05219 0.17029 0.07232 0.06895 0.01008 0.22675 0.15845 -0.11131 -0.01822 -0.05858 0.27315 0.07202 0.18071 0.13167 -0.17494
M054~C -0.12412 0.05194 0.15055 0.13820 0.09061 0.04057 0.20736 0.12710 -0.22249 0.03147 -0.07920 0.28903 0.14259 0.22006 0.13630 -0.17718
M064~A -0.14468 0.16629 0.22579 0.13124 0.13910 0.12523 0.29955 0.20081 -0.21443 0.05148 -0.17982 0.28851 0.06886 0.20694 0.15531 -0.14632
M073~A -0.10034 0.03619 0.19646 0.04786 0.08052 0.05209 0.25134 0.15334 -0.02632 0.03006 -0.14732 0.32876 0.04179 0.34873 0.14489 -0.21837
M080~B -0.10434 0.07812 0.20579 0.13076 0.10866 0.07211 0.27782 0.22806 -0.24958 0.04036 -0.18815 0.34946 0.16767 0.34932 0.16682 -0.33521
M086 -0.09275 0.17029 0.25982 0.19418 0.14725 0.01602 0.32845 0.22202 -0.33536 -0.01715 -0.18543 0.41238 0.23639 0.28581 0.30152 -0.35220
M096~1 0.00081 0.01653 0.25947 0.10932 0.08662 0.07913 0.22940 0.18054 -0.19629 0.00036 0.01133 0.33323 0.17577 0.09688 0.17485 -0.14007
M097~F -0.09460 0.16175 0.23939 0.17028 0.15500 0.11255 0.37152 0.28538 -0.31956 0.04617 -0.17766 0.36325 0.14280 0.26579 0.19922 -0.28893
M102~DA -0.24712 0.20635 -0.03924 0.08406 0.10129 -0.03839 0.24105 0.19955 -0.14815 -0.02550 -0.25262 0.13683 0.05033 0.38383 0.14134 -0.22172
M125~A -0.04446 0.02069 0.23286 0.13181 0.12488 0.10975 0.27667 0.15184 -0.18321 0.02300 -0.01943 0.43461 0.19771 0.21471 0.21970 -0.21380
M136~R 0.07616 0.06642 0.27311 0.21835 0.09812 0.10045 0.40035 0.27940 -0.36476 0.00231 0.00175 0.11728 0.25677 0.00651 0.09022 -0.13546
M145~BB 0.10009 -0.11959 0.02728 -0.13793 -0.03291 -0.10481 -0.15768 -0.02370 0.10264 -0.03092 0.18924 -0.16097 -0.00436 -0.13079 -0.16326 0.07939
M147~D -0.14952 0.16050 0.13932 0.13528 0.13853 0.08551 0.33947 0.24529 -0.21187 0.03488 -0.18862 0.29590 0.12073 0.38105 0.22230 -0.29472
M150~A 0.09077 -0.28537 0.10713 0.00123 0.02667 -0.15475 0.00426 -0.10616 0.01857 -0.14522 0.18725 0.22091 0.13772 -0.10771 0.08532 -0.20349
M180~B -0.21755 0.35850 0.06284 0.23716 0.05998 0.06855 0.43782 0.28879 -0.28731 -0.00051 -0.26769 0.14936 0.22669 0.33058 0.20098 -0.25644
M206~F 0.10904 -0.03521 0.19397 0.04363 -0.00558 0.16353 0.14603 0.11163 -0.04295 0.00824 0.06235 0.00363 0.02556 0.00080 -0.09359 0.14157
M224 -0.11432 0.15135 0.04779 0.15104 0.09244 -0.05722 0.25953 0.22354 -0.25885 -0.00654 -0.13531 0.04023 0.22465 0.21214 0.20086 -0.19755
M242~D -0.03136 0.13818 0.24437 0.25337 0.12222 0.06121 0.35150 0.32845 -0.35457 0.02183 -0.07086 0.31521 0.26871 0.17343 0.21960 -0.25726
M247~A -0.06378 0.11145 0.32781 0.23146 0.21261 0.07744 0.33910 0.26376 -0.35300 0.02667 -0.08228 0.44715 0.21126 0.22454 0.24813 -0.32011
M248 -0.02087 0.09939 0.13375 0.08761 0.09419 0.14794 0.14753 0.17894 -0.12295 0.05067 -0.08009 0.07788 0.04480 0.08749 0.01468 0.05179
M251 -0.10672 0.16475 0.07344 0.13700 0.13035 0.08813 0.33804 0.19237 -0.20733 0.02365 -0.13940 0.33178 0.14891 0.30100 0.15622 -0.23189
M271~CA -0.09060 0.13036 0.09000 0.09567 0.08526 -0.00791 0.19723 0.15001 -0.13126 0.04166 -0.13724 0.20047 0.08575 0.21391 0.13353 -0.15612
M278 -0.05755 0.01017 0.12760 0.03166 0.10913 -0.02024 0.14262 0.12505 -0.06218 0.01082 -0.11342 0.28781 0.05950 0.24623 0.08110 -0.16996
M293~A -0.03307 0.03785 0.32699 0.13416 0.07380 0.24654 0.22509 0.20461 -0.22968 0.14171 -0.09633 0.35631 0.08273 0.08804 0.09103 -0.12126
M293~B 0.00400 0.03443 0.23001 0.14451 0.10271 -0.04764 0.17461 0.19820 -0.32150 -0.02510 0.08546 0.13521 0.21916 -0.01483 0.06090 -0.21525
M295~E -0.17830 0.23471 -0.11121 0.17576 0.09452 -0.14340 0.30442 0.30862 -0.34545 -0.02636 -0.19127 -0.01441 0.19642 0.26479 0.22404 -0.29349
M301~A -0.13138 0.17788 0.12306 0.19661 0.09703 0.02630 0.33171 0.23531 -0.25671 -0.01674 -0.19918 0.26696 0.18180 0.29002 0.19255 -0.29104
M318~A3 -0.20938 0.30298 0.20367 0.15610 0.10856 0.08879 0.38927 0.31181 -0.30872 0.03711 -0.11612 0.15894 0.17546 0.35875 0.04762 -0.12949
M321~B -0.11235 0.04427 0.05122 -0.02589 0.06542 -0.01501 0.19166 0.07112 0.04012 -0.00701 -0.09379 0.26072 -0.00448 0.34001 0.14806 -0.16038
M323~I -0.17696 0.22621 0.12346 0.11384 0.09389 0.06645 0.25811 0.24113 -0.30587 0.03859 -0.23179 0.10895 0.12393 0.24178 0.17032 -0.21144
M325~E -0.11041 0.19919 0.17406 0.16413 0.13387 0.18161 0.26760 0.30071 -0.25595 0.05987 -0.13620 0.21350 0.13063 0.29858 0.12777 -0.14014
M361~A -0.06939 0.12256 0.27386 0.12977 0.13813 0.09605 0.35957 0.20645 -0.22901 0.06439 -0.11870 0.49530 0.16419 0.32930 0.21111 -0.29103
M367~E -0.12712 0.15331 0.03975 0.07879 0.03710 0.06716 0.23710 0.18738 -0.13788 -0.00478 -0.19295 0.22355 0.05565 0.32749 0.14117 -0.20121
M370~C -0.19641 0.13751 0.12629 0.25694 0.16901 0.02314 0.40708 0.26047 -0.34167 0.00792 -0.15958 0.32776 0.26374 0.24232 0.25231 -0.35964
M371~A -0.11189 0.12778 0.15326 0.26061 0.09846 -0.05097 0.32333 0.18834 -0.36832 -0.05053 -0.09179 0.21724 0.27962 0.18024 0.28801 -0.38201
M383~E -0.08757 0.14639 0.13121 0.11538 0.12768 0.08451 0.23888 0.20648 -0.11623 0.04677 -0.12031 0.33011 0.10248 0.28585 0.13142 -0.21803
M386 -0.20156 0.24601 0.08479 0.20722 0.13748 -0.07665 0.40133 0.29484 -0.35856 -0.01044 -0.13788 0.19986 0.23025 0.28151 0.13671 -0.29783
M417~F -0.11009 0.11257 0.24723 0.15141 0.16571 0.07501 0.34656 0.22882 -0.28486 0.03961 -0.15264 0.44391 0.09744 0.38710 0.22254 -0.26706
N(N@B) -0.07605 0.07885 0.21210 0.16464 0.10271 -0.09288 0.28583 0.18602 -0.31375 -0.06973 0.01245 0.15216 0.18546 0.10114 0.23673 -0.29978
|M054+M365+M054~I| -0.15136 0.12219 0.23579 0.14633 0.10981 0.12645 0.34580 0.22497 -0.20342 0.01255 -0.21693 0.41203 0.12535 0.34667 0.15980 -0.25938
|M157+X| -0.17186 0.15124 0.18345 0.17839 0.13769 -0.02509 0.47956 0.30040 -0.35191 0.03087 -0.14467 0.36149 0.25434 0.37820 0.30388 -0.40210
|M351+3(N01)| -0.16418 0.20293 0.21066 0.20037 0.11149 0.00454 0.38722 0.28153 -0.38159 0.04733 -0.14410 0.24623 0.25759 0.27634 0.25297 -0.24803
<unk> -0.08615 0.10274 0.16940 0.13396 0.09923 0.04782 0.25987 0.18538 -0.21782 0.02303 -0.09748 0.25387 0.13729 0.20367 0.15160 -0.19963
