... 0.299989 0.025788 1.401129 -0.347875 -2.064521 1.751450 0.549021 -2.052183 -1.404119 -0.524576 -0.161915 -0.972359 -0.395146 -4.497742 0.435722 1.617127
X -0.080887 -0.417069 0.740903 -0.317544 -1.995046 2.584028 0.424626 -1.052862 -0.770366 0.198548 -0.109239 -0.746199 -0.430102 -3.108285 0.081959 1.445571
EN~A 0.296534 -0.619814 -1.059036 0.167946 -0.322214 1.839839 1.403005 0.504088 -0.959644 0.876067 0.002339 0.412082 -1.051598 -2.253990 0.066830 1.335173
GAL~A 0.476798 0.110804 2.715601 1.422424 0.351150 0.974486 -0.753746 0.239101 -1.180877 -0.183214 -0.750404 0.751178 -1.227345 -0.620403 0.580700 -0.267093
SZE~A 0.430215 -0.969416 -0.989113 -0.133058 -0.897849 0.963752 0.940498 -0.856811 -0.285850 0.049647 -0.524537 -0.559708 0.440196 -1.092139 -0.424043 0.603739
AN -1.124634 0.250476 -0.674714 -0.112649 -1.004518 1.506141 0.205155 0.067025 -2.565099 1.122926 0.742713 -0.683257 0.750612 -0.756830 -0.933038 1.381117
PAP~A 0.692635 0.148595 -0.606360 0.287382 -0.918091 1.949289 1.675440 0.884176 0.447676 0.034900 -1.168534 -0.536468 -1.377668 -0.625375 -0.025275 0.996257
BA 1.071274 -0.210652 -0.330651 -0.102695 -1.117997 0.510189 0.680511 -0.578847 -0.690479 0.069265 0.525349 0.487956 -0.029709 -1.988007 -0.102530 0.792682
SAL 0.037001 0.146633 0.669308 -0.186128 -0.715356 0.717090 1.280693 -0.580985 0.192370 0.808011 -1.136787 0.393583 -1.302686 0.065382 -0.730343 1.594240
N 0.107498 0.185435 0.997546 -0.405873 -0.526340 -0.587011 -0.384600 -0.906305 -0.067621 -0.506741 0.370722 -0.298603 0.129975 -0.797468 0.278346 -0.035215
SANGA~A 0.418120 0.477576 1.676214 1.329564 -0.366667 1.630615 0.025407 0.475245 -0.662037 -0.007580 -1.467230 0.667403 -0.866105 -1.485948 0.699646 -0.091629
NUN~A 0.425415 -0.066528 0.163905 0.779737 -0.121571 2.099030 0.599236 0.586192 -0.035383 0.187150 -0.518483 0.304234 -0.275845 -1.120525 -0.076404 -0.270595
GI 0.294060 -1.039826 -0.997544 0.448754 -0.903862 0.841125 0.296680 -1.538976 -0.040208 0.278523 -0.366230 -0.396444 -0.515682 -0.808741 -0.586103 0.362578
SZU 0.575652 -1.167602 -0.060197 0.193143 -1.257605 1.806148 0.691470 -0.623223 -0.757410 0.367928 -0.319931 0.918978 -1.470680 0.463115 -0.179311 1.070838
E2~A 0.567812 0.278545 0.127382 -0.007985 -0.800422 1.616746 0.731283 0.956864 -0.467483 0.399601 -0.584959 0.304816 -0.364326 -0.543650 -0.157235 0.688733
UDU~A 1.075539 -0.340096 0.098957 -0.172421 -0.608508 -0.195641 0.048517 -1.281347 -0.705276 0.428292 0.127447 0.182192 -0.909535 -0.655982 -0.217085 0.266697
A -0.744765 -0.387617 -0.257738 -0.205694 0.435849 2.180669 0.482771 -0.367072 0.685159 0.321757 -0.112217 -0.113062 0.497542 -0.727800 -0.740633 0.561766
BU~A 0.579803 -0.175838 -0.944234 1.301019 -0.293558 2.161884 0.722472 -0.378583 0.474913 0.637778 -1.326680 -0.976441 -1.376403 -0.644467 -0.969776 -0.087376
KI -0.399671 -0.326793 -0.407351 0.146923 -0.104820 2.142888 0.562028 -0.247674 -0.536919 1.060313 -0.039160 -0.014632 -0.051639 -1.112014 -0.749981 0.861287
NAM2 0.500416 0.730749 -1.327948 1.664643 -1.346623 0.346773 -0.328776 0.234205 0.175963 -0.373994 -1.239272 -3.078021 -1.229843 -0.645757 0.015398 -0.351630
U4 -0.448656 0.098636 0.479713 -1.064181 -1.030987 1.072607 0.450582 0.353741 -0.279380 0.549375 -0.214630 -0.271052 0.915452 -0.822585 -0.530642 0.971180
DU -0.071293 -0.422194 -0.464693 0.109879 -0.039488 2.219978 1.067094 0.495522 -0.095794 0.457444 -0.237161 0.046336 -0.610427 -0.769034 -0.431616 0.778649
ME~A -0.907989 -0.368988 -0.055195 0.016805 -0.578205 0.866511 0.619765 1.066450 -0.870675 0.330151 -0.677769 0.197903 -0.204476 -0.781809 0.894734 1.271137
PA~A -0.245176 0.287190 -0.875664 0.535145 -0.673936 1.105437 -0.161951 0.346385 -0.856137 -0.374616 -0.312190 -1.784248 -0.344096 -0.552504 0.217678 0.323071
SAG -0.680708 -0.171882 -0.630276 -0.580668 0.102371 1.394155 0.324913 -0.359876 0.255113 0.119035 0.994652 -0.307738 0.775734 -1.126549 -0.636107 0.441564
AB~A -0.460896 -0.473593 -0.116882 0.249284 -0.796253 0.370870 0.559684 0.575785 -0.360204 0.235893 -0.577646 -0.091411 0.500526 -1.401765 0.861762 0.549036
SI -0.761484 -0.423205 0.114176 -0.355265 -0.084730 1.230501 0.480348 0.223069 -0.231216 0.732993 -0.425616 -0.218035 -0.019010 -0.352267 -0.272733 0.495131
GISZ -0.399782 -0.378228 -0.093282 -0.126877 -0.046286 0.397827 0.219531 -0.617234 0.714040 0.637610 -0.305914 -0.515669 0.012192 -0.400338 -0.578909 0.033889
KU6~A -0.778058 -0.491061 -0.890939 0.274153 0.048107 0.265809 0.672323 0.365966 0.135831 -0.387713 -0.953228 -0.682604 -0.141309 -1.345362 0.963032 0.887939
TUR 0.852396 -0.589363 -0.224949 0.564985 -0.190234 0.799743 0.461726 -0.913722 0.273348 0.256811 -0.330951 0.717582 -1.470053 -0.407984 -0.339298 0.185062
BAR 0.107168 -0.160062 0.562623 -0.166462 -0.509329 -0.203396 0.803297 -1.038699 -0.254312 0.666936 0.213117 0.416537 -0.890915 -0.792811 -0.280747 1.126156
AB2 0.064960 -0.231848 0.866806 -0.820611 -1.231339 1.098772 -0.039323 -0.241692 -0.396371 0.328264 -0.074438 -0.504154 -0.067899 -0.362765 -0.212964 0.429142
GAR -0.148146 0.011554 0.597816 -0.363302 -0.964881 0.452242 0.137666 -0.309644 -0.338252 0.105546 -0.400528 -0.168080 0.443441 -0.897223 -0.159935 0.438490
SZITA~A1 0.088208 0.253324 0.903053 0.403730 -0.494511 0.585339 -0.503689 -0.060373 -1.276495 0.182198 0.344013 0.050548 -0.296376 -1.050604 0.122250 0.152987
HI 0.222220 0.422037 -0.227008 0.225856 -0.130754 1.503427 0.689504 0.558258 -0.432847 1.006117 -0.372582 0.283991 -0.480958 -0.661901 -0.678630 0.478107
TUG2~A 0.560420 0.272603 -0.495279 -0.486854 -0.239049 -0.703833 0.292436 -0.159471 -0.171817 0.122395 0.663784 0.382179 0.129977 -1.426429 0.151145 0.051193
NE~A 0.020688 -0.670386 -0.550519 -0.752628 -0.760069 0.538606 0.424329 -0.753260 0.064934 0.037181 -0.102153 -0.316152 0.495233 0.100752 -0.387647 0.771069
GU7 0.243798 -0.555323 0.770268 -0.430125 -0.563828 -0.641661 0.196427 -0.863787 0.398973 -0.669338 0.185441 0.105144 0.615159 -0.851395 0.580970 0.046981
TE -0.158619 -0.081514 0.386454 0.618252 0.628837 1.203165 -0.055222 0.434565 -0.872981 0.164155 -0.499882 -0.235900 0.156836 -1.069535 0.051124 -0.431808
SUHUR 0.598874 0.262683 1.233917 0.250663 -0.616309 -0.070626 -0.048935 -0.389646 -0.407754 -0.254616 -0.004081 0.480068 -0.281277 -1.329986 0.427779 0.023367
IB~A 0.075176 0.227537 0.067164 0.221145 0.250210 1.309213 0.448342 0.616760 -0.158618 -0.178359 -0.096745 0.311201 0.050982 -1.005217 0.261307 -0.009203
SZU2 -0.173478 0.271526 -0.134360 -0.110057 -0.430235 0.248417 0.560582 0.029976 -0.364632 0.182325 -0.162554 -0.128060 -0.325622 -0.512605 -0.135521 0.757117
SZUBUR 0.006713 0.133685 0.397839 0.458295 0.110036 1.048865 -0.234086 0.287374 -0.627208 0.046810 -0.281504 -0.263422 -0.149058 -0.501663 -0.119968 -0.168735
MUSZ3~A -1.207674 0.774310 0.163664 -0.474185 -0.974380 0.458409 0.037320 0.884556 -1.642988 0.646928 0.218457 -0.343798 0.753754 -0.359766 -0.240370 1.009745
NI~A 0.392417 -0.311989 -0.345537 -0.489242 -0.347231 0.861406 0.241355 -0.648478 -0.172031 -0.077647 0.911563 0.752754 0.366617 0.264836 -0.946789 0.345521
MUSZEN 0.015681 -0.831938 -0.993194 0.377740 -0.259247 0.235015 0.094253 -1.583315 0.243583 0.066024 0.194601 -0.311185 -0.426461 -0.919781 -0.408701 0.231195
SU~A 0.421622 0.157407 0.329207 -0.205920 -0.910054 0.705263 1.303263 1.364405 0.680713 -0.371403 -1.211844 0.066202 0.212180 -0.454399 0.797479 0.911669
UNUG~A 0.105122 0.029779 0.007814 0.002819 -0.618577 -0.021406 0.200752 -0.561023 -0.294567 0.432981 -0.422184 0.158079 -0.507991 -0.420443 -0.273169 0.537580
GA~A 0.231645 0.425603 1.189421 0.582622 -0.130996 0.585939 -0.399735 0.192133 -0.572001 -0.150292 -0.459753 0.119504 -0.217955 -0.967293 0.457958 -0.383847
DUG~A 0.657776 -0.232416 -0.109393 -0.233173 0.028028 -0.500254 0.456929 0.112961 -0.339080 0.395114 0.252232 0.773139 0.001918 -0.979861 0.410371 0.333548
DA~A 0.015494 -0.095039 -0.286610 -0.225990 -0.770357 0.720866 0.199561 -0.055197 -0.887113 -0.104445 0.321176 -0.483585 -0.020423 -0.402206 0.005312 0.509632
KUR~A 0.139793 0.652491 0.316890 -0.445930 -0.327181 -0.147370 0.547702 -0.063941 0.119833 0.169741 -0.325165 0.422516 -0.236772 0.004550 0.097470 0.684240
RAD~A -0.840930 0.299775 -0.960609 1.277873 -0.022572 0.254911 -0.302101 0.647701 -0.642329 -0.329126 -1.219089 -1.623677 -0.422754 -1.266841 1.067149 -0.039182
UD5~A 0.086018 0.000289 0.517346 -0.270525 -0.265963 -0.423430 -0.240853 -0.738650 0.003566 -0.360238 0.399145 -0.093976 0.222884 -0.924813 0.227900 -0.001061
DUG~C 0.309964 -0.494064 0.297878 -0.415824 -0.755726 -0.331105 0.057460 -0.945059 -0.165422 -0.267368 0.624721 0.199060 0.425420 -0.849686 0.151903 0.225556
KISAL~B1 -0.199464 -0.503802 -0.369117 0.123638 0.518406 0.182181 0.701518 0.446822 -0.093856 -0.299375 -1.034236 -0.382152 -0.792141 -0.525436 0.905535 0.559734
APIN~A 0.061748 -0.092013 -0.844693 0.238102 -1.256872 0.407471 0.286469 0.147152 -0.002444 -0.070185 -0.296172 -1.120908 0.190399 -1.060208 0.276691 0.230707
MASZ 0.267501 -0.679441 -0.401862 -0.178498 0.028399 -0.448187 0.320802 -1.456478 0.247751 0.471841 0.098682 0.297204 -1.043111 -0.276209 -0.095935 0.679113
ERIM~A -0.186236 -0.206933 -0.441616 -0.479314 -0.151399 0.210058 0.451536 -0.292105 0.243441 0.281045 -0.087155 0.275229 -0.081476 -0.781145 0.095974 0.695212
KU3~A -0.362261 -0.064147 0.258234 -0.164829 -0.164588 1.532666 0.175549 0.013172 0.097919 0.186301 -0.398980 -0.123385 0.141403 -0.051171 -0.280201 0.431567
UDUNITA~A 0.087881 -0.066372 0.100207 -0.216085 -0.162933 -0.154385 0.056347 -0.605221 0.239882 0.096757 0.075025 -0.255812 -0.160317 -0.502334 -0.168821 0.139520
GU4 0.079325 -0.151698 0.439116 -0.379517 -0.852988 0.198191 -0.285311 -0.352194 -0.028021 -0.080614 -0.008695 -0.213728 -0.018744 -0.249608 0.055112 0.143347
MA -0.260385 -0.253201 -0.095534 -0.321064 -0.166294 0.223690 0.140480 -0.389272 0.077856 0.175483 0.258187 -0.079558 0.349102 -0.250527 -0.431762 0.215072
TAK4~A -0.892190 -0.312807 -0.608961 -0.472039 0.453479 1.863702 0.099577 -0.248513 -0.042855 0.331025 1.164838 0.241667 0.980632 -0.036897 -1.018217 0.522638
U8 0.030297 -0.029977 0.629188 -0.324790 -0.271709 -0.346758 -0.265448 -0.674337 -0.031705 -0.162305 0.225352 -0.160265 0.027662 -0.550688 0.144080 0.098410
UB -0.458995 -0.409579 -0.187469 -0.286561 -0.127714 0.564022 0.199926 -0.235958 0.000622 -0.062354 0.398288 -0.037417 0.368704 -0.690995 0.264292 0.116472
RU -0.452499 -0.279081 -0.460400 -0.199280 0.157581 1.263956 0.491168 -0.214573 0.190606 0.290128 0.029376 -0.356677 0.247120 -0.426243 -0.708727 0.492899
SZE3 0.563223 -0.707501 -0.114239 -0.287854 -0.071170 0.062590 0.355222 -1.435739 0.058356 0.407445 0.237474 0.214640 -0.895222 -0.909159 -0.158799 0.567439
KISZ 0.289413 0.914387 1.009574 -0.338132 -0.785866 0.022213 0.833587 -0.127072 0.182679 -0.053362 -0.700665 0.449117 -0.583499 -0.158022 0.220444 0.910716
U2~B -0.600812 -0.555422 -0.693988 -0.574394 0.302184 1.185471 0.739895 -0.180755 0.695125 0.272343 0.726980 0.220350 0.599861 -0.697021 -0.500112 0.341068
| 0.204416 0.228961 1.054750 0.378312 0.046135 0.188448 -0.327638 0.197933 -0.333667 -0.248022 -0.418800 0.243851 -0.461572 -0.423569 0.420109 -0.026748
TUR3~A -0.426308 0.045477 1.161298 0.180019 0.101625 0.810394 0.083558 0.165463 0.074128 0.157085 -0.718611 0.440979 -0.058205 -0.288477 0.281030 0.520271
URU~A1 -0.048005 0.175455 -0.986400 0.361710 -0.539016 0.293458 -0.244173 -0.201931 -0.123413 -0.106769 -0.049473 -1.659965 -0.323205 -0.363804 -0.222509 0.013500
MASZ2 0.163647 0.051550 0.593098 -0.257761 -0.285371 -0.428040 -0.270647 -0.612348 -0.066186 -0.279795 0.351360 -0.045281 0.172522 -0.645983 0.163318 -0.015152
MAR~A -0.395241 -0.022482 -1.389368 0.084410 -0.681729 0.367485 0.063131 0.189542 -0.509405 0.179413 0.211877 -1.135840 0.504257 -0.174870 -0.219173 0.231116
E2~B 0.248749 -0.066374 -0.300712 0.088315 -0.393432 1.229716 0.564501 0.162678 -0.216712 0.270320 -0.420435 -0.191705 -0.409853 -0.315830 -0.178134 0.457102
HI@G~A 0.287151 -0.409750 -0.323451 -0.166133 -0.262564 0.184617 0.126066 -0.691522 -0.113705 -0.124007 0.025554 -0.247372 0.257487 -0.239615 -0.277392 0.114148
NAGA~A 0.142157 -0.255866 -0.117587 -0.212788 -0.194428 0.969409 0.345451 -0.129009 0.198746 0.374571 0.062289 0.146805 0.001896 -0.390787 -0.428679 0.094854
NUNUZ~A1 -0.292100 0.227151 0.021235 -0.545152 -0.419570 -0.062323 0.046592 0.169922 -0.625562 0.299489 0.314033 -0.077300 0.408587 0.550491 -0.453740 0.567985
SIG2~B 0.595785 0.418097 0.360767 0.223741 -0.074503 -0.089253 0.100181 -0.042366 -0.276353 -0.214099 -0.077818 0.203527 -0.152948 -1.059768 0.549962 -0.122751
GUG2 0.292799 -0.177320 0.352583 -0.152685 -0.087684 -0.342607 -0.398587 -0.970439 0.224261 -0.429406 0.609399 -0.395233 0.065135 -0.316509 -0.156541 -0.155365
SUKKAL 0.371401 0.077153 1.180311 0.388039 -0.064346 0.099007 -0.332880 0.080351 -0.167424 -0.125287 -0.027760 0.317903 -0.635649 -0.703836 0.371877 -0.123324
AMAR -0.125782 -0.167045 -0.216970 -0.157860 0.102254 0.069237 0.524062 -0.298800 0.030086 0.120844 0.416951 0.056560 -0.210459 -0.656447 0.009925 0.343746
NA~A 0.089180 -0.540029 -1.192142 0.593794 -0.059338 0.661434 0.158379 -1.211014 0.077854 0.306779 0.319235 -0.105648 -0.080921 -0.108974 -0.884337 -0.082206
DUB~A 1.052960 0.075131 0.292267 0.557875 -0.595118 0.906382 0.567459 -0.076181 -0.179786 0.259566 -0.872231 0.412080 -0.762604 -0.600117 0.121164 0.231167
KASZ~C -0.333230 -0.329156 -0.485398 -0.230811 -0.120262 0.291895 -0.004046 -0.649084 -0.355908 0.072101 0.645791 -0.029096 0.289559 -0.330972 -0.293680 0.280469
U2~A -0.290308 0.167227 0.137167 -0.409585 -0.638077 0.173118 0.108563 -0.183480 -0.268969 0.209601 -0.032710 -0.146635 0.651577 -0.399157 -0.363374 0.311538
ERIN 0.617992 0.488406 0.789694 0.923212 -0.498544 -0.305555 -0.813475 0.252440 0.013097 -0.488086 -0.372545 -1.025995 -0.801793 -0.249090 0.318166 -0.563059
ZATU753 -0.242251 0.268363 0.596184 0.417647 0.155338 0.425778 -0.056328 0.454504 -0.399341 -0.114610 -0.448361 0.217317 -0.059247 -0.830100 0.675880 0.101862
PIRIG~B1 0.334060 0.058852 -0.095341 -0.353366 -0.666330 0.686625 0.848177 0.525344 -0.012891 0.145914 -0.278646 0.265411 -0.008620 -0.470008 0.157754 0.832467
KAB 0.269929 0.323592 -0.577504 0.792077 -0.909651 -0.251987 -0.279912 0.251697 -0.148095 -0.249749 -0.416087 -1.610946 -0.510529 -0.510847 0.024965 0.005535
SZA 0.354396 -0.270792 0.957231 0.007655 0.091312 0.327988 -0.248195 -0.239272 -0.136887 -0.522603 0.081977 0.726464 -0.327824 0.255416 0.126064 0.118235
LAGAB~B 0.675518 -0.270480 0.052874 0.028510 0.283364 0.185934 -0.051794 -0.950000 -0.788863 0.146580 -0.222902 -0.093952 0.079571 -0.427201 -0.385631 -0.140013
AL -0.004016 -0.078515 -0.013285 -0.119597 0.069739 0.658725 0.363524 -0.390101 0.147378 -0.016315 0.121818 0.301918 0.115011 -0.447032 -0.294273 0.464934
MU 0.132761 -0.081220 0.558539 0.188340 0.272811 0.342465 -0.252900 0.057891 -0.023098 -0.270166 -0.396171 0.553727 -0.399248 0.307637 0.239555 0.012312
ZATU659 -0.184875 0.206819 0.196239 -0.022202 -0.316022 0.134751 -0.186005 0.046210 -0.253627 -0.095939 0.221875 -0.068581 0.266738 -0.585761 0.308612 -0.067245
DI -0.047815 0.595596 -0.711885 0.745823 -0.589058 -0.503228 -0.734968 0.183261 -0.088700 -0.437800 -0.466150 -1.807693 -0.383028 -0.164298 0.301997 -0.257765
ZATU752 0.274507 0.050246 0.209269 -0.052592 0.087429 -0.331763 -0.399287 -0.455161 -0.678058 0.021389 0.517778 -0.017555 -0.268563 -0.450724 0.070823 0.086352
|DUG~BXX| -0.027667 0.043778 -0.113918 0.020552 0.313241 -0.416591 -0.141633 0.092174 0.159308 -0.044457 0.079678 0.088620 0.047433 0.525232 -0.035970 -0.225120
GI6 -0.088931 0.075386 0.051469 0.027246 0.068214 0.332104 -0.176935 -0.187934 0.313810 -0.173030 -0.008165 -0.208229 0.394244 -0.537591 -0.007667 -0.412725
NAR -0.277371 -0.237149 0.040294 -0.543911 0.025428 1.146004 0.199042 -0.169140 0.414806 0.328702 0.111724 0.101029 0.600046 -0.051856 -0.645836 0.319744
ZI~A 0.087556 -0.410116 -0.067250 0.312322 -0.278540 0.349195 -0.064797 -0.756516 -0.169205 -0.109853 0.141036 0.126531 -0.267786 -0.010824 0.062838 -0.066432
DUG~B 0.047898 0.105016 0.310490 -0.045637 -0.336774 -0.097399 -0.092081 -0.299634 -0.240631 -0.198730 0.076092 -0.135849 0.076003 -0.591884 0.180097 0.184507
GADA~A 0.360929 0.045284 1.078918 0.313337 -0.087014 -0.187667 -0.507765 -0.061245 -0.070381 -0.268772 0.146148 0.175812 -0.537633 -0.646403 0.426017 -0.271596
KASZ~A 0.515030 -0.147594 0.126090 -0.247198 -0.229893 -0.460760 0.207261 -0.473940 -0.438938 0.203232 0.361411 0.390779 0.253592 -0.984179 0.168402 0.093350
UTUA~A 0.019259 0.152021 0.298155 0.010193 -0.205768 -0.216487 -0.064489 -0.177889 -0.166074 -0.156514 -0.024990 -0.114162 0.053520 -0.302000 0.073473 0.071002
KASZ~B 0.086589 -0.029716 0.312115 -0.073348 -0.551451 0.090157 0.067730 -0.125654 -0.251911 0.022462 -0.130811 -0.039968 0.080145 -0.514018 0.150657 0.114391
MUD 0.281741 -0.165642 -0.187197 0.818073 0.245028 1.196342 0.294770 -0.266710 0.206096 0.146191 -0.084330 0.169247 -0.140050 -0.626932 -0.429935 -0.436983
NUN~B -0.060984 0.160223 0.258282 -0.119779 -0.327427 -0.313074 -0.182051 -0.266919 -0.128243 -0.213097 0.078891 -0.193650 0.190213 -0.353164 0.109247 0.124464
HASZHUR 0.097196 -0.093470 0.427596 -0.061734 -0.153433 -0.257130 -0.074732 -0.543371 0.000697 -0.179261 0.138020 -0.119375 0.054051 -0.579012 0.159358 -0.050723
|U4X 0.240062 -0.186427 -0.143293 -0.041649 -0.189270 -0.135997 0.097797 -0.460538 0.142412 -0.114647 0.005635 0.012420 0.045617 -0.246085 -0.001846 -0.040783
GIR3~C 0.503375 -0.063428 -0.236743 -0.131905 -0.237152 0.664712 0.504636 -0.068514 0.195819 -0.115646 0.091014 0.162986 -0.135660 -0.098862 -0.385051 0.206144
SZA3~A1 -0.375876 0.130221 -0.259271 -0.050591 0.011089 0.267044 0.103387 0.222790 -0.623889 0.313534 0.095650 -0.057069 0.201344 -0.123019 -0.234428 0.235558
UKKIN~A 0.132127 -0.376292 0.021183 -0.040787 -0.412878 0.446816 0.082187 -0.316038 -0.146040 -0.178213 0.107373 0.040472 -0.109920 -0.327214 0.071955 0.192995
GA2~A1 -0.127269 -0.337150 -0.701007 0.057925 -0.098277 0.801590 0.662695 0.484997 -0.256391 0.331470 0.137281 0.217218 -0.333277 -0.274955 0.021158 0.524323
UR2 -0.908888 -0.106573 -0.804866 0.225975 0.237306 -0.262036 0.085655 0.517397 -0.586701 -0.161118 -0.517057 -0.502200 0.212207 -0.748928 0.827176 0.444856
NIN -0.488829 0.399560 0.371439 -0.031955 -0.269333 -0.286191 -0.318112 0.123879 -0.398909 0.163523 0.153286 -0.241552 0.518995 -0.407374 0.064942 0.113229
|SZE~A.NAM2| 0.113323 -0.010380 -0.615268 0.410607 -0.201295 -0.405920 -0.225365 -0.218810 0.109366 -0.268203 -0.210235 -0.837048 -0.355231 -0.230028 0.219770 -0.137000
AMA~A -0.337320 0.196325 0.342067 -0.093946 -0.408604 0.336848 0.250720 -0.386629 -0.152884 0.457583 -0.318086 -0.030745 -0.126936 -0.377178 -0.384310 0.603252
GA 0.057298 0.047802 0.002880 -0.016007 -0.017939 -0.039874 0.067399 0.077120 0.054106 0.015720 -0.015764 -0.086664 -0.110573 -0.219940 0.097911 0.025083
GU -0.529052 0.096693 -0.454247 -0.217393 -0.057953 0.242504 0.108673 0.101946 -0.384006 0.143818 0.305545 -0.229100 0.330501 -0.229298 -0.191229 0.450557
TAR~A 0.040197 -0.017789 0.336880 -0.064903 -0.004863 -0.136090 -0.044675 -0.146904 -0.028504 -0.115863 -0.049978 -0.016846 0.026172 -0.128947 0.054512 0.000087
GIBIL 0.244362 -0.226208 0.356234 -0.624088 -0.791787 0.251470 0.679884 0.520806 0.409494 -0.155091 -0.547808 -0.139267 0.946807 -0.509814 0.356833 0.457944
NAGAR~A -0.276818 -0.155408 -0.252050 -0.021154 -0.479309 0.405397 -0.066272 0.097500 -0.794749 -0.040145 0.226561 0.074997 0.137487 0.489484 -0.113200 0.357662
IM~A 0.478912 -0.152813 0.824743 0.284323 -0.177577 -0.123565 -0.290697 -0.702320 -0.027658 -0.199227 -0.273307 0.457443 -0.663209 -0.375184 0.112331 -0.107543
URI3~A -0.014424 -0.109328 -0.144633 -0.098674 -0.060812 0.867791 0.425794 -0.062065 -0.008603 0.049851 0.244592 0.028523 0.160922 -0.769150 -0.061556 0.239845
KA~A 0.056088 -0.120777 -0.208268 -0.050385 -0.010745 0.414544 0.282364 0.109290 -0.065293 0.192474 -0.049453 0.072380 -0.250155 -0.273759 -0.008491 0.202783
DIN -0.322040 -0.434354 -0.009140 -0.215596 0.168106 -0.208385 0.061094 -0.543543 0.360714 -0.057803 -0.093721 -0.054911 0.067854 -0.482053 0.138072 0.045467
LA2 -0.313123 0.385227 0.053864 -0.237883 0.776111 0.085136 -0.333853 0.443648 -0.220654 -0.430140 0.577916 -0.200516 0.887680 -0.423100 0.228490 -0.548925
NAGAR~B -0.464925 0.208344 0.048154 -0.166612 -0.242249 -0.244644 -0.321360 -0.083566 -0.694546 0.046022 0.491814 -0.144309 0.382072 -0.141740 -0.106489 0.115998
SIG -0.963859 0.953361 0.391683 0.045867 -0.694542 -0.571253 -0.736549 0.648505 -1.048042 0.125524 0.008828 -0.747600 0.809587 -0.486230 0.237547 0.161405
HAL -0.154997 -0.031204 -0.268080 -0.148393 -0.282757 0.513166 0.640380 0.568288 0.147407 0.224935 -0.544947 0.111127 -0.232078 0.072040 0.202486 0.659778
NI~B 0.430555 0.218528 0.242387 -0.069624 -0.355492 0.116184 0.550298 0.699770 0.200735 -0.141385 -0.503829 -0.045713 0.143376 -0.152753 0.413017 0.395824
TI 0.241659 -0.186344 -0.168089 -0.078728 -0.301068 1.090240 0.707941 0.688940 0.030668 0.189188 -0.272655 0.270394 -0.373031 -0.424015 0.219743 0.468421
SUG5 -0.512914 0.264228 -0.185022 -0.382091 0.583438 0.274084 -0.454847 0.172641 -0.115056 -0.482928 0.912098 -0.586866 1.103175 -0.399728 -0.049748 -0.564348
AB~B 0.483061 0.032096 0.047153 -0.038507 0.037754 0.009356 0.269860 0.644410 -0.294275 0.287458 -0.045600 0.706546 -0.128480 -0.763759 0.640410 0.187878
NAMESZDA 0.034387 0.114786 0.452537 -0.052743 -0.182906 0.167644 -0.193839 -0.109561 -0.375248 -0.015917 0.260853 0.073728 0.038414 -0.330431 0.031278 0.181646
NIM~A 0.077412 0.015003 1.154925 0.113391 0.043565 -0.033052 -0.425486 -0.090687 -0.253686 -0.222064 -0.072383 0.129575 -0.123351 -0.476854 0.249848 -0.028185
EZEN~B -0.893916 0.570404 -0.302169 -0.408855 -0.397528 0.151620 -0.063154 0.719648 -1.117808 0.685019 0.478834 -0.368966 0.660256 -0.147501 -0.442276 0.611454
GESZTU~B 0.073103 -0.039558 0.497506 0.111651 -0.001202 -0.211692 -0.279582 -0.262267 -0.315954 -0.215299 0.245594 0.020540 -0.165734 -0.466764 0.202587 -0.067260
|GA~A.ZATU753| 0.004977 -0.256874 0.954815 -0.245319 -0.062386 -1.049769 -0.206326 -0.877547 0.350407 -0.464803 0.407093 0.172279 0.030720 -0.099593 0.427161 -0.158109
E~A -0.041130 -0.062121 -0.255581 0.161056 0.478743 -0.244933 0.269778 0.196691 0.119854 -0.316396 -0.475712 -0.487329 -0.575398 0.114113 0.373557 0.087348
NIMGIR -0.127912 0.221460 0.389094 0.048150 0.155430 -0.204084 -0.178902 0.036904 -0.139574 -0.158453 -0.138245 -0.001078 0.005246 0.043699 0.106578 -0.076810
|GI&GI| 0.558099 -0.318170 0.270030 -0.222076 -0.506482 -0.845384 -0.048220 -0.857740 0.066939 -0.569116 0.618304 0.395666 0.491721 -0.658106 0.334073 -0.126047
USZ~A -0.120172 0.018255 0.240040 -0.061561 -0.049598 -0.233744 -0.053473 -0.140118 -0.317818 0.128106 0.418620 0.089229 -0.067412 -0.264235 0.116463 0.156403
SIG7 0.133349 0.271777 0.220266 0.332360 0.174890 0.274806 0.109743 0.444256 -0.142241 -0.251280 -0.415596 0.051770 -0.113165 -0.251038 0.268695 -0.367551
SZAB~A 0.302852 0.026759 0.127375 0.825686 0.177011 0.599161 0.014200 0.163117 0.048311 0.100701 -0.694701 -0.041791 -0.690843 0.012881 -0.237296 -0.103816
|NI~A.RU| -0.080416 -0.029333 0.574560 -0.225153 -0.428602 -0.530151 0.200417 0.612445 -0.019788 -0.142471 -0.461114 0.122924 0.535410 -0.275893 0.720312 0.234956
BARA2~A 0.069397 0.072118 0.357934 -0.125164 -0.046509 -0.571577 -0.109776 -0.426042 0.129831 -0.281894 0.033957 -0.041760 0.039276 -0.108075 0.145740 -0.041621
KU~B1 -0.688516 -0.016435 -0.134416 -0.401673 0.337603 -0.319536 0.043120 0.110144 -0.078609 0.109732 0.410239 -0.131763 0.314141 0.259580 -0.136464 -0.207864
SAR~A 0.045401 -0.121178 0.195171 -0.103192 -0.173494 0.344287 0.061946 -0.216717 0.221608 -0.019317 0.003730 -0.309645 -0.082626 -0.539092 -0.047595 0.123297
SI4~A 0.203395 -0.663859 -0.966774 -0.139968 -0.235266 -0.144169 0.093434 -0.797825 -0.063398 -0.022285 0.119565 -0.280627 0.406081 0.243069 -0.371561 0.115761
UMU 0.329884 0.440065 1.266423 0.725774 0.284697 -0.387075 -0.794357 0.377338 -0.010267 -0.272139 -0.289099 0.234094 -0.431572 0.313181 0.368795 -0.707848
EN~B -0.004850 -0.019802 0.334108 -0.101525 -0.316900 0.189382 -0.056907 -0.162137 -0.014550 -0.092729 -0.124503 -0.067487 0.019659 -0.477117 0.176293 0.100766
TU 0.195319 -0.285938 0.068837 -0.090287 -0.078219 -0.147152 -0.111041 -0.382204 0.118268 -0.163310 0.085300 0.239919 -0.258097 0.498647 -0.157162 -0.121091
UR~A 0.120621 -0.100458 -0.120595 -0.182621 -0.166549 0.005114 0.176255 -0.020000 -0.000344 0.028941 0.100508 0.142261 -0.142748 -0.126594 -0.087571 0.079556
DUR2 -0.368349 -0.244740 0.050501 -0.308023 0.150741 -0.292463 -0.097214 -0.436530 0.649458 0.037828 -0.146564 -0.038932 -0.000991 0.062711 -0.028014 -0.054265
GIR3@G~B -0.186841 0.196656 -0.490861 0.202494 -0.190691 -0.249991 -0.425203 0.046954 -0.241652 -0.321095 0.105251 -0.834939 -0.087014 -0.003506 0.293082 -0.066353
KID~B 0.029077 0.100633 0.599390 0.205364 0.146192 -1.225442 0.209594 -0.634636 0.084343 0.083766 0.338318 0.118757 -0.509488 0.018214 0.082702 0.040535
NESAG2~A 0.272746 0.132026 0.939732 0.146013 -0.079149 -0.433718 -0.415343 -0.319175 -0.241154 -0.232543 -0.059260 0.142463 -0.300072 -0.247574 0.183820 -0.038854
ZAG~A 0.226761 0.142279 0.766982 0.054687 -0.034095 -0.517400 -0.371338 -0.043003 -0.072561 -0.381050 -0.078589 0.193030 -0.235789 -0.113777 0.405455 -0.124726
ZATU694~C -0.076583 -0.106317 0.047238 -0.344605 -0.296107 0.343313 0.137124 -0.115929 -0.237173 0.094606 0.232623 0.051534 0.148281 -0.468743 -0.046331 0.340115
SI4~F 0.568674 -0.515679 -0.774155 -0.158110 -0.086983 -0.215869 0.235133 -0.634530 0.127529 -0.018057 0.718982 0.532323 0.519127 0.178466 -0.501249 -0.243406
SZAGAN 0.158856 0.023870 0.863528 -0.153804 0.188845 -0.354525 -0.176864 -0.141206 0.008744 -0.299610 0.113418 0.302014 -0.209006 -0.305732 0.350685 -0.043863
ZATU647 0.423988 -0.144690 -0.234470 -0.139645 -0.240193 -0.138684 0.284065 -0.152238 -0.132185 0.093099 0.470828 0.508800 0.078721 -0.588596 0.047426 0.014059
LAGAB~A -0.069022 0.557486 0.319282 -0.348962 -0.020111 -0.958412 -0.218202 -0.043830 0.518121 -0.195890 0.006770 0.395706 0.560153 -0.014169 0.426850 -0.725113
UR5~A 0.086194 -0.521323 -0.630595 -0.076346 -0.541374 0.719104 0.488373 -0.150732 -0.266737 0.127352 -0.219027 0.001669 -0.162688 0.252772 -0.317707 0.517005
|U4XBAR -0.010718 -0.003551 0.053763 -0.022257 -0.001323 0.074415 -0.006330 -0.019387 0.006642 -0.015339 -0.049859 -0.019617 -0.023700 -0.042861 0.006840 -0.002661
GIR2~A -0.182503 0.032637 -0.085305 -0.274093 -0.372685 -0.258720 -0.266183 -0.414635 -0.754856 0.191523 0.487142 -0.341699 0.332646 -0.056545 -0.252346 0.159617
ISZ~B 0.062673 0.246890 0.650319 0.414085 0.053660 -0.295911 -0.396331 0.015627 -0.105575 -0.272003 -0.365537 -0.200208 -0.210431 -0.177079 0.246435 -0.169853
NA2~A 0.256280 0.215145 0.332501 -0.061705 -0.408337 0.404354 0.149766 0.335767 -0.135220 -0.009910 -0.194143 0.000467 -0.033666 -0.409126 0.176846 0.246561
GURUSZDA 0.083852 0.128913 0.379382 0.136001 -0.089678 -0.570100 -0.263142 -0.571768 -0.006131 0.071002 -0.232252 0.092611 -0.187902 -0.092187 0.004881 0.023764
NIM~B1 0.171884 -0.247470 -0.251145 0.012250 -0.079348 0.537676 0.416496 0.175691 0.204187 0.223335 -0.227660 0.135090 -0.370372 0.034276 -0.140388 0.148607
DUB~B 0.161893 0.249453 0.556732 -0.007166 -0.184295 -0.491247 -0.104242 -0.256138 0.048731 -0.166433 -0.128474 0.068572 -0.064738 -0.254672 0.236723 0.025683
SZAM2 0.323086 -0.255991 -0.173953 0.002596 -0.296060 -0.110490 0.225385 -0.243828 -0.131233 -0.099441 0.224881 0.168436 0.088960 -0.626659 0.131431 0.096650
GURUSZ~A 0.025539 0.150367 0.889887 -0.018603 -0.066224 -0.145671 0.051209 -0.454741 0.076251 0.083506 -0.399312 0.276015 -0.345791 -0.050375 -0.038948 0.387171
KISIM~A -0.009175 0.026798 0.070789 -0.023928 0.002200 -0.207172 -0.046348 -0.142175 -0.142004 -0.144413 0.047961 -0.069331 0.053567 -0.414005 0.191217 0.072419
NU -0.393759 0.060886 -0.057914 -0.143448 0.236708 -0.018495 -0.131011 0.013619 0.011559 0.021904 0.196754 0.012588 0.456262 0.199329 -0.149035 -0.110685
SILA4~C 0.090154 0.240484 0.102238 -0.235783 -0.159557 -0.308855 0.451890 -0.546859 0.510864 0.086974 -0.545291 0.142984 -0.324708 0.351708 -0.164073 0.366295
MUN~A1 0.505368 0.100125 0.329854 0.067224 -0.257951 0.104869 0.377133 0.160198 0.307993 -0.217861 -0.300138 0.039472 -0.104931 -0.172483 0.204321 0.226221
IDIGNA 0.017836 0.080848 -0.070938 0.075245 -0.036512 0.191785 0.221583 0.141690 -0.088673 0.123072 -0.044358 0.138411 -0.112700 -0.148369 -0.100092 0.080240
KAR2~A 0.144369 0.187311 0.064255 0.313273 0.233984 0.578840 0.288693 0.693676 0.180205 -0.180604 -0.452253 0.254983 0.141557 -0.342695 0.433420 -0.341356
AK~A 0.017756 0.027171 0.975418 0.187557 -0.027079 0.341076 -0.246920 0.196565 -0.129038 -0.059715 -0.337217 0.188968 -0.253323 -0.251459 0.214677 0.008781
DIM~A -0.228097 -0.202029 -0.169671 -0.153130 -0.118367 0.065804 -0.059240 -0.239860 -0.135116 -0.047169 0.253606 -0.082914 0.088065 -0.001516 -0.107147 0.131081
KASKAL 0.046365 0.167343 0.243278 0.027231 0.026641 0.330880 -0.074923 0.301579 -0.065848 0.156791 -0.084733 -0.023705 -0.180436 -0.085767 -0.080089 -0.089989
LAGAR~A 0.040554 0.186262 0.109753 0.015089 -0.242569 -0.140177 0.128116 -0.183895 -0.071852 -0.062670 -0.049257 0.103546 0.116664 -0.400617 0.015282 0.041813
SZIM~A -0.196541 -0.057964 -0.339372 -0.008998 0.552832 -0.547024 0.100454 0.399326 0.307939 -0.235090 0.152621 0.026803 0.167822 0.469011 0.239210 -0.573520
ZATU644~A -0.000319 0.027717 0.156287 -0.043278 -0.070301 -0.216807 -0.151958 -0.280341 -0.067786 -0.145483 0.110795 -0.038814 0.120854 -0.214029 0.072562 -0.033553
GARA2~A 0.021809 0.051443 0.503360 -0.144101 -0.038250 -0.463258 -0.276791 -0.292958 -0.112070 -0.264887 0.214554 -0.091127 0.028699 -0.333727 0.279186 -0.157398
GISZ3~B 0.006377 0.100175 0.044203 -0.245276 0.007648 -0.022220 0.010696 0.055088 0.034313 0.022658 0.106787 0.263553 0.115916 0.437116 -0.311096 0.082662
KALAM~B 0.136142 0.070964 -0.369676 0.133850 -0.322900 0.229792 0.071025 0.177501 -0.188386 -0.155776 -0.142165 -0.551771 -0.130490 -0.162017 0.114199 0.115042
LAM~B 0.131789 -0.032684 0.482863 -0.073990 0.233402 -0.194783 -0.306647 -0.054900 0.189770 -0.413604 0.151937 0.297793 -0.001191 0.056675 0.151256 -0.102885
ZATU648 0.369163 -0.101793 0.259544 -0.039239 -0.197543 -0.606089 -0.129180 -0.490345 -0.017158 -0.435503 0.307441 0.203873 0.334162 -0.226032 0.179734 -0.185684
SA~C 0.247280 0.019742 0.039019 -0.229715 0.044074 -0.189237 -0.210821 -0.293398 -0.056076 -0.341124 0.496686 0.391024 0.355692 0.225627 -0.202582 -0.144726
SILA3~A -0.040961 -0.017662 0.032185 -0.063548 -0.260514 -0.041563 0.013732 -0.181679 -0.164102 -0.090663 0.071383 -0.143278 0.164834 -0.557496 0.108292 0.089581
SZEN~B 0.410298 -0.108955 0.366994 0.249710 0.264784 -0.331557 -0.128495 -0.231819 0.348440 -0.089074 -0.225167 0.573332 -0.501839 0.369434 -0.069213 -0.342353
|BU~A+DU6~A| 0.070587 0.113985 0.257293 -0.007675 0.015859 -0.084866 -0.041628 0.189727 0.221085 -0.155224 -0.168288 0.100809 -0.219354 0.229757 0.255292 -0.016797
|DUG~CX 0.005089 0.023653 -0.019329 0.018659 0.026755 -0.094205 -0.040335 0.012749 0.023846 -0.031611 0.011574 0.030949 0.052534 0.170386 0.042262 -0.019934
ZATU710 -0.145848 -0.087623 -0.145607 -0.177577 0.156399 0.028663 0.080443 -0.014530 0.088233 0.035598 0.101406 -0.013985 0.142092 0.048452 0.019697 0.026970
ABGAL -0.038885 -0.031820 -0.116417 -0.118384 0.082588 -0.234969 -0.087653 -0.105819 0.034855 -0.012910 0.163701 0.001276 0.137991 0.102371 -0.014558 -0.039666
GAN~A 0.265361 0.257259 0.265499 0.091403 -0.051919 -0.130653 -0.006393 0.344920 -0.146643 -0.091583 -0.157352 0.101709 0.039793 0.052555 0.217827 -0.035982
ZATU773~A -0.170452 0.204827 -0.052379 0.040006 -0.042181 -0.052559 -0.121761 0.149705 -0.282134 0.025415 0.123889 0.028909 0.079271 0.008990 0.036847 0.017856
|SAL.KUR~A| 0.401898 -0.109339 0.073522 0.075387 -0.102676 -0.172304 0.024165 -0.223010 0.050437 -0.125745 0.025959 0.243285 -0.409704 -0.069038 0.196879 -0.096529
SZURUPPAK~A 0.081161 -0.009013 0.099712 -0.096961 -0.075668 0.192824 -0.073212 -0.238544 -0.244010 0.140487 0.243390 0.064680 -0.130873 -0.330348 0.055552 0.188939
AD~A -0.220777 -0.184393 -0.123360 -0.090158 0.211267 0.510706 -0.036553 -0.110122 -0.032163 0.291458 0.144039 0.142261 0.006173 -0.108775 -0.263815 0.058752
DUR~B 0.025406 0.085988 0.131060 -0.253291 -0.147485 -0.405127 -0.217448 -0.360769 -0.229485 -0.117588 0.395087 -0.071027 0.316329 -0.153421 -0.104300 -0.002292
KAK~A -0.156820 -0.010809 0.402516 0.036720 0.067123 -0.306777 -0.375785 -0.065796 -0.068094 -0.077020 0.043139 -0.004634 -0.022143 0.110445 0.053363 -0.066015
BUR2 0.349474 0.194512 0.036113 -0.228924 -0.151604 -0.931534 -0.142222 -0.419729 -0.092368 -0.149380 0.427410 0.144216 0.098970 -0.885355 0.288105 -0.143738
MEN~A -0.028343 0.099033 0.127906 -0.272964 -0.120640 -0.187291 0.012993 -0.132650 -0.266317 0.070811 0.260632 -0.082103 -0.035779 0.009510 -0.208744 0.244510
SZAKIR~C 0.267476 0.243648 0.557155 -0.023119 0.149688 -0.833244 -0.628708 -0.467997 -0.450527 -0.238246 0.372661 0.008955 -0.238321 -0.255944 0.162104 -0.184197
ZABALAM~A 0.028246 -0.087588 0.587905 -0.491462 -0.453296 0.060613 -0.331986 -0.393829 -0.060202 -0.022604 0.063947 -0.342055 0.122872 0.063539 0.003847 -0.021977
ZATU759 -0.319859 -0.195370 -0.408320 -0.358267 0.102770 0.699164 0.293881 -0.144887 0.247533 0.114603 0.466094 -0.125086 0.196828 -0.251967 -0.463235 0.197236
IR~A -0.118789 -0.116603 -0.023238 -0.260565 0.202756 -0.588742 -0.315462 -0.308670 0.053524 -0.151709 0.181489 -0.009077 0.269307 0.388660 0.006267 -0.171250
NU11 -0.525782 0.122286 -0.306371 -0.087095 -0.231761 0.050928 -0.103318 -0.029137 -0.479193 0.302571 0.323142 -0.318745 0.362856 0.099823 -0.392947 0.187710
ADAB 0.031017 0.075983 0.161639 0.104180 0.181480 -0.187588 -0.289061 0.036925 -0.222119 -0.266294 0.023453 -0.110729 -0.035678 -0.045777 0.111675 -0.186132
GA'AR~A1 0.064262 0.022615 -0.003142 0.013486 -0.040939 -0.192147 -0.067776 0.017004 -0.089791 -0.109626 0.038920 0.002548 0.030050 0.042285 0.020997 0.013885
KINGAL -0.028551 -0.006787 -0.066216 0.004200 0.126375 -0.202807 -0.075342 0.009613 0.061904 -0.028696 0.056903 0.015767 0.059376 0.188071 -0.048707 -0.131746
LU2 -0.072393 0.043502 0.036863 0.075274 0.076333 -0.049179 -0.115755 0.014872 -0.097738 -0.075161 0.056589 -0.259835 0.105300 -0.225979 0.038672 -0.095503
ZATU649 -0.058856 0.120115 0.132211 -0.105185 0.354955 -0.498348 -0.254789 -0.065538 0.281643 -0.060932 0.131623 0.110019 0.134606 0.411309 0.016485 -0.158849
I -0.056301 0.083019 -0.092972 0.087022 0.030249 -0.019639 -0.151328 0.159399 -0.013019 -0.144663 0.150113 -0.153681 0.251823 0.032502 0.118034 -0.249127
|GISZXSZU2~A| 0.179714 -0.526681 -0.398104 -0.053381 -0.041936 0.410704 0.140191 0.064838 0.018655 0.192968 0.110229 0.578584 -0.569859 0.670558 -0.235765 0.136496
GISZIMMAR~B1 -0.161063 0.114944 -0.098322 -0.016459 -0.121108 -0.075890 -0.055949 0.055071 -0.238661 0.034929 -0.021809 -0.173506 0.095796 -0.121939 0.009034 0.146946
GUM~B -0.216070 0.147097 0.081104 0.013841 -0.052845 -0.207294 -0.268685 -0.034711 -0.469163 0.012261 0.347869 -0.125623 0.332804 -0.135567 -0.009562 -0.111250
MES -0.091051 0.060940 0.283218 -0.044012 0.356322 -0.251092 -0.129816 -0.166888 0.408615 0.088202 -0.002157 0.018347 0.074065 0.331524 -0.175130 -0.181105
GAN~B 0.096556 -0.026871 0.173363 0.001216 -0.212280 -0.009008 -0.046051 -0.216979 -0.098450 -0.111864 -0.021368 -0.067899 -0.082965 -0.312513 0.096045 0.057186
UMBIN~A -0.000339 0.037083 0.109477 -0.022750 -0.037334 -0.250303 -0.206964 -0.145982 0.104161 -0.203600 -0.008403 -0.093044 0.014578 -0.032005 0.087436 -0.029695
URUDU~A -0.073416 -0.029911 0.107064 -0.297769 0.216925 -0.568307 -0.278766 -0.278212 0.324591 -0.157185 0.331082 0.081433 0.221385 0.234003 0.011066 -0.156647
ZATU686~A 0.183795 0.056800 0.327441 0.025038 0.106878 -0.487689 -0.098359 0.194242 -0.223191 -0.000046 0.180574 0.423691 -0.078963 -0.375759 0.512920 -0.032445
DU8~C -0.070525 0.072581 0.042730 -0.088376 0.050481 -0.150236 -0.089918 0.037177 0.013571 -0.016754 0.044666 0.033678 0.109737 0.135603 -0.014196 -0.077908
ESZDA 0.061334 0.042885 -0.166205 -0.017349 -0.007027 -0.171663 0.073182 0.165966 -0.002443 0.023844 0.065680 0.083659 0.068263 0.207759 -0.030775 0.032785
LAL2~A 0.006917 -0.033668 0.206955 -0.181534 -0.036253 -0.442884 -0.211704 -0.398717 -0.097866 -0.098981 0.221374 -0.075122 0.120212 -0.042570 -0.032782 -0.000943
PU2 -0.172145 -0.119773 -0.035397 -0.223041 0.026233 -0.146706 -0.050028 -0.277411 0.416902 -0.155780 0.327545 -0.024281 0.463468 -0.067732 -0.123427 -0.226302
ZATU751~A -0.187889 0.026059 0.005230 -0.232788 0.292042 -0.535835 0.127986 -0.293884 0.743886 0.208906 -0.391421 0.218261 -0.261159 0.581718 -0.131158 0.083886
GAN~C 0.044787 0.040623 0.155285 -0.017733 -0.138942 -0.086301 -0.028803 -0.313483 -0.093990 -0.133181 0.092822 -0.028653 0.028171 -0.442538 0.063926 0.022491
UTUL~A 0.085587 0.063371 0.798949 0.122864 0.084185 -0.055951 -0.348249 -0.060875 -0.104281 -0.271580 -0.088969 0.059067 -0.057817 -0.128597 0.175831 -0.079448
BUR~A -0.092858 0.073533 0.128430 -0.084884 0.027129 -0.238814 -0.112163 -0.057839 -0.013589 -0.061137 0.136043 0.054644 0.108928 0.113129 0.025889 -0.074069
GA2~A2 0.205556 -0.022861 -0.120793 -0.067221 0.067195 -0.490613 -0.013452 -0.298075 -0.074925 -0.001697 -0.026244 -0.016645 0.004218 0.103353 -0.039770 -0.056877
ZATU714 0.087412 -0.060864 0.088945 -0.008618 0.090402 -0.003746 -0.125800 -0.073680 -0.004778 -0.107810 -0.023394 0.109049 -0.045045 0.252408 -0.031439 -0.004522
|SZU2.EN~A| -0.452938 0.209912 0.009698 -0.085785 -0.006055 -0.014640 -0.266300 0.092427 -0.788696 0.347301 0.546002 0.162756 0.394371 0.274508 -0.410602 0.116149
GISZ@T 0.119477 0.068457 -0.164648 -0.098946 -0.082741 -0.042370 0.015458 0.161284 -0.026278 0.057351 0.054469 0.029484 0.076167 0.245894 0.078417 0.107641
|TUG2~A.(BAD&BAD)| -0.038842 -0.004771 0.142420 -0.103280 -0.077842 -0.217976 -0.118178 -0.149161 -0.081983 -0.134721 0.097990 -0.163732 0.120608 -0.143637 0.101984 0.014296
BULUG3 0.035715 -0.209185 -0.297230 -0.111002 -0.024371 -0.235220 0.117612 -0.181973 0.105408 -0.085394 -0.094710 -0.161482 0.223563 0.030345 -0.054458 0.003832
SZIDIM -0.074572 0.035110 0.154409 -0.052171 0.084972 -0.061508 -0.129937 0.030728 -0.046882 -0.035658 0.077742 -0.006008 0.129682 0.070886 0.054619 -0.071117
SZUM -0.074447 0.037250 -0.133727 -0.064697 -0.021435 -0.105625 -0.006232 -0.082461 -0.144055 0.069134 0.114299 -0.058387 0.072718 0.104055 -0.090749 0.079044
TUM~A 0.092393 0.050764 0.349123 -0.037502 -0.237723 -0.143572 -0.143606 -0.182193 -0.116281 -0.115664 0.093846 -0.075503 -0.003562 -0.252116 0.120212 -0.006347
|NUN~A+EN~A| -0.112828 0.017407 0.063145 -0.076147 0.020729 -0.130680 -0.101065 -0.101715 0.009192 -0.051872 0.064759 -0.018160 0.049572 -0.044569 0.028858 -0.001676
|ZATU714XHI@G~A| 0.216477 0.040834 0.368479 0.148727 0.410587 -0.236178 -0.369400 -0.043682 0.106821 -0.376660 -0.113615 0.268868 -0.193734 0.293328 0.148442 -0.167781
ZATU697~A -0.106080 -0.034472 0.049206 -0.075448 0.138720 -0.079019 0.077217 0.087631 0.003029 -0.021717 0.065225 0.097570 -0.068684 0.040216 0.068982 0.057944
|ZATU737XSAL| 0.146330 0.251682 0.755164 0.537937 0.119829 0.145090 -0.197740 0.096447 0.118387 -0.158011 -0.635897 0.184621 -0.216407 -0.282079 0.478601 -0.285542
ANSZE~B -0.107341 -0.017657 0.252768 0.005982 0.145404 -0.250011 -0.327016 -0.104564 0.047940 -0.114644 0.127412 0.073132 0.108812 0.115223 0.087374 -0.189177
DILMUN 0.049127 0.104469 0.076616 0.012961 0.159706 -0.671402 -0.419985 -0.101900 0.155629 -0.170999 0.204341 0.028021 0.096615 0.427330 0.087390 -0.321948
NI2 0.053582 0.068089 0.084831 -0.004238 0.288185 -0.493866 -0.162869 -0.097674 0.283951 -0.103401 0.066971 0.086721 0.031153 0.281909 0.085564 -0.199909
|ZATU759XKU6~A| -0.017057 0.010000 -0.014168 -0.017299 -0.026659 -0.175034 -0.055928 -0.102930 -0.001845 -0.088056 0.122749 -0.085859 0.135558 0.048789 0.085629 -0.027361
DARA4~A1 -0.091308 -0.052481 0.274414 -0.165804 0.125604 -0.117200 0.140298 -0.123280 0.123554 -0.009497 0.210223 0.112938 -0.001311 -0.112912 0.024649 -0.111700
DU6~B -0.020597 0.084775 0.234506 0.074536 0.168757 -0.228338 -0.203956 0.033812 0.037085 -0.104271 -0.032008 0.068678 0.024135 0.164639 0.077384 -0.134771
NIR~A 0.011298 0.046554 0.125456 -0.013527 0.030905 0.010747 -0.021466 -0.046274 -0.134571 -0.004176 -0.018113 -0.006984 0.007093 -0.201513 0.010103 0.010496
SAGSZU -0.133683 0.003507 -0.054777 -0.102654 0.112849 -0.329710 -0.145351 -0.038119 0.043458 -0.051061 0.228415 0.021526 0.200633 0.216249 -0.015378 -0.052797
SILA4~B 0.162725 0.293490 0.712152 0.066146 0.045719 -0.464695 -0.448440 -0.024441 -0.153233 -0.251420 0.040996 0.173003 -0.094243 0.064534 0.278344 -0.178497
SZA3~A2 0.036757 -0.039591 -0.026887 0.044786 -0.047495 -0.072196 -0.009483 -0.062422 -0.081844 -0.060375 0.045318 -0.055629 -0.047372 -0.011818 0.016631 -0.012505
SZEG9 0.003173 0.126228 0.053036 0.023869 -0.020571 -0.151517 -0.116804 0.016369 -0.084166 -0.114769 -0.039108 -0.129270 -0.017662 -0.007880 0.137702 -0.023127
ZATU693 -0.016096 -0.010589 -0.087868 0.043407 0.043540 0.182963 0.058508 0.107006 0.016927 0.000293 0.004071 -0.015537 0.072676 0.057582 -0.072489 -0.032894
PAD~A -0.107211 0.212834 0.136606 -0.129522 -0.199435 0.244606 0.119693 0.448327 0.076513 0.172502 -0.311309 -0.071736 0.065500 0.122320 -0.062133 0.174300
SZELU 0.061080 -0.053796 -0.124805 0.015336 0.147670 -0.408323 -0.193940 0.068471 0.040226 -0.076941 0.134183 0.080234 0.072073 0.787622 -0.101034 -0.233960
|E2~AX -0.044934 0.096369 -0.118520 0.056270 0.341417 -0.427591 -0.143039 0.223530 0.217125 -0.078267 0.054868 0.097847 -0.002126 0.653818 -0.004422 -0.262744
GAR3 -0.027450 0.011822 0.184761 -0.000579 0.059468 -0.290698 -0.190493 -0.059342 0.062985 -0.107770 0.058742 0.067582 0.092004 0.180518 0.056677 -0.134849
SZITA~A3 0.187339 -0.032841 -0.192984 0.151250 -0.240598 0.194450 0.220208 0.126629 0.168345 -0.090571 -0.318026 -0.245835 -0.259015 0.089464 0.043009 0.105189
URI -0.062466 -0.013835 0.021945 -0.037202 0.149763 -0.293406 -0.137027 0.027157 0.016817 0.022856 0.126432 0.092320 0.059335 0.305434 0.001969 -0.109096
ZATU628~A 0.120282 -0.009205 0.162276 0.002006 0.070840 -0.042824 0.228843 -0.080803 0.238866 0.077498 -0.294779 0.321643 -0.285617 0.294221 -0.054221 0.155198
|ZATU651XEN~A| -0.051474 0.057577 0.328267 -0.172037 -0.021961 -0.101970 -0.110860 -0.227445 -0.073092 -0.050711 0.134984 0.078136 0.151576 -0.096223 0.028322 0.009943
GUL 0.000125 0.096405 0.026978 0.078582 0.095581 -0.194064 -0.212970 0.096619 0.122819 -0.044588 0.048835 0.048255 -0.050508 0.296740 0.080642 -0.092675
IN~B 0.088348 0.168982 -0.257058 0.089468 0.277183 0.492197 0.433485 0.497824 -0.046901 0.545850 -0.285730 0.373552 -0.329733 0.018693 -0.221370 0.080824
KALAM~A -0.110364 0.152475 -0.146663 0.125330 -0.059008 -0.097653 -0.243450 0.126139 -0.314360 -0.203145 0.063782 -0.501501 -0.008032 -0.152368 0.210487 -0.030756
KISZIK~A -0.213408 -0.195493 -0.051340 -0.159169 0.093364 0.076613 0.034700 0.081858 0.192210 0.024099 0.109268 0.108432 0.232065 0.056052 -0.006736 -0.061905
SZEN~C@T -0.025010 0.024899 0.115752 -0.127529 -0.147255 0.127509 0.089152 0.039537 0.030092 0.015456 -0.100562 0.003805 0.077444 -0.081858 -0.035287 0.126387
DARA4~C2 0.338606 -0.094526 -0.124119 -0.228712 -0.132864 -0.511563 -0.057181 -0.427633 0.014941 0.079922 0.319162 0.128259 0.136434 0.206946 -0.204929 -0.027118
DAR~B 0.112610 0.071243 -0.461256 0.213493 0.023428 0.426301 0.354692 0.643975 0.314262 0.110939 -0.438646 -0.117247 -0.370909 0.375952 -0.043667 0.035733
GI4~A -0.092260 0.023839 -0.188005 -0.023241 0.058539 -0.095617 -0.021152 0.140552 -0.012316 0.059113 0.069920 -0.020141 0.036894 0.257091 -0.012999 -0.047065
KU~B2 -0.055828 -0.006040 -0.402069 0.068956 0.374041 -0.421947 0.105381 0.313069 0.354060 -0.161813 -0.062342 0.048029 0.207663 0.546698 0.142478 -0.482662
SUM~A 0.007124 0.060118 0.239704 0.024857 -0.105290 -0.285756 -0.283083 -0.204200 -0.253121 -0.082631 0.192335 -0.086438 0.194133 -0.119506 0.065580 -0.123505
TU~A 0.023558 0.135463 0.256130 0.176895 0.070080 0.087919 0.023492 0.092506 -0.123122 -0.024653 -0.148390 0.191019 -0.153517 -0.153427 0.168259 -0.075561
TU~B -0.028153 -0.052568 -0.049648 0.033082 0.015411 -0.015201 -0.066917 0.024501 0.107196 0.066298 -0.038611 -0.022164 -0.046038 0.187596 -0.039890 -0.082151
ZATU662 0.024150 0.041410 0.029692 0.017577 -0.014928 -0.058014 0.021660 -0.017619 -0.070366 -0.018524 0.027648 -0.010109 -0.011263 -0.098883 0.054987 0.020357
ZATU788 -0.459784 0.367145 -0.346478 -0.182115 0.079143 -0.415212 -0.284338 0.419309 -0.534110 0.368875 0.469236 -0.146804 0.519349 0.942757 -0.468889 0.006146
|SZE~A&SZE~A| -0.012315 -0.016935 0.112031 -0.091136 -0.003719 -0.116614 -0.083042 -0.146976 -0.167923 -0.088812 0.267376 0.015025 0.116099 -0.083584 -0.055604 -0.026260
|U4XTUR -0.029186 0.008765 -0.104180 -0.034989 0.201091 -0.189196 -0.071904 0.110543 0.118670 -0.017394 0.038651 0.082236 0.016857 0.352708 -0.026584 -0.156703
BAHAR2~B -0.053764 0.131470 -0.077642 -0.093247 -0.021869 -0.130648 0.059730 0.301387 0.073977 -0.006830 -0.026667 -0.154487 0.156468 0.441133 -0.021305 0.048391
BU3 0.121295 0.027775 -0.100495 0.262076 0.123624 0.393417 0.231277 0.393262 0.023427 0.040623 -0.128294 0.196484 -0.034470 0.169620 -0.019501 -0.271237
DAH 0.183535 0.097114 0.298706 -0.114140 -0.170830 0.118313 0.028933 0.183068 -0.046534 0.012248 -0.053810 0.165654 0.072579 0.005546 0.023780 0.057234
GUKKAL~A -0.007285 0.020723 0.107228 0.026706 0.091630 -0.183262 -0.109099 0.019200 0.047801 -0.134510 -0.107651 -0.036142 -0.053447 0.007532 0.172373 -0.059127
ISZ~A 0.048717 0.049616 0.594923 0.219575 0.298771 -0.321019 -0.293736 0.097073 -0.096564 -0.154996 -0.143149 0.238018 -0.202250 0.171212 0.210003 -0.189850
MUD3~A -0.049345 0.050262 -0.034489 -0.031409 0.176150 -0.204683 -0.111172 0.094951 0.144033 0.002161 0.022467 0.005009 0.089508 0.370411 -0.012325 -0.152491
SZITA~B1 0.251290 -0.020338 0.122268 -0.025323 0.036626 -0.325548 -0.037476 -0.136157 -0.019967 -0.022031 0.020630 0.172567 -0.027104 -0.086388 0.144712 -0.056646
|U4. 0.179824 -0.040969 -0.119415 0.072670 0.123573 0.052475 0.115324 0.175336 0.178013 -0.052570 -0.040980 0.166038 0.005480 0.210780 0.013468 -0.199886
|ZATU737XDI| 0.094835 0.179334 0.426332 0.323882 0.174961 0.080964 -0.176649 0.304764 -0.013805 0.017208 -0.324847 0.271790 -0.203513 0.178833 0.142836 -0.200200
GA~B -0.038473 0.087198 0.095449 -0.040450 0.224612 -0.538480 -0.201995 0.039661 0.165820 -0.156003 0.284116 -0.014223 0.243168 0.225667 0.094201 -0.287334
GESZTU~A -0.005493 0.002485 0.062485 -0.001415 -0.028376 -0.013165 0.040136 0.025158 0.002018 -0.050463 -0.009604 -0.040227 -0.010278 -0.083777 0.036462 0.014002
KITI 0.109028 0.065314 -0.036964 0.270205 0.010035 -0.057579 -0.216551 -0.053260 -0.055904 -0.199455 -0.171224 -0.352108 -0.139113 -0.096835 0.111487 -0.217737
NUNUZ~C -0.188825 -0.053236 -0.272029 -0.093145 0.125302 0.325870 0.135605 0.364001 -0.080320 0.185033 0.157208 0.009713 0.014145 0.086655 -0.187778 0.091831
SA~A -0.003807 0.059603 0.071887 -0.005946 0.231002 -0.336457 -0.197918 0.021357 -0.080261 -0.166148 0.059397 0.058874 0.061166 -0.052438 0.227208 -0.133291
SIG2~A1 0.025863 0.030636 0.041641 0.078259 0.001489 -0.005997 -0.037119 0.147045 -0.019430 -0.050985 -0.000367 0.035555 0.046752 0.020598 0.059963 0.027469
SILANITA -0.086820 -0.009173 -0.081331 -0.131320 0.058543 -0.187348 -0.098560 -0.035009 0.071679 -0.023168 0.113495 -0.055748 0.141936 0.217729 -0.036073 -0.020912
TAG~A1 0.002055 0.065777 -0.092345 -0.023274 0.035838 -0.406678 -0.209864 -0.034148 -0.072314 -0.102906 0.169543 -0.104266 0.241692 0.460402 -0.024276 -0.183484
ZATU758 0.028017 -0.001390 0.066805 -0.025042 0.003810 -0.181618 -0.095035 -0.001867 0.001756 0.007278 0.027780 0.051492 0.069865 0.060776 0.059102 -0.090802
|GISZ.TE| -0.105784 -0.025714 0.016593 -0.057551 0.280683 0.180331 -0.011425 -0.035891 0.218801 -0.026784 0.157990 0.008409 0.093357 0.217552 -0.170786 -0.026218
DAR~A -0.014051 0.183649 0.017673 -0.073070 0.094377 -0.567684 -0.382543 -0.063089 0.075703 -0.217039 0.229622 -0.219655 0.332103 0.255364 0.039088 -0.384698
DUR~A 0.000298 0.094217 0.170923 0.012167 -0.029613 -0.226038 -0.165819 -0.043742 -0.002006 -0.079638 0.019670 -0.012399 -0.000400 0.012638 0.022169 -0.060016
NESAG2~B -0.010830 0.102063 0.213303 0.064812 0.080171 -0.162299 -0.167190 -0.028897 -0.069477 -0.082405 0.000764 0.039368 -0.002880 0.039491 0.094457 -0.092645
SZITA@G~A -0.026399 -0.056624 -0.078963 0.018038 0.004917 0.154290 0.072828 0.120363 -0.067361 0.035080 -0.065758 0.019861 -0.052415 -0.068316 0.068575 0.048135
|SAR~AXSZE~A| 0.054194 -0.014091 0.169289 -0.074223 -0.071113 -0.142765 -0.002942 -0.004112 -0.091056 -0.022255 -0.022234 -0.035678 -0.052028 -0.171936 0.147965 0.084423
E~B -0.010555 -0.051686 0.028234 -0.063346 0.282987 -0.571593 0.087839 -0.094466 0.158984 -0.220441 -0.020393 -0.183460 -0.133746 0.097826 0.226237 -0.056925
GA... 0.011917 0.002638 0.052501 -0.043894 -0.131104 -0.091273 -0.076341 -0.156873 -0.074000 -0.093720 0.026356 -0.096464 0.073624 -0.152995 0.061952 0.004889
GIR3~A 0.076355 0.088079 0.140509 0.041996 0.028416 -0.221231 -0.101004 0.000633 -0.044429 -0.081418 0.021423 0.020243 -0.032978 0.013439 0.048052 -0.103311
KISIM~B -0.055290 0.053191 -0.058736 -0.015427 0.161336 -0.130532 -0.052017 0.112947 0.119045 -0.004248 0.057553 0.046469 0.067769 0.339752 -0.034827 -0.160813
NINDA2 0.024637 0.022102 0.093328 -0.052560 0.015441 -0.244840 -0.058809 -0.221789 0.109026 -0.171601 0.079703 0.004120 -0.028224 -0.094056 0.081751 -0.114690
SIG2~A2 0.067165 0.089467 0.068120 0.016069 -0.051810 -0.032617 0.035169 0.098255 -0.073885 -0.066505 -0.074238 0.053321 0.013496 0.030248 0.064480 -0.014758
SZAH2~A -0.044597 0.042838 0.046386 -0.022359 0.005360 -0.194089 -0.154042 -0.046592 0.002223 -0.051525 0.081489 -0.002841 0.067758 0.018668 -0.009423 -0.105877
SZESZ~A 0.040750 0.116041 -0.012250 0.019562 0.114819 -0.208703 -0.152710 0.066429 0.102505 -0.156267 0.008111 -0.060404 0.150801 0.213429 0.046861 -0.168466
UMUKU3~A -0.167662 0.014238 -0.042550 0.006529 0.068305 -0.157755 0.027743 0.315000 0.006514 0.083640 -0.118492 0.076913 0.171161 0.121606 0.139258 -0.030534
ZATU726~D -0.035517 0.004847 -0.011902 0.033840 0.152259 -0.193779 -0.081321 0.085168 0.064457 -0.017693 0.059630 0.057848 0.069487 0.286623 -0.009293 -0.131079
ERIM2 0.104156 -0.253973 -0.720833 -0.029657 0.150201 -0.096633 0.156174 -0.006803 0.080215 0.093740 0.010956 -0.107459 0.289115 0.517155 -0.289239 -0.090801
ESZGAR -0.048270 0.102138 0.019701 -0.009064 0.085384 -0.188250 -0.133805 0.033396 0.022354 -0.040910 0.052566 -0.077015 0.111328 0.115411 0.007934 -0.140664
EZEN~A -0.005659 0.043434 0.175647 -0.048590 -0.113329 -0.047969 -0.047721 -0.061217 -0.062460 -0.048494 -0.001369 -0.029829 0.034615 -0.184840 0.133958 0.076703
KIR11 -0.062985 -0.005834 0.032552 -0.023848 0.004450 0.067831 -0.068997 0.012688 0.106764 0.093795 0.018127 0.058204 0.011884 0.084382 -0.042264 -0.057440
MAR~B -0.198749 -0.193891 -0.568809 -0.058507 0.171478 0.449877 0.052501 0.037788 0.026718 0.100176 0.351090 0.186960 0.092450 0.648170 -0.387427 0.077422
TA~C 0.056493 0.172527 0.137372 0.022713 0.240978 -0.074783 0.064832 0.196327 0.195249 0.171864 -0.134610 0.344508 -0.181837 0.372635 -0.082819 -0.136687
ZATU795 0.142773 -0.063467 0.209800 -0.128301 0.361506 -0.475455 -0.297380 -0.005240 0.371359 -0.339257 0.212344 0.289308 0.094089 0.405883 0.051650 -0.226957
|SZU&SZU| 0.031058 0.025576 0.097990 0.059451 0.029235 -0.266930 -0.165838 -0.062547 0.160471 -0.125465 0.030033 -0.127608 0.085588 0.097713 0.058330 -0.153389
BAHAR2~A 0.026627 0.009535 -0.138918 -0.079179 0.118230 -0.109549 -0.022463 0.021992 0.094862 -0.005314 0.054965 -0.001715 -0.035393 0.050731 0.030866 -0.052670
DIM~C -0.094927 0.034973 -0.050778 -0.059283 0.057241 -0.078293 -0.079789 0.036463 -0.133599 0.043962 0.144014 -0.032328 0.146547 0.057197 -0.043744 -0.049027
ENGIZ 0.108493 0.239411 0.676816 -0.101432 0.448000 -0.841201 -0.401250 -0.150932 0.258538 -0.357426 0.176770 0.157894 0.085986 0.225300 0.234080 -0.377422
GIR~A -0.263974 0.069952 -0.023215 -0.214806 0.376820 -0.424186 -0.218779 -0.149710 0.236608 0.035532 0.329231 0.192022 0.347623 0.487865 -0.168966 -0.334507
SIG2~A3 0.001020 0.074326 -0.015596 0.071625 0.086964 -0.197769 -0.054229 0.009525 0.058169 -0.018849 0.060212 0.042537 0.041424 0.129394 0.003015 -0.104364
ZATU703 -0.005764 -0.090040 -0.267597 -0.127430 0.022394 0.018744 0.019801 0.034273 0.026349 0.037813 0.081200 -0.069357 0.080783 0.099840 -0.122466 -0.008761
ZATU764 0.113958 0.024235 0.021000 0.035899 0.206406 -0.335732 -0.179343 0.046937 0.141512 -0.123019 0.079474 0.073562 0.114794 0.310846 0.062247 -0.323600
DU8~C@G -0.050746 0.020753 -0.144995 0.082688 0.306623 -0.209354 -0.131467 0.224912 0.093014 -0.090294 -0.037827 0.078087 0.047210 0.539577 0.061656 -0.285143
NIM~B2 -0.051941 0.010013 -0.153873 -0.029480 0.224352 -0.179550 -0.109717 0.082036 0.099770 0.033631 0.111606 0.023018 0.071794 0.281973 -0.058089 -0.172282
SZA@G -0.000507 0.021472 -0.013897 -0.017013 0.151739 -0.310943 -0.129672 -0.056520 0.083750 -0.056192 0.107760 0.028412 0.064609 0.159401 0.016668 -0.157934
ZATU720 0.013070 0.077105 0.165019 0.015663 0.019841 -0.322477 -0.164085 -0.050734 0.004456 -0.122072 0.075940 0.007740 0.101547 0.098875 -0.005215 -0.128504
ZATU735~B -0.023210 -0.126996 -0.042737 -0.064786 0.221706 -0.252132 -0.112134 -0.042419 0.378271 -0.028896 0.022253 0.091210 0.104187 0.349282 -0.187183 -0.217468
ZATU776 -0.065707 -0.042357 0.089555 -0.019591 0.080365 -0.079789 -0.103719 -0.033437 0.168049 0.008483 -0.032583 0.030358 0.004325 0.125305 -0.009669 -0.134235
|DUG~BXSIG7| -0.106669 -0.013105 0.023962 -0.006845 0.220906 -0.163507 -0.121491 0.200560 0.099015 0.045335 0.037649 0.115095 0.036289 0.354221 -0.058218 -0.155572
|E -0.052035 0.052518 -0.056133 0.032268 0.219993 -0.293167 -0.158642 0.094052 0.123684 -0.016409 0.033672 0.054021 0.105353 0.385055 -0.045660 -0.189417
|KA2XLAM| -0.026226 0.120386 0.297417 0.033719 0.068797 -0.138664 -0.149304 -0.066667 -0.020736 -0.154536 0.045065 -0.016240 0.047839 -0.033054 0.086481 -0.143480
|U4X... -0.015860 -0.020702 0.014413 -0.087707 -0.008738 0.030578 -0.044194 0.024247 0.167194 -0.011456 -0.013562 -0.068694 0.069247 0.082873 0.011644 0.003720
|ZATU651XGAR| 0.071132 -0.007010 0.081271 0.025441 -0.096381 -0.111638 0.006292 -0.043423 -0.076796 -0.050488 -0.045886 -0.013710 -0.019983 -0.187500 0.058258 0.041596
ASAR -0.015756 0.051195 -0.201709 0.038190 0.263041 -0.126968 -0.005710 0.225632 0.130134 0.105360 -0.024982 0.107256 -0.025040 0.388060 -0.079623 -0.129278
BAD -0.041481 -0.022794 -0.120259 -0.085351 0.193430 -0.244543 -0.059798 0.012328 0.223549 -0.020151 0.014202 -0.009821 0.028518 0.317004 -0.040755 -0.139415
BAHAR2~C -0.003094 0.070500 0.061507 -0.010338 0.025544 -0.065423 -0.001088 0.029156 0.000117 -0.004008 -0.018159 -0.002918 0.008005 0.086076 0.052907 -0.035928
BALAG -0.029274 0.033892 0.046435 -0.030961 0.049565 -0.045573 -0.088369 0.020501 0.043687 0.009739 0.004016 0.003541 0.020604 0.033564 0.019509 -0.057670
BALA~A 0.070237 -0.127870 -0.174257 0.060123 0.083763 -0.470965 -0.141585 -0.376111 0.261672 -0.079613 0.195911 -0.007541 0.066182 0.035980 -0.027423 -0.223501
KASZ~D 0.059611 -0.090523 -0.098024 -0.051569 -0.004320 -0.338909 -0.021483 -0.024864 0.106900 -0.026333 -0.056798 0.024297 0.141070 0.160785 0.010267 -0.073055
MIR~A 0.012731 0.004056 0.485487 -0.060489 0.105539 -0.806715 -0.223831 -0.194056 0.322221 -0.315641 0.144229 0.053664 0.040286 0.308180 0.356089 -0.301324
NAB -0.064587 0.331681 -0.386618 0.361031 0.215760 -0.661495 -0.478391 0.281299 0.253120 -0.206355 -0.106243 -0.519802 -0.006636 0.631494 0.137816 -0.383277
NU@G -0.018368 0.058684 -0.033215 -0.030437 0.160026 -0.277073 -0.034759 0.100513 0.142223 -0.002068 0.023714 0.043518 0.065955 0.320765 0.010072 -0.104870
PIRIG~A1 -0.003682 -0.016390 0.114110 -0.055373 0.146979 -0.188187 -0.144029 -0.016680 -0.013033 -0.043494 0.028444 -0.021452 0.071667 -0.002619 0.083938 -0.128128
SUM~B -0.068159 -0.082109 -0.110507 0.005153 0.109532 0.239671 0.114488 0.146437 0.144174 0.100988 -0.018809 0.015066 -0.116216 0.151658 -0.031410 0.079584
UMU... -0.015159 0.009567 -0.093103 0.028322 0.052501 -0.105300 -0.014362 0.093976 0.085188 0.069360 -0.016586 0.024537 0.086583 0.122748 0.009662 -0.016141
ZATU629 -0.109998 -0.051639 -0.056223 -0.104421 0.131189 0.091185 0.003692 -0.114985 0.060049 -0.084145 0.124590 -0.104502 0.170894 -0.131995 -0.077966 -0.000543
ZATU749~B 0.142936 0.107986 0.199282 -0.028413 0.081719 -0.340521 -0.102013 -0.014967 0.032724 -0.069185 -0.060343 0.003784 -0.038119 0.094586 0.133390 -0.167340
|(UDU~AXTAR)~B| -0.014341 -0.076628 0.072707 -0.115859 -0.084416 0.127635 -0.023720 -0.070806 0.049070 -0.006298 0.030000 0.050726 -0.022994 -0.097161 0.047418 0.113800
|LAGAB~AXSZITA~A1| -0.040202 0.055677 0.002139 -0.029870 0.105457 -0.211759 -0.121815 0.015545 -0.027460 -0.089330 0.091518 -0.013987 0.141938 0.159805 0.024186 -0.188827
|SAGXMA| 0.124496 0.024173 0.111459 -0.036107 0.150590 -0.423984 -0.220816 0.013992 0.150254 -0.114430 0.082388 0.176345 -0.054365 0.566044 0.052329 -0.265602
AGAR2 -0.002876 0.015108 -0.109668 0.005398 0.156996 -0.240041 -0.110937 0.121416 0.116534 0.006726 0.060042 0.043246 0.056564 0.387554 -0.006253 -0.175827
AZ 0.010240 -0.218051 -0.421304 -0.091184 0.255748 -0.566580 -0.139336 -0.206450 0.208355 -0.090858 0.490046 0.109831 0.337891 0.464947 -0.163744 -0.273307
DARA4~C1 -0.009820 0.096545 0.186853 0.037758 -0.058404 -0.156907 -0.110282 -0.103510 -0.052324 -0.056449 -0.002004 -0.040798 0.027678 -0.125664 0.121222 -0.006153
GA2~B -0.135762 0.085706 -0.195491 -0.038017 0.051120 -0.169505 -0.061893 0.057903 -0.127312 0.126674 0.145745 -0.016999 0.126701 0.319307 -0.131592 -0.002289
KID~A 0.014120 -0.086995 -0.444115 0.056146 0.031521 0.345554 0.315191 0.156545 -0.005023 0.226250 -0.044485 0.039086 -0.265500 -0.106158 -0.122138 0.205756
PAP@T 0.072895 -0.060269 -0.769822 0.141561 -0.030374 0.737340 0.616303 0.764101 0.336646 0.292543 -0.371394 -0.019026 -0.458331 0.458089 -0.282596 0.233376
SAG@N -0.041198 0.032821 -0.114276 0.054829 0.245609 -0.229852 -0.107111 0.196062 0.224451 -0.021892 -0.029701 0.048463 0.013004 0.449236 -0.031754 -0.198341
SZEN~A -0.134674 -0.047591 -0.072617 -0.065270 0.298983 -0.044544 -0.070439 -0.075961 0.232999 -0.022984 0.146197 0.051674 0.200534 0.287498 -0.196081 -0.109578
TUG2~A@G 0.003787 0.080726 0.041406 -0.141334 -0.056222 -0.090465 -0.040396 0.045261 -0.016926 0.038623 -0.001036 -0.061931 0.157913 0.038642 -0.015470 -0.004779
UR4~B -0.092031 0.036136 0.103989 0.001859 0.110295 -0.386113 -0.098313 -0.023179 0.120315 -0.043951 0.143898 -0.067374 0.076856 0.216975 0.027019 -0.166607
ZATU725 -0.022673 -0.007653 -0.088676 -0.034625 0.269906 -0.262299 -0.081001 0.105266 0.165238 0.022880 0.050687 0.043776 0.026437 0.444536 -0.059829 -0.237546
ZATU756 -0.051831 0.122142 -0.215252 -0.055308 0.229127 -0.778041 -0.237384 0.106502 0.273560 -0.108268 0.175619 -0.017796 0.192479 0.451318 0.072386 -0.361577
ZATU777 0.075463 0.017293 -0.017412 -0.029395 0.093460 -0.099776 -0.099942 -0.045545 0.068490 0.014147 0.035326 0.036278 0.050545 0.119377 -0.084401 -0.048868
|DUG~BXDIN| -0.062749 0.026509 -0.123807 0.001386 0.148370 -0.147338 -0.033102 0.095556 0.102980 0.001976 -0.009907 0.010464 -0.000524 0.328589 -0.089764 -0.044951
|DUG~BXSZE~A| -0.040007 -0.013645 -0.129123 -0.017234 0.247759 -0.236182 -0.110133 0.129647 0.151176 -0.023799 0.101378 0.022099 0.044368 0.401625 -0.073469 -0.126494
|SILA3~AXSZE~A@T| -0.041279 0.076239 0.171014 -0.004302 0.012395 -0.132340 -0.147692 -0.005022 -0.094015 -0.105781 0.052258 -0.013935 0.050544 -0.063601 0.053140 -0.048544
BAN~A 0.020014 0.083459 0.071977 -0.009858 -0.043102 -0.026039 -0.029610 0.003413 -0.053939 -0.030128 0.015893 0.017096 0.019881 -0.118339 0.012885 -0.030511
BARA3 0.030256 0.006702 -0.056609 -0.028132 0.018063 -0.159775 -0.036753 0.000484 0.067215 -0.094053 0.115685 0.010742 0.033927 0.068702 0.008760 -0.007145
BIR3~A 0.060310 -0.021337 -0.028956 -0.013377 0.117011 -0.031983 0.075892 -0.093295 -0.000922 0.029580 0.061376 0.075314 0.007062 -0.121190 -0.011184 -0.115107
GA'AR~A2 -0.013625 0.027779 -0.033966 0.024113 0.033265 -0.123753 -0.097380 0.005531 0.060421 -0.021269 -0.004353 -0.014501 0.070551 0.232780 -0.044509 -0.048279
MUNSZUB~B 0.032667 0.071794 -0.191357 -0.064481 0.404559 -0.478347 -0.171013 0.147069 0.276300 -0.092054 0.196393 0.185991 0.220371 0.775382 -0.092467 -0.447627
NUN~C 0.084837 0.030286 0.234224 -0.007080 -0.040914 -0.234376 -0.057281 -0.140638 -0.021545 -0.186957 0.059344 -0.007128 -0.010926 -0.175393 0.167048 -0.095102
SILA4~A 0.061104 0.134874 0.490607 0.205050 0.435123 -0.347702 -0.383898 0.194846 0.059492 -0.156028 -0.102568 0.258850 -0.131704 0.442989 0.180810 -0.339581
TI@T 0.016323 0.073262 -0.239842 0.013153 0.493038 -0.400403 -0.147465 0.239894 0.294682 -0.051942 0.125935 0.096744 0.090987 0.795500 -0.088562 -0.380221
ZATU625 -0.022801 0.014377 -0.130794 -0.018929 0.227560 -0.439933 -0.130369 0.115945 0.234033 -0.041363 0.013334 0.156140 0.107263 0.650419 -0.014913 -0.258701
ZATU651 0.016389 0.045106 0.161585 0.031336 0.015393 -0.162710 -0.141014 0.031657 0.062983 -0.123421 -0.025530 0.000526 0.027044 0.098408 0.048127 -0.098412
|SILA3~AXGARA2~A| -0.167268 0.040004 0.114805 -0.039559 0.085335 -0.069612 -0.004199 -0.012714 -0.013093 0.008618 -0.041355 -0.093547 0.052716 0.013519 0.047496 -0.005837
|SILA3~AXSZU| -0.027339 0.022780 -0.085504 0.069596 0.121149 -0.153190 -0.037514 0.046641 0.066476 -0.027522 0.001162 0.038171 0.028353 0.273811 -0.067155 -0.108769
|SILA3~AXX| 0.013637 0.006307 0.007924 0.014232 -0.059072 0.038267 0.027737 -0.060161 -0.091096 0.021567 -0.001994 -0.020876 -0.023928 -0.102855 -0.049593 0.054084
BAN~B 0.037831 0.058671 -0.025387 0.023148 0.099855 -0.165310 -0.057507 0.048875 0.124603 -0.051371 -0.001614 0.014365 -0.024613 0.200562 0.004900 -0.124193
GUM~A -0.134743 -0.036832 -0.083588 -0.045699 0.307642 -0.052379 -0.040101 0.232932 0.265978 -0.026237 0.063189 0.159761 0.163657 0.165547 0.129801 -0.127130
MIR~B -0.030303 -0.028925 -0.064603 -0.034909 0.232695 -0.455577 -0.180876 -0.032403 0.250443 -0.118494 0.150990 0.092445 0.176396 0.435508 0.035068 -0.298551
MUNU3 -0.047552 -0.009516 -0.053900 -0.112203 -0.155959 -0.028146 0.026572 -0.160002 0.032360 -0.004387 0.068967 -0.103071 0.059718 -0.165014 0.011250 0.082647
SZIR~A -0.044476 0.011870 0.069982 0.036588 0.186597 -0.243090 -0.146660 0.047219 0.131681 -0.039390 0.035879 0.089987 0.024457 0.250363 0.050998 -0.189732
ZATU718 -0.038216 0.040440 -0.140084 -0.095250 0.149760 -0.183417 -0.096055 0.207188 0.202935 0.004715 0.029909 0.071044 0.153887 0.511800 0.014536 -0.160354
|... 0.047785 0.060922 -0.031335 -0.049955 0.036985 -0.164551 0.000523 -0.062701 0.047017 -0.046846 0.037257 0.034790 0.049498 -0.008467 0.065871 -0.055740
GAX -0.051681 -0.043280 -0.013244 -0.072452 0.004123 0.141314 0.006625 -0.060562 0.075318 0.082797 0.017267 -0.067899 -0.004075 -0.046037 -0.070006 0.019513
GAZI 0.030422 -0.052166 0.086444 0.006754 -0.006532 -0.035190 -0.035684 -0.047739 -0.034844 -0.048168 0.054897 -0.024152 -0.003392 -0.111343 0.017511 0.004058
KAL~B2 0.054037 -0.098368 -0.449875 0.169436 0.322809 0.071044 0.280761 0.248479 0.282544 0.140921 -0.169150 0.012911 -0.296623 0.188196 -0.098147 -0.022785
KISAL~A1 0.038720 0.053668 0.057724 0.007152 0.099324 -0.148391 -0.071249 -0.016305 0.000699 -0.070533 0.063733 0.029269 0.047578 0.015003 0.063598 -0.086178
NUMUN -0.020423 -0.086183 -0.224840 -0.058425 0.027089 -0.086911 -0.000591 -0.007045 0.104918 -0.050137 0.043630 -0.059001 0.183042 0.298615 -0.113257 -0.104136
RAD~A@G 0.013912 -0.055881 -0.147370 0.020823 0.046869 -0.110900 -0.078884 0.031881 -0.040007 0.020293 0.122915 -0.030902 -0.006007 0.126156 -0.044074 -0.130425
SANGA~B 0.017831 0.013654 0.027561 -0.038903 0.136638 -0.256505 -0.057211 0.024038 0.046731 -0.032896 0.045534 0.090872 0.020002 0.253550 0.022365 -0.113065
ZATU651@G -0.020006 0.088134 -0.025322 -0.041570 0.025898 -0.223271 -0.094104 -0.015698 0.086131 -0.062852 0.075009 -0.025455 0.137793 0.143942 0.024840 -0.114424
ZATU687 0.043195 0.017230 0.082436 0.131061 0.225262 -0.010294 -0.064399 0.184007 0.116707 -0.017458 -0.011554 0.145830 -0.006223 0.168834 0.033515 -0.250181
ZATU694~D 0.016043 -0.027814 -0.012051 0.005370 0.131254 -0.116140 -0.073767 0.029829 0.009022 -0.006488 0.059493 -0.041473 0.073496 0.083302 0.037873 -0.102856
ZATU750 -0.039882 -0.006293 0.089216 0.034992 0.104484 -0.195346 -0.083074 -0.004336 0.051401 -0.014041 0.042986 -0.040659 0.021361 0.134681 -0.018429 -0.057316
|DUG~BXMASZ| -0.052074 0.042294 -0.030394 0.034092 0.277056 -0.335266 -0.192857 0.151010 0.139157 0.010359 0.072382 0.077140 0.077053 0.536424 -0.021270 -0.266658
|GISZXSZU2~B| -0.056323 -0.033265 -0.139818 0.017407 0.274300 -0.212809 -0.100925 0.286245 0.202307 0.017296 0.043729 0.094016 0.105991 0.504522 -0.019288 -0.248153
DAM -0.016322 0.080668 0.101492 -0.069121 -0.001469 0.035314 0.068591 -0.038513 0.082661 0.040985 -0.100210 0.031029 -0.079655 0.165785 0.009373 0.117754
DU6~A 0.040269 0.045258 0.119844 -0.013849 0.144095 -0.310829 -0.116126 -0.035131 0.121637 -0.121094 0.082436 0.023455 -0.037413 0.045958 0.044041 -0.111154
GISZ3~A -0.105450 0.038334 -0.065826 -0.026374 0.285901 -0.117832 -0.135627 0.101235 0.177439 -0.040000 0.096567 0.024378 0.216056 0.430380 -0.065606 -0.196388
GU~A -0.045085 0.061484 -0.211517 -0.020830 0.241636 -0.470932 -0.236138 0.020063 0.150293 -0.053382 0.185337 -0.059537 0.170138 0.449895 0.014442 -0.373976
LUM -0.016153 0.027193 0.072343 0.052115 0.193419 -0.294036 -0.230819 0.082586 0.075747 -0.101633 0.086589 0.118246 0.059002 0.323814 0.035451 -0.161551
NIR~B -0.070682 -0.000405 -0.117209 0.044186 0.196749 -0.046676 -0.039925 0.102390 0.181313 0.040919 0.078222 0.026557 0.067792 0.333147 -0.071829 -0.154843
NUNUZ~A2 -0.051022 -0.001976 -0.146306 -0.023056 0.181645 -0.225036 -0.079487 0.106833 0.138688 0.036687 0.025461 0.058266 0.107470 0.471339 -0.020052 -0.139279
RAD~B -0.008301 0.096970 0.070390 -0.068980 0.007145 -0.308408 -0.172915 0.012946 -0.000628 -0.058391 0.059210 -0.073562 0.095233 0.194159 0.034336 -0.113307
SUKUD 0.065186 0.087675 -0.018099 0.021336 0.066836 -0.145266 0.026158 0.100741 0.136308 -0.036098 -0.109162 0.010489 -0.102001 0.191792 0.010934 -0.087873
SZE~A@T -0.065014 0.010841 -0.127033 -0.164217 0.002384 -0.009735 -0.075195 -0.073099 -0.134250 0.019504 0.328481 0.179973 0.288507 0.263281 -0.251320 0.008069
SZUR2~A -0.103438 0.033239 -0.028495 -0.003816 0.185651 -0.256416 -0.121799 0.135316 0.167887 -0.045543 -0.022957 0.055584 0.034686 0.475526 -0.008199 -0.169438
TAG~B -0.225292 -0.024823 -0.177703 -0.078312 0.384397 -0.047452 0.020244 0.205284 0.271045 0.206631 -0.030306 0.007844 0.117170 0.473930 -0.132968 -0.213160
UDUNITA~C -0.050501 0.056328 0.035677 0.016404 0.043508 -0.157203 -0.114645 -0.010705 -0.032386 -0.039363 0.028399 -0.004819 0.032363 0.107228 0.029257 -0.080236
UTUA~B -0.015202 -0.000046 -0.013090 0.020676 0.055682 -0.034299 0.002067 0.005943 0.067806 0.017138 0.014405 -0.002624 0.053013 0.150578 0.009116 -0.006032
ZATU686~B 0.193120 0.010234 -0.048162 -0.021746 0.286258 -0.448359 -0.139496 0.241320 0.102198 -0.010294 0.057232 0.348342 0.096788 0.275507 0.169519 -0.316611
|(SZAXHI@G~A)~A| -0.050162 0.057400 0.030115 0.018888 0.145384 -0.205872 -0.096291 0.087603 0.088378 -0.022789 0.075958 0.071596 0.058151 0.287610 0.027671 -0.183500
|GA2~A1XX| 0.042970 0.101192 0.052894 -0.000371 0.021621 -0.133567 -0.024231 0.005529 0.018111 -0.084555 0.040455 0.038468 0.054729 0.025926 0.036221 -0.046895
|ZATU737XX| 0.038575 0.064762 0.054901 0.093280 0.043724 -0.092307 0.016641 0.032686 0.032002 -0.052150 -0.046659 0.076925 0.009413 0.024856 0.039404 -0.090106
BU~B -0.174558 -0.085644 -0.538899 -0.076959 0.244260 0.145571 0.200257 0.246480 0.305196 0.091843 0.139409 -0.038325 0.127294 0.342678 -0.165795 -0.068144
ENKUM -0.055395 -0.029241 -0.152329 0.017271 0.218085 -0.268791 -0.104534 0.139561 0.177372 0.002076 0.026836 0.046305 0.040454 0.476627 -0.036241 -0.144311
EN~C -0.030457 0.001355 -0.110588 -0.074582 -0.060869 0.066371 0.383551 -0.220020 0.307977 0.222729 -0.312751 0.066138 -0.188901 0.069832 -0.257761 0.345210
HI@G~B -0.023623 0.066407 0.051975 -0.017237 0.189662 -0.309320 -0.160802 0.003825 0.149773 -0.084417 0.013158 -0.003021 0.040163 0.203288 0.051887 -0.167548
IM~B 0.109900 -0.068056 0.030459 0.030946 0.051505 -0.090903 -0.114558 -0.050229 0.068207 -0.029416 0.048416 0.070968 -0.118691 0.141047 -0.013625 -0.179073
KA2~A -0.029054 0.064408 0.007416 -0.031800 0.147961 -0.349213 -0.122207 0.077151 0.125677 -0.018973 -0.019019 0.050647 -0.018696 0.437386 0.027301 -0.177437
LUGAL -0.039886 0.086159 -0.011750 0.013725 0.221004 -0.222022 -0.127979 0.154698 0.166181 -0.043500 0.006179 0.063329 0.034381 0.392921 0.015696 -0.216626
MAH~A -0.015782 0.037669 0.022914 -0.016040 0.171962 -0.294920 -0.175763 0.000620 0.139851 -0.117786 0.081001 0.006003 0.047078 0.286221 0.022447 -0.117490
SIMUG -0.008653 0.061552 -0.108570 0.005971 0.216974 -0.279096 -0.074460 0.018550 0.107300 -0.060981 0.062003 -0.014260 0.136767 0.271917 -0.006779 -0.186557
TUM~C -0.072862 0.011849 0.069426 0.004292 0.457803 -0.442055 -0.182922 0.143419 0.302663 -0.174241 -0.028739 0.226866 0.094578 0.769887 0.073807 -0.266049
UH3~A -0.033723 0.051351 -0.073746 -0.011103 0.290141 -0.367882 -0.192218 0.128715 0.128431 -0.040343 0.063851 0.028618 0.130862 0.586262 -0.025235 -0.264220
UR4~A -0.063855 0.057133 -0.287605 0.028085 0.368021 -0.481767 -0.114592 0.259818 0.216714 -0.046354 0.084390 0.014994 0.185000 0.624453 -0.015451 -0.295450
ZATU749~A 0.069628 0.045925 -0.059997 -0.173791 0.000438 -0.498089 -0.128904 -0.121032 0.018464 -0.050579 0.211109 -0.021926 0.137350 -0.087849 0.124526 -0.125991
ZATU749~C -0.050890 0.033950 -0.129193 -0.030014 0.246258 -0.332389 -0.106852 0.172573 0.181105 0.053290 0.025468 0.082032 0.054153 0.565033 -0.038470 -0.252131
|(SUKUD+SUKUD)~B| 0.040468 -0.080270 0.012453 -0.012933 0.190594 -0.321426 0.003903 -0.169925 0.233855 -0.029797 0.038449 0.068187 -0.205714 0.225582 0.004922 -0.078383
|GA2~A1XKU6~A| -0.051796 0.149662 0.059571 0.040720 0.238571 -0.359413 -0.139694 0.158845 0.147302 -0.030750 0.039483 0.074662 -0.001003 0.394050 0.080946 -0.274752
|GA2~A1XU4| -0.036920 0.065736 -0.058286 -0.008980 0.215343 -0.264780 -0.075850 0.142027 0.097582 0.001618 0.062799 0.083225 0.041363 0.405810 -0.024671 -0.229021
|KUR~A.E2~A| -0.019305 0.088702 0.074808 0.023732 0.054838 -0.177410 -0.120155 0.010793 0.006955 -0.052316 -0.011718 0.033735 -0.002778 0.080534 0.038873 -0.085840
|NIR~AXAN| 0.039639 0.032101 0.127520 0.073016 0.009051 -0.136506 -0.086030 -0.078519 -0.064249 -0.105936 0.051260 -0.038307 0.035815 -0.067450 0.101092 -0.075280
|NUN~A+NAM2| -0.065636 0.004022 -0.115929 0.015993 0.279751 -0.286778 -0.128542 0.187616 0.172768 -0.029500 0.010175 0.060644 0.064771 0.456235 -0.002461 -0.171140
|SIXKU~B1| -0.098425 -0.003442 -0.211887 -0.018178 0.211759 -0.085997 -0.013246 0.255057 0.101718 -0.015048 -0.040485 0.002650 0.023022 0.447406 -0.064227 -0.072707
|SZU2.E2~B| -0.000103 0.006561 -0.065085 0.015673 0.192766 -0.136303 -0.060576 0.110888 0.159874 -0.007999 0.045164 0.100863 0.017886 0.250090 0.040707 -0.142208
ALIM -0.119608 -0.016869 -0.162333 0.085603 0.248167 -0.027822 0.078744 0.171690 0.305347 0.173570 -0.098450 0.020979 -0.054224 0.380715 -0.105642 -0.243782
APIN~B -0.042361 0.069607 -0.053001 -0.033089 0.140168 -0.200661 -0.054167 -0.026676 0.135679 0.015255 0.023235 0.057314 0.011208 0.190528 -0.060444 -0.120843
ARARMA2~A -0.034239 0.057262 -0.019702 0.020515 0.164719 -0.207943 -0.149363 0.032303 0.100125 -0.062353 0.017030 0.002096 0.050251 0.230062 0.018467 -0.103469
EZINU~A -0.011331 0.041836 0.007516 0.034472 0.271965 -0.165817 -0.120751 0.223189 0.131248 -0.030464 0.031015 0.159864 -0.011072 0.364726 0.076388 -0.159100
GALGA~A -0.212002 -0.015676 -0.235283 -0.001845 0.166161 -0.023993 0.092221 0.416778 0.024626 0.139487 -0.148004 0.166095 0.005471 0.351137 0.167627 0.080617
NUNUZ~A0 -0.025241 0.067826 -0.038547 0.016368 0.120706 -0.241481 -0.109914 0.084678 0.091968 -0.003926 0.073022 0.081099 -0.010117 0.229139 0.003665 -0.128399
SZUR2~B 0.054025 -0.018681 -0.612701 0.452185 0.335402 0.338962 0.083534 0.143374 0.358523 0.246924 -0.255077 -0.180812 -0.280109 0.544371 -0.448396 -0.237987
TI~A -0.019372 -0.051326 -0.381261 -0.020191 0.270146 0.003616 0.195349 0.295487 0.086418 0.178120 0.038540 0.122303 -0.122776 0.276227 -0.074370 -0.015026
UKKIN~B 0.015818 -0.057823 -0.176156 -0.015298 0.292031 -0.330430 -0.119867 0.051701 0.217766 -0.047122 0.032646 0.050115 0.100284 0.517623 -0.040782 -0.276013
|MUSZENX 0.091551 -0.025153 -0.220258 0.110234 -0.138184 0.530746 0.382773 0.126191 0.074740 0.128879 -0.324290 -0.176511 -0.297274 -0.249256 -0.131504 0.254445
|NINDA2XX| 0.032417 0.084824 0.206320 -0.053828 -0.107977 -0.191615 -0.106634 -0.150452 -0.032254 -0.083982 0.042807 -0.020860 0.019048 -0.144503 0.022016 0.045614
|ZATU651XNUN~A| 0.142911 0.024499 -0.158592 0.141917 0.161615 0.308954 0.121474 0.547910 -0.003574 0.069203 -0.167481 0.233838 -0.042552 0.450524 0.037687 -0.049037
|ZATU737XBUR~A| -0.053435 -0.099012 -0.295519 -0.023036 0.140319 0.020107 0.120172 0.176394 0.134417 0.060500 0.102189 0.018914 -0.008225 0.284170 -0.154160 -0.026288
DARA4~C4 -0.007631 0.047519 0.037476 -0.014037 0.169616 -0.262733 -0.122890 0.095553 0.064950 -0.023543 0.060782 -0.002228 0.072599 0.268919 0.048345 -0.213006
EN@G~B 0.002217 0.019853 0.016751 -0.105325 -0.075619 -0.178902 -0.025210 -0.085296 -0.116971 -0.097783 0.118775 0.010451 0.049003 -0.109970 0.038893 -0.001683
GAL~B -0.022926 0.040098 -0.043886 0.021822 0.186725 -0.234854 -0.075080 0.078057 0.126215 -0.039026 0.028553 0.089297 0.046647 0.302899 0.037131 -0.182172
GURUSZDA~A -0.015471 0.021543 -0.098111 -0.014065 0.263856 -0.411167 -0.154581 0.142216 0.144740 0.052120 0.108989 0.118864 0.093077 0.508848 -0.065401 -0.248096
HALUB 0.033854 -0.022841 0.085484 0.033797 -0.071243 0.018018 0.000319 -0.052635 -0.065628 -0.050785 0.069157 -0.038893 0.008000 -0.122367 0.070842 0.029032
KAR2~B -0.040889 0.012987 -0.035888 -0.032841 0.250384 -0.384572 -0.183323 0.067295 0.192727 -0.050193 0.063686 0.037559 0.106520 0.503663 -0.041906 -0.251729
KIB -0.246630 0.056705 -0.327760 -0.103793 0.135173 -0.291300 -0.165553 0.225687 -0.032175 0.067747 0.129666 -0.038499 0.219871 0.546780 -0.085984 -0.137768
NANNA~A -0.010852 -0.063796 -0.510511 0.023325 0.257880 0.135953 0.233093 0.303912 0.212938 0.205917 -0.040491 0.089899 -0.201079 0.281713 -0.122103 0.061193
SUG -0.011677 0.058791 0.004127 0.022925 0.243201 -0.260572 -0.122488 0.107633 0.122071 -0.026805 0.035398 0.066189 0.020793 0.356763 -0.030671 -0.217203
SZE3@T 0.035870 -0.004981 -0.071763 -0.021271 0.003118 -0.104963 -0.027529 -0.008165 0.049288 -0.021384 0.010038 -0.013452 0.038727 0.128782 0.040038 -0.033945
UR3~B1 -0.019067 0.027368 -0.076087 0.002423 0.205761 -0.381374 -0.232082 0.119553 0.212708 0.005552 0.059322 0.030977 0.076406 0.563224 -0.022187 -0.224992
ZATU623 -0.031591 0.025192 0.114347 -0.005277 0.036687 -0.142753 -0.115864 0.077133 -0.013542 -0.070562 0.099202 0.019416 0.056201 0.075754 0.071228 -0.092553
ZATU707~A -0.119520 -0.008779 -0.226794 0.080083 0.417926 -0.277978 -0.162238 0.323657 0.291543 -0.000707 -0.028701 0.109196 0.016580 0.640751 0.067684 -0.257991
|GA2~BXDUB~A| -0.107246 0.059875 -0.042328 -0.042977 0.100005 -0.092482 0.136937 0.021746 0.162909 0.124743 -0.169206 0.133990 -0.131442 0.320633 -0.108243 0.098950
|MAH~AXMASZ| -0.002653 -0.016811 0.046864 -0.004333 0.063291 -0.106289 -0.007874 -0.019417 0.043155 -0.095501 0.040853 0.019329 0.025624 0.050737 -0.004426 -0.031978
|SILA3~AXSZU2| -0.145800 -0.160093 -0.383860 0.014336 0.318287 0.355946 0.184208 0.171795 0.229400 0.151588 0.036467 0.110013 0.037254 0.280854 -0.228757 0.070036
|U4.SZU2| 0.029390 0.008802 0.028026 -0.019709 0.117128 -0.164399 -0.072267 -0.056770 0.092293 -0.062988 0.045053 0.064863 -0.012356 0.150309 0.046286 -0.105004
|ZATU737XU4| 0.066061 0.205876 0.350233 0.420289 0.220785 0.224778 -0.073541 0.464961 0.041752 0.066394 -0.472661 0.309164 -0.243531 0.220691 0.213348 -0.301256
EZINU~D 0.013324 0.059817 -0.144431 0.043501 0.211092 -0.358149 -0.130551 0.107066 0.024649 0.019319 0.094550 0.054773 0.132161 0.484498 -0.053021 -0.165843
GIR3@G~C 0.006169 -0.038664 -0.017565 -0.038042 0.106314 -0.221329 -0.061641 0.039899 0.053002 0.013020 0.106070 0.119568 0.091578 0.176320 0.064822 -0.113421
GUB3~A 0.026766 0.052022 0.126414 -0.077788 0.039254 -0.259388 -0.103970 -0.119479 -0.008201 -0.071361 0.046678 0.043956 0.026264 0.079754 0.048562 -0.111085
IL -0.039262 0.013575 -0.004594 -0.007281 0.090123 -0.146259 -0.088883 0.128357 0.035163 0.002513 -0.002388 0.074768 0.016781 0.245375 0.065118 -0.146574
NAM~A -0.032498 0.054328 0.009113 -0.037711 0.190887 -0.237937 -0.112535 0.141545 0.109376 -0.015797 0.017186 0.052375 0.092483 0.357648 0.032128 -0.152998
NINKUM 0.014503 -0.003888 0.000804 -0.002834 -0.022224 -0.011966 0.023873 0.022075 -0.012227 0.014249 -0.025898 -0.027852 -0.006422 -0.007473 0.023042 -0.033977
SIG2~D1 0.010546 0.026040 -0.065675 -0.016973 0.206079 -0.269095 -0.111544 0.121599 0.133324 -0.023128 0.052261 0.062781 0.098357 0.380693 -0.034743 -0.215129
SZENNUR~A -0.015694 0.043461 -0.118744 -0.004547 0.258927 -0.319405 -0.121805 0.147139 0.127935 -0.063222 0.031005 0.035074 0.021666 0.443972 -0.020282 -0.186432
SZURUPPAK~B -0.050590 0.042896 -0.043839 -0.081025 0.137020 -0.166364 -0.038612 0.072878 0.071753 -0.020749 0.102891 0.105111 0.098670 0.299097 -0.012635 -0.101529
ZATU644~B -0.061666 -0.027246 -0.157189 0.052331 0.282315 -0.226292 -0.088804 0.139482 0.217744 0.013005 0.024271 0.077523 0.072608 0.492957 -0.077173 -0.211653
ZATU646 -0.013402 0.057023 -0.038159 0.036219 0.229302 -0.250837 -0.122128 0.104337 0.114641 -0.037331 0.071221 0.107981 0.061380 0.328338 0.009281 -0.178084
ZATU681 0.011639 0.023453 -0.107787 0.008874 0.175268 -0.212417 -0.091788 0.122267 0.141286 0.012671 0.074499 0.024382 0.036227 0.334447 -0.023684 -0.174321
|DUG~BXBALA~A| 0.030441 0.028759 -0.020233 -0.040224 0.056533 -0.023251 -0.011414 -0.001393 -0.014913 0.025452 0.024831 -0.009717 -0.054735 -0.030669 -0.016638 -0.033019
|DUG~BXKASKAL| -0.009003 -0.005021 0.010426 -0.017714 0.019365 0.048618 0.048638 0.037866 0.024798 0.013616 -0.007193 -0.029065 -0.002313 -0.016238 -0.023736 0.011732
|GA2~A1XGESZTU~C5| -0.023676 -0.002124 -0.182737 0.005411 0.262845 -0.265042 -0.106760 0.191878 0.192279 -0.001492 0.024952 0.066350 0.044768 0.590542 -0.020318 -0.256202
|GA2~A2X(GU4.SZE3)| -0.056353 -0.055167 -0.060336 -0.007047 0.193901 -0.340243 -0.150983 0.050652 0.115842 -0.096837 0.101639 0.154581 0.073552 0.444386 0.053923 -0.143382
|LAGAB~AXSZA| 0.013898 0.131543 0.089131 0.013474 0.115209 -0.164474 -0.108599 0.082875 -0.004571 -0.019558 -0.002188 0.053110 0.003122 0.225744 0.005685 -0.136389
|LAGAB~B.TE| -0.041490 0.034150 -0.048866 -0.013483 0.249310 -0.363164 -0.194150 0.138172 0.133907 -0.062651 0.014791 0.103148 0.127860 0.559388 -0.015613 -0.239218
|SILA3~AXNI~A| -0.026066 -0.006991 -0.121553 -0.036709 0.075718 -0.105214 -0.026290 0.102259 0.108128 0.018337 0.086889 -0.004347 0.094674 0.294190 -0.066445 -0.092347
|U4XSZE~A 0.001835 0.001833 -0.029790 -0.010940 0.191474 -0.329190 -0.150049 0.028048 0.157995 -0.043730 0.098006 0.052510 0.060462 0.381957 -0.058260 -0.213421
|U4XX 0.065381 0.140621 0.137942 -0.040652 -0.037729 -0.231951 -0.086706 -0.088008 -0.062529 -0.105490 0.082665 0.018092 0.043369 -0.139948 0.079948 -0.007617
AD~C -0.045453 0.031791 -0.027142 0.048448 0.082960 0.010502 0.049804 0.051332 0.072130 0.060051 -0.068182 -0.032285 -0.036981 -0.073901 -0.050163 -0.042699
ANSZE~E -0.001744 0.080659 -0.196536 0.017504 0.263997 -0.182035 -0.067271 0.202986 0.212651 -0.027288 0.038851 0.074554 0.077770 0.455917 -0.061307 -0.215203
GAKI -0.129563 -0.027778 -0.123060 -0.057288 0.296096 0.051866 -0.036864 0.128443 0.294093 0.030141 0.042541 0.079185 0.096185 0.415388 -0.136465 -0.142668
GISZGAL 0.054749 0.064605 0.246681 0.169498 0.312781 -0.176943 -0.206614 0.266116 0.047495 -0.033225 -0.035698 0.202797 -0.060767 0.521434 0.036130 -0.261304
GISZIMMAR~A2 -0.056059 0.021490 -0.146321 -0.018593 0.301143 -0.217207 -0.096089 0.214855 0.176499 -0.008851 0.011627 0.136294 0.048237 0.505178 -0.042357 -0.202551
GUKKAL~C -0.034063 0.037815 -0.112066 -0.036741 0.252698 -0.327213 -0.142500 0.077774 0.155947 -0.076615 0.090101 0.076109 0.130870 0.436713 -0.027734 -0.193608
IR11 -0.008331 0.034861 -0.059812 0.006323 0.301517 -0.333754 -0.125129 0.139600 0.146847 -0.017479 0.033119 0.072109 0.081714 0.457320 0.013430 -0.193261
KAD4~A -0.055880 0.091132 -0.066324 0.014332 0.220441 -0.350648 -0.158960 0.101247 0.152005 0.004827 0.050829 0.022309 0.111048 0.432602 0.007124 -0.274251
KUR@G~A -0.072878 -0.001720 -0.074361 -0.002088 0.277160 -0.313730 -0.106941 0.022910 0.223178 0.034690 -0.002503 0.023696 0.054518 0.399037 -0.054455 -0.248690
LAHTA 0.021797 0.043735 0.007589 0.047334 -0.011940 0.042308 -0.011509 0.034807 0.006932 -0.011677 -0.011931 -0.006754 -0.050913 0.041833 -0.032511 -0.036798
SAG@G 0.040939 -0.033798 -0.204094 0.087883 0.193455 -0.232381 -0.067856 0.130784 0.213072 0.004802 0.047361 0.082987 -0.014186 0.490448 -0.071338 -0.202950
SIG2~E -0.027116 0.015749 -0.134531 0.009700 0.207226 -0.332736 -0.149936 0.131213 0.163023 -0.083989 0.068861 -0.019948 0.132833 0.304875 0.007810 -0.251342
SZA3~C 0.021669 0.043594 0.037937 0.000064 0.075479 -0.235892 -0.090686 0.056290 0.038169 -0.028913 0.040839 -0.001239 0.042426 0.237415 0.021629 -0.132569
TAG~A2 0.024992 0.042881 0.236075 0.127550 0.303179 -0.164590 -0.239967 0.244464 0.103969 -0.092155 -0.098279 0.182461 -0.077769 0.433381 0.063176 -0.254198
TUR3~B -0.015497 -0.039486 -0.009727 0.021495 0.092953 -0.123692 -0.064574 0.025561 0.061841 -0.027394 0.087414 0.014520 0.063735 0.206919 -0.061239 -0.074486
TUR@G -0.086740 0.011666 -0.181989 -0.033961 0.315341 -0.181568 -0.064632 0.213138 0.214326 0.078638 0.009610 0.033940 0.022425 0.613410 -0.090193 -0.183285
UR3~B2 -0.016622 0.063865 -0.071565 0.012115 0.232812 -0.212943 -0.138087 0.128823 0.154568 -0.009426 0.006977 0.055561 0.003342 0.435123 0.027955 -0.253462
URI5 0.001456 0.048153 -0.095145 -0.006483 0.274236 -0.300697 -0.161896 0.205854 0.252738 -0.083036 0.025582 0.095419 0.057141 0.553815 -0.007833 -0.268409
ZATU694~B -0.033285 -0.009570 -0.150256 0.029283 0.278940 -0.293791 -0.147190 0.206184 0.168969 0.007362 0.029669 0.069017 0.067299 0.557059 -0.077443 -0.270517
ZATU728 -0.049441 0.024658 -0.233991 0.011061 0.270196 -0.252955 -0.081145 0.160565 0.181626 0.020391 0.046012 0.046050 0.090195 0.546586 -0.087512 -0.185593
ZATU786 -0.061655 0.002998 -0.098625 -0.002716 0.200229 -0.299753 -0.124490 0.100989 0.182843 -0.034330 0.092024 0.027585 0.068686 0.388795 0.031880 -0.233674
ZA~V 0.006906 0.024015 0.087084 0.001261 -0.076925 -0.009438 -0.052201 -0.091838 -0.038737 -0.056320 -0.006884 -0.003774 0.041106 -0.126547 0.029392 0.026755
|DUG~BXHI| -0.070160 -0.004595 -0.147909 0.045211 0.286055 -0.291626 -0.061713 0.172355 0.224990 -0.024207 0.056585 0.124203 0.067549 0.588854 -0.046670 -0.236423
|DUG~BXNAGA~A| 0.021473 -0.029552 0.027773 -0.023336 0.019698 0.008645 0.009404 0.039617 -0.010534 -0.050608 -0.031277 0.021466 -0.007234 0.014217 -0.031758 0.022285
|GA2~A1XSUKUD| -0.016142 0.082721 -0.037565 -0.040670 0.165072 -0.179802 -0.084490 0.074036 0.142537 0.012225 0.010608 0.073472 0.015933 0.330974 -0.048211 -0.138444
|KU6~A+KU6~A| -0.040812 -0.005418 -0.087558 0.044354 0.188623 -0.229817 -0.127729 0.123514 0.118167 -0.015891 0.003813 0.044266 0.073358 0.371305 -0.038795 -0.138727
|MAXMA| -0.009497 0.028413 -0.089012 0.025434 0.205515 -0.303438 -0.081258 0.123961 0.174593 -0.005023 0.020777 0.070942 0.034513 0.430131 -0.012163 -0.236381
|SILA3~AXKU6~A| -0.022338 0.100509 -0.121798 0.009953 0.197503 -0.275792 -0.129859 0.132070 0.102431 0.016238 0.074697 0.071838 0.092919 0.404949 -0.036888 -0.232851
|USZ~A&USZ~A| -0.043085 0.011642 -0.106116 0.038723 0.174116 -0.243014 -0.063339 0.247114 0.121816 0.025292 0.010321 -0.010886 0.050836 0.493096 -0.012213 -0.135782
|X -0.004193 -0.009160 0.022113 -0.000311 -0.065487 -0.119288 -0.095317 -0.119965 0.057097 -0.078812 0.016181 -0.084403 0.046385 0.031165 -0.010518 -0.007921
ALAN~A -0.056907 0.055764 -0.119210 -0.032052 0.173467 -0.271454 -0.046897 0.046705 0.074632 -0.046136 0.106800 0.030344 0.101865 0.328855 -0.036673 -0.171542
ALAN~C -0.235619 0.044925 -0.192143 -0.122197 0.243903 -0.084312 -0.092933 0.057445 -0.013346 0.117972 0.354989 0.094621 0.267783 0.419132 -0.218061 -0.061076
ANSZE~A -0.011187 0.028290 -0.114239 0.010717 0.239336 -0.347065 -0.174117 0.128967 0.213661 -0.018014 0.062822 0.066065 0.101184 0.507982 -0.021376 -0.222840
BUR~B 0.010727 0.035600 -0.124381 -0.044787 0.094203 -0.222016 -0.045363 0.004006 0.144167 -0.077609 0.085629 0.023504 0.090999 0.160071 0.080258 -0.144266
DANNA -0.097379 0.004963 -0.362073 -0.037606 0.183497 -0.231985 -0.026756 0.188002 0.133164 -0.042349 0.122474 -0.115184 0.094483 0.586246 -0.074519 -0.134366
GESZTIN~A -0.058667 -0.001933 -0.111842 -0.030278 0.267685 -0.315669 -0.148703 0.192489 0.200947 0.086639 0.013675 0.069960 0.050077 0.517887 -0.052426 -0.241662
GESZTU~C3 0.058558 0.023062 -0.038144 0.008155 0.165883 -0.228961 -0.126473 0.033244 0.152221 -0.085794 -0.003388 0.066585 0.021641 0.314832 0.018339 -0.193322
GI4~B -0.037559 0.020828 -0.043606 0.002005 0.323327 -0.400594 -0.123374 0.141265 0.191882 -0.063760 0.085391 0.169566 0.149021 0.501230 0.018955 -0.252009
GIR~B -0.060152 -0.001263 -0.073602 0.002944 0.303354 -0.336678 -0.113677 0.147456 0.235885 0.031109 0.039888 0.047895 0.074064 0.546562 -0.045138 -0.223853
IB~B 0.031788 0.075655 -0.064742 -0.031037 0.213315 -0.316769 -0.052073 0.023285 0.195298 -0.073150 0.051435 0.042568 0.073530 0.303738 0.066198 -0.197208
MA2 -0.048699 0.075230 -0.053971 -0.013326 0.115732 -0.328193 -0.105959 -0.008436 0.029841 -0.058662 0.090238 0.006697 0.118412 0.156576 -0.013971 -0.080044
NAM2@T -0.012681 0.045515 -0.070666 -0.027925 0.241759 -0.288284 -0.086833 0.113177 0.132967 0.006838 0.054488 0.088171 0.034175 0.377732 -0.021247 -0.186379
NA~B -0.092565 0.000424 -0.118803 0.040784 0.260002 -0.318136 -0.120709 0.126602 0.184204 -0.033643 0.024813 0.040128 0.051981 0.509641 -0.039378 -0.207146
NIGIN -0.002079 0.035424 -0.089532 0.001045 0.270964 -0.343682 -0.189398 0.098109 0.101835 -0.067093 0.142058 0.027857 0.184055 0.389429 0.021078 -0.227361
RI8~A 0.018732 0.072748 -0.092916 0.062469 0.103884 -0.122553 -0.076967 0.098336 0.091193 0.059690 -0.002969 -0.023829 -0.005574 0.239258 -0.046110 -0.117301
SUR -0.032093 0.041818 -0.127663 0.008574 0.321049 -0.425490 -0.184703 0.225589 0.209714 -0.083731 0.068802 0.041141 0.157387 0.553219 0.022909 -0.274355
SZAB~B -0.008189 0.044609 0.066141 0.045239 0.136030 -0.211271 -0.047118 0.064060 0.066397 -0.073345 0.009181 -0.051134 -0.034881 0.115266 0.019065 -0.114790
SZAKIR~B 0.001154 0.009309 -0.023739 0.001967 -0.043883 -0.000683 0.022352 0.041220 0.005124 -0.002989 -0.016642 -0.042431 -0.000190 0.017810 -0.025031 0.023362
TU... -0.055138 0.074785 -0.091609 0.035297 0.240068 -0.296956 -0.133204 0.143942 0.185729 -0.036463 -0.000654 0.062135 0.070740 0.496251 0.022688 -0.223178
UBI~C -0.056458 0.001419 0.042345 -0.019480 0.095139 0.006422 -0.073712 -0.016134 -0.018358 0.022146 0.014221 -0.019607 0.012307 0.031535 -0.035592 -0.050127
UR3~A3 -0.046638 -0.021247 0.027772 -0.048258 0.063038 -0.064538 -0.071883 -0.010518 0.019967 -0.021020 0.050499 0.018887 0.018695 0.096354 0.016583 -0.049542
USZ~B 0.009012 0.059907 -0.161901 0.008817 0.215593 -0.329791 -0.072422 0.097871 0.180300 -0.075481 0.034591 0.028082 0.066405 0.332928 0.044860 -0.210108
ZAR~C -0.081944 -0.019438 -0.207880 -0.031734 0.173190 -0.267421 -0.073341 0.152668 0.228286 0.003799 0.028001 0.054643 0.090112 0.458069 -0.036302 -0.181364
ZATU628~B -0.138962 -0.070341 -0.244489 0.014796 0.293042 0.100334 -0.079803 0.105697 0.030197 0.175302 0.092129 0.094705 0.063385 0.367070 -0.208219 -0.106512
ZATU630 -0.042631 0.018831 0.001254 0.002700 0.133349 -0.175846 -0.086399 0.008312 0.062753 -0.058322 0.054681 0.019409 0.048884 0.250373 -0.043299 -0.153883
ZATU679 -0.007677 0.052687 0.030998 0.012554 0.130989 -0.204173 -0.060281 -0.033270 0.035995 -0.040701 0.070579 -0.028087 0.038339 0.177550 0.025575 -0.078643
ZATU732 -0.032733 0.011106 0.046283 -0.058078 -0.004147 -0.114074 -0.094473 -0.005959 -0.015664 0.009913 0.014876 0.021583 -0.026672 0.077772 0.029457 -0.057894
ZATU735~A -0.028029 0.028034 -0.029840 -0.089146 0.109346 -0.270791 -0.100533 -0.021624 0.104056 -0.062573 0.072638 -0.039254 0.088793 0.183135 0.018951 -0.135135
|(BU~A&BU~A).NA2~A| -0.033996 0.004032 -0.030147 -0.008245 0.267097 -0.220739 -0.129615 0.131768 0.189859 -0.056154 0.074230 0.099066 0.041459 0.501574 0.024905 -0.138922
|DU8~CXAMAR| -0.067567 -0.022531 -0.059107 -0.062687 0.214399 -0.320269 -0.105750 0.039958 0.126443 -0.092439 0.098694 -0.025034 0.123206 0.284741 -0.017821 -0.118641
|EZEN~AXSU~A| -0.031829 0.044750 -0.095348 0.005658 0.333979 -0.355448 -0.188487 0.222150 0.217883 -0.044790 0.018755 0.106879 0.093973 0.588729 -0.031917 -0.218187
|NINDA2X -0.006602 -0.010982 -0.025273 -0.027997 -0.004507 -0.048907 0.022335 -0.034795 -0.009853 0.025089 0.030095 0.036813 0.043683 0.001707 -0.000540 -0.037243
|SAGXGESZTU~A| -0.013316 0.003228 -0.071361 -0.003596 0.157679 -0.217420 -0.058837 0.094618 0.130934 0.016784 0.033334 0.045420 0.064739 0.328474 -0.008530 -0.160530
|SILA3~AXGA~A| -0.059089 0.032626 0.018886 -0.050503 0.202596 -0.330463 -0.146825 0.071887 0.097079 -0.051940 0.105968 0.003073 0.089644 0.310246 0.043697 -0.125592
|SZU2.E2~A| 0.008889 -0.138949 -0.342144 -0.006577 0.283725 0.021421 0.029234 0.327754 0.093451 0.100444 0.079813 0.162335 -0.036123 0.284252 -0.042988 -0.118492
|U4X( -0.011127 0.017676 0.036888 0.016172 0.059030 -0.061925 -0.036969 0.009944 0.057720 -0.000318 0.022635 0.036968 0.009391 0.052356 0.024770 -0.040508
|U4XGI 0.032370 0.076643 -0.038987 -0.034347 0.117357 -0.210692 -0.154228 0.083470 0.126657 -0.006156 0.059331 0.055099 0.090668 0.287093 -0.029102 -0.124315
|ZATU662X -0.075468 -0.019123 -0.203833 -0.015144 0.281428 -0.108908 0.008365 0.281410 0.106068 0.062505 0.013677 0.094243 0.011384 0.445007 -0.080476 -0.158278
ALAN~B -0.198001 -0.108237 -0.295306 -0.222582 0.268415 0.043281 -0.058475 -0.042587 0.185453 0.000299 0.343503 0.128117 0.318854 0.351406 -0.200390 -0.060503
BIR3~B -0.081127 0.042528 -0.157671 0.022980 0.261096 -0.286121 -0.068706 0.184415 0.120812 0.046918 0.105923 0.091978 0.077493 0.495679 -0.033433 -0.192794
DARA3~C -0.049892 0.045033 -0.069837 0.019627 0.250944 -0.304419 -0.179339 0.212135 0.102198 -0.039410 0.075585 0.065640 0.073401 0.475111 0.024701 -0.203631
DU7 -0.027878 0.032651 -0.072481 -0.015110 0.150497 -0.366344 -0.127625 0.126494 0.062196 -0.007319 0.119815 0.044363 0.148739 0.389640 0.029663 -0.200578
GADA~B@G -0.103348 0.016343 -0.215990 -0.041107 0.260339 -0.287652 -0.059281 0.182590 0.273804 0.004536 0.049003 0.044394 0.124611 0.610973 -0.059170 -0.212191
GAEN~A 0.010950 0.011028 0.029775 0.050331 0.204930 -0.350853 -0.153431 0.082818 0.126974 -0.128201 0.026159 0.086629 0.046165 0.268027 0.063915 -0.200145
GAGI -0.007876 -0.088336 -0.261942 -0.072793 0.153406 -0.222355 -0.071390 -0.006970 0.148770 0.014487 0.099848 -0.009098 0.241627 0.496093 -0.143098 -0.173734
KAR -0.040386 0.074978 0.038951 -0.014406 0.227174 -0.333421 -0.113806 0.039222 0.096917 -0.026687 0.027158 0.064998 0.010671 0.331817 0.085276 -0.220503
KISAL~B2 0.020114 0.001626 0.279641 0.062053 0.043690 0.063163 -0.043448 0.013180 -0.127061 -0.052616 -0.058125 0.105094 -0.092327 -0.094611 0.054939 -0.021037
KUSZU2~B 0.009501 0.043884 -0.088526 0.027099 0.174794 -0.193592 -0.088635 0.138904 0.091251 -0.035942 0.046034 0.046225 0.056394 0.329318 0.019535 -0.167021
LI 0.040252 0.015375 -0.018371 -0.006301 0.076678 -0.125052 -0.033474 0.040280 0.012448 0.031426 0.043865 0.050057 0.026874 0.185374 -0.080930 -0.028283
LISZ -0.039383 -0.006010 -0.087403 0.001809 0.229474 -0.326628 -0.118101 0.163162 0.139855 0.012835 0.077904 0.020032 0.100824 0.475525 0.020396 -0.273436
NA2~B2 0.038991 0.018032 -0.003819 -0.013568 0.153643 -0.223205 -0.165052 0.022552 0.106840 -0.058485 0.055113 0.029626 0.079158 0.278329 0.043738 -0.149424
NAGA~B -0.003375 0.007855 -0.025630 -0.023037 0.245380 -0.331640 -0.085716 -0.007442 0.120059 -0.110755 0.074448 -0.006081 0.133427 0.336159 0.021454 -0.215455
NANSZE~B -0.017044 0.024347 -0.071034 0.039642 0.308345 -0.300230 -0.079165 0.190652 0.237986 0.004086 0.005073 0.123137 0.046148 0.646541 -0.045010 -0.220340
SZIR~B -0.036462 -0.017110 -0.109788 -0.011921 0.257193 -0.252138 -0.169702 0.204682 0.147624 -0.069764 0.078165 0.075816 0.103378 0.537736 0.019824 -0.251279
ZAG~C -0.052456 0.066613 -0.168828 0.004432 0.294782 -0.327997 -0.093004 0.209015 0.195477 -0.018827 0.089765 0.094734 0.070192 0.566203 -0.015875 -0.230051
ZATU639 0.000551 0.041281 0.063644 -0.010965 0.036360 -0.144976 -0.074348 -0.063056 0.026361 -0.022632 -0.008479 0.012548 0.032095 0.117225 0.003206 -0.022796
ZATU676~A -0.081593 0.021486 -0.139719 -0.035774 0.216204 -0.269705 -0.132014 0.189119 0.090366 0.027147 0.061075 0.092444 0.121853 0.607892 -0.051139 -0.236849
ZATU676~B 0.055876 0.108803 0.167080 -0.034108 -0.023383 -0.075693 -0.000712 -0.072370 0.064747 0.079903 -0.109749 0.092942 -0.063997 0.131641 -0.092188 0.046235
ZATU682 -0.042139 0.010152 -0.112354 0.014043 0.318569 -0.387787 -0.187011 0.208799 0.177300 -0.059172 0.052937 0.047949 0.101565 0.628577 0.010351 -0.259490
ZATU697~B -0.034818 0.034432 0.051314 -0.021649 0.010055 -0.031579 -0.089426 0.046350 -0.024994 0.013597 0.036522 -0.010882 0.014738 0.042651 0.030409 -0.096703
ZATU713 -0.003309 0.048761 -0.002726 0.003682 0.016827 -0.114153 -0.054823 0.026603 0.030855 0.019440 0.016192 0.045118 -0.035292 0.155559 0.048440 -0.061496
ZATU729 -0.051839 0.033610 -0.117381 0.043920 0.251465 -0.296523 -0.093686 0.143821 0.183054 0.034870 0.017872 0.080779 0.063549 0.547426 -0.023775 -0.223304
ZATU762~A -0.033946 0.065369 -0.099478 0.040166 0.352433 -0.358663 -0.160768 0.127145 0.194963 -0.037533 0.118810 0.071238 0.080164 0.555639 0.010367 -0.304406
ZATU809 0.014724 0.056420 -0.032401 0.013778 0.126420 -0.217733 -0.095033 0.091727 0.083862 -0.035058 0.000607 0.051885 0.016867 0.265817 -0.002141 -0.136161
ZATU811 0.012893 -0.027389 -0.151773 -0.013244 0.194984 -0.156293 -0.048749 0.133298 0.165606 0.062255 0.030037 0.146375 0.020500 0.536900 -0.087031 -0.222813
ZATU819 0.017209 0.030889 -0.113073 0.008206 0.280568 -0.296332 -0.091815 0.148669 0.154132 0.019272 0.040175 0.082893 0.099788 0.498656 -0.027198 -0.256882
ZATU821 0.016351 -0.208971 -0.431642 0.086631 0.125108 -0.073528 0.025889 -0.087487 0.232790 0.036088 -0.032888 0.035104 -0.026561 0.399609 -0.161489 -0.137717
|BAD&BAD| -0.047315 0.039830 -0.082611 -0.047931 0.317846 -0.445990 -0.148455 0.108406 0.253215 -0.024464 0.142757 0.085671 0.107774 0.599865 -0.005475 -0.304582
|BU~A.DU6~A| 0.046510 0.108007 0.000629 0.098173 0.131463 -0.267252 -0.040496 0.239928 0.174694 -0.060547 -0.063595 -0.014101 -0.078058 0.279138 0.080959 -0.095640
|DARA3~DXKAR2| -0.015483 0.068596 -0.031945 0.015539 0.167204 -0.285971 -0.136899 0.094062 0.087003 -0.075414 0.042480 0.046477 0.093756 0.330744 0.015464 -0.197800
|DU8~CXUDU~A| -0.068193 -0.031984 -0.371101 -0.113661 0.249548 -0.312374 -0.082941 0.207589 0.118155 -0.019600 0.149391 -0.112141 0.115256 0.606592 -0.025797 -0.167317
|DUG~BX -0.022945 0.002447 0.003262 -0.024900 0.042420 -0.065659 -0.012793 0.010032 0.037818 -0.000383 -0.006530 -0.032850 0.039586 0.004733 0.006866 -0.019566
|DUG~BX(SZE~A.NAM2)| 0.003651 0.001454 0.028164 -0.001953 -0.015674 0.023569 0.002130 -0.003694 0.028736 0.018587 -0.006614 -0.028614 0.027437 -0.022055 -0.036577 -0.029516
|DUG~BXGISZ| -0.003367 0.029283 0.023258 -0.014078 0.036473 -0.002404 -0.055432 0.034951 0.019687 -0.017119 -0.028332 -0.028639 0.048605 0.073407 0.002443 -0.003839
|DUG~BXHI@G~A| -0.018862 0.033508 -0.049536 -0.038703 0.175564 -0.222392 -0.116356 0.107326 0.125638 -0.007149 0.068678 0.069277 0.056490 0.373905 -0.012326 -0.170567
|DUG~BXTI| 0.002708 -0.028496 0.040386 0.011694 0.007896 0.030745 -0.014556 -0.031017 0.016441 -0.022158 -0.020008 0.003590 -0.003631 0.041197 0.007709 -0.012444
|HI.SUHUR| -0.064876 0.044622 -0.003133 0.021832 0.207149 -0.343194 -0.163439 0.123955 0.169902 -0.018781 0.025572 0.089997 0.058836 0.524144 -0.028778 -0.205460
|MAH~AXX| 0.001973 0.056274 -0.018367 -0.005828 0.152215 -0.235135 -0.077678 0.055406 0.146298 -0.067241 -0.015914 0.049084 0.030089 0.307663 0.036586 -0.133981
|SILA3~AXDUG~A| -0.001876 0.046478 0.016070 -0.020686 0.127443 -0.233443 -0.056947 -0.037947 0.055607 -0.069769 0.109626 0.075492 0.068105 0.169248 -0.007159 -0.114181
|SILA3~AXGESZTU~C3| -0.077195 0.060985 -0.148516 0.020290 0.325117 -0.404641 -0.168969 0.195939 0.202626 -0.045014 0.092158 0.108609 0.123737 0.669354 -0.022568 -0.295503
|SILA3~AXHI| -0.034065 -0.079719 -0.087168 -0.037522 0.024889 -0.095634 -0.031321 -0.008556 0.049619 0.024514 0.051925 -0.061442 0.024522 0.146682 0.005535 0.002662
|U4.X -0.022391 0.070158 -0.036599 0.040168 0.199413 -0.285110 -0.144815 0.100759 0.140626 -0.041379 0.009904 0.092418 0.057760 0.330146 -0.029367 -0.206515
|U4XGU4 -0.060224 0.052338 -0.142197 0.012617 0.246924 -0.190782 -0.087911 0.200021 0.157045 -0.018864 0.048700 0.089701 0.003287 0.513684 -0.077290 -0.204122
|U4XKASZ~B 0.001050 0.003262 -0.030440 -0.039756 0.209464 -0.307432 -0.146637 0.075494 0.156780 -0.026982 0.056165 0.111005 0.050030 0.425033 0.001417 -0.229573
|UR2X -0.009135 -0.026486 0.080308 -0.110386 0.096468 -0.072081 -0.016579 -0.011264 -0.011089 0.040168 0.099055 0.153089 0.051585 0.038197 -0.016970 -0.036450
AMA~B 0.014558 0.043625 0.012837 -0.023332 0.132939 -0.225383 -0.162400 0.027436 0.143002 -0.061085 0.019919 0.022712 0.055555 0.260500 0.006099 -0.203452
BAPPIR~D 0.005073 0.003990 -0.031114 -0.003679 -0.001325 0.020798 -0.026289 0.010411 0.019069 0.014860 0.019817 -0.045488 -0.016248 0.023023 0.011878 0.009118
DARA4~B -0.024372 0.018816 0.053860 0.024513 0.126876 -0.281698 -0.093957 0.030586 0.053523 -0.022457 0.007571 -0.031074 0.055228 0.192058 0.006150 -0.110690
DA~B -0.056427 0.077863 -0.158510 -0.007064 0.254202 -0.341010 -0.202731 0.208648 0.163722 -0.098924 0.092298 -0.010348 0.108367 0.635517 -0.002937 -0.264620
E -0.054155 0.042069 -0.105942 0.002276 0.298593 -0.255368 -0.092670 0.145521 0.187056 0.011626 0.004439 0.090906 0.051986 0.529092 -0.053804 -0.215163
ENDIB -0.002838 -0.017082 0.033343 -0.040665 -0.034746 0.009324 0.007748 0.035778 0.016986 0.023973 -0.038235 0.018574 0.032853 -0.012071 0.036597 0.025609
EZEN~C 0.025373 -0.003253 0.037983 0.030178 0.119773 -0.196479 -0.119287 0.046659 0.051891 -0.030991 0.055646 0.027418 0.074774 0.226957 0.032208 -0.151672
GISZIMMAR~A1 -0.058782 0.011331 -0.085926 -0.078869 0.052741 -0.072146 -0.035802 0.031429 0.004772 -0.020663 0.049983 -0.002726 0.043372 0.084542 -0.034778 -0.035678
HI~A@G -0.064186 0.045781 -0.055273 -0.002983 0.300509 -0.390853 -0.165891 0.130305 0.175204 -0.001453 0.107645 0.081186 0.161872 0.594007 -0.032293 -0.281873
