... 0.374939 0.153880 0.276429 1.223862 -0.968652 1.903948 -3.197817 0.579762 -0.419645 0.569037 1.402859 -0.951086 -0.120147 0.938953 0.038506 1.239704
X -0.239896 0.497604 0.566808 0.604170 -1.735954 1.636543 -2.156305 0.710238 -0.387383 0.334771 1.413981 -0.406654 0.036815 1.503360 0.208596 1.517143
M288 0.127226 0.067743 0.643368 0.234128 -0.987538 1.085670 -1.545948 0.302669 -0.143461 0.289125 0.525162 -0.808481 -0.029316 0.837178 -0.022598 0.729617
M388 -0.620438 0.750176 0.805639 0.576404 -1.125693 0.966832 -0.975085 0.980279 -0.695018 0.422829 0.652283 -0.597171 0.175099 0.614859 0.287130 1.165148
M218 -0.075926 1.030424 1.278695 0.838073 -0.863492 1.332540 -0.728095 -0.058779 -1.207952 0.751463 1.133669 -1.434451 -0.471478 1.097228 0.277896 0.118566
M371 -0.871784 0.333975 0.170459 0.471553 -0.593199 1.414922 -0.734131 0.165820 -0.426813 0.572520 0.434566 -0.018427 0.665227 1.070110 -0.288449 0.324565
M124 0.092956 0.110618 0.267352 0.505320 -0.368993 0.926307 -1.120525 -0.475595 -0.085365 0.202970 0.618450 -0.476537 0.062319 0.993577 -0.253915 0.407938
M297 0.205042 0.006752 0.145003 0.269031 -0.097075 0.648412 -0.921404 0.171622 -0.096498 0.096122 0.457509 -0.452960 -0.121058 0.226752 0.258923 0.416088
M054 -0.186707 0.003611 -0.178359 0.024771 -0.460639 0.410170 -0.564173 0.591813 0.057256 0.159311 0.229907 0.127796 0.335276 0.206407 -0.150665 0.718373
M346 0.129890 0.087939 0.376130 0.354040 -0.582382 0.457970 -0.647444 0.043710 -0.273991 0.148469 0.543803 -0.179576 0.031879 0.255248 0.019642 0.272245
M387 -0.019689 0.325535 0.716573 0.670568 -0.877349 0.730391 -0.532110 0.008663 -0.614934 0.340402 0.629265 -0.497587 0.120600 0.534132 0.061186 0.306773
M066 0.484141 0.041190 0.972600 0.093576 -0.286348 0.939217 -1.278684 0.343026 -0.008630 0.005091 0.281244 -1.155498 -0.740873 0.384801 0.279989 0.437728
M157 0.002895 0.026670 -0.040865 -0.038873 -0.109525 0.080966 -0.077503 0.073918 -0.015760 0.019371 0.090451 0.077238 0.016883 0.035339 0.036382 0.137127
M009 -0.524130 0.061849 0.240167 0.424589 -0.323520 0.891298 -0.562435 -0.031173 -0.209750 0.305312 0.316842 -0.152299 0.386874 0.739737 -0.170594 0.290280
M096 0.276121 0.043876 0.043042 0.105173 -0.480636 0.335445 -1.347339 0.118691 0.111373 -0.229832 0.139159 -0.313010 -0.446442 0.465464 0.037111 0.382199
M376 0.210621 0.010384 -0.021451 0.321488 -0.307865 0.634265 -0.987505 -0.261019 -0.003759 0.114891 0.593204 -0.188496 0.177959 0.539789 -0.103933 0.598158
M263 0.124612 0.346224 0.528425 0.588588 -0.273596 0.666516 -0.762216 -0.144465 -0.346022 0.293354 0.601078 -0.632750 -0.335011 0.532656 0.023242 0.038912
M001 -0.063832 0.182812 0.226792 0.204826 -0.555897 0.397471 -0.620534 0.236497 -0.153513 0.058328 0.409148 -0.149834 0.170978 0.326077 0.078813 0.595779
M036 0.292387 -0.141857 0.010736 0.208570 -0.036131 0.267665 -0.494599 0.083906 0.017856 -0.007911 0.313905 -0.031879 -0.054706 -0.020278 0.180125 0.225424
M305 -0.225032 0.354638 0.339743 0.294407 -0.628648 0.429901 -0.581296 0.451279 -0.252302 0.171890 0.402314 -0.168594 0.102328 0.391656 0.186059 0.702305
M032 -0.069820 0.173468 0.123021 0.169229 -0.378894 0.340383 -0.723547 0.274090 -0.160192 0.049781 0.195061 -0.326331 -0.048867 0.027866 0.163121 0.383351
M370 0.214832 -0.063968 -0.290088 0.158190 0.012673 0.158267 -0.435723 -0.246632 0.087747 0.057059 0.240095 0.020306 0.124288 0.081889 -0.127911 0.304624
M004 -0.157564 0.570375 0.668325 0.637687 -0.338091 0.550178 -0.322896 -0.187676 -0.553433 0.346889 0.676601 -0.632808 -0.281978 0.457626 0.108924 0.044027
M354 0.056344 -0.026395 -0.075071 -0.026580 0.003500 -0.091081 0.047068 -0.038820 0.141927 -0.042606 -0.003394 0.044171 0.036474 -0.062432 -0.015905 0.014262
M367 0.085524 -0.041264 -0.023164 0.215252 -0.129241 0.240507 -0.552425 0.094186 -0.024959 0.001883 0.220085 -0.083411 -0.019891 0.105287 0.016074 0.165454
M003~B -0.298597 0.065073 0.172738 0.203854 -0.382423 0.593229 -0.457147 0.203139 -0.188382 0.180261 0.277510 -0.098431 0.202303 0.463059 -0.000317 0.336177
M157~A -0.008894 -0.063225 0.039032 -0.021955 -0.070775 0.077283 -0.067034 0.059091 0.015897 0.009096 -0.013587 -0.072161 0.025139 -0.021034 -0.031803 0.076487
M057 -0.084422 -0.036637 0.386630 0.287535 -0.567603 0.475256 -0.666388 0.341333 -0.140800 0.106876 0.383273 -0.302379 -0.113864 0.349491 -0.043095 0.454184
M072 0.226425 0.035778 -0.071610 0.143884 0.066975 0.173616 -0.354419 -0.056512 -0.022668 0.035681 0.256797 -0.154119 -0.055233 0.018129 0.128985 0.181765
|M036+N30D| 0.102183 -0.026755 0.031178 0.245579 -0.130698 0.245678 -0.575842 0.052800 -0.034076 0.054063 0.265463 -0.105733 -0.002927 0.075521 0.021053 0.127957
M219 -0.168340 0.392858 0.586113 0.153289 -0.407977 0.613437 -0.202898 0.270550 -0.631296 0.274755 0.359297 -0.487441 -0.143632 0.497496 0.180546 0.152621
M347 -0.615118 0.543105 0.274025 0.303630 -0.470446 0.994127 -0.176886 0.491591 -0.736296 0.519863 0.327171 -0.133874 0.394311 0.664425 -0.056923 0.113728
M297~B 0.090811 0.007305 -0.014442 0.171311 -0.130701 0.100103 -0.347786 0.012775 0.001943 0.062276 0.250329 -0.035348 -0.080272 0.147993 -0.002925 0.074234
M259 -0.077018 0.369750 0.584101 0.278964 -0.398112 0.669467 -0.275870 0.045179 -0.482360 0.325630 0.447629 -0.700574 -0.215416 0.558202 0.101387 0.014986
M059 0.011929 0.009018 0.015787 0.101871 -0.156983 0.253922 -0.339960 0.084699 -0.039293 0.059428 0.170674 -0.059307 0.016954 0.209778 -0.013980 0.210126
M056~F 0.133218 -0.022874 0.245348 0.003555 -0.270086 0.340803 -0.547617 0.060608 0.023229 0.105505 0.083247 -0.345261 -0.006585 0.218457 -0.027326 0.210608
M386~A 0.145660 0.092685 0.213092 0.218026 -0.214034 0.512797 -0.898116 -0.365319 0.070421 -0.072618 0.276466 -0.308631 -0.384427 0.762101 -0.172375 0.048434
M373 0.122631 -0.059700 -0.202501 -0.002620 0.002384 -0.007675 -0.120168 0.006102 0.077621 -0.053679 0.065659 0.120067 -0.028875 -0.037050 -0.028757 0.056508
M263~A -0.072811 0.145256 -0.066611 0.081076 -0.251663 0.201095 -0.116312 0.069071 -0.083406 0.030218 0.221173 0.109744 -0.003610 0.313748 0.060025 0.082913
M387~C -0.236082 0.183441 -0.086678 -0.021296 -0.438984 0.142866 -0.205158 0.503686 0.089963 0.010606 0.089937 0.278694 0.409644 0.163188 0.004109 0.719717
M153 0.044630 0.039699 0.050209 0.096445 -0.123609 0.032570 -0.177739 -0.065149 -0.106232 0.086214 0.178733 -0.075115 0.019748 0.030253 0.010789 0.024663
M377~E -0.430630 0.552570 0.260760 0.241994 -0.377795 0.779008 -0.072649 0.322941 -0.702645 0.474831 0.325775 -0.211155 0.232754 0.534863 0.002304 0.010593
M377 0.037968 0.024894 -0.214517 0.320530 -0.306618 0.293308 -0.543082 0.253734 0.006183 -0.025525 0.227636 0.083186 -0.075458 0.433558 -0.013362 0.238030
M387~EF 0.186901 -0.010117 0.207653 0.187127 0.071212 0.346423 -0.346511 -0.061745 -0.066172 0.097084 0.179968 -0.253660 -0.118369 0.115635 0.063558 0.005914
M387~A 0.138222 -0.072305 -0.055563 0.100248 -0.021753 0.070478 -0.144880 0.023055 0.015120 -0.038548 0.196501 -0.047526 0.002687 -0.065587 0.072855 0.041975
M101 0.050426 -0.013723 0.293192 -0.101725 -0.273976 0.420290 -0.437283 0.279127 -0.181957 0.075276 0.179310 -0.238999 -0.136002 0.345662 0.040730 0.266449
M365 0.092091 0.054539 0.023478 0.231866 -0.147521 0.256146 -0.492856 0.133919 -0.057698 0.090121 0.210355 -0.111668 -0.048918 0.063970 -0.014634 0.221491
M005~A 0.087299 -0.016312 0.001449 0.187334 -0.171493 0.259439 -0.533622 0.051619 0.013793 0.039940 0.207592 -0.094008 0.059959 0.162032 -0.002946 0.243878
M304 -0.107607 0.070767 0.006827 0.055300 -0.253062 0.098883 -0.193840 0.152416 0.001840 -0.003597 0.122821 0.033355 0.071076 0.112026 0.023188 0.274953
M240 0.181092 -0.096322 -0.023731 0.081392 -0.232287 0.181591 -0.918392 -0.128725 0.213328 -0.237029 0.124179 -0.029688 -0.304251 0.429375 -0.157520 0.143280
M317 -0.105713 0.187278 0.130013 0.161414 -0.174675 0.298303 -0.188543 0.067517 -0.205423 0.177899 0.216381 -0.148694 0.013540 0.201026 -0.011873 0.012041
M320 0.081874 0.045247 0.113881 0.121375 -0.187370 0.183506 -0.347342 0.039533 0.011389 -0.027995 0.124386 -0.104188 -0.024787 0.093475 0.050130 0.197514
M006 -0.031642 -0.012407 0.006263 0.032593 -0.072801 0.050935 -0.176985 0.101202 0.024465 0.004440 0.031200 0.025507 -0.001457 0.009625 0.005513 0.116699
M024 -0.103191 0.044817 -0.120844 0.166362 -0.119154 0.416588 -0.580751 -0.022798 0.028897 0.126683 0.176566 -0.025390 0.109358 0.278338 -0.070394 0.160668
M263~1 -0.154099 0.186872 0.204936 0.290211 -0.304788 0.428079 -0.303275 0.096473 -0.223428 0.151199 0.332801 -0.197107 0.072962 0.302446 0.004698 0.160819
M097~H -0.173110 0.408998 0.447751 0.361856 -0.267995 0.307822 -0.095085 -0.144101 -0.338922 0.180986 0.457684 -0.358028 -0.140975 0.294914 0.108337 0.091450
M348 0.086383 0.015896 0.113015 0.097439 -0.239170 0.296521 -0.552525 0.180583 -0.052072 0.064964 0.204670 -0.231993 -0.040409 0.046359 0.018875 0.269318
M262 0.015725 0.079330 0.025118 0.037988 -0.273086 0.115402 -0.377172 0.097278 -0.129089 -0.027328 0.127739 -0.238263 -0.221415 0.138513 0.119144 0.107245
M010~2 0.051748 0.043939 0.028348 0.051511 -0.009393 0.137085 -0.259660 0.075280 -0.053950 0.082043 0.113872 -0.021348 -0.028348 -0.005467 0.028910 0.117044
M387~L -0.066197 0.087745 -0.006563 0.002379 -0.227584 0.086777 -0.165298 0.117890 -0.056251 0.018787 0.103528 -0.007075 0.054887 0.113642 0.044702 0.183360
|M136+M365| 0.021553 -0.033619 0.001679 0.134073 0.054953 0.084959 -0.224497 -0.014150 0.026066 0.060862 0.040333 -0.060654 -0.040159 -0.016981 0.017600 -0.064783
M066~A -0.049758 0.104690 0.070543 0.004771 -0.175473 0.117193 -0.127025 0.207610 -0.137519 -0.029465 0.162769 0.003996 -0.012532 0.118496 0.117072 0.187294
M057~A 0.043728 -0.073492 -0.023511 0.061294 -0.260842 0.118347 -0.454306 0.158309 0.046772 0.038075 0.095088 0.019000 0.050639 0.146735 -0.102327 0.204512
M081 0.105256 -0.043287 0.143732 0.071795 -0.053999 -0.088207 0.127174 -0.076466 -0.092222 -0.019148 0.063006 0.115984 -0.007562 -0.156777 -0.012085 -0.162256
M146 -0.272516 0.358927 0.293419 0.198237 -0.244850 0.397158 -0.290549 0.176670 -0.305459 0.188268 0.235200 -0.265567 -0.014792 0.256089 0.094692 0.302426
M352~O 0.246950 0.053869 0.470959 0.004585 -0.088926 0.361165 -0.483934 0.110919 0.030170 -0.038261 0.064228 -0.521550 -0.399359 0.131602 0.147001 0.153086
M352~N 0.158434 0.073843 0.404147 0.109977 -0.145919 0.439650 -0.537901 0.242416 -0.021312 0.088514 0.194965 -0.502115 -0.273751 0.105507 0.189866 0.175395
M099 -0.172616 0.228007 0.114860 0.227018 -0.397915 0.522539 -0.506611 0.130772 -0.216684 0.225567 0.289452 -0.122700 0.042978 0.347521 -0.023879 0.208528
M260 0.001383 -0.030178 -0.020809 0.013388 0.032037 0.018076 -0.058303 -0.019777 0.023132 0.014235 0.009406 0.014123 -0.020454 -0.007225 -0.059982 0.028084
M002 -0.035769 -0.051896 -0.118765 -0.048719 0.095102 -0.141597 0.171154 -0.027559 0.029217 -0.039334 -0.042660 0.111978 0.089390 -0.028995 0.005644 -0.059653
M033 -0.257497 0.041661 -0.185663 0.054966 -0.055019 0.210503 -0.208105 -0.031008 0.068877 0.095736 0.017626 0.159663 0.226515 0.154648 -0.096669 0.114073
M139 -0.181805 0.147800 0.223471 0.061664 -0.241605 0.061089 -0.115611 0.364792 -0.145555 0.107086 0.136909 -0.203658 0.113508 -0.131949 0.183257 0.447826
M309~A 0.027158 -0.042784 -0.087867 0.028359 0.058436 -0.055411 0.103592 -0.046500 0.032875 -0.066603 -0.053422 0.007771 -0.028884 -0.104374 0.032846 -0.077911
M329 0.109643 0.111967 0.099020 0.269122 -0.172340 0.297173 -0.518431 0.018407 -0.131107 0.135860 0.329488 -0.172583 -0.063350 0.216597 0.004847 0.113182
M263~B1 0.033073 0.042309 0.171000 0.301113 -0.204228 0.170479 -0.055786 -0.093346 -0.200567 0.114615 0.208702 -0.106422 0.079370 0.090827 -0.038446 -0.019253
M046 0.014038 -0.007911 0.018591 0.013511 -0.002374 0.055886 -0.082187 0.003875 -0.025297 -0.013268 0.016597 -0.030031 0.017309 -0.020798 0.010606 0.016625
M203~C 0.032708 -0.053211 0.054585 0.017628 -0.141218 0.108619 -0.266464 0.050236 0.089736 0.035280 0.052714 -0.063205 0.041035 0.158632 -0.058521 0.164358
M314 0.098993 0.205345 0.204998 0.254652 -0.213926 0.242957 -0.545735 0.134097 -0.121713 0.084614 0.257174 -0.280774 -0.117486 0.121172 0.087659 0.291684
|M327+M342| -0.006942 -0.030867 -0.040025 -0.058959 0.064821 -0.148761 0.193278 -0.023808 0.086645 -0.021881 -0.065121 0.087449 0.018358 -0.115597 -0.039191 -0.069715
M149~A -0.074263 0.044487 0.074426 0.044762 -0.212715 0.059800 -0.155473 0.195224 -0.038405 -0.001657 0.116959 -0.029827 -0.000354 0.032977 0.089942 0.219646
M206~D 0.024117 0.020532 -0.044463 0.168744 -0.291997 0.230038 -0.445522 0.054260 -0.016440 0.007598 0.272632 0.014173 0.053440 0.184591 0.003733 0.226694
M206~G -0.036626 0.046068 0.015974 0.107776 -0.078837 0.150012 -0.155464 -0.017638 -0.058334 0.049460 0.050331 -0.076161 0.026309 0.049057 0.003361 0.080241
M106 0.040196 -0.058612 -0.022807 0.146511 -0.074454 0.151587 -0.358073 0.114110 -0.025483 0.027609 0.120966 -0.064334 -0.012990 0.067092 -0.045096 0.108703
M106~A 0.025168 0.028258 0.070622 0.111407 -0.133048 0.205175 -0.232771 0.105011 -0.078283 0.022740 0.148587 -0.104466 -0.026352 0.094553 0.023118 0.090636
M175 0.106906 -0.025222 0.028788 0.061651 -0.005031 0.140730 -0.146708 -0.039919 0.018840 0.051875 0.087151 -0.073911 -0.020321 -0.022321 0.017359 -0.017496
M362 -0.005388 0.065362 0.089614 0.156125 -0.162927 0.205497 -0.258318 0.120678 -0.075751 0.100739 0.182105 -0.145251 -0.036405 0.194374 -0.034357 0.171331
M390 -0.003375 0.359696 0.366260 0.244599 -0.243709 0.373871 -0.237511 -0.006482 -0.368533 0.243172 0.300709 -0.424935 -0.165879 0.390237 0.063859 0.061150
M391 0.030265 -0.005696 -0.019347 0.053354 -0.004228 -0.021691 -0.014423 -0.021048 -0.048455 -0.003976 -0.047242 -0.023891 -0.019450 -0.043682 -0.025039 -0.075366
M372 -0.105909 0.066576 0.064567 -0.118288 -0.252718 0.092330 -0.122800 0.168218 0.027295 -0.002253 0.089790 0.049502 0.002832 0.160674 0.104806 0.175250
|M195+M057| 0.017807 -0.014442 0.079667 -0.077980 0.082985 -0.157708 0.100332 0.124025 -0.016210 0.096121 0.052657 -0.063389 0.167461 -0.282489 0.118500 0.296291
M296 0.128349 -0.052027 -0.077241 0.111581 -0.006682 0.070532 -0.139989 -0.056878 -0.005158 0.039074 0.059031 -0.048282 -0.008987 0.025383 -0.000766 -0.032399
M341 0.018882 0.037584 0.021450 -0.018900 -0.119804 0.123919 -0.169505 0.051581 -0.037229 0.010380 0.036317 -0.035163 -0.032411 0.062416 0.034857 0.046956
M102~E 0.015869 -0.012415 -0.081929 -0.105569 0.055628 -0.157826 0.209771 -0.014662 0.036829 -0.069968 -0.092857 0.134012 0.030649 -0.097954 -0.030266 -0.066921
M203~A 0.157777 -0.070633 -0.021870 0.063806 0.029264 0.069859 -0.109175 -0.157120 -0.018459 -0.016396 0.070349 -0.054819 -0.006141 0.050699 -0.060697 -0.009877
M327 0.037859 -0.097113 -0.137918 -0.060234 0.226341 -0.276939 0.213475 -0.103915 0.168622 -0.109280 -0.124486 0.170625 -0.012174 -0.210174 -0.039418 -0.145660
|M351+N14| 0.089543 0.044882 0.082445 0.125720 -0.160188 0.187017 -0.431629 0.135636 -0.081993 0.092460 0.146692 -0.162007 -0.058541 0.085856 0.005443 0.161213
M223 -0.044130 0.327840 0.240724 0.094959 -0.116515 0.257567 0.130494 -0.026614 -0.375578 0.204304 0.243559 -0.287887 -0.046463 0.171971 0.111967 -0.092441
M266~B 0.088409 -0.125570 -0.119203 -0.086349 0.111234 -0.122660 0.160734 -0.036038 0.100544 -0.063223 -0.012640 0.225041 0.008956 -0.131901 0.124075 -0.027857
M380 -0.195212 0.041844 -0.012479 0.056574 -0.085514 0.266600 -0.068342 0.021645 -0.070079 0.152818 0.099403 0.125545 0.113025 0.162644 -0.069490 -0.001836
|M296+M296| -0.012987 0.000882 0.146206 0.137037 -0.223261 0.164665 -0.207958 0.201054 -0.109752 0.017215 0.068705 -0.089564 -0.131044 0.082368 0.027376 0.138336
M217 0.088022 -0.025246 0.018714 0.073154 -0.083634 0.111766 -0.259526 -0.131553 0.054995 -0.050036 0.035287 -0.090722 0.068118 0.226745 -0.097444 0.171714
M254~A -0.010264 0.034745 0.057848 0.105583 -0.292888 0.255329 -0.377398 0.121092 -0.031679 0.050449 0.261315 -0.045904 -0.042808 0.195019 0.111999 0.238632
M325 0.086568 -0.086110 -0.076909 -0.063785 0.137834 -0.153667 0.065937 -0.034413 0.018506 -0.032580 -0.061098 0.019003 0.012389 -0.124078 -0.085751 -0.113978
M048~C 0.091281 -0.038870 0.053262 0.110452 -0.038655 0.175269 -0.332509 -0.053686 -0.001651 -0.001630 0.112076 -0.101543 -0.008234 0.198392 -0.038438 0.073771
M054~I 0.028583 -0.110627 -0.112576 -0.035106 0.156825 -0.225665 0.180262 -0.063612 0.061319 -0.063781 -0.123874 0.108954 -0.010301 -0.140340 0.001824 -0.121423
M260~1 -0.002032 0.008904 -0.019740 0.081087 -0.088691 0.117011 -0.027323 0.076635 0.003101 -0.010197 0.100052 0.130394 0.038313 0.084793 -0.007194 0.104573
M338~B 0.069690 -0.008494 0.148732 0.121742 0.041794 0.240496 -0.426595 0.078009 0.047611 0.027999 0.080511 -0.244163 -0.077588 0.041437 0.035829 0.140985
M340 -0.127731 -0.091088 -0.184873 -0.117077 -0.035585 -0.017023 0.062383 0.262122 0.111986 0.075087 -0.126073 0.156263 0.178111 -0.092033 -0.125814 0.158282
|M218+M288| 0.088512 0.035565 0.260870 -0.008347 -0.354858 0.284953 -0.373618 0.062441 -0.073285 0.119977 0.171365 -0.292868 -0.043479 0.286630 -0.027453 0.148557
M111~A -0.091963 0.046602 0.077021 0.086520 -0.046140 -0.073033 0.001843 0.154171 -0.000212 0.006755 -0.102050 0.024257 0.059637 -0.087559 -0.001214 0.143170
M242~B 0.124341 -0.075237 -0.158325 -0.070979 -0.057942 -0.043002 -0.354397 0.025966 0.158273 -0.177336 -0.123926 0.050797 -0.188014 0.091479 0.006087 0.072211
M262~1 0.053712 -0.023351 0.134863 0.047763 -0.154235 0.093289 -0.323650 0.040973 0.046129 -0.023521 -0.015366 -0.216812 -0.091499 0.020396 0.028642 0.174020
M269~B 0.030662 -0.019613 -0.094215 -0.005875 0.092201 -0.073360 0.024625 0.010640 0.059177 -0.018322 -0.070322 0.038179 -0.025218 -0.053434 0.020770 -0.045632
M301 0.036077 -0.113271 0.103076 0.004177 -0.016313 -0.002587 0.020679 0.011572 0.043079 -0.057601 -0.046009 -0.052096 -0.069665 -0.105813 0.007842 -0.033915
M374~C 0.021354 -0.186570 -0.191778 -0.095370 0.454622 -0.367699 0.506666 -0.292866 0.203832 -0.129091 -0.288868 0.172916 -0.027780 -0.208727 -0.142746 -0.299609
M057~B 0.064055 0.106795 0.105639 0.182203 -0.181556 0.178980 -0.201595 -0.004631 -0.164709 0.156068 0.159952 -0.155208 0.016916 0.080701 0.025653 0.036694
|M131+M388| 0.060666 0.100352 0.148857 0.204451 -0.070904 0.132154 -0.143879 -0.112427 -0.140341 0.128394 0.273505 -0.158837 -0.152024 0.144819 -0.028435 -0.002443
M264~A -0.004621 -0.090284 -0.091193 -0.126747 0.239042 -0.125654 0.222959 -0.111531 0.068066 -0.051548 -0.155392 0.072403 0.017318 -0.170415 -0.022186 -0.076412
|M305+M342| 0.020093 0.000171 -0.106872 0.028177 0.065321 -0.035474 0.006049 0.037868 0.034848 0.028418 -0.016267 -0.001137 0.005864 -0.078706 0.010776 -0.061454
M048~D 0.124348 0.040892 0.039467 0.059387 -0.014461 0.013326 -0.171654 -0.076629 -0.002717 -0.019174 0.056279 -0.044356 -0.098803 0.097624 -0.027975 -0.052043
M122 -0.018659 -0.064160 -0.189067 -0.181071 0.177674 -0.205035 0.276936 0.009375 0.101627 -0.082639 -0.183493 0.215556 0.048976 -0.199634 -0.111612 -0.053573
M332~D -0.065114 0.144426 0.191625 0.208409 -0.137153 0.309360 -0.235837 0.063999 -0.239415 0.181094 0.213464 -0.259090 -0.065935 0.192898 0.018028 -0.008564
|M305+X| 0.019785 -0.026846 -0.131221 -0.075145 0.182018 -0.151663 0.170370 -0.026668 0.113092 -0.054275 -0.101037 0.108716 0.006492 -0.203721 0.027956 -0.046217
M131 0.000859 0.177744 0.178048 0.129156 -0.169417 0.246693 -0.167249 0.051936 -0.134541 0.116737 0.250354 -0.194106 -0.106128 0.318977 0.045349 0.090382
M243~J 0.056863 -0.042967 -0.034525 -0.023542 0.085843 -0.117464 0.116040 -0.037161 0.055003 -0.039364 -0.121802 0.074381 -0.001957 -0.089442 0.024014 -0.058245
|M106+M288| 0.144732 0.008304 0.121230 0.105558 -0.017640 0.177405 -0.375410 0.001479 -0.056074 0.032372 0.148020 -0.200316 -0.149979 0.046074 0.036238 0.073677
M102~D 0.089537 -0.047124 -0.020325 0.041795 0.025168 0.092270 -0.228207 0.047184 -0.009840 0.003493 0.069200 -0.083068 -0.017979 -0.079087 -0.022526 0.042697
M380~B -0.173713 -0.022262 0.017503 0.124836 -0.055012 0.314772 -0.333467 0.006804 -0.022958 0.106080 0.104778 0.010939 0.130234 0.139458 -0.059493 0.054080
|M153+M342| 0.001322 -0.039535 -0.082545 -0.171344 0.141768 -0.289468 0.330244 -0.026095 0.026254 -0.090281 -0.207097 0.141187 0.006904 -0.168485 -0.001539 -0.079685
M038~BX -0.018400 -0.110347 -0.136916 -0.143600 0.263923 -0.310680 0.456337 -0.120736 0.100771 -0.143913 -0.269595 0.114746 -0.001069 -0.182155 -0.023366 -0.225935
M105~A -0.032804 -0.002214 -0.043980 0.030883 -0.114765 -0.019524 -0.045459 0.019154 -0.025706 0.034321 0.015008 0.131127 0.052471 0.101634 0.003684 0.040200
M145 0.052008 -0.102432 -0.073064 -0.167472 0.258568 -0.260177 0.311145 -0.050763 0.095801 -0.103637 -0.182174 0.071145 -0.062200 -0.229334 -0.047410 -0.218152
M195 0.022306 0.003384 -0.011169 -0.006229 -0.032734 -0.074341 0.016085 0.017117 0.015233 -0.005645 -0.022411 0.070230 0.026301 -0.038235 -0.012217 0.054006
M220 -0.004878 0.100962 0.105735 0.084778 -0.053008 0.099693 -0.052040 -0.005157 -0.161652 0.076828 0.171648 -0.133281 -0.027279 0.058555 -0.003413 -0.023032
M269~A -0.002289 0.055690 0.034265 0.130767 -0.074802 0.154622 -0.335757 0.079495 -0.019144 0.029183 0.146141 -0.144916 -0.056226 0.082700 0.003811 0.103284
M292~F 0.048436 -0.018146 -0.004862 0.126342 -0.021413 0.088786 -0.167492 0.010129 -0.014919 0.036139 0.093823 -0.022333 -0.011242 0.017641 0.002334 0.069109
M128 0.004887 0.045029 -0.030802 -0.001660 -0.057148 -0.154781 -0.170902 0.069692 0.040955 -0.109371 -0.127159 0.006867 -0.111104 0.036533 0.005302 0.074772
M387~CA 0.006802 -0.002632 0.002456 0.031813 0.029338 -0.129587 0.077148 0.073025 0.057474 -0.018541 -0.049296 0.000125 -0.071138 -0.097929 0.057310 -0.020518
|M036+N14| 0.034028 -0.146601 -0.187518 -0.210057 0.253673 -0.408052 0.476181 -0.108751 0.172755 -0.147697 -0.246581 0.235830 0.008092 -0.231875 -0.030562 -0.202212
|M327+X| -0.008463 -0.097290 -0.117420 -0.113262 0.167151 -0.255605 0.386526 -0.052296 0.114579 -0.077126 -0.157250 0.186724 0.044004 -0.192327 0.028285 -0.165483
M005 0.010326 -0.170471 -0.149922 -0.177407 0.284363 -0.299272 0.413596 -0.136614 0.133202 -0.106486 -0.290375 0.194356 0.019356 -0.262457 -0.042925 -0.228400
M038~E 0.046214 -0.046437 -0.071636 -0.087496 0.197464 -0.145725 0.159307 -0.019352 0.094351 -0.036174 -0.169316 0.064661 0.021404 -0.170887 -0.070387 -0.104260
M109 0.000144 -0.070709 0.038941 0.013117 0.108864 0.050052 -0.047227 -0.011411 0.052206 0.013164 -0.082686 -0.106533 -0.050886 -0.068996 -0.028025 -0.018267
M250~BA 0.024286 0.198984 0.224697 0.210155 -0.147496 0.154194 0.065917 -0.115370 -0.325005 0.210678 0.195313 -0.331627 -0.018553 0.103732 0.075375 -0.138631
M387~EE 0.028958 -0.094532 -0.073062 -0.005480 0.141551 0.062464 -0.077810 -0.040863 0.023472 -0.027318 0.031884 -0.021692 0.013874 -0.011489 0.098079 -0.014898
|M136+X| -0.032497 0.024216 0.003124 -0.053099 0.045208 -0.060347 0.048236 -0.033881 0.059590 -0.024473 -0.086601 0.047375 0.017076 0.023753 -0.012145 0.030116
M029~B 0.018386 -0.119152 -0.094060 -0.176956 0.029453 -0.205749 0.148497 -0.002028 0.116460 -0.031397 -0.105538 0.111510 0.058485 -0.137939 -0.069066 -0.016119
M041 0.079858 -0.121660 -0.098416 -0.120154 0.185553 -0.249977 0.304874 -0.134815 0.132497 -0.043869 -0.121937 0.152785 -0.019923 -0.120252 -0.095355 -0.164642
M125 -0.010393 -0.042317 -0.029189 0.001100 0.111672 -0.055029 0.098318 -0.084406 0.050141 -0.011086 -0.030817 0.080505 0.011370 -0.012758 -0.017217 -0.032985
M218~B 0.165724 -0.043663 -0.014590 0.013955 0.055803 -0.005338 -0.170165 0.041806 -0.031223 -0.027963 -0.011957 -0.139888 -0.119905 -0.092117 0.097060 -0.051744
M265~F -0.001314 -0.005988 0.001643 0.006837 -0.093136 0.026621 -0.010021 0.017540 0.041793 -0.023850 0.045293 0.061530 0.040362 0.079609 -0.019149 0.052436
M286 0.010475 0.004678 -0.060986 -0.058328 0.077725 -0.078858 0.188013 -0.075580 0.054870 -0.061529 -0.126072 0.103515 0.016341 -0.089924 -0.063394 -0.072017
M318~A1 -0.274004 -0.134780 -0.083248 0.050848 0.234494 0.058396 0.215669 -0.169775 0.074566 0.023842 -0.167161 0.153773 0.174886 0.140938 -0.198900 -0.217851
|M370~B+M072| -0.004653 -0.022373 -0.053522 -0.154648 0.162802 -0.232892 0.293574 -0.096376 0.084442 -0.087014 -0.158819 0.073571 -0.002280 -0.117492 0.032789 -0.129165
M048~K -0.020004 0.011315 -0.011573 -0.147936 -0.035035 -0.007688 0.047662 -0.011331 0.014075 -0.064642 -0.030232 0.056872 -0.064413 0.078477 0.043422 0.059787
M145~A -0.239633 0.038905 -0.085708 0.005941 -0.035912 0.189092 -0.033997 0.054694 -0.048580 0.035356 -0.051318 0.110605 0.172330 0.138469 -0.041225 0.018539
M291 -0.201539 0.112144 0.137660 0.058875 -0.125739 0.066597 0.035163 0.131596 -0.095698 0.080455 -0.047822 -0.100200 0.030221 0.039499 0.025076 0.095730
M292 -0.088056 0.084873 0.039710 -0.006587 -0.020698 0.027173 -0.046519 0.100905 -0.023052 0.001140 -0.005081 0.000208 0.015558 -0.017484 -0.008598 0.094821
M338 0.010654 0.066489 0.032731 0.209593 -0.119854 0.258621 -0.501402 0.116306 -0.100529 0.102138 0.235736 -0.127975 0.001611 0.125043 -0.029181 0.207859
M131~E 0.010228 -0.002206 -0.078635 -0.047108 0.096475 -0.145317 0.149041 -0.003563 0.069512 -0.023849 -0.131035 0.063038 -0.026721 -0.075948 -0.039129 -0.142134
M136~C 0.021010 -0.005624 -0.021538 -0.030492 -0.020747 -0.068915 0.067078 -0.006928 0.112063 -0.042845 -0.046029 0.073083 -0.010746 -0.061071 0.013986 -0.033805
M147 0.004728 -0.020933 0.071406 -0.150841 0.156743 -0.251558 0.364081 -0.004378 -0.009752 0.070396 -0.039146 -0.025707 0.127836 -0.275911 0.115010 0.130662
M319 -0.036334 0.052674 0.034891 0.042274 0.036292 -0.071941 0.169380 -0.063812 -0.017336 0.023883 -0.024412 0.014063 0.047326 -0.003489 -0.024344 -0.089542
M327~P -0.022503 -0.052851 -0.025793 0.004205 0.056004 -0.046808 0.096764 -0.041267 0.085549 -0.023393 -0.039656 0.044593 0.013514 -0.071359 -0.019885 -0.081321
M328~B 0.040066 -0.021458 -0.104345 -0.058389 0.124702 -0.075470 0.073086 -0.013591 0.020978 -0.024152 -0.058903 0.025220 0.018109 -0.125190 0.022490 -0.091092
M362~A 0.001719 -0.046376 -0.068972 -0.129969 0.169714 -0.176963 0.240012 -0.081097 0.067975 -0.097559 -0.117475 0.101270 0.049379 -0.146238 -0.015733 -0.112933
M367~C 0.010366 0.019319 -0.080555 -0.028585 -0.128362 0.026486 -0.064414 0.079005 0.011094 -0.004411 0.125461 0.113801 0.052702 0.114528 -0.000728 0.112436
M369 0.076251 -0.105650 -0.083901 -0.077222 0.128586 -0.162115 0.127608 -0.125401 0.107251 -0.058516 -0.107390 0.106086 0.011244 -0.116201 -0.054503 -0.150091
|M370~B+M388| 0.056096 -0.008787 0.008010 0.004453 0.024044 -0.008041 0.007491 -0.038870 -0.016904 0.019097 -0.033306 0.006399 0.055745 0.039492 0.012049 -0.000106
|M377+M320+M377| -0.008984 -0.002786 -0.000571 0.003142 0.012435 -0.017873 0.049237 -0.019667 0.006800 -0.009903 -0.025861 0.060704 0.008153 0.004519 -0.016560 -0.061067
M029~A 0.011766 -0.017598 -0.064663 -0.032974 0.093060 -0.081628 0.083796 0.003801 0.015817 -0.029241 -0.066777 0.084935 0.042670 -0.053029 0.005990 -0.048137
M230 0.042266 -0.026534 -0.076369 0.029182 -0.133747 0.068447 -0.288432 0.016703 0.050060 -0.087774 0.060006 0.023823 -0.055639 0.131395 -0.005776 0.063081
M315 0.023201 -0.038252 0.028143 -0.047597 0.138179 0.037372 -0.037308 0.021989 0.057339 -0.019702 -0.062908 -0.079370 -0.079336 -0.068895 0.031837 0.020090
M381 0.044226 -0.077992 -0.086258 -0.131723 0.101363 -0.209473 0.221122 -0.082979 0.076615 -0.072072 -0.115591 0.167570 0.029013 -0.110523 -0.054146 -0.112009
M384~AB 0.039875 -0.102982 -0.124562 -0.105107 0.158981 -0.243068 0.299471 -0.014311 0.097931 -0.105852 -0.150313 0.106429 -0.009398 -0.118122 -0.043108 -0.160946
M387~I -0.137334 -0.202200 -0.190084 -0.408036 0.420872 -0.555125 0.707969 -0.075211 0.118096 -0.212346 -0.206454 0.267560 0.029791 -0.407689 -0.168388 -0.262266
|M036+N30C| 0.010857 -0.009166 -0.044679 -0.035293 0.065206 -0.108708 0.156108 -0.017853 0.014068 -0.042070 -0.047197 0.069184 0.003618 -0.089350 0.007858 -0.103627
M010 0.017164 -0.027641 -0.009697 -0.013055 0.012440 -0.050599 0.110749 -0.047351 0.008621 -0.037137 -0.056075 0.025113 0.015368 -0.091202 -0.011828 -0.019047
M038~A 0.079069 -0.035313 -0.066103 -0.048161 0.059235 0.034168 -0.103986 -0.009409 -0.004803 -0.024693 -0.006198 0.007819 -0.008942 -0.027822 -0.040475 -0.011985
M051~B 0.040423 -0.068192 -0.163732 -0.141890 0.195055 -0.216605 0.261412 -0.003048 0.098134 -0.090572 -0.199387 0.149537 0.001303 -0.171621 0.003144 -0.069406
M136 0.011871 -0.029690 -0.065403 0.077844 -0.079574 0.091556 -0.156424 0.078194 0.024769 -0.014208 0.048682 0.019266 -0.005861 0.105372 -0.044923 0.109294
M281~F 0.107397 -0.046980 -0.112015 -0.038909 0.050027 -0.142886 -0.030758 -0.068412 0.081737 -0.127853 -0.081013 0.087567 -0.088404 -0.029906 0.004794 -0.068781
M346~A 0.025295 -0.039141 -0.071478 -0.111488 0.133613 -0.155331 0.242014 -0.089222 0.061181 -0.024904 -0.154385 0.109189 -0.003124 -0.092198 0.004715 -0.134752
|M217+M388| 0.029008 -0.048984 0.012688 -0.088857 0.115204 -0.123597 0.193522 -0.060581 0.108977 -0.040185 -0.136803 0.044185 -0.047248 -0.086618 0.011448 -0.092234
|M218+M320| -0.114456 0.039242 -0.009286 -0.050927 0.023689 -0.008565 0.282135 0.038064 -0.100289 0.020005 -0.018148 0.155861 0.089292 -0.000690 -0.033679 -0.128511
M003 0.038610 -0.083494 -0.072988 -0.119155 0.147848 -0.216463 0.240183 -0.105528 0.103620 -0.094794 -0.172305 0.083231 -0.027712 -0.176578 -0.075914 -0.203856
M044 -0.002871 -0.084280 -0.121145 -0.159221 0.254796 -0.300424 0.437633 -0.115901 0.105381 -0.138667 -0.233329 0.132879 0.027136 -0.211401 -0.014692 -0.176857
M050~K 0.030084 -0.059474 -0.043802 -0.091735 0.186804 -0.141357 0.175709 -0.067832 0.065917 -0.016216 -0.111808 0.131311 0.024244 -0.166109 0.016319 -0.170129
M057~B1 0.009233 0.017908 0.011273 0.053312 -0.025450 -0.015754 -0.112088 0.025251 -0.044237 0.024828 0.014127 -0.012591 -0.026803 -0.067130 -0.005047 0.015343
M069~A 0.009917 0.143216 0.239536 0.241378 -0.351196 0.376942 -0.380079 0.075579 -0.180394 0.097436 0.268797 -0.165196 0.014137 0.249242 0.037475 0.215646
M073~B 0.056023 -0.105634 -0.103688 -0.045022 0.145746 -0.164817 0.126623 -0.099600 0.107672 -0.062427 -0.095213 0.136051 0.051427 -0.136850 -0.019284 -0.135146
M144 0.051142 -0.089792 -0.045374 0.051257 0.041574 -0.057100 -0.051254 0.026976 0.075347 -0.003984 -0.027294 0.003123 0.035689 -0.078011 -0.045086 -0.037364
M149~A2 0.024950 -0.055216 -0.079187 -0.121602 0.097270 -0.218978 0.248722 -0.054039 0.064169 -0.011967 -0.149711 0.086084 0.037673 -0.122947 -0.021829 -0.054566
M207 -0.015134 -0.033941 -0.098180 -0.102208 0.048538 -0.111296 0.174785 -0.082837 0.069516 -0.058854 -0.083119 0.144678 0.051178 -0.108812 0.053374 -0.018089
M221 0.029431 -0.049225 -0.092298 -0.052919 0.094400 -0.149633 0.164381 -0.083974 0.079952 -0.109519 -0.079626 0.067116 -0.052323 -0.147005 0.031889 -0.141111
M222 0.021090 0.089328 0.079843 0.009865 0.006201 -0.047989 0.140655 -0.025567 -0.113730 0.025122 -0.002140 -0.085573 -0.051164 0.011286 0.055160 -0.081745
M228~GA 0.036454 -0.091182 -0.144543 -0.073245 0.224982 -0.171955 0.182738 -0.092444 0.113798 -0.060729 -0.152909 0.086921 -0.003914 -0.180436 -0.036970 -0.084581
M240~E 0.098118 -0.077288 -0.168923 -0.137612 0.179764 -0.227832 0.139935 -0.026413 0.136066 -0.082028 -0.148279 0.142980 -0.047745 -0.086164 -0.033262 -0.129259
M269 0.040204 -0.047823 -0.054447 -0.132286 0.137700 -0.208050 0.260665 -0.025939 0.064801 -0.004001 -0.132608 0.058464 0.039333 -0.109016 -0.007791 -0.122231
M297~D 0.018819 -0.082376 -0.049366 -0.199298 0.167236 -0.289431 0.324732 -0.081015 0.142027 -0.105488 -0.164648 0.105741 -0.012894 -0.124553 -0.035507 -0.151007
M367~A 0.015171 -0.085875 -0.061117 -0.119270 0.160883 -0.203542 0.354641 -0.080259 0.076525 -0.032662 -0.147449 0.129499 0.056723 -0.134499 -0.011316 -0.104905
M384~D -0.026164 -0.083004 -0.082471 -0.036084 0.064533 -0.139876 0.148640 0.048307 0.060755 -0.026631 -0.120680 0.135991 0.051855 -0.089517 -0.035363 -0.060948
|M175+M288| 0.053828 -0.083023 -0.110758 -0.107483 0.160180 -0.264403 0.340864 -0.091482 0.054660 -0.082331 -0.150306 0.083237 0.048566 -0.222678 0.005770 -0.130472
|M370+M072+M370| 0.034928 0.001729 -0.026666 -0.047039 0.079753 -0.030889 0.083399 -0.026661 0.026100 -0.010580 -0.037703 0.046439 0.002736 -0.051419 -0.014875 -0.037359
M002~B 0.012523 -0.049710 -0.056413 -0.127618 0.152908 -0.219717 0.337104 -0.012186 0.087581 -0.028549 -0.176732 0.138226 -0.027448 -0.175581 -0.035634 -0.176339
M035 0.071811 -0.000964 0.123926 -0.046899 0.078031 0.037932 -0.014566 -0.047540 0.038180 -0.035282 -0.100425 -0.154846 -0.120998 -0.046700 0.008763 -0.013988
M051~A -0.054261 -0.073968 -0.027996 -0.090229 0.122004 -0.207723 0.209454 -0.019032 0.044265 -0.081732 -0.139243 0.075592 0.052589 -0.147304 0.012014 -0.075562
M051~C 0.039089 -0.025745 -0.043180 -0.123349 0.139941 -0.177146 0.215174 -0.056465 0.101985 -0.075302 -0.130801 0.036060 0.030904 -0.134061 -0.026742 -0.144375
M053~A 0.038173 -0.077841 -0.147202 -0.171859 0.208146 -0.261780 0.350880 -0.113210 0.099239 -0.044929 -0.262631 0.156732 -0.021742 -0.217034 -0.003017 -0.222559
M056 -0.045748 -0.073703 -0.090753 -0.121376 0.210202 -0.304138 0.341005 -0.053943 0.051705 -0.067062 -0.204876 0.131069 0.015186 -0.165856 -0.039484 -0.206434
M110 -0.058273 -0.028295 -0.053636 -0.004047 -0.003902 -0.049835 0.145970 -0.045948 0.029182 0.045006 -0.061580 0.138197 0.031549 -0.040236 -0.047543 -0.130580
M223~B -0.033687 0.083190 0.066653 -0.062105 -0.022976 0.011186 0.051769 -0.037855 -0.070305 0.063854 0.059345 -0.038826 -0.037393 0.012999 0.052461 -0.050484
M263~B 0.010843 -0.066710 -0.082098 -0.053731 0.063090 -0.103452 0.059223 -0.059047 0.061785 0.005904 -0.088574 0.092534 0.024459 -0.123891 -0.033333 -0.002380
M264~B 0.019689 -0.055040 -0.114946 -0.126785 0.103122 -0.189897 0.361697 -0.029745 0.117592 -0.085975 -0.125585 0.093377 0.025084 -0.178321 0.027527 -0.107935
M269~2 0.018110 0.036728 0.027811 0.093205 -0.106508 0.147972 -0.193437 0.048469 0.000699 0.030260 0.076732 -0.066576 -0.003432 0.126912 0.012416 0.055909
M269~A1 0.017701 -0.087479 -0.073243 -0.060272 0.177168 -0.180027 0.231259 -0.042356 0.059225 -0.046413 -0.118177 0.043001 0.034486 -0.089908 0.019028 -0.156837
M310 0.014667 -0.118966 -0.081762 -0.058211 0.142085 -0.247953 0.236297 -0.034616 0.062304 -0.080680 -0.169127 0.062788 -0.021012 -0.153091 0.002859 -0.104593
M325~D -0.002972 -0.096963 -0.094892 -0.034513 0.074581 -0.125376 0.133578 -0.000410 0.043970 -0.050026 -0.056933 0.084740 0.000935 -0.134252 0.010140 -0.022269
M341~Q -0.041067 0.056992 0.070433 0.032694 -0.091496 0.093786 -0.194177 0.041334 -0.026766 0.068009 0.070852 -0.118438 0.048904 0.112875 0.010704 0.073933
M346~B 0.026093 -0.045490 -0.076153 -0.051246 0.079998 -0.135239 0.107867 -0.054046 0.037272 0.004081 -0.101791 0.060386 0.024388 -0.067980 -0.016579 -0.069206
M417~H 0.016252 -0.022849 -0.011208 0.035533 -0.038350 0.028419 -0.113246 0.053074 -0.020611 -0.029554 0.031989 -0.075176 -0.020381 0.030492 -0.009061 0.018676
|M036+N24| 0.019918 -0.063097 -0.079211 -0.107988 0.213111 -0.252191 0.317349 -0.101425 0.071881 -0.109917 -0.193315 0.181572 0.065888 -0.176469 -0.053955 -0.176366
|M106~2+M288| 0.035585 -0.088775 -0.044607 -0.021743 0.059828 -0.080991 0.067356 -0.071367 0.073596 -0.032764 -0.092369 0.009771 0.038064 -0.131340 0.024571 -0.093292
M001~B 0.090764 -0.112116 -0.068246 -0.160049 0.186375 -0.263104 0.325213 -0.094906 0.058719 -0.076029 -0.221168 0.106140 0.023287 -0.192254 -0.069506 -0.195676
M009~A -0.055111 -0.043455 -0.118559 -0.105739 0.095994 -0.184237 0.191843 -0.018803 0.085511 -0.069859 -0.079108 0.187766 0.026521 -0.090367 -0.055349 -0.036192
M024~1 -0.054998 -0.045503 -0.087096 -0.051024 0.083226 -0.141386 0.166247 -0.074641 0.042034 -0.021514 -0.143110 0.151475 0.074358 -0.041641 -0.034606 -0.057859
M041~G 0.043739 -0.009266 -0.045963 0.000718 -0.027546 -0.017523 -0.028028 0.009309 0.037965 0.003598 0.004707 0.015311 0.014589 0.016527 0.003902 0.024448
M056~E -0.012517 -0.050877 0.180377 -0.107509 -0.086464 0.017086 0.017004 -0.017077 0.007757 0.033213 -0.096823 -0.197467 0.033114 0.068749 -0.033678 -0.018665
M061 0.020521 -0.048929 -0.067953 -0.133618 0.121027 -0.258273 0.307680 -0.097000 0.066641 -0.038282 -0.137048 0.123031 0.002245 -0.148408 -0.046637 -0.195221
M136~B 0.006360 -0.034563 -0.010888 -0.108939 0.027027 -0.093008 0.181554 -0.021749 0.007968 -0.053104 -0.065144 0.112663 -0.002790 -0.081892 0.001389 -0.036276
M136~I 0.018996 -0.079530 -0.076272 -0.102440 0.137921 -0.253983 0.329044 -0.112888 0.046256 -0.100301 -0.214518 0.141071 -0.031625 -0.118419 -0.019401 -0.097107
M210~G 0.010182 -0.037470 -0.129375 -0.103063 0.103267 -0.212079 0.229246 0.001865 0.082060 -0.059009 -0.170928 0.128461 0.061659 -0.145449 0.010860 -0.038572
M230~A 0.050767 -0.109850 -0.075004 -0.113641 0.137460 -0.195153 0.183446 -0.108093 0.086479 -0.123130 -0.126981 0.143138 -0.009192 -0.193162 -0.020309 -0.156745
M242~AB -0.005724 -0.009544 -0.030652 -0.086228 -0.007446 -0.003471 -0.003886 -0.022724 0.031728 -0.023105 0.019544 0.090128 -0.017299 -0.014440 -0.009362 0.023596
M247~G 0.003432 -0.023706 -0.094297 -0.075418 -0.001260 -0.145902 0.136261 0.003846 0.039747 -0.087573 -0.079195 0.123739 -0.014357 -0.044252 0.014119 -0.070785
M265 -0.004905 -0.072018 -0.110986 -0.142219 0.193135 -0.261020 0.368762 -0.123373 0.085397 -0.142554 -0.169242 0.127066 -0.041154 -0.214486 0.033363 -0.163702
M295 0.027173 0.098837 0.061110 0.007167 0.037398 -0.013845 0.141832 -0.101349 -0.164519 0.093595 0.010088 -0.142099 -0.099571 -0.001855 0.048562 -0.184311
M316~E2 0.051569 -0.020942 -0.045358 -0.123099 0.171366 -0.194257 0.190529 -0.078283 0.076500 -0.063908 -0.090648 0.121062 0.008773 -0.145371 -0.000533 -0.094779
M318~A -0.043949 -0.079811 -0.120919 -0.067165 0.122492 -0.105502 0.235362 -0.046032 0.038525 -0.049191 -0.111864 0.098029 0.020442 -0.057066 -0.004769 -0.149255
M323 -0.007497 -0.048835 -0.087989 -0.112299 0.136050 -0.238892 0.193139 0.028713 0.087708 -0.073016 -0.130287 0.087496 0.012499 -0.176629 -0.014108 -0.036549
M373~A 0.000775 -0.118053 -0.121180 -0.156056 0.228162 -0.314025 0.404371 -0.077165 0.067300 -0.073485 -0.214359 0.096581 0.015123 -0.178946 -0.028102 -0.149034
M379 -0.012091 -0.044633 -0.115174 -0.182615 0.170372 -0.283927 0.326516 -0.134586 0.120097 -0.127269 -0.167208 0.144477 0.006041 -0.166758 0.006948 -0.197936
M384 0.025032 -0.039943 -0.078520 -0.107509 0.177545 -0.209277 0.296440 -0.063024 0.078045 -0.043096 -0.158978 0.075201 0.020165 -0.162029 -0.027623 -0.141875
|M195+M038~A| -0.004349 -0.128086 -0.055649 -0.086952 0.084330 -0.186005 0.161934 -0.095053 0.077446 -0.072453 -0.152091 0.101795 0.009496 -0.186415 -0.050999 -0.092162
|M288+N01| 0.072416 -0.050027 -0.092666 -0.192918 0.124570 -0.206887 0.082809 0.016063 0.144541 -0.133516 -0.196928 0.106551 -0.096464 -0.157524 -0.013141 -0.045184
|M305+M136| -0.022209 -0.023636 -0.062780 -0.021097 0.159074 -0.157763 0.218843 -0.019911 0.031069 -0.029963 -0.107627 0.092807 -0.036797 -0.130332 -0.017578 -0.118401
|M327+M059| 0.061922 -0.080057 -0.136149 -0.047044 0.153375 -0.122016 0.185121 -0.088263 0.114263 -0.051140 -0.101250 0.082553 -0.029347 -0.059563 -0.005889 -0.081875
|M370+M388+M370| -0.035014 -0.017411 -0.087451 -0.086495 0.159952 -0.238493 0.259674 -0.101032 0.067445 -0.073605 -0.142816 0.087169 -0.036102 -0.178020 -0.015025 -0.139031
M006@G -0.030153 -0.027061 -0.105649 -0.082963 0.179183 -0.264705 0.331824 -0.054749 0.060087 -0.064230 -0.186100 0.133408 -0.006400 -0.151867 -0.001988 -0.138991
M047 -0.031798 -0.103457 -0.098857 -0.093144 0.153849 -0.195539 0.198750 -0.078148 0.097721 -0.085112 -0.163541 0.155080 0.004044 -0.115202 -0.011382 -0.070758
M058 -0.074150 -0.087013 -0.075324 -0.025768 0.079323 -0.221357 0.272470 0.005836 0.036125 -0.015545 -0.089555 0.138710 -0.010252 -0.089641 -0.055080 -0.098070
M075~G 0.008992 -0.037140 -0.106427 -0.059791 0.133754 -0.176251 0.266143 -0.082098 0.039674 -0.025909 -0.101664 0.072712 0.027781 -0.090659 -0.017590 -0.085431
M080~A -0.032112 0.026849 -0.018730 -0.037014 0.079320 -0.147902 0.196740 0.022773 -0.004356 -0.049812 -0.089148 0.053404 0.016074 -0.106628 0.053192 -0.052953
M103 -0.038177 -0.059401 -0.059216 -0.017046 0.107861 -0.116497 0.146892 -0.066079 0.029312 -0.012366 -0.123359 0.098824 0.030253 -0.050287 -0.030690 -0.099260
M147~E -0.026490 -0.075984 -0.016591 -0.123696 0.204597 -0.340233 0.365047 0.077217 0.074824 -0.056370 -0.181033 0.090110 0.107118 -0.321972 0.013629 0.021258
M205~C -0.022435 -0.078919 -0.101511 -0.107897 0.181935 -0.187559 0.364192 -0.047962 0.113720 -0.080470 -0.185850 0.097062 0.000935 -0.160733 0.029210 -0.156050
M208 0.017159 -0.034402 -0.060853 -0.145394 0.146613 -0.171390 0.324318 -0.060371 0.057866 -0.109096 -0.191211 0.089554 0.027082 -0.124193 0.027621 -0.159376
M210 -0.006496 -0.107451 -0.125455 -0.132177 0.210650 -0.312210 0.386465 -0.103268 0.092134 -0.058418 -0.218073 0.161368 0.052996 -0.230914 -0.054341 -0.218507
M210~D 0.038044 -0.085270 -0.112805 -0.140140 0.125754 -0.289253 0.214653 -0.030305 0.075725 -0.095346 -0.189975 0.138788 -0.028134 -0.186769 -0.035008 -0.077652
M226~C -0.091484 0.015930 -0.038182 -0.018237 -0.001054 -0.074960 -0.040613 0.029359 0.007521 0.044648 -0.027376 0.021535 0.048147 -0.077063 0.038124 0.019591
M251~C -0.077055 -0.027692 -0.036501 0.047769 0.104249 -0.012520 0.162720 -0.009755 0.050110 0.002161 -0.082604 0.072455 0.045299 -0.045339 -0.018567 -0.092692
M254~C -0.006018 -0.066453 -0.036201 -0.078688 0.139759 -0.126151 0.279065 -0.104309 0.040677 0.010597 -0.150453 0.089244 0.031716 -0.131278 -0.003681 -0.123179
M261~B1 0.045311 -0.001317 -0.035083 -0.064722 0.053677 -0.028888 0.039781 -0.004543 0.058360 -0.025776 -0.035787 0.045014 -0.013808 -0.023663 0.053037 -0.045880
M311~B 0.005363 -0.106700 -0.168220 -0.181845 0.249222 -0.310414 0.394022 -0.077596 0.090738 -0.125515 -0.198052 0.137429 0.002472 -0.229065 -0.069098 -0.170441
M312 -0.019976 -0.022388 -0.085388 -0.104615 0.107116 -0.127505 0.206541 -0.042240 0.054818 -0.075207 -0.105034 0.132155 -0.000958 -0.101291 0.014471 -0.104487
M318 -0.161202 0.024718 -0.060974 -0.013650 -0.017251 0.071162 0.069321 -0.069869 0.035443 0.053728 0.009081 0.062221 0.124028 0.124334 -0.080098 -0.018307
M367~G -0.003584 0.006534 -0.029594 -0.035968 0.026901 -0.066598 0.083690 0.005158 0.026685 -0.022974 -0.056068 0.014359 -0.021264 -0.066605 0.008736 -0.070396
M367~I 0.035537 -0.023817 -0.058807 -0.140252 0.098708 -0.146072 0.251361 -0.073247 0.072243 -0.067374 -0.164218 0.133265 0.030288 -0.147914 -0.036804 -0.111455
M383 0.025699 -0.113659 -0.203220 -0.115696 0.226969 -0.313790 0.370903 -0.088406 0.174570 -0.098097 -0.231960 0.181588 0.005331 -0.253498 -0.032995 -0.199728
M418~C 0.005395 -0.014078 -0.032521 0.008475 -0.015150 -0.039348 -0.004964 0.009086 -0.007479 0.037612 0.016968 -0.015574 -0.031730 -0.018940 0.027834 -0.048848
|M175+M136| -0.007718 -0.127928 -0.133737 -0.127709 0.188958 -0.301437 0.281724 -0.112563 0.088466 -0.107924 -0.136484 0.179814 -0.022052 -0.175954 0.010741 -0.140592
|M370+M046+M370| -0.005213 -0.004955 -0.039775 -0.112390 0.108226 -0.154543 0.233197 -0.083832 0.058203 -0.020725 -0.113918 0.082760 -0.000324 -0.088602 0.031198 -0.073058
|M377+M377| 0.014385 -0.025650 -0.107331 0.024566 0.103724 -0.070196 0.019217 -0.084379 0.043823 0.031060 -0.061234 0.090588 -0.023079 -0.014024 -0.027768 -0.087705
M003~C -0.082308 -0.072955 -0.100733 -0.034076 0.110582 -0.053193 0.214587 -0.076474 0.095171 -0.034407 -0.152636 0.090145 0.111777 -0.006966 -0.035158 -0.081239
M057~A2 0.032210 -0.098628 -0.004123 -0.082676 0.028950 -0.112981 0.134677 -0.049993 0.033976 -0.057027 -0.073683 0.077816 -0.006316 -0.025617 -0.060375 -0.083085
M057~A4 -0.010913 -0.080565 -0.106343 -0.110064 0.148972 -0.206901 0.213313 -0.022002 0.110302 -0.070445 -0.191608 0.142723 0.060635 -0.129133 -0.002079 -0.105592
M103~3 0.015604 -0.012958 -0.068154 -0.081979 0.037099 -0.159395 0.167130 0.014771 0.005928 -0.067213 -0.067282 0.115346 0.053460 -0.078164 -0.007494 -0.058565
M110~A -0.035150 -0.014642 -0.061440 -0.084317 0.033854 -0.127702 0.181406 -0.012178 0.048952 -0.016651 -0.113474 0.096052 0.026501 -0.055738 -0.028514 -0.023364
M115~A 0.004509 -0.099369 -0.099763 -0.114773 0.113425 -0.183574 0.302255 -0.073180 0.125897 -0.025520 -0.100051 0.065489 0.012019 -0.113217 -0.067205 -0.087194
M146~D -0.043925 -0.069725 -0.105514 -0.138238 0.159963 -0.255511 0.304350 -0.025320 0.091479 -0.111424 -0.176466 0.137357 -0.003832 -0.179165 -0.005260 -0.077359
M149~A1 0.089823 -0.064772 -0.049250 -0.080185 0.103288 -0.180589 0.160348 -0.059779 0.031879 -0.045391 -0.084717 0.074981 0.012568 -0.134247 -0.030518 -0.093086
M195~D 0.008412 -0.091988 -0.037356 -0.048210 0.032604 -0.079646 -0.023143 -0.014378 0.025104 -0.030279 -0.040175 0.078598 -0.003574 -0.076259 0.011489 0.041096
M206~B 0.069890 -0.073167 -0.102549 -0.130733 0.229971 -0.314200 0.320232 -0.079122 0.152644 -0.014571 -0.258078 0.106923 -0.009777 -0.191497 -0.009014 -0.165893
M246~B 0.028863 -0.028605 0.011099 -0.117601 0.149621 -0.126091 0.197582 -0.010310 0.084858 -0.062146 -0.149307 0.008634 -0.069670 -0.086559 0.015047 -0.081394
M263~E 0.049696 -0.141669 -0.068032 -0.081027 0.184175 -0.186341 0.224042 -0.061119 0.112997 -0.046154 -0.108488 0.096233 -0.012046 -0.163238 -0.022934 -0.133665
M264~D -0.016882 0.010037 -0.074039 -0.059805 0.096197 -0.184206 0.219104 -0.084944 0.070675 -0.080708 -0.113150 0.069176 0.030302 -0.125491 -0.044125 -0.142205
M281~C 0.001637 -0.007818 -0.049335 -0.037409 -0.053293 -0.066833 0.091317 0.068805 0.042193 -0.038858 -0.045821 0.051730 0.029892 0.014014 0.009673 0.045279
M285~C 0.030270 -0.005904 -0.013106 0.048019 -0.035074 0.075796 -0.069457 -0.004636 -0.015684 0.066461 0.086058 -0.036739 0.008884 0.069388 -0.027582 0.010864
M309~D 0.040509 -0.087968 -0.100517 -0.076817 0.179930 -0.148292 0.192140 -0.043689 0.067281 -0.052609 -0.119058 0.085292 0.007331 -0.116112 -0.023788 -0.118847
M317~A -0.006587 0.003038 -0.132606 -0.084308 0.143599 -0.164650 0.203005 -0.029217 0.084410 -0.064050 -0.131291 0.125693 0.010984 -0.107926 -0.057222 -0.085266
|M153+X| 0.023714 -0.004724 -0.101179 -0.089238 0.065726 -0.143588 0.163052 -0.028951 0.084736 -0.024534 -0.085574 0.051431 -0.044304 -0.090067 -0.007184 -0.065067
|M218+M101| -0.116120 0.076375 -0.007580 -0.037603 0.087305 -0.064781 0.197876 -0.103779 -0.031521 0.016453 -0.070135 0.088547 0.028455 -0.041364 -0.012601 -0.110046
M010~1 -0.036319 -0.065884 0.002424 -0.083105 0.026299 -0.112137 0.185683 0.007316 -0.001187 -0.078590 -0.134569 0.016531 -0.011257 -0.102194 0.028740 -0.108103
M010~6 -0.010472 0.003063 -0.046428 0.005841 0.047905 -0.025804 -0.016029 0.015765 0.003347 0.014867 0.013515 -0.002153 0.023013 -0.002021 -0.033714 -0.023802
M038~A2 0.009546 -0.029566 -0.053831 -0.076555 0.039105 -0.137016 0.131175 0.003907 0.030605 -0.038672 -0.046177 0.039156 -0.020708 -0.002708 -0.041862 -0.025843
M038~B1 -0.000716 -0.065069 -0.129166 -0.101606 0.114258 -0.261640 0.328462 -0.091086 0.103769 -0.064850 -0.151350 0.121874 0.041532 -0.114074 -0.028315 -0.137892
M049~D 0.006427 -0.047549 -0.050744 -0.061495 0.079034 -0.145467 0.208356 -0.038048 -0.026727 -0.027983 -0.020133 0.021126 0.027529 -0.080284 0.010869 -0.065293
M075~M -0.033153 -0.137006 -0.139782 -0.141439 0.274680 -0.320141 0.442612 -0.078882 0.114269 -0.051096 -0.229064 0.136964 -0.024683 -0.237533 -0.054061 -0.152614
M075~O 0.040189 0.017511 0.013151 -0.007702 0.006812 -0.044132 0.040484 0.024954 -0.012238 -0.003211 0.034408 -0.038331 -0.015517 0.003063 0.018074 0.017042
M096~D 0.001688 -0.006120 -0.073173 -0.059758 0.113324 -0.126264 0.202483 -0.040302 0.040604 -0.038665 -0.101543 0.117388 0.065698 -0.058146 -0.027241 -0.103885
M110~B -0.076015 -0.057252 -0.140083 -0.090413 0.112598 -0.056856 0.147580 -0.069755 0.066673 -0.010646 -0.052016 0.132986 0.041356 -0.085355 -0.036982 -0.122761
M112 0.058776 -0.088114 -0.181057 -0.171388 0.215112 -0.375194 0.463398 -0.105811 0.120183 -0.108951 -0.247375 0.143260 0.030288 -0.237223 0.020420 -0.230343
M128~D -0.001527 -0.006036 -0.041958 -0.056054 0.143396 -0.373303 0.387577 -0.005947 -0.023854 -0.146918 -0.172117 0.170556 0.055675 -0.236550 0.003932 -0.101824
M143 0.004681 -0.042130 -0.107126 -0.082967 0.140812 -0.247071 0.250699 -0.062864 0.021235 -0.046760 -0.146530 0.107332 -0.028067 -0.127452 -0.023318 -0.132970
M158~H 0.000951 -0.026077 -0.105604 -0.021660 0.126426 -0.142048 0.143313 0.000605 0.067665 -0.032067 -0.069691 0.085988 -0.002571 -0.134975 -0.026819 -0.159468
M180 0.004193 -0.019779 -0.031236 -0.035610 0.103610 -0.103408 0.108341 -0.034069 0.022126 -0.017204 -0.082582 -0.007928 0.000032 -0.110026 -0.011072 -0.075168
M193 0.008633 -0.085194 -0.126841 -0.117490 0.159105 -0.237567 0.245568 -0.074257 0.082831 -0.061261 -0.151351 0.132298 0.071264 -0.240549 -0.006102 -0.131470
M243 -0.014569 -0.059832 -0.067093 -0.079919 0.178987 -0.231199 0.311764 -0.067819 0.106900 -0.036825 -0.147599 0.150507 -0.018740 -0.144285 -0.024146 -0.137979
M246 0.033646 -0.035042 -0.067533 -0.082549 0.207783 -0.233837 0.377583 -0.052981 0.007478 -0.066586 -0.126684 0.125601 0.019509 -0.199913 -0.043199 -0.136927
M288~I 0.095807 -0.052416 -0.022856 -0.063425 0.069706 -0.151019 0.048100 -0.062999 0.044787 -0.046270 -0.099533 -0.015421 -0.030058 -0.090836 0.036853 -0.079803
M294~A -0.001790 -0.004864 0.010199 -0.064141 0.056139 -0.009339 0.023762 0.008735 -0.007711 -0.003057 -0.013362 0.071779 0.009671 -0.036593 0.004644 -0.056309
M298 0.046777 -0.041101 -0.055607 -0.080417 0.140178 -0.229120 0.227332 -0.094277 0.044637 -0.050151 -0.139267 0.108202 -0.012131 -0.150672 -0.021852 -0.126518
M309 0.025580 -0.032829 -0.043597 -0.004850 0.048561 -0.040572 0.045469 -0.010189 0.009816 -0.012249 -0.052363 0.016461 0.037369 -0.081629 -0.012349 -0.036983
M346~D -0.028201 0.015178 -0.026170 0.024058 -0.001708 0.044771 0.059554 0.004685 0.022983 -0.009799 -0.041999 -0.039273 -0.009118 -0.001899 0.000202 0.021818
M356 -0.010064 -0.111668 -0.075016 -0.154639 0.153791 -0.240685 0.279056 -0.080043 0.095020 -0.068418 -0.152747 0.083144 0.033810 -0.184625 -0.030665 -0.165408
M376~B 0.020379 -0.101930 -0.101294 -0.151898 0.159563 -0.279778 0.294752 -0.091656 0.076874 -0.048576 -0.218248 0.150641 0.020777 -0.182873 -0.020059 -0.155773
M379~C 0.012133 -0.022925 -0.016724 -0.064813 0.056373 -0.141184 0.139506 -0.006495 0.015827 -0.013555 -0.114530 0.057623 0.020518 -0.027984 0.019591 -0.076123
|M036+N39C| -0.058922 0.009041 -0.089508 -0.027637 0.088462 -0.097438 0.122210 0.000371 0.092879 -0.021355 -0.067015 0.049612 -0.010516 -0.068165 -0.023828 -0.107638
|M175+M175| 0.028891 -0.094602 -0.098915 -0.120331 0.118617 -0.226128 0.269339 -0.052147 0.057828 -0.065779 -0.098800 0.068328 0.032154 -0.134210 -0.024926 -0.124864
|M218~D+M288| 0.008621 -0.031697 -0.052068 -0.119480 0.141459 -0.148901 0.249082 -0.028375 0.065067 -0.047505 -0.144991 0.065857 -0.043106 -0.150196 -0.009099 -0.102383
|M260~1+N24| 0.042614 -0.054048 -0.116178 -0.170811 0.173807 -0.232735 0.375419 -0.085350 0.096462 -0.078200 -0.190851 0.112235 -0.033769 -0.189207 -0.034300 -0.179323
|M260~2+N24| -0.005344 -0.065907 -0.117455 -0.166334 0.202237 -0.251027 0.335375 -0.069133 0.046865 -0.054861 -0.165488 0.155180 0.082647 -0.116943 0.014198 -0.156137
M016 -0.007050 -0.055350 -0.047295 -0.144439 0.126903 -0.196996 0.282318 -0.129267 0.042168 -0.045957 -0.124141 0.069649 0.001152 -0.051498 -0.070574 -0.126893
M024~A1 -0.034521 -0.048125 -0.073823 -0.105961 0.105986 -0.105011 0.243545 -0.042485 0.035009 -0.073030 -0.076222 0.142835 -0.002799 -0.089112 0.002608 -0.109354
M037 0.032417 -0.101147 -0.102715 -0.115029 0.231535 -0.284503 0.300163 -0.131317 0.129803 -0.098135 -0.179540 0.125176 0.027607 -0.201916 -0.028953 -0.218292
M038~I -0.023440 -0.043992 -0.076031 -0.121452 0.135684 -0.207167 0.281998 -0.081585 0.098748 -0.109260 -0.128050 0.075408 -0.010297 -0.077594 -0.033541 -0.142895
M048~E 0.009943 -0.095680 -0.082609 -0.121245 0.206597 -0.243965 0.275377 -0.034780 0.099821 -0.049285 -0.201988 0.148492 0.006180 -0.209298 -0.014648 -0.151304
M048~I -0.015193 -0.050476 -0.107088 -0.174462 0.137592 -0.182890 0.221427 -0.050276 0.098523 -0.083925 -0.113432 0.163158 0.013485 -0.112841 -0.058579 -0.120492
M059~D 0.000142 -0.031667 -0.082917 -0.082047 0.094125 -0.126001 0.245725 -0.052706 0.045205 -0.013204 -0.102452 0.099209 0.001296 -0.131361 -0.002665 -0.121406
M075~K 0.015094 0.006018 -0.023303 -0.010934 0.021795 -0.046437 0.035819 0.002386 -0.001918 -0.029765 -0.050701 -0.006600 0.048616 -0.019138 0.019853 0.018938
M103~2 0.011738 -0.039734 -0.069102 -0.057834 0.004805 -0.024473 0.046335 -0.008227 0.031656 -0.021600 -0.002111 0.064511 0.056081 0.004320 0.013718 0.034864
M105 0.036010 -0.041855 -0.073843 -0.043973 0.152861 -0.180703 0.262982 -0.032852 0.048100 -0.049042 -0.098982 0.105391 -0.012966 -0.134986 -0.011590 -0.139585
M111 0.025438 -0.020831 -0.055420 -0.075237 0.122659 -0.191456 0.228288 -0.029620 0.072182 -0.040692 -0.093056 0.022153 0.000274 -0.128829 0.016686 -0.029296
M123~B 0.033772 -0.082892 -0.113776 -0.196928 0.199955 -0.194686 0.342950 -0.083365 0.116831 -0.108181 -0.173863 0.113359 0.019864 -0.129926 -0.029318 -0.165652
M126 -0.035015 -0.085052 -0.096447 -0.077073 0.132918 -0.201832 0.272220 -0.084490 0.079324 -0.055618 -0.128347 0.136188 0.012783 -0.129162 -0.008354 -0.089903
M131~K 0.005938 -0.087588 -0.046982 -0.141951 0.127966 -0.222998 0.285016 -0.021195 0.041450 -0.053191 -0.171092 0.072716 -0.014244 -0.160191 0.034566 -0.107348
M136~A 0.023242 -0.110544 -0.117677 -0.101937 0.148844 -0.239950 0.251729 -0.076950 0.082224 -0.031842 -0.173001 0.077921 0.010296 -0.150856 -0.020113 -0.164086
M136~Q 0.015270 -0.033384 -0.023007 -0.035458 -0.000674 -0.003760 0.046213 -0.006504 -0.003149 0.017425 -0.038456 -0.042468 -0.010635 0.018818 0.011512 0.027164
M158 -0.009692 -0.089186 -0.087278 -0.166899 0.155196 -0.239284 0.308054 -0.085078 0.018577 -0.083172 -0.161428 0.169427 0.016890 -0.158397 -0.035434 -0.167673
M176 0.020541 -0.079310 -0.086992 -0.111893 0.128663 -0.187027 0.190191 -0.040207 0.021695 -0.089298 -0.154420 0.061934 0.010856 -0.144774 -0.055340 -0.135933
M206~FA -0.004880 -0.047695 -0.101664 -0.075933 0.110268 -0.165353 0.232883 -0.061007 0.062042 -0.088467 -0.129769 0.094492 -0.023842 -0.182160 -0.023698 -0.131061
M207~M -0.011246 -0.080270 -0.063269 -0.138423 0.108680 -0.200478 0.262772 -0.058308 0.047925 -0.077578 -0.142000 0.135756 0.013553 -0.098000 0.027317 -0.120414
M209~D -0.047325 -0.015934 0.008440 -0.006548 -0.010471 0.013856 0.066753 0.026275 0.006945 0.033420 -0.024568 0.014871 0.017848 -0.009206 -0.000046 -0.024409
M243~E 0.005449 -0.161917 -0.194551 -0.207977 0.188959 -0.340021 0.386995 -0.133388 0.118879 -0.085416 -0.249303 0.211425 0.034126 -0.245656 0.014399 -0.226217
M244 -0.034579 -0.041841 -0.142692 -0.176335 0.285970 -0.345196 0.421625 -0.099637 0.041177 -0.127760 -0.220038 0.223246 0.006378 -0.263376 -0.048513 -0.252990
M248~A 0.018514 -0.057655 -0.046616 -0.176614 0.226754 -0.255642 0.361103 -0.151883 0.080642 -0.098489 -0.175130 0.137226 0.034734 -0.169668 -0.020071 -0.194650
M252~Q 0.018270 -0.105858 -0.136068 -0.146594 0.213596 -0.256970 0.393080 -0.133490 0.074069 -0.098438 -0.213962 0.166238 0.015445 -0.172014 -0.032224 -0.222108
M264~A1 -0.025651 -0.105842 -0.077851 -0.078841 0.184627 -0.263832 0.371255 -0.134487 0.066722 -0.093686 -0.232148 0.126323 0.041429 -0.177110 -0.027625 -0.176826
M277 0.012099 -0.053044 -0.106909 -0.085433 0.158771 -0.157871 0.172459 -0.046228 0.045713 -0.056051 -0.154854 0.082288 -0.034015 -0.157542 0.018810 -0.115404
M288~D 0.047539 -0.087150 -0.091856 -0.159056 0.239429 -0.269512 0.374962 -0.064556 0.062383 -0.098707 -0.228865 0.110852 0.038322 -0.223572 -0.046701 -0.155996
M292~C 0.008683 -0.026195 -0.051138 -0.117532 0.082304 -0.171470 0.261604 -0.035981 0.083486 -0.058651 -0.179455 0.163652 0.035622 -0.093221 -0.001619 -0.102171
M292~I -0.037137 -0.027790 -0.116329 -0.145896 0.122782 -0.179582 0.288530 -0.051917 0.079196 -0.071781 -0.188635 0.169817 0.006220 -0.205130 -0.041117 -0.111701
M319~C 0.023307 -0.131207 -0.215972 -0.176131 0.296423 -0.374382 0.444135 -0.128439 0.136250 -0.122745 -0.277812 0.182203 0.026711 -0.270213 -0.015994 -0.259695
M321 0.038215 -0.022713 -0.038462 -0.082318 0.104109 -0.189113 0.225836 -0.019709 0.063301 -0.035299 -0.094589 0.105129 -0.044103 -0.123182 0.017833 -0.079222
M324~D 0.022877 -0.027642 -0.045932 -0.025062 0.079405 -0.092307 0.112260 -0.049563 0.081318 -0.012330 -0.123116 0.020846 -0.021108 -0.086540 -0.020539 -0.086114
M342 -0.000945 -0.085320 -0.026176 -0.048440 0.100129 -0.086945 0.075154 -0.048324 0.071903 -0.000020 -0.105841 0.050233 0.019190 -0.092691 -0.009460 -0.083591
M352~C 0.005459 -0.035602 0.013292 -0.024968 0.012918 -0.055659 0.048761 -0.007300 -0.006754 0.012159 -0.047162 0.000255 -0.020262 -0.035307 0.002105 -0.023297
M352~S 0.086116 -0.050358 -0.100168 -0.045441 0.123271 -0.131735 0.129290 -0.045320 0.041419 -0.059680 -0.080663 0.018298 -0.026400 -0.113102 -0.027595 -0.123428
M359 -0.001969 -0.021303 -0.123352 -0.149538 0.166622 -0.249950 0.352680 -0.077417 0.114737 -0.101427 -0.162361 0.093255 0.035961 -0.197950 0.008828 -0.136480
M362+X 0.000809 -0.039853 -0.103432 -0.153118 0.250837 -0.335167 0.369529 -0.097308 0.070018 -0.084215 -0.228990 0.205276 -0.008008 -0.178775 -0.013089 -0.161953
M387~H 0.024615 -0.065927 -0.127424 -0.145218 0.171655 -0.309993 0.436471 -0.077662 0.146846 -0.122173 -0.196972 0.184183 0.012348 -0.154315 -0.014101 -0.189975
M418~B 0.012107 -0.071418 -0.047507 -0.064757 0.159914 -0.145749 0.183538 -0.068791 0.019392 -0.006020 -0.076749 0.106954 0.013042 -0.179944 -0.037120 -0.107355
|M157+M288| 0.046951 -0.049807 -0.107187 -0.053854 0.042615 -0.054201 0.011621 -0.084717 0.067267 -0.026397 -0.015062 0.081136 0.015635 -0.070535 -0.011656 -0.100029
|M175+M153| -0.031330 -0.073980 -0.063007 -0.098853 0.162815 -0.144209 0.250329 -0.032240 0.054552 -0.010924 -0.120988 0.067678 -0.005165 -0.060744 -0.006590 -0.075379
|M195+M038| 0.019309 -0.137699 -0.091480 -0.185873 0.189854 -0.323389 0.371384 -0.111465 0.111043 -0.097888 -0.242004 0.145038 -0.036429 -0.178967 -0.055391 -0.195742
|M218+X| -0.000714 -0.068423 -0.130918 -0.145713 0.146258 -0.203045 0.283954 -0.090038 0.069889 -0.064696 -0.155317 0.141690 0.048579 -0.172712 -0.016066 -0.148320
|M260+N24| 0.032014 -0.064424 -0.057154 -0.104121 0.135960 -0.229870 0.339936 -0.073629 0.106698 -0.076478 -0.189366 0.126204 0.028353 -0.133486 -0.024094 -0.151238
|M305+M009| 0.031526 -0.086739 -0.091653 -0.111925 0.125458 -0.101046 0.214483 -0.055225 0.076431 -0.006661 -0.123699 0.059603 0.023957 -0.162259 -0.035282 -0.143236
|M305+M320| 0.014986 -0.031824 -0.073618 -0.127058 0.105882 -0.172890 0.205114 0.003126 0.116416 -0.102081 -0.135805 0.132371 -0.026258 -0.189770 -0.054924 -0.071828
|M351+X| -0.024626 0.024092 -0.030784 -0.008148 -0.025919 -0.002626 -0.007402 -0.019042 0.031219 -0.015035 -0.016868 -0.020261 -0.041554 0.000908 0.028666 0.027328
M038~B 0.035090 -0.004923 -0.011656 -0.032487 0.047662 -0.059227 0.076579 0.005519 -0.009244 -0.041134 -0.041793 0.027009 -0.012002 -0.028121 -0.019978 -0.098568
M039~A -0.016646 -0.096988 -0.125049 -0.112274 0.226642 -0.281598 0.424544 -0.121941 0.079638 -0.106282 -0.220741 0.184313 0.001465 -0.250263 -0.012836 -0.189100
M039~C -0.037647 -0.066324 -0.073032 -0.108537 0.191930 -0.265633 0.333403 -0.035638 0.095300 -0.109552 -0.197379 0.158502 0.022661 -0.142476 -0.004013 -0.193121
M041~J 0.006482 -0.078151 -0.103960 -0.168338 0.164255 -0.289252 0.431894 -0.087364 0.121856 -0.067400 -0.230197 0.102675 0.062786 -0.224206 -0.034468 -0.187704
M052~A 0.052032 -0.053942 -0.091912 -0.063907 0.159656 -0.189578 0.203361 -0.057595 0.077120 -0.041653 -0.137672 0.037256 -0.011836 -0.124261 -0.017866 -0.134405
M054~C 0.011229 -0.078449 -0.102052 -0.114661 0.128746 -0.183081 0.227145 -0.073575 0.012513 -0.045370 -0.124754 0.067442 0.020672 -0.132330 0.026312 -0.120131
M064~A 0.004321 -0.032970 -0.095338 -0.088248 0.109656 -0.200623 0.242896 -0.110734 0.091604 -0.061334 -0.128532 0.075399 0.014939 -0.156532 -0.034481 -0.140065
M073~A 0.014227 -0.110355 -0.107465 -0.110313 0.206984 -0.250867 0.315310 -0.036954 0.093252 -0.042413 -0.192749 0.185891 0.009151 -0.217702 -0.028843 -0.134984
M080~B 0.053555 -0.042896 -0.053295 -0.184786 0.176753 -0.251229 0.326088 -0.061244 0.080800 -0.085030 -0.187474 0.110445 -0.022569 -0.158385 -0.033942 -0.135406
M086 0.001350 -0.066556 -0.131752 -0.159095 0.204113 -0.255930 0.364718 -0.122550 0.125146 -0.052638 -0.237514 0.103978 0.040457 -0.209822 -0.061191 -0.209956
M096~1 -0.006571 -0.068232 -0.075538 -0.111689 0.156139 -0.204665 0.181815 -0.008173 0.129911 -0.044161 -0.149249 0.070593 -0.013399 -0.180464 -0.014576 -0.139324
M097~F 0.025864 -0.068328 -0.139604 -0.169590 0.214555 -0.313655 0.356882 -0.136577 0.077376 -0.111270 -0.225027 0.152274 0.018595 -0.197449 0.029156 -0.181027
M102~DA 0.043301 -0.044317 -0.055316 -0.011439 0.102468 -0.131123 0.166591 -0.075836 0.072508 -0.066969 -0.132284 0.091380 -0.011796 -0.100339 -0.032751 -0.082883
M125~A 0.064930 -0.113681 -0.161463 -0.128647 0.226456 -0.308765 0.238548 -0.066627 0.102917 -0.071600 -0.188291 0.157979 -0.001278 -0.191656 -0.076003 -0.155789
M136~R -0.025955 0.014900 -0.070899 -0.046920 0.143245 -0.120919 0.116695 -0.006543 0.009617 -0.011110 -0.076717 0.036378 0.022038 -0.127845 -0.002542 -0.054066
M145~BB 0.015419 0.006074 -0.004967 -0.029146 0.012711 -0.014325 0.005044 0.025890 0.021080 -0.010115 -0.037769 -0.026018 -0.006915 0.001513 0.012826 -0.044796
M147~D 0.039843 -0.016892 -0.060900 -0.109722 0.172464 -0.204334 0.323585 -0.053890 0.070109 -0.077279 -0.128239 0.128829 0.011035 -0.145135 0.019727 -0.141470
M150~A -0.017739 -0.093853 -0.060068 -0.059990 0.135956 -0.121805 0.097441 -0.001097 -0.000073 -0.067933 -0.019573 0.029086 0.035673 -0.096852 0.047284 0.003545
M180~B -0.026039 -0.017828 -0.094341 -0.077512 0.113258 -0.100632 0.090665 -0.049963 0.001640 0.006840 -0.071234 0.067214 -0.009824 -0.079864 0.003792 -0.076994
M206~F -0.023799 0.022543 0.017654 -0.010079 -0.008506 -0.033834 0.035585 0.007974 0.026607 0.028124 -0.001712 0.026907 -0.026614 -0.009447 -0.012068 -0.029455
M224 0.023763 -0.022086 -0.019594 -0.063321 0.092348 -0.115567 0.180226 -0.037554 0.014258 -0.044959 -0.097668 0.012576 -0.023110 -0.074095 0.006170 -0.097144
M242~D 0.016451 -0.129842 -0.083535 -0.114799 0.154109 -0.278457 0.255777 -0.084419 0.130532 -0.141447 -0.217697 0.083764 0.031657 -0.187882 -0.021467 -0.117940
M247~A 0.045557 -0.109821 -0.168794 -0.167762 0.248448 -0.347188 0.355296 -0.096608 0.124570 -0.097884 -0.250663 0.188062 0.066639 -0.237795 -0.057729 -0.156733
M248 0.000790 -0.062437 -0.050685 -0.073914 0.109407 -0.166673 0.160568 -0.072765 0.063556 -0.056697 -0.085417 0.059482 0.004828 -0.137424 -0.057480 -0.083453
M251 -0.047195 -0.075344 -0.086330 -0.125706 0.153176 -0.287462 0.360716 -0.134402 0.104760 -0.086241 -0.219400 0.149476 -0.015255 -0.214072 -0.072352 -0.157317
M271~CA -0.000978 -0.060733 -0.040766 -0.125902 0.106490 -0.092863 0.215855 -0.006855 0.037430 -0.034794 -0.126201 0.077801 0.000052 -0.120077 -0.000672 -0.049203
M278 0.004904 -0.039874 -0.068070 -0.123509 0.114466 -0.248783 0.358924 -0.045462 0.056048 -0.077921 -0.170872 0.114862 0.047385 -0.127294 -0.042337 -0.123321
M293~A 0.006678 -0.104298 -0.129366 -0.158673 0.169953 -0.255194 0.301790 -0.065990 0.103525 -0.101831 -0.225757 0.157439 0.057869 -0.183992 -0.025215 -0.132553
M293~B 0.034666 -0.027117 -0.077406 -0.131330 0.175802 -0.174344 0.326412 -0.067451 0.051996 -0.077623 -0.182595 0.098790 0.032000 -0.171992 -0.035870 -0.103563
M295~E 0.008852 -0.002059 -0.043978 -0.082008 0.062912 -0.083527 0.200804 -0.068582 -0.030858 -0.006904 -0.042186 0.054531 -0.016162 0.006427 -0.006699 -0.044267
M301~A -0.005698 -0.066523 -0.116061 -0.139475 0.120431 -0.215933 0.301849 -0.062331 0.106818 -0.097388 -0.162455 0.084462 0.040925 -0.166042 -0.046349 -0.166652
M318~A3 -0.044768 -0.016839 -0.029327 -0.108478 0.074671 -0.108350 0.256796 -0.139793 0.072004 -0.004670 -0.152542 0.129674 0.007545 -0.092438 -0.043776 -0.088157
M321~B 0.025420 -0.074550 -0.119211 -0.097422 0.140290 -0.134503 0.173975 -0.042006 0.059810 0.000751 -0.089650 0.069891 -0.014787 -0.127147 -0.025465 -0.119405
M323~I -0.009922 -0.064209 -0.019800 -0.076551 0.125334 -0.184900 0.249585 -0.041717 0.007853 -0.047683 -0.079308 0.039604 0.022303 -0.161846 -0.020051 -0.112141
M325~E 0.039157 -0.047606 -0.089136 -0.144684 0.150472 -0.239249 0.280496 -0.130602 0.066839 -0.086484 -0.196832 0.098844 0.001262 -0.179877 -0.014586 -0.177015
M361~A -0.014764 -0.072152 -0.151275 -0.197923 0.285535 -0.296974 0.423341 -0.133852 0.099575 -0.115354 -0.202898 0.194401 0.052705 -0.260104 -0.037880 -0.229922
M367~E -0.006137 -0.068957 -0.098693 -0.143683 0.098582 -0.220099 0.268599 -0.051063 0.057379 -0.065823 -0.154610 0.086065 -0.008563 -0.163135 0.002129 -0.107853
M370~C -0.005960 -0.046864 -0.138060 -0.140946 0.131551 -0.249051 0.327072 -0.094862 0.019475 -0.031644 -0.187008 0.109328 0.028146 -0.115955 0.028911 -0.158843
M371~A -0.033654 -0.022596 -0.089256 -0.086262 0.096411 -0.145590 0.169529 -0.006282 0.060293 -0.063011 -0.123465 0.061403 0.028062 -0.062419 0.025113 -0.106017
M383~E -0.031006 -0.057066 -0.070378 -0.146472 0.125774 -0.250880 0.306307 -0.048838 0.128383 -0.082580 -0.127832 0.092249 0.021172 -0.109594 -0.010106 -0.176570
M386 -0.004577 -0.073136 -0.056010 -0.132333 0.098011 -0.221906 0.304336 -0.116830 0.084334 -0.028461 -0.099380 0.079698 -0.002420 -0.116478 -0.008120 -0.126362
M417~F 0.016285 -0.123468 -0.150178 -0.162402 0.239321 -0.320093 0.391368 -0.092416 0.117470 -0.088760 -0.231491 0.177022 -0.006940 -0.209287 0.019282 -0.248172
|M054+M365+M054~I| -0.012844 -0.054702 -0.103362 -0.185175 0.252935 -0.268104 0.420396 -0.060612 0.120363 -0.106662 -0.257269 0.152901 0.025309 -0.211673 -0.031546 -0.214275
|M157+X| 0.045416 -0.077481 -0.139304 -0.164580 0.214260 -0.262702 0.435791 -0.066834 0.116344 -0.111423 -0.182763 0.134094 0.005159 -0.191782 -0.047097 -0.194044
|M351+3(N01)| -0.003222 -0.094068 -0.124940 -0.097404 0.119940 -0.205200 0.268627 -0.044237 0.119159 -0.042413 -0.132133 0.120781 -0.028338 -0.183601 0.041241 -0.161436
|M362+X| 0.000705 -0.017983 -0.070085 -0.055995 0.125289 -0.200618 0.284726 -0.045206 0.047915 -0.050923 -0.139428 0.139868 -0.014267 -0.084397 0.044861 -0.151898
<unk> 0.006422 -0.058252 -0.083731 -0.109640 0.139453 -0.193262 0.253903 -0.061818 0.067918 -0.059796 -0.143515 0.099982 0.008891 -0.137453 -0.014776 -0.126491
