? 32
SANGA~A 0.119570 -0.170608 0.150031 0.246170 0.039370 0.169858 0.173871 -0.025889 -0.073782 -0.173504 -0.018826 0.011871 0.148156 -0.002558 -0.097450 0.478063 0.133985 0.103230 -0.082002 -0.051316 0.306871 0.035970 0.071982 0.174646 0.254382 -0.129018 0.230622 0.237307 -0.016931 0.323515 0.164432 0.155523
SUHUR 0.012585 -0.259023 0.071077 -0.128049 -0.224800 -0.214308 -0.108189 -0.248184 -0.044080 0.290250 0.124459 -0.120361 -0.047296 0.033645 -0.122750 -0.124841 -0.051177 0.104285 0.141180 0.286368 0.196747 -0.274461 0.246367 -0.084000 -0.014387 0.104541 0.162652 0.230942 0.184315 0.236256 0.205210 0.267024
|DUG~BXN57| 0.011768 0.055554 0.047800 0.226584 -0.008527 -0.041150 0.167086 0.210818 0.156874 -0.238308 -0.078048 0.258352 -0.061359 -0.163214 -0.248306 0.101754 0.097513 0.250201 -0.154636 -0.021438 -0.195155 0.019892 -0.126207 0.354768 0.511068 -0.070539 -0.123155 0.107556 0.137634 -0.110743 -0.084571 0.066030
N46 -0.101980 0.142675 0.319323 -0.123297 -0.125023 -0.013258 0.097767 0.093145 0.095178 -0.321253 -0.017764 0.473081 -0.064419 0.080960 0.264980 -0.051045 -0.124139 0.192767 0.138338 0.142320 -0.085394 0.196500 -0.006582 0.209732 -0.141687 -0.040276 -0.084685 -0.187024 -0.075922 0.083689 0.325979 0.182623
N41 -0.189535 0.483705 0.291120 0.289779 0.003555 -0.100007 -0.046550 -0.222015 -0.016636 -0.084431 0.039510 -0.018400 -0.319322 -0.017348 0.059272 -0.177300 -0.109181 0.050414 -0.149077 0.129820 0.093595 0.019482 -0.051848 0.011588 0.112564 0.021042 0.000978 -0.027268 -0.150236 -0.206936 0.432176 0.147862
AB~A 0.265197 -0.063966 0.030707 0.442849 0.044564 -0.174080 -0.010730 -0.445324 0.202089 0.162068 -0.077646 -0.111754 0.063228 -0.076311 0.000837 0.046437 0.006052 0.157071 -0.109204 0.024931 0.308647 0.190610 0.126069 -0.120647 0.090589 -0.109402 -0.191117 0.073402 0.227336 0.069411 0.212300 0.192979
APIN~A -0.078083 -0.037797 0.157049 0.049474 0.213974 0.022033 0.258189 -0.033022 -0.287780 0.162361 -0.069144 0.083864 0.022951 -0.048740 -0.317231 0.078364 -0.227289 -0.240814 0.097047 0.007186 0.203723 -0.194883 0.009542 0.156156 0.328544 0.175429 0.148827 0.173780 0.175635 -0.094424 0.182626 0.365251
NUN~A 0.356588 0.097527 -0.089451 -0.052463 -0.125884 0.201974 0.114742 -0.153859 -0.016130 0.036792 -0.369057 -0.190048 -0.107701 -0.292978 0.232025 -0.057399 -0.297275 -0.133912 0.137091 0.089354 0.084901 0.143401 0.182103 0.114297 0.064563 0.033294 0.198147 0.273984 0.098488 0.164005 0.033557 0.257275
DU 0.137736 -0.076716 0.035153 0.052644 -0.264505 0.134032 0.090999 -0.114180 -0.528587 -0.133528 0.000138 0.039715 -0.074360 -0.084008 0.189515 0.155971 -0.261226 -0.223435 -0.194642 -0.080821 0.015747 0.300235 -0.011787 0.238872 -0.038144 0.095331 -0.228873 -0.144820 0.046015 0.063188 -0.098401 0.283532
N -0.234904 0.142396 -0.081616 -0.024759 -0.409493 0.148432 0.009838 -0.144693 0.019021 -0.080002 0.360680 -0.208709 0.228726 0.182053 0.050366 0.275313 -0.094188 -0.120664 0.126341 -0.269142 0.051633 0.098913 0.055657 0.203745 -0.068350 0.019046 0.042343 0.121487 -0.240566 0.312244 0.127114 0.017634
KA~A 0.065297 0.117559 -0.266715 0.013924 0.032332 -0.228959 -0.114761 -0.302203 -0.088312 -0.179682 0.133257 -0.044684 0.032128 0.133085 -0.412576 0.064298 0.129152 -0.120909 -0.139698 -0.047075 -0.121997 0.296021 -0.057097 -0.213519 0.039610 -0.042347 -0.422365 0.086051 -0.168575 0.041814 -0.145230 0.234256
KASZ~B -0.287086 0.006549 0.059916 -0.034254 -0.002329 -0.291483 -0.238246 0.219618 0.304610 0.149798 0.130029 -0.217098 0.270499 0.165205 0.060503 -0.009750 -0.070118 0.301217 -0.228586 0.073362 0.021104 -0.124343 -0.012160 0.214295 0.232782 -0.052826 0.104838 -0.045499 -0.043389 -0.195521 0.245638 0.231483
KASZ~A -0.141687 0.147707 0.020273 0.125820 0.062684 0.085958 -0.192849 -0.152906 0.093527 0.113492 -0.112056 0.129748 0.051274 0.285593 -0.050451 -0.311268 0.400248 0.015436 0.329366 -0.169213 -0.068346 -0.197083 -0.091231 0.128956 -0.219468 -0.299734 -0.012678 0.098681 0.020199 -0.083627 0.103078 0.321532
GI -0.000275 -0.084079 0.114067 -0.515139 0.012816 -0.267839 -0.214079 0.071803 0.179416 -0.164017 0.157126 -0.122407 0.119962 -0.002896 0.135107 0.200446 0.120999 -0.158276 0.161690 0.139145 -0.050043 0.128081 0.063972 0.012284 0.042824 -0.010606 0.140573 0.140010 -0.109796 0.434349 0.103621 0.242813
U4 -0.025290 -0.151966 -0.024049 -0.043283 0.225688 -0.093292 -0.086056 0.160525 -0.032088 0.113392 0.077969 0.001969 0.057416 0.175941 0.174643 0.275361 -0.080193 -0.039987 -0.005981 0.037888 0.027218 0.012058 -0.419719 0.315287 -0.378244 0.035895 -0.323041 0.307406 0.062249 0.178667 0.153746 0.178476
|U4XN01| -0.345862 -0.040879 0.044196 0.495421 -0.206646 0.189556 -0.309647 0.021230 -0.073583 0.169443 0.084953 -0.224860 -0.059314 0.073972 -0.071700 -0.150774 -0.142666 -0.018687 -0.118699 -0.016674 0.221388 -0.146989 -0.008834 -0.145467 0.023427 -0.029618 0.147979 -0.125399 0.154010 -0.216509 0.210589 0.216008
SAG 0.168442 -0.007230 -0.060153 0.029569 -0.475791 -0.022029 -0.051838 -0.082667 0.085268 -0.552632 -0.137627 0.085220 0.022924 -0.034584 0.253705 -0.052853 -0.037323 -0.032086 -0.175769 0.074215 0.031045 0.288276 0.073876 -0.001892 -0.149191 -0.084235 -0.068831 0.186131 -0.015864 0.269350 -0.042793 0.226318
|U4.N08| -0.075972 -0.003702 0.002216 0.103206 0.337040 -0.108690 0.169673 -0.402891 -0.100042 0.235310 0.079688 -0.034259 -0.138159 -0.426299 -0.082004 -0.030248 -0.176741 -0.274534 -0.106087 0.234577 0.204527 -0.150961 0.084305 -0.089843 0.127007 0.045038 -0.007882 0.108739 0.007528 -0.138521 0.254392 0.137788
|GI&GI| 0.115094 0.006910 0.111264 -0.216366 -0.099202 -0.001694 -0.485995 0.212327 -0.208652 0.238605 -0.054786 -0.030798 -0.124452 0.290100 -0.178470 -0.371280 0.066008 -0.004311 -0.072030 0.061210 0.133088 0.024918 0.184784 0.132311 -0.042503 -0.024676 -0.048220 0.255784 0.229045 0.027079 0.141967 0.189254
UR4~A 0.075557 0.040310 -0.066246 0.118718 0.156471 0.196585 0.001780 0.104218 -0.050718 -0.114822 0.159094 -0.057594 0.090319 -0.027083 -0.460226 0.156529 0.100295 0.097921 -0.240745 -0.003327 0.002128 -0.090055 -0.278472 0.228577 0.525414 -0.150570 -0.211564 0.173300 0.036331 0.013469 -0.025376 0.139326
ZATU759 0.061527 0.037080 -0.224891 0.355846 0.275567 -0.278710 0.251915 0.068591 -0.223290 0.130625 -0.037238 0.016509 -0.194143 0.179891 -0.245658 -0.002186 -0.303987 0.102324 -0.159454 -0.036155 -0.149628 -0.095298 -0.220843 0.153931 0.219045 0.029679 -0.009135 -0.144568 0.139192 -0.190535 -0.068812 0.181835
BAN~B -0.186560 -0.111083 -0.134453 -0.049849 -0.294050 0.223027 0.284675 0.022533 0.214877 -0.033586 -0.070827 0.280223 0.095681 0.197208 0.132154 -0.079981 0.151037 -0.102333 -0.467931 0.001693 -0.144670 -0.179837 0.182999 -0.232969 -0.198993 0.126887 -0.112582 0.052961 0.085565 -0.091081 -0.110328 0.139793
KASZ~C 0.056920 -0.022881 -0.027105 -0.424471 0.012495 -0.217391 -0.010679 0.069517 0.153299 -0.274917 0.134824 -0.151537 0.186134 0.557215 0.166745 0.031758 0.017929 0.003120 -0.043991 -0.277523 0.054819 -0.053444 0.047708 -0.017045 0.167923 0.123880 0.148471 -0.071455 -0.077362 -0.140987 -0.032533 0.251932
KI@N -0.196100 -0.015659 -0.214867 0.346963 0.193305 -0.241371 0.088862 0.330329 -0.079651 0.306971 0.031836 -0.049795 -0.130549 0.342050 -0.025984 -0.045772 -0.225669 0.115430 -0.030913 -0.124750 0.167282 -0.223471 -0.122096 -0.061813 0.140108 0.282550 0.080652 0.022586 -0.121570 -0.174560 -0.033798 0.104574
PAP~A -0.100427 -0.013976 -0.184335 0.049394 0.298132 -0.022982 0.077630 0.078408 0.139599 0.216577 0.035700 0.009537 -0.026414 0.022947 0.193555 -0.170324 -0.194858 -0.262831 0.231325 -0.105063 -0.175640 0.522458 0.042442 0.130301 0.181286 0.131743 0.330233 -0.075437 0.152431 0.154186 0.024205 0.097506
SZU 0.042362 0.358744 0.365332 0.016048 -0.097596 -0.155912 0.300497 -0.072505 0.462860 0.022687 -0.070433 0.071418 0.135306 -0.206472 0.122356 0.027693 -0.062541 0.089646 -0.130051 -0.203228 0.017144 -0.047147 -0.200238 0.110997 -0.036858 -0.053803 -0.027573 -0.191708 0.241010 0.176651 0.072574 0.208527
KI -0.019340 0.105085 -0.126565 -0.131491 -0.013157 0.203136 0.134303 0.183918 0.021812 0.090869 0.387868 -0.034589 0.176587 -0.241100 -0.120962 0.278774 0.098127 0.111857 -0.196735 0.076630 0.200219 0.359142 -0.029897 -0.037756 0.299766 -0.081966 0.062302 -0.011596 -0.138375 0.095775 0.002594 0.391043
AN -0.147552 0.037165 0.030675 0.004160 0.127249 -0.092138 0.037577 -0.039243 -0.207988 -0.083313 -0.076169 -0.014831 -0.176276 -0.050919 0.050372 -0.251351 0.018171 0.090875 0.075730 0.303735 0.244496 -0.244025 -0.222872 0.035850 0.207339 0.233581 -0.126519 -0.374461 -0.244495 0.397009 -0.046342 0.206084
EZINU~D -0.165471 -0.190958 -0.131934 0.083753 -0.236721 0.131632 -0.206756 -0.175857 0.034839 0.026536 -0.127057 0.266059 0.192025 0.015082 -0.014473 0.002472 0.062212 -0.296013 0.145444 -0.098873 -0.118924 -0.028769 -0.084482 0.103656 -0.136062 0.130955 0.055877 -0.164980 -0.256381 -0.320808 0.487056 0.106673
IDIGNA -0.221789 -0.150177 0.059252 0.067366 0.052080 0.410928 0.224196 0.113367 0.008107 0.014665 -0.077824 -0.116451 -0.082130 -0.054446 0.282580 0.168371 0.123815 -0.013353 -0.264768 0.298426 -0.110335 0.227228 0.313501 -0.240848 0.051916 -0.018463 -0.090244 -0.119092 0.038244 -0.097603 -0.199146 0.277367
ISZ~A -0.091315 -0.186741 0.167303 0.029722 0.088414 0.168191 -0.273086 -0.013555 -0.331245 -0.242077 -0.055169 0.040625 0.067585 0.235506 -0.129119 -0.098473 -0.154356 -0.117314 0.089244 -0.277311 0.029998 0.204149 -0.036362 0.081307 -0.225652 -0.462813 -0.040168 -0.154309 0.240708 -0.010860 -0.111410 0.153816
GIR3~C 0.196522 -0.347113 0.204622 0.110936 0.304081 -0.207081 0.173316 0.230622 0.002422 0.164723 -0.213892 0.018699 -0.186579 -0.251386 0.012017 -0.045372 -0.049273 -0.094490 -0.060196 -0.363070 -0.248602 -0.059787 -0.011556 -0.236399 -0.093126 0.143553 0.074504 -0.036505 0.060405 -0.111393 -0.161043 0.219870
KISIM~A 0.072860 -0.369335 0.334174 -0.389728 0.035709 -0.128907 -0.365275 -0.044164 -0.074401 0.061241 0.123181 0.146780 -0.259511 0.076324 -0.112104 -0.126825 0.033649 0.011015 -0.246620 -0.026683 0.055517 0.267703 0.093800 -0.074051 0.146013 -0.136302 -0.177045 -0.077337 0.207934 -0.023672 0.003203 0.144153
ZATU694~C -0.096365 0.453775 -0.150034 -0.328671 -0.240633 0.090869 -0.131547 0.094842 0.136462 0.258900 -0.133095 -0.044484 -0.004474 0.089952 0.029161 -0.100091 -0.013962 -0.155256 0.156204 0.059392 0.083458 -0.175475 0.179393 0.082629 0.096481 0.313496 0.094166 -0.145654 -0.217227 -0.168495 -0.150708 0.269309
TAR~A -0.196158 -0.155593 0.089805 0.188651 0.234021 0.103211 0.106413 -0.033274 0.006460 0.293725 -0.183333 -0.089555 -0.211422 -0.251861 -0.367038 0.035209 -0.110734 -0.491268 0.046900 0.022266 -0.033243 0.052081 -0.113854 0.050500 -0.053845 0.099766 0.156575 -0.158247 -0.049857 -0.009273 0.251447 0.199832
N01| -0.253316 -0.080340 0.271933 0.170235 -0.132720 0.220025 -0.151224 0.186785 -0.064620 0.176379 0.125370 -0.263126 0.080722 0.168914 -0.041745 -0.152477 -0.120698 0.215205 -0.107225 0.315895 -0.305568 0.005130 0.164358 -0.003273 0.113918 0.069268 -0.193677 0.032872 0.119380 -0.221350 0.276525 0.183621
N42~A 0.073015 -0.360855 -0.088439 -0.138310 -0.092208 0.001407 -0.001980 0.060175 -0.158237 -0.061711 -0.288554 -0.036723 0.015625 -0.102723 0.020636 0.058807 0.085723 0.042637 0.293642 -0.091743 0.029072 0.214356 -0.124229 0.024934 -0.143192 -0.007852 0.114894 -0.240018 -0.339836 -0.041153 0.565449 0.047819
N25 0.204231 -0.169034 -0.230104 -0.074446 0.067678 0.162896 0.033364 0.076243 -0.022652 -0.222239 -0.300513 0.076304 0.114677 -0.099074 -0.010671 -0.039857 0.170774 -0.043552 0.148383 0.023117 0.065881 0.143365 -0.043802 -0.039217 -0.017456 -0.042244 0.031536 -0.197900 -0.223425 -0.284997 0.629935 0.101545
U2~B 0.187596 0.078232 -0.091198 0.096271 -0.181150 -0.340154 -0.064956 -0.197260 -0.060505 0.071331 -0.096053 -0.408794 0.029703 0.134713 0.126343 -0.160329 -0.230622 0.316922 0.278150 0.018285 -0.049742 -0.061942 0.055256 -0.027876 -0.004037 0.011891 0.224595 0.112651 -0.294030 -0.179912 -0.138732 0.246653
RU 0.192634 -0.072406 0.272444 -0.075460 0.053791 -0.018985 -0.105244 0.091617 0.180573 -0.436006 0.146393 -0.144915 0.097846 -0.007132 0.125653 0.138358 0.127148 -0.128591 0.293085 0.148624 0.019891 0.238162 -0.032911 0.064228 -0.093083 0.062595 0.190079 0.189788 -0.235464 -0.085497 -0.276674 0.343891
RAD~A -0.198926 -0.182371 0.121013 0.256303 0.134922 0.489950 -0.169490 -0.159846 -0.021627 -0.180399 -0.036316 -0.297208 0.072303 -0.095828 -0.035509 0.041546 0.126240 -0.000391 0.144940 -0.154276 0.104239 0.165713 -0.200722 -0.288231 0.057524 0.300473 0.112683 0.038820 0.007271 0.004122 -0.106267 0.229438
SIG2~A1 0.152249 0.099710 -0.042690 0.012546 0.108639 0.098882 0.050487 0.145519 0.055657 -0.051343 -0.107227 -0.056696 0.199916 0.244982 -0.292772 -0.251651 -0.219306 0.252010 -0.146312 -0.108587 0.203468 -0.035195 0.273297 0.183000 -0.242302 -0.422099 -0.036831 -0.227043 0.174131 0.016702 0.001156 0.184707
URU~A1 -0.117580 -0.256233 0.150860 -0.136533 0.054901 0.243063 -0.017726 -0.049029 -0.127403 0.092178 0.194762 0.008761 -0.125932 -0.186859 0.008871 0.130263 0.307158 0.101966 0.447917 -0.126175 0.332646 -0.019262 -0.108723 -0.238460 0.210082 0.097327 0.112471 0.094319 -0.039701 -0.109148 -0.008132 0.306659
SZU2 -0.079597 -0.339811 -0.255035 -0.029181 -0.254948 0.338796 -0.146298 -0.268657 -0.019107 0.115780 0.146799 0.025620 0.353464 -0.148772 0.047853 -0.067053 -0.076962 0.158928 -0.047741 -0.181379 -0.179919 -0.098660 -0.300811 -0.128946 -0.114536 -0.012534 -0.115286 -0.002958 0.157078 0.165188 0.054841 0.228002
SAL 0.101811 0.079630 0.050817 0.137123 0.041102 0.105058 -0.167718 0.109691 0.159997 0.041351 0.140636 -0.002743 -0.305934 -0.110184 0.062188 0.144924 0.181055 0.026302 -0.232125 0.284673 -0.294457 0.032140 0.131920 0.097309 -0.281349 -0.166946 0.372967 -0.248281 -0.081870 0.337158 0.041554 0.135774
NAGA~A 0.101492 -0.008549 0.023978 -0.089237 0.451028 0.112130 -0.054949 -0.123750 -0.208559 0.007187 0.171481 -0.357531 0.147641 0.214832 -0.032680 -0.221788 -0.166111 -0.018321 -0.286241 -0.354008 0.056720 -0.238539 -0.022764 0.046491 -0.074980 -0.190456 -0.039974 0.050266 0.065835 0.000303 0.037918 0.279268
KISZ -0.298790 0.132371 0.027932 0.413631 -0.003221 -0.048699 -0.140570 -0.065183 -0.145326 0.138939 -0.262942 -0.016982 -0.082237 0.355372 -0.087804 0.090584 0.269762 0.119077 -0.159040 0.088785 -0.353020 -0.047543 -0.072318 -0.209198 -0.116118 -0.027375 0.219439 0.033750 0.081810 0.025998 0.069443 0.253774
DILMUN 0.102246 0.062207 0.118689 0.161921 -0.179007 0.237316 -0.272883 -0.184930 0.039551 -0.162310 -0.177472 0.043584 0.045028 -0.288491 -0.167975 0.127786 -0.103436 0.351888 0.013187 0.237984 -0.178807 0.284825 -0.017383 0.024617 0.096587 0.061646 -0.176639 0.291709 -0.097936 -0.216427 -0.171184 0.191676
TUN3~A 0.095232 -0.027936 -0.074908 -0.306798 0.124731 0.128461 -0.029283 0.245122 0.195476 -0.175482 0.036894 -0.277721 0.072106 0.242788 0.256064 0.114212 0.039351 0.256398 -0.092628 -0.124519 -0.072608 -0.089704 0.084146 0.427463 0.204979 -0.069584 -0.067085 -0.009099 0.091960 -0.209608 -0.121529 0.306690
A 0.185287 0.097298 -0.102749 -0.032748 -0.011903 0.269702 -0.267254 0.245613 -0.013016 0.089069 -0.271144 -0.002643 0.341631 -0.149865 -0.211811 0.446503 -0.033447 0.062369 0.280884 -0.016958 0.024312 0.035346 -0.012025 0.053912 0.060434 0.094859 0.004436 0.004603 -0.216222 0.226291 -0.081935 0.261656
MASZ2 -0.251480 0.137708 0.138078 -0.063758 -0.008302 -0.500511 -0.076895 -0.159239 0.027142 -0.263117 0.156193 -0.159604 -0.105178 0.187235 -0.078602 0.155387 0.077073 -0.188831 -0.029472 0.000356 -0.257518 -0.126046 -0.263456 -0.124686 -0.146846 -0.024704 0.043654 0.079541 0.081691 0.134405 0.042595 0.387233
TE 0.144268 -0.071996 -0.198285 0.297053 -0.032803 -0.172232 0.144353 0.181602 -0.027188 -0.213418 -0.035204 -0.184991 -0.222787 0.029289 -0.234495 -0.006444 0.090224 0.010041 0.115061 0.148206 0.085405 0.185807 -0.314942 0.023501 0.083767 0.064425 0.210263 0.434040 0.114112 0.145058 -0.035184 0.332484
KU6~A 0.229567 -0.355542 0.130275 -0.085352 -0.066142 0.114980 -0.295504 -0.226921 -0.115626 -0.326069 -0.213295 -0.118765 0.230034 -0.248534 0.022293 -0.042019 0.043728 0.112111 0.154582 -0.167358 0.187153 0.234801 -0.123599 0.100233 -0.044239 -0.054176 -0.032170 0.242453 -0.184589 0.099297 -0.013842 0.230829
GI4~A -0.068046 -0.173536 -0.069700 -0.229638 0.020528 -0.134336 -0.037076 0.071549 0.213056 0.000489 0.233562 0.398828 0.179597 -0.040595 0.047362 0.111340 0.161939 -0.306821 -0.142224 0.384898 0.184521 -0.287825 0.306959 -0.028474 0.033773 -0.038035 -0.004906 0.110357 0.056040 -0.092451 -0.025715 0.217597
NIM~B1 0.181644 0.240048 0.284012 -0.233821 -0.276165 -0.089836 -0.015054 -0.013612 0.088958 0.040175 -0.386981 0.034404 -0.108845 -0.157905 0.208698 -0.259258 -0.056191 -0.050586 -0.022014 0.101676 0.028403 -0.094568 -0.241289 -0.282873 -0.139753 0.123296 0.216430 -0.071769 0.207440 -0.119515 -0.114995 0.243906
HI~A -0.183008 0.163088 -0.210978 0.170062 -0.079934 0.089329 0.049340 0.131411 -0.082822 -0.027540 0.202082 0.063386 -0.011283 0.010069 -0.341478 -0.063407 -0.280313 -0.044316 0.111574 -0.097067 0.099524 0.011296 -0.152977 0.019782 -0.307299 -0.458809 0.019519 -0.388923 0.214714 0.015088 -0.073642 0.120445
NAR 0.230214 -0.159080 0.118401 -0.320433 0.128523 0.007442 -0.198479 0.103926 0.038323 0.108565 0.235099 0.109502 0.100719 0.023233 -0.044374 -0.092323 0.094893 0.215394 -0.007279 0.234640 0.109590 0.284394 0.077048 0.143907 -0.037978 -0.309454 0.172773 -0.111575 -0.256315 -0.165362 -0.295719 0.294105
ZATU853 -0.004928 -0.026952 0.004591 -0.030556 0.042204 0.170810 0.088012 -0.229669 -0.007592 0.158558 0.093324 -0.108765 -0.184938 -0.107975 0.221858 -0.079076 0.309661 0.118524 0.250159 -0.015117 0.023540 -0.036721 -0.038467 0.343312 -0.121800 -0.323917 0.017079 0.142365 -0.341332 -0.330873 -0.299799 0.097975
|TUKU+DISZ| -0.338499 -0.079398 -0.033822 0.222232 -0.014477 0.182380 -0.370907 0.304369 -0.255531 0.021340 -0.101142 -0.319917 0.203854 -0.111381 -0.066361 0.175211 0.181753 -0.183045 0.116617 0.206429 0.143777 -0.178448 0.123883 -0.055906 0.118972 0.148338 0.153294 0.137819 0.132367 -0.023360 -0.021047 0.081267
NIMGIR -0.282399 0.043779 -0.371696 -0.104909 0.071601 -0.076015 -0.184993 0.041864 0.128043 -0.091963 -0.187480 -0.157106 -0.124329 -0.259040 0.158083 0.191842 0.107885 -0.310378 0.169046 0.231863 0.179339 -0.290259 0.212440 -0.044941 -0.087297 0.039659 0.063032 0.240666 0.141429 -0.033696 0.108573 0.188064
BU~A -0.011928 -0.075910 -0.245336 -0.248361 0.125268 -0.215221 0.121963 -0.046029 -0.098227 0.131573 -0.194328 0.055295 0.184563 -0.299332 0.179733 0.048754 0.172795 0.093829 -0.123091 0.029265 -0.319504 0.054956 -0.375479 0.022188 -0.076017 0.182725 0.049618 0.279560 0.133215 -0.099031 -0.163224 0.303091
NAM2 -0.099322 -0.143883 -0.014587 0.207773 -0.332851 -0.087335 -0.104295 0.115468 0.180319 -0.020206 0.241360 -0.245322 0.077470 -0.237964 -0.015743 -0.172636 0.198100 0.060804 0.140206 -0.203410 0.214748 0.029407 -0.356926 -0.398052 -0.042814 -0.066605 0.113155 0.105515 0.120943 0.212977 0.036531 0.105155
PA~A -0.244269 0.423791 -0.229023 0.001022 -0.352289 -0.096849 0.024313 0.201746 0.130040 -0.206752 0.001421 -0.079587 -0.116165 -0.249910 0.061376 -0.103675 -0.131337 -0.187105 0.129651 0.034610 0.201111 0.154067 -0.284387 -0.119856 -0.225148 -0.129151 0.073945 0.139980 0.056760 0.171333 0.024978 0.147380
USZ~A -0.103541 -0.087720 0.010999 -0.026444 -0.371717 -0.394147 0.149478 -0.087823 0.177183 0.012399 0.095290 0.243217 -0.125309 0.358889 0.082760 0.074813 -0.243565 -0.052317 0.221891 0.212957 -0.066755 -0.129755 -0.095217 -0.050661 -0.141501 0.073300 0.314354 0.104009 0.002192 -0.051916 0.088857 0.255442
SZUBUR 0.119694 0.131918 -0.252369 -0.249482 -0.093947 0.069968 0.027497 0.377221 -0.023554 -0.007728 -0.171486 -0.128340 0.198893 -0.159065 0.115830 0.324469 0.326868 -0.010904 0.183681 0.006690 0.257788 -0.027999 -0.089665 -0.233398 0.196945 0.015781 0.010359 0.195799 0.034767 0.096866 0.148867 0.273468
IM~A 0.179293 0.043164 0.210529 -0.183784 0.257974 0.021601 -0.063946 -0.123583 0.202740 0.073629 0.357831 0.284334 0.148232 0.127556 0.011322 -0.022704 0.165365 0.130708 -0.065053 0.233924 0.099711 0.124962 -0.059330 -0.417200 0.122098 -0.261976 0.102581 -0.089210 0.085156 0.016399 -0.115535 0.278939
SZA -0.360055 -0.123428 0.032305 -0.266000 -0.089615 0.033893 -0.093245 -0.242614 -0.060554 -0.132242 0.235622 -0.264438 0.238486 0.194431 -0.032025 -0.061766 -0.105888 -0.009265 -0.164295 -0.264187 -0.267809 0.011817 -0.022737 0.013288 0.144340 0.075228 0.039130 -0.331734 0.035699 -0.177097 0.209586 0.255333
LAL2~A -0.039474 -0.265923 -0.101460 -0.214567 -0.219912 0.052495 0.051626 0.130236 0.184117 -0.192805 0.430599 0.225718 -0.141555 -0.145531 -0.130845 0.066090 -0.019690 -0.231299 0.027151 -0.032395 0.030375 -0.227614 0.071741 -0.358513 -0.008165 0.032631 0.278345 0.071241 0.218914 -0.078452 -0.001328 0.225084
NIM~B2 -0.031270 0.145189 0.294568 -0.079451 0.023554 0.132251 -0.020537 0.049749 -0.149052 -0.077750 0.048388 0.070041 0.110249 -0.012275 -0.003175 -0.262209 0.126650 -0.115290 -0.306343 0.231611 0.340253 0.147229 0.152812 0.239711 -0.098577 -0.160587 0.014114 0.281821 -0.287113 -0.265291 -0.244487 0.156660
DUR2 -0.260057 0.175516 -0.165518 -0.164195 0.238897 0.017000 0.193007 0.165900 -0.162529 0.306779 0.135306 -0.172543 -0.253531 -0.214143 -0.129828 0.109753 0.312719 0.154370 0.080543 0.062607 -0.228503 0.167382 0.182906 -0.091233 -0.157430 -0.247860 0.033958 -0.081598 -0.095654 -0.054074 -0.150965 0.185733
SZEN~A -0.055077 0.013008 -0.022395 0.013141 -0.001730 -0.058000 0.146785 -0.086127 -0.100896 0.060638 0.039128 -0.135729 0.209447 -0.104258 0.100115 -0.186955 0.030990 0.096697 -0.406089 0.198201 0.274811 0.229345 0.227978 0.203493 -0.181190 -0.139993 0.087400 0.161020 -0.360176 -0.259091 -0.278627 0.183796
BU3 0.271772 0.099641 0.016909 0.077316 0.072014 -0.044527 0.089880 0.143916 0.082593 -0.169473 0.162452 0.026468 0.029493 -0.340407 -0.209462 0.250387 0.211048 0.305395 -0.134507 -0.051112 0.058503 0.141267 -0.234012 0.139968 0.273297 -0.198443 0.085760 0.017080 -0.207148 -0.199216 -0.290673 0.207342
|SZE~A&SZE~A| -0.217316 0.021237 -0.049402 0.051199 0.095180 -0.047627 0.250506 0.019641 -0.190398 0.089279 -0.042970 -0.109640 0.275785 0.122175 -0.159471 -0.143193 0.215228 0.216300 -0.063172 0.299108 -0.091643 0.090816 0.473172 -0.221739 -0.087966 0.206786 -0.288383 0.047375 0.109562 -0.144004 0.002963 0.181266
TUR3~A -0.045553 0.278566 0.304038 0.214530 0.115230 -0.015031 0.014580 -0.142050 -0.192923 0.030813 0.002223 0.080614 -0.087245 -0.434910 0.211003 0.012004 -0.190292 0.082434 -0.182879 0.104862 0.205686 0.130892 -0.092524 0.106807 -0.044941 -0.139766 0.175458 -0.045358 -0.216164 -0.301487 -0.196355 0.253857
UR~A 0.261117 0.197810 -0.192306 0.034436 0.084742 -0.009105 0.037118 -0.189331 -0.213934 0.025058 -0.432342 0.042573 -0.187404 0.385120 -0.136509 0.382397 0.121624 0.060755 -0.041459 0.124778 -0.027237 0.137535 0.074741 -0.132558 -0.133174 0.247148 0.007331 -0.055085 0.060612 0.020136 -0.013867 0.248680
PIRIG~B2 0.120801 -0.033072 -0.142550 0.098359 0.211878 -0.021120 0.085832 -0.018078 -0.136965 -0.058984 0.326855 -0.085211 0.018642 0.194291 -0.401088 -0.001697 -0.045722 -0.278065 -0.128081 -0.236853 -0.216285 -0.120482 -0.134210 -0.121129 0.210816 -0.418486 -0.214085 0.055888 -0.199621 -0.021470 -0.072215 0.077672
GA'AR~A1 0.064561 -0.202250 0.301473 0.301663 0.146626 -0.318297 -0.404777 -0.192726 -0.102597 0.216298 -0.017492 -0.094802 -0.076014 0.127217 0.093079 -0.205470 -0.042123 0.001032 0.128690 0.275577 0.235179 -0.115534 -0.001087 -0.067314 0.136770 -0.087206 0.135706 0.022370 0.245264 -0.156613 0.031842 0.106766
UB 0.027046 0.041133 0.051439 -0.040646 0.040832 -0.286631 -0.064997 0.016515 0.089703 0.262226 0.241816 -0.060229 0.153988 0.145259 -0.045535 0.147469 -0.089267 0.160277 0.254291 0.169312 0.303145 -0.109417 -0.451825 -0.232024 0.029817 -0.017508 0.213185 -0.107197 0.124371 -0.026493 -0.122194 0.345454
MAR~A 0.005674 0.087727 -0.026987 0.116285 -0.169453 -0.139156 -0.041527 -0.218157 0.404143 -0.173225 0.202474 0.078430 0.188628 0.075070 0.089293 0.056658 0.270137 0.120592 -0.201674 -0.152249 0.123483 0.000776 -0.306275 -0.307357 -0.072815 0.334643 0.078258 0.049613 -0.013719 -0.000139 -0.114117 0.306213
E2~A -0.186040 -0.295754 0.114664 -0.284540 -0.317258 0.196202 -0.006272 -0.330828 0.032732 0.301133 -0.059325 0.173335 0.002757 -0.134477 -0.126554 -0.019087 0.000631 0.165475 -0.021403 -0.057576 -0.256020 0.258475 -0.126039 0.188014 0.265344 0.129577 0.093459 -0.048550 0.133226 0.137024 0.031190 0.157640
ME~A 0.084018 -0.315525 -0.062390 0.020792 0.099480 0.294446 0.247623 0.047433 0.178901 -0.032738 -0.071052 -0.077654 0.147176 -0.127969 0.041619 0.043117 -0.160656 0.108750 0.176871 0.100987 0.243346 0.282224 0.114486 -0.093958 0.101615 -0.101545 -0.345143 -0.227608 0.221257 0.223528 0.114923 0.315435
KAB 0.065877 -0.034230 -0.134358 0.222296 -0.058466 -0.428500 0.062453 -0.062181 0.097024 -0.111260 -0.160294 0.145346 -0.242910 0.062900 -0.044128 0.178675 0.237462 -0.182787 0.214560 0.086889 0.122605 -0.059883 0.082095 -0.168110 0.281758 0.067849 0.249164 0.032328 0.307416 -0.170931 0.066724 0.307379
TUM~A 0.125743 0.299026 -0.160883 -0.015921 -0.218506 0.151031 0.193299 0.080796 -0.006615 -0.070323 0.161187 0.097189 -0.084862 0.365929 -0.315807 0.021859 -0.309482 -0.160102 0.098536 0.122761 0.009028 0.105748 -0.267087 -0.007270 -0.280260 -0.261229 0.118829 -0.095564 0.188473 -0.050307 -0.044033 0.183249
|NUN~A+EN~A| 0.014176 0.025615 -0.411681 0.255878 -0.056812 0.145981 0.088211 -0.212927 -0.117555 -0.137207 -0.035240 -0.121203 -0.156423 0.252572 -0.013495 -0.004531 0.104499 -0.068275 -0.092366 -0.085456 0.225096 -0.071122 0.118426 -0.187660 -0.009087 -0.170669 0.024441 -0.443497 0.347492 0.012161 -0.058285 0.249627
ARARMA2~A -0.051196 0.158294 0.137009 0.165334 0.011130 -0.009603 0.122857 0.106305 0.003492 -0.109611 -0.152300 0.146924 0.194232 0.126626 0.136598 -0.259039 0.228893 -0.327159 -0.280499 0.387400 0.251245 0.142564 -0.034952 0.097769 -0.220614 0.053100 -0.157978 0.315344 0.132161 0.084602 -0.021089 0.141084
NI2 -0.060082 0.230455 -0.231964 -0.239311 -0.073923 0.166487 -0.210323 -0.121572 -0.148158 -0.303533 0.119988 -0.432776 0.105631 0.317943 0.016182 -0.032283 0.010159 -0.082637 -0.272978 -0.378053 -0.005493 -0.072012 0.150484 -0.052013 0.024773 0.140101 0.007342 -0.084222 -0.086911 -0.063585 -0.045948 0.121012
AMAR -0.128681 0.356028 0.121596 0.290158 -0.330839 0.192316 0.013038 -0.014094 -0.086942 0.127933 -0.051619 0.061216 -0.185296 0.376681 -0.261235 0.077855 -0.059164 -0.017710 -0.076144 -0.077231 -0.073143 -0.213674 0.103446 0.035364 -0.296092 0.135085 0.260441 0.158872 0.045047 0.036248 0.076357 0.208174
ZATU752 -0.093900 -0.042063 -0.143071 -0.130378 -0.255979 -0.293255 -0.247323 0.033511 -0.011685 0.360730 0.139486 -0.202351 -0.282408 0.243076 -0.226591 -0.075329 0.231213 -0.211161 -0.128278 -0.097826 -0.109377 0.057104 -0.023330 0.114305 0.101064 0.133685 -0.262601 0.179101 0.115180 0.032963 0.058308 0.227650
URI5 0.172976 0.350497 0.062029 0.034284 0.084546 0.332541 -0.107485 0.146797 0.279794 -0.122770 0.196611 0.144016 -0.020735 0.135730 0.279693 -0.089341 -0.222064 -0.162536 -0.174496 -0.180950 0.049369 -0.205184 0.227569 0.022772 -0.040924 0.063175 -0.126879 0.035053 0.207221 -0.334190 -0.042530 0.135526
KUR~A -0.050733 0.083080 0.328664 0.196823 -0.191465 -0.096596 -0.116573 -0.255531 0.007737 -0.112648 0.028860 0.338480 0.192187 0.234632 -0.122747 0.108089 -0.006199 0.116232 0.207398 0.081350 -0.163270 -0.223676 0.100107 0.048551 -0.134047 0.065000 0.345120 -0.231918 -0.109599 0.237521 0.009592 0.236954
BA -0.225494 -0.401103 0.165736 0.165539 -0.199451 -0.133432 0.067175 -0.126680 0.019976 -0.010244 0.224200 -0.287415 0.081985 0.087649 0.014229 -0.084383 0.031067 -0.207287 -0.029481 -0.304601 0.130549 0.080010 0.354303 0.174254 0.091637 -0.034894 -0.117807 -0.009478 -0.016286 0.360139 0.094829 0.143816
NUNUZ~A1 0.071956 0.090578 -0.057172 -0.057227 0.078442 -0.182868 0.057615 0.117375 0.406643 0.147958 0.104055 -0.000153 -0.081224 -0.088504 -0.105980 -0.047464 -0.276370 -0.201664 -0.142469 0.013568 -0.094645 0.032072 -0.058350 -0.007183 -0.098497 -0.095380 0.030168 -0.574446 0.012479 0.259038 -0.014576 0.359518
N24 -0.174356 0.317663 0.011617 0.014214 0.015395 0.059828 0.010242 -0.142278 0.002758 -0.046922 0.142939 0.085285 -0.064870 -0.199491 0.008501 -0.071498 0.009947 -0.003565 0.018416 -0.142730 -0.022918 0.094938 -0.041889 0.005853 -0.010839 -0.035791 0.062370 -0.094134 -0.251635 -0.287151 0.744526 0.136712
N26 -0.442101 0.021251 -0.004065 0.057793 -0.304295 -0.063907 -0.183602 0.098249 0.058135 -0.089603 0.103900 -0.307997 0.108317 0.033368 0.226381 -0.073758 0.051562 0.082680 -0.084259 -0.174971 -0.250415 0.059374 -0.065725 -0.010656 0.017405 -0.015469 0.025908 -0.184056 -0.092323 -0.298387 0.451966 0.138921
N58 -0.034996 0.231992 -0.207127 0.281163 -0.079575 0.327433 -0.070311 0.065667 0.077816 -0.299922 -0.023164 0.259811 -0.255909 0.020753 0.011900 0.018021 0.301858 -0.005351 -0.311451 -0.088158 0.318768 0.027142 -0.017256 -0.119011 -0.094325 -0.143378 -0.032571 -0.171291 0.008768 0.206032 0.116490 0.202690
DU6~B -0.232195 0.306290 0.225609 -0.364564 0.039920 0.105866 -0.248031 -0.117900 0.120508 0.057613 0.108915 0.135113 -0.187149 0.044909 -0.128831 -0.094501 0.001084 0.014477 -0.187483 0.071039 0.270756 -0.183008 -0.048403 -0.051720 0.406197 -0.173858 -0.251935 0.185510 -0.016705 -0.113126 0.041708 0.097801
|LAGAB~AXSZITA~A1| 0.148456 -0.204572 -0.130673 0.262636 -0.014090 -0.022134 -0.110791 -0.042620 -0.099026 0.142899 -0.044253 0.057608 0.087466 -0.077337 -0.166053 -0.154191 -0.137536 0.056743 -0.148903 -0.013259 -0.003988 -0.049669 -0.201041 -0.062521 -0.357267 -0.405719 -0.071231 -0.467419 0.314120 -0.114073 -0.082014 0.096384
DU8~C 0.419326 -0.109076 0.115409 -0.127298 -0.117807 -0.182795 -0.169529 0.001026 -0.212071 0.278320 -0.124605 0.196486 0.001249 0.238207 0.053802 0.100238 -0.366820 0.028021 -0.044393 0.004244 -0.106723 -0.068163 -0.031974 0.245630 0.102846 0.099205 -0.160592 0.079162 -0.008066 -0.193286 0.336901 0.205743
ZATU681 -0.081055 0.086666 0.004422 -0.199919 0.364193 0.089456 0.206382 -0.170405 0.036497 0.273020 0.080453 0.029596 -0.218058 -0.235381 -0.109312 -0.092479 -0.007021 -0.034195 -0.331189 0.226823 -0.089188 -0.340457 -0.052112 -0.355877 0.031789 -0.104575 0.110713 0.027476 -0.173358 -0.108297 0.076768 0.196902
DUG~A 0.216605 -0.009991 0.501894 0.187104 -0.099150 0.064394 -0.026682 0.128518 -0.224929 0.254028 -0.231761 0.099653 -0.177979 0.199052 -0.105321 -0.236947 0.038294 -0.057115 0.245157 -0.016250 0.091460 0.094193 -0.005642 0.073538 0.036050 -0.186633 -0.006906 0.141651 0.026564 0.123672 0.281288 0.280054
N30~A -0.138740 0.009112 -0.466393 0.052304 -0.134513 -0.123034 -0.071945 -0.193423 0.087598 -0.018039 -0.072963 -0.101267 -0.095386 0.204199 0.260791 0.026614 0.095693 0.010034 0.108859 0.146102 -0.014322 -0.035956 0.011957 -0.033865 -0.023185 0.064358 0.066410 0.037156 0.009066 -0.436543 0.513907 0.176162
SIG2~A2 0.061819 0.156576 -0.200232 0.092308 -0.092219 -0.207381 0.207570 -0.230675 -0.251851 -0.058477 0.088651 -0.113114 -0.008270 0.121374 -0.356483 0.118947 -0.328984 -0.246782 -0.056349 0.001432 -0.120502 0.001503 -0.299834 0.096159 -0.163459 -0.288983 -0.240591 -0.222751 0.103995 -0.032068 -0.033648 0.122568
SZIM~A -0.198190 -0.329636 -0.016643 0.095775 -0.373998 0.073337 -0.158521 0.227970 -0.072144 -0.126353 0.096129 0.027643 -0.331661 -0.173888 -0.108401 0.259793 -0.184675 -0.283807 -0.116483 -0.068457 0.161741 -0.023930 0.131807 -0.056529 -0.040776 -0.194594 0.144562 0.191056 0.218717 -0.021944 0.030214 0.207932
HI@G~A 0.037926 -0.113044 -0.098997 -0.146961 -0.154476 -0.127832 -0.222873 -0.076262 0.094357 0.299938 0.309107 0.010003 -0.120303 -0.006430 0.082798 0.301064 0.047924 -0.111180 0.085981 0.139499 0.026248 -0.153352 0.276625 -0.153486 -0.064177 0.201423 0.168166 -0.052261 0.068021 -0.382972 0.248442 0.312499
N28 -0.180073 -0.181805 0.027452 -0.102910 -0.103021 -0.026593 -0.017649 -0.047957 -0.019530 -0.074589 0.113150 0.039734 0.145054 -0.027728 0.057122 0.253281 -0.052496 -0.204697 0.031724 0.111288 -0.290420 -0.071374 -0.141333 -0.004332 0.022749 0.023160 -0.124457 -0.203594 -0.262614 -0.361132 0.600109 0.121276
N30~C -0.026172 -0.192307 0.029404 0.073660 -0.106933 -0.188709 -0.214343 0.240645 -0.099886 -0.075585 0.029311 0.250674 -0.032829 0.023538 -0.175816 -0.141241 0.116390 0.167891 0.118999 0.029151 -0.114866 0.062076 -0.205143 0.284859 0.098031 -0.109207 -0.018740 -0.257756 -0.072489 -0.263771 0.531456 0.175053
SIG 0.267660 0.051731 -0.131555 -0.147810 -0.146039 0.234604 -0.260399 0.412198 -0.050619 -0.178113 0.263044 0.092632 -0.091783 0.047961 -0.153841 -0.147021 -0.179126 -0.022939 -0.134616 0.099460 0.206838 -0.132649 -0.070799 0.249633 0.183028 -0.079296 -0.176021 0.025626 0.276950 -0.123240 0.039788 0.226158
MUSZ3~A -0.300325 0.029701 0.266372 0.085257 0.112729 0.242058 0.146788 -0.190798 -0.141911 0.420880 0.121631 -0.090462 0.134937 0.149936 0.120509 0.060714 -0.177066 0.137618 -0.170503 0.072150 0.246176 0.037690 0.130649 0.045154 0.258368 -0.171561 -0.211999 -0.129085 0.033681 0.179244 0.123582 0.224206
NAGAR~B -0.075053 0.099003 -0.063014 -0.335971 -0.084189 0.171963 -0.034987 -0.055188 0.375567 0.061796 -0.159456 -0.212566 0.054084 0.118086 0.340700 0.030480 -0.124288 0.093724 0.067942 0.066450 0.293600 -0.292868 0.110780 0.124727 0.354226 0.070354 -0.064935 -0.211583 -0.024347 -0.102481 -0.095963 0.211317
EZEN~B 0.034364 0.207449 0.185072 0.026618 0.062223 0.229511 -0.134317 0.300761 0.245703 0.111302 0.034261 0.098553 -0.132602 -0.103347 0.122880 -0.202214 -0.217992 -0.086664 -0.069604 0.164588 0.167195 -0.357714 -0.055787 -0.097279 0.313680 -0.005107 -0.034124 0.108955 0.249585 -0.266580 0.031758 0.294286
SZITA~A1 -0.107735 -0.311835 -0.219636 0.219813 -0.345839 -0.327910 0.000938 0.272942 0.031932 0.275558 0.248674 -0.139021 -0.031534 -0.148383 -0.008301 -0.077571 0.109433 -0.017822 0.110059 0.026373 0.230427 -0.091348 -0.035997 -0.014079 0.236994 -0.033292 -0.139537 -0.110088 0.013266 0.055538 0.134618 0.327823
HI -0.190506 -0.119147 -0.029732 -0.050486 -0.286803 0.323388 0.057195 -0.025181 -0.046257 -0.123552 0.378339 0.198303 0.279741 0.155026 0.060849 -0.076308 0.057401 -0.103208 0.038199 0.197211 0.104472 -0.132632 0.066933 0.320102 0.032230 -0.247549 -0.096240 -0.270692 0.129708 0.132779 0.004614 0.273081
SIG7 -0.068510 0.059950 0.135613 -0.079238 0.026609 0.123753 -0.394142 0.313870 -0.153270 -0.056374 -0.008885 -0.213890 0.054845 -0.025073 -0.023148 0.090918 0.057235 0.072921 -0.280586 0.185341 -0.183517 -0.190288 -0.123714 0.370103 0.268497 0.114584 0.059282 0.064950 0.204828 -0.261944 0.020572 0.253838
TUR 0.039543 0.001404 -0.260512 0.049900 -0.152392 0.157600 -0.318038 0.013981 -0.194488 -0.227508 -0.178544 -0.201657 -0.028198 -0.024285 -0.081908 -0.091104 0.223479 -0.173079 -0.182979 -0.125276 -0.362980 0.269524 0.029989 0.174687 0.285550 -0.099569 -0.030699 -0.021374 0.217761 0.112139 0.009075 0.286938
UDU~A 0.085556 0.142431 0.326072 -0.312868 -0.116524 -0.069588 0.513399 -0.071755 0.076843 0.124797 -0.327930 -0.290921 -0.114831 0.001369 -0.224658 0.034158 -0.053093 0.084676 -0.090135 -0.178497 0.073487 -0.044558 -0.013067 0.065525 -0.207041 -0.128413 0.123709 -0.002573 -0.014740 0.145601 0.182837 0.105924
SZITA~B1 0.064054 -0.224368 0.094702 -0.017673 -0.128783 -0.167366 0.335100 0.211096 -0.231480 0.351529 0.221261 0.088813 0.347912 0.277688 0.004203 -0.096249 0.001824 0.019376 0.117671 0.035335 0.091324 -0.000386 0.064388 0.058898 0.101767 -0.260201 -0.182630 0.218585 0.021059 -0.035169 0.257342 0.186716
KU3~A -0.107078 0.317617 -0.010053 -0.238867 -0.191116 0.246366 -0.216158 0.233012 -0.167914 0.005785 0.218437 -0.045015 0.156918 -0.109555 0.026126 -0.148564 -0.002459 -0.209039 0.094886 0.114824 0.479410 0.139707 0.047845 0.010752 0.005476 -0.205727 0.076780 -0.010671 0.002917 -0.038744 -0.185836 0.304713
ZATU714 0.368866 -0.001537 -0.291530 -0.246704 0.147358 0.383191 -0.024552 0.114687 0.252746 -0.034704 -0.245016 0.098538 0.382502 -0.032632 0.092598 0.088069 0.137635 0.192513 0.023257 0.094964 0.177226 -0.118802 -0.003115 -0.062584 0.002836 -0.091731 0.009701 -0.129699 -0.041044 -0.040572 0.261833 0.158137
|ZATU714XHI@G~A| 0.425195 -0.057895 -0.264131 0.029474 0.293069 0.286338 0.009042 0.116593 0.255526 -0.048964 -0.257307 -0.004732 0.175872 -0.099764 0.069699 0.181038 0.143090 0.096911 -0.061269 0.028882 0.282058 -0.017565 -0.019539 -0.078753 0.089942 -0.102724 -0.058176 -0.100210 -0.011191 -0.169490 0.396332 0.111036
MU 0.087280 -0.248675 -0.103620 0.239273 0.348962 -0.226890 0.175954 0.166175 0.060248 0.153172 -0.033530 -0.170678 0.077775 0.007628 0.259635 0.141067 0.107346 0.114629 -0.116678 0.189322 0.089364 -0.020914 -0.074127 0.089997 -0.084737 -0.047809 0.016392 -0.037248 -0.100868 -0.216058 0.537204 0.165106
N40 0.351136 0.206527 -0.032344 0.016962 0.056211 0.178356 -0.262569 -0.287453 0.003102 -0.087425 0.204998 -0.046497 -0.134723 -0.097175 -0.370030 0.071203 0.089487 -0.145413 -0.303936 0.054453 -0.116564 -0.000554 -0.085093 -0.106465 0.117007 0.023103 0.126896 -0.033592 -0.138860 -0.177140 0.388286 0.187644
TA~C -0.173566 0.070346 -0.129614 -0.006501 0.286789 -0.346871 0.172062 -0.029716 -0.228596 0.322728 0.143372 0.051293 -0.183538 -0.186487 0.012529 0.318991 -0.025917 -0.180945 -0.146490 0.072471 -0.101947 -0.321667 0.229077 -0.186868 0.010887 -0.046636 0.213712 0.033284 0.036862 -0.175804 0.009084 0.149169
N28~C 0.116012 -0.008566 -0.221450 0.002176 0.041944 0.243142 -0.112864 0.023442 0.031276 -0.130634 -0.279276 0.106605 -0.051297 -0.088482 -0.124836 -0.098369 0.102319 -0.012383 0.060653 0.032837 0.093417 0.083743 -0.009540 -0.056409 0.016669 -0.011720 0.053101 -0.142613 -0.191642 -0.391024 0.682200 0.084532
GESZTU~B 0.055206 0.169319 -0.205654 0.298493 -0.272906 0.015374 -0.082409 -0.111363 -0.095001 -0.029218 -0.283202 0.159364 -0.508843 0.089844 0.266022 0.214477 0.086935 -0.067159 -0.071435 -0.212050 0.212207 0.107449 0.084102 -0.123808 0.168703 0.081932 -0.002701 -0.022788 0.147279 0.074168 0.010885 0.199045
SZA3~A1 0.578809 -0.049628 -0.221851 -0.058167 0.026062 0.280856 0.089057 -0.308376 0.108620 -0.088565 0.012357 0.150893 -0.004570 -0.125252 -0.141650 0.222039 0.026726 -0.078926 -0.083519 0.000869 0.295769 -0.084030 -0.059064 -0.005542 -0.263923 0.105946 0.110629 0.038642 -0.089355 -0.069121 -0.070039 0.274651
|U4.SZU2| 0.215049 0.427070 -0.139103 -0.019247 -0.001833 -0.116514 -0.215811 -0.246576 -0.256584 0.164090 -0.188879 -0.201363 0.160477 0.238970 0.124118 -0.077633 -0.007500 -0.288203 0.036647 -0.228850 -0.048203 0.139685 -0.240412 0.095378 0.015099 0.184782 0.123574 0.140674 0.165555 0.045708 0.012020 0.181052
SA~A 0.184579 0.150319 -0.335774 0.095740 -0.052067 0.366089 -0.049507 0.003327 0.484968 -0.205698 0.200169 -0.114665 0.166384 -0.150758 -0.005584 0.182434 0.073645 -0.216174 -0.049019 0.024926 0.233565 0.003616 -0.220670 -0.208695 0.115037 -0.003937 -0.116621 0.046991 -0.086256 0.085180 -0.065240 0.133342
KISAL~B1 0.027680 -0.145352 0.307493 0.049817 -0.123699 0.100928 0.084462 0.133934 -0.103688 0.354750 0.188715 -0.075558 -0.142866 -0.139617 -0.197714 0.031151 0.133651 0.184938 -0.071874 0.116701 -0.063827 -0.071586 -0.205631 -0.221139 -0.050871 0.237241 0.033783 0.164820 0.400339 -0.232912 0.006612 0.315676
AB2 -0.164835 0.221585 -0.050839 -0.182678 -0.098416 0.133862 0.360008 0.028684 0.049591 0.089392 -0.035945 0.037473 -0.063756 -0.080239 -0.519805 0.053970 0.107321 -0.323477 -0.010139 0.158755 0.198718 0.014953 -0.155963 0.008564 -0.140685 0.064845 0.090964 0.182403 0.140025 0.255176 0.152967 0.231831
U8 0.299429 -0.235068 -0.016683 -0.071711 -0.181657 -0.004804 -0.093568 -0.379753 0.028119 -0.267167 0.341067 0.041262 -0.264240 -0.053941 -0.136414 -0.059621 -0.168373 -0.161981 -0.066299 -0.265398 -0.176499 0.132313 0.114195 -0.115242 0.144176 -0.139770 -0.070544 0.132499 0.052985 0.133489 0.079023 0.290612
MEN~A 0.120206 0.156727 -0.161431 -0.295776 0.068886 -0.129732 -0.235670 -0.006751 -0.027641 0.301845 -0.119601 0.236358 0.328156 -0.319211 -0.126043 0.217107 -0.089714 0.041413 0.262073 0.075319 -0.015937 -0.261120 0.171200 -0.164933 0.125148 -0.030895 -0.014808 -0.194816 -0.006499 0.102504 -0.116183 0.218468
SZITA@G~A 0.183635 0.181221 0.017820 -0.043537 0.158592 -0.250607 0.066435 -0.291167 -0.369446 0.247998 -0.282289 -0.118401 -0.134268 0.158183 -0.223728 -0.029620 -0.278696 -0.108110 0.053287 0.285671 -0.068830 -0.105959 -0.150480 0.083978 -0.024766 0.159335 -0.066524 -0.058975 0.138930 -0.215274 0.116064 0.189496
N57.PIRIG~B1| 0.164565 0.126180 0.041166 0.232040 0.265313 -0.180191 0.007844 -0.111799 -0.035588 0.343377 -0.087632 0.077518 0.285925 -0.025288 0.113354 -0.015935 -0.252626 -0.062801 -0.019394 -0.172594 0.009534 -0.021065 0.014358 -0.195268 -0.035157 -0.173012 0.096105 -0.199243 0.420198 -0.307287 -0.115083 0.237787
N34@F 0.076655 -0.103600 0.130435 0.259035 -0.121556 -0.170262 -0.166863 -0.311148 0.006337 -0.413541 -0.010895 -0.120032 0.120196 0.158570 0.086268 0.190884 0.190300 0.146132 -0.019440 -0.236582 0.362775 0.213860 0.186296 -0.051951 0.197717 -0.228708 -0.011627 0.101542 0.027554 0.137641 0.073745 0.078433
N01@F -0.094020 -0.094820 0.074202 -0.348135 -0.072761 -0.094493 -0.178649 -0.321790 -0.146174 -0.421357 0.038884 -0.410684 0.104812 0.026182 0.144425 0.062892 -0.057040 -0.003518 -0.189148 -0.426468 -0.156884 0.071611 0.031308 0.021701 0.170965 0.015497 0.017216 -0.066677 -0.016132 -0.078413 -0.008501 0.086075
DUG~B 0.355575 -0.095824 0.116898 -0.559689 -0.138564 -0.047531 -0.229083 -0.086973 -0.049604 0.256158 0.441143 0.129731 0.124017 0.020030 -0.081258 -0.014926 -0.026141 0.014467 -0.126340 0.011537 0.008147 0.064623 0.194417 0.104978 0.130539 -0.060060 0.040207 0.094448 0.133323 -0.054665 0.062932 0.166991
IR~A 0.068460 -0.104943 -0.178494 -0.222145 -0.003663 -0.045681 -0.128811 0.012477 -0.141088 -0.231303 0.027594 -0.198016 0.091807 0.108408 0.021276 -0.114649 -0.179487 -0.012058 -0.183044 -0.238909 -0.090513 -0.105825 -0.201813 -0.078751 -0.211321 -0.299991 -0.084095 -0.525890 0.235745 -0.212981 -0.079920 0.149047
GAN~B -0.106409 -0.081882 0.343079 0.077288 0.155011 -0.409152 -0.275288 0.081525 0.237160 -0.289961 -0.058794 -0.247965 -0.111341 -0.139978 -0.010799 -0.184817 0.033574 -0.192935 -0.010573 -0.251431 -0.247643 -0.201702 0.187353 0.092158 -0.031723 0.127525 -0.019297 -0.057629 -0.099370 -0.019660 0.069091 0.172104
MA -0.053925 0.116928 0.163244 -0.003611 0.027383 -0.402673 0.167616 -0.104758 -0.127480 -0.584587 0.024210 -0.029692 -0.016112 -0.029232 0.033953 0.095433 0.092262 -0.260149 -0.063149 -0.028428 0.020158 -0.162828 0.029758 -0.180596 0.178349 0.219578 -0.189588 -0.186906 -0.079739 0.014075 -0.035799 0.289509
ZATU662 0.147779 0.160198 -0.304154 -0.296668 -0.111369 0.081969 0.031614 0.433345 -0.026391 -0.008606 -0.186269 -0.138440 0.211460 -0.168086 0.119143 0.332309 0.327918 -0.010796 0.180646 0.006415 0.238359 -0.025177 -0.079517 -0.205468 0.164602 0.013152 0.008239 0.154326 0.025144 0.062202 0.087100 0.047883
N08 0.331423 0.183025 0.013483 0.176180 -0.189744 -0.193099 0.153909 0.035031 -0.303662 0.187017 0.389687 0.174502 0.227768 -0.147746 0.316186 -0.177551 0.210887 0.146579 0.014055 -0.182652 -0.120505 0.016744 0.099795 0.031689 0.060282 0.085913 -0.082730 0.093567 -0.018634 0.158687 0.181087 0.048137
HASZHUR 0.097671 0.002585 -0.006408 -0.045568 0.233545 0.182350 -0.069154 -0.092250 -0.067498 0.091544 0.165890 -0.072208 -0.096137 -0.141434 0.245763 0.198222 0.095384 -0.330593 0.490751 -0.009664 0.091551 -0.217063 0.240794 0.244967 0.079570 -0.217973 0.179912 0.037557 0.160730 -0.122048 -0.072597 0.214967
AMA~A 0.142237 -0.038840 -0.033074 0.074741 0.275676 -0.056105 -0.032363 -0.293382 -0.240699 -0.333833 0.218303 -0.044886 0.041171 -0.087170 0.233319 -0.021697 -0.481308 -0.179308 -0.161526 0.160178 -0.162352 -0.115115 -0.072308 -0.003781 0.049423 0.057284 -0.065002 -0.019509 -0.057996 -0.129917 -0.150561 0.329261
N58@T -0.062513 0.208325 -0.227681 -0.099295 0.422287 0.107724 0.054280 0.389448 -0.133683 0.075001 0.228809 -0.036040 0.113517 -0.047824 -0.045745 -0.201616 -0.251366 0.259074 -0.128165 -0.080057 0.103773 -0.304830 0.159538 -0.038933 -0.110498 0.047005 0.158018 0.274800 0.036202 -0.004190 0.045007 0.096586
GAR 0.233409 0.118204 -0.183203 -0.168407 0.330039 -0.184417 -0.250008 0.077209 0.132958 -0.114001 -0.175761 -0.310581 0.080844 0.215625 0.043670 0.161674 0.152247 0.238057 0.056963 0.232051 0.000780 0.131995 -0.240187 0.116259 0.114774 0.085828 0.111304 -0.043698 -0.110902 0.167958 0.261830 0.222817
SILA3~A 0.222594 -0.135349 0.008568 -0.050630 -0.423234 0.192819 -0.261615 0.028724 -0.205646 0.352330 0.178145 0.010123 0.084839 0.044886 0.174033 -0.231339 0.022224 -0.041063 -0.375413 -0.156654 -0.188903 -0.129831 0.030699 -0.111150 -0.082365 0.176478 -0.100556 0.017798 0.038205 -0.117983 0.153779 0.178220
ZATU762~A 0.203176 -0.052370 -0.277005 -0.079288 -0.096674 -0.085086 -0.068765 -0.143580 -0.047305 0.174797 -0.185095 0.122682 -0.371449 0.638154 -0.106584 0.002577 -0.044771 0.045846 0.121537 0.158032 -0.035978 0.093379 -0.102699 -0.012256 -0.043171 0.153836 0.200312 0.096388 0.118492 -0.134345 0.021532 0.142422
ERIN -0.023424 -0.249707 -0.211788 0.363644 -0.195149 0.017851 -0.071076 0.118327 0.053445 -0.301125 0.012556 -0.113430 -0.059430 -0.107472 -0.081915 0.411356 0.051431 -0.004383 0.092776 -0.043106 0.265784 -0.161850 0.082348 -0.054893 0.200826 -0.176812 0.200202 0.104749 0.284480 0.087240 -0.012663 0.271811
MUSZEN -0.162559 0.139565 -0.234702 -0.318490 -0.164549 -0.130453 0.116792 0.010549 0.011373 -0.143648 0.352574 -0.208679 0.263065 0.104714 -0.120937 0.196727 0.290992 0.113946 -0.257075 -0.054180 -0.041081 0.101272 0.276854 -0.152902 0.008157 -0.037187 0.015436 -0.105228 -0.102670 0.015941 -0.165385 0.296736
ZATU659 -0.137080 -0.044280 0.425915 0.129303 0.125848 0.071636 0.052253 -0.158442 -0.216359 0.006961 -0.028310 -0.172854 0.004974 0.000647 0.298648 0.084621 0.008016 -0.040367 0.066107 -0.313921 -0.131719 0.131669 0.140478 -0.333502 0.278322 0.077865 0.168414 -0.142205 0.197022 -0.122510 -0.018439 0.319176
I 0.068185 -0.124719 -0.361772 0.145221 0.032986 -0.338754 0.205310 -0.148821 -0.265807 -0.158965 -0.056002 -0.102814 -0.047012 -0.188815 -0.035497 -0.003457 -0.150258 -0.095931 -0.130197 0.128121 -0.285229 0.073155 -0.175396 0.248663 0.425708 0.124450 -0.026083 -0.055387 0.145815 -0.027041 -0.042685 0.173760
SZAGAN -0.135212 0.013258 -0.296185 -0.122187 -0.074330 -0.075100 0.176473 -0.209553 0.121518 0.279166 0.086343 0.058095 0.003095 0.227458 -0.117576 -0.273081 0.387750 -0.114179 0.302678 0.063320 -0.036262 -0.067059 0.033236 -0.053677 0.188631 -0.125202 -0.035783 0.322786 0.180939 -0.110426 -0.049562 0.275801
ERIM~A -0.312872 -0.163324 0.013570 -0.195440 0.099284 -0.037068 0.127401 -0.090840 0.386976 -0.006837 0.063819 -0.174042 0.017243 0.261074 0.064350 0.043892 -0.013433 0.436129 0.138236 -0.215756 -0.160403 -0.181944 0.002315 0.169241 0.155807 -0.026838 0.301991 0.051934 -0.027322 0.018610 -0.047498 0.277284
NAMESZDA -0.019198 -0.029028 -0.073858 -0.002740 -0.012931 0.067762 -0.057933 -0.021792 -0.148050 -0.220719 0.039118 -0.049218 -0.029550 0.206777 -0.220303 -0.059705 -0.129472 -0.133383 0.075988 -0.385822 0.221869 0.047052 0.060910 -0.075035 -0.046095 -0.500733 -0.140075 -0.364162 0.244000 -0.026408 -0.079401 0.304667
AB~B -0.185724 -0.133090 0.078392 0.146930 -0.087564 -0.235260 0.123033 0.060360 -0.192930 0.120548 -0.054994 0.258879 0.098830 -0.130668 0.130741 -0.136124 -0.468601 0.123059 0.329040 0.033353 0.161119 0.178248 0.152993 0.018559 0.058087 -0.209219 -0.097390 -0.307655 0.044685 -0.079987 -0.155331 0.211198
GURUSZ~A -0.037855 0.130717 0.027317 0.128130 0.192259 0.118590 -0.036841 -0.018925 -0.277599 -0.057288 -0.298412 0.145142 -0.279083 -0.216604 0.055364 0.328916 -0.140535 -0.311760 -0.041233 0.038768 -0.003179 -0.103619 0.359873 -0.029401 -0.080156 -0.090915 0.162181 -0.035801 0.322750 -0.027654 -0.019179 0.276075
URI 0.157167 -0.212511 -0.106961 -0.012934 -0.022411 -0.010099 -0.219599 0.097915 -0.161195 -0.046639 -0.012225 0.106337 0.017793 -0.126364 -0.103624 -0.237398 -0.158925 -0.040327 -0.155592 0.100545 0.015331 -0.215306 -0.274165 -0.023247 -0.325720 -0.276335 -0.097063 -0.444588 0.345153 -0.096033 -0.138712 0.128411
NUNUZ~C 0.068475 -0.066158 -0.004299 0.040140 0.259619 -0.145655 0.186301 -0.064856 -0.095139 0.088562 -0.235591 -0.039739 0.299587 0.097543 0.108856 -0.187523 -0.270694 0.198840 -0.276479 0.008306 -0.030725 -0.076663 0.169774 0.094067 -0.094763 0.090341 0.239084 -0.021347 -0.394129 -0.144478 -0.271055 0.288546
UMUN2 0.085567 -0.158232 0.271892 0.301570 -0.035926 0.006765 -0.027264 -0.130486 -0.267766 0.378874 -0.300564 0.145267 -0.100612 -0.044459 0.102000 0.325448 -0.114329 0.021773 0.026358 -0.052060 -0.191668 0.081739 -0.146175 -0.132310 -0.085460 -0.052563 0.230781 0.213576 0.237514 -0.006647 0.008782 0.252673
SZAM2 0.165766 0.023267 0.078849 0.108682 -0.006968 -0.076413 -0.130618 -0.151248 0.125595 0.076083 -0.094337 -0.069614 -0.235601 0.176839 -0.260722 -0.260387 0.061315 0.145309 0.091524 0.398708 0.070668 0.227074 0.333585 -0.269013 -0.021529 0.089651 -0.277981 0.118477 0.144749 -0.207412 0.121713 0.198094
|KA2XLAM| 0.291851 0.370860 0.186794 -0.377809 -0.069216 0.088054 -0.304011 0.100659 0.069948 0.068505 -0.129832 -0.053123 0.270787 -0.036677 -0.069805 -0.163732 -0.130209 -0.207874 0.051223 -0.012118 0.087083 0.041418 -0.145367 0.085292 0.032302 0.107819 -0.066890 0.194015 0.385845 -0.057798 -0.008754 0.203026
KINGAL -0.142846 -0.222767 0.055882 0.342402 0.034135 0.299812 -0.079858 0.006768 -0.231948 0.037390 -0.471745 -0.217594 0.040283 0.095022 -0.026010 0.295874 -0.073482 -0.152057 -0.081374 -0.154199 0.120610 0.106995 0.169572 0.009333 -0.039628 0.004545 0.287390 0.095213 0.187675 -0.191155 -0.064118 0.072768
N51 0.126309 -0.157744 0.066456 0.129496 0.131971 -0.351219 -0.202664 0.238155 -0.000046 0.010575 0.292148 0.162669 0.062442 0.060871 0.207457 0.197110 0.137889 -0.032021 -0.070302 0.039996 -0.179150 -0.080686 -0.190112 0.164145 -0.063395 -0.182729 0.062090 -0.126118 -0.234280 -0.085437 0.493798 0.080824
N57| -0.175434 0.344999 0.252491 -0.013491 0.042488 -0.370099 -0.164377 -0.257040 0.050709 -0.048533 -0.091005 0.214185 0.250428 0.248174 -0.046339 -0.004341 0.037021 0.052845 0.021796 0.101777 -0.309010 0.129979 -0.125444 -0.138577 -0.176880 0.037476 -0.033261 0.042417 0.216898 -0.080326 0.071159 0.335212
GA2~B -0.134905 -0.376310 -0.034545 0.024184 -0.233860 -0.013533 0.190070 -0.088740 0.025661 -0.148201 0.178035 0.245170 -0.179534 -0.150882 0.040106 0.437974 -0.049880 -0.225788 -0.040759 0.035237 -0.011822 -0.395008 0.283253 -0.147689 0.016398 -0.034129 0.198737 0.071826 0.040108 0.067047 0.022357 0.096976
E2~B -0.037535 0.198642 0.078884 -0.283581 -0.329235 0.075006 0.011091 -0.053145 -0.067691 -0.118897 0.192181 -0.033470 -0.196135 0.173138 -0.159418 -0.165477 0.133139 -0.097999 -0.038801 0.112120 -0.225387 0.141376 -0.290389 0.086483 0.197183 0.247645 0.013492 0.036822 0.291568 -0.175930 -0.156318 0.362442
GI6 -0.195276 0.260017 0.101297 0.028641 -0.000809 0.057938 -0.077539 -0.183872 0.186094 0.097325 -0.185781 0.117106 0.257513 -0.233455 0.053982 0.263914 -0.196568 -0.265517 0.160703 0.108342 -0.251945 -0.113326 -0.152648 0.204356 -0.091438 -0.091373 -0.163016 0.297608 -0.255073 -0.083611 -0.115999 0.221001
UKKIN~A 0.065769 -0.075879 -0.146253 0.030798 0.162457 -0.122164 0.280788 0.308309 0.089310 -0.513418 0.163663 -0.199710 0.139891 0.029693 0.178321 -0.186699 -0.234150 0.205424 -0.202032 -0.053650 0.100800 -0.172211 0.110810 0.077786 -0.068842 -0.042754 0.099385 -0.041831 0.052252 0.066802 0.041739 0.317836
ZAG~A -0.239111 0.522865 0.051869 0.120603 -0.101378 0.035868 0.217217 0.099708 -0.004486 -0.013397 0.016030 0.052108 -0.012724 -0.105569 -0.194414 0.086761 -0.323618 -0.011399 0.285709 0.077422 -0.031468 0.237606 -0.013791 -0.031903 -0.171550 -0.116957 -0.229013 -0.075087 0.325654 -0.102188 -0.087860 0.217181
LAGAR~A 0.177705 0.417362 0.246837 0.037849 0.349238 -0.177960 0.065715 0.360094 -0.189905 0.070712 0.201613 0.221069 -0.072898 -0.099356 0.214928 0.164593 0.024384 0.019683 0.182651 -0.239062 0.096527 -0.086079 -0.002733 -0.203418 0.083625 -0.013077 0.136200 0.120800 0.097357 -0.030067 0.009572 0.157487
ZATU647 0.056354 0.035207 0.096843 0.150019 0.392235 -0.005794 -0.122934 -0.197850 -0.172880 -0.071970 -0.250934 -0.109553 -0.329690 0.171170 -0.015112 -0.325954 0.146351 0.153264 -0.043432 0.122292 -0.100405 0.019371 0.150979 0.329581 0.080100 -0.130182 -0.042754 0.127612 0.304092 -0.065067 -0.033136 0.241145
ZATU628~A -0.136993 0.102346 -0.218363 -0.007002 0.181504 -0.007960 0.169108 0.046273 0.106113 -0.338895 -0.017693 -0.029659 -0.106519 -0.099679 0.376507 -0.036120 -0.119646 0.009596 -0.527621 -0.222452 -0.045026 -0.039832 0.203798 -0.093080 -0.160596 -0.073126 -0.026836 -0.220273 0.122719 -0.068909 -0.090715 0.251257
NE~A -0.098099 0.191670 0.065758 -0.227100 -0.400164 0.186299 0.037970 -0.055089 -0.031880 0.177898 -0.127410 0.219943 0.208230 -0.233331 0.079229 -0.085696 -0.179434 -0.079030 0.100702 0.186934 -0.116600 0.164785 -0.039528 0.119628 -0.340813 0.161740 -0.312108 -0.130929 0.101192 -0.013408 0.072177 0.277638
ZATU753 0.136490 -0.064436 -0.040950 0.255333 0.237221 0.114389 0.055650 -0.057866 -0.003972 -0.024254 0.090144 -0.022902 -0.125870 -0.072894 -0.128634 0.175001 -0.110689 -0.341562 -0.128579 -0.017149 0.312708 -0.277644 0.379740 -0.071435 0.136878 -0.277813 0.177078 0.015476 0.163376 -0.003973 0.174527 0.319935
|ZATU651XEN~A| 0.502434 0.143166 -0.012908 0.051445 0.029470 0.351842 -0.270130 0.291061 -0.085520 -0.099022 0.038608 0.101571 -0.117328 -0.020143 -0.104460 0.029799 -0.042457 -0.037029 -0.161995 0.065151 0.276204 -0.065493 -0.086515 0.325673 0.181303 0.072249 -0.106997 0.131362 0.226304 -0.047643 0.132534 0.146202
DIM~B 0.147821 -0.004403 0.008597 -0.120648 -0.175188 -0.264371 0.067226 -0.129095 0.002208 -0.064401 0.089923 0.011861 -0.061122 0.379565 0.114139 -0.034053 -0.089615 0.098181 0.083230 0.230044 0.142084 0.233578 -0.149971 0.128536 -0.067710 0.091260 0.349603 0.090569 -0.348936 -0.332890 -0.279556 0.148397
|ZATU737XDI| -0.142846 -0.222767 0.055882 0.342402 0.034135 0.299812 -0.079858 0.006768 -0.231948 0.037390 -0.471745 -0.217594 0.040283 0.095022 -0.026010 0.295874 -0.073482 -0.152057 -0.081374 -0.154199 0.120610 0.106995 0.169572 0.009333 -0.039628 0.004545 0.287390 0.095213 0.187675 -0.191155 -0.064118 0.072768
|ZATU659XN01| -0.024447 -0.247064 -0.119654 0.382277 0.198592 0.277255 0.214698 0.123976 0.404302 0.154331 -0.209084 -0.173769 0.257256 0.175060 0.196977 0.189822 -0.100135 -0.029857 -0.152423 -0.084178 0.126297 -0.093142 0.045439 -0.142332 0.208439 0.054361 0.059405 -0.064194 -0.009948 -0.048774 -0.004158 0.150174
GISZIMMAR~B1 -0.036087 -0.075063 0.100378 -0.085034 0.305614 0.289445 0.071597 -0.334414 0.102201 0.113874 0.134283 0.265279 -0.161525 -0.303764 0.061363 0.156595 0.176207 -0.106110 0.126176 0.035277 0.172214 -0.403647 -0.043041 -0.218195 0.120753 -0.133835 0.027239 0.140340 0.065473 -0.192482 0.038039 0.160985
PIRIG~B1 -0.142022 0.019275 -0.148705 0.071518 0.279473 0.368227 -0.174487 -0.102960 -0.111990 0.182798 -0.436404 0.064902 0.393357 0.052089 0.054826 -0.181052 -0.032599 -0.123047 -0.080834 -0.009836 -0.117546 -0.015822 -0.059097 0.023919 -0.111542 -0.203733 0.070912 0.058854 0.180333 -0.028721 -0.115138 0.337092
ZATU762~B -0.186694 -0.563367 -0.010725 0.005379 -0.220416 0.186068 0.343437 0.094713 0.089146 -0.083137 -0.170657 0.039654 -0.038771 0.044614 -0.053298 0.248543 -0.158437 0.150321 -0.103926 -0.257599 -0.082197 -0.162612 0.178122 -0.072379 -0.065364 0.018495 0.267969 0.188849 0.035722 0.068016 -0.000248 0.104028
|ZATU651XGAR| -0.095963 -0.258779 0.037980 -0.037944 -0.086384 -0.302061 -0.062187 -0.162394 -0.044864 0.019033 0.150972 0.236821 -0.082522 -0.260104 -0.026082 0.393868 -0.050011 -0.398857 0.061005 0.205063 0.058179 -0.380066 0.270288 -0.046525 -0.015432 -0.052574 0.140226 0.097922 0.089886 -0.072105 0.041234 0.053133
|U4XN57| 0.091232 0.604032 0.171573 0.321178 0.083059 -0.102124 -0.125860 -0.060217 0.133027 0.120692 0.148547 -0.099379 0.117743 0.281906 -0.008039 0.014512 -0.002486 0.176650 0.021713 0.112259 -0.138436 -0.150847 0.088374 -0.012362 -0.141092 -0.156306 0.212428 -0.048060 -0.006316 -0.101830 0.213708 0.239995
SU~A 0.157066 -0.104542 0.256249 0.015891 -0.029530 0.173290 -0.289673 0.229303 -0.087051 0.095188 -0.194733 -0.197223 -0.105705 -0.058701 0.238615 -0.054406 0.093707 0.138968 0.046477 0.227398 -0.036365 -0.066233 -0.202501 0.014846 -0.040880 0.089075 -0.254315 -0.188612 0.473613 -0.016564 -0.014049 0.315570
TUG2~C 0.333630 0.213654 -0.129305 0.311244 -0.042307 0.023904 0.019150 -0.073902 -0.288855 -0.017782 -0.295524 0.515594 -0.200296 -0.012168 0.079685 0.162273 0.060021 0.044987 0.060264 -0.207779 0.302512 -0.007660 0.156288 -0.012649 0.109287 0.031004 -0.120213 -0.005904 -0.015459 0.070489 0.048112 0.088797
GUM~B 0.200854 -0.107405 0.062562 0.230810 0.092344 -0.200545 0.025959 -0.134567 0.337019 0.176285 0.059466 0.114382 -0.049006 0.029447 0.216434 -0.287365 0.406030 -0.012903 0.039175 -0.349312 -0.138200 -0.219224 -0.026000 0.036903 -0.101141 -0.055897 -0.346041 0.019596 -0.026993 -0.078621 -0.098927 0.146565
GISZ 0.126918 -0.033726 0.105485 0.089878 -0.057208 0.136918 0.072953 0.112535 0.073629 0.069991 -0.073722 0.020723 0.013584 0.119172 -0.028163 -0.033228 -0.270834 -0.186582 -0.018270 0.081823 -0.322057 -0.059387 -0.131988 -0.346087 0.370574 -0.347456 -0.136676 0.230610 -0.385662 0.171696 -0.055238 0.142340
NIM~A -0.237901 0.040055 0.029376 0.297856 0.055467 -0.070824 -0.264642 -0.288364 -0.151957 -0.049110 -0.153624 -0.005007 0.190684 0.109543 -0.032195 0.247027 0.076536 0.001084 0.043834 0.211253 -0.096825 -0.432660 0.127673 -0.021105 0.107053 -0.076107 0.055345 0.288666 0.197872 0.038378 -0.022114 0.347715
N02 -0.006631 0.313821 -0.124407 -0.002200 -0.231437 0.298781 0.010947 -0.135427 -0.025872 0.005740 0.254064 -0.185626 -0.168010 0.104263 -0.010750 0.315531 0.027827 0.202496 0.133771 -0.196464 -0.050269 -0.088433 0.090910 -0.084579 -0.112832 0.260735 0.026213 0.198231 -0.108210 0.405354 0.254995 0.020971
DUG~D 0.098368 0.079570 -0.091397 -0.008497 -0.355028 0.156438 -0.103066 0.058725 -0.311921 0.425368 0.241522 -0.105325 -0.080183 0.072272 -0.017153 -0.246335 -0.155123 0.093004 -0.231285 -0.215689 0.092126 -0.046677 0.304774 0.124534 -0.170234 0.182947 -0.041759 0.247454 -0.039100 0.022770 0.049156 0.094933
SZITA~A3 0.114322 -0.051937 -0.047387 -0.096091 0.137119 0.117598 0.208440 0.068703 0.253364 0.159653 -0.106821 -0.072221 0.139976 -0.085408 0.438645 -0.159324 0.126299 -0.068178 -0.537545 0.200694 0.122417 0.033751 0.114791 -0.101844 -0.046363 -0.153861 -0.116886 -0.104984 0.145671 -0.143267 0.141029 0.198286
KISAL~A1 -0.050698 -0.035621 0.224735 0.112116 0.129182 -0.108455 -0.029349 0.076488 -0.256054 -0.011438 -0.077100 0.014817 0.040703 -0.208933 0.103285 0.421207 -0.091626 -0.477504 0.204079 -0.003644 0.068495 -0.238158 0.327420 0.001536 0.020919 -0.019361 0.218838 0.099415 0.247758 -0.109139 -0.019974 0.117077
HI@G~B -0.035691 0.017329 -0.087095 -0.105617 0.050456 0.315244 0.200118 -0.211440 0.294851 0.116897 0.174087 0.038404 -0.228833 0.131272 0.265492 -0.072912 0.327377 0.034923 0.356146 -0.161721 -0.039221 -0.323061 0.061281 0.151448 -0.013887 -0.168044 -0.195552 0.041285 0.028391 -0.203873 -0.082892 0.060160
N45 -0.045347 -0.092080 0.041249 -0.016472 -0.065702 -0.007389 0.406446 0.155011 -0.308356 0.025842 0.224627 -0.021543 0.154006 0.131196 -0.151716 0.224774 0.238664 -0.042889 0.028562 0.209862 0.110303 0.222791 0.220105 0.010007 0.124425 0.061741 0.217754 0.198795 -0.299371 0.273043 0.218524 -0.024181
N50 -0.116227 -0.173303 0.030254 -0.305311 -0.049251 -0.316838 0.187157 0.065017 -0.039109 -0.084235 0.166650 0.024850 0.525655 -0.059042 0.047047 0.167225 0.332549 -0.072723 0.085883 0.129750 0.287945 0.057258 0.137371 -0.015275 0.111361 -0.116804 -0.047071 0.042853 0.009094 0.258623 0.103446 0.141844
SAR~A -0.158197 -0.169296 -0.041693 -0.099817 0.121384 -0.083215 0.090051 -0.340600 0.000716 -0.089849 -0.076204 0.231339 -0.057089 0.122505 0.175015 -0.280208 0.190114 0.127084 0.078711 0.223656 0.173336 -0.004690 -0.177384 0.342667 -0.121279 -0.117356 0.046472 -0.004894 -0.127498 -0.276980 -0.315058 0.289240
BARA2~A -0.076040 -0.305874 -0.129783 0.170275 -0.056440 0.060245 0.022963 -0.324156 -0.081656 -0.137209 -0.053090 0.034569 0.025086 0.270557 0.072042 0.404764 -0.022188 0.110079 -0.316423 -0.218394 -0.383686 -0.200035 -0.073698 -0.092961 0.076267 -0.101710 0.202335 -0.015252 -0.000035 0.116838 -0.011187 0.192871
GIR2~A 0.230305 0.064987 0.000229 -0.120887 0.033884 0.309830 0.059866 0.083465 0.186061 0.213689 0.137043 -0.042695 0.225176 0.121574 -0.110753 0.021229 -0.028266 0.004405 -0.184600 0.409567 0.326542 0.026435 0.178754 -0.048070 -0.009651 0.081202 -0.363188 0.010601 -0.012300 -0.232048 -0.030637 0.321666
NU11 -0.018417 0.294680 -0.129284 -0.002489 0.098428 0.186200 0.151502 0.077710 0.279024 0.141630 0.061582 0.304558 0.139396 0.006376 0.207604 0.056471 -0.341097 -0.207029 0.125449 -0.128302 0.073934 -0.015776 0.149855 -0.036094 -0.127960 -0.091369 -0.209685 -0.213656 0.319982 -0.288659 -0.081789 0.186840
BAR -0.084762 0.448358 0.264714 0.064261 0.018385 0.055849 -0.038445 -0.080827 0.014756 -0.186286 -0.110724 0.131189 -0.046687 0.135616 0.031180 0.105599 -0.021716 -0.197476 -0.055658 0.197989 -0.275508 0.084108 0.176819 -0.028745 0.015858 0.158459 -0.357687 0.149037 -0.021675 0.227797 0.338315 0.264324
DU8~C@G 0.025431 0.401411 -0.168358 0.101517 -0.085912 -0.092469 -0.133694 -0.154955 0.081667 0.006181 -0.051884 0.034256 -0.310337 0.067464 -0.179910 -0.128360 -0.336377 -0.341825 -0.198537 0.123463 -0.235429 -0.000196 0.001771 0.084949 0.126179 -0.034827 -0.125191 0.324319 0.098961 -0.091427 0.177133 0.216011
|NINDA2XGU4| -0.007359 -0.076781 -0.236085 0.159194 0.072493 0.000334 -0.031388 -0.001034 -0.134311 0.021373 0.138976 0.078863 0.150890 0.062655 -0.386138 -0.100593 -0.291188 0.030266 0.146315 -0.083984 0.098732 -0.012485 -0.113105 0.070751 -0.265647 -0.438990 -0.080032 -0.449051 0.206024 -0.067156 -0.101677 0.079299
N47 -0.106289 -0.257298 0.095114 0.326145 0.002596 0.294982 -0.111378 0.055868 -0.264328 -0.018119 -0.530056 -0.153175 0.024155 0.088641 -0.015517 0.278169 -0.050953 -0.131822 -0.039772 -0.118438 0.132399 0.127162 0.159918 0.043451 -0.036723 -0.001573 0.278615 0.074074 0.150463 -0.186616 0.015848 0.070233
N20 0.021725 -0.184978 0.073869 0.058173 -0.211603 0.019378 -0.036703 0.172675 -0.151998 -0.217940 -0.193589 0.265349 -0.022493 -0.052852 0.110520 -0.180112 0.216627 -0.020532 0.215121 -0.042826 0.021804 0.114860 -0.136980 0.135899 -0.080320 -0.010595 -0.019258 -0.134566 -0.294409 -0.140697 0.607710 0.080786
N05 0.175561 -0.240569 -0.172457 0.091081 -0.073441 -0.235179 -0.081644 0.134893 -0.255246 -0.093791 -0.261740 0.022672 0.079383 -0.144790 -0.197020 0.166286 0.139374 0.007586 0.257051 0.139657 0.059434 0.166766 0.006634 0.172040 -0.035299 -0.090564 0.113640 0.063920 -0.269443 0.150022 0.509858 0.058691
GU7 0.234918 0.024223 0.124378 -0.299557 0.007546 0.089310 -0.317604 -0.103232 0.099026 0.214757 0.265185 -0.184691 -0.117972 -0.012571 -0.256017 -0.122130 0.074976 0.025662 -0.134039 -0.056406 0.182445 0.172109 0.200581 0.161907 0.240128 -0.080192 0.007294 0.154715 0.102034 0.074772 0.406196 0.196726
N54 0.331046 -0.084229 0.228117 -0.013648 0.061248 -0.428105 -0.286248 0.187071 -0.125406 0.375256 -0.016843 0.077083 -0.197865 0.272410 -0.058922 -0.126075 0.046932 0.193317 -0.081713 -0.135573 0.048377 -0.032449 -0.037550 0.143139 0.030088 -0.139462 -0.128118 0.075437 0.098522 -0.128340 0.241796 0.120878
N48 0.092518 -0.083693 0.052399 0.142788 -0.088831 -0.090412 0.008568 -0.458141 0.000423 -0.166724 -0.096783 -0.066822 -0.064611 0.392476 0.068188 -0.119103 0.220795 0.040657 0.142672 0.225736 -0.146765 -0.081540 -0.007555 0.003713 -0.003384 0.329851 0.345111 -0.104173 -0.064533 0.267984 -0.044354 0.223395
NA~A 0.172546 0.069193 0.035440 -0.198279 0.035390 -0.150019 -0.203172 0.008185 0.245785 -0.436345 -0.023693 0.044896 0.182023 0.145261 -0.101824 0.036375 0.042337 -0.254382 0.088932 -0.127199 -0.122586 0.091813 0.059818 -0.073247 0.028108 0.380205 -0.120809 -0.242500 -0.114836 0.010048 -0.224414 0.367516
|N58.BAD~A| 0.221100 -0.135273 -0.192269 -0.088296 -0.198738 0.287641 0.099555 -0.067851 0.002666 -0.055926 -0.052331 0.257966 -0.220152 0.430692 0.045756 -0.292519 -0.281415 0.069847 0.129094 0.179437 -0.270620 0.080827 0.031669 0.007746 0.059615 0.080601 0.072354 0.262685 0.031554 -0.078711 -0.010224 0.227835
SA~C 0.269753 0.040445 -0.094413 0.300698 0.103422 0.195033 -0.132191 -0.015413 0.431708 -0.163717 0.087235 -0.106590 -0.094178 -0.244796 -0.323456 -0.130839 0.118742 -0.154738 -0.139909 -0.105762 0.204996 -0.005898 -0.293750 -0.140850 -0.035271 0.101817 -0.024848 -0.196443 -0.081101 0.145061 -0.019602 0.203280
DI -0.211838 -0.154137 -0.092882 -0.066102 -0.303992 -0.126321 0.238183 0.530142 0.085240 0.008499 -0.155482 -0.163289 -0.166255 -0.283506 -0.117246 -0.158180 0.223571 -0.094996 0.025973 -0.038361 0.031718 0.076501 -0.239241 -0.099992 -0.098512 -0.099646 0.142531 0.131139 0.033312 0.130692 -0.075447 0.225797
SZA3~A2 0.038950 0.027535 -0.271336 0.092385 0.163536 -0.282313 0.066384 -0.074668 -0.328052 0.093471 0.162813 -0.248977 0.019440 -0.036590 -0.105305 0.316324 -0.034176 -0.070823 -0.274006 -0.054970 -0.182631 0.106176 0.022687 0.029098 -0.045874 -0.336033 0.161088 -0.239896 -0.060827 -0.246990 -0.213520 0.205744
DUG~C 0.234345 0.067787 0.021499 -0.170051 -0.111185 0.201751 -0.300849 0.052244 -0.090072 0.283890 0.295362 -0.234346 -0.312576 0.066641 -0.141771 -0.267244 -0.226180 -0.238185 -0.069556 0.060461 0.136090 -0.169265 0.208627 0.113607 0.112960 0.035519 0.036724 0.194230 0.152229 -0.014910 0.149314 0.146641
UR3~B1 -0.118853 -0.190195 0.018420 0.046685 -0.175080 0.046858 -0.018291 0.166808 0.200127 0.153537 -0.345444 -0.049126 -0.107927 -0.054797 0.423552 0.261279 -0.107198 0.001536 -0.385623 0.044313 -0.021370 0.102147 -0.324501 -0.183929 -0.051720 -0.091456 -0.115743 -0.018987 0.189000 0.192357 -0.014486 0.169048
N27 0.168013 0.042298 -0.203344 -0.326124 -0.027287 0.330966 0.079049 0.380853 -0.041788 0.122745 0.260425 -0.010507 -0.230335 0.326707 0.137882 -0.115785 -0.004993 -0.025880 -0.059361 -0.140637 0.008357 -0.346204 0.094294 -0.122852 -0.012725 0.046785 0.048227 -0.087499 -0.049482 -0.177929 0.198020 0.173732
GADA~A 0.008399 0.171707 -0.202252 0.064675 -0.004104 0.330552 0.094458 -0.236364 -0.259921 -0.252321 0.041029 -0.296963 0.318005 0.096612 0.127868 0.048617 0.264415 -0.012045 -0.251724 -0.200070 -0.120018 -0.126958 0.188784 -0.054128 0.140650 -0.044896 -0.043236 -0.084331 -0.024126 0.152987 -0.067367 0.314906
SUKUD 0.200567 -0.153037 0.247753 -0.084863 -0.164384 -0.001330 -0.016075 0.097530 -0.185674 0.111950 -0.219305 0.087072 0.027009 -0.163365 0.377400 -0.180537 0.081784 0.024012 -0.382888 0.027183 -0.301542 -0.120350 -0.271446 -0.292457 -0.128712 0.000402 -0.097017 -0.084946 0.220836 -0.117270 -0.084762 0.060961
GU4 0.171063 0.159893 -0.271853 -0.088210 -0.298557 -0.404513 0.364228 -0.335379 0.080123 -0.066617 0.085060 -0.190330 0.044122 -0.103561 -0.124799 0.007717 -0.108791 -0.075077 -0.128315 0.159980 0.072345 -0.087416 0.160260 -0.059586 -0.167750 -0.098118 0.029770 0.280860 -0.011128 0.015696 0.142223 0.207799
SUM~A -0.234606 0.099733 0.164036 0.264847 0.162301 -0.030718 -0.244501 -0.169791 0.033260 -0.097990 -0.273145 0.159526 -0.313587 0.261733 0.109601 -0.006639 0.044412 0.079732 -0.229872 -0.010246 -0.292263 0.228336 0.113636 -0.002359 0.164046 -0.207954 -0.044831 -0.176058 -0.021576 0.271143 0.016502 0.207935
GA'AR~B1 -0.152567 -0.041758 -0.166424 0.407109 0.180027 -0.250251 0.172403 0.292273 -0.032379 0.223483 0.003206 -0.006899 -0.086943 0.332830 0.063138 -0.007215 -0.237027 0.146590 -0.010286 -0.166250 0.167652 -0.205823 -0.067365 -0.139321 0.132052 0.253884 0.130131 -0.010017 -0.157329 -0.247555 -0.056081 0.099973
DA~A 0.216252 -0.208961 0.289195 -0.186376 0.446469 0.245167 0.202721 -0.191607 -0.134432 -0.170270 0.346653 0.061400 -0.060145 0.079744 -0.102486 0.126650 -0.016726 -0.105256 0.015311 -0.183788 0.015093 0.032081 -0.089061 -0.136043 -0.090714 0.261991 0.107612 -0.199827 -0.024566 0.069753 0.021521 0.197606
SZAB~A 0.243903 -0.309391 -0.341855 -0.039770 -0.207615 0.020999 -0.039109 0.343958 0.101870 -0.033305 0.243801 0.070260 0.140489 -0.082710 -0.267344 0.026137 0.026664 -0.107701 0.132063 0.076614 -0.053230 0.244480 -0.100715 0.112795 -0.189277 -0.239480 0.062231 -0.286506 0.198149 0.098049 -0.097623 0.172428
|GISZXSZU2~B| -0.022275 0.062019 0.129648 0.013943 0.107355 0.084088 0.221946 0.299523 -0.470161 -0.102468 -0.156999 -0.231582 -0.090828 0.113925 0.153865 0.003086 0.056691 -0.301691 0.268269 -0.207317 0.049091 -0.171075 -0.008137 -0.204738 0.281933 -0.239085 -0.071138 -0.091262 0.075113 0.015316 -0.100317 0.132380
SAR~B 0.069636 -0.005805 -0.180720 -0.056828 -0.084486 0.232593 0.145611 -0.010044 0.464362 0.084505 0.220018 0.177777 0.001396 0.184042 0.284035 0.120537 -0.156887 -0.082841 -0.126757 -0.100190 0.148395 -0.238529 0.212691 -0.093453 0.037669 0.139638 -0.295577 -0.098419 0.106297 -0.331459 -0.084079 0.090277
NANSZE~A 0.115739 0.361295 0.061825 0.447770 0.393830 0.047630 0.018703 -0.113468 0.048174 -0.185226 -0.106763 0.081079 -0.181704 -0.026435 0.387222 -0.024005 -0.161623 -0.027368 -0.247694 -0.112931 -0.152034 0.136950 0.098745 -0.062330 0.037977 -0.001152 0.083525 -0.166185 0.190490 -0.023940 -0.001679 0.113748
SZITA~B2 0.107516 0.133433 -0.078944 -0.072635 -0.091289 0.057346 -0.144856 0.036737 0.167219 -0.300565 -0.075889 0.295029 -0.160868 0.138542 -0.114015 0.015792 -0.186634 -0.045876 -0.169381 -0.035493 -0.062183 0.251339 0.034120 -0.270720 0.277624 -0.368711 -0.388324 0.180092 -0.139517 0.157424 -0.017832 0.080962
UR4~B -0.198287 0.134382 -0.048798 0.157117 -0.072559 0.093367 -0.006236 -0.299404 0.288071 0.142630 0.054648 0.040028 -0.141599 0.046192 0.070326 -0.480252 0.502627 -0.063466 0.148952 -0.018499 0.001003 -0.053928 -0.039012 -0.012604 0.011588 -0.222180 -0.149568 0.193532 0.072793 -0.076527 -0.092985 0.182476
|SZU2.EN~A| -0.017907 -0.040703 0.134274 0.176459 -0.131368 0.328525 0.061882 -0.089686 0.060153 -0.055152 -0.195652 -0.347945 -0.274127 0.193213 0.104082 0.220520 -0.119994 -0.025349 0.186615 -0.004229 0.156666 -0.010226 0.368792 -0.130528 0.057674 0.154022 -0.224189 -0.023788 0.267985 -0.272560 -0.059207 0.137069
IB~A 0.277880 -0.053291 0.033647 -0.309970 0.178336 -0.007393 0.088843 -0.184877 0.070848 -0.065290 -0.168676 -0.151324 -0.126064 -0.248283 0.056181 0.263738 -0.104550 0.324474 0.208292 -0.266750 0.311654 -0.044388 0.108471 0.006886 0.014553 -0.046183 0.226597 0.070797 0.113918 0.206603 0.129755 0.255043
ZATU686~A 0.272828 -0.405167 -0.169142 -0.219510 0.186982 0.125011 0.343392 0.024238 0.036226 0.040995 0.060311 0.270491 -0.085330 -0.015270 -0.154416 -0.021618 0.177435 -0.409260 0.054496 0.195013 0.203598 -0.047637 0.200239 -0.090336 0.132067 0.102924 -0.023060 0.140213 0.022690 -0.039241 -0.009745 0.146841
|NIR~AXAN| 0.012079 -0.167517 0.030265 0.107091 0.077735 0.238440 -0.282582 -0.028387 -0.041165 -0.191153 -0.252646 -0.243454 -0.108376 0.151345 0.288658 -0.061942 -0.126515 -0.366872 0.164667 -0.175836 0.170131 0.155281 0.208936 0.255058 0.144571 -0.078312 0.203438 0.094887 0.247261 0.046551 -0.033348 0.143064
SI4~A 0.000011 0.069982 0.083063 -0.475623 -0.052173 0.183337 -0.177678 0.055915 -0.011329 0.246820 0.144002 -0.294046 -0.275749 0.161964 -0.007161 -0.032746 0.027742 0.038126 -0.114560 0.318866 -0.107379 -0.025488 0.039075 -0.105886 0.120931 0.154515 -0.366773 0.049614 0.161328 0.023092 0.100391 0.255443
GA~A -0.058000 -0.066066 0.256172 0.046850 0.250348 0.244618 -0.221076 0.226624 -0.168362 0.107085 -0.081287 -0.168434 0.141866 0.283470 -0.061305 0.048174 -0.206052 -0.212638 0.001572 0.209822 0.164294 0.035375 0.190297 0.278565 0.014610 0.032421 0.070698 0.315802 0.221991 0.085669 0.069867 0.281260
N07~A 0.349366 0.056843 -0.025685 0.281293 -0.021264 -0.435605 -0.175942 -0.054475 -0.337430 0.315130 -0.235006 0.044448 -0.036326 0.281101 0.153932 -0.166616 0.024202 0.121286 -0.005083 -0.042744 -0.167974 -0.024886 -0.024677 -0.103943 -0.054957 0.039539 0.039641 0.189035 0.206383 -0.105037 0.026763 0.122509
NI~A 0.069890 -0.116565 -0.249714 -0.041158 -0.136342 0.113284 -0.122822 0.307994 0.134317 -0.049948 -0.192478 -0.059422 -0.096290 0.200676 0.183874 0.280674 -0.015092 0.264759 0.123631 -0.112644 0.149699 -0.016116 0.150406 0.013997 0.005611 0.282970 0.119654 -0.226036 -0.320546 0.176164 -0.154579 0.325402
NUN~B 0.156481 0.151506 -0.024466 -0.015898 -0.082928 -0.227626 -0.007315 -0.006663 0.178293 -0.129313 0.147987 0.088001 -0.286217 -0.183932 -0.029103 0.275176 -0.094429 -0.105892 0.162592 0.129058 0.422815 -0.309637 0.079300 0.071670 0.003976 -0.057736 0.230106 0.382572 0.097988 -0.012681 0.061540 0.238624
IR11 0.397497 0.023359 0.024438 0.379295 0.338654 -0.276182 0.060344 -0.260101 0.121584 -0.363751 -0.129848 -0.180014 0.113191 -0.039673 0.154474 0.048842 0.037300 0.028523 -0.114737 -0.136369 0.030448 0.219627 0.011932 -0.158056 0.138669 0.146729 0.021303 0.018184 0.183010 0.024520 0.013253 0.116913
GAN2 0.145657 -0.081393 -0.246657 -0.166404 0.083903 0.052637 0.260544 -0.127857 0.252560 0.005790 0.111896 0.027254 0.153403 0.042493 -0.183363 -0.218242 0.381561 -0.436179 -0.116672 0.367285 0.119364 0.234937 0.002661 -0.081677 -0.007413 0.038188 0.012608 0.073909 -0.004317 0.114181 -0.014799 0.158214
|N57.SZUBUR| 0.249386 0.360434 0.267537 -0.030478 0.170795 -0.140602 0.112458 0.233842 0.090827 -0.147332 0.081624 -0.029291 0.214881 0.386559 0.276612 0.048574 -0.209749 -0.021491 0.200056 -0.022954 -0.149449 0.072409 0.093648 0.028951 0.128039 -0.040982 0.337230 -0.114900 0.068838 -0.054400 0.006645 0.179540
TUG2~A@G -0.143856 0.211125 0.004153 -0.065290 0.185918 -0.137632 -0.269389 -0.131117 0.010184 -0.453243 0.042830 -0.348142 0.015194 0.173092 0.220267 -0.008376 -0.149089 -0.050530 -0.220459 -0.431955 -0.247512 -0.074723 -0.026076 -0.017058 0.023979 -0.032992 0.007499 -0.070665 -0.018391 -0.169172 -0.017653 0.126746
U2~A 0.205020 0.342171 0.092089 -0.256502 0.009628 0.300263 -0.344930 0.027354 -0.063735 0.110355 0.101725 -0.142287 -0.030797 0.324178 -0.064000 -0.186009 0.039047 -0.079932 -0.242591 -0.142916 0.178777 -0.135135 0.040492 -0.002822 0.326343 0.070605 -0.111919 0.167148 0.057753 -0.032759 0.090298 0.247987
NAGAR~A 0.088916 -0.003543 -0.035443 -0.309448 -0.012336 0.186109 -0.060122 0.143741 0.253953 0.128286 0.203557 -0.155006 -0.086290 0.267408 0.472678 0.194176 -0.087413 0.006866 -0.017170 -0.025948 0.052377 -0.299378 0.082244 0.116058 0.176097 -0.042137 -0.143368 -0.159018 0.218797 -0.215125 -0.024580 0.234236
UNUG~A -0.110835 -0.129812 -0.222376 -0.061914 0.199690 0.054750 0.145455 0.027267 0.006440 -0.289566 0.119059 0.108690 -0.111773 -0.185409 0.049435 -0.330525 -0.404667 0.353228 -0.083770 -0.010712 -0.122989 -0.182418 0.143572 -0.023515 -0.183313 0.059605 0.072817 0.373998 0.030516 0.091734 0.108431 0.125315
UH3~B -0.036559 -0.059272 0.185462 0.084337 0.005865 0.120233 0.087622 0.037610 -0.035318 -0.095204 0.129843 -0.311375 -0.095634 -0.065554 -0.067414 0.187908 -0.051446 0.252833 0.295533 0.277441 -0.173055 0.295323 0.236322 -0.246263 -0.134526 0.260006 -0.421204 -0.039510 0.059529 -0.116252 -0.044768 0.066016
NESAG2~A -0.096792 0.157924 -0.009988 0.118120 -0.249401 -0.464598 -0.024885 -0.177421 0.137849 0.019542 -0.052866 0.040598 0.080585 -0.145106 -0.188978 0.412099 -0.048142 0.134424 0.313152 -0.019348 0.105982 -0.142202 0.135307 -0.033422 -0.146572 0.015743 0.191386 0.362870 0.046042 0.048221 0.023613 0.140828
SZE3 0.207468 0.172685 0.323415 0.009062 0.111643 -0.267074 0.065890 0.318339 0.300393 0.049582 0.004338 0.174842 0.378612 0.157121 -0.184253 0.148083 0.076867 0.089756 0.137975 -0.027765 -0.040215 -0.143061 0.039544 0.152857 -0.007399 0.000803 0.179892 -0.078922 -0.139121 -0.050910 -0.214738 0.313527
ZATU675~D 0.079469 0.061986 0.201189 -0.296154 0.082439 -0.253831 -0.605987 0.057473 -0.023031 -0.042173 0.185019 -0.244011 0.016687 0.081383 0.007923 -0.268312 0.129662 0.332005 -0.035512 0.038308 -0.009899 -0.034274 0.108895 0.202511 0.203860 -0.012717 0.042522 -0.013475 -0.024256 0.004139 0.054625 0.116882
NIR~A -0.028517 0.368118 0.087719 -0.006575 0.140193 0.222941 0.001381 0.156443 -0.241089 -0.180960 -0.039326 0.439411 -0.079832 0.092933 0.083629 -0.049999 0.209913 -0.121262 -0.175483 0.295530 0.409375 0.057984 0.126156 0.084369 -0.007025 0.048137 -0.092063 0.065042 0.006706 0.082230 0.071200 0.232961
GA2~A1 -0.129661 0.146178 -0.198361 0.090664 0.227969 0.113817 0.066618 0.012691 0.304063 0.336970 -0.008391 -0.194905 0.431375 -0.201091 0.153359 0.126068 0.071901 0.164080 -0.083714 0.072636 -0.061358 -0.089191 0.222796 -0.163444 0.181701 0.097891 -0.224947 -0.074595 0.121831 -0.065616 0.003818 0.290449
LAGAB~A -0.115656 0.084605 -0.060667 -0.122509 -0.000157 -0.034368 0.172780 -0.282051 -0.364046 -0.273815 0.223773 -0.118820 -0.192033 0.098811 -0.050970 0.129498 0.078353 -0.390537 -0.107834 -0.403876 -0.260152 -0.106776 0.004713 -0.088384 0.077077 -0.217305 -0.107713 -0.021937 -0.064469 -0.034893 -0.021394 0.145230
ZATU795 -0.050657 0.012741 0.056279 0.029395 -0.015798 0.036011 0.028203 -0.280046 -0.126581 -0.021654 0.046299 0.403358 -0.150230 0.366167 -0.065197 0.088469 -0.071128 0.083937 0.239110 0.140731 -0.147903 0.002760 -0.392708 -0.239202 -0.079860 0.255176 0.226931 0.270662 0.072777 -0.121444 -0.082830 0.129835
DIN 0.083164 0.218579 0.267504 0.208719 0.191949 0.294128 0.028634 0.070896 -0.090053 -0.241885 0.073030 0.031298 -0.045678 0.014696 -0.064388 -0.021235 0.185243 -0.304972 0.337121 0.145428 -0.333365 -0.018363 0.037496 0.314286 -0.168411 0.020947 -0.259829 -0.058852 0.088605 -0.007437 -0.019825 0.198253
SIG2~B -0.068471 0.169542 0.317530 -0.051214 -0.020932 0.166808 -0.420021 0.300846 -0.176577 0.051552 0.124237 -0.334861 0.229013 0.059355 -0.206178 -0.059810 0.137464 -0.062584 -0.041163 -0.183929 0.049588 -0.096580 0.282836 0.122064 -0.042353 0.121143 0.029697 0.222990 0.084495 -0.007366 0.109945 0.230419
|SILA3~AXGARA2~A| 0.160789 -0.111451 -0.171584 0.157966 -0.147953 -0.286647 0.331809 -0.292672 0.196274 -0.049391 0.018354 -0.097557 -0.222353 0.135050 -0.139899 0.074739 0.114770 0.085323 -0.132854 0.094696 -0.022610 -0.050220 -0.119684 0.277931 0.378484 0.092446 0.150560 0.075116 0.312100 -0.139683 -0.032991 0.155179
DIM~A 0.185637 0.289072 0.200664 -0.066444 0.007915 -0.476187 0.035456 0.120513 0.051395 -0.002011 -0.186917 -0.010605 -0.035645 0.317023 0.269351 -0.088008 0.053645 -0.063271 0.289151 0.128190 -0.058759 0.003203 -0.190135 -0.189049 0.024883 0.197172 0.243339 -0.001069 0.154949 -0.090686 -0.080348 0.235067
ZATU675~B -0.177759 0.185696 -0.202510 0.138407 0.233821 0.000393 0.008688 -0.370833 -0.005206 -0.035261 -0.127849 0.011729 -0.212699 -0.318792 -0.055918 -0.100381 -0.017179 0.087001 -0.018050 0.170210 0.203044 0.060885 0.113622 -0.099496 -0.032576 0.008863 0.048479 0.079457 -0.122465 -0.249683 0.554879 0.061014
N14| 0.145483 -0.081747 0.052718 0.078163 0.292793 -0.003684 -0.554649 0.008945 0.252310 -0.075950 -0.126152 0.031657 0.186253 -0.219575 -0.197010 -0.175106 0.007852 -0.156412 -0.008320 -0.103484 -0.151304 -0.205846 -0.091872 0.170082 -0.205843 0.263464 -0.112506 0.100855 -0.168849 0.071789 -0.079152 0.136389
|DUG~CXN57| 0.055982 -0.026034 0.228293 0.017888 0.055147 0.251001 0.126394 0.042977 0.020266 -0.045966 0.475769 -0.080831 -0.115973 -0.070909 0.059373 -0.100394 -0.077225 -0.094148 -0.429453 0.078563 -0.176579 -0.108926 0.089302 0.278496 0.241921 -0.014935 -0.055503 -0.226404 0.277460 -0.124057 0.009355 0.229852
GESZTU~C3 0.026356 0.055760 -0.396080 0.295265 0.030222 -0.087025 0.229770 0.033115 0.204736 0.116983 0.140780 -0.012503 -0.062338 0.320113 0.167918 0.046262 -0.207730 0.042985 -0.118334 -0.079202 0.236571 -0.165756 0.067755 -0.206029 0.133315 0.283587 -0.125491 -0.072261 0.015788 -0.347960 -0.088706 0.182681
N15 0.061634 -0.277143 -0.385268 0.339642 -0.181372 0.213085 0.179581 -0.028668 0.086430 0.259796 0.144256 0.061096 -0.017644 0.049767 0.093804 -0.018619 -0.201370 -0.067281 -0.081509 -0.178806 0.007784 -0.053138 0.067823 -0.013257 -0.169373 -0.151379 -0.080253 -0.440886 0.216361 -0.123390 -0.091744 0.136247
SZE~A@T 0.091335 -0.230067 -0.010622 0.272629 0.091302 -0.122163 -0.082427 0.078667 0.390098 0.115122 0.148412 -0.035072 -0.002495 -0.203946 -0.240124 -0.112792 -0.118175 -0.125865 -0.055407 -0.306030 0.185767 -0.000292 -0.040131 0.108779 -0.263909 -0.003373 -0.178880 -0.167886 -0.209941 -0.271851 -0.279725 0.163787
GUG2 0.111937 -0.294479 0.028422 0.358423 0.093401 -0.069119 -0.158221 -0.109210 0.073072 0.216461 0.170079 0.110567 -0.013823 -0.227589 -0.237939 -0.063806 0.207472 -0.266490 0.015654 -0.208164 -0.015956 -0.131395 -0.101852 -0.018884 -0.073532 0.035111 0.032500 0.019064 -0.404637 -0.274893 0.091577 0.270857
UTUA~A -0.141864 -0.275238 0.213211 -0.138918 -0.073595 0.068381 0.293080 -0.190552 0.009251 -0.249350 -0.007487 -0.002906 -0.033418 0.080987 0.004164 0.289844 -0.044837 0.135130 0.045418 -0.355063 -0.395573 -0.261398 -0.115390 -0.084839 -0.040015 -0.083754 0.164821 0.166622 0.029817 -0.015896 0.138556 0.274643
LU2 -0.033073 0.178776 0.190147 -0.008112 0.142577 0.072661 0.215812 0.322348 0.162712 0.052495 -0.058139 -0.081559 0.083124 0.071479 0.426911 0.191647 0.082612 0.031448 0.077769 0.214444 -0.110926 0.006700 0.147243 -0.321922 -0.017360 0.126647 -0.357601 -0.105739 0.219142 -0.138482 -0.107356 0.229634
ZATU756 -0.157433 0.180835 -0.079454 -0.059591 0.088153 -0.235035 0.283320 0.119001 -0.403033 0.338599 0.065047 -0.096218 0.013863 0.116309 -0.147243 0.117405 0.370652 0.173927 -0.066835 0.040111 -0.249867 0.062213 0.267663 -0.086753 -0.177220 -0.218917 0.116653 -0.096039 -0.012594 0.025026 0.060420 0.098317
NUNUZ~B1 -0.084437 0.010942 -0.085193 -0.017099 0.115606 0.233330 0.126458 -0.264736 0.110561 0.084555 0.065179 -0.044146 -0.227767 0.058955 0.211517 -0.114949 0.440155 0.062317 0.422604 -0.135492 -0.152958 -0.267733 -0.022144 0.258555 -0.049057 -0.288085 -0.151459 0.076545 -0.009482 -0.105080 -0.089626 0.045677
E~A -0.059133 -0.080096 0.483371 0.018145 0.047515 0.005460 -0.009927 0.044022 -0.250196 -0.326115 -0.252069 -0.062472 0.178163 0.217531 0.060299 -0.270107 0.259278 -0.186114 0.002705 -0.159414 0.076707 0.109167 0.291589 0.027057 -0.052729 -0.141315 0.151350 0.148413 0.169637 0.081750 -0.016429 0.159645
ZATU710 -0.028303 0.058383 -0.135924 0.057285 0.082475 -0.174215 0.001470 -0.078364 -0.071407 0.081898 -0.176726 -0.165678 0.035953 0.146237 -0.077601 -0.322665 0.223759 0.166769 0.031580 0.452702 -0.230045 0.225629 0.108862 -0.349545 0.052079 -0.002447 -0.235569 -0.062619 0.199956 -0.176749 0.104945 0.247772
ZATU777 -0.353546 0.173115 -0.071247 -0.108879 -0.109538 -0.012366 0.129719 0.056596 -0.014566 0.000352 -0.279879 0.437753 0.083088 0.101318 -0.145200 -0.084599 0.038557 -0.344714 -0.120687 0.028185 -0.127700 0.136625 0.091737 -0.086670 -0.338218 0.027282 -0.176468 0.270189 0.051050 -0.139576 0.075556 0.216084
NUNUZ~A2 -0.178226 0.250998 -0.069819 0.145309 -0.252271 0.250018 0.042963 0.355716 0.020940 -0.008489 0.251572 -0.075257 -0.273312 -0.063494 -0.266246 -0.282331 -0.078819 -0.073245 0.027063 -0.112279 0.101691 0.004949 -0.232971 -0.161160 -0.093155 -0.355535 0.156927 -0.097380 0.050640 0.066322 -0.041539 0.180322
SZIDIM 0.131970 0.317339 0.087628 -0.031633 0.304694 -0.099516 0.341423 0.324362 0.018914 0.018344 0.002813 0.048428 0.219252 -0.119945 0.129234 0.203201 -0.018154 0.012203 0.089383 -0.112859 -0.033750 -0.136542 -0.010285 0.147894 0.391917 0.111640 0.034662 -0.041670 0.299611 -0.258737 -0.109366 0.156659
TAG~A3 -0.072428 -0.013097 0.152066 0.056582 0.131844 -0.062178 -0.074478 0.066233 0.319705 -0.059879 -0.159277 0.411142 -0.170059 0.062023 0.107296 -0.013773 -0.016866 0.082373 -0.090008 -0.183967 -0.100586 0.148928 0.031230 -0.197615 0.342188 -0.402721 -0.358476 0.146978 -0.159510 0.105469 -0.044797 0.055721
|SIXGU4| 0.063973 -0.275582 -0.363781 -0.132295 -0.214083 -0.097998 -0.186174 0.359938 0.155505 -0.284120 0.124803 0.203019 0.088798 -0.101156 0.016975 0.073245 0.146588 -0.234256 0.151615 0.125314 -0.162494 0.309399 0.079796 0.091176 0.139546 -0.000123 0.177114 0.011598 0.118314 -0.111597 -0.155159 0.107856
|SILA3~AXSZU| 0.363447 0.290689 0.118451 0.001472 0.279426 -0.266445 -0.072612 -0.093378 0.225921 -0.012345 0.209873 0.091400 0.413768 0.091127 -0.064968 0.298737 -0.011106 0.228543 -0.088625 -0.099413 -0.055949 -0.085683 -0.009951 -0.159986 -0.092697 -0.183592 0.111339 -0.227298 0.064729 -0.061930 -0.034806 0.088820
SZEN~B 0.211113 0.305283 0.047930 -0.160700 0.319510 -0.210434 0.128635 0.132556 -0.017451 -0.036371 0.078443 -0.150026 0.467179 0.017217 0.276637 0.103030 0.024264 0.134740 -0.259503 -0.226403 -0.096987 -0.131794 0.113207 -0.197877 -0.013376 -0.110182 0.004825 -0.149675 0.148910 -0.123834 -0.036755 0.167167
UKKIN~B 0.121726 0.166857 0.068667 0.226838 0.107536 -0.468108 -0.234915 -0.368369 -0.003881 -0.056006 0.141112 -0.258758 0.278653 0.240444 -0.097228 -0.165377 0.212504 0.209650 -0.080659 -0.010127 0.012075 -0.070731 0.015975 -0.184717 0.021238 -0.071777 0.092445 -0.145948 0.093124 0.118055 0.008590 0.154726
|SILA3~AXSZE~A@T| -0.218605 0.048815 -0.260027 0.126297 -0.081233 0.110386 0.117138 0.139621 -0.091093 -0.089765 0.108862 -0.077110 -0.097146 0.099952 -0.188746 -0.107424 -0.322611 -0.206797 0.189198 -0.172393 0.182443 0.023066 -0.065150 0.042053 -0.136139 -0.432381 0.072506 -0.385431 0.278938 -0.024973 -0.083129 0.129186
SI -0.293157 0.115153 0.060326 -0.166607 0.145340 -0.168060 -0.261753 -0.028460 0.113363 -0.136615 -0.125382 0.411574 -0.229581 0.036711 0.134364 0.089339 0.060362 0.191295 -0.126018 -0.210444 0.178987 0.294622 0.178143 -0.090130 0.122646 -0.292069 -0.243642 0.070206 -0.039611 0.081027 -0.020132 0.147352
GA2~A2 0.098446 -0.342579 -0.022686 -0.130511 0.013811 -0.330539 -0.013288 0.234652 -0.112059 -0.065460 -0.085038 0.193262 -0.257557 -0.174389 -0.307037 0.103897 -0.124384 0.035111 0.254024 -0.116566 -0.194053 -0.099932 0.365569 -0.166104 -0.131876 0.058920 -0.169304 -0.149576 -0.040029 0.036283 -0.054210 0.214539
GURUSZDA 0.020788 -0.397571 0.015049 -0.127627 -0.305334 -0.231565 -0.067733 -0.105197 0.000377 -0.077209 0.196881 0.249742 -0.057667 -0.062585 -0.113131 0.283584 -0.025329 -0.249095 0.067356 0.218188 0.064959 -0.117946 0.163608 0.116074 -0.172766 0.051132 0.330302 0.212895 -0.073877 -0.212597 -0.057076 0.202301
|SZU&SZU| 0.265865 0.009487 -0.091157 0.213212 -0.128186 -0.447710 -0.280067 -0.098720 0.144723 0.105451 0.075724 -0.161894 0.197522 0.027274 0.090144 -0.217546 0.190648 0.053319 -0.017929 0.022999 0.244493 0.106581 -0.295346 -0.152882 -0.119725 -0.071639 -0.138393 0.271327 0.230120 0.028630 0.079402 0.130701
TI 0.141889 0.131289 0.067198 -0.079520 0.009630 0.009995 -0.119146 -0.181597 0.104892 0.236117 -0.184643 0.030799 0.593439 -0.038155 -0.055774 -0.261158 -0.197809 0.057045 0.021621 0.020507 -0.223292 0.032835 -0.152522 -0.075156 -0.181553 -0.244986 0.096471 -0.190443 0.140699 -0.092902 -0.110624 0.274504
|GISZXSZU2~A| -0.186608 -0.147489 -0.275674 0.059380 -0.080607 -0.302908 -0.054305 0.119260 0.077161 0.002855 -0.064140 -0.358399 -0.077526 -0.259658 0.352985 -0.070772 0.085677 -0.304092 0.035347 0.228524 -0.015355 -0.044382 0.035885 0.096971 0.076130 -0.038138 0.130811 0.060538 0.054218 -0.338770 -0.196552 0.237423
IM~B 0.216985 0.162525 0.248141 -0.188965 0.045206 -0.299582 0.049623 0.134545 0.286279 -0.163092 0.142243 -0.083475 0.301355 0.461693 0.147468 0.033942 -0.251295 0.208125 0.032184 -0.019535 0.040259 -0.105567 0.036060 0.050152 0.050357 0.126054 0.139518 -0.222714 -0.085976 -0.087699 -0.048294 0.157683
TU~A -0.143684 -0.075483 -0.094141 -0.011596 0.002067 -0.028730 -0.025671 0.368681 -0.343454 -0.255917 -0.243908 -0.286407 -0.021794 0.048817 0.172785 0.227342 0.117965 -0.298776 0.102663 -0.362025 0.145705 0.008913 0.096091 -0.063154 0.085245 -0.076093 0.126592 0.168076 0.203112 -0.082689 -0.048683 0.175397
MAH~A -0.154547 0.047048 0.360341 0.108922 -0.074117 -0.274308 0.236512 0.178056 -0.014208 -0.252742 -0.044955 0.222058 0.159989 0.448763 0.100049 -0.285538 -0.072521 -0.155254 -0.008944 0.268643 0.116322 0.079944 0.212069 0.111419 -0.081898 0.071520 0.058741 -0.001812 -0.092705 -0.061692 -0.087486 0.124995
MUD3~A -0.170979 -0.076215 -0.301095 -0.044197 -0.081422 -0.313175 -0.107465 -0.085201 0.044783 -0.060931 -0.148385 -0.429875 -0.286148 -0.037788 0.338740 -0.071692 0.213425 -0.264242 0.221543 0.060474 -0.100925 -0.196480 -0.015810 0.186528 -0.032988 0.004752 -0.195590 0.145556 0.118207 -0.043431 0.011731 0.067917
TAK4~A -0.265175 -0.051838 -0.057599 0.096732 -0.032579 0.132920 0.225669 0.010996 0.159658 0.232443 -0.110794 0.095071 0.348619 0.055153 -0.055993 -0.267250 -0.012700 0.038260 -0.220619 -0.063033 0.253158 -0.166681 0.163766 0.235557 -0.194743 0.247777 -0.047748 -0.068628 -0.363543 -0.047769 -0.173939 0.212409
N35 0.021025 -0.187297 0.024327 -0.120906 -0.272109 -0.002385 -0.093756 -0.095860 0.123163 0.319458 -0.363128 -0.012401 -0.091532 -0.162933 0.218247 -0.311152 0.214453 -0.028054 -0.230411 -0.043156 -0.267203 0.052894 -0.265839 -0.148286 -0.130250 0.121036 -0.103371 -0.088440 0.299806 -0.102772 -0.070173 0.067477
ZATU703 -0.104589 0.286847 -0.174502 -0.202666 -0.181253 -0.251199 -0.228253 -0.004846 0.184528 0.249070 -0.268234 -0.232540 -0.125305 -0.127492 -0.301013 -0.267143 0.032890 0.020238 -0.052629 0.036651 -0.106849 0.048887 -0.043433 -0.246953 -0.071491 0.162093 -0.130389 0.193325 0.094542 -0.277317 0.009731 0.130982
|MAXMA| -0.543112 0.186585 0.287161 0.320731 -0.034695 0.054712 -0.088910 0.053609 -0.076855 -0.105101 -0.145665 -0.124465 0.221386 0.210170 -0.065350 -0.124336 0.015979 0.148122 0.026611 0.143659 -0.411342 -0.099456 0.123319 0.013991 -0.017312 -0.046617 0.172049 0.141900 0.032507 -0.050309 0.032590 0.091840
KASZ~D -0.043569 0.034272 -0.081371 0.392501 0.043093 -0.143220 0.259733 0.318741 0.037001 -0.092042 -0.024696 0.116730 -0.050632 -0.004004 -0.227880 0.093941 -0.022158 0.278656 -0.121537 -0.048980 -0.068213 -0.125522 -0.158109 0.314074 0.437157 0.175085 0.053175 0.051989 0.094685 -0.253759 -0.092561 0.093992
|SILA3~AXKASZ~D| 0.073894 -0.130908 0.187394 0.208218 0.216323 -0.244724 -0.156767 0.120909 0.378038 0.026529 0.002675 -0.015407 -0.097723 -0.198194 -0.307660 -0.177067 0.087006 -0.261049 -0.028643 -0.348588 -0.087690 -0.064729 -0.007712 0.100086 -0.174413 0.289685 -0.214595 -0.061136 -0.192590 -0.002243 -0.096394 0.061899
|SILA3~AXHASZHUR| 0.008086 -0.025603 0.383030 0.140544 0.014742 0.481819 0.117955 -0.121093 -0.192931 -0.055533 0.314046 0.153256 0.006680 -0.028174 -0.054475 0.319010 0.124096 0.157576 0.028533 -0.211787 0.137792 -0.038484 -0.164574 -0.199278 0.109672 0.140676 0.181958 0.202336 0.012305 0.141400 0.064993 0.021950
SZA@G -0.161698 -0.186831 -0.129154 0.082068 -0.232009 0.129120 -0.203079 -0.172740 0.034280 0.026121 -0.125284 0.262467 0.189614 0.014898 -0.014322 0.002447 0.061661 -0.293630 0.144333 -0.098269 -0.118455 -0.028702 -0.084352 0.103540 -0.136300 0.131204 0.056122 -0.165780 -0.258726 -0.325497 0.496084 0.111859
|(SZAXHI@G~A)~A| -0.208924 -0.067254 -0.112054 0.326190 0.017882 -0.001085 -0.130875 -0.018111 0.165399 -0.019553 -0.020188 0.075917 -0.147532 -0.057628 0.399339 -0.039910 -0.094998 -0.273010 -0.136544 -0.096008 -0.333198 -0.180114 -0.044380 0.023127 -0.057763 0.051667 0.106963 -0.271822 -0.022004 -0.401370 0.248982 0.150788
GA'AR~A2 0.398238 0.007505 0.135770 -0.270046 0.007824 0.471101 0.010965 0.053824 0.107002 0.060429 0.058466 -0.092478 0.019729 -0.029640 0.125100 -0.095466 -0.050985 -0.189714 -0.029035 0.271712 -0.099166 0.375241 0.121552 0.223793 -0.005842 -0.065686 0.159759 -0.178889 0.145529 0.059041 0.189538 0.143709
URUDU~A 0.101538 -0.095745 0.142023 0.008147 0.115113 0.105268 -0.394311 -0.101423 0.182928 -0.150999 -0.164579 -0.017378 0.215086 -0.252780 -0.031544 -0.399635 0.001539 0.087979 0.272104 -0.237053 -0.225631 -0.300396 0.129319 0.100987 -0.185266 -0.064057 0.044215 0.090826 -0.090810 0.112533 -0.103066 0.171644
|SAR~AXSZE~A| -0.078655 -0.030212 0.240373 -0.050847 -0.416973 -0.148770 -0.086663 0.089108 -0.157164 -0.026699 -0.187890 -0.158804 0.076613 0.064267 0.195623 -0.011093 -0.246780 -0.090449 0.256902 -0.063218 0.206143 -0.069341 0.219874 0.136476 0.067139 0.094691 0.229425 -0.138444 -0.258598 -0.251464 -0.272755 0.208881
HAL 0.298627 -0.557353 0.117537 -0.143382 -0.000952 -0.240170 0.032839 0.331560 0.075053 0.194496 -0.095890 0.138202 -0.067230 0.037768 -0.013726 0.008287 0.176195 0.194852 -0.031821 0.058508 -0.142102 0.103607 0.048816 -0.216141 -0.049202 -0.213907 -0.041515 -0.254499 0.056884 0.035355 0.040969 0.211764
|(U8XTAR)~B| 0.644078 -0.160267 -0.150745 -0.046092 -0.288713 0.048141 -0.112587 0.156108 0.030976 -0.019794 0.216374 -0.044329 0.145080 -0.169629 0.024243 0.135180 0.179825 -0.036972 0.050267 -0.171519 -0.136874 0.153853 0.209287 0.046119 -0.139785 0.113785 -0.015540 -0.160931 -0.061646 0.244746 0.006469 0.129386
NA2~A -0.063773 -0.149340 0.343186 -0.006341 0.135427 0.083206 -0.109488 -0.242941 -0.144646 0.075513 0.190150 -0.322657 -0.107366 -0.306705 0.071295 -0.283031 -0.278930 -0.081971 -0.133510 0.220042 0.281635 0.056022 0.034212 0.174193 0.075264 -0.107892 0.133561 0.198003 0.001965 -0.034023 0.149286 0.198335
TUG2~A -0.238355 0.094145 -0.373874 -0.096673 0.138154 -0.056143 -0.314649 0.101986 -0.360467 0.297976 -0.032502 -0.169579 0.179308 -0.008215 -0.305318 0.175663 0.099854 0.290727 -0.110039 -0.077400 -0.132276 -0.115776 0.065412 -0.078997 0.085062 -0.022244 0.061549 0.127248 -0.116192 0.176579 0.037142 0.144683
BUR2 0.202859 0.032706 0.238938 0.077643 0.286547 -0.404234 -0.088709 0.023620 -0.081705 0.105874 0.063671 0.102937 0.235694 0.072283 -0.076260 0.072606 0.259253 0.171433 -0.061757 0.130893 0.054297 0.049405 0.236436 -0.028965 -0.112535 -0.410825 0.024942 0.068844 -0.214121 -0.157111 -0.171427 0.264421
ZATU778 -0.012234 0.116928 -0.196148 -0.152935 -0.302428 0.177487 -0.123956 -0.170327 0.327993 0.267952 -0.244215 -0.030880 -0.204942 -0.203802 -0.039738 -0.407047 0.104458 -0.146123 0.094932 -0.233189 -0.153889 0.184080 -0.039080 0.057015 -0.055188 0.211448 -0.034761 0.128544 0.124014 0.128987 0.029016 0.099272
SUG5 -0.048149 0.254977 -0.094582 -0.127418 0.548803 -0.030686 0.190486 0.077929 -0.263197 0.264454 -0.047947 0.090005 -0.022534 0.046156 -0.039675 0.274858 0.099857 0.082307 0.133741 -0.202316 0.088755 -0.046371 -0.105127 -0.277743 0.069558 0.179428 0.270459 0.002199 0.059395 -0.088785 -0.012935 0.195158
KAL~B2 -0.302273 -0.032777 -0.378403 -0.146701 -0.283802 -0.045198 -0.031918 0.300712 -0.005225 -0.222750 0.214943 0.038821 0.005314 0.190707 -0.156805 0.080757 0.168505 -0.217893 0.173907 0.208198 0.039509 0.100533 -0.022580 -0.067612 0.021464 -0.015478 0.355726 -0.023342 0.200903 -0.058898 -0.157481 0.203291
GARA2~A 0.324148 0.060700 0.171916 -0.463316 -0.006212 -0.009571 -0.270335 0.183978 -0.138809 -0.055487 0.138229 -0.413405 0.005137 0.173760 0.219027 -0.135485 -0.030029 -0.091998 -0.147396 -0.220981 -0.033583 -0.144094 0.060564 0.009572 0.146613 0.053096 0.060097 -0.040925 0.233303 -0.107466 0.028805 0.170523
SZEN~E 0.037200 0.064728 0.000616 0.226908 -0.053716 -0.023707 0.206510 0.206538 0.062501 -0.238524 -0.031023 0.141837 -0.009269 -0.198106 -0.305752 0.115113 0.111552 0.243851 -0.137528 0.038761 -0.177949 -0.028624 -0.147547 0.451788 0.439447 0.059221 -0.012821 0.067205 0.203209 -0.155792 -0.076708 0.052895
|SILA3~AXNI~A| 0.230170 0.044184 -0.033574 -0.227851 0.187751 -0.029507 -0.042394 -0.091712 -0.044630 0.284491 -0.343277 -0.064925 -0.473990 0.127368 -0.321334 -0.196918 -0.060505 0.101224 -0.126603 0.202194 -0.067602 -0.261253 0.109186 -0.184660 0.053689 0.044406 0.057841 0.004867 0.020837 -0.193447 0.070341 0.130783
ABGAL 0.047638 0.139666 -0.008542 -0.076473 -0.214841 0.042611 -0.070037 0.030492 0.222136 -0.311632 0.204151 0.097158 0.022268 -0.014208 -0.194540 -0.167772 0.331052 -0.110732 -0.349687 0.389052 0.067972 0.215068 -0.061781 0.134536 0.256839 -0.006715 -0.076525 0.195045 0.101315 0.112524 -0.099234 0.207975
UTUL~A -0.071783 0.224118 -0.179270 -0.043262 -0.085519 -0.060117 0.190844 -0.111917 -0.154524 0.267632 0.042860 -0.063603 0.158491 0.171112 -0.540722 0.052114 -0.233975 -0.102483 0.045318 -0.019488 0.053937 -0.155279 -0.167232 0.027430 -0.281651 -0.331061 0.024497 -0.078923 0.193386 -0.082867 0.081356 0.172604
BAN~A -0.246188 0.151441 0.232376 0.213406 0.210954 0.018400 0.027348 -0.169029 -0.082156 0.119610 0.096076 -0.318164 -0.070815 -0.229441 0.054575 -0.002226 -0.129848 0.271595 0.013327 0.305063 0.028011 0.286434 0.172763 -0.005398 -0.165519 0.008174 -0.102104 0.177681 -0.192701 -0.318975 0.148882 0.153382
|DUG~AXN57| 0.065700 0.049292 0.317713 -0.149041 -0.170264 -0.321936 0.110436 0.256094 0.132904 -0.237663 0.077947 -0.045789 0.062583 0.516423 0.184012 -0.145319 -0.238197 -0.016186 0.162831 0.080495 0.056793 0.035498 0.001892 0.075350 0.069024 0.187568 0.211351 -0.101506 -0.181740 -0.111047 -0.045493 0.096279
|SILA3~AXHI| 0.069241 -0.022335 -0.195987 0.136057 0.139034 -0.033114 -0.114423 -0.047517 -0.090151 -0.057076 0.205147 0.163236 0.128469 0.132348 -0.339207 -0.021782 -0.323917 -0.018096 0.131510 -0.121194 0.059537 0.012742 -0.174217 -0.037979 -0.197934 -0.468529 -0.117370 -0.415548 0.115291 -0.063568 -0.147895 0.123458
ZATU629 0.293752 -0.024988 -0.012131 0.313329 0.037584 -0.060486 -0.341112 -0.287218 0.081328 -0.052350 -0.194653 0.172825 0.347208 0.097643 0.227683 0.061816 0.100603 0.262039 0.305926 0.067820 -0.042365 -0.049705 0.002321 -0.061250 -0.096525 -0.121208 0.100369 0.155869 -0.142340 0.203946 0.015989 0.206137
ZI~A -0.007180 0.257606 -0.206265 -0.072458 -0.023644 -0.033932 0.207822 -0.274541 -0.378136 -0.196359 -0.121571 -0.185214 -0.196436 0.158791 0.002048 0.082738 0.180528 -0.023127 -0.143024 -0.150396 0.113356 0.137688 -0.393981 -0.156438 -0.132541 0.017916 0.109594 -0.069754 0.081047 -0.133728 -0.176153 0.293757
SUMASZ -0.116537 -0.250647 -0.179110 -0.105312 -0.071019 0.186540 0.097058 -0.274203 0.147367 -0.214374 0.007017 0.361990 0.013862 0.017642 0.105874 -0.271613 -0.376337 0.258998 0.118494 0.041640 -0.281333 0.166438 0.082841 0.077035 -0.025822 0.131471 0.229303 0.095365 0.074845 0.185206 0.061549 0.065438
|ZATU759XKU6~A| 0.571647 0.183053 -0.155721 0.024986 0.329465 0.180600 0.037653 -0.008980 0.307848 -0.048295 -0.077938 0.034081 0.297643 -0.027397 -0.045981 0.275185 0.106105 0.143013 -0.106997 -0.056702 0.203808 -0.053227 0.013694 -0.174691 0.017153 -0.119592 0.055103 -0.155623 0.053358 -0.075958 0.138322 0.098002
GIR3~A 0.092935 -0.171041 -0.275113 0.119403 -0.233123 -0.347170 0.084144 0.265874 0.048757 0.081611 0.303863 0.124592 0.165304 -0.210231 0.295242 -0.073533 0.246969 -0.177656 0.162151 -0.054501 -0.048861 0.250136 0.178666 0.048668 0.233354 0.038909 0.123036 0.012496 0.163054 0.063188 -0.032994 0.120568
ZATU717 -0.492319 -0.065320 -0.199186 -0.138103 0.122464 -0.039113 -0.274566 -0.150232 -0.031709 0.145228 -0.262900 0.060594 -0.004368 0.229397 -0.079844 0.091073 0.177611 0.426363 -0.151102 -0.086587 -0.251964 0.152466 0.026223 -0.036690 0.192039 -0.136026 0.033253 0.101105 0.073690 0.069362 -0.000119 0.092469
