? 32
SANGA~a -0.311705 0.122164 0.160401 0.047206 -0.044598 0.105771 0.067878 -0.218698 -0.069006 0.020003 0.402144 -0.056562 -0.086421 0.008131 0.199226 0.075551 0.296516 0.013990 0.152916 -0.090751 0.269326 0.220143 -0.143532 0.076330 0.136633 0.340879 -0.127312 0.138744 0.062833 -0.085075 -0.312447 -0.158222
SUHUR 0.305571 0.033048 0.004744 -0.068129 0.280727 -0.006974 -0.125428 -0.012075 -0.014081 -0.111178 -0.133059 -0.211761 0.058346 0.114924 0.033945 0.154951 -0.208434 -0.106336 -0.198865 0.176605 0.442535 0.107689 -0.035356 0.005413 -0.091272 -0.019470 -0.084489 0.166278 0.250400 0.034758 -0.412438 -0.278467
AB~a -0.217344 -0.139087 -0.190413 -0.139486 -0.052523 0.130995 0.439107 -0.313633 -0.008761 -0.076165 -0.077166 -0.210773 0.057015 0.102837 0.032764 0.228288 -0.060647 0.208651 -0.033552 -0.036797 0.296626 0.151034 0.130438 -0.018285 -0.209539 0.340397 -0.067787 -0.118440 -0.062361 0.150142 -0.193257 -0.152680
APIN~a 0.151785 0.086130 0.112120 0.024015 0.165567 0.006173 0.059541 0.219136 0.030116 0.296775 0.256621 -0.141727 0.177172 0.026077 0.368102 -0.043133 -0.014499 -0.247884 -0.179663 -0.164697 0.172524 0.123479 -0.342758 -0.048915 0.097152 0.164075 0.028181 0.074079 0.213526 0.177307 -0.074857 -0.349001
NUN~a -0.180803 -0.012675 0.157599 -0.134949 0.014719 -0.039762 0.263597 -0.111561 0.226797 0.303952 0.064925 -0.195753 0.061445 -0.269057 -0.086490 -0.122269 -0.292644 -0.293419 -0.001850 0.087256 0.198208 -0.009476 0.052818 0.260557 0.123139 0.212028 -0.053687 0.109564 0.263713 0.004342 -0.172226 -0.302951
DU -0.048214 -0.228229 -0.318542 -0.134125 -0.123503 0.214008 -0.255449 -0.160839 0.039759 0.171035 0.168170 -0.009751 0.076232 -0.153629 0.184441 -0.289004 -0.066642 -0.073947 0.404402 -0.065822 -0.095336 0.052290 0.054977 0.303464 0.100880 -0.004735 0.126874 -0.202719 -0.169333 0.018412 0.021616 -0.293595
N 0.166877 -0.358125 -0.063088 -0.231981 0.187932 0.228848 -0.094455 -0.274749 -0.115943 0.020614 -0.280280 0.038218 -0.054032 -0.159106 0.082632 -0.223457 0.286712 -0.171351 -0.097703 -0.156525 0.043234 0.022507 0.087637 0.201126 0.254157 -0.023580 -0.121353 -0.100413 0.016620 -0.238270 -0.301403 -0.033937
KA~a 0.053800 -0.252347 0.047518 -0.063734 -0.140545 -0.172922 -0.101858 -0.223113 -0.077365 -0.008039 0.159554 0.006338 -0.132030 0.015754 0.401818 0.229565 0.005850 0.067082 -0.091788 -0.221257 -0.317504 0.003129 0.196863 -0.080278 -0.277640 0.170834 0.025518 -0.356633 -0.048442 -0.172620 0.059628 -0.275996
KASZ~b 0.433766 0.060662 -0.216495 -0.062395 -0.160484 -0.167241 0.283811 0.021712 -0.111120 -0.107610 -0.418997 0.077006 -0.277692 0.135774 0.061153 0.035772 0.015646 0.329480 -0.116174 0.206274 0.173234 0.040458 -0.064005 0.017965 0.068056 0.218396 0.031821 0.136881 -0.028560 0.046720 -0.003233 -0.201687
KASZ~a -0.069400 -0.098558 0.343462 -0.062312 -0.096142 -0.179316 0.058071 -0.059183 -0.361409 -0.177901 -0.311374 -0.025619 0.287053 0.068618 -0.225083 0.191603 0.056683 0.024101 -0.151775 -0.097120 -0.223570 0.003857 -0.259691 -0.049263 -0.045282 -0.079970 -0.334700 0.008425 0.022390 0.037789 -0.019767 -0.319381
GI -0.349378 -0.162877 0.035117 0.237651 0.138979 -0.221716 -0.284612 0.070789 -0.094889 0.011190 -0.212536 0.071729 -0.420903 -0.031037 -0.140565 0.108079 0.131515 -0.293987 -0.025103 0.102059 -0.017250 -0.038192 0.178571 0.047622 0.103693 0.117812 0.017554 0.070409 0.114718 -0.202874 -0.303023 -0.208514
U4 -0.016246 0.076768 -0.150118 0.110034 0.057812 -0.005336 0.121621 0.065901 0.062710 -0.245529 -0.071034 0.029232 -0.096821 0.094904 -0.022631 -0.101090 0.203802 -0.075754 0.139324 0.046967 -0.145128 0.194122 -0.024965 0.018939 0.374199 -0.188543 -0.200579 -0.596232 0.172142 0.077861 -0.268875 -0.171930
UR4~a 0.103532 0.375960 -0.025492 -0.150572 -0.076443 -0.118150 -0.099238 -0.080897 0.008292 0.030124 0.293742 0.064212 -0.201856 -0.080201 0.348387 0.181318 0.080340 0.207110 -0.029284 -0.012963 -0.212703 0.127854 -0.359751 -0.210222 0.117187 0.369719 0.142595 -0.119568 0.030209 0.075269 -0.028394 -0.132628
ZATU759 0.146355 -0.279214 0.037197 0.113929 -0.026646 -0.079263 0.299579 0.290128 0.118127 0.065848 0.210461 0.231819 0.163150 -0.001940 0.327868 -0.152358 -0.059203 0.290245 -0.149530 -0.021296 -0.220280 0.230786 -0.221396 -0.030502 0.147998 0.031594 0.126513 0.021652 -0.098511 0.250735 0.115144 -0.210208
BAN~b -0.045662 0.191186 0.354809 0.166669 -0.206944 0.343019 -0.269732 0.005609 -0.124754 0.004630 -0.186477 -0.220200 -0.029333 0.136740 0.226221 -0.025893 -0.176153 0.170315 0.220994 0.166646 0.051348 -0.337621 0.041488 0.005317 -0.233987 -0.189240 -0.003550 -0.111733 0.063454 0.076032 0.118412 -0.149198
KASZ~c -0.213196 0.024511 -0.040868 0.149022 0.065844 -0.116458 -0.016596 0.265276 -0.302719 -0.199218 -0.430023 0.393539 -0.225185 -0.153802 0.161319 -0.200630 0.024594 -0.017750 0.086511 -0.254885 0.151667 -0.100876 -0.070517 0.018311 -0.004382 0.027834 0.081196 0.150685 0.052320 0.010156 0.106555 -0.271330
KI@n 0.318580 -0.118667 0.161020 0.450801 -0.159886 -0.168635 0.192936 0.235262 0.044632 -0.080214 -0.131530 0.369179 0.147260 -0.031611 0.181806 -0.235578 0.025073 0.023787 -0.118262 -0.121792 0.203801 0.070710 -0.081251 -0.167159 0.105246 -0.039023 0.231830 -0.081718 0.121007 -0.018157 0.151371 -0.115962
SAG 0.106032 -0.079028 -0.208863 0.124576 -0.285508 0.192437 -0.217083 -0.339063 -0.234594 0.239383 0.088475 0.189421 -0.157228 0.043879 -0.212470 -0.018266 -0.248698 -0.078773 0.223185 0.158542 -0.008994 -0.121358 0.211118 0.137668 -0.021177 0.135147 -0.096904 -0.108603 0.108492 -0.170265 -0.208724 -0.262684
PAP~a 0.103125 0.129175 0.042469 -0.101406 -0.103206 0.078609 0.308297 0.234780 0.147254 -0.172410 -0.094373 -0.046228 0.024694 0.113621 -0.140571 -0.087017 -0.182175 -0.230452 -0.072640 -0.277271 -0.258033 0.044565 0.322411 0.385907 0.158323 0.146757 0.193426 0.282566 0.010572 0.102635 -0.130935 -0.093523
SZU -0.185856 -0.143007 0.135558 -0.041525 0.098713 0.215319 0.287041 0.372600 -0.150632 0.309264 -0.075721 -0.144257 -0.371479 -0.072453 -0.250582 0.086476 -0.026784 0.254049 0.022730 -0.025571 0.001486 -0.191429 -0.040734 -0.095859 0.222274 -0.086468 0.090886 -0.017389 -0.169004 0.133005 -0.176650 -0.179874
KI 0.039929 -0.169326 -0.074864 -0.098470 -0.197229 0.122159 -0.336764 0.071275 0.279999 0.056552 0.082209 0.067710 -0.343462 0.107567 0.119266 0.082568 0.307321 0.010771 0.109911 -0.077808 -0.063697 0.175886 0.213702 -0.067050 0.009864 0.336109 0.163482 0.161849 0.005660 -0.055466 -0.146301 -0.387617
AN 0.036943 -0.033432 0.044498 -0.034827 0.037710 -0.146921 0.062027 0.063128 -0.009147 -0.024273 0.173581 0.114881 0.219659 0.038702 -0.078441 0.026970 -0.304284 -0.110129 0.136411 0.180743 0.052125 0.267677 -0.160424 -0.301069 0.074897 -0.111186 0.426549 0.012389 -0.247639 -0.390967 -0.237490 -0.213224
EZINU~d -0.272558 -0.166341 0.316321 -0.159368 0.178963 0.049152 0.064078 -0.233992 -0.335240 0.071983 -0.378782 -0.175280 0.088495 0.252398 0.168185 -0.191963 0.088607 -0.073082 -0.113305 -0.153024 0.006656 -0.200566 -0.105551 0.219105 0.109993 -0.238109 0.024448 -0.086291 0.071781 -0.012519 0.077468 -0.117603
IDIGNA 0.275288 0.337538 0.083316 -0.138839 0.089716 0.336503 -0.074541 -0.052384 0.219745 -0.112977 0.138818 -0.023542 0.131531 -0.004297 0.147742 0.089668 0.010892 -0.030421 0.387272 0.280269 -0.063577 -0.071788 0.218562 0.151164 -0.302113 0.061819 0.055427 0.047919 -0.077933 0.023419 0.173711 -0.282437
ISZ~a -0.002903 0.219628 -0.055058 0.060829 0.007092 -0.268695 -0.289418 -0.030267 -0.319962 -0.016776 0.191508 0.049433 0.011333 -0.117233 0.044635 -0.213493 -0.066476 -0.033453 0.166724 -0.339261 -0.225998 -0.000289 0.035479 0.113594 0.038478 -0.039120 -0.458811 0.013956 -0.333804 0.153015 -0.010132 -0.150177
GIR3~c -0.122332 0.127596 -0.205477 0.378800 0.038753 0.118228 0.248061 0.080826 0.326762 -0.009159 0.222054 -0.160493 0.129735 -0.147490 -0.106210 0.055815 0.064597 0.140200 -0.051527 -0.264137 -0.089305 -0.394752 0.079314 -0.045152 -0.051055 -0.264589 0.170982 0.046587 0.068035 0.106631 0.144355 -0.235268
KISIM~a -0.201556 0.023517 -0.312372 0.272424 0.045744 -0.245020 -0.470887 -0.029177 0.139555 -0.039357 -0.232002 0.253601 0.075631 0.224300 0.000169 0.069501 -0.050253 0.128591 0.117137 -0.065282 -0.138745 -0.069360 0.184563 0.112546 -0.150812 0.280656 0.031300 -0.006817 -0.127269 0.214171 0.003722 -0.172745
ZATU694~c 0.124902 0.033403 0.025858 -0.260556 -0.258560 -0.380891 -0.069853 -0.022286 0.080912 0.174993 -0.486038 -0.044598 0.072221 0.052081 -0.108688 -0.095725 -0.060383 -0.208971 -0.051468 0.034846 0.191063 0.009979 -0.154047 0.125375 -0.067097 -0.106069 0.269310 0.100100 0.018556 -0.151070 0.249826 -0.286374
TAR~a 0.185831 0.402255 0.176519 0.126056 0.300042 -0.328268 0.230433 0.074373 0.131517 0.224736 0.111864 -0.098098 0.199665 0.072107 0.201050 0.207590 0.007606 -0.085085 -0.161718 -0.205679 -0.065008 -0.070925 0.004724 0.190030 0.194161 -0.204405 0.064280 0.098019 -0.063125 0.025383 -0.114298 -0.222745
U2~b 0.246385 -0.360221 0.000710 0.250012 -0.047101 -0.103911 0.255115 -0.056919 -0.125604 -0.054434 -0.253493 0.164675 0.039397 -0.452291 0.008683 -0.148957 -0.076395 -0.070891 -0.276375 0.100905 0.153779 0.058295 0.068989 -0.046174 0.077283 0.033077 -0.022164 0.087087 0.136343 -0.194218 0.253490 -0.245187
RU -0.343843 0.150537 -0.037075 -0.102116 -0.059262 0.011533 -0.004761 -0.054178 -0.198172 -0.080489 -0.110220 0.180523 -0.283226 0.014815 -0.077215 0.148864 -0.022256 -0.423119 0.005927 0.053413 -0.115319 0.111170 0.221653 0.116510 0.075424 0.088609 -0.076765 0.146672 0.214151 -0.155308 0.357049 -0.363968
RAD~a 0.272342 0.439340 -0.072706 -0.344439 -0.061232 -0.054683 -0.032082 -0.304772 -0.243609 -0.161567 0.265616 0.012556 0.030088 -0.191556 0.031786 0.090367 0.024298 -0.090256 0.053069 -0.268327 0.056482 0.081117 0.248296 -0.202332 0.026896 -0.058616 0.212917 0.061882 0.093443 0.040039 0.032683 -0.211328
SIG2~a1 -0.146403 0.007925 0.121877 -0.003070 -0.430327 -0.096972 -0.009482 0.271577 0.030131 -0.011354 -0.058789 0.007375 0.036176 0.002672 0.132447 0.062880 -0.199362 0.261382 -0.165987 -0.070702 0.123160 0.073756 -0.152669 0.172889 -0.130928 -0.003115 -0.472260 0.101636 -0.372456 0.084169 -0.119346 -0.207043
URU~a1 -0.321622 0.020584 0.185077 -0.214613 0.298848 0.125006 -0.312631 -0.048617 0.061396 -0.235984 0.038891 -0.069403 0.067745 -0.110672 -0.238974 0.147952 0.168856 -0.227196 -0.033336 -0.243133 0.204519 0.145559 0.028504 -0.272475 -0.043774 0.135943 0.102085 0.116632 0.164841 0.038415 0.088665 -0.299673
SZU2 -0.221583 0.025960 0.306174 -0.266081 0.221518 0.173157 -0.092737 -0.382119 0.145812 -0.217152 -0.059345 -0.383590 -0.073274 -0.201861 0.070194 -0.168294 -0.177156 0.159180 -0.039952 -0.038858 -0.135542 -0.027277 0.078718 -0.175250 0.066139 -0.140825 -0.064773 -0.071261 -0.035048 0.100369 -0.220996 -0.209991
SAL 0.059399 -0.125871 -0.041080 -0.093555 0.015179 -0.072228 -0.094715 0.058499 0.096708 -0.130928 0.227619 0.017375 0.017049 0.162588 -0.109170 0.265105 0.226811 0.125186 0.092615 0.391249 -0.086441 -0.223439 0.218662 0.268288 0.193097 -0.187349 -0.103621 0.329981 -0.165128 -0.249137 -0.237205 -0.145760
NAGA~a 0.069914 -0.125020 -0.161840 -0.040042 -0.232608 -0.312968 -0.073215 0.159906 -0.170297 -0.409412 -0.061431 0.149951 -0.142502 -0.239505 0.327550 -0.193204 -0.178005 0.142224 -0.024152 -0.188821 0.019088 -0.223455 -0.199965 -0.075614 0.085442 -0.063955 -0.205812 -0.047863 -0.058984 0.055256 -0.057214 -0.271182
KISZ 0.310245 -0.024372 0.327158 0.152049 -0.207966 -0.007124 0.229222 -0.248310 -0.193262 -0.180014 0.039885 -0.058556 0.381666 0.028289 0.271530 0.202855 0.198489 0.149592 0.127500 0.099456 -0.054003 -0.228382 0.154311 -0.001790 0.002085 -0.116553 -0.043360 0.166483 0.063182 0.072586 -0.054841 -0.238980
DILMUN -0.054643 0.191929 0.070678 -0.110359 -0.026231 -0.247990 -0.004837 -0.196346 -0.129083 0.259967 0.304889 -0.196118 -0.113515 -0.202762 0.002040 0.004541 -0.059261 0.191031 -0.125430 0.237700 -0.174159 0.231762 0.181320 0.059589 -0.125634 0.261253 0.028805 -0.206077 0.215793 -0.025780 0.340269 -0.222471
A -0.146410 0.328681 0.078022 -0.066591 -0.137597 -0.204640 -0.070111 -0.170808 0.144121 0.247951 0.034792 -0.194186 -0.214952 -0.149254 0.044530 -0.197444 0.468820 -0.246347 0.048841 -0.037634 -0.075941 0.304964 -0.033651 -0.003826 0.009749 0.003599 0.043987 0.053378 0.038984 -0.243536 -0.113976 -0.267550
MASZ2 0.319491 -0.302227 -0.362584 -0.021936 0.169689 -0.027055 0.138079 0.038535 -0.469564 0.071785 -0.009580 0.176177 -0.209542 0.123233 -0.041994 0.107308 0.173533 0.075961 -0.136337 0.011865 -0.043308 -0.114133 0.106812 -0.143384 0.160487 -0.051044 -0.060388 0.000035 0.056494 0.012131 -0.184644 -0.352833
TE 0.115959 0.181304 -0.066774 0.062176 -0.293282 0.029816 0.252247 -0.232683 0.076190 0.041954 0.262513 0.277289 0.131667 0.064756 0.050409 0.311034 -0.066921 -0.170362 -0.125286 -0.077712 -0.094894 0.137824 0.177506 -0.027096 0.298809 0.207610 0.038849 0.062836 0.303634 0.091086 -0.123391 -0.312189
KU6~a -0.097382 0.382408 -0.335632 -0.171281 -0.189565 -0.169249 -0.216284 -0.387048 -0.194451 0.024687 0.032533 0.059561 -0.166697 -0.316372 -0.214542 0.018508 -0.121871 -0.023425 0.103944 -0.221105 0.012834 0.117996 0.043480 -0.029577 0.098046 0.132628 -0.102753 -0.088794 0.129539 -0.153188 -0.034147 -0.211776
GI4~a 0.151718 0.154918 -0.008838 0.107543 0.135011 0.058893 -0.208059 0.247779 -0.083151 -0.086019 -0.055306 -0.222835 -0.249563 0.557200 0.058803 0.018486 0.020963 -0.079286 0.073437 0.323667 0.274999 -0.070078 -0.258607 -0.103990 -0.191802 0.029498 -0.082488 0.018125 0.078070 0.022830 0.047869 -0.206335
NIM~b1 -0.117892 -0.159304 0.049943 0.063198 0.086975 -0.016174 0.058467 -0.124693 -0.109802 0.436397 -0.184443 -0.197983 0.148163 -0.102592 -0.147700 -0.034931 -0.329136 -0.126834 0.120158 0.144035 0.129403 -0.250499 0.219292 -0.291143 0.174103 -0.245804 0.068407 0.130342 0.029004 0.200373 0.097585 -0.247692
HI~a 0.211498 0.020980 0.143948 0.016352 -0.051748 -0.000036 -0.073189 0.094936 0.091724 0.194759 0.204492 0.096030 -0.020074 0.056575 0.084080 -0.039956 -0.120069 -0.057523 -0.198091 -0.212470 -0.148529 0.135652 -0.038501 -0.073427 0.086945 -0.190607 -0.477900 0.102181 -0.578705 0.147077 -0.012878 -0.135195
NAR -0.012202 0.079708 -0.188731 0.087700 -0.115861 -0.243694 -0.246382 0.322407 0.064685 -0.268839 -0.075198 -0.142083 -0.123177 0.095925 -0.157208 0.028430 0.066965 0.105643 0.008505 0.093736 -0.038425 0.183934 0.166245 0.010419 0.107829 0.203976 -0.230490 0.203264 -0.185424 -0.216522 0.379706 -0.315998
ZATU853 0.044217 -0.090167 0.106202 -0.260316 0.119114 0.099037 -0.034455 -0.028508 -0.009085 -0.260087 -0.087042 -0.048719 0.187135 -0.208970 -0.361634 0.175899 0.090469 -0.026302 -0.028548 0.089095 -0.072885 0.079892 -0.197692 0.035925 0.191446 0.111160 -0.283836 -0.074546 0.048714 -0.253459 0.532217 -0.109977
|TUKU+DISZ| 0.289455 0.280104 0.193586 0.104426 0.180110 -0.405915 0.041876 -0.301572 0.123071 -0.087403 0.066104 -0.020639 -0.145373 0.052760 0.177861 0.178615 0.013345 -0.353386 0.193165 0.006382 0.115791 0.146501 -0.193821 -0.012871 -0.153270 -0.057382 0.029886 0.213785 0.224924 0.126784 -0.000087 -0.096816
NIMGIR 0.136323 0.040101 0.268609 0.008023 0.236880 -0.290732 0.022651 -0.114335 0.177816 0.057245 -0.036962 0.195838 -0.161750 0.140973 -0.223412 0.175218 -0.075444 -0.413897 0.083378 0.170931 0.200960 -0.077827 -0.252396 0.047088 -0.161393 -0.111593 -0.160876 0.057952 0.282897 0.143757 -0.103351 -0.217834
BU~a 0.249047 -0.094423 0.044155 0.255525 0.017477 0.006841 0.172938 -0.105383 0.099836 0.076059 -0.062415 -0.136423 -0.182973 -0.255727 -0.075562 -0.083266 0.148479 0.228995 0.268171 0.175770 -0.323096 0.016021 0.104669 -0.177514 0.208531 -0.191014 0.013378 -0.083282 0.331168 0.218214 0.128366 -0.292251
NAM2 0.075260 0.008645 0.075724 -0.039136 0.005732 0.159177 -0.152111 -0.407394 0.049827 0.006284 -0.033604 0.069871 -0.175392 -0.066390 -0.181023 0.369178 -0.136523 -0.082140 -0.083987 -0.291505 0.066806 -0.073998 0.304651 -0.488173 0.147727 -0.014783 -0.076428 0.074936 0.051948 0.048108 -0.223545 -0.113093
PA~a 0.194420 -0.294807 0.293700 0.067395 -0.070732 0.111173 -0.043389 -0.091159 0.022581 0.497433 -0.025259 0.233206 -0.167758 0.105046 -0.178046 0.050183 -0.247460 -0.292396 0.005877 -0.092374 -0.006989 -0.023493 0.246218 -0.131744 0.222430 -0.039937 -0.219642 -0.065532 0.036556 -0.000737 -0.140660 -0.148174
USZ~a 0.015433 -0.103581 0.196452 0.431265 0.281137 0.130082 -0.047228 0.062341 -0.197989 0.248648 -0.222650 0.009963 0.236348 0.112359 0.055017 -0.051618 -0.123843 -0.116457 -0.369507 0.135843 0.197628 -0.021626 0.075778 0.000857 0.175977 -0.116185 -0.107310 0.122938 0.231015 0.066938 -0.049535 -0.277390
SZUBUR 0.036433 0.123753 -0.125582 -0.090132 -0.142697 -0.121306 -0.018128 -0.036079 0.302101 0.062081 -0.170773 -0.002916 -0.251832 -0.021868 -0.168572 0.189310 0.252224 -0.305749 0.257864 -0.103448 0.182668 0.075193 -0.043074 -0.337157 -0.084971 0.226150 0.088609 0.089936 0.257722 0.084703 -0.174972 -0.320859
IM~a -0.205287 0.106385 0.032197 0.144458 -0.125651 0.036832 -0.380437 0.217428 -0.085897 -0.222888 -0.010012 -0.179155 -0.221749 0.200676 -0.093767 0.047891 0.207769 0.056091 0.017978 0.086202 -0.016453 -0.061191 0.302374 -0.415597 -0.048618 0.221427 -0.042167 0.216747 -0.135523 0.008908 0.040266 -0.288525
SZA -0.313752 -0.254855 0.063980 -0.079443 0.278385 0.030394 -0.060083 0.033982 -0.224059 -0.289882 -0.257126 0.223215 -0.198968 -0.212050 0.380739 -0.182364 -0.062409 0.101882 -0.071418 -0.215595 -0.093533 -0.132891 0.013675 0.081626 0.009276 -0.061730 0.120032 0.109601 -0.197686 0.134933 0.039125 -0.204507
LAL2~a 0.081186 0.129684 -0.287741 -0.034399 0.072295 0.281750 -0.271532 -0.089583 0.115568 0.030443 -0.019334 0.224061 -0.113211 0.462467 -0.017199 0.046571 0.036384 -0.142222 -0.228935 -0.047083 0.225732 -0.215630 0.105290 -0.190353 -0.067770 -0.069515 -0.003304 0.280198 0.098890 0.244550 0.030661 -0.229805
NIM~b2 -0.048165 -0.011287 0.058835 0.044282 -0.056206 0.038542 -0.147433 0.166402 -0.079794 -0.080610 0.095038 -0.276361 -0.020471 0.182308 0.059586 0.195786 -0.308348 0.016470 0.235039 0.111551 0.073510 0.135905 0.000650 0.103406 0.056401 0.202750 -0.253795 -0.094873 0.160601 -0.366956 0.512251 -0.161533
DUR2 0.254125 -0.124224 0.200204 -0.025521 0.111562 -0.103331 -0.134339 0.220608 0.345113 -0.135982 0.148502 -0.056470 0.050274 -0.232257 -0.201801 0.300749 0.364578 0.010048 -0.107106 0.152800 -0.191952 -0.043795 0.218609 0.082369 -0.148837 -0.009921 -0.191595 0.127124 -0.086599 -0.094636 0.187614 -0.225804
SZEN~a 0.105004 -0.122408 0.085254 0.055282 -0.172735 0.152012 -0.021479 0.087302 0.059522 -0.147252 0.052652 -0.255093 -0.145295 -0.013717 0.132837 0.137058 -0.310491 0.128413 0.190611 0.138783 0.226615 0.095146 0.093116 0.212691 0.062252 0.150472 -0.258106 -0.035980 0.097441 -0.331748 0.466170 -0.194266
BU3 -0.125035 0.128648 -0.084614 -0.055685 -0.124251 0.098421 -0.075743 -0.054406 0.161161 0.087757 0.416431 0.012131 -0.281623 -0.144259 -0.090717 0.197769 0.295597 0.253290 0.063532 -0.024942 -0.084646 0.121716 -0.071187 -0.238626 0.225482 0.283532 0.058847 0.073867 -0.019538 -0.116836 0.358508 -0.214799
|SZE~a&SZE~a| 0.072900 -0.279717 0.086544 -0.253281 -0.039216 0.120365 0.165702 0.209390 0.074794 -0.151606 -0.070278 -0.107231 -0.103158 -0.027260 0.181726 0.161462 -0.101611 0.209487 0.071129 0.143662 -0.004189 0.318530 0.118868 0.061536 -0.607272 -0.116290 0.024690 -0.063758 0.180105 0.078588 0.038708 -0.124853
TUR3~a -0.053224 -0.238654 -0.174159 -0.266030 0.254646 0.054969 0.256082 0.067523 0.126817 0.029766 0.318274 -0.241772 -0.052536 0.035945 -0.053296 -0.108693 -0.119955 0.085246 0.155582 0.109038 0.126452 0.089624 0.091517 -0.024379 0.265837 0.073079 -0.101700 0.086813 -0.035658 -0.135300 0.469044 -0.285420
UR~a -0.297935 0.029833 0.341077 -0.014920 0.025477 -0.189591 0.185943 -0.024993 -0.212499 0.232927 0.063633 -0.011770 0.347322 -0.016640 0.335063 0.017081 0.369812 -0.091161 0.146145 0.112287 0.149357 0.045850 0.233164 0.165122 -0.056914 -0.100629 0.076950 -0.070745 0.012193 0.052572 -0.045835 -0.265602
PIRIG~b2 0.073217 0.075285 -0.194043 -0.177589 -0.030137 -0.040022 -0.113909 0.017940 -0.046062 -0.077132 0.102774 0.163740 -0.092062 -0.048063 0.535643 0.097899 0.033134 -0.008888 -0.239388 -0.205107 -0.390071 -0.266924 -0.237534 -0.224073 -0.070331 0.211520 -0.139727 -0.100609 -0.083278 -0.151359 0.065895 -0.084493
GA'AR~a1 0.143039 -0.028758 -0.122970 0.335069 0.227293 -0.274677 0.148955 -0.105881 -0.148365 -0.232396 -0.144733 -0.072125 0.261216 0.125997 0.017489 0.119794 -0.269246 -0.293184 -0.126079 0.144313 0.274153 0.152010 -0.131074 -0.182275 -0.000351 0.180901 0.005060 0.086710 0.017823 0.288400 0.066432 -0.133635
UB 0.125801 -0.259557 0.127448 0.327779 0.093802 -0.003329 -0.031697 0.279538 -0.022677 -0.142313 -0.134315 -0.101007 -0.187793 -0.000697 0.031385 -0.007717 0.182049 -0.162165 -0.129648 -0.055630 0.186361 0.246022 0.095683 -0.477667 0.264051 -0.031253 0.062043 0.094209 -0.067618 0.134959 0.025237 -0.317926
MAR~a 0.291014 -0.064266 -0.028051 -0.166417 -0.136752 0.291529 -0.001638 -0.155431 -0.250781 -0.094148 -0.154723 0.027757 -0.173844 0.316130 0.004197 0.148531 0.104128 0.240151 0.040824 -0.123681 0.155145 0.006684 0.267953 -0.343614 0.091616 -0.172194 0.228245 -0.013212 0.119176 0.075499 0.059948 -0.304746
E2~a -0.052701 0.060906 0.075764 -0.003221 0.417215 0.090255 -0.337585 -0.147866 0.059152 0.101821 -0.204122 -0.299857 0.212995 -0.151687 -0.038243 -0.099626 -0.020287 0.282147 -0.088730 -0.009433 -0.263784 0.190683 0.094468 0.200311 0.166213 0.147889 0.266326 0.152053 0.042009 0.112383 -0.140446 -0.154503
ME~a -0.085541 0.515112 -0.131320 -0.200967 0.111939 0.148505 -0.018109 0.185321 0.083586 0.002558 0.071947 0.003747 -0.150792 -0.170385 -0.085024 0.037474 -0.136708 -0.028644 0.041654 -0.020085 0.030764 0.323510 0.139271 -0.048188 -0.280360 0.170034 0.015501 -0.127379 -0.289944 0.102519 -0.289895 -0.276224
KAB -0.299602 0.015998 0.315315 0.458934 0.022358 0.056230 0.187966 -0.049178 -0.063944 0.122493 -0.059356 0.195253 0.077501 0.157063 0.003339 0.237265 0.163328 -0.250191 -0.033913 -0.052238 0.138635 -0.127787 -0.071451 -0.035944 -0.060030 0.133499 0.145073 0.222607 0.077442 0.309883 0.058298 -0.279752
TUM~a -0.294584 -0.202740 0.189379 0.014505 0.107739 -0.126405 -0.105555 0.212720 -0.151278 0.295591 -0.010289 0.277187 0.034021 -0.001769 0.417726 0.000207 -0.062275 -0.161024 -0.078739 -0.083890 -0.177385 -0.002055 0.101324 0.002530 0.207473 -0.160997 -0.354689 0.013102 -0.185069 0.179694 0.009895 -0.206989
|NUN~a+EN~a| 0.028026 0.097637 0.481234 -0.130272 -0.049749 -0.044870 0.178961 -0.077527 0.062841 -0.145078 0.028691 0.080313 0.113928 0.022978 0.223647 0.102169 -0.238460 -0.007342 0.193876 -0.151689 0.178920 0.016353 -0.044558 -0.073591 -0.197605 -0.054436 -0.122045 0.207101 -0.456798 0.244369 -0.046848 -0.254553
ARARMA2~a 0.018155 -0.175022 -0.041074 -0.044314 -0.183620 0.175635 -0.003441 0.128155 -0.211124 -0.075847 0.041687 -0.419949 -0.053123 0.382617 0.049347 0.226196 -0.414779 -0.155344 0.261367 0.086909 -0.018106 0.124155 0.060912 0.038121 0.058291 0.028039 -0.114341 -0.258144 0.223591 0.039906 -0.073208 -0.139154
NI2 -0.080757 -0.296523 0.100800 -0.228092 -0.046953 -0.238838 -0.110906 0.017343 -0.169074 -0.201475 -0.191506 0.351240 -0.245109 -0.262139 0.452434 -0.109199 -0.081396 0.040522 0.185398 -0.215330 0.080653 -0.220545 -0.039332 0.086720 -0.095826 -0.074006 0.057231 0.023857 -0.043418 -0.058840 0.071844 -0.121023
AMAR 0.309149 -0.118371 0.013961 -0.170342 -0.244073 -0.217257 -0.002825 -0.034198 -0.357419 0.215282 -0.020679 0.018168 0.370578 0.135361 0.246922 0.001819 0.128388 0.066528 -0.165738 0.030213 0.263079 -0.084497 -0.062548 0.171854 0.084129 -0.238270 -0.154622 0.085004 0.212075 0.048934 -0.100455 -0.224153
ZATU752 0.308130 -0.239977 -0.109860 0.095843 0.085810 -0.395957 -0.102185 -0.098638 0.202391 -0.050750 -0.327147 0.089541 0.183773 0.136270 0.119236 0.298688 0.036371 0.120449 -0.118498 -0.129610 -0.058755 -0.104780 -0.100149 0.129884 -0.025757 0.125781 0.122960 -0.301174 0.119659 0.170380 -0.089126 -0.256786
URI5 -0.061768 0.103619 -0.001733 -0.621637 0.012834 -0.090656 0.077512 0.144613 0.018688 -0.151240 -0.159426 -0.079661 -0.112368 0.261023 0.008357 -0.274936 -0.294739 -0.028944 -0.051724 -0.045002 0.062519 -0.257670 -0.056485 0.144030 -0.073509 0.033379 -0.014759 -0.066012 -0.010836 0.316822 0.182865 -0.143631
KUR~a 0.049384 -0.054083 -0.298344 0.144609 -0.129168 0.005941 0.045377 -0.121044 -0.587171 0.088629 -0.009480 -0.137701 0.095142 0.215882 -0.093719 -0.101203 0.240387 0.075186 -0.250195 0.134656 0.125505 0.075858 -0.082486 0.033609 -0.012760 -0.234069 0.036595 0.278911 -0.099104 -0.199974 -0.107491 -0.189398
BA 0.288436 -0.099138 -0.023293 0.432651 0.070337 0.402297 -0.210351 -0.031556 -0.086699 -0.284461 0.088270 -0.197847 -0.092181 -0.223391 0.034682 0.083469 -0.086489 -0.104569 -0.036604 -0.233887 0.115410 -0.089140 -0.127190 0.254757 -0.063178 0.113726 0.055271 -0.068093 -0.082939 -0.153747 -0.255147 -0.090760
NUNUZ~a1 -0.048936 0.069569 0.097603 0.183755 -0.009633 0.063791 0.028093 0.273476 0.300081 0.158850 -0.005556 0.019088 -0.153844 0.251892 0.017963 0.127116 -0.191107 0.071242 -0.187697 0.021282 -0.082145 -0.145648 0.135747 0.104622 0.104588 -0.223933 0.089145 0.122058 -0.465888 -0.131508 -0.220073 -0.386180
DU6~b 0.166751 0.005193 0.147188 -0.010053 0.206443 -0.345583 -0.259918 0.226173 -0.098493 0.079351 -0.200977 0.047756 0.020775 0.228830 0.102433 -0.016877 -0.123145 0.144471 0.019512 0.014323 0.056887 -0.062228 -0.283293 -0.338047 -0.115463 0.489613 0.005017 -0.191200 0.011071 0.030290 0.063168 -0.120311
|LAGAB~axSZITA~a1| -0.034861 0.014356 0.038165 -0.001751 -0.021478 -0.061476 0.144146 -0.071329 0.106079 -0.042203 0.147716 -0.076030 -0.001290 0.100986 0.154690 0.004689 -0.080570 0.140719 -0.253534 -0.213730 -0.075251 0.274506 -0.065023 -0.033296 -0.018858 -0.142919 -0.477746 0.083437 -0.624631 0.125207 -0.001229 -0.088286
DU8~c -0.226787 0.042676 -0.285561 -0.109176 0.005205 -0.251123 0.060766 0.163779 0.062588 0.181253 -0.264090 0.075135 0.219887 0.130977 0.293553 -0.281218 -0.027314 0.154316 -0.056890 0.184811 0.152030 0.144265 -0.197003 0.190515 0.142662 0.192540 0.052627 -0.266973 0.113302 0.121200 -0.106979 -0.255602
ZATU681 0.382974 0.093318 -0.034199 -0.145455 0.141093 -0.204526 -0.037401 0.156449 0.144306 -0.058567 0.208957 -0.155162 0.165386 0.014588 0.223764 -0.062655 -0.063417 0.225526 -0.107389 0.335005 0.175674 -0.331571 -0.004445 -0.387183 0.047689 -0.003183 -0.069092 0.146863 0.089046 -0.097290 0.069545 -0.202226
DUG~a -0.214086 0.011522 -0.329603 -0.195487 -0.155032 -0.010342 0.009065 0.055734 -0.055625 0.027992 -0.040170 -0.266257 0.554462 -0.010685 -0.035868 0.126329 -0.030406 -0.133173 -0.227192 -0.072195 -0.003438 -0.020292 -0.094896 0.041336 0.063766 0.281861 -0.137370 -0.054020 0.107934 -0.017154 -0.300627 -0.290572
SIG2~a2 0.159292 -0.257387 -0.126628 -0.109976 0.072974 -0.040730 0.166670 0.075287 -0.079094 0.323485 0.100212 0.053482 -0.046408 -0.017093 0.397089 -0.063600 -0.080784 -0.023994 -0.220249 -0.092314 -0.269555 0.194050 -0.124231 -0.037852 0.131995 -0.119442 -0.315264 -0.174748 -0.403082 0.128959 -0.014751 -0.139965
SZIM~a 0.320035 0.164120 -0.117489 0.126401 0.349807 0.087250 -0.218046 -0.264593 0.153150 0.233642 0.324558 0.202405 0.034132 0.130546 0.144912 0.026170 0.046592 -0.212724 0.113133 -0.076783 0.193702 -0.260663 -0.027208 0.128662 0.048914 0.077390 -0.224212 0.043851 0.075004 0.172571 -0.068509 -0.198841
HI@g~a 0.119508 0.040847 0.068764 0.013199 0.339810 -0.134533 -0.107755 0.180548 -0.033742 -0.042274 -0.186997 0.092117 -0.048407 0.163438 0.018357 -0.056852 0.153582 -0.136572 -0.236032 0.191482 0.539769 -0.196999 0.091099 0.150258 -0.129340 -0.092608 0.014298 0.086678 0.131035 0.231118 0.106817 -0.334208
SIG -0.137645 0.026310 -0.227670 -0.190682 -0.114930 -0.208292 -0.322504 -0.039468 0.287563 0.013478 0.051602 0.342410 -0.068039 0.313086 0.125092 -0.047155 -0.233022 -0.046502 -0.047097 0.071569 0.045897 0.081773 -0.335647 -0.048838 0.074794 0.140713 -0.040750 -0.117670 -0.103582 0.327787 -0.013320 -0.244562
MUSZ3~a 0.195118 0.285131 -0.075051 -0.391038 0.205843 0.302915 0.109199 0.041018 0.151284 -0.125547 -0.184022 -0.291113 0.175619 -0.000893 0.253773 -0.116527 -0.055554 0.092417 0.154984 0.041646 0.117503 0.163918 -0.066972 -0.026430 -0.064495 0.254951 0.008815 -0.052441 -0.225098 -0.060839 -0.221148 -0.223074
NAGAR~b -0.028826 0.356970 0.211867 -0.181583 0.075854 -0.110479 0.089307 0.237200 -0.013597 -0.050721 -0.449960 0.091217 -0.196835 -0.145287 -0.109836 -0.103430 -0.161406 -0.120698 0.107983 0.131767 0.308659 0.027492 -0.285283 -0.088196 -0.025257 0.180223 0.225826 0.031149 -0.142734 0.010693 0.118505 -0.202673
EZEN~b 0.219070 0.107462 -0.163302 -0.249522 0.107277 -0.070320 0.024867 0.185400 0.216373 0.044335 0.039810 -0.132482 0.000672 0.273151 -0.015229 -0.150828 -0.293948 -0.104887 -0.030924 0.210601 0.175425 -0.207073 -0.267416 -0.250814 0.002949 0.171152 0.121471 -0.044597 0.074677 0.369883 0.099336 -0.292375
SZITA~a1 0.123999 -0.058760 0.058398 0.380868 0.288419 0.213611 -0.072403 -0.135083 0.350238 -0.072854 -0.174530 0.182945 -0.097436 -0.076405 -0.026079 0.246851 -0.028995 -0.068950 -0.121097 -0.000830 0.206509 0.098941 -0.200985 -0.215551 -0.010763 0.205220 0.139374 -0.060419 -0.155643 0.003908 -0.168732 -0.366026
HI 0.046388 -0.024570 0.179066 -0.149736 -0.045916 0.383931 -0.410317 0.013305 -0.148838 -0.132902 -0.157776 -0.033515 -0.213014 0.267427 0.112616 -0.013091 -0.055540 -0.076858 0.042160 0.177310 -0.091212 0.166130 -0.308948 0.083256 0.045940 0.045433 -0.079462 0.075992 -0.367395 0.036893 -0.134600 -0.279113
SIG7 -0.061909 -0.046410 0.018088 0.168358 0.045621 -0.409184 -0.083583 0.070634 0.031137 -0.143662 0.074273 -0.000237 -0.221805 -0.142220 0.260262 0.056648 -0.055938 0.120643 0.169313 0.275161 -0.075767 0.033830 -0.371456 0.103207 0.227364 0.078384 0.177230 0.047055 0.154159 0.340713 0.169803 -0.280416
TUR -0.197585 -0.245254 -0.038767 0.026157 -0.196426 -0.276423 -0.184489 -0.416189 0.109817 0.014593 -0.009068 0.194838 0.061191 -0.169348 0.122286 0.105863 0.092879 0.028134 0.162415 -0.017633 -0.385161 -0.231934 -0.027251 0.285899 0.023839 0.146485 0.106597 0.102533 -0.057300 0.163536 -0.100566 -0.250412
UDU~a 0.042575 0.119556 -0.199978 -0.223819 -0.082966 0.112777 0.035807 0.393256 -0.025182 0.481537 -0.150039 0.022465 0.141842 -0.390750 0.033706 0.258217 0.044021 0.172871 -0.052380 -0.037973 0.221416 -0.102022 -0.013398 0.076596 0.132219 -0.075446 -0.180060 0.050464 0.050848 -0.067471 -0.217016 -0.090909
SZITA~b1 0.017150 0.178482 -0.281273 0.272450 0.015588 0.369428 0.095958 0.201602 0.053964 -0.119646 -0.308845 -0.165259 0.181771 0.152810 0.314929 0.028249 0.035347 -0.121011 -0.219058 0.077380 -0.069145 0.139802 -0.190565 -0.074459 -0.078083 0.194230 -0.261392 -0.156256 0.097640 0.086965 -0.098329 -0.179618
KU3~a 0.024231 -0.201245 0.246720 0.042227 -0.043788 -0.251031 -0.268307 0.113436 0.121739 0.037652 0.055747 -0.226602 -0.200878 0.130853 -0.087227 0.033590 -0.317952 -0.338870 0.204724 -0.217545 0.153088 0.184951 -0.016668 -0.086823 -0.015371 0.192414 -0.240559 0.100847 -0.108394 -0.069603 0.153565 -0.305722
ZATU714 -0.295003 0.447588 -0.014852 -0.186436 -0.251661 -0.201908 0.014173 0.196484 0.077648 -0.039813 -0.289071 -0.188758 -0.305176 0.009073 -0.163715 -0.004230 0.171580 0.105429 0.073161 0.231566 0.226991 0.108835 -0.074960 -0.225982 -0.054578 0.048725 -0.066575 0.089781 -0.049739 0.045159 -0.105449 -0.186671
|ZATU714xHI@g~a| -0.455610 0.183321 -0.130157 -0.300576 -0.056379 -0.071693 0.338680 0.078670 0.211864 -0.140977 -0.060745 -0.139412 -0.214609 0.017854 -0.000973 0.136523 0.151197 0.134870 0.119414 0.103439 0.348048 0.005261 -0.083166 -0.188421 -0.072928 0.215869 -0.062640 -0.088825 -0.055827 0.192465 -0.124400 -0.143012
MU -0.030182 0.080660 -0.298450 0.150970 -0.177410 0.080258 0.551943 0.227592 0.088386 -0.391858 -0.025659 0.142953 0.040949 0.040108 0.029319 0.167350 0.233969 0.094763 0.102976 0.242308 0.230331 -0.010136 -0.042972 -0.001500 0.130479 -0.010595 -0.084464 -0.071520 0.020353 0.123021 -0.079324 -0.180232
TA~c 0.317508 -0.141650 0.002238 -0.178933 0.448332 -0.024944 0.211337 0.151359 0.213425 -0.012488 0.254437 -0.216345 -0.028835 0.206908 0.120146 -0.019580 0.229257 -0.084655 -0.051447 0.229762 0.151830 -0.333073 -0.055841 0.037620 -0.058543 -0.059240 -0.104336 0.211108 0.088132 0.111719 0.080822 -0.139064
GESZTU~b -0.244719 0.064063 0.269268 0.040377 -0.009182 -0.044421 0.209220 -0.302545 0.127287 0.101313 0.027928 0.201608 0.444749 0.016686 -0.015157 -0.024740 0.114810 -0.153795 0.316797 -0.157505 0.228479 -0.274457 0.006425 0.112968 -0.038770 0.185023 0.200519 0.042268 -0.049882 0.146843 -0.061840 -0.223057
SZA3~a1 -0.405723 0.303696 0.016237 -0.397812 -0.052380 0.102691 -0.183839 -0.212325 0.000184 0.149606 0.149690 -0.026365 -0.100623 0.068333 0.086659 0.032242 0.071811 0.027631 0.097004 -0.040659 0.417322 0.045323 -0.002552 -0.095093 0.182795 -0.193516 -0.129926 -0.062512 0.041928 -0.094531 0.131965 -0.318810
|U4.SZU2| 0.224369 -0.335987 -0.339887 -0.430816 -0.219687 -0.254413 0.158447 -0.080171 -0.137024 -0.056453 -0.296466 -0.190520 0.051802 0.030035 0.099445 -0.040708 -0.132304 -0.087908 0.026421 -0.267636 -0.052555 0.042270 0.058304 0.047243 0.234657 0.016132 0.082872 -0.026604 0.116456 0.137333 -0.076616 -0.144597
SA~a 0.139425 0.564893 0.155566 -0.359437 -0.003739 0.173592 -0.050656 -0.243625 0.033429 0.093148 0.120935 0.002114 -0.376975 0.041481 0.062492 0.128865 -0.022001 -0.179973 0.046376 -0.095842 0.106236 -0.065458 0.018419 -0.309437 0.062959 0.122634 0.103820 -0.139488 -0.042510 -0.046016 -0.036008 -0.129983
KISAL~b1 0.482930 0.048761 -0.310811 -0.035053 0.007322 0.056021 -0.144220 0.066721 -0.003957 -0.000810 0.128188 -0.181969 0.198846 -0.063634 0.101644 0.198739 0.073560 0.175215 -0.093592 0.078618 0.153235 0.034136 0.145918 -0.198143 0.056811 -0.123228 0.116897 -0.018270 0.204480 0.445334 0.055924 -0.288484
AB2 0.119769 0.111564 0.135663 -0.095371 -0.126346 -0.151781 -0.315675 0.192626 -0.068741 0.517750 0.057061 -0.057918 0.048723 0.169159 0.167709 0.381766 -0.016254 -0.159381 -0.027322 -0.035243 0.074996 0.143800 0.031758 -0.016030 0.142977 -0.079855 -0.073696 -0.004497 0.185773 0.063707 -0.318481 -0.241243
U8 0.045626 0.096706 -0.537583 -0.244306 0.195334 0.040213 -0.255966 -0.241178 -0.158525 0.060619 0.112097 0.162235 0.053739 0.018343 0.007421 -0.039243 -0.133389 0.106641 -0.272256 -0.114433 -0.007600 -0.271382 0.056551 0.077198 -0.057095 0.284535 -0.012623 -0.027516 -0.013343 0.018853 -0.175569 -0.296945
MEN~a -0.099509 -0.090004 0.016237 0.201065 -0.026900 -0.268380 0.002431 0.000976 0.256944 0.119993 -0.085174 -0.488187 -0.269750 -0.004886 -0.167430 -0.287955 0.335869 -0.118005 -0.125734 0.097158 0.044000 0.023533 -0.110070 -0.198201 -0.179265 -0.040142 0.107362 0.171151 -0.165215 -0.053256 -0.015705 -0.219071
SZITA@g~a 0.103788 -0.307695 -0.020023 -0.159210 0.016982 -0.345812 0.240507 0.333670 -0.056895 0.287214 -0.046621 -0.053362 0.277450 -0.066776 0.332873 -0.008580 -0.168437 -0.047273 -0.107449 0.170658 0.047847 0.238685 -0.078921 0.015325 0.080759 -0.121037 0.108041 -0.101539 0.089530 0.255779 0.045554 -0.202527
DUG~b -0.348828 -0.256706 -0.101168 -0.051958 -0.029515 -0.281567 -0.495415 0.188831 0.186919 -0.216241 -0.375906 -0.074054 -0.102787 0.049474 0.159130 -0.033595 -0.011025 0.179041 -0.115352 -0.010471 0.045679 0.033516 0.050926 0.130755 0.045149 0.222304 -0.028242 0.009405 0.016429 0.134833 -0.014091 -0.175513
IR~a -0.078414 -0.001902 -0.109856 0.134932 -0.031105 -0.166874 0.005119 0.053584 0.018924 -0.072589 -0.099562 0.218323 -0.093351 -0.224613 0.208646 -0.151438 -0.211287 0.103849 0.090472 -0.120981 -0.113407 -0.115171 -0.056124 -0.133215 0.013363 -0.270455 -0.296711 0.076388 -0.592724 0.240945 0.130495 -0.155408
GAN~b 0.107281 0.029313 -0.127466 0.268704 0.342973 -0.326421 0.368470 0.020991 -0.119699 -0.085488 0.093965 0.218253 -0.159706 0.049468 -0.193519 0.223690 -0.134879 0.055136 -0.122131 -0.135100 -0.046810 -0.352777 -0.136164 0.172436 -0.135213 -0.192219 0.153506 -0.047512 0.023956 -0.089785 0.008427 -0.161784
MA -0.075942 -0.281932 -0.212400 0.141051 0.196163 0.256650 0.189939 -0.004885 -0.294022 0.113279 0.255951 0.268670 -0.150538 0.083087 0.150222 0.089081 -0.084440 -0.192302 0.122516 -0.045965 0.021244 -0.107198 -0.165392 -0.142674 -0.223547 -0.125266 0.319013 -0.065569 -0.093866 -0.083083 0.023359 -0.321507
ZATU662 0.048613 0.164080 -0.163308 -0.116362 -0.181544 -0.151908 -0.022441 -0.043917 0.364605 0.073985 -0.202518 -0.003422 -0.290705 -0.024902 -0.189846 0.210868 0.277376 -0.321664 0.269103 -0.103712 0.182510 0.075043 -0.041436 -0.315679 -0.076258 0.199887 0.076683 0.074935 0.207276 0.064919 -0.119537 -0.065916
HASZHUR 0.063400 -0.053008 0.133331 -0.051041 0.263932 -0.026430 -0.041676 0.082644 0.073046 -0.260384 0.130012 -0.227555 -0.034672 -0.000447 -0.296194 0.047925 0.163959 -0.564300 -0.076599 -0.020993 0.081671 -0.044617 -0.345077 0.178996 0.024884 0.097864 -0.162712 0.171614 -0.059647 0.135936 0.107256 -0.223038
AMA~a -0.137552 -0.103343 -0.189118 -0.288249 0.216771 -0.057681 0.222632 -0.050957 -0.074331 -0.183906 0.299569 0.180896 -0.167646 0.071272 0.308243 -0.347060 -0.251256 -0.077903 0.004453 0.286055 -0.073863 -0.089060 0.021653 0.068641 0.118812 -0.062051 0.048107 -0.020429 -0.075298 0.010495 0.171783 -0.336164
GAR -0.100778 -0.001183 0.278041 0.256935 -0.085449 -0.458405 0.304051 0.114695 0.000360 -0.176137 0.002075 0.313002 -0.062921 -0.166925 0.040231 0.274066 0.190264 -0.065213 0.109908 0.234027 0.056674 0.181058 0.158117 -0.031772 0.097350 0.110145 0.077463 -0.085237 0.009106 -0.059034 -0.191520 -0.203717
SILA3~a -0.001284 -0.263856 -0.163963 -0.010906 -0.161049 -0.015354 -0.269327 -0.240685 0.229907 -0.235546 -0.320072 -0.237404 0.165431 -0.043184 0.288247 -0.155175 -0.150932 0.258678 0.110751 0.055590 0.112231 -0.351117 0.013578 0.017479 -0.020073 -0.146351 0.076878 -0.131874 0.076825 0.122475 -0.000102 -0.189071
ZATU762~a -0.286190 0.004072 0.461628 0.125868 0.116572 -0.158135 0.003464 0.030387 -0.117935 0.081115 -0.225151 0.226116 0.466287 0.149864 0.333049 -0.024117 0.136709 -0.082358 0.008933 0.049499 0.032630 0.058681 0.181958 0.117056 0.141408 -0.031175 -0.054742 0.026186 0.123398 0.181556 0.016501 -0.153214
ERIN -0.004729 0.196824 0.244215 0.236003 0.089748 -0.088747 0.061331 -0.397075 -0.003818 0.096588 0.338409 0.237042 -0.217572 0.039299 0.020176 0.097275 0.114115 -0.246138 0.098761 -0.068699 0.240085 0.005287 -0.159751 -0.083956 0.040481 0.197650 -0.140739 0.225128 -0.027766 0.212079 -0.098472 -0.291166
MUSZEN 0.073228 -0.393795 0.100838 -0.165520 -0.136049 0.251053 -0.208368 -0.004038 0.064501 -0.156211 -0.198770 0.095496 -0.448911 0.013232 0.220444 0.173365 0.260318 0.163483 0.092205 -0.010994 0.072473 0.006246 0.149612 0.053177 -0.229524 0.039655 -0.002042 0.109446 -0.070664 -0.130349 0.075458 -0.303244
ZATU659 -0.037707 -0.122847 -0.318537 -0.105882 0.260414 0.169289 0.213970 0.121766 -0.285404 -0.156892 -0.003007 -0.063913 0.089918 -0.268354 0.029990 -0.144555 0.096608 -0.152237 0.112749 -0.212896 0.010489 -0.214027 0.167263 -0.031238 -0.170122 0.115069 0.233190 0.282413 -0.008367 0.219611 0.074134 -0.325789
I -0.019740 -0.205676 -0.071508 0.123176 0.102897 0.158922 0.324037 -0.161895 0.160915 0.103174 0.178485 0.276823 -0.082096 -0.043837 0.205201 -0.033885 -0.182491 0.045510 -0.034040 0.156809 -0.341556 0.167701 -0.188056 0.144281 0.167641 0.200316 0.380437 0.107635 0.000019 0.208777 0.026360 -0.205196
SZAGAN 0.128653 -0.194326 0.304843 -0.061523 0.015511 -0.034362 0.010158 -0.070617 -0.045005 -0.144595 -0.465952 0.007357 0.198281 0.060863 -0.060308 0.348957 0.005133 -0.069445 -0.265699 -0.060889 -0.161104 0.062824 -0.169530 -0.118545 -0.160733 0.247470 -0.099859 0.005224 0.214194 0.207558 0.023105 -0.309060
ERIM~a 0.020473 0.128908 0.293193 0.182924 0.212886 0.133323 0.002835 0.192008 -0.272114 -0.282568 -0.214342 0.173547 -0.047752 -0.355542 -0.196227 -0.101221 0.123924 0.188690 -0.274299 0.038015 0.082810 -0.008655 -0.106697 0.045973 0.191506 0.138033 0.056801 0.226498 0.062962 -0.020820 -0.016153 -0.305264
NAMESZDA -0.003099 0.181437 -0.036697 0.064664 -0.084476 -0.186850 -0.155860 0.045948 -0.091276 0.038671 0.128303 0.232067 0.045646 -0.147639 0.037216 -0.112389 -0.061372 -0.034847 0.088951 -0.413151 -0.021934 -0.105559 -0.144522 -0.061258 -0.151325 0.116119 -0.358487 0.037213 -0.524102 0.155255 -0.018637 -0.299640
AB~b 0.006822 -0.079819 -0.266860 0.168569 0.290746 0.267487 0.231374 -0.096708 0.028435 0.184947 -0.044222 -0.006308 0.137601 0.047661 -0.214208 -0.332768 -0.216931 -0.027042 -0.159061 0.071450 -0.000544 0.353067 0.073023 0.079320 -0.173106 0.108350 -0.102099 0.082109 -0.361256 -0.045779 0.094744 -0.212658
GURUSZ~a -0.100251 0.080285 0.334464 -0.226293 0.492686 -0.077102 0.177953 0.028298 0.108182 0.179868 0.376400 -0.157220 0.063713 0.146052 0.170308 -0.118738 0.008398 -0.184004 0.189435 0.046207 0.049954 -0.149811 -0.027914 0.202077 -0.088177 -0.070472 -0.161036 0.131038 -0.029544 0.162879 -0.028788 -0.194306
URI -0.016489 0.092495 -0.259109 0.205777 0.005706 -0.168853 -0.062863 -0.158430 0.166881 -0.001138 0.066154 0.000882 0.109848 0.102075 0.035838 -0.052560 -0.312305 0.102638 0.060994 0.099654 -0.103375 0.031502 -0.090755 -0.203083 0.062485 -0.342930 -0.292473 0.044796 -0.532335 0.265918 0.053066 -0.128432
NUNUZ~c 0.073332 -0.091272 -0.034052 0.117085 -0.205351 0.088910 0.329134 0.208716 -0.060833 -0.083400 -0.146304 -0.139634 -0.020287 -0.094220 0.239045 -0.255916 -0.166692 0.340399 0.000225 0.129232 0.132892 0.074530 0.046317 0.113572 0.038106 -0.128885 0.021637 0.177071 0.124309 -0.332873 0.335953 -0.313607
UMUKU3~a 0.032319 -0.242513 0.263321 0.215305 -0.001608 -0.203911 -0.149372 0.093718 -0.063208 0.245650 -0.273446 -0.227866 -0.205187 0.032586 0.157569 0.078857 -0.026617 0.069405 -0.287674 -0.091924 -0.200659 -0.312070 0.155138 -0.083206 -0.224061 -0.068544 0.052068 -0.197363 0.158262 0.246176 0.162329 -0.112189
SZAM2 -0.006041 0.007315 0.062307 -0.034485 -0.064735 -0.247637 -0.071637 0.109542 -0.055861 -0.064037 -0.027354 0.052236 0.264795 0.110352 0.117569 0.367558 -0.250759 -0.065750 -0.242837 0.261458 0.135973 0.059105 0.248239 0.078720 -0.474062 0.143579 0.006646 -0.197039 0.061947 0.222047 0.062510 -0.211369
|KA2xLAM| -0.207472 -0.286065 -0.171253 -0.218934 0.059265 -0.369761 -0.083163 0.063311 0.042848 0.070046 -0.346193 -0.339341 -0.203503 0.055286 0.028687 -0.048352 -0.251605 -0.106972 -0.100601 -0.148568 -0.011527 0.085163 -0.012689 -0.023384 0.135038 0.043016 0.012439 -0.120864 0.138057 0.382836 -0.066755 -0.193300
KINGAL 0.227183 0.334264 0.036535 0.008294 0.063133 -0.144628 0.313432 -0.389373 -0.026583 0.065535 0.225872 -0.047461 0.253211 -0.146598 0.288012 -0.079600 0.147427 -0.092816 0.269603 -0.176834 0.175739 0.031796 -0.031976 0.264615 0.001908 -0.031932 -0.137644 0.174492 0.051468 0.165577 0.077645 -0.059806
GA2~b -0.004946 0.079630 0.107109 0.144824 0.462558 0.349168 -0.138324 -0.133995 0.015624 0.101271 0.253814 -0.053328 -0.079718 0.261494 0.126067 -0.084441 0.189051 -0.225483 -0.065672 0.160584 0.305490 -0.297044 -0.179889 0.036823 -0.078430 -0.049200 -0.056051 0.206661 0.087777 -0.001262 -0.067555 -0.118522
E2~b 0.074930 -0.310774 0.022077 0.040390 -0.067236 -0.078538 -0.400852 0.048664 -0.190878 0.064189 -0.134019 0.030087 0.108529 -0.024980 0.136995 0.151009 -0.142938 -0.027634 -0.093570 0.056703 -0.271775 0.064452 0.070043 0.017879 0.134791 0.035830 0.331949 0.048830 0.089397 0.404408 0.173650 -0.398027
GI6 0.127726 0.145379 0.132999 -0.155272 -0.074463 0.040176 0.146572 -0.144671 -0.185647 0.308383 -0.075243 -0.380326 -0.249474 0.109565 -0.126664 -0.070584 0.155675 -0.207089 -0.132236 0.179716 -0.260669 -0.032835 -0.161563 0.114802 0.128235 -0.023128 -0.117917 -0.254727 0.194793 -0.170665 0.198175 -0.262130
UKKIN~a 0.022519 0.024310 -0.101242 0.208517 -0.234348 0.389473 0.224465 0.096771 -0.071025 -0.195346 0.155496 0.404452 -0.253153 -0.100858 0.051882 -0.060346 -0.317506 0.075740 -0.066258 0.175909 0.205315 -0.126515 -0.053812 0.047313 0.051887 -0.069022 -0.085965 0.073449 -0.061750 0.006549 -0.109291 -0.355023
ZAG~a 0.280265 -0.194094 0.141491 0.028000 -0.096503 -0.039520 0.018715 0.230079 -0.037950 0.489794 0.248160 -0.096769 -0.048195 -0.130022 -0.129424 -0.101881 -0.023983 -0.233807 -0.190974 -0.029255 -0.130459 0.171692 0.128553 0.038013 -0.128306 -0.064315 -0.152895 -0.192760 -0.188408 0.330247 0.057579 -0.232650
LAGAR~a -0.074092 -0.202247 -0.211427 0.035690 -0.358031 -0.098071 0.216496 0.324560 0.100136 -0.053292 0.314013 -0.124775 0.050220 0.107770 -0.272782 -0.187284 0.294914 -0.242474 0.029803 -0.192433 0.139877 -0.224712 0.004596 -0.208827 0.005272 0.069120 0.020541 0.097935 0.109325 0.131683 0.023738 -0.157809
ZATU647 0.230272 0.074116 0.176370 -0.138265 -0.130868 -0.263748 0.022753 0.126119 -0.269723 -0.273329 0.257101 0.026810 0.282317 -0.130945 -0.121725 0.155528 -0.260485 0.171176 0.079568 0.166832 -0.098057 0.035781 -0.191636 0.242719 -0.035656 0.222295 -0.070790 -0.024584 0.060210 0.260290 -0.003488 -0.269201
ZATU628~a -0.016468 -0.105909 0.142483 -0.180648 0.029046 0.291980 0.214209 0.121849 0.070435 -0.102459 0.166742 0.164272 -0.199783 -0.032058 0.066573 -0.168193 -0.228808 0.210636 0.352408 0.127772 0.096708 -0.494496 0.085497 0.109449 -0.077207 -0.081464 -0.043477 -0.004674 -0.204215 0.086125 0.074027 -0.255583
NE~a -0.127384 -0.236296 0.110746 -0.131921 0.014253 -0.019284 -0.285521 -0.001385 0.003249 0.358696 -0.153975 -0.409897 -0.036202 -0.043565 -0.078497 -0.228017 -0.144194 -0.074742 0.068506 0.207927 -0.093986 0.130510 0.170942 0.181110 -0.028657 -0.255532 -0.023926 -0.317133 -0.091301 0.117942 -0.045247 -0.284009
ZATU753 0.084947 0.093770 -0.170993 -0.029592 0.187219 -0.046901 0.030961 -0.019974 0.056147 -0.012008 0.275973 -0.053462 -0.110440 -0.004942 0.095844 0.005333 -0.106798 -0.241800 -0.059385 -0.072024 0.337284 -0.251171 -0.437539 0.113201 -0.210706 0.145508 -0.208314 0.262835 0.031255 0.051842 -0.190591 -0.365775
|ZATU651xEN~a| -0.159375 -0.142835 -0.396517 -0.304015 -0.186370 -0.257700 -0.160966 -0.078463 0.235051 -0.010176 0.185934 -0.001310 0.068206 0.300127 0.048797 -0.003739 -0.078816 0.020528 0.068024 0.017011 0.154370 0.137934 -0.318308 0.049906 0.190206 0.171451 0.085385 -0.177478 0.083082 0.280833 -0.104161 -0.158397
DIM~b -0.214948 -0.093520 0.033117 0.295247 0.094040 0.000945 0.085011 0.026600 -0.217417 -0.009485 -0.230090 0.128697 0.181074 -0.004630 0.102148 0.000079 -0.091391 -0.091373 -0.059043 0.066321 0.138060 0.261533 0.222750 0.099865 0.323916 0.044049 -0.063225 0.105067 0.146411 -0.235045 0.531226 -0.165769
|ZATU737xDI| 0.227183 0.334264 0.036535 0.008294 0.063133 -0.144628 0.313432 -0.389373 -0.026583 0.065535 0.225872 -0.047461 0.253211 -0.146598 0.288012 -0.079600 0.147427 -0.092816 0.269603 -0.176834 0.175739 0.031796 -0.031976 0.264615 0.001908 -0.031932 -0.137644 0.174492 0.051468 0.165577 0.077645 -0.059806
GISZIMMAR~b1 0.072673 0.076915 0.041521 -0.497375 0.171715 0.126423 -0.062095 0.099223 -0.121585 -0.251242 0.065717 -0.208020 0.163620 0.046138 -0.257671 -0.042865 0.146482 0.123197 -0.109160 -0.006030 0.073939 -0.101243 -0.107742 -0.534160 0.014289 0.125022 -0.000226 0.006382 0.085087 0.157609 0.130593 -0.177902
PIRIG~b1 0.129986 0.370973 0.245519 0.012251 -0.267100 -0.304697 0.140018 -0.072169 -0.159977 -0.056332 -0.141056 -0.384742 0.034920 -0.110639 0.077746 -0.138935 -0.188924 -0.082704 0.175169 0.004366 -0.266750 -0.036841 -0.044667 0.042653 0.026060 -0.029592 -0.249749 0.094109 -0.027144 0.123191 0.022509 -0.348987
ZATU762~b 0.071563 0.412395 0.106055 0.256051 0.179478 0.323084 0.050690 -0.217899 0.058459 0.113042 0.157940 0.070792 0.119143 -0.232990 0.170230 -0.268163 0.188595 0.173274 -0.036166 -0.086680 0.237186 -0.094522 -0.054638 0.150186 -0.000079 -0.109022 -0.151325 0.236267 0.245682 0.019164 -0.104131 -0.136053
|ZATU651xGAR| 0.065265 -0.022546 -0.214896 0.092271 0.473475 0.053750 -0.046273 -0.084220 0.148391 0.081470 0.158912 -0.179119 -0.083165 0.230384 0.013489 0.057487 0.052764 -0.203550 0.018393 0.161196 0.290302 -0.004880 -0.119425 0.122101 0.114587 0.039388 -0.252424 0.110710 0.145014 -0.201877 0.452785 -0.115324
|U4xKASZ~b 0.065773 0.170081 0.007784 0.025539 -0.211542 0.297385 -0.027639 0.167780 0.040129 0.139593 0.182698 0.162937 -0.133634 0.154810 -0.035622 -0.002099 0.105607 0.277359 0.037484 0.105602 -0.031863 0.066654 -0.446068 0.010738 0.060060 0.251293 0.242900 -0.171867 0.039713 0.376893 0.249945 -0.115027
SU~a 0.047710 -0.070180 -0.241122 0.008957 0.241078 -0.139040 -0.147800 -0.095557 0.151780 -0.133135 -0.043820 -0.357079 0.238599 -0.173076 -0.149294 0.065966 -0.163379 -0.046633 0.133655 0.230257 -0.077534 0.104793 0.063561 -0.066736 0.068786 -0.083070 0.153108 -0.185199 -0.166175 0.421751 -0.151992 -0.345312
TUG2~c -0.294260 -0.225190 -0.065847 -0.149868 -0.316395 0.048346 0.145405 -0.267409 0.111614 0.143431 0.183407 -0.053126 0.504069 0.280435 -0.094388 -0.197838 0.152466 0.034849 0.149739 -0.139140 0.207379 0.018682 -0.157692 -0.001277 -0.126752 0.144446 0.043408 -0.086102 -0.020606 -0.028956 -0.051745 -0.076862
GUM~b 0.018640 0.032146 0.135500 0.028416 0.067308 0.142515 0.192910 -0.080150 -0.157861 -0.250932 -0.264590 -0.064993 0.128838 0.122234 -0.318728 0.315363 -0.035661 0.263283 -0.102112 -0.153125 -0.105396 -0.351495 -0.206288 -0.118923 -0.125801 -0.113477 0.020261 -0.363894 -0.098765 -0.000174 0.141656 -0.170589
GISZ -0.014936 0.199046 -0.124418 0.055562 0.007715 0.072680 0.071561 0.051761 0.043556 0.130215 -0.026287 -0.092666 0.018567 -0.033125 0.365535 -0.130265 -0.029170 -0.151565 -0.195567 0.090615 -0.427839 -0.294723 0.011235 -0.329243 -0.075560 0.345744 -0.029356 -0.034841 0.108981 -0.365552 -0.059093 -0.152495
NIM~a 0.404727 0.203702 0.203174 0.171141 -0.060713 -0.092828 0.122136 -0.275675 -0.318952 -0.089922 0.054037 -0.153276 0.005895 0.031448 0.172624 -0.062846 0.251891 -0.089593 -0.020088 0.227147 0.134388 -0.124698 -0.301706 -0.078670 -0.080623 0.067636 -0.017751 0.032929 0.181466 0.134894 -0.069699 -0.356587
DUG~d 0.342554 -0.262096 0.076779 0.067269 -0.204323 -0.119959 -0.450954 0.015700 0.236907 -0.207461 -0.111055 -0.098016 0.130791 -0.056673 0.229372 -0.187810 -0.196681 0.124744 -0.071488 -0.060738 0.317936 -0.097667 -0.051280 0.272256 -0.009643 -0.035817 -0.043281 -0.157053 0.153110 -0.045636 0.004537 -0.103010
SZITA~a3 0.034002 0.243938 0.021563 0.050610 -0.216346 0.268741 -0.009984 0.224990 0.154552 -0.114552 -0.169029 -0.222903 -0.097537 0.082718 -0.013139 0.128947 -0.309931 0.075210 0.439732 0.298295 0.098523 -0.351170 0.077428 -0.012611 -0.105583 0.053048 -0.052115 -0.033911 -0.127570 0.159707 0.045185 -0.182359
KISAL~a1 0.091571 0.028570 -0.092894 0.145829 0.174666 -0.032899 0.179683 -0.022803 0.061182 0.062342 0.377423 -0.310678 -0.052703 0.091165 0.055114 -0.068890 0.227870 -0.515254 0.124887 -0.087140 0.229170 -0.180515 -0.235752 0.187199 -0.085999 -0.059629 -0.075735 0.186976 0.096709 0.201597 0.024490 -0.111652
HI@g~b 0.094170 0.122942 0.274061 -0.413690 0.096862 0.287145 -0.150207 0.064266 -0.140949 -0.251110 -0.277782 0.104385 0.183775 -0.060018 -0.367792 0.067274 0.150830 -0.073375 -0.123401 0.075297 -0.006786 -0.138707 -0.333245 -0.060040 -0.074625 0.034079 -0.078293 -0.145762 -0.042619 0.100278 0.174598 -0.060424
SAR~a -0.159374 0.100454 0.289958 0.377210 0.059699 -0.095222 -0.152474 0.075439 -0.302669 -0.131892 -0.003829 -0.085827 0.134379 -0.114648 -0.322429 0.045929 -0.266880 0.029036 0.124973 0.140239 -0.022160 0.141445 -0.144057 -0.002453 0.228059 -0.005857 -0.135250 -0.050135 -0.061483 -0.069144 0.383240 -0.256951
BARA2~a 0.239821 0.061937 0.112959 0.174140 -0.022420 0.275382 0.081324 -0.315599 -0.181103 -0.150565 0.071933 0.025443 0.030536 -0.120216 0.348328 -0.235007 0.433281 0.307254 0.104140 0.024328 -0.029879 -0.238332 -0.038497 -0.017679 0.099810 -0.009546 0.013228 0.183282 -0.045716 -0.044144 -0.103789 -0.219275
GIR2~a 0.078734 0.192273 -0.092516 -0.198924 -0.123167 -0.091203 -0.245003 0.400084 -0.001077 -0.019088 -0.173285 -0.264645 -0.182353 0.152354 0.213766 0.129387 -0.080143 -0.065839 -0.018942 0.241129 0.226504 0.248062 0.034724 -0.022581 -0.232103 0.100413 -0.001007 -0.284292 0.011198 0.047035 0.155943 -0.300901
NU11 0.141664 0.156512 0.179780 -0.217726 -0.107925 0.183268 0.019970 0.299928 0.146084 0.117919 0.024181 -0.264275 -0.093533 0.176400 -0.149250 -0.357483 -0.063925 -0.230740 -0.015673 -0.103665 0.068728 -0.151128 -0.099331 0.071235 -0.160385 -0.074313 -0.121336 -0.126093 -0.279558 0.360530 0.177144 -0.179740
BAR -0.062076 -0.084894 0.313492 -0.247851 0.274870 -0.000571 0.166293 0.208452 -0.309864 0.162257 0.195205 -0.255996 -0.061564 0.132519 0.166639 0.008820 -0.069447 -0.139074 -0.062951 0.162191 -0.137731 -0.285852 0.099910 0.121474 -0.173417 0.043435 0.114013 -0.269781 0.114325 -0.030597 -0.178013 -0.253190
DU8~c@g 0.031004 -0.440912 0.056333 -0.168894 0.145648 -0.368166 -0.051166 0.081640 0.033188 0.275207 0.059632 -0.030487 0.140578 0.259116 0.132759 0.049256 -0.278695 -0.039476 -0.269860 0.074692 -0.154851 -0.115802 -0.121292 0.192490 0.024877 0.164845 -0.091529 -0.147785 0.211878 0.148296 -0.107886 -0.187864
|NINDA2xGU4| 0.071137 0.068150 0.088000 0.090031 -0.035757 -0.087004 0.029952 0.022385 0.088759 0.004981 0.132483 0.001307 -0.016615 0.028512 0.136771 -0.131302 -0.104850 0.049903 -0.236757 -0.228368 -0.143095 0.285087 -0.108682 -0.066526 -0.007622 -0.188406 -0.458307 0.073584 -0.618196 0.142166 0.041925 -0.082939
GU7 -0.364616 -0.194718 -0.194071 0.010359 0.099434 -0.342833 -0.309072 0.067430 0.212872 -0.239799 -0.104311 -0.055673 -0.011016 -0.062843 0.071606 0.232629 -0.010784 0.078906 -0.155636 -0.073197 0.209643 0.050561 -0.052991 0.186642 -0.020855 0.361822 -0.022057 -0.002304 0.108119 0.079589 -0.294017 -0.165463
NA~a -0.418822 0.045064 -0.065252 0.135231 -0.013488 -0.080293 0.020818 -0.084683 -0.328844 0.102984 -0.197038 0.183502 -0.292984 0.096141 0.056314 -0.049064 0.041415 -0.133569 -0.071736 -0.166740 -0.122330 -0.072949 0.107463 0.136256 -0.168414 -0.200077 0.357966 -0.051310 -0.144642 -0.095790 0.122103 -0.383144
SA~c -0.028241 0.368776 0.150023 -0.291212 0.112465 -0.053347 0.042746 -0.179912 0.008868 0.100670 0.276975 -0.000569 -0.257080 0.139360 -0.006846 0.435552 -0.166615 0.103314 -0.084204 -0.211497 0.045475 -0.173468 0.087949 -0.209568 0.141612 -0.123705 0.218865 -0.089199 -0.153476 -0.109227 -0.084446 -0.190035
DI 0.375597 -0.049084 -0.058483 0.232680 -0.078635 0.109921 -0.147444 -0.071986 0.340272 0.317679 0.000228 0.169815 0.025713 -0.119228 -0.294167 0.372492 -0.184679 -0.072645 0.064311 -0.144142 -0.149993 -0.112155 0.057614 -0.168401 0.163422 -0.072577 -0.057474 0.093071 0.184313 -0.008669 -0.081269 -0.228964
SZA3~a2 0.155500 -0.065525 -0.140216 -0.114597 0.171735 0.013756 0.321247 -0.122962 0.264637 -0.127647 0.159354 0.090911 -0.158957 -0.024759 0.310117 0.058859 0.273272 0.045658 0.031491 -0.014877 -0.121398 -0.035034 0.036319 0.172478 0.115713 0.015059 -0.282884 0.238984 -0.312689 -0.008896 0.342124 -0.233596
DUG~c 0.054604 -0.077946 -0.031519 -0.074488 0.057633 -0.398595 -0.447188 0.090706 0.280178 -0.129842 -0.109419 0.070208 0.149574 0.135670 0.232070 0.051373 -0.265399 -0.211244 -0.235920 0.005376 0.214397 -0.180224 -0.201582 0.178971 0.018060 0.104168 -0.007478 -0.004027 0.128718 0.134719 -0.114972 -0.153021
UR3~b1 0.087886 0.222867 0.267289 0.343090 0.076264 0.357180 -0.075502 -0.126307 0.234741 0.111409 -0.071785 -0.018839 0.106147 -0.035722 0.225540 0.057298 0.055181 0.072576 0.465558 0.095384 -0.078694 -0.203134 0.231270 -0.023132 0.177401 -0.111481 -0.020275 -0.129403 -0.072026 0.059971 -0.172729 -0.152906
GADA~a -0.120707 0.145334 0.186086 -0.407787 0.025164 -0.019227 0.003603 -0.116050 -0.290466 -0.161428 0.070222 0.030579 -0.310835 -0.408191 0.284615 -0.006589 0.050375 0.030631 0.255595 -0.015293 -0.043370 -0.230670 -0.158626 -0.033436 -0.059765 0.025524 0.088780 0.097718 -0.126005 -0.077541 -0.069941 -0.299129
SUKUD -0.122322 0.117438 -0.203903 0.267875 0.008779 0.037772 -0.029942 -0.148668 0.073719 0.008938 -0.096171 -0.257831 0.189136 -0.155817 0.064801 -0.005440 -0.240452 0.192902 0.366524 0.260415 -0.179625 -0.363093 0.139724 -0.264793 0.024853 -0.240129 0.013512 -0.037407 -0.056074 0.244189 0.100373 -0.065251
GU4 0.105720 -0.550951 0.190216 -0.023000 -0.049247 0.201493 0.125120 -0.019347 0.091055 0.255933 -0.013732 -0.059065 -0.262763 0.001091 0.182524 0.092467 -0.171884 -0.027853 -0.239901 0.196473 0.317246 -0.074351 0.033543 0.042158 0.019824 0.061670 -0.243108 -0.107567 0.211088 -0.022521 -0.081999 -0.197288
SUM~a 0.216595 -0.019389 -0.051774 -0.044173 0.225548 -0.086853 0.301259 -0.049904 -0.233850 -0.021005 0.092117 0.120642 0.339363 0.118772 0.004594 -0.084495 0.061899 0.304671 0.243963 0.121158 -0.297725 -0.181659 0.109725 0.154960 -0.121345 0.237583 0.080896 0.055347 -0.196122 -0.154019 -0.230202 -0.239402
GA'AR~b1 0.249875 -0.134380 0.118838 0.430353 -0.184281 -0.008717 0.270912 0.234243 -0.025591 -0.059681 -0.105224 0.383619 0.121642 -0.065410 0.136584 -0.298134 0.053895 0.039620 -0.099340 -0.147316 0.249861 0.036088 -0.036336 -0.189881 0.050665 -0.028061 0.209056 -0.026018 0.110641 -0.034953 0.241637 -0.109878
DA~a -0.429846 0.017037 -0.062873 -0.290032 0.113409 0.186068 -0.207344 0.361159 -0.143767 -0.258828 0.191071 0.055159 0.001955 0.078270 0.210009 -0.047634 0.101049 0.000583 -0.036331 -0.318276 0.094670 0.007558 0.192801 -0.009946 0.069328 -0.242719 0.193924 0.070933 -0.049315 0.007425 -0.052751 -0.235581
SZAB~a -0.144194 0.275137 -0.149521 0.037989 -0.213461 0.085256 -0.154068 -0.200756 0.311069 0.122628 -0.163357 0.347872 -0.186699 0.192012 -0.053239 0.103423 0.153922 -0.079593 -0.119858 -0.057079 -0.260326 0.184448 0.135824 0.123981 0.088153 -0.108851 -0.189383 0.160881 -0.328387 0.135850 -0.031253 -0.161793
|GISZxSZU2~b| -0.185749 -0.053747 0.013971 0.225428 -0.235821 -0.012331 0.071608 0.205987 0.115843 -0.094600 0.231265 -0.103136 0.187838 -0.340497 0.058040 0.006500 0.045337 -0.504940 0.126770 -0.202552 -0.074689 -0.271609 -0.270724 -0.214201 -0.107739 0.108991 0.043508 0.071821 -0.083079 0.044589 -0.004939 -0.122711
SAR~b 0.139595 0.402469 0.042193 -0.252450 0.013602 0.364275 -0.171533 0.134361 0.069880 -0.027157 -0.262477 0.108004 -0.086386 0.229264 0.017148 -0.213859 -0.032369 -0.023021 0.044699 0.061609 0.280371 -0.184253 -0.166216 -0.014527 -0.213540 0.003687 0.103119 -0.226408 -0.111351 0.213141 0.246629 -0.080626
NANSZE~a -0.039356 -0.002548 0.070365 -0.507387 0.133031 0.059671 0.565491 0.009452 -0.065833 -0.066993 0.270700 -0.040511 0.058924 0.157275 0.002053 -0.150650 -0.158746 0.094763 0.196454 0.074971 -0.060868 -0.298393 0.168823 0.127479 -0.013380 0.027926 0.050159 0.060049 -0.102066 0.136113 0.004974 -0.091301
SZITA~b2 -0.023296 0.062228 -0.034771 -0.067462 0.053989 -0.150095 -0.137434 0.084201 -0.085871 0.309886 0.168381 0.149682 -0.045962 0.196087 0.141381 -0.131949 -0.095588 0.066800 0.018962 -0.049890 -0.336620 -0.227608 0.130775 -0.185567 -0.279713 0.514280 -0.106612 -0.249702 -0.033703 -0.179304 -0.119780 -0.095426
UR4~b 0.133743 -0.251350 0.385889 -0.353960 0.018857 0.124739 0.035207 -0.165507 -0.200997 -0.230893 -0.135933 -0.175363 0.234956 0.144936 -0.251735 0.323469 -0.196451 0.015646 -0.113733 -0.002232 -0.165895 -0.134473 -0.061581 -0.131822 -0.078834 0.151403 -0.126622 -0.096784 0.051608 0.035865 0.076629 -0.173564
|SZU2.EN~a| 0.140856 0.477144 0.021138 -0.115762 0.064200 -0.027647 0.048596 -0.030653 -0.128206 0.015143 0.067253 0.121786 0.180496 -0.314400 0.048046 0.016758 -0.014718 -0.293495 0.055785 0.026912 0.347883 -0.044729 -0.057738 0.168110 -0.371335 0.047701 0.086441 -0.143593 -0.064476 0.313911 0.159881 -0.138192
IB~a -0.556273 0.081196 0.234706 0.070171 0.385499 -0.045657 -0.021675 -0.001697 0.166050 -0.000354 0.097452 -0.041031 -0.084406 -0.434379 -0.163223 -0.059308 0.061195 0.008339 -0.079136 -0.097513 0.331514 -0.006103 -0.041403 -0.001674 0.052641 0.072528 -0.048054 0.116456 0.031738 0.031388 -0.162931 -0.156160
ZATU686~a -0.468502 0.344261 0.073168 -0.090244 -0.050564 0.334802 -0.243776 0.111431 0.184432 0.033250 -0.155744 0.249618 0.116496 0.370452 0.093174 0.143632 0.004537 -0.182199 0.076798 -0.053510 0.014472 0.082351 -0.120354 0.063257 -0.206513 0.039533 -0.020228 0.054245 0.152680 -0.010543 0.065987 -0.131911
|NIR~axAN| 0.195160 0.354720 -0.115365 0.090131 -0.098730 -0.306070 -0.047388 -0.022981 -0.261069 -0.120135 0.054846 0.051494 0.029509 -0.197355 -0.242079 -0.081001 -0.257965 -0.325235 0.213356 -0.236235 0.037059 -0.111777 -0.123280 0.331321 0.086567 0.190842 -0.053883 0.123265 0.013265 0.142273 -0.060618 -0.128941
SI4~a 0.290983 0.168971 0.019512 0.080380 -0.067817 -0.326850 -0.419983 0.282539 0.186298 -0.143156 -0.239020 -0.008392 0.118108 -0.144364 0.148400 0.072669 -0.028107 -0.082389 0.022198 0.260662 0.037794 -0.046656 0.092646 -0.023493 -0.198323 0.067089 0.187910 -0.262524 0.009169 0.145321 -0.098013 -0.264895
GA~a 0.177211 0.371910 -0.126623 0.041674 -0.170225 -0.353557 -0.046138 0.092617 -0.082581 -0.128788 0.004942 -0.087052 -0.007869 0.103418 0.277340 -0.079531 -0.022470 -0.317425 0.056932 0.037162 0.111310 0.164225 -0.130435 0.328273 0.065252 0.109458 -0.128454 -0.015169 0.249083 0.160395 -0.203079 -0.301354
NI~a 0.032360 0.223256 0.158834 0.054565 -0.261422 0.099373 0.066941 0.012278 0.122398 0.019996 -0.285689 0.471173 0.014114 -0.021477 -0.106376 -0.170068 0.329190 -0.035851 0.158896 -0.021287 0.210796 0.156038 0.079713 0.050556 -0.011782 -0.106848 0.239652 0.093473 -0.069642 -0.312504 0.009377 -0.291179
NUN~b -0.179868 -0.204064 0.073487 0.084156 0.157819 -0.103059 0.041832 0.018001 0.062135 0.160904 0.232863 0.034316 -0.053595 0.278062 -0.153378 0.097273 -0.009498 -0.294430 -0.182539 0.062019 0.511392 -0.048683 -0.219450 -0.046692 0.176524 0.180671 -0.179490 0.027619 0.257504 0.107837 -0.056527 -0.247987
IR11 -0.269850 -0.083384 -0.249529 -0.118200 -0.057915 0.214802 0.699695 -0.273846 -0.199364 -0.082435 0.039081 0.027666 -0.098603 0.031357 0.055127 0.088247 -0.096699 0.095534 0.046762 -0.048714 0.069655 -0.054098 0.225766 0.031972 -0.092645 0.132703 0.118580 -0.001835 -0.000704 0.150419 -0.051313 -0.106028
GA... -0.019322 -0.048606 -0.183407 -0.028972 0.100313 -0.020052 -0.010330 0.002433 0.204443 -0.047696 0.058696 -0.127108 0.008355 -0.095773 -0.047957 0.083947 -0.091973 0.036484 0.101240 0.038622 0.124473 0.212693 0.097712 0.106520 0.274016 0.127992 -0.246554 0.011295 0.112351 -0.396899 0.657749 -0.107800
TUG2~a@g -0.091540 -0.299932 -0.125724 -0.311889 0.191981 -0.153640 0.301418 0.064350 -0.236997 -0.176191 0.059677 0.325731 -0.211152 -0.183243 0.161359 -0.216165 -0.086330 0.030375 0.103881 -0.082219 -0.102540 -0.448290 0.058442 0.049834 0.051913 -0.037577 0.049429 0.042411 -0.066847 0.063805 0.130302 -0.090295
U2~a -0.150589 -0.182471 -0.063051 -0.161978 -0.157917 -0.454994 -0.252803 0.235931 -0.106906 -0.237781 -0.274103 -0.016755 -0.023458 -0.028804 0.340352 0.013700 -0.093388 0.048115 -0.000858 -0.146012 0.154931 -0.164909 -0.194484 -0.069023 -0.031917 0.229473 0.138696 -0.111324 0.104298 0.093569 -0.072521 -0.255253
NAGAR~a -0.089442 0.190384 0.067211 -0.296960 0.338326 0.113845 0.003882 0.197899 0.128050 -0.170630 -0.431627 0.279114 -0.103716 0.046879 0.048580 -0.153395 0.113576 -0.147853 0.152324 0.160059 0.164828 -0.149682 -0.223948 -0.023951 -0.008085 0.056874 0.059798 -0.077827 -0.158939 0.261841 0.100347 -0.217209
UNUG~a -0.025683 0.059587 0.094346 0.023339 -0.149744 0.114656 -0.033134 -0.031727 0.142506 -0.173125 0.316373 0.197654 -0.075851 -0.067791 -0.170165 -0.436270 -0.324169 0.259946 -0.343264 0.208660 0.130871 -0.135037 0.041929 0.018987 0.003931 -0.069353 -0.148252 -0.022044 0.308000 0.008410 -0.145517 -0.121192
UH3~b 0.072539 0.082606 -0.109162 -0.045235 0.053023 -0.028691 -0.071903 0.058953 -0.089497 -0.017317 0.237837 0.097317 -0.004483 -0.350053 -0.017945 0.104136 0.111236 -0.196518 -0.185269 0.232313 0.004663 0.229136 0.417660 0.101076 -0.466029 -0.094799 0.153158 -0.313398 -0.046099 0.109787 0.100217 -0.071171
NESAG2~a 0.236669 -0.060976 0.095172 0.143314 0.116304 -0.013261 0.254990 -0.337905 -0.123209 0.315493 0.121576 -0.131661 -0.061961 0.053826 -0.173571 0.028335 0.287027 -0.130969 -0.294643 -0.016320 0.393166 0.051015 -0.045483 0.041134 -0.001305 0.010827 -0.222101 0.051114 0.303655 0.042844 -0.076940 -0.183545
SZE3 -0.316226 0.050176 -0.234411 0.278713 -0.210839 0.024966 0.154468 0.241410 -0.100571 0.019743 -0.140701 -0.138506 -0.203877 0.198840 -0.115593 0.132908 0.372248 0.100848 -0.220923 -0.030985 0.007102 0.082317 -0.205907 -0.000932 0.079446 -0.122184 0.043118 0.152250 0.006453 -0.165843 0.181413 -0.348649
ZATU675~d 0.329165 -0.287821 -0.117969 0.122840 0.039792 -0.531942 -0.111228 0.174621 -0.170868 -0.353905 -0.246451 0.146893 -0.075996 -0.128981 -0.138512 0.052833 -0.112203 0.150012 -0.031775 0.110260 0.117385 0.077067 0.009992 0.036839 -0.033341 0.264713 0.054620 0.103213 -0.039631 -0.045410 -0.018771 -0.114033
NIR~a -0.408632 -0.098814 0.251310 0.008410 -0.215810 -0.178234 -0.204526 0.169718 -0.090648 -0.037018 0.248127 -0.183101 0.124874 0.410143 -0.000270 0.032567 -0.131983 -0.193925 0.318702 0.127007 0.169314 0.101887 -0.097486 0.040837 -0.051349 0.091118 -0.020408 -0.136550 0.075278 -0.066318 -0.064030 -0.233207
GA2~a1 0.262306 -0.000506 0.266804 -0.009771 -0.151008 0.047019 0.186124 0.191107 0.263913 -0.189310 -0.201392 -0.392604 -0.338110 -0.116955 0.022237 0.033874 0.133493 0.071540 -0.028809 0.223399 0.119423 -0.015646 -0.001135 -0.067640 -0.281754 0.092803 0.216410 -0.032266 -0.052587 0.132138 -0.019343 -0.291003
LAGAB~a 0.038657 -0.362831 -0.189125 -0.345064 0.271279 0.170432 -0.147504 0.009908 -0.258542 -0.015124 0.087247 0.238575 -0.011923 -0.130557 0.308338 -0.041603 0.122869 -0.090450 0.024047 -0.217799 -0.242274 -0.380756 -0.173496 -0.002952 -0.055592 0.048351 -0.056771 -0.031360 -0.052292 -0.032052 0.032019 -0.149793
ZATU795 -0.156991 0.090519 0.160225 0.060247 0.222076 0.118253 0.005484 -0.018077 -0.368858 0.009590 0.109840 -0.076843 0.350485 0.197633 0.113018 -0.264736 0.179159 -0.146697 -0.279448 0.011096 -0.101079 0.076001 0.216377 -0.253227 0.236376 -0.123360 0.069411 0.022432 0.295545 0.149389 0.114594 -0.131716
DIN -0.181528 0.015131 0.024003 -0.336868 -0.135735 -0.066904 -0.085260 0.089036 -0.214944 -0.075630 0.333878 -0.133161 0.035571 0.063102 -0.117136 0.242921 0.096999 -0.332722 -0.166968 0.109112 -0.376091 -0.013921 -0.204273 0.278836 -0.042253 -0.190554 0.034331 -0.192827 -0.082845 0.080873 -0.011966 -0.211053
SIG2~b -0.009424 -0.079951 -0.016737 -0.045831 -0.051978 -0.498276 -0.170941 -0.090771 -0.020542 -0.335287 -0.055686 -0.106359 -0.210026 -0.033256 0.241478 0.199193 0.036014 0.007789 -0.032653 -0.263441 0.239672 -0.036946 -0.217989 0.255396 -0.149762 -0.067273 -0.072071 0.008008 0.248174 0.077160 -0.121573 -0.272621
|SILA3~axGARA2~a| -0.215389 -0.203677 0.149519 0.398409 0.080133 0.207988 0.188351 -0.003901 -0.072173 -0.001115 0.091477 0.132139 0.125470 -0.183626 0.140116 0.292497 0.020714 0.149163 -0.091201 0.102696 0.065022 0.040088 -0.292140 0.131546 0.185718 0.260404 0.224036 0.110769 0.067569 0.334928 0.054183 -0.160345
DIM~a -0.268444 -0.227558 0.193128 0.411138 -0.184990 -0.240408 0.254447 0.176963 -0.185550 0.097176 -0.167350 -0.078994 0.207882 -0.082267 -0.073301 0.153828 -0.080610 -0.318908 -0.026519 0.035203 -0.003268 -0.163585 0.101593 -0.130981 0.017455 -0.095187 0.156837 0.157576 0.126868 0.179638 0.085930 -0.213717
ZATU675~b -0.306131 -0.044635 0.191051 0.035164 0.289591 -0.171036 0.124343 -0.130216 0.150418 -0.031233 0.121306 0.035181 0.080515 -0.086821 -0.048331 0.065164 -0.091877 0.095071 -0.356290 0.195816 0.509128 0.038903 0.152632 0.024671 -0.178875 0.142770 -0.161097 -0.027339 0.258331 0.125728 -0.155519 -0.087522
GESZTU~c3 0.240177 0.080253 0.267879 0.015880 -0.168956 0.249181 0.065864 0.118962 0.032292 -0.019556 -0.204035 0.386100 -0.017820 0.109991 0.218075 -0.197990 -0.058164 -0.032395 -0.000552 -0.007639 0.384278 -0.056481 -0.019199 -0.125047 -0.157608 0.047119 0.234101 -0.197499 -0.039630 0.190067 0.310067 -0.193320
SZE~a@t 0.034352 0.306185 -0.003877 0.073760 0.179143 0.028781 0.100486 -0.059851 0.235282 0.010244 0.087546 -0.025915 -0.151165 0.178392 -0.064403 0.209595 -0.175419 0.197757 -0.224228 -0.394983 0.071413 -0.018768 -0.086859 0.072096 0.033261 -0.221850 -0.093317 -0.248817 -0.255238 -0.141081 0.398637 -0.164913
GUG2 -0.362812 -0.000423 0.116241 -0.145948 0.226078 -0.062968 0.107357 -0.194951 0.023983 -0.099163 -0.027356 -0.071292 0.049772 0.276992 0.141108 0.361986 0.026900 0.127559 -0.220150 -0.317548 0.001617 -0.195917 -0.112392 -0.005738 0.058583 -0.097489 -0.022686 -0.094149 0.125441 -0.246684 0.281102 -0.295449
UTUA~a -0.178635 0.021697 -0.012794 -0.084769 0.360719 0.333832 -0.007282 -0.042868 -0.234910 0.015792 0.134260 0.016739 -0.024212 -0.298478 0.119466 -0.236112 0.378223 0.097892 -0.186713 -0.022749 -0.077242 -0.257686 -0.092187 -0.084945 0.141886 -0.090719 -0.108293 0.094851 0.218388 0.094775 -0.118703 -0.295690
LU2 0.019626 0.227333 -0.018748 0.170629 -0.254865 0.103259 0.070987 0.312913 0.094719 -0.146895 0.077843 -0.114731 0.029995 -0.186627 -0.111168 0.094298 0.150669 -0.362618 0.171175 0.263234 0.006763 -0.178916 0.108218 -0.087686 -0.325504 -0.159864 0.192018 -0.217615 -0.084919 0.225865 0.136954 -0.190218
ZATU756 0.277822 -0.266050 0.005348 -0.064777 0.031883 0.059585 0.104099 0.211859 0.168974 -0.053410 -0.017778 -0.157103 0.184680 -0.088677 0.072758 0.292504 0.552649 0.164818 -0.098056 0.191106 -0.037741 -0.022928 0.112844 0.140471 -0.080105 -0.085639 -0.283506 0.240179 -0.096373 -0.074336 -0.057089 -0.123576
NUNUZ~b1 0.075695 -0.075932 0.303885 -0.318447 0.068138 0.148844 -0.036362 -0.039870 -0.194193 -0.301460 -0.167415 0.048835 0.240040 -0.191017 -0.435523 0.157819 0.201601 -0.067295 -0.127968 0.083411 -0.207308 -0.083874 -0.348517 -0.047409 0.009010 0.032954 -0.155665 -0.108651 -0.035692 0.018480 0.117729 -0.049382
|GI&GI| 0.081912 -0.214088 -0.138198 0.061123 -0.112767 -0.544808 -0.347853 0.115285 0.052322 -0.131892 -0.191331 -0.023039 0.247977 0.235259 -0.008380 0.114714 -0.197344 0.025722 0.028605 -0.033588 0.095682 0.081054 -0.134837 0.148725 -0.093383 0.092678 -0.160481 -0.053629 0.209042 0.162649 -0.181712 -0.216258
E~a 0.051792 0.222466 -0.352327 0.075986 -0.275290 -0.225522 -0.103004 0.037690 -0.514646 -0.101416 0.131849 -0.064443 0.082290 -0.161894 -0.180403 0.035273 -0.182869 -0.091933 0.229661 -0.210529 0.035811 -0.163310 -0.113448 0.179795 -0.096015 0.047592 -0.151646 0.179346 0.101644 0.054008 -0.057638 -0.143053
ZATU710 0.402221 -0.073459 0.151809 0.065594 -0.211087 -0.100272 0.008952 -0.065587 0.114430 -0.108522 -0.075440 0.071724 0.176903 0.008342 0.135933 0.281261 -0.135906 -0.013710 -0.023625 0.311499 -0.196815 0.082943 0.324457 -0.092126 -0.383997 0.093546 0.097995 -0.038271 -0.033660 0.275576 0.058860 -0.241637
ZATU777 -0.135155 -0.202836 0.462046 0.120704 0.095009 0.091567 -0.137271 0.097099 -0.131588 0.363681 -0.051778 -0.144252 0.037658 0.276377 0.178915 -0.107576 -0.004390 -0.019888 0.135145 -0.048670 -0.169646 -0.143855 0.100021 0.150727 -0.164071 -0.179259 -0.244956 -0.228025 0.227644 0.083780 0.025699 -0.196469
NUNUZ~a2 -0.111062 -0.197310 0.260326 -0.203868 0.013889 -0.057963 -0.318804 0.118141 0.171197 0.229328 0.132005 0.190688 0.179276 0.075611 0.059367 0.362682 -0.263209 -0.120534 -0.159564 -0.172185 -0.158700 -0.165188 0.075948 -0.201605 0.149727 0.006327 -0.253601 0.168411 -0.106030 -0.009575 -0.081689 -0.201761
SZIDIM -0.021652 -0.147213 -0.005091 0.041850 -0.206169 0.154591 0.025905 0.446705 0.032100 -0.085475 0.229914 -0.201049 -0.168818 -0.054285 -0.099238 -0.139439 0.219762 -0.055225 0.035135 -0.179530 0.027400 0.015466 -0.172809 -0.257346 0.062500 0.032911 0.317912 0.139933 0.124808 0.399692 0.206899 -0.146424
TAG~a3 0.077186 0.239651 0.025460 0.097008 0.211050 -0.060409 0.075376 0.189800 -0.150845 0.140937 -0.013909 0.054265 0.065055 0.164894 -0.166113 -0.179706 0.032726 0.189466 0.100300 -0.108714 -0.287929 -0.284925 0.092527 -0.223243 -0.272705 0.479648 -0.108942 -0.214794 -0.065361 -0.208764 -0.064560 -0.061643
|SIxGU4| -0.233922 0.223330 -0.096142 0.016929 -0.157336 0.131366 -0.125151 -0.315854 0.190696 0.080976 -0.284192 0.400901 -0.228427 0.335264 -0.113763 0.103648 0.123989 -0.164065 -0.007952 0.025046 -0.261954 0.042656 0.125982 0.202806 -0.032282 0.081347 0.043128 0.186550 0.016639 0.134263 0.129938 -0.076362
|SILA3~axSZU| -0.197517 0.010363 -0.110371 0.004189 -0.295029 0.079458 0.052054 0.121146 -0.076288 -0.111189 -0.035640 -0.024261 -0.520564 0.101775 0.040363 -0.031975 0.519396 0.274590 -0.005748 0.008624 0.110983 -0.027519 0.095050 -0.189159 0.019942 -0.069418 -0.128583 0.171449 -0.257756 0.023548 0.040098 -0.104808
SZEN~b -0.015892 -0.127893 -0.105690 0.151419 -0.440652 0.068376 0.143308 0.294564 0.045970 -0.214878 -0.023308 -0.138699 -0.421527 -0.206765 0.109543 -0.091613 0.182637 0.101271 0.228530 0.017879 0.107720 -0.318651 -0.015856 -0.134466 -0.116672 -0.052508 -0.044230 0.102950 -0.140790 0.146851 0.075048 -0.175115
UKKIN~b 0.403860 -0.387445 -0.063508 0.058747 -0.255399 -0.028698 0.128370 -0.140094 -0.326194 -0.386536 -0.053801 -0.023282 -0.149921 -0.014152 0.127348 0.252144 0.007125 0.181529 -0.033190 -0.025282 0.173969 0.043478 0.117637 -0.195702 -0.056412 0.037518 0.011051 0.153681 -0.157764 -0.021783 -0.134981 -0.156429
|SILA3~axSZE~a@t| 0.152947 0.170467 0.233792 0.100361 0.016533 -0.006112 -0.017103 0.131857 0.093665 0.116703 0.138335 0.157386 0.020644 -0.093304 0.065398 -0.030468 -0.275934 -0.222691 -0.115080 -0.308400 -0.075512 0.046525 -0.129319 0.002337 0.051949 -0.076294 -0.379538 0.159745 -0.534578 0.204005 -0.004570 -0.141460
SI 0.102398 -0.041511 0.108612 0.095437 0.166843 -0.198836 -0.030385 0.148979 -0.168227 0.135770 0.071118 0.151214 0.054840 0.217437 -0.352252 -0.221616 0.104536 0.275665 0.297524 -0.158176 -0.026228 -0.114736 0.149875 -0.012483 -0.234025 0.440917 -0.151754 -0.164587 -0.089751 -0.099234 -0.054219 -0.145573
GA2~a2 -0.144577 0.093310 -0.278756 0.277178 0.231422 0.022714 0.010719 -0.035439 0.323574 0.202485 0.132145 0.230269 0.086018 0.067366 -0.133881 -0.112055 0.222234 -0.005231 -0.296310 -0.043672 -0.056779 -0.078868 -0.010644 0.095207 -0.447077 -0.259404 0.021703 0.007586 -0.107192 -0.068987 -0.002467 -0.245185
GURUSZDA -0.153886 0.082273 -0.273748 0.116516 0.305323 0.094102 -0.174145 -0.240184 -0.005954 0.102876 -0.052752 0.121242 0.041884 0.426894 0.073354 0.071436 0.131257 -0.197646 -0.127023 0.143475 0.239977 -0.021410 -0.059516 0.251337 0.130732 -0.088377 -0.181004 0.176132 0.240582 0.006123 0.233404 -0.222516
|SZU&SZU| 0.266568 -0.426742 -0.267104 -0.092874 -0.154297 0.029784 0.198018 -0.221642 0.026697 -0.202079 -0.209724 -0.120867 -0.088173 0.207567 -0.067541 0.249933 -0.183585 0.052578 -0.006983 -0.111605 0.107360 0.137596 0.164524 -0.269482 0.086944 0.089255 -0.132436 -0.209535 0.123822 0.200856 -0.110411 -0.108846
TI -0.096030 0.216627 -0.033575 -0.040268 -0.130506 -0.232951 0.197633 0.075713 -0.110062 0.010263 -0.397268 -0.388034 -0.268267 -0.087121 0.082248 -0.122447 -0.113916 0.226537 -0.118092 0.027291 -0.209350 0.068402 0.069489 -0.121796 0.050428 -0.101184 -0.229089 0.181627 -0.255233 0.137258 0.088376 -0.256681
|GISZxSZU2~a| 0.221077 -0.223521 -0.112875 0.017099 0.356539 0.064608 0.406197 -0.147195 0.261868 -0.067176 -0.188811 0.249650 -0.126990 0.023738 -0.168894 0.107516 -0.148816 -0.241034 0.109254 0.151907 -0.072823 -0.117050 -0.092110 0.081833 0.070706 0.005178 0.005586 0.107376 0.083085 0.131220 0.328390 -0.210587
IM~b -0.207064 0.156140 -0.052431 0.167854 -0.097159 0.081513 0.164019 0.235396 -0.323254 -0.029160 -0.437918 0.297604 -0.320042 -0.042427 0.160804 -0.202169 0.106316 0.063388 -0.107858 0.074422 0.261823 0.110715 0.068174 0.006098 0.085903 -0.080699 0.153511 0.130038 -0.160020 -0.063430 0.087753 -0.192609
TU~a 0.007920 -0.065552 -0.076758 0.183819 -0.135817 -0.011661 0.182216 -0.150944 0.149291 -0.009369 0.111013 0.290256 -0.033457 -0.200239 0.033264 0.011967 0.149092 -0.410903 0.386359 -0.379611 0.016597 -0.164098 -0.198520 0.093898 -0.102982 0.040066 -0.123077 0.149824 0.166514 0.216902 0.018213 -0.187586
MAH~a -0.004935 0.084639 -0.112624 0.165755 -0.035471 0.173727 0.009050 0.165314 -0.450184 0.042965 0.087548 0.037446 0.059467 -0.049823 0.071257 0.063794 -0.175933 -0.246777 -0.130913 0.273368 0.040591 0.256965 0.328641 0.238073 -0.390606 -0.075219 0.091233 -0.195033 -0.006223 -0.027918 0.147769 -0.147412
MUD3~a 0.291561 -0.293333 -0.049788 0.052600 0.315990 -0.023957 0.291768 -0.193838 0.076585 -0.173664 -0.193879 0.250892 0.004380 -0.177910 -0.300320 0.185002 -0.066861 -0.289614 0.082207 0.119750 -0.135923 -0.131352 -0.282493 0.070045 0.014098 -0.058522 0.003614 -0.224317 0.078641 0.110284 -0.019203 -0.073316
TAK4~a -0.050464 0.202134 0.400398 -0.029466 -0.186104 0.084148 0.038548 0.132879 -0.079191 0.038585 -0.191185 -0.267424 -0.111850 0.070708 0.057940 -0.041717 -0.327609 0.233683 0.040259 -0.092091 0.244275 0.060985 -0.161930 0.144151 0.010117 -0.184971 0.089296 -0.167413 0.014008 -0.368664 0.220076 -0.242546
ZATU703 0.355254 -0.172419 0.245577 0.116903 -0.105840 -0.352193 -0.038346 0.008943 0.142639 0.357481 -0.287500 -0.034807 -0.042890 -0.091020 0.064633 0.254165 -0.137992 0.082330 -0.208213 -0.002924 0.063466 -0.123739 0.177453 -0.123970 -0.143287 -0.047343 0.015091 -0.190795 0.203426 0.202197 0.156386 -0.144523
|MAxMA| 0.523917 0.089776 0.137406 0.059979 0.045727 0.060255 0.198613 -0.233302 -0.383095 -0.089385 0.010124 -0.025356 0.101292 -0.084203 0.172158 -0.057869 0.022109 0.168700 -0.119677 0.211088 -0.289776 0.005595 -0.105582 0.123321 -0.133031 -0.129304 -0.110854 0.245973 0.262594 0.022853 -0.004856 -0.121020
KASZ~d 0.151019 -0.044681 0.087002 0.302631 -0.252309 0.091157 0.100067 0.123470 -0.035358 0.185655 0.276072 0.262687 -0.073009 -0.055006 0.062603 -0.022512 0.113408 0.305787 -0.075146 0.052444 -0.092944 0.195677 -0.351537 -0.015558 0.156662 0.205738 0.329254 0.028113 0.117802 0.226280 0.221848 -0.095997
|SILA3~axKASZ~d| -0.066690 0.174286 -0.002194 0.177999 0.186794 -0.115282 0.174163 -0.050772 0.092249 0.027620 0.109369 -0.054621 -0.130886 0.196959 -0.121835 0.346990 -0.091054 0.208173 -0.255971 -0.398841 -0.067215 -0.226583 -0.096274 0.145083 -0.029028 -0.301491 0.244136 -0.287971 -0.033941 -0.167479 0.085668 -0.061654
|SILA3~axHASZHUR| -0.124087 0.131970 -0.089545 -0.155696 0.109442 0.230431 -0.179375 -0.070637 -0.220050 -0.150431 0.499469 -0.216456 0.099247 0.138626 0.165495 -0.098796 0.272717 0.074192 0.047375 -0.267790 0.162663 0.125660 0.092789 -0.323040 0.154419 0.098646 0.051763 0.148942 0.143404 0.080871 -0.059948 -0.030147
|DUG~cxNAGAR~a -0.031813 0.341346 -0.021934 -0.226978 -0.152997 -0.134756 -0.207966 0.373541 0.196144 -0.022035 -0.418600 0.249606 -0.068709 0.097561 -0.041804 -0.034128 -0.037557 -0.167399 0.145676 0.148831 0.269197 -0.263887 -0.043538 -0.072112 -0.070721 -0.055608 0.141009 0.086075 -0.156365 0.112910 0.062995 -0.118002
SZA@g -0.269133 -0.164341 0.313032 -0.157806 0.177425 0.048793 0.063669 -0.232811 -0.333772 0.071739 -0.377640 -0.174893 0.088410 0.252411 0.168332 -0.192286 0.088838 -0.073502 -0.114019 -0.154404 0.006717 -0.202435 -0.106788 0.222048 0.111757 -0.242145 0.024893 -0.088048 0.073385 -0.012831 0.079841 -0.125200
|(SZAxHI@g~a)~a| -0.012439 -0.097963 0.055714 -0.347972 0.351442 0.055822 0.496990 0.007449 -0.054317 -0.147990 -0.001600 0.090953 0.074091 0.188125 0.014413 -0.126614 -0.100038 -0.041267 0.047246 0.126539 -0.086426 -0.491033 -0.030146 0.116143 0.087823 -0.167659 0.075253 0.042872 -0.070384 0.150606 0.162581 -0.108646
GA'AR~a2 -0.086514 0.137579 -0.065113 -0.387916 0.018364 -0.097583 -0.373396 0.272014 0.167272 -0.048517 -0.020588 -0.203271 0.021676 -0.030722 0.080367 0.114972 -0.161971 -0.138445 0.089015 0.218789 -0.108408 -0.021189 0.209204 0.443490 0.152739 0.099708 -0.008900 0.138927 -0.126729 0.151978 -0.171263 -0.165651
URUDU~a -0.148479 0.282039 -0.093116 -0.106585 -0.158442 -0.281057 -0.026647 -0.346986 -0.152002 -0.064648 -0.156092 -0.032335 -0.200303 -0.097375 -0.463770 -0.034433 -0.104738 0.140145 -0.294829 -0.041521 -0.158631 -0.210221 -0.171537 0.024977 -0.064856 -0.201788 -0.080390 0.084996 0.054536 -0.144015 -0.027161 -0.181319
|SAR~axSZE~a| 0.170094 -0.126334 -0.366374 0.269037 -0.011745 0.014669 0.025184 -0.255660 -0.132433 0.138201 -0.215462 -0.058914 0.078163 -0.261031 -0.110564 -0.254464 -0.061112 -0.276641 0.043368 -0.054451 0.234578 0.097213 -0.151393 0.187089 0.004843 -0.042155 0.076989 0.177459 -0.039354 -0.196266 0.342474 -0.200761
HAL -0.235708 0.234476 -0.385935 0.462355 -0.089965 -0.030851 0.001945 0.140690 0.298181 -0.079768 -0.149531 0.062364 0.184423 0.007984 -0.118123 0.065772 0.233139 0.179440 -0.040344 0.174956 -0.059497 -0.099731 0.153055 -0.159157 -0.142731 -0.022611 -0.036635 0.093910 -0.240915 0.057621 -0.060003 -0.216764
|(U8xTAR)~b| -0.353054 0.007693 -0.157333 0.061075 -0.306333 0.053596 -0.314819 -0.259145 0.221056 -0.016281 -0.063228 0.177226 -0.242633 -0.164584 -0.074628 -0.059006 0.412435 -0.033591 -0.002648 -0.074753 0.024814 -0.090381 0.121578 0.231445 -0.023543 -0.187111 0.100110 0.022555 -0.186227 -0.149919 -0.158837 -0.147795
NA2~a 0.184966 -0.153861 -0.460802 0.071588 0.140186 0.001972 -0.301797 -0.121199 0.007750 -0.035250 0.091041 0.032422 -0.009438 -0.152394 -0.131176 -0.045510 -0.451986 -0.203648 -0.121822 0.078140 0.249709 0.074048 -0.042111 0.091416 0.219660 0.222597 -0.088156 0.119763 0.153844 -0.058397 -0.025182 -0.231702
TUG2~a 0.282368 0.035113 0.285925 0.125387 0.006735 -0.449228 0.062894 -0.235683 0.310757 -0.164714 -0.075742 -0.138669 -0.063967 -0.177360 0.283632 -0.075444 0.351054 0.162795 -0.113442 0.015454 0.028333 0.006578 0.004066 -0.089565 -0.068882 0.029436 -0.037343 0.098512 0.109787 -0.176284 -0.178284 -0.162771
BUR2 -0.133312 0.065766 -0.123549 0.339465 -0.209912 -0.005185 -0.000147 0.121991 0.011286 -0.279221 0.139596 -0.336821 -0.123923 0.044706 -0.049395 0.186564 0.324652 0.018140 -0.026413 0.103307 0.048089 -0.022780 -0.028852 -0.064830 -0.118095 0.168059 -0.343861 0.044590 -0.034682 -0.255742 0.293933 -0.287079
ZATU778 0.125307 -0.182307 0.120425 -0.268368 -0.174241 -0.156838 -0.124252 -0.381348 0.226579 0.166029 -0.208819 -0.202468 0.266362 -0.096365 -0.346936 -0.000430 -0.228066 0.081156 -0.208191 -0.212810 -0.079521 -0.142559 0.063919 0.175271 0.041584 -0.016708 0.137884 -0.088569 0.111838 0.082094 -0.134181 -0.099065
SUG5 0.032325 -0.152778 0.188287 0.063359 -0.019114 -0.169493 0.187484 0.400260 0.100408 -0.134112 0.196268 -0.175756 0.088972 -0.087228 -0.023901 -0.167337 0.431062 -0.089648 0.044549 -0.283328 0.157565 0.039631 0.108616 -0.267925 0.046902 -0.096050 0.137895 0.227637 0.166123 0.143553 0.057167 -0.224273
KAL~b2 -0.016932 0.204497 0.182636 0.154284 -0.027069 0.029939 -0.212669 -0.184410 0.042353 0.118178 -0.222584 0.462906 -0.136811 0.326174 0.062171 0.225302 0.082083 -0.321141 0.013603 -0.006774 -0.131619 0.068749 0.095999 0.086343 0.028533 -0.021551 -0.044579 0.345922 0.017063 0.189285 0.106683 -0.203228
GARA2~a -0.242443 -0.317364 -0.149409 0.180173 -0.038885 -0.290403 -0.192184 0.238560 0.058129 -0.331190 -0.169553 0.095199 -0.162557 -0.310676 0.155415 0.011384 -0.110977 -0.148777 0.140799 -0.073029 0.130408 -0.327933 -0.156709 0.008034 0.035552 0.006666 0.097281 0.062689 -0.008257 0.235680 0.002143 -0.169775
SZEN~e 0.049667 0.015710 0.041245 0.134926 -0.200265 0.110226 -0.020074 0.025543 -0.028183 0.245579 0.373469 0.112054 -0.145952 -0.030968 0.003989 0.123814 0.104569 0.335119 -0.037286 0.134988 -0.233589 0.209048 -0.389890 0.077441 0.156416 0.252994 0.277144 0.045729 0.081130 0.280312 0.136049 -0.056196
|SILA3~axNI~a| 0.182729 0.145391 0.033909 -0.121320 0.029995 -0.458059 -0.012972 0.193671 0.163178 0.111035 -0.009550 0.076510 0.474611 -0.021681 0.255556 0.091657 -0.108654 0.198764 -0.171848 0.286074 0.225090 -0.167442 -0.084839 -0.122842 -0.118993 -0.003458 0.004087 0.107127 0.100171 0.089666 0.067447 -0.157835
ABGAL 0.166740 -0.160265 0.063578 0.058511 -0.231577 0.022780 -0.399982 0.040021 -0.119198 0.022745 0.215329 -0.035235 -0.255514 0.339519 0.071747 0.351631 -0.245233 0.051170 0.171595 0.204621 -0.167015 0.051487 -0.024953 0.008729 0.024034 0.329503 0.144581 -0.020571 0.078285 0.027407 -0.041941 -0.217247
|U4xGU4 0.186115 0.005631 -0.323832 -0.035411 0.462649 0.230688 0.291687 0.056619 0.001765 -0.169139 -0.053962 0.221562 0.181577 -0.125206 0.141690 0.132144 -0.087351 0.055472 0.021229 0.080648 0.057652 -0.369242 -0.211182 0.094009 0.132156 -0.088370 0.039631 0.154348 -0.172272 0.163933 0.020055 -0.135936
UTUL~a 0.338224 0.035361 -0.020601 -0.091369 0.008067 -0.194419 0.054834 0.147566 -0.046915 0.299419 -0.068539 -0.126704 0.051207 -0.003706 0.377507 0.006052 0.026466 0.036998 -0.340168 -0.093965 0.024353 0.148473 -0.148497 -0.082959 0.122533 -0.165729 -0.463350 0.025294 -0.228433 0.180060 -0.058426 -0.176446
BAN~a 0.199612 0.017742 -0.235748 -0.024693 0.114580 -0.117567 0.112289 0.045844 -0.100765 -0.061419 0.191962 0.005988 0.035663 -0.279690 -0.108773 0.082314 0.023548 0.003620 -0.206605 0.281829 0.137660 0.271887 0.392756 0.208325 -0.187171 0.054316 -0.164429 -0.171053 0.188908 -0.110954 0.347792 -0.191388
|SILA3~axHI| -0.010711 0.032615 0.063629 0.078619 -0.021113 -0.123820 0.053921 0.050161 0.011763 -0.001918 0.143963 0.049535 -0.048021 0.092133 0.187677 -0.213939 -0.052352 0.018187 -0.227600 -0.258315 -0.211311 0.209190 -0.059605 -0.142900 -0.013691 -0.120145 -0.442549 0.043851 -0.614428 0.080157 0.075298 -0.127618
ZATU629 -0.215638 0.200553 0.173575 0.074196 -0.235003 -0.233767 0.394733 -0.317304 -0.333214 -0.117362 -0.125562 -0.202691 -0.009561 0.041861 -0.309779 -0.155012 0.063812 0.000562 -0.007551 -0.024077 0.019171 0.052090 0.109095 -0.162543 -0.130619 0.246178 -0.111350 0.082402 0.036966 -0.150492 -0.079828 -0.185562
ZI~a -0.109321 -0.388086 0.357560 0.017041 0.004580 -0.051065 0.061249 -0.033839 -0.108676 0.095977 0.165346 0.219794 0.193292 -0.240566 0.300958 0.084323 0.085262 -0.059051 0.355866 -0.175015 -0.027811 -0.024173 0.161665 -0.170073 0.204423 -0.145259 -0.053229 0.007902 -0.069211 0.117509 0.158356 -0.279782
SUMASZ -0.046221 0.275871 -0.013279 0.049331 -0.116726 0.196467 -0.056009 -0.116994 -0.200888 -0.080923 0.071861 -0.033208 0.059330 0.020216 -0.280002 -0.473973 -0.256408 0.211825 -0.372772 0.131364 -0.051200 0.064371 0.214065 0.224090 0.072238 -0.011607 0.075934 0.216103 0.129466 -0.001304 -0.201200 -0.072452
|ZATU759xKU6~a| -0.412273 0.203397 -0.048311 -0.252376 -0.240718 0.003893 0.137117 0.097644 0.064100 -0.050683 0.021528 -0.109982 -0.428204 0.038334 0.044637 0.101349 0.393279 0.196404 0.063369 0.018025 0.303293 -0.032972 0.033985 -0.216180 -0.024075 0.057213 -0.083797 0.101635 -0.179880 0.101759 -0.041103 -0.125917
GIR3~a -0.095742 0.223032 -0.021122 0.135303 -0.129081 0.313736 -0.050061 -0.239049 0.254839 -0.018745 -0.297707 0.236528 -0.264025 0.294473 -0.205869 0.202750 0.049438 -0.266955 0.009531 -0.040129 -0.165285 -0.014982 0.114819 0.233742 -0.046382 0.163059 0.112308 0.225518 -0.014711 0.146474 0.025672 -0.111797
ZATU717 0.433812 0.123223 0.441831 0.238486 0.103353 -0.244865 0.007369 -0.180690 -0.078039 -0.095881 -0.090277 -0.045194 0.236054 -0.083191 0.010792 -0.085111 0.204283 0.342247 0.072029 0.018805 -0.182168 -0.032496 0.193014 0.017396 -0.068972 0.275102 -0.000762 0.088312 0.039627 0.029143 -0.100849 -0.093154
NU -0.102162 0.109844 0.105376 0.256013 -0.138034 0.365029 -0.085917 0.065500 -0.188321 0.007974 -0.120185 0.289387 0.278046 0.092431 -0.048058 -0.133747 -0.055929 -0.231386 -0.121583 0.168235 0.126165 0.191607 0.386175 0.051329 -0.018838 -0.043704 0.028061 -0.070413 0.092651 -0.047000 0.370943 -0.191204
SUKKAL -0.137805 -0.303575 0.290843 -0.114667 -0.072577 0.336126 -0.046846 -0.097072 -0.057908 0.068950 0.198328 -0.120793 -0.012382 -0.312322 -0.190856 0.086698 0.104721 -0.268987 0.139248 -0.107700 -0.006422 -0.074239 -0.279975 -0.295551 0.119109 0.183763 0.029593 0.010041 -0.075668 0.079226 0.108771 -0.314978
BU~b -0.115963 -0.099238 -0.177890 0.168025 0.182985 -0.065126 0.252198 0.001136 -0.066930 0.078674 0.068067 0.084435 0.007280 0.151924 0.226031 0.147727 -0.015290 0.269137 -0.088249 -0.378928 -0.196660 -0.222283 -0.147948 0.098815 -0.067576 -0.231382 0.297499 -0.322715 -0.017747 -0.268915 -0.019197 -0.171711
|(UDU~axTAR)~b| -0.264808 -0.123171 0.233869 0.024983 -0.211234 -0.016741 -0.094619 0.013525 -0.429921 -0.294651 0.189234 -0.167778 -0.082423 0.259040 0.180542 0.019203 -0.339706 -0.008203 0.079896 0.159364 0.119727 -0.066257 -0.043505 0.246969 -0.095814 -0.085880 -0.169412 -0.073659 0.210698 0.037926 -0.039014 -0.189703
TUM~c -0.016098 -0.033697 0.209622 -0.345292 0.104628 -0.061428 0.062453 -0.014540 -0.267360 -0.075287 0.223076 0.004647 -0.015922 -0.188793 0.134446 -0.044681 0.161316 -0.023685 -0.080746 0.184838 -0.006259 0.018161 0.463243 0.188549 -0.407856 -0.200174 0.168790 -0.203528 -0.022185 0.112696 0.105962 -0.123162
|BU~a+DU6~a| -0.021622 -0.057946 -0.056855 0.237200 -0.053788 -0.020869 0.257797 0.034621 0.371849 -0.106805 -0.072929 -0.089808 0.145186 -0.194640 -0.168698 0.311567 -0.185779 -0.088727 0.360519 0.160953 -0.016949 -0.338608 0.051880 -0.175423 0.087071 -0.126612 0.019449 0.139094 0.014564 0.204646 0.242976 -0.164292
ZATU751~b -0.290256 0.094775 0.068517 -0.063220 -0.102859 0.118151 -0.104246 -0.442506 0.177802 0.123054 -0.177218 0.367497 -0.208817 0.247083 0.030185 0.164397 0.038541 -0.154851 0.012051 0.069759 -0.231214 0.123265 0.223506 0.229490 -0.005675 0.166491 0.088468 0.185186 0.010704 0.166131 0.068117 -0.130669
GAN~c 0.469088 0.127070 -0.126313 -0.316426 0.025292 -0.210384 0.476612 0.004282 -0.019277 -0.017810 -0.325055 -0.102290 0.024232 0.042555 -0.083427 0.110618 -0.135201 0.264492 -0.147969 0.126487 0.113113 0.005426 -0.072205 -0.024791 0.035999 0.049531 0.217249 0.069341 -0.004475 0.071522 0.043162 -0.172362
|SILA3~axSZU2| -0.019322 -0.048606 -0.183407 -0.028972 0.100313 -0.020052 -0.010330 0.002433 0.204443 -0.047696 0.058696 -0.127108 0.008355 -0.095773 -0.047957 0.083947 -0.091973 0.036484 0.101240 0.038622 0.124473 0.212693 0.097712 0.106520 0.274016 0.127992 -0.246554 0.011295 0.112351 -0.396899 0.657749 -0.107800
URI3~a -0.082440 -0.225591 0.142013 0.149449 -0.324724 -0.066582 -0.084040 0.337904 0.091695 0.101749 0.262701 -0.122974 0.031895 -0.215181 -0.074086 0.149930 -0.178624 -0.340105 0.197400 0.073933 -0.090287 -0.119122 -0.163698 -0.033041 -0.138991 -0.056540 0.112561 -0.038588 0.023407 0.304091 0.222003 -0.263222
LA2 -0.075464 -0.291811 0.021942 -0.267814 -0.398119 -0.049801 -0.048682 -0.305586 0.238502 0.154329 -0.022807 -0.188071 0.166152 -0.037011 -0.252832 -0.295633 0.043266 -0.031889 -0.022437 -0.262322 -0.038851 -0.161146 -0.211247 0.151816 -0.070214 -0.182170 0.152286 -0.140220 0.036116 -0.115035 0.016923 -0.142039
LAM~b 0.001355 0.069911 0.293380 0.277287 0.004689 -0.130293 0.127014 -0.008503 -0.186636 -0.055454 -0.099127 0.224585 0.278038 -0.000313 -0.059998 0.142480 0.096270 -0.071946 0.006155 0.263721 0.014435 0.054324 -0.273862 -0.121073 0.162004 0.089715 0.072095 0.021154 0.114574 0.249011 0.469321 -0.295610
DUB~a 0.255745 -0.001951 -0.020959 0.218027 -0.178362 -0.047841 -0.033507 -0.009994 0.026115 0.110803 0.036328 -0.041224 0.093996 -0.275275 0.273423 0.067024 -0.106471 0.067920 0.032123 -0.223983 -0.121157 -0.042459 0.125630 -0.007643 -0.150192 -0.170461 -0.414484 0.120189 -0.320859 0.364434 0.158106 -0.270848
GASZU -0.508249 -0.060794 -0.116196 -0.080832 0.139854 0.110737 0.255553 0.046869 0.073137 0.176184 -0.075099 -0.099446 0.093006 -0.374040 0.006742 0.315181 0.018177 0.223487 -0.108964 -0.059258 0.390432 0.035473 -0.021804 0.068278 0.012183 0.212243 -0.075520 0.025221 0.025332 0.091622 -0.178865 -0.041324
ZATU651@g 0.025575 0.458220 0.138974 -0.040724 0.083092 -0.139218 0.280378 -0.199477 -0.192084 0.024823 0.056198 0.041633 0.153011 -0.391703 0.149892 -0.053335 -0.069522 -0.193538 0.221994 -0.168749 0.317571 -0.063130 -0.231551 0.164374 -0.027785 0.105712 0.010409 0.095036 -0.015625 0.188001 -0.014418 -0.129448
UH3~a -0.309574 0.194029 0.369237 0.160294 -0.193234 -0.108499 0.108389 -0.319267 -0.413217 -0.062165 -0.102935 -0.033084 0.120578 0.009165 0.012986 -0.308418 -0.035576 0.085030 -0.201960 0.120599 -0.080028 0.049150 0.192608 -0.007656 0.111038 -0.133675 -0.000443 0.195516 0.213156 -0.000367 0.040201 -0.142122
ANSZE~e -0.085846 -0.190551 -0.284190 0.160717 -0.178876 0.032158 -0.115384 0.158219 0.078018 0.024630 0.127705 -0.413690 0.007558 0.002451 -0.298895 -0.276591 0.305334 -0.267876 -0.109874 -0.174982 -0.032844 -0.090196 -0.001381 -0.279003 -0.096311 -0.130223 0.153755 0.183284 0.028388 0.103894 0.096016 -0.138860
KALAM~b -0.191266 0.091162 -0.245673 -0.180009 0.073079 0.087564 0.002011 0.075126 -0.053252 -0.263813 0.047237 -0.030026 -0.165774 -0.123592 0.051391 0.013883 0.078834 0.237717 0.204813 -0.089482 0.150899 -0.166680 0.147811 -0.537571 0.149119 -0.118621 0.174077 0.142262 -0.026614 0.326686 0.131320 -0.192218
RAD~a@g -0.160107 0.021502 0.245914 0.071998 -0.065548 -0.100962 -0.093255 -0.140257 -0.462695 -0.117772 0.007079 -0.164018 0.158865 0.118770 0.092400 -0.174309 0.158992 0.126796 -0.184120 -0.116630 -0.052388 -0.033158 0.285471 -0.327474 0.126742 -0.236607 0.077245 0.189436 0.247427 0.162034 0.150978 -0.163123
ZABALAM~a 0.285965 -0.201679 -0.288261 -0.264196 0.083680 0.050903 0.351115 0.214977 -0.229769 0.274832 -0.200742 0.126127 0.068572 0.047648 0.274622 -0.051450 -0.102597 -0.159267 -0.077158 0.100053 -0.002252 -0.050044 0.002115 -0.028826 0.202592 -0.053572 0.052337 -0.281629 0.060501 0.212035 0.056822 -0.207318
MUD -0.131750 -0.056720 -0.106706 0.009831 -0.269681 0.369770 -0.067974 -0.155755 0.167356 0.233687 0.306646 0.002888 -0.168290 0.111947 -0.116402 -0.010137 0.109715 0.180173 0.215898 0.038797 -0.000310 0.083469 -0.245179 0.025531 0.064890 0.220727 0.158752 0.063298 0.141437 0.141489 0.374522 -0.275067
UDUNITA~a -0.208381 0.300282 -0.077626 0.166386 0.059446 -0.336702 0.065871 -0.180509 0.149905 0.137590 -0.004568 0.290512 -0.173683 -0.013586 -0.143232 0.136864 0.180894 -0.017931 0.136607 -0.110708 -0.031918 0.278796 -0.196246 0.000725 0.064841 0.080330 -0.042465 0.127942 0.344290 0.226408 -0.204646 -0.248453
GESZTIN~a -0.068448 0.038076 0.187808 -0.236741 0.043059 0.133209 -0.085583 0.075626 -0.068080 -0.273755 -0.170541 -0.015445 0.352412 -0.113258 -0.422994 0.056040 0.393994 -0.137324 -0.208929 0.097742 -0.193240 -0.189301 -0.260275 -0.118354 -0.049995 0.067832 -0.131317 -0.045043 -0.058099 -0.059747 0.124305 -0.104528
KAR2~a 0.051445 -0.292753 -0.130946 0.005019 0.033509 0.172301 0.252895 0.008327 0.027160 0.144401 0.276200 0.234112 -0.241419 -0.102938 0.113600 0.047979 0.036416 0.352113 0.047648 0.063088 -0.227902 0.042030 -0.295978 -0.036334 0.072921 0.281190 0.296286 0.014703 -0.021677 0.250397 0.158511 -0.167336
KASKAL 0.169293 -0.197601 0.491455 0.196832 0.072022 -0.073068 0.407096 -0.161312 -0.143827 0.089053 -0.113278 -0.028468 0.139798 0.077621 0.110575 0.008820 -0.141704 0.036877 -0.212278 -0.089023 0.143014 0.231848 0.125309 -0.098877 0.091662 0.003171 -0.209445 0.042034 0.004274 0.285244 -0.032171 -0.242982
AK~a -0.000844 -0.104770 0.075915 0.082513 -0.473725 -0.124873 -0.057362 0.145661 0.180716 -0.157332 0.253618 -0.258762 0.063123 -0.048487 -0.123031 -0.004789 -0.246428 -0.235840 0.304244 0.058050 -0.140402 -0.181759 -0.188754 -0.083751 -0.227984 -0.228125 -0.007609 0.000321 0.241807 0.052517 -0.019527 -0.168491
ALAN~a -0.345667 0.050616 -0.293128 0.122704 -0.191523 0.122621 -0.210682 -0.101911 -0.063513 -0.000650 -0.383269 0.444464 -0.201879 0.216760 0.053299 -0.019402 -0.039917 -0.195102 -0.076876 -0.047795 -0.060515 0.099040 0.095700 0.270468 -0.017159 0.025744 0.082658 0.191829 -0.014459 0.057823 0.115915 -0.160733
|U4xGI 0.143039 -0.028758 -0.122970 0.335069 0.227293 -0.274677 0.148955 -0.105881 -0.148365 -0.232396 -0.144733 -0.072125 0.261216 0.125997 0.017489 0.119794 -0.269246 -0.293184 -0.126079 0.144313 0.274153 0.152010 -0.131074 -0.182275 -0.000351 0.180901 0.005060 0.086710 0.017823 0.288400 0.066432 -0.133635
KID~b -0.331540 -0.203473 0.243184 -0.238546 0.074769 -0.046349 -0.112878 0.246854 0.061077 0.486561 0.108368 0.125015 0.199872 0.059901 0.026839 0.046709 -0.105784 0.099575 -0.244681 0.024643 -0.004562 -0.249220 -0.009156 -0.043229 -0.064093 0.158407 -0.165614 0.053992 0.049511 0.055900 -0.221525 -0.277629
KAK~a 0.064989 -0.324240 -0.048494 -0.062099 0.290454 0.236028 0.238346 -0.213244 -0.064329 -0.308710 -0.081288 0.242104 0.249570 -0.265185 -0.172661 0.127667 -0.041806 -0.150089 0.023196 0.095781 -0.161841 -0.187162 -0.325584 0.003108 -0.034888 0.241699 -0.031066 -0.072681 -0.081771 0.044881 -0.019437 -0.150056
LAM~a 0.384010 0.195203 0.102220 -0.140337 -0.290535 -0.248735 -0.272331 0.183014 0.262527 -0.225553 -0.034520 0.062253 0.240294 0.050938 0.194718 0.090346 0.017246 -0.169813 -0.089001 0.142441 -0.265951 -0.134659 -0.071214 -0.165670 -0.248008 -0.010915 -0.002272 -0.112510 0.159033 0.064251 0.060591 -0.113874
TU... -0.143428 -0.161004 0.450053 0.103651 0.272086 -0.094603 -0.187226 -0.022087 0.021708 0.358272 -0.092310 -0.006052 -0.108198 0.077658 0.303952 -0.101044 0.207967 -0.021966 0.200366 0.004029 -0.150396 -0.160790 0.256124 0.051903 -0.014025 -0.138413 -0.156443 -0.215948 0.091838 0.216090 0.020332 -0.131543
AL 0.100935 -0.313078 0.023321 -0.304493 0.242730 -0.005939 -0.018345 0.025031 0.420723 -0.176613 0.008735 -0.083964 0.213211 0.096363 0.020823 0.188936 0.256848 0.103789 0.114610 0.037474 0.061904 -0.111049 0.059285 0.088346 -0.009638 0.228156 -0.049543 0.122577 -0.020382 -0.017494 0.305914 -0.386935
IN~b -0.153539 -0.020918 -0.037706 0.006000 0.145961 0.210051 0.083389 -0.140548 0.057241 0.095614 -0.068569 0.025566 0.340468 0.119542 0.209394 -0.146861 0.048351 0.245137 0.448509 0.228411 0.065189 -0.454907 -0.013626 -0.110102 -0.061245 -0.010164 0.015114 -0.141556 -0.155155 0.087685 0.072546 -0.261906
SZUM -0.136120 -0.087756 0.217460 0.086943 0.504378 0.054267 -0.271086 0.010410 -0.128141 0.140499 0.067153 -0.035815 0.178097 0.421281 0.103298 -0.169252 0.101882 -0.125032 -0.116851 0.012689 0.219487 -0.015455 0.077952 -0.124972 0.075057 -0.090517 -0.064861 0.014454 0.216950 0.304371 0.091709 -0.145673
BALAG 0.224075 0.190904 -0.261981 -0.345153 0.045247 0.379208 -0.307771 0.037892 -0.246318 -0.052297 -0.275051 0.125627 -0.065372 0.046389 -0.077613 -0.134057 -0.088527 -0.086237 0.184624 -0.016132 0.162328 -0.144571 -0.261131 0.031716 -0.269918 -0.018371 0.046795 -0.049738 -0.051770 0.130141 0.144390 -0.118002
DARA4~a1 0.445402 -0.034070 0.276656 -0.174948 -0.125153 -0.074669 -0.071183 -0.204212 -0.096557 0.296341 -0.078421 -0.113391 0.202479 0.161827 -0.141236 0.106662 0.062586 -0.058207 -0.333900 -0.026972 -0.104089 -0.060397 0.045485 0.059326 -0.174148 0.002384 -0.133407 -0.343768 0.104850 0.199708 -0.013355 -0.231708
KALAM~a 0.201691 -0.055464 -0.028121 -0.157854 0.305759 0.123688 -0.317888 0.198452 -0.097196 -0.080917 0.125419 -0.045537 0.120738 0.130832 0.039550 -0.080553 -0.043894 0.093466 -0.082219 -0.292899 -0.070492 -0.121971 0.181906 -0.470271 0.142735 -0.108933 0.133180 0.133421 0.038709 0.331478 0.163815 -0.156442
UMBIN~a 0.032961 0.159386 -0.346336 0.152350 0.380743 0.299930 0.114454 0.004465 0.171922 0.176087 -0.040592 -0.160232 -0.022224 -0.155618 -0.096508 -0.016904 0.058592 -0.067382 -0.181562 0.152861 0.165626 0.021962 -0.143333 0.036415 0.129293 0.060266 -0.353160 0.002593 0.284536 -0.228893 0.184156 -0.183517
