? 32
SANGA~A 0.309704 0.109531 0.149137 0.063517 -0.044505 0.104389 0.070279 -0.222792 -0.064944 -0.023708 0.403101 -0.054937 -0.088534 0.009733 0.200012 -0.077261 0.296706 0.013411 0.153137 0.084510 0.265209 0.228203 -0.144745 0.077271 -0.136916 0.341678 -0.127900 0.139775 0.063271 -0.085232 -0.313355 -0.158669
SUHUR -0.299818 0.044303 0.009444 -0.067053 0.281223 -0.006951 -0.125289 -0.014298 -0.017040 0.112289 -0.132104 -0.212269 0.056665 0.116879 0.034024 -0.154374 -0.209299 -0.104279 -0.200694 -0.190066 0.431709 0.129722 -0.034841 0.004712 0.091475 -0.019432 -0.084586 0.165030 0.251475 0.035041 -0.412813 -0.278782
AB~A 0.211830 -0.147060 -0.185442 -0.146248 -0.051845 0.130251 0.440410 -0.313093 0.000273 0.074765 -0.075657 -0.211678 0.056444 0.103060 0.032588 -0.227647 -0.061268 0.208584 -0.031940 0.031767 0.291134 0.162231 0.130812 -0.018340 0.209278 0.340531 -0.067489 -0.118444 -0.062729 0.150124 -0.193205 -0.152676
APIN~A -0.147364 0.094193 0.114923 0.025311 0.165054 0.007066 0.057696 0.223227 0.031606 -0.298288 0.254523 -0.140342 0.175012 0.029226 0.368005 0.043011 -0.014636 -0.246797 -0.180603 0.160725 0.173663 0.125860 -0.342551 -0.049272 -0.097106 0.163826 0.028015 0.073301 0.213615 0.177027 -0.074761 -0.348669
NUN~A 0.181078 -0.015084 0.162971 -0.127133 0.015460 -0.039884 0.263427 -0.102508 0.235538 -0.302969 0.062256 -0.194797 0.061430 -0.266298 -0.085471 0.122706 -0.292340 -0.292053 -0.005056 -0.098348 0.196291 -0.000481 0.051955 0.261271 -0.123429 0.212102 -0.053880 0.108738 0.264256 0.004255 -0.172396 -0.303188
DU 0.045704 -0.228223 -0.306145 -0.153052 -0.124131 0.214845 -0.255980 -0.157873 0.049832 -0.173745 0.167429 -0.009801 0.077588 -0.153784 0.184866 0.289567 -0.065441 -0.076412 0.404349 0.068006 -0.094099 0.045964 0.053715 0.304387 -0.101318 -0.004747 0.127088 -0.201957 -0.170426 0.018153 0.021517 -0.293862
N -0.193732 -0.360744 -0.065601 -0.227558 0.187861 0.220353 -0.089535 -0.289728 -0.127707 -0.016554 -0.276818 0.037329 -0.054302 -0.142116 0.080819 0.220097 0.289029 -0.163222 -0.104121 0.131667 0.051871 0.018157 0.083549 0.208933 -0.249901 -0.025076 -0.122892 -0.079022 0.007243 -0.242339 -0.301860 -0.037113
KA~A -0.048661 -0.244984 0.055107 -0.063711 -0.140781 -0.173713 -0.101037 -0.225259 -0.070048 0.004825 0.160251 0.006451 -0.131831 0.013810 0.402241 -0.229656 0.004636 0.066386 -0.089645 0.235870 -0.310398 -0.014381 0.197091 -0.079641 0.278080 0.171388 0.026138 -0.356343 -0.050287 -0.173377 0.059614 -0.276518
KASZ~B -0.435654 0.072493 -0.209060 -0.079417 -0.160540 -0.167101 0.284342 0.019712 -0.112302 0.109511 -0.419561 0.075590 -0.276955 0.130612 0.060313 -0.034915 0.015998 0.330524 -0.114186 -0.207215 0.162989 0.054096 -0.062710 0.014972 -0.068880 0.219289 0.032025 0.134515 -0.027098 0.047633 -0.002979 -0.202340
KASZ~A 0.061401 -0.100663 0.342350 -0.043321 -0.095054 -0.181113 0.060546 -0.071659 -0.364542 0.175756 -0.308027 -0.028736 0.288691 0.068916 -0.225292 -0.191706 0.056072 0.024504 -0.151126 0.105506 -0.219900 -0.007464 -0.260066 -0.049386 0.045678 -0.079965 -0.334837 0.008111 0.022445 0.037760 -0.019790 -0.319543
GI 0.342467 -0.176748 0.020046 0.242758 0.138117 -0.221638 -0.283724 0.065641 -0.101225 -0.008837 -0.213132 0.072212 -0.419753 -0.034465 -0.140659 -0.108567 0.130622 -0.293070 -0.027251 -0.103250 -0.019246 -0.036448 0.178189 0.048220 -0.103592 0.117537 0.017349 0.070769 0.114477 -0.202696 -0.302780 -0.208245
U4 0.017254 0.073704 -0.155663 0.103693 0.057138 -0.004926 0.121006 0.068279 0.059342 0.246892 -0.069007 0.028805 -0.096473 0.092197 -0.023241 0.100409 0.203618 -0.077373 0.139822 -0.034957 -0.154722 0.189650 -0.024793 0.017238 -0.374266 -0.188474 -0.200043 -0.597372 0.169639 0.076900 -0.269133 -0.171947
UR4~A -0.088183 0.382519 -0.019905 -0.150937 -0.075631 -0.117917 -0.099039 -0.080817 0.011592 -0.032437 0.292468 0.065379 -0.201395 -0.081256 0.348049 -0.181205 0.079656 0.206380 -0.027284 0.025702 -0.217105 0.119234 -0.358740 -0.211430 -0.117195 0.369292 0.142582 -0.119260 0.029667 0.075061 -0.028338 -0.132485
ZATU759 -0.152672 -0.273640 0.039036 0.109347 -0.027450 -0.078353 0.297491 0.297054 0.114634 -0.065235 0.209408 0.232795 0.162589 0.000350 0.328080 0.152237 -0.059052 0.290994 -0.147219 0.036377 -0.228474 0.221365 -0.221696 -0.031006 -0.147988 0.031529 0.126480 0.021862 -0.098239 0.250987 0.115381 -0.210250
BAN~B 0.052064 0.191389 0.343000 0.186043 -0.207373 0.342117 -0.268243 -0.001452 -0.130052 -0.003675 -0.186294 -0.220223 -0.031427 0.138145 0.226082 0.026908 -0.175716 0.169713 0.221119 -0.177531 0.058310 -0.331175 0.042148 0.004214 0.234101 -0.189053 -0.003154 -0.112835 0.063262 0.076040 0.118546 -0.149234
KASZ~C 0.211453 0.018010 -0.046905 0.146356 0.064876 -0.116690 -0.017228 0.259928 -0.310166 0.199490 -0.428047 0.391242 -0.218904 -0.163112 0.160627 0.201617 0.024633 -0.020224 0.089289 0.251767 0.163887 -0.099991 -0.070116 0.015758 0.004388 0.028078 0.081822 0.147596 0.054343 0.011445 0.107719 -0.272063
KI@N -0.324341 -0.111882 0.145699 0.451789 -0.161826 -0.167873 0.191266 0.239717 0.040401 0.082273 -0.131083 0.368117 0.149263 -0.032199 0.181624 0.235445 0.025642 0.023896 -0.117441 0.118105 0.204703 0.076376 -0.080594 -0.167900 -0.105346 -0.039085 0.231870 -0.081799 0.120565 -0.018452 0.151305 -0.115992
SAG -0.105915 -0.075964 -0.208855 0.109643 -0.288323 0.193782 -0.217550 -0.343564 -0.217146 -0.247284 0.088485 0.188778 -0.154191 0.036181 -0.214526 0.020289 -0.249883 -0.081651 0.225040 -0.157817 -0.011466 -0.117057 0.213199 0.135589 0.020733 0.136085 -0.096812 -0.113062 0.109629 -0.170533 -0.209522 -0.263827
PAP~A -0.093905 0.136369 0.048377 -0.100438 -0.102758 0.078933 0.307288 0.238970 0.138266 0.176061 -0.093579 -0.045888 0.023365 0.113714 -0.140758 0.087401 -0.182521 -0.230304 -0.072988 0.285462 -0.248484 0.026464 0.320010 0.388952 -0.158608 0.146494 0.192867 0.283229 0.011604 0.102882 -0.130867 -0.093519
SZU 0.175243 -0.150838 0.135724 -0.035276 0.099746 0.215737 0.286783 0.368429 -0.160366 -0.308682 -0.078623 -0.142879 -0.372578 -0.074097 -0.250831 -0.086532 -0.026683 0.254553 0.023831 0.020374 0.009938 -0.192084 -0.040578 -0.096154 -0.222449 -0.086748 0.090792 -0.016086 -0.169457 0.133134 -0.176950 -0.180132
KI -0.043235 -0.166324 -0.064975 -0.107641 -0.197219 0.123044 -0.338006 0.077177 0.275478 -0.052093 0.079211 0.070477 -0.345956 0.106802 0.118915 -0.083606 0.306931 0.009631 0.110402 0.084481 -0.067558 0.171202 0.213383 -0.065089 -0.010038 0.335943 0.163120 0.163373 0.005903 -0.055484 -0.146418 -0.387654
AN -0.035531 -0.031100 0.046179 -0.033046 0.038091 -0.146980 0.061764 0.062864 -0.010624 0.023027 0.173669 0.114942 0.219278 0.040694 -0.078285 -0.025995 -0.304525 -0.110190 0.135340 -0.176417 0.035151 0.273758 -0.159756 -0.301268 -0.074521 -0.111318 0.426530 0.015542 -0.248226 -0.390802 -0.237587 -0.213266
EZINU~D 0.265659 -0.172001 0.320657 -0.139752 0.180304 0.047305 0.067280 -0.245214 -0.331669 -0.073796 -0.377935 -0.177584 0.087914 0.251978 0.167669 0.192569 0.089374 -0.073323 -0.113325 0.148134 0.020076 -0.204125 -0.106228 0.218621 -0.110337 -0.238507 0.024606 -0.087594 0.071741 -0.012643 0.077601 -0.117818
IDIGNA -0.265170 0.346581 0.086421 -0.132407 0.090619 0.336784 -0.074487 -0.049559 0.216743 0.115341 0.138346 -0.022385 0.129589 0.000099 0.148440 -0.089897 0.011067 -0.031433 0.385800 -0.283140 -0.070261 -0.068188 0.218550 0.152278 0.302246 0.062014 0.055565 0.048358 -0.077822 0.023517 0.173927 -0.282757
ISZ~A 0.009213 0.218972 -0.060839 0.061745 0.006701 -0.269114 -0.288379 -0.038773 -0.316994 0.010617 0.193412 0.048308 0.013918 -0.119904 0.044543 0.213719 -0.065977 -0.035317 0.167869 0.345798 -0.212677 -0.018299 0.033909 0.115579 -0.038059 -0.039185 -0.458945 0.015376 -0.333746 0.153062 -0.010138 -0.150164
GIR3~C 0.124464 0.119397 -0.222296 0.367828 0.036500 0.119492 0.245423 0.094878 0.331045 0.009960 0.222102 -0.159622 0.129483 -0.145307 -0.105475 -0.056605 0.064169 0.140220 -0.050304 0.256721 -0.063989 -0.404274 0.078904 -0.044308 0.051253 -0.264440 0.170827 0.046677 0.068155 0.106586 0.144377 -0.235125
KISIM~A 0.199802 0.011102 -0.326822 0.260050 0.044070 -0.244054 -0.471045 -0.026232 0.137525 0.043559 -0.232831 0.253163 0.074530 0.224053 -0.000379 -0.068894 -0.050547 0.127344 0.118374 0.068766 -0.133416 -0.076365 0.183904 0.113176 0.150391 0.280443 0.031367 -0.006536 -0.126999 0.214097 0.003838 -0.172571
ZATU694~C -0.121478 0.041199 0.039408 -0.261626 -0.257094 -0.380886 -0.069664 -0.020466 0.080152 -0.169646 -0.487767 -0.045161 0.071487 0.053359 -0.108596 0.095995 -0.059703 -0.208013 -0.053553 -0.043523 0.189684 0.017977 -0.154220 0.125276 0.066848 -0.106039 0.269074 0.100307 0.018846 -0.150981 0.249661 -0.286254
TAR~A -0.181296 0.404018 0.163406 0.140197 0.300496 -0.328818 0.230090 0.079847 0.132294 -0.223647 0.109723 -0.096676 0.196748 0.077226 0.201766 -0.208285 0.006489 -0.083943 -0.162318 0.204098 -0.053919 -0.079423 0.003278 0.191697 -0.194215 -0.204818 0.064012 0.099233 -0.063048 0.025418 -0.114471 -0.223007
U2~B -0.260491 -0.357339 -0.006844 0.247037 -0.048172 -0.103838 0.254884 -0.057362 -0.120975 0.053426 -0.251217 0.161706 0.045059 -0.452885 0.009416 0.148356 -0.075676 -0.068480 -0.276869 -0.104145 0.147070 0.066994 0.069289 -0.046254 -0.077117 0.032940 -0.022264 0.086571 0.136296 -0.193940 0.252909 -0.244716
RU 0.343866 0.135905 -0.043441 -0.094286 -0.058158 0.010135 -0.002472 -0.064208 -0.204455 0.080928 -0.110492 0.180901 -0.282941 0.012030 -0.077627 -0.148989 -0.023232 -0.423444 0.003409 -0.048022 -0.121175 0.107472 0.221225 0.118186 -0.075610 0.088583 -0.077179 0.146570 0.214746 -0.155771 0.357335 -0.364431
RAD~A -0.256798 0.450539 -0.059850 -0.344361 -0.059541 -0.055530 -0.030056 -0.312247 -0.234548 0.154211 0.268219 0.010978 0.033470 -0.193938 0.031924 -0.090117 0.024047 -0.091546 0.053787 0.269278 0.062695 0.076970 0.248155 -0.200383 -0.026864 -0.058729 0.212462 0.062712 0.093314 0.039793 0.032574 -0.211182
SIG2~A1 0.145222 0.004033 0.120797 0.000601 -0.430006 -0.097014 -0.010025 0.270860 0.019270 0.014228 -0.059699 0.008197 0.034636 0.005569 0.132893 -0.062487 -0.199643 0.263220 -0.164961 0.066629 0.123327 0.076235 -0.153727 0.173600 0.131404 -0.003053 -0.472572 0.102684 -0.372117 0.084629 -0.119336 -0.207163
URU~A1 0.334255 0.023027 0.196247 -0.204792 0.297795 0.124541 -0.310873 -0.048527 0.059826 0.234384 0.040787 -0.069824 0.068771 -0.110588 -0.237405 -0.147909 0.167284 -0.226425 -0.033730 0.238359 0.206327 0.146920 0.028611 -0.269595 0.043628 0.135079 0.101253 0.116652 0.164091 0.038010 0.088126 -0.298064
SZU2 0.227240 0.027390 0.316901 -0.249584 0.222599 0.172191 -0.091172 -0.379855 0.153140 0.216903 -0.057034 -0.383953 -0.072137 -0.201729 0.070509 0.168870 -0.175780 0.159261 -0.038916 0.043685 -0.132966 -0.033343 0.078907 -0.174546 -0.065809 -0.140752 -0.064782 -0.070407 -0.035497 0.100084 -0.220851 -0.209797
SAL -0.065404 -0.124424 -0.034800 -0.097403 0.015549 -0.072022 -0.095162 0.059437 0.092009 0.131357 0.227630 0.018830 0.014278 0.164934 -0.109084 -0.266169 0.225702 0.125842 0.091682 -0.394750 -0.091745 -0.217337 0.218442 0.267776 -0.192956 -0.187422 -0.103931 0.329404 -0.163409 -0.248236 -0.237027 -0.145686
NAGA~A -0.070910 -0.123183 -0.157520 -0.049712 -0.232522 -0.312834 -0.073359 0.154008 -0.178997 0.408500 -0.057859 0.148413 -0.138796 -0.242933 0.327846 0.194016 -0.177451 0.142102 -0.022774 0.182705 0.034671 -0.227231 -0.200113 -0.076270 -0.085143 -0.064004 -0.205911 -0.047760 -0.059216 0.055270 -0.057249 -0.271377
KISZ -0.310123 -0.014978 0.319103 0.167981 -0.208053 -0.008743 0.231361 -0.253583 -0.187361 0.175792 0.043226 -0.060480 0.381707 0.031659 0.271698 -0.203480 0.197734 0.149058 0.127814 -0.103467 -0.048692 -0.227772 0.154402 -0.001628 -0.001897 -0.116535 -0.043493 0.165907 0.063952 0.072808 -0.054705 -0.238882
DILMUN 0.056814 0.190088 0.071247 -0.104044 -0.025297 -0.248845 -0.003835 -0.198964 -0.118784 -0.265462 0.303923 -0.195444 -0.112953 -0.202969 0.002603 -0.004433 -0.058869 0.192284 -0.124879 -0.223900 -0.192277 0.231020 0.181800 0.059395 0.125170 0.261596 0.029145 -0.207390 0.215119 -0.026355 0.340377 -0.222648
A 0.157680 0.327291 0.076929 -0.059146 -0.137481 -0.205195 -0.069550 -0.164922 0.151995 -0.246870 0.032784 -0.192627 -0.215469 -0.149517 0.044851 0.195110 0.469123 -0.246752 0.047328 0.046446 -0.085738 0.300148 -0.034329 -0.002353 -0.009643 0.003504 0.043801 0.054612 0.038722 -0.243658 -0.114126 -0.267557
MASZ2 -0.331211 -0.297878 -0.357508 -0.039713 0.169507 -0.027280 0.139143 0.026743 -0.468733 -0.077414 -0.008420 0.175187 -0.207922 0.118070 -0.042969 -0.107689 0.172856 0.075899 -0.135035 -0.009761 -0.040361 -0.114567 0.107794 -0.144541 -0.160504 -0.051138 -0.060445 -0.000637 0.056687 0.012254 -0.184792 -0.353224
TE -0.110505 0.182636 -0.072194 0.060645 -0.293467 0.029261 0.253025 -0.229385 0.084344 -0.043629 0.261407 0.277912 0.131334 0.065733 0.050469 -0.310971 -0.068671 -0.169882 -0.125467 0.085293 -0.097449 0.131979 0.177113 -0.026183 -0.298900 0.207416 0.038573 0.062404 0.303700 0.090821 -0.123454 -0.312233
KU6~A 0.110999 0.378978 -0.332266 -0.181293 -0.188994 -0.169733 -0.214150 -0.391502 -0.180978 -0.029690 0.033550 0.057858 -0.161544 -0.321102 -0.214128 -0.018004 -0.121796 -0.024695 0.104826 0.223643 0.016291 0.112745 0.042953 -0.028803 -0.097881 0.132456 -0.102635 -0.088523 0.128753 -0.153371 -0.034260 -0.211587
GI4~A -0.147227 0.156750 -0.017159 0.111311 0.134496 0.058656 -0.207695 0.241482 -0.097157 0.088451 -0.055277 -0.220589 -0.255604 0.556633 0.057556 -0.018162 0.020427 -0.079090 0.071935 -0.334666 0.265105 -0.050772 -0.257038 -0.106427 0.191783 0.029699 -0.082088 0.016599 0.078477 0.023111 0.048028 -0.206193
NIM~B1 0.105938 -0.167317 0.044590 0.067877 0.086794 -0.016758 0.059195 -0.125438 -0.100395 -0.437585 -0.186588 -0.198704 0.148647 -0.100970 -0.147276 0.036124 -0.328611 -0.126589 0.118404 -0.155565 0.133632 -0.241428 0.220413 -0.290965 -0.173778 -0.246027 0.068028 0.130801 0.029458 0.200351 0.097613 -0.247732
HI~A -0.207079 0.031140 0.147374 0.018584 -0.051912 0.000476 -0.074203 0.098532 0.092063 -0.194614 0.202040 0.097631 -0.021444 0.057245 0.084030 0.040259 -0.120281 -0.056737 -0.197541 0.220921 -0.145623 0.124097 -0.039323 -0.071702 -0.086254 -0.190762 -0.478302 0.104798 -0.578351 0.147395 -0.012859 -0.135200
NAR 0.009822 0.073225 -0.196196 0.081245 -0.116106 -0.243094 -0.247212 0.321322 0.049258 0.272270 -0.073693 -0.141159 -0.125107 0.096378 -0.157186 -0.029020 0.066551 0.105999 0.008772 -0.088100 -0.048782 0.184104 0.165744 0.011749 -0.107592 0.203683 -0.230763 0.204509 -0.184724 -0.216278 0.379394 -0.315823
ZATU853 -0.043313 -0.084208 0.119870 -0.255685 0.120269 0.098825 -0.033975 -0.030712 -0.011751 0.259978 -0.084371 -0.050458 0.189483 -0.207936 -0.360968 -0.176596 0.090138 -0.025674 -0.029316 -0.085415 -0.078824 0.078799 -0.197847 0.035293 -0.191439 0.111115 -0.283906 -0.074843 0.048263 -0.253904 0.532070 -0.109996
|TUKU+DISZ| -0.288559 0.284498 0.183596 0.116321 0.180282 -0.406144 0.042537 -0.298155 0.130290 0.087298 0.066123 -0.020183 -0.145639 0.051477 0.177417 -0.178174 0.012563 -0.354348 0.191019 -0.008405 0.110066 0.150672 -0.193692 -0.012797 0.153179 -0.057318 0.029725 0.212352 0.225786 0.126872 0.000030 -0.096737
NIMGIR -0.131995 0.047779 0.268159 0.020346 0.237450 -0.290779 0.022621 -0.110587 0.178513 -0.053857 -0.039570 0.197189 -0.163178 0.140176 -0.223657 -0.174798 -0.076133 -0.413567 0.079838 -0.182465 0.198078 -0.065982 -0.252050 0.046001 0.161440 -0.111443 -0.160733 0.055967 0.283324 0.143704 -0.103299 -0.217821
BU~A -0.247450 -0.085823 0.038013 0.254940 0.015729 0.007192 0.172594 -0.098196 0.108900 -0.076256 -0.062163 -0.136995 -0.180693 -0.258674 -0.075430 0.082542 0.148982 0.227624 0.270008 -0.162374 -0.330708 0.007834 0.105487 -0.178426 -0.208696 -0.191338 0.013416 -0.085017 0.331412 0.218159 0.128589 -0.292672
NAM2 -0.074985 0.012315 0.078560 -0.036010 0.005747 0.158715 -0.150792 -0.406511 0.061277 -0.007246 -0.033937 0.069273 -0.173205 -0.069998 -0.181206 -0.368258 -0.137960 -0.082708 -0.082758 0.289888 0.079347 -0.077558 0.305452 -0.486562 -0.147133 -0.015001 -0.076762 0.076208 0.051855 0.047989 -0.223547 -0.113078
PA~A -0.207338 -0.288491 0.294418 0.076330 -0.070850 0.110713 -0.043131 -0.089037 0.029496 -0.495449 -0.030314 0.234149 -0.167957 0.102773 -0.178163 -0.049017 -0.247506 -0.292084 0.004881 0.092195 -0.002876 -0.025854 0.245756 -0.130602 -0.221682 -0.039999 -0.219362 -0.064889 0.035948 -0.001036 -0.140516 -0.147893
USZ~A -0.020069 -0.106362 0.175900 0.441139 0.279266 0.129834 -0.046938 0.057854 -0.197146 -0.249019 -0.223378 0.008928 0.235575 0.114581 0.054935 0.052040 -0.123634 -0.113644 -0.370685 -0.142468 0.192786 -0.009985 0.076281 0.000263 -0.175877 -0.116235 -0.107493 0.121484 0.231495 0.066831 -0.049557 -0.277273
SZUBUR -0.031985 0.125057 -0.120875 -0.097430 -0.142450 -0.120634 -0.019190 -0.026989 0.303196 -0.056944 -0.172853 -0.001893 -0.251909 -0.023887 -0.168694 -0.190098 0.251436 -0.307718 0.256351 0.098192 0.183363 0.079907 -0.042320 -0.336394 0.085048 0.226035 0.088429 0.090136 0.257733 0.084480 -0.175006 -0.320827
IM~A 0.209247 0.099081 0.021038 0.150879 -0.126338 0.036357 -0.379485 0.211220 -0.099023 0.223995 -0.008254 -0.177923 -0.224099 0.199499 -0.094159 -0.048833 0.206791 0.055858 0.018373 -0.085201 -0.017865 -0.059003 0.303228 -0.414112 0.049007 0.221080 -0.042418 0.218140 -0.134685 0.009252 0.040356 -0.288233
SZA 0.299378 -0.268181 0.063297 -0.072070 0.279579 0.029845 -0.058736 0.023389 -0.233105 0.290491 -0.255213 0.221675 -0.195550 -0.214946 0.380908 0.182975 -0.061422 0.101923 -0.070397 0.215089 -0.080180 -0.141982 0.012978 0.082767 -0.009331 -0.061880 0.119822 0.110847 -0.197399 0.135155 0.039167 -0.204637
LAL2~A -0.076983 0.129069 -0.287529 -0.045515 0.072081 0.281898 -0.271177 -0.089825 0.112815 -0.027114 -0.021896 0.225753 -0.117270 0.462046 -0.018236 -0.046076 0.036098 -0.141212 -0.229639 0.034798 0.235012 -0.206855 0.106182 -0.190042 0.067837 -0.069586 -0.003674 0.279453 0.100196 0.244718 0.030759 -0.229740
NIM~B2 0.045122 -0.014198 0.055489 0.047129 -0.056191 0.038544 -0.147611 0.162361 -0.086690 0.079642 0.096093 -0.275754 -0.023054 0.183200 0.059351 -0.194489 -0.309299 0.015558 0.235137 -0.111388 0.064206 0.141076 0.000400 0.102885 -0.056391 0.202861 -0.253620 -0.095784 0.160132 -0.367330 0.512223 -0.161563
DUR2 -0.249996 -0.109295 0.210038 -0.024102 0.111417 -0.102021 -0.136921 0.230922 0.339317 0.139453 0.148472 -0.055338 0.050198 -0.229109 -0.200830 -0.303106 0.363576 0.011502 -0.108152 -0.148086 -0.195369 -0.047941 0.218343 0.083669 0.148994 -0.009907 -0.191799 0.127584 -0.086173 -0.094561 0.187656 -0.225893
SZEN~A -0.105937 -0.118029 0.085660 0.056168 -0.173021 0.152207 -0.021823 0.087796 0.054734 0.147933 0.053694 -0.254412 -0.146546 -0.013234 0.133004 -0.136049 -0.311125 0.128289 0.190818 -0.145607 0.217817 0.107026 0.092719 0.212330 -0.062292 0.150573 -0.258022 -0.036893 0.097296 -0.331993 0.466203 -0.194318
BU3 0.127815 0.125113 -0.083194 -0.059271 -0.124309 0.098591 -0.076178 -0.049604 0.164550 -0.088914 0.414654 0.014603 -0.281984 -0.144956 -0.090377 -0.199276 0.294888 0.252754 0.065231 0.031855 -0.088557 0.117758 -0.070844 -0.238452 -0.225406 0.283355 0.058559 0.075052 -0.019541 -0.116972 0.358500 -0.214831
|SZE~A&SZE~A| -0.077614 -0.272331 0.104100 -0.254532 -0.038065 0.120761 0.164816 0.210142 0.065982 0.153980 -0.069655 -0.106902 -0.103661 -0.026690 0.181771 -0.160988 -0.101996 0.209301 0.072295 -0.134515 -0.022098 0.321701 0.118944 0.061991 0.607106 -0.115899 0.025193 -0.065137 0.180050 0.078579 0.038811 -0.124845
TUR3~A 0.044329 -0.240082 -0.158835 -0.276304 0.255661 0.055619 0.254802 0.071985 0.127460 -0.030991 0.317741 -0.239994 -0.054699 0.037201 -0.053142 0.109045 -0.119319 0.084917 0.155392 -0.111957 0.118925 0.096986 0.091565 -0.024154 -0.265733 0.072863 -0.102016 0.087253 -0.035451 -0.135423 0.468820 -0.285360
UR~A 0.307159 0.029084 0.338815 0.004002 0.025693 -0.190233 0.186676 -0.028461 -0.206887 -0.235803 0.063346 -0.012399 0.346037 -0.012831 0.334616 -0.018698 0.368516 -0.091480 0.144628 -0.116850 0.143025 0.054179 0.232372 0.164950 0.056537 -0.100293 0.076879 -0.070927 0.011964 0.052390 -0.045701 -0.264916
PIRIG~B2 -0.061043 0.082786 -0.182310 -0.188425 -0.029766 -0.039404 -0.114255 0.016491 -0.046519 0.075848 0.102967 0.163835 -0.091090 -0.049471 0.535780 -0.097736 0.032605 -0.008667 -0.238243 0.214269 -0.372267 -0.286810 -0.237300 -0.224679 0.070609 0.211691 -0.139604 -0.099953 -0.083874 -0.151500 0.065882 -0.084537
GA'AR~A1 -0.150194 -0.032756 -0.140664 0.333024 0.225254 -0.274466 0.149288 -0.107920 -0.144774 0.229755 -0.140613 -0.074336 0.261286 0.125721 0.017173 -0.118556 -0.269798 -0.291533 -0.127416 -0.148661 0.261562 0.166363 -0.129748 -0.183312 0.000442 0.180545 0.005111 0.085665 0.018545 0.288157 0.066616 -0.133335
UB -0.138755 -0.260243 0.114379 0.331413 0.092039 -0.002977 -0.032596 0.278893 -0.031714 0.143865 -0.132394 -0.100877 -0.187189 -0.002724 0.030990 0.006715 0.180959 -0.161628 -0.129483 0.057585 0.177401 0.252122 0.096699 -0.476309 -0.263098 -0.031464 0.061506 0.095472 -0.067333 0.134700 0.025232 -0.317313
MAR~A -0.288750 -0.054009 -0.018899 -0.168752 -0.135929 0.290928 0.000322 -0.166255 -0.251893 0.092665 -0.153904 0.026991 -0.174762 0.313045 0.003004 -0.147836 0.104199 0.238744 0.043446 0.122149 0.158169 0.011094 0.269515 -0.343478 -0.091787 -0.172519 0.228171 -0.012782 0.118961 0.075101 0.059761 -0.305063
E2~A 0.052054 0.058152 0.072904 0.004190 0.417415 0.090209 -0.337401 -0.147297 0.063404 -0.100808 -0.204257 -0.300970 0.213211 -0.148208 -0.037548 0.099614 -0.019216 0.283220 -0.087499 0.022793 -0.270269 0.179381 0.093365 0.202001 -0.166720 0.147774 0.266095 0.152834 0.042473 0.112445 -0.140596 -0.154623
ME~A 0.104579 0.514956 -0.126709 -0.201992 0.112579 0.148832 -0.018805 0.186282 0.077007 -0.000956 0.070806 0.004803 -0.150122 -0.170434 -0.084487 -0.037278 -0.136707 -0.028569 0.041523 0.026667 0.019017 0.323218 0.138764 -0.046536 0.280001 0.169921 0.015655 -0.125019 -0.290339 0.102375 -0.289549 -0.275882
KAB 0.300635 0.006246 0.289871 0.476137 0.020831 0.055508 0.188509 -0.049811 -0.061677 -0.122244 -0.060368 0.195045 0.076695 0.157249 0.003050 -0.237605 0.161925 -0.249956 -0.035299 0.043427 0.145346 -0.123318 -0.071189 -0.035956 0.059859 0.133337 0.144741 0.221794 0.078552 0.309936 0.058470 -0.279517
TUM~A 0.290048 -0.207943 0.190263 0.021297 0.107942 -0.126163 -0.106052 0.208878 -0.154777 -0.295879 -0.013112 0.277562 0.034216 -0.001124 0.417643 0.000137 -0.062497 -0.160838 -0.079123 0.090062 -0.173947 -0.011254 0.100832 0.003465 -0.207152 -0.161147 -0.354980 0.013758 -0.185023 0.179594 0.009829 -0.206998
|NUN~A+EN~A| -0.020078 0.105209 0.484565 -0.106349 -0.048264 -0.045963 0.180163 -0.078558 0.060004 0.146305 0.028873 0.080495 0.113210 0.025333 0.223959 -0.101181 -0.238725 -0.008165 0.193852 0.143300 0.184404 0.019081 -0.045066 -0.071945 0.198137 -0.054526 -0.122442 0.209629 -0.456254 0.244993 -0.046754 -0.254717
ARARMA2~A -0.030219 -0.178784 -0.039828 -0.045789 -0.183132 0.174931 -0.002769 0.120347 -0.216691 0.073331 0.043567 -0.419147 -0.056705 0.381484 0.048409 -0.223854 -0.415670 -0.156783 0.260916 -0.082481 -0.026264 0.125217 0.060848 0.037192 -0.058208 0.028150 -0.113764 -0.259240 0.222365 0.039526 -0.073104 -0.138992
NI2 0.070430 -0.297761 0.111802 -0.224532 -0.045198 -0.239094 -0.109903 0.008824 -0.175892 0.201977 -0.190841 0.349905 -0.241003 -0.265232 0.452277 0.109903 -0.080414 0.039105 0.185748 0.205021 0.097441 -0.222631 -0.039846 0.087330 0.095752 -0.073979 0.057146 0.024395 -0.043455 -0.058897 0.071721 -0.120988
AMAR -0.316263 -0.110580 0.022700 -0.171526 -0.242054 -0.217457 -0.001443 -0.044620 -0.353918 -0.218988 -0.020880 0.016893 0.368531 0.138692 0.246307 -0.001819 0.128667 0.067542 -0.165763 -0.042243 0.264326 -0.072963 -0.062391 0.170934 -0.084062 -0.237643 -0.154410 0.083268 0.211857 0.048507 -0.100410 -0.223541
ZATU752 -0.312590 -0.230199 -0.105584 0.083264 0.085303 -0.396009 -0.104017 -0.091168 0.207627 0.054617 -0.328255 0.088426 0.184476 0.137150 0.119304 -0.299182 0.035545 0.120605 -0.117202 0.131298 -0.050470 -0.110064 -0.100480 0.128980 0.025321 0.126344 0.123804 -0.303348 0.118993 0.170508 -0.089481 -0.257621
URI5 0.062843 0.104745 0.022025 -0.618252 0.016169 -0.091495 0.078489 0.140233 0.005512 0.155576 -0.160029 -0.078761 -0.115882 0.261907 0.007866 0.276898 -0.294145 -0.028413 -0.052418 0.035165 0.074586 -0.256763 -0.056822 0.143887 0.073407 0.033532 -0.014661 -0.066925 -0.010826 0.317359 0.183318 -0.143919
KUR~A -0.057254 -0.060119 -0.306931 0.133062 -0.130112 0.005030 0.047515 -0.135957 -0.580577 -0.097337 -0.006513 -0.140166 0.095930 0.213409 -0.094624 0.100955 0.240958 0.076081 -0.249848 -0.134436 0.116780 0.085062 -0.081836 0.032244 0.012745 -0.234340 0.036489 0.277978 -0.097533 -0.199376 -0.107435 -0.189559
BA -0.296732 -0.096261 -0.038674 0.427277 0.067840 0.402751 -0.210707 -0.033130 -0.084427 0.280581 0.092378 -0.199391 -0.088939 -0.226081 0.034778 -0.083204 -0.086995 -0.104698 -0.036449 0.226466 0.127525 -0.090460 -0.128073 0.254326 0.063007 0.113797 0.055522 -0.068114 -0.083112 -0.153444 -0.254992 -0.090702
NUNUZ~A1 0.051469 0.067215 0.087272 0.189402 -0.010366 0.064166 0.026709 0.280764 0.289344 -0.151808 -0.009559 0.022560 -0.159140 0.255048 0.017875 -0.126952 -0.192158 0.073358 -0.187777 -0.023583 -0.076693 -0.148856 0.134848 0.105757 -0.104106 -0.224007 0.088885 0.124982 -0.465549 -0.130946 -0.219941 -0.386100
DU6~B -0.174572 0.006541 0.145537 -0.003262 0.207000 -0.344916 -0.260145 0.220848 -0.107470 -0.077170 -0.202008 0.047763 0.019009 0.228850 0.101770 0.018012 -0.122503 0.143754 0.020555 -0.016041 0.058082 -0.058761 -0.281500 -0.339367 0.115219 0.489184 0.005359 -0.190775 0.010223 0.030009 0.063063 -0.120183
|LAGAB~AXSZITA~A1| 0.033234 0.012719 0.036964 0.000647 -0.021315 -0.061733 0.144199 -0.068162 0.107840 0.042237 0.147724 -0.075088 -0.003135 0.102206 0.154594 -0.004468 -0.080870 0.141799 -0.251761 0.223742 -0.077959 0.265823 -0.065913 -0.031625 0.019486 -0.143017 -0.478090 0.086111 -0.624378 0.125596 -0.001192 -0.088298
DU8~C 0.229111 0.035801 -0.280946 -0.120518 0.005164 -0.250529 0.059846 0.167724 0.060142 -0.177471 -0.265677 0.075039 0.218176 0.133672 0.293417 0.281074 -0.026574 0.155049 -0.056433 -0.185679 0.139200 0.154733 -0.196788 0.187971 -0.143028 0.192649 0.053126 -0.268622 0.112555 0.121069 -0.106827 -0.255537
ZATU681 -0.374525 0.108645 -0.024406 -0.147724 0.141474 -0.204469 -0.038461 0.161229 0.140095 0.059545 0.209505 -0.154007 0.162822 0.019537 0.224735 0.062248 -0.063549 0.228059 -0.107950 -0.349216 0.175826 -0.316039 -0.002548 -0.389538 -0.047106 -0.003185 -0.069170 0.146802 0.089847 -0.097025 0.069921 -0.202537
DUG~A 0.209701 0.003068 -0.320886 -0.211728 -0.154665 -0.009990 0.008594 0.055951 -0.053497 -0.029942 -0.038446 -0.268173 0.554377 -0.005552 -0.035189 -0.126562 -0.030905 -0.131736 -0.228238 0.071261 0.000254 -0.022440 -0.095326 0.041376 -0.063836 0.282066 -0.137397 -0.054148 0.107639 -0.017297 -0.300902 -0.290798
SIG2~A2 -0.162887 -0.251028 -0.115849 -0.120088 0.073220 -0.040339 0.166152 0.076030 -0.075072 -0.325736 0.097980 0.054259 -0.046593 -0.017082 0.397513 0.064112 -0.080826 -0.023300 -0.219746 0.108043 -0.273903 0.181228 -0.124784 -0.037649 -0.131885 -0.119653 -0.315714 -0.173339 -0.404392 0.128984 -0.014870 -0.140165
SZIM~A -0.316045 0.171771 -0.121518 0.121304 0.348782 0.087878 -0.218445 -0.258844 0.165150 -0.235252 0.321642 0.204130 0.032526 0.131235 0.144809 -0.026179 0.046330 -0.213470 0.111723 0.061655 0.206891 -0.255003 -0.027478 0.128379 -0.048967 0.077426 -0.224313 0.042727 0.075447 0.172668 -0.068484 -0.198914
HI@G~A -0.125422 0.040134 0.064597 0.020128 0.339741 -0.134428 -0.107590 0.176532 -0.044375 0.045679 -0.187473 0.092609 -0.050437 0.164536 0.018162 0.056086 0.153546 -0.134044 -0.238196 -0.215923 0.538992 -0.170147 0.091726 0.148943 0.128848 -0.092391 0.014323 0.084676 0.131662 0.230935 0.106784 -0.333813
SIG 0.134302 0.020207 -0.219813 -0.201769 -0.114239 -0.207750 -0.323415 -0.034045 0.284689 -0.008639 0.048230 0.344696 -0.071254 0.313607 0.124492 0.048455 -0.233061 -0.046249 -0.047341 -0.070732 0.039984 0.085414 -0.335343 -0.050586 -0.074933 0.140825 -0.040604 -0.118116 -0.103786 0.327952 -0.013206 -0.244681
MUSZ3~A -0.184724 0.294547 -0.056990 -0.394257 0.207385 0.302959 0.108607 0.043028 0.146647 0.128461 -0.182991 -0.291131 0.173869 0.002969 0.253780 0.116880 -0.054256 0.091852 0.154572 -0.043187 0.109758 0.168880 -0.066944 -0.025814 0.064302 0.254599 0.008757 -0.050390 -0.225388 -0.060872 -0.221048 -0.222816
NAGAR~B 0.040014 0.359653 0.214573 -0.167247 0.077449 -0.110781 0.089552 0.233958 -0.026648 0.056454 -0.450964 0.090878 -0.195584 -0.146519 -0.109683 0.103932 -0.160786 -0.120422 0.106101 -0.144098 0.302962 0.042682 -0.284796 -0.089281 0.025160 0.180284 0.225913 0.032138 -0.142707 0.010840 0.118607 -0.202763
EZEN~B -0.219899 0.112278 -0.151286 -0.257837 0.108327 -0.069397 0.023330 0.190300 0.209630 -0.040610 0.037844 -0.130400 -0.003607 0.275051 -0.015505 0.152047 -0.292980 -0.103907 -0.032598 -0.221716 0.175237 -0.194194 -0.265607 -0.252877 -0.003056 0.171071 0.121519 -0.045451 0.074762 0.369594 0.099433 -0.292158
SZITA~A1 -0.125708 -0.055568 0.046533 0.379809 0.286348 0.214968 -0.073949 -0.123643 0.355262 0.077640 -0.175579 0.182984 -0.096163 -0.077683 -0.026104 -0.246980 -0.030100 -0.068369 -0.121323 -0.002848 0.202164 0.107565 -0.200244 -0.216784 0.010811 0.205384 0.139596 -0.059373 -0.156079 0.004036 -0.168825 -0.366310
HI -0.043233 -0.018868 0.187092 -0.141416 -0.045338 0.383627 -0.409090 0.003924 -0.156926 0.133897 -0.157247 -0.033394 -0.214809 0.265241 0.111753 0.013934 -0.055565 -0.077318 0.041770 -0.169584 -0.104094 0.166775 -0.308949 0.081794 -0.046017 0.045477 -0.079495 0.076140 -0.366751 0.037555 -0.134484 -0.279177
SIG7 0.050990 -0.054116 0.008326 0.168924 0.045472 -0.408960 -0.084327 0.071082 0.027747 0.143896 0.074845 0.000272 -0.221102 -0.143244 0.260559 -0.056462 -0.055945 0.120390 0.169172 -0.272458 -0.086846 0.037315 -0.371321 0.100895 -0.227797 0.078370 0.177278 0.045200 0.154903 0.340936 0.170060 -0.280534
TUR 0.197043 -0.245005 -0.032013 0.017064 -0.197787 -0.276755 -0.184834 -0.409459 0.128476 -0.016878 -0.008156 0.193104 0.065604 -0.172507 0.122184 -0.106073 0.092521 0.026313 0.163922 0.026755 -0.375919 -0.247429 -0.027702 0.284669 -0.024230 0.146791 0.106967 0.100220 -0.055997 0.164690 -0.100172 -0.250631
UDU~A -0.032677 0.124449 -0.187326 -0.234773 -0.082464 0.113777 0.034111 0.395023 -0.029988 -0.479444 -0.153950 0.022791 0.143300 -0.386579 0.035165 -0.259240 0.043319 0.174299 -0.052393 0.025468 0.227016 -0.094646 -0.013885 0.076847 -0.131913 -0.075514 -0.180166 0.050551 0.050901 -0.067451 -0.217047 -0.090914
SZITA~B1 -0.016885 0.172614 -0.294421 0.259506 0.013921 0.370482 0.094748 0.204221 0.047999 0.122844 -0.307312 -0.166405 0.180500 0.154816 0.314752 -0.028247 0.034944 -0.120026 -0.219511 -0.069807 -0.077766 0.139309 -0.190098 -0.075705 0.078126 0.194445 -0.261142 -0.157358 0.097175 0.086819 -0.098353 -0.179683
KU3~A -0.035499 -0.201183 0.246531 0.049642 -0.043479 -0.250572 -0.269212 0.115527 0.117522 -0.035893 0.054588 -0.224946 -0.203134 0.129788 -0.087558 -0.032174 -0.318221 -0.340168 0.203367 0.214449 0.154290 0.184783 -0.017345 -0.084973 0.015668 0.192257 -0.240792 0.102387 -0.108328 -0.069685 0.153424 -0.305674
ZATU714 0.309247 0.440718 -0.014360 -0.181116 -0.250455 -0.202246 0.014283 0.196406 0.066671 0.045180 -0.289728 -0.187694 -0.306645 0.008367 -0.163728 0.003365 0.171694 0.105675 0.072704 -0.236629 0.213801 0.123676 -0.073813 -0.226684 0.054782 0.048724 -0.066639 0.090036 -0.049343 0.045350 -0.105402 -0.186677
|ZATU714XHI@G~A| 0.461000 0.171680 -0.121798 -0.302655 -0.054782 -0.071726 0.338432 0.083583 0.205986 0.145137 -0.060979 -0.138166 -0.216343 0.018049 -0.000918 -0.137216 0.150893 0.134600 0.119583 -0.115352 0.343502 0.021963 -0.082075 -0.189649 0.072952 0.216047 -0.062483 -0.088863 -0.056093 0.192546 -0.124401 -0.143083
MU 0.025225 0.071852 -0.308018 0.138097 -0.177837 0.080608 0.550733 0.230456 0.078332 0.394077 -0.023012 0.142546 0.040903 0.040723 0.029291 -0.168463 0.232928 0.094705 0.102685 -0.250161 0.221186 0.005197 -0.042164 -0.003344 -0.130427 -0.010544 -0.084265 -0.072569 0.020357 0.123054 -0.079193 -0.180164
TA~C -0.314985 -0.128054 0.015477 -0.181035 0.449836 -0.024362 0.210368 0.157849 0.209329 0.014264 0.254065 -0.214152 -0.033747 0.210944 0.120453 0.018490 0.229691 -0.083482 -0.053809 -0.245648 0.156832 -0.321863 -0.055386 0.036776 0.058733 -0.059340 -0.104674 0.210278 0.089488 0.112265 0.081133 -0.139353
GESZTU~B 0.255705 0.064069 0.265728 0.053909 -0.009110 -0.044956 0.209458 -0.296385 0.138061 -0.101217 0.026898 0.200259 0.443606 0.020175 -0.014716 0.024331 0.114914 -0.155087 0.314463 0.138715 0.244850 -0.268950 0.005882 0.113365 0.038364 0.184465 0.199855 0.042882 -0.049659 0.146430 -0.061675 -0.222456
SZA3~A1 0.421364 0.298298 0.028058 -0.388597 -0.050604 0.101316 -0.181468 -0.214512 0.003530 -0.149769 0.147247 -0.024686 -0.102380 0.069086 0.086481 -0.032429 0.071531 0.027254 0.096539 0.026254 0.415484 0.060633 -0.002218 -0.095016 -0.182073 -0.193102 -0.129695 -0.062107 0.041338 -0.094625 0.131448 -0.317996
|U4.SZU2| -0.232548 -0.328292 -0.313396 -0.451701 -0.218502 -0.254559 0.158899 -0.082305 -0.132712 0.055338 -0.294588 -0.193029 0.053537 0.027401 0.099105 0.041833 -0.132389 -0.089427 0.027596 0.272011 -0.044632 0.033768 0.057829 0.047671 -0.235092 0.016019 0.082822 -0.027174 0.116524 0.137324 -0.076709 -0.144755
SA~A -0.116622 0.575522 0.167508 -0.347810 -0.001846 0.172449 -0.049086 -0.244861 0.037679 -0.093296 0.118564 0.003698 -0.376716 0.038406 0.061933 -0.127961 -0.022251 -0.180394 0.045716 0.091084 0.111531 -0.062852 0.019336 -0.308715 -0.062796 0.122261 0.103546 -0.137780 -0.043363 -0.046310 -0.036133 -0.129697
KISAL~B1 -0.483782 0.060258 -0.303291 -0.054422 0.006760 0.057104 -0.145500 0.068504 -0.001378 -0.001663 0.129307 -0.182498 0.198976 -0.061642 0.102003 -0.198933 0.072991 0.175611 -0.092504 -0.080466 0.147900 0.042971 0.147050 -0.198802 -0.056912 -0.123207 0.116835 -0.019780 0.204686 0.445051 0.056044 -0.288396
AB2 -0.106619 0.122252 0.142340 -0.091119 -0.126073 -0.151580 -0.316222 0.191286 -0.069804 -0.517572 0.052526 -0.056025 0.045408 0.171965 0.167738 -0.381678 -0.018016 -0.159174 -0.027940 0.035964 0.070673 0.145576 0.031516 -0.015649 -0.142821 -0.079931 -0.073788 -0.004868 0.185604 0.063522 -0.318539 -0.241249
U8 -0.032788 0.104820 -0.519688 -0.276788 0.196055 0.042185 -0.258339 -0.242465 -0.142305 -0.067884 0.113979 0.160549 0.058457 0.011646 0.006588 0.041211 -0.133779 0.106386 -0.270734 0.115998 0.005008 -0.273465 0.058350 0.073989 0.056529 0.286363 -0.012152 -0.032575 -0.011866 0.019986 -0.176075 -0.298295
MEN~A 0.097778 -0.093765 0.007552 0.201609 -0.028084 -0.268101 0.001493 0.010750 0.259365 -0.116374 -0.085916 -0.486225 -0.272259 -0.004726 -0.167293 0.286081 0.336654 -0.116837 -0.127327 -0.098780 0.039651 0.027655 -0.109446 -0.197738 0.179448 -0.040155 0.107151 0.172583 -0.164635 -0.052929 -0.015650 -0.219019
SZITA@G~A -0.101127 -0.296893 -0.003359 -0.166895 0.017155 -0.345693 0.239097 0.337839 -0.058155 -0.288145 -0.047843 -0.053828 0.277941 -0.063803 0.334004 0.008837 -0.169201 -0.046262 -0.108050 -0.165575 0.031990 0.245229 -0.078751 0.014019 -0.081004 -0.121228 0.108485 -0.103033 0.089669 0.256349 0.045853 -0.202951
DUG~B 0.337478 -0.270457 -0.100498 -0.055319 -0.029337 -0.281251 -0.496325 0.190027 0.173179 0.223707 -0.375950 -0.073739 -0.104449 0.050878 0.159197 0.033542 -0.010859 0.180092 -0.114586 0.009599 0.044766 0.034948 0.050547 0.130997 -0.045397 0.222384 -0.028286 0.009175 0.016543 0.134870 -0.014073 -0.175601
IR~A 0.073533 -0.008696 -0.117411 0.129558 -0.031490 -0.166471 0.004487 0.054431 0.017159 0.073708 -0.099578 0.217663 -0.090436 -0.226248 0.208857 0.152338 -0.210469 0.103281 0.091343 0.121349 -0.104168 -0.122736 -0.056301 -0.132361 -0.012772 -0.270631 -0.297103 0.078833 -0.592503 0.241325 0.130591 -0.155456
GAN~B -0.116055 0.021128 -0.146098 0.267593 0.341606 -0.325447 0.367382 0.017457 -0.121382 0.083843 0.093682 0.217775 -0.158714 0.047198 -0.193040 -0.222315 -0.135232 0.055670 -0.121352 0.126327 -0.027622 -0.356660 -0.136256 0.171538 0.134708 -0.191442 0.153170 -0.047427 0.023636 -0.089510 0.008364 -0.161239
MA 0.067202 -0.289276 -0.219052 0.132444 0.195389 0.256111 0.190282 -0.013100 -0.291672 -0.118261 0.254769 0.268543 -0.149563 0.080080 0.149420 -0.088065 -0.084628 -0.193155 0.121556 0.042182 0.027059 -0.107062 -0.164602 -0.142828 0.223202 -0.124963 0.318682 -0.064387 -0.094149 -0.082948 0.023299 -0.321005
ZATU662 -0.042676 0.165805 -0.157201 -0.125784 -0.181185 -0.151031 -0.023750 -0.032848 0.366008 -0.067850 -0.204938 -0.002221 -0.290747 -0.027201 -0.189941 -0.211688 0.276423 -0.323666 0.267469 0.098461 0.183168 0.079732 -0.040701 -0.314940 0.076307 0.199737 0.076509 0.075115 0.207246 0.064732 -0.119525 -0.065896
HASZHUR -0.062008 -0.049040 0.135873 -0.044263 0.264496 -0.026293 -0.041989 0.082617 0.066784 0.260704 0.132028 -0.227013 -0.035887 0.000236 -0.295970 -0.048912 0.163623 -0.563387 -0.080944 0.012680 0.085427 -0.042893 -0.345990 0.179309 -0.024961 0.097794 -0.163062 0.171777 -0.058934 0.136014 0.107243 -0.223101
AMA~A 0.132952 -0.109278 -0.179628 -0.291854 0.218259 -0.058236 0.223496 -0.055612 -0.077451 0.181718 0.299852 0.182000 -0.168428 0.070432 0.307754 0.347886 -0.249882 -0.077042 0.002958 -0.285906 -0.080691 -0.084864 0.021998 0.067633 -0.118854 -0.062039 0.048074 -0.020516 -0.075233 0.010496 0.171693 -0.335991
GAR 0.098296 -0.007268 0.260433 0.273329 -0.085488 -0.459069 0.304249 0.114485 -0.006233 0.177629 0.002545 0.313007 -0.061223 -0.166918 0.040638 -0.275353 0.188837 -0.065138 0.108884 -0.231495 0.040902 0.188819 0.158443 -0.031903 -0.097399 0.110119 0.077532 -0.084732 0.008581 -0.059136 -0.191570 -0.203725
SILA3~A -0.012473 -0.267576 -0.159968 -0.022847 -0.161051 -0.014922 -0.269255 -0.235648 0.233063 0.238871 -0.318037 -0.238714 0.165299 -0.040585 0.288232 0.156151 -0.149122 0.258252 0.111173 -0.068885 0.123603 -0.344445 0.014149 0.016561 0.019848 -0.146179 0.076924 -0.132306 0.076231 0.121991 -0.000262 -0.188941
ZATU762~A 0.293785 0.003776 0.453752 0.149003 0.115989 -0.158495 0.004306 0.027620 -0.118583 -0.080086 -0.224626 0.224037 0.464539 0.153195 0.332189 0.023527 0.136060 -0.082254 0.008503 -0.048702 0.028306 0.060984 0.181274 0.116875 -0.141192 -0.031147 -0.054688 0.024958 0.123421 0.181080 0.016533 -0.152830
ERIN 0.005881 0.193411 0.226402 0.253973 0.089141 -0.090177 0.063333 -0.397115 0.007795 -0.099719 0.336947 0.238561 -0.217732 0.037154 0.019898 -0.097787 0.113300 -0.246804 0.097386 0.058895 0.242469 0.012870 -0.159718 -0.083925 -0.040282 0.197584 -0.141039 0.225191 -0.026720 0.212472 -0.098325 -0.291222
MUSZEN -0.081519 -0.389755 0.111435 -0.162857 -0.135068 0.250560 -0.207340 -0.007980 0.054607 0.160927 -0.199742 0.096751 -0.449587 0.011710 0.220088 -0.174009 0.259945 0.162939 0.092745 0.007684 0.072724 0.008714 0.149293 0.054528 0.229386 0.039657 -0.002174 0.110398 -0.070453 -0.130316 0.075295 -0.303153
ZATU659 0.029136 -0.128207 -0.312695 -0.120486 0.260706 0.169796 0.213714 0.114977 -0.286318 0.152061 0.000468 -0.066366 0.094014 -0.270233 0.030308 0.144327 0.097480 -0.153438 0.112111 0.205944 0.026892 -0.218678 0.166972 -0.029410 0.169893 0.114944 0.232752 0.282923 -0.007201 0.219835 0.074223 -0.325746
I 0.023059 -0.202822 -0.071548 0.117140 0.101914 0.159580 0.323884 -0.154216 0.170429 -0.103600 0.176949 0.278001 -0.081391 -0.044992 0.205382 0.034582 -0.182846 0.045860 -0.033623 -0.140110 -0.353868 0.157895 -0.188686 0.143570 -0.168315 0.200509 0.380866 0.107334 0.000763 0.209388 0.026597 -0.205485
SZAGAN -0.129006 -0.185068 0.311272 -0.049929 0.016138 -0.034757 0.010950 -0.073446 -0.046856 0.147284 -0.464578 0.004914 0.199411 0.061279 -0.060425 -0.348654 0.004067 -0.068590 -0.265476 0.069971 -0.161539 0.055382 -0.169194 -0.118893 0.160635 0.247637 -0.099804 0.003993 0.214430 0.207454 0.023122 -0.309176
ERIM~A -0.013511 0.130502 0.280351 0.201458 0.212478 0.132529 0.003988 0.181502 -0.283589 0.282150 -0.211197 0.171437 -0.043420 -0.356457 -0.195423 0.099972 0.124345 0.190892 -0.273893 -0.041656 0.081763 -0.004550 -0.106792 0.045854 -0.191409 0.137768 0.056401 0.226444 0.063773 -0.020617 -0.016121 -0.305095
NAMESZDA 0.011100 0.181739 -0.041389 0.064369 -0.084752 -0.186757 -0.155833 0.043854 -0.091135 -0.040587 0.127963 0.231777 0.047645 -0.148441 0.037445 0.112444 -0.061074 -0.035956 0.089660 0.408922 -0.001918 -0.117168 -0.145578 -0.059304 0.151831 0.116072 -0.358570 0.040145 -0.524045 0.155458 -0.018594 -0.299596
AB~B -0.007100 -0.079458 -0.267755 0.150604 0.290063 0.269874 0.230426 -0.090068 0.041997 -0.187945 -0.044307 -0.007908 0.140052 0.044821 -0.215481 0.335175 -0.216350 -0.027057 -0.158768 -0.059297 -0.017868 0.356479 0.073614 0.079037 0.173336 0.108841 -0.102345 0.081718 -0.361393 -0.045200 0.095259 -0.213266
GURUSZ~A 0.103098 0.081741 0.341071 -0.205903 0.495123 -0.077841 0.178415 0.030716 0.107941 -0.180751 0.374824 -0.154684 0.059323 0.150639 0.170880 0.118660 0.008772 -0.184511 0.187495 -0.055802 0.055252 -0.147873 -0.028823 0.203214 0.088436 -0.070590 -0.161464 0.131124 -0.028962 0.163342 -0.028771 -0.194675
URI 0.014337 0.084794 -0.271273 0.194430 0.004976 -0.168295 -0.063506 -0.153442 0.172141 0.001714 0.065368 0.001178 0.108609 0.103659 0.035745 0.054208 -0.311331 0.102587 0.061118 -0.095469 -0.108002 0.029822 -0.090257 -0.202616 -0.062024 -0.343011 -0.292836 0.047106 -0.532095 0.265843 0.052859 -0.128446
NUNUZ~C -0.074535 -0.089843 -0.037183 0.112970 -0.205824 0.089152 0.328638 0.208299 -0.066537 0.084218 -0.144942 -0.140226 -0.019898 -0.093589 0.239283 0.256427 -0.165566 0.341185 0.001508 -0.132148 0.125085 0.082830 0.046204 0.113467 -0.038061 -0.128949 0.021488 0.176509 0.124996 -0.332829 0.335975 -0.313678
UMUKU3~A -0.040083 -0.240979 0.256756 0.223399 -0.002191 -0.203639 -0.149856 0.092797 -0.063605 -0.244076 -0.275090 -0.227699 -0.205846 0.031336 0.157326 -0.078333 -0.026651 0.070378 -0.286673 0.093804 -0.185661 -0.321088 0.155799 -0.083454 0.223813 -0.068368 0.052389 -0.198556 0.157641 0.245764 0.162305 -0.112201
SZAM2 0.007501 0.007727 0.062027 -0.029630 -0.064337 -0.247936 -0.071406 0.106542 -0.061691 0.064544 -0.027008 0.051945 0.263269 0.114032 0.117824 -0.366768 -0.252350 -0.063390 -0.243862 -0.263313 0.123371 0.071310 0.248874 0.078114 0.473664 0.143956 0.007300 -0.198360 0.061512 0.221981 0.062659 -0.211349
|KA2XLAM| 0.187893 -0.298291 -0.162879 -0.225781 0.060470 -0.369638 -0.083529 0.063845 0.039781 -0.066563 -0.346929 -0.339340 -0.204710 0.053957 0.028433 0.049620 -0.251452 -0.106833 -0.100540 0.151599 -0.009443 0.081045 -0.012900 -0.023131 -0.135262 0.042960 0.012399 -0.121389 0.137637 0.382533 -0.066818 -0.193379
KINGAL -0.224782 0.335544 0.028702 0.016523 0.063602 -0.145776 0.315097 -0.388064 -0.012017 -0.069924 0.226405 -0.048013 0.253956 -0.144015 0.288597 0.078967 0.147905 -0.094294 0.268754 0.167765 0.181822 0.033348 -0.033357 0.265966 -0.001985 -0.032007 -0.137928 0.174003 0.052262 0.165604 0.077654 -0.059803
GA2~B 0.007214 0.077160 0.095609 0.155401 0.461600 0.348268 -0.137211 -0.136394 0.016319 -0.101874 0.251651 -0.050960 -0.083933 0.263597 0.125663 0.083883 0.189491 -0.223958 -0.068808 -0.181293 0.311019 -0.280528 -0.179101 0.036071 0.078254 -0.049175 -0.056240 0.205847 0.088522 -0.001222 -0.067622 -0.118412
E2~B -0.080120 -0.307002 0.025808 0.036467 -0.067593 -0.078313 -0.401250 0.042385 -0.192101 -0.065756 -0.133971 0.028781 0.109858 -0.024879 0.137141 -0.150217 -0.143302 -0.027363 -0.093513 -0.044356 -0.276526 0.055293 0.070134 0.018088 -0.135415 0.035721 0.332028 0.048471 0.089846 0.404638 0.173855 -0.398459
GI6 -0.119119 0.152323 0.137198 -0.146354 -0.073310 0.038951 0.148387 -0.150269 -0.180534 -0.310089 -0.076697 -0.379382 -0.251572 0.108545 -0.126933 0.070205 0.156123 -0.206142 -0.134129 -0.171676 -0.265388 -0.038806 -0.161529 0.113700 -0.128493 -0.023085 -0.117709 -0.255582 0.193539 -0.171403 0.197836 -0.262141
UKKIN~A -0.027346 0.017182 -0.114841 0.205324 -0.234148 0.388531 0.224594 0.091185 -0.079969 0.195158 0.154801 0.404617 -0.251579 -0.101997 0.051886 0.061283 -0.316406 0.077264 -0.067092 -0.187558 0.203460 -0.113939 -0.053482 0.046736 -0.051692 -0.068944 -0.085955 0.073687 -0.061437 0.006523 -0.109214 -0.354395
ZAG~A -0.283005 -0.181201 0.149605 0.024351 -0.096793 -0.038400 0.016619 0.233601 -0.033191 -0.492365 0.244823 -0.095444 -0.047815 -0.130406 -0.129072 0.101686 -0.023680 -0.232793 -0.191833 0.038950 -0.135948 0.165693 0.128279 0.038720 0.128042 -0.064181 -0.152657 -0.192347 -0.188906 0.329733 0.057491 -0.232500
LAGAR~A 0.063469 -0.207889 -0.209204 0.019569 -0.358269 -0.097066 0.214193 0.330051 0.094864 0.052437 0.314704 -0.123480 0.048429 0.107948 -0.272849 0.185868 0.295122 -0.243129 0.028592 0.181203 0.155540 -0.223488 0.005013 -0.208244 -0.005155 0.069009 0.020327 0.098006 0.109610 0.131593 0.023752 -0.157779
ZATU647 -0.221331 0.085801 0.182035 -0.128001 -0.130094 -0.264896 0.023872 0.117288 -0.276098 0.268509 0.260893 0.025633 0.283868 -0.128943 -0.121100 -0.155277 -0.261460 0.171909 0.079926 -0.164050 -0.104985 0.035213 -0.192454 0.241846 0.035564 0.222599 -0.070547 -0.025922 0.060556 0.260689 -0.003230 -0.269389
ZATU628~A 0.017195 -0.102439 0.151696 -0.174833 0.030221 0.291909 0.214170 0.121036 0.062367 0.103925 0.165678 0.165914 -0.200510 -0.032059 0.066665 0.169041 -0.227723 0.209729 0.352152 -0.146319 0.111701 -0.487548 0.085554 0.109008 0.077296 -0.081388 -0.043381 -0.004280 -0.204091 0.086321 0.074111 -0.255597
NE~A 0.124604 -0.234212 0.121760 -0.130529 0.014413 -0.019080 -0.285728 -0.000118 0.007697 -0.358070 -0.155836 -0.409376 -0.037343 -0.042598 -0.078267 0.228440 -0.143025 -0.074456 0.067273 -0.201789 -0.106373 0.131504 0.170667 0.181007 0.028428 -0.255340 -0.023599 -0.317036 -0.092558 0.117467 -0.045374 -0.283960
ZATU753 -0.075176 0.104059 -0.159297 -0.046937 0.187093 -0.044800 0.028319 -0.011431 0.069691 0.006714 0.278787 -0.054715 -0.107802 -0.012181 0.095472 -0.004010 -0.107684 -0.244624 -0.059164 0.059143 0.349289 -0.238637 -0.437835 0.108271 0.211080 0.146601 -0.208683 0.256637 0.034955 0.054037 -0.190615 -0.367067
|ZATU651XEN~A| 0.148500 -0.151551 -0.382167 -0.323740 -0.185341 -0.257188 -0.161756 -0.072800 0.236346 0.011813 0.184464 0.000415 0.064451 0.301923 0.048418 0.004406 -0.078790 0.020031 0.068180 -0.019126 0.148323 0.144268 -0.318250 0.048234 -0.190599 0.171489 0.085569 -0.178399 0.082577 0.280632 -0.104172 -0.158437
DIM~B 0.210704 -0.103216 0.017327 0.298421 0.093024 0.000708 0.085499 0.021165 -0.217699 0.008367 -0.228781 0.126569 0.182818 -0.004728 0.101998 0.000406 -0.091435 -0.090952 -0.059411 -0.063884 0.124986 0.268444 0.222489 0.100280 -0.324039 0.043809 -0.063605 0.104479 0.146654 -0.235289 0.530858 -0.165731
|ZATU737XDI| -0.224782 0.335544 0.028702 0.016523 0.063602 -0.145776 0.315097 -0.388064 -0.012017 -0.069924 0.226405 -0.048013 0.253956 -0.144015 0.288597 0.078967 0.147905 -0.094294 0.268754 0.167765 0.181822 0.033348 -0.033357 0.265966 -0.001985 -0.032007 -0.137928 0.174003 0.052262 0.165604 0.077654 -0.059803
GISZIMMAR~B1 -0.066180 0.085481 0.064263 -0.493806 0.173898 0.126024 -0.061445 0.092518 -0.128916 0.249385 0.068676 -0.208787 0.163102 0.047299 -0.257540 0.042408 0.147031 0.123501 -0.108519 0.003054 0.077292 -0.097426 -0.105903 -0.534718 -0.014032 0.124928 -0.000346 0.006755 0.084976 0.157380 0.130574 -0.177892
PIRIG~B1 -0.112941 0.379085 0.240948 0.026444 -0.266452 -0.305512 0.141238 -0.075634 -0.157186 0.054199 -0.138473 -0.385900 0.035747 -0.110910 0.077951 0.139517 -0.188324 -0.083516 0.174592 0.002565 -0.264425 -0.047919 -0.045322 0.043348 -0.025761 -0.029614 -0.249762 0.094059 -0.026699 0.123217 0.022556 -0.348812
ZATU762~B -0.069129 0.407196 0.084452 0.270384 0.178853 0.322668 0.052064 -0.216692 0.065052 -0.114071 0.157115 0.071454 0.119779 -0.229937 0.171382 0.267249 0.190197 0.174560 -0.036377 0.073202 0.244893 -0.087966 -0.055482 0.151259 0.000243 -0.109264 -0.151851 0.235696 0.246971 0.019258 -0.104292 -0.136269
|ZATU651XGAR| -0.065380 -0.023467 -0.218646 0.083996 0.472695 0.054408 -0.047019 -0.079523 0.152183 -0.081103 0.157686 -0.177352 -0.086694 0.231420 0.013187 -0.057564 0.052427 -0.203063 0.016241 -0.172976 0.284532 0.010404 -0.119256 0.121056 -0.114650 0.039362 -0.252555 0.109233 0.145602 -0.201958 0.452719 -0.115331
|U4XKASZ~B -0.062296 0.171817 0.006524 0.024611 -0.211742 0.297629 -0.028216 0.168164 0.035245 -0.138731 0.180197 0.164922 -0.135692 0.154680 -0.035948 0.001840 0.105727 0.276991 0.038955 -0.101843 -0.038436 0.068115 -0.445478 0.008159 -0.060562 0.251368 0.243191 -0.173108 0.039467 0.376751 0.250098 -0.115016
SU~A -0.064714 -0.077797 -0.241655 -0.003081 0.240540 -0.137957 -0.148646 -0.090459 0.156032 0.132657 -0.041664 -0.357765 0.239064 -0.170223 -0.148329 -0.065194 -0.162565 -0.046594 0.132180 -0.224855 -0.089702 0.107059 0.063977 -0.066818 -0.068920 -0.082962 0.152823 -0.184016 -0.166611 0.420651 -0.151810 -0.344719
TUG2~C 0.288771 -0.232431 -0.058139 -0.154042 -0.315988 0.047674 0.146109 -0.262553 0.122645 -0.145045 0.182811 -0.053023 0.500912 0.285088 -0.094453 0.197473 0.153402 0.033690 0.149869 0.130991 0.211879 0.023189 -0.157844 -0.001189 0.126639 0.144517 0.043556 -0.085578 -0.021100 -0.029088 -0.051800 -0.076866
GUM~B -0.015429 0.033670 0.132069 0.037750 0.067463 0.141714 0.194290 -0.085885 -0.159458 0.250428 -0.261389 -0.067292 0.129749 0.120996 -0.319047 -0.314824 -0.036661 0.263073 -0.099682 0.150148 -0.086573 -0.358459 -0.205637 -0.120703 0.125890 -0.113231 0.020877 -0.363935 -0.100150 -0.000443 0.141660 -0.170591
GISZ 0.016375 0.195183 -0.129740 0.051914 0.007357 0.072954 0.071143 0.054259 0.044309 -0.129477 -0.027282 -0.092238 0.017805 -0.031582 0.365791 0.130360 -0.028760 -0.150451 -0.196652 -0.081715 -0.419600 -0.308811 0.012206 -0.329413 0.075822 0.345864 -0.029251 -0.033901 0.108380 -0.365826 -0.059246 -0.152550
NIM~A -0.395950 0.215631 0.192512 0.184291 -0.061020 -0.094402 0.124785 -0.284860 -0.311916 0.084351 0.056877 -0.154610 0.006368 0.030657 0.172571 0.062192 0.252408 -0.089315 -0.021628 -0.235038 0.130725 -0.113363 -0.300703 -0.080857 0.080540 0.067780 -0.017616 0.031273 0.182000 0.135028 -0.069667 -0.356791
DUG~D -0.351657 -0.251833 0.080730 0.064282 -0.204904 -0.119262 -0.451268 0.021167 0.233105 0.210908 -0.109798 -0.098037 0.129986 -0.053829 0.229463 0.187912 -0.195857 0.125751 -0.071190 0.045559 0.323450 -0.086722 -0.051836 0.271024 0.009558 -0.035613 -0.042829 -0.158155 0.152408 -0.045661 0.004638 -0.102872
SZITA~A3 -0.025774 0.245070 0.017437 0.051848 -0.216513 0.269143 -0.010791 0.227182 0.143714 0.119253 -0.169144 -0.222033 -0.099852 0.084157 -0.013104 -0.127734 -0.310125 0.074021 0.438653 -0.312598 0.101446 -0.339930 0.078145 -0.013722 0.105672 0.053181 -0.051895 -0.034066 -0.127458 0.159928 0.045341 -0.182375
KISAL~A1 -0.093675 0.026739 -0.100919 0.142384 0.174100 -0.032603 0.178984 -0.019154 0.065655 -0.065215 0.377259 -0.308748 -0.055474 0.092226 0.055144 0.067952 0.227844 -0.515540 0.120982 0.070121 0.240235 -0.174218 -0.236336 0.187416 0.085860 -0.059626 -0.075935 0.186049 0.097593 0.201592 0.024498 -0.111619
HI@G~B -0.081259 0.135684 0.292783 -0.398401 0.098740 0.286258 -0.148619 0.055449 -0.150957 0.252611 -0.275587 0.102453 0.185365 -0.059310 -0.367445 -0.067966 0.150872 -0.072362 -0.124572 -0.079020 -0.003967 -0.136909 -0.332617 -0.061582 0.074576 0.034197 -0.078028 -0.146134 -0.043054 0.100109 0.174586 -0.060418
SAR~A 0.167363 0.097817 0.269809 0.392257 0.058255 -0.095593 -0.151572 0.067093 -0.303891 0.127297 -0.000520 -0.087797 0.136763 -0.115711 -0.321797 -0.045053 -0.266724 0.028748 0.124796 -0.135907 -0.032653 0.143447 -0.143797 -0.003421 -0.227612 -0.005913 -0.135089 -0.050117 -0.061570 -0.069173 0.382679 -0.256603
BARA2~A -0.239520 0.065221 0.100944 0.184740 -0.023116 0.273421 0.083926 -0.321351 -0.174774 0.146780 0.074187 0.024472 0.031721 -0.119380 0.348074 0.232973 0.433852 0.306300 0.105028 -0.030000 -0.021225 -0.238452 -0.038383 -0.017599 -0.099530 -0.009661 0.012918 0.183567 -0.044996 -0.043847 -0.103633 -0.218976
GIR2~A -0.072096 0.195670 -0.084783 -0.202249 -0.122367 -0.090772 -0.245958 0.397310 -0.017073 0.023115 -0.173869 -0.263334 -0.185656 0.153524 0.213619 -0.129133 -0.080884 -0.065146 -0.019870 -0.241997 0.207399 0.263126 0.035543 -0.023701 0.231921 0.100701 -0.000457 -0.284888 0.010148 0.046739 0.155969 -0.300983
NU11 -0.129911 0.168461 0.192710 -0.212975 -0.106880 0.183578 0.018583 0.303116 0.137354 -0.114631 0.022516 -0.261948 -0.096958 0.176997 -0.149337 0.357282 -0.062525 -0.230311 -0.017338 0.095459 0.078753 -0.150925 -0.099470 0.071337 0.160100 -0.074127 -0.121086 -0.125358 -0.279518 0.359975 0.176954 -0.179530
BAR 0.061081 -0.081976 0.323147 -0.230979 0.276703 -0.001410 0.167188 0.198611 -0.315647 -0.166327 0.195088 -0.255015 -0.064095 0.133533 0.166563 -0.008490 -0.069622 -0.138323 -0.064404 -0.164563 -0.132475 -0.287033 0.100215 0.120524 0.173171 0.043695 0.114606 -0.270648 0.113293 -0.030867 -0.178114 -0.253287
DU8~C@G -0.039020 -0.435379 0.071458 -0.172603 0.146601 -0.367838 -0.052309 0.083522 0.034181 -0.275037 0.056847 -0.029321 0.137308 0.262025 0.132649 -0.047899 -0.278963 -0.037701 -0.270521 -0.071859 -0.152985 -0.120072 -0.121578 0.191494 -0.025275 0.165079 -0.091346 -0.149597 0.211617 0.148077 -0.108049 -0.188026
|NINDA2XGU4| -0.070110 0.069844 0.083358 0.093773 -0.036046 -0.086989 0.029552 0.025435 0.088755 -0.004716 0.132062 0.002192 -0.017558 0.029091 0.136713 0.131523 -0.104681 0.050824 -0.235449 0.240733 -0.145477 0.273249 -0.109592 -0.064755 0.008283 -0.188513 -0.458644 0.076371 -0.617976 0.142481 0.041949 -0.082945
GU7 0.356298 -0.208080 -0.194767 0.001367 0.099281 -0.342070 -0.310324 0.071868 0.207103 0.243671 -0.103486 -0.055554 -0.011384 -0.061349 0.072007 -0.232914 -0.011713 0.080184 -0.155371 0.066353 0.210347 0.056787 -0.053574 0.186587 0.020574 0.361950 -0.021950 -0.002867 0.108172 0.079636 -0.294059 -0.165509
NA~A 0.415280 0.027476 -0.079599 0.139406 -0.013597 -0.081422 0.022855 -0.095146 -0.328650 -0.104522 -0.197491 0.182931 -0.291807 0.091436 0.055481 0.049362 0.041352 -0.134034 -0.071565 0.169542 -0.113260 -0.081749 0.106868 0.137137 0.168170 -0.200022 0.358045 -0.050217 -0.144988 -0.095804 0.122055 -0.383164
SA~C 0.044879 0.374194 0.159057 -0.279449 0.113924 -0.053930 0.043773 -0.180880 0.013104 -0.102315 0.274636 0.001387 -0.258528 0.137499 -0.007149 -0.434014 -0.168252 0.103027 -0.082287 0.206967 0.059261 -0.175988 0.088161 -0.209175 -0.141129 -0.123605 0.218541 -0.087422 -0.153869 -0.109050 -0.084327 -0.189756
DI -0.380390 -0.041417 -0.062620 0.222949 -0.080202 0.111083 -0.149198 -0.058694 0.348717 -0.314003 -0.003726 0.170351 0.026541 -0.118906 -0.293228 -0.371373 -0.185894 -0.073001 0.064483 0.146204 -0.139854 -0.121499 0.057339 -0.167332 -0.162679 -0.072582 -0.057573 0.092899 0.184156 -0.008690 -0.081092 -0.228549
SZA3~A2 -0.155204 -0.060913 -0.133628 -0.120670 0.172120 0.013862 0.321038 -0.115335 0.266566 0.129927 0.158822 0.092552 -0.160147 -0.023819 0.310348 -0.060153 0.272970 0.045701 0.031448 0.016527 -0.118804 -0.040804 0.035343 0.173725 -0.115570 0.014898 -0.283449 0.240160 -0.311790 -0.008579 0.342277 -0.233688
DUG~C -0.060878 -0.077986 -0.027272 -0.077408 0.058072 -0.397660 -0.448289 0.095475 0.272061 0.135535 -0.110623 0.071123 0.146733 0.139617 0.232209 -0.050409 -0.265505 -0.208944 -0.238001 -0.019568 0.221434 -0.171761 -0.201795 0.178046 -0.018273 0.104177 -0.007408 -0.005001 0.128787 0.134612 -0.114940 -0.152990
UR3~B1 -0.083324 0.224508 0.249768 0.357066 0.074605 0.357193 -0.075587 -0.119120 0.239101 -0.108351 -0.073400 -0.018295 0.105198 -0.032869 0.225903 -0.057630 0.055083 0.070406 0.465463 -0.099312 -0.073877 -0.204193 0.231257 -0.022826 -0.177227 -0.111563 -0.020257 -0.128619 -0.072728 0.059822 -0.172786 -0.152937
GADA~A 0.131718 0.149870 0.201712 -0.395270 0.027499 -0.020257 0.005719 -0.127100 -0.290543 0.156855 0.071952 0.029573 -0.305941 -0.410873 0.284623 0.006518 0.050902 0.029247 0.254821 0.009013 -0.033189 -0.232515 -0.158363 -0.033403 0.059765 0.025454 0.088531 0.098559 -0.125522 -0.077204 -0.069826 -0.298640
SUKUD 0.121240 0.107916 -0.218366 0.259357 0.007402 0.038269 -0.030432 -0.144319 0.081941 -0.009724 -0.095034 -0.259278 0.190417 -0.154244 0.065306 0.006541 -0.239742 0.191505 0.366772 -0.262954 -0.175123 -0.363262 0.141079 -0.265717 -0.024571 -0.240180 0.013543 -0.037527 -0.056042 0.244274 0.100515 -0.065265
GU4 -0.109886 -0.539873 0.206448 -0.025410 -0.050601 0.202765 0.124594 -0.012256 0.099866 -0.257298 -0.015113 -0.058946 -0.263263 -0.002029 0.182735 -0.092321 -0.173830 -0.026653 -0.240637 -0.206018 0.312355 -0.055497 0.035347 0.038115 -0.019955 0.062292 -0.243586 -0.112936 0.212911 -0.021865 -0.081826 -0.198108
SUM~A -0.217406 -0.014583 -0.050575 -0.044395 0.225975 -0.087357 0.302045 -0.055692 -0.231154 0.016881 0.093516 0.119266 0.339280 0.120567 0.004527 0.084526 0.062595 0.303258 0.245235 -0.115673 -0.294394 -0.190577 0.109259 0.155260 0.121136 0.237571 0.080945 0.056302 -0.195878 -0.153612 -0.230106 -0.239334
GA'AR~B1 -0.257359 -0.130258 0.103971 0.430104 -0.186238 -0.008149 0.269423 0.237225 -0.028782 0.060507 -0.104323 0.382082 0.124252 -0.066955 0.136261 0.297506 0.054370 0.039497 -0.098127 0.141436 0.252653 0.043035 -0.035584 -0.190567 -0.050577 -0.028049 0.209024 -0.026423 0.110530 -0.034908 0.241628 -0.109802
DA~A 0.433824 0.008401 -0.051992 -0.289594 0.114529 0.186077 -0.207348 0.352763 -0.159800 0.257685 0.192656 0.055655 0.000918 0.078591 0.209654 0.047158 0.100733 0.000070 -0.035267 0.314694 0.105858 0.003376 0.191894 -0.008071 -0.069131 -0.242642 0.193449 0.072161 -0.049259 0.007389 -0.052742 -0.235369
SZAB~A 0.148780 0.267500 -0.156574 0.034785 -0.213914 0.085068 -0.153746 -0.193954 0.312814 -0.116091 -0.167454 0.349892 -0.188819 0.191792 -0.053764 -0.104099 0.153219 -0.079188 -0.119886 0.070579 -0.264945 0.172224 0.134775 0.125953 -0.087997 -0.109073 -0.189906 0.162509 -0.327933 0.136193 -0.031243 -0.161886
|GISZXSZU2~B| 0.186635 -0.057867 0.007694 0.219281 -0.236734 -0.010981 0.069284 0.212530 0.115767 0.092752 0.232722 -0.103639 0.190248 -0.339117 0.058968 -0.007041 0.045313 -0.505578 0.123647 0.195118 -0.055662 -0.279783 -0.270656 -0.213399 0.107953 0.108895 0.043336 0.073312 -0.083044 0.044568 -0.004959 -0.122679
SAR~B -0.120601 0.412548 0.052386 -0.247680 0.014403 0.363881 -0.171088 0.132521 0.059611 0.032328 -0.263575 0.108576 -0.088441 0.228836 0.016540 0.214056 -0.031480 -0.023124 0.043981 -0.076071 0.284478 -0.170911 -0.165153 -0.016410 0.213071 0.003931 0.103509 -0.226821 -0.111770 0.212885 0.246524 -0.080537
NANSZE~A 0.037935 -0.001271 0.089420 -0.500244 0.136211 0.058635 0.567229 0.005428 -0.069549 0.065179 0.271057 -0.039337 0.056338 0.159513 0.002024 0.151510 -0.158021 0.094406 0.196243 -0.082385 -0.051467 -0.299471 0.168641 0.128183 0.013280 0.027926 0.050100 0.060558 -0.101884 0.136345 0.005013 -0.091399
SZITA~B2 0.029124 0.064072 -0.030934 -0.069265 0.054126 -0.149701 -0.137829 0.082914 -0.084139 -0.311409 0.165417 0.150917 -0.047465 0.194885 0.140728 0.132710 -0.095186 0.065776 0.020313 0.058496 -0.326048 -0.241241 0.131361 -0.185617 0.279532 0.514328 -0.106023 -0.249076 -0.034873 -0.179403 -0.119790 -0.095393
UR4~B -0.139928 -0.241835 0.402759 -0.335757 0.020984 0.123140 0.037578 -0.175128 -0.202434 0.228822 -0.132829 -0.177270 0.234607 0.145976 -0.251788 -0.322260 -0.197310 0.016164 -0.113325 0.005789 -0.160608 -0.140645 -0.061109 -0.132264 0.078896 0.151452 -0.126399 -0.097009 0.051197 0.035688 0.076604 -0.173528
|SZU2.EN~A| -0.125480 0.482983 0.022110 -0.110762 0.064919 -0.027830 0.049136 -0.033823 -0.125599 -0.017986 0.067766 0.120474 0.183605 -0.313349 0.048899 -0.016980 -0.014542 -0.293037 0.053069 -0.042573 0.348565 -0.030516 -0.057704 0.167617 0.370720 0.047948 0.086799 -0.144247 -0.064665 0.313718 0.159928 -0.138129
IB~A 0.563182 0.070575 0.227779 0.084418 0.383917 -0.045193 -0.022213 0.003897 0.167056 0.001150 0.096744 -0.040443 -0.081638 -0.432289 -0.161485 0.057982 0.061319 0.009571 -0.079659 0.083261 0.334239 0.004204 -0.041532 -0.001043 -0.052331 0.072174 -0.048104 0.116507 0.031937 0.031327 -0.162375 -0.155622
ZATU686~A 0.481778 0.333682 0.070434 -0.080823 -0.050096 0.334063 -0.243139 0.112049 0.173661 -0.026756 -0.158412 0.250786 0.112055 0.372987 0.092550 -0.143230 0.003713 -0.182343 0.075673 0.053278 0.013749 0.080866 -0.120698 0.063749 0.206209 0.039562 -0.020129 0.053753 0.152592 -0.010578 0.065893 -0.131709
|NIR~AXAN| -0.185416 0.357795 -0.123647 0.088641 -0.098934 -0.306371 -0.046565 -0.029604 -0.259380 0.115588 0.057325 0.049732 0.033086 -0.200314 -0.241824 0.081795 -0.257879 -0.326421 0.211712 0.228102 0.051235 -0.117233 -0.124998 0.332188 -0.086725 0.190746 -0.054061 0.123056 0.013838 0.142384 -0.060558 -0.128934
SI4~A -0.288997 0.175718 0.016679 0.079054 -0.068159 -0.325660 -0.421522 0.286179 0.174874 0.148464 -0.238731 -0.008645 0.118206 -0.141307 0.148960 -0.072900 -0.028234 -0.081481 0.020507 -0.263218 0.029926 -0.038556 0.093366 -0.024350 0.197926 0.067262 0.188283 -0.262475 0.008136 0.144992 -0.097957 -0.264770
GA~A -0.171118 0.372530 -0.133708 0.039250 -0.170001 -0.353628 -0.045934 0.089534 -0.087526 0.128472 0.006195 -0.086906 -0.009191 0.103723 0.277111 0.079595 -0.022631 -0.317432 0.054811 -0.039198 0.104117 0.168625 -0.131402 0.327942 -0.065556 0.109476 -0.128370 -0.016914 0.249140 0.160192 -0.203076 -0.301321
NI~A -0.033799 0.221195 0.151319 0.065288 -0.261656 0.098776 0.067766 0.013943 0.117088 -0.014137 -0.288168 0.471839 0.014815 -0.021064 -0.106487 0.168680 0.330102 -0.036554 0.158346 0.015848 0.205994 0.163437 0.079338 0.051847 0.011824 -0.107072 0.239744 0.095222 -0.069784 -0.312836 0.009279 -0.291545
NUN~B 0.173707 -0.210025 0.069126 0.088136 0.157586 -0.103091 0.041526 0.019859 0.062435 -0.160870 0.230515 0.036491 -0.057198 0.278883 -0.153692 -0.097296 -0.010304 -0.292742 -0.184929 -0.081947 0.510226 -0.026659 -0.218619 -0.048433 -0.176501 0.180586 -0.179454 0.025913 0.257705 0.107690 -0.056502 -0.247926
IR11 0.262088 -0.096914 -0.249993 -0.123397 -0.056817 0.213256 0.701222 -0.279066 -0.192529 0.078743 0.040393 0.026893 -0.097636 0.029317 0.054792 -0.087424 -0.096774 0.094957 0.047543 0.045330 0.073178 -0.052262 0.225487 0.032647 0.092308 0.132579 0.118457 -0.001608 -0.000719 0.150214 -0.051251 -0.105926
GA... 0.016492 -0.050527 -0.179964 -0.039498 0.100128 -0.019163 -0.011653 0.009207 0.206014 0.048934 0.058719 -0.126725 0.008320 -0.094840 -0.047592 -0.083801 -0.092224 0.036306 0.101271 -0.038316 0.114791 0.218033 0.097240 0.106836 -0.274035 0.127845 -0.246751 0.010993 0.112144 -0.397295 0.657495 -0.107803
TUG2~A@G 0.077011 -0.305214 -0.112591 -0.316002 0.193857 -0.153825 0.301827 0.055578 -0.242105 0.173579 0.060618 0.324680 -0.207615 -0.186488 0.161100 0.216572 -0.084966 0.029643 0.103707 0.073390 -0.081640 -0.453506 0.058298 0.049907 -0.051953 -0.037612 0.049214 0.042639 -0.066608 0.063687 0.130108 -0.090212
U2~A 0.139738 -0.188935 -0.055901 -0.166117 -0.156842 -0.454880 -0.253204 0.230313 -0.119006 0.239950 -0.272388 -0.017910 -0.022710 -0.029196 0.340416 -0.013040 -0.093313 0.047808 -0.000258 0.136477 0.166494 -0.162065 -0.194218 -0.069987 0.031752 0.229616 0.138959 -0.111620 0.103865 0.093436 -0.072538 -0.255356
NAGAR~A 0.092562 0.189695 0.076675 -0.289550 0.340367 0.114048 0.003819 0.196851 0.112805 0.178730 -0.433168 0.279446 -0.104142 0.047139 0.048440 0.153298 0.114672 -0.148265 0.150250 -0.171805 0.165193 -0.139343 -0.223507 -0.025212 0.007870 0.056944 0.059885 -0.077579 -0.159278 0.261983 0.100425 -0.217441
UNUG~A 0.029493 0.060176 0.092352 0.027722 -0.149687 0.114472 -0.033034 -0.029714 0.139787 0.173294 0.316185 0.199118 -0.076142 -0.067331 -0.169874 0.436883 -0.322423 0.263167 -0.343030 -0.215753 0.127941 -0.124231 0.042570 0.017767 -0.003872 -0.069252 -0.148062 -0.023996 0.308030 0.008295 -0.145502 -0.121189
UH3~B -0.072813 0.083268 -0.106816 -0.050809 0.053104 -0.028259 -0.072362 0.057312 -0.088277 0.013708 0.238478 0.096873 -0.001164 -0.350430 -0.017177 -0.105010 0.110817 -0.194965 -0.186906 -0.225018 -0.013303 0.235306 0.418026 0.101520 0.465381 -0.094437 0.153702 -0.313686 -0.047220 0.109420 0.100141 -0.071161
NESAG2~A -0.231904 -0.052629 0.089562 0.149242 0.115861 -0.014259 0.256912 -0.338912 -0.108159 -0.319996 0.120479 -0.131399 -0.062799 0.053427 -0.173871 -0.029552 0.287227 -0.129411 -0.296269 0.003928 0.391714 0.066577 -0.045236 0.040737 0.001219 0.010860 -0.222474 0.049403 0.304380 0.042680 -0.077151 -0.183829
SZE3 0.309117 0.031516 -0.253211 0.271643 -0.211804 0.024879 0.154282 0.238457 -0.109203 -0.017966 -0.140639 -0.137610 -0.206219 0.198131 -0.116010 -0.134398 0.371281 0.101826 -0.220156 0.033264 0.005001 0.081790 -0.205977 -0.001136 -0.079287 -0.122248 0.042883 0.152431 0.006975 -0.165683 0.181349 -0.348580
ZATU675~D -0.342046 -0.285109 -0.123120 0.116935 0.039698 -0.529260 -0.110629 0.166387 -0.181519 0.353272 -0.242481 0.144515 -0.073090 -0.130038 -0.137692 -0.052268 -0.111638 0.150057 -0.031352 -0.112168 0.109703 0.083873 0.010005 0.036680 0.033023 0.263402 0.054271 0.103128 -0.039075 -0.045036 -0.018674 -0.113483
NIR~A 0.407568 -0.108047 0.247787 0.021543 -0.215430 -0.178954 -0.204112 0.164847 -0.098548 0.035609 0.248574 -0.181578 0.119888 0.412510 -0.000817 -0.031951 -0.132628 -0.195357 0.317256 -0.132052 0.160905 0.111122 -0.097484 0.040100 0.051370 0.091255 -0.020086 -0.136863 0.074689 -0.066431 -0.064024 -0.233233
GA2~A1 -0.257926 0.012317 0.271564 -0.002580 -0.150707 0.047500 0.184850 0.197844 0.255072 0.194908 -0.200677 -0.391500 -0.339235 -0.117021 0.022510 -0.034628 0.133639 0.072449 -0.029581 -0.227894 0.111550 -0.005102 -0.000221 -0.068315 0.281497 0.092959 0.216630 -0.032172 -0.052600 0.132224 -0.019277 -0.291017
LAGAB~A -0.039423 -0.356371 -0.166215 -0.357684 0.272892 0.171280 -0.147476 0.001723 -0.258872 0.011090 0.088011 0.238017 -0.009114 -0.132966 0.309023 0.041688 0.123554 -0.091717 0.024192 0.216695 -0.219414 -0.396303 -0.174153 -0.003006 0.055745 0.048491 -0.056856 -0.031156 -0.052588 -0.032181 0.032044 -0.150144
ZATU795 0.163646 0.088637 0.154179 0.071768 0.221738 0.117165 0.007026 -0.028183 -0.366612 -0.015615 0.112316 -0.078339 0.349586 0.198729 0.112519 0.264061 0.179692 -0.145762 -0.279414 -0.002319 -0.105172 0.073117 0.217148 -0.252853 -0.236224 -0.123448 0.069075 0.021463 0.295361 0.148896 0.114441 -0.131621
DIN 0.185750 0.014701 0.038167 -0.335175 -0.133795 -0.067373 -0.084451 0.080570 -0.219056 0.070848 0.334954 -0.132522 0.034342 0.063848 -0.116918 -0.243195 0.095823 -0.331338 -0.169102 -0.097363 -0.378188 -0.026666 -0.204933 0.278073 0.041964 -0.190290 0.034566 -0.192946 -0.083451 0.080617 -0.012018 -0.210912
SIG2~B -0.011584 -0.090704 -0.020692 -0.044124 -0.050680 -0.498033 -0.169863 -0.094884 -0.025008 0.335246 -0.053368 -0.106420 -0.209507 -0.034411 0.241066 -0.198801 0.035296 0.007661 -0.032173 0.251812 0.250647 -0.034311 -0.218698 0.255072 0.149442 -0.067050 -0.071815 0.006501 0.247932 0.076943 -0.121385 -0.272227
|SILA3~AXGARA2~A| 0.209519 -0.211580 0.131888 0.404508 0.078505 0.207957 0.188233 -0.004282 -0.069575 -0.001081 0.091964 0.131375 0.127282 -0.182047 0.140690 -0.292747 0.019806 0.150208 -0.090902 -0.104397 0.059776 0.044994 -0.292115 0.130025 -0.186121 0.260262 0.223856 0.109702 0.068379 0.335046 0.054342 -0.160317
DIM~A 0.259306 -0.238527 0.174536 0.417266 -0.186254 -0.240538 0.254068 0.175169 -0.185934 -0.098910 -0.166513 -0.080845 0.209708 -0.081819 -0.073106 -0.153686 -0.081274 -0.318893 -0.028638 -0.039593 0.001815 -0.162704 0.102193 -0.130755 -0.017473 -0.095386 0.156708 0.157436 0.127662 0.179822 0.086051 -0.213933
ZATU675~B 0.312858 -0.047977 0.187322 0.045902 0.289192 -0.170756 0.124077 -0.126244 0.152498 0.031914 0.120233 0.035806 0.079619 -0.083415 -0.047531 -0.065015 -0.091438 0.098240 -0.356467 -0.212029 0.498176 0.064158 0.153086 0.024144 0.178135 0.142512 -0.160552 -0.028707 0.257565 0.125062 -0.155261 -0.087320
GESZTU~C3 -0.228120 0.095047 0.271204 0.026097 -0.169414 0.249069 0.065997 0.119479 0.026314 0.023249 -0.205109 0.386099 -0.017533 0.108816 0.217580 0.198334 -0.057915 -0.032631 -0.000447 -0.005705 0.385675 -0.040612 -0.018046 -0.126778 0.157453 0.047334 0.234644 -0.198212 -0.040088 0.190152 0.310396 -0.193373
SZE~A@T -0.025596 0.306641 -0.010163 0.076051 0.178830 0.029132 0.099805 -0.052920 0.236855 -0.007883 0.086041 -0.024266 -0.153411 0.177671 -0.064774 -0.208796 -0.176525 0.198136 -0.221409 0.392950 0.086308 -0.025572 -0.087665 0.072290 -0.033056 -0.221753 -0.093071 -0.247656 -0.256331 -0.141327 0.398491 -0.164891
GUG2 0.361216 -0.009565 0.118897 -0.136487 0.227391 -0.063735 0.108595 -0.196042 0.026451 0.099492 -0.026850 -0.071323 0.047467 0.277946 0.140788 -0.362049 0.025368 0.127929 -0.218257 0.314347 0.020559 -0.203406 -0.112809 -0.006062 -0.058516 -0.097582 -0.022578 -0.094601 0.125054 -0.247244 0.281351 -0.295816
UTUA~A 0.175909 0.013349 -0.015327 -0.077464 0.361448 0.333122 -0.005587 -0.051484 -0.235649 -0.019379 0.135106 0.016486 -0.022270 -0.297644 0.120305 0.234383 0.379763 0.099391 -0.187268 0.018033 -0.066036 -0.261287 -0.092103 -0.084836 -0.141802 -0.090928 -0.108664 0.094563 0.218721 0.094579 -0.118900 -0.295915
LU2 -0.012857 0.227246 -0.026541 0.166955 -0.255562 0.104171 0.069199 0.316478 0.086633 0.147834 0.079153 -0.114633 0.030774 -0.185643 -0.110580 -0.095300 0.150310 -0.362845 0.167767 -0.269027 0.004203 -0.171922 0.109237 -0.088302 0.325325 -0.159634 0.192441 -0.217616 -0.085640 0.225696 0.137011 -0.190234
ZATU756 -0.279872 -0.253329 0.018225 -0.073321 0.031819 0.060800 0.102310 0.218467 0.164947 0.055728 -0.017289 -0.157199 0.183957 -0.084319 0.073640 -0.295551 0.552620 0.166331 -0.098482 -0.191263 -0.043681 -0.019903 0.112810 0.141242 0.080385 -0.085786 -0.284204 0.240329 -0.095403 -0.074050 -0.057146 -0.123778
NUNUZ~B1 -0.072001 -0.066355 0.319014 -0.303034 0.069840 0.147820 -0.034558 -0.048837 -0.199207 0.300300 -0.163962 0.046224 0.243251 -0.190529 -0.435097 -0.158910 0.201462 -0.066331 -0.129066 -0.078837 -0.206612 -0.090134 -0.348421 -0.048555 -0.008953 0.033021 -0.155601 -0.108809 -0.036128 0.018298 0.117720 -0.049407
|GI&GI| -0.093645 -0.215672 -0.138382 0.051671 -0.113030 -0.543685 -0.348436 0.116078 0.046965 0.134248 -0.190119 -0.023792 0.245982 0.236885 -0.008667 -0.113673 -0.197771 0.025549 0.029026 0.031821 0.093690 0.083588 -0.135139 0.147974 0.093243 0.092733 -0.160032 -0.055240 0.208838 0.162452 -0.181422 -0.216034
E~A -0.050406 0.216575 -0.360606 0.063598 -0.275370 -0.225922 -0.101609 0.023765 -0.513358 0.092907 0.135574 -0.066797 0.085850 -0.164628 -0.180132 -0.034527 -0.182946 -0.093404 0.229401 0.202457 0.050571 -0.167591 -0.114474 0.180343 0.096090 0.047589 -0.151623 0.178464 0.102434 0.054233 -0.057485 -0.142960
ZATU710 -0.397283 -0.058923 0.152495 0.070363 -0.211953 -0.100837 0.009132 -0.063096 0.114451 0.110788 -0.075358 0.071535 0.177088 0.011032 0.136602 -0.281667 -0.137331 -0.012925 -0.024341 -0.301862 -0.212320 0.083359 0.326200 -0.091961 0.384968 0.094031 0.098549 -0.038521 -0.033708 0.276471 0.059184 -0.242364
ZATU777 0.131696 -0.201463 0.458509 0.140574 0.094592 0.091067 -0.136887 0.093810 -0.131718 -0.363943 -0.054104 -0.143292 0.034426 0.277469 0.178328 0.107935 -0.004150 -0.021070 0.135419 0.050885 -0.161949 -0.151752 0.099548 0.150730 0.164056 -0.179011 -0.244501 -0.229696 0.226801 0.083333 0.025639 -0.196454
NUNUZ~A2 0.109472 -0.191262 0.276065 -0.199235 0.014783 -0.056871 -0.319650 0.122051 0.169421 -0.227041 0.128099 0.191555 0.177286 0.078386 0.059483 -0.360821 -0.264015 -0.119457 -0.159281 0.173264 -0.145422 -0.175227 0.075632 -0.199855 -0.148841 0.006113 -0.253446 0.169328 -0.105354 -0.009427 -0.081531 -0.201325
SZIDIM 0.017964 -0.146399 -0.001630 0.034826 -0.206492 0.155711 0.023599 0.448500 0.021497 0.085011 0.230810 -0.199753 -0.169205 -0.055587 -0.099216 0.138387 0.220034 -0.056142 0.035381 0.179221 0.033262 0.012354 -0.172255 -0.257072 -0.062565 0.032734 0.317459 0.139789 0.125425 0.399507 0.206961 -0.146368
TAG~A3 -0.071178 0.240513 0.017773 0.101318 0.210809 -0.060328 0.075064 0.186539 -0.154191 -0.141857 -0.014492 0.054225 0.064324 0.164096 -0.166587 0.179870 0.033455 0.188066 0.102137 0.113328 -0.272928 -0.298297 0.093067 -0.223010 0.272760 0.479846 -0.108496 -0.213664 -0.066549 -0.208964 -0.064647 -0.061649
|SIXGU4| 0.243367 0.216119 -0.101709 0.016936 -0.157158 0.130504 -0.123519 -0.312826 0.193346 -0.074941 -0.287182 0.401290 -0.229938 0.332378 -0.114614 -0.103419 0.123190 -0.164221 -0.008498 -0.014827 -0.263578 0.032604 0.125027 0.203446 0.031911 0.081149 0.042799 0.185743 0.017552 0.134204 0.129774 -0.076234
|SILA3~AXSZU| 0.193794 -0.000613 -0.117459 0.006687 -0.294675 0.078122 0.053551 0.115587 -0.087527 0.113643 -0.035676 -0.022073 -0.522133 0.099375 0.039858 0.029536 0.518291 0.274274 -0.004319 -0.012578 0.111191 -0.022641 0.095335 -0.188330 -0.019405 -0.069432 -0.128684 0.172725 -0.256795 0.023939 0.040203 -0.104676
SZEN~B 0.011256 -0.131747 -0.111413 0.143548 -0.441045 0.068812 0.142280 0.295200 0.034557 0.217102 -0.022101 -0.137662 -0.420626 -0.208972 0.109705 0.090586 0.182983 0.100308 0.228231 -0.031180 0.119545 -0.313630 -0.015350 -0.134422 0.116908 -0.052482 -0.044299 0.103542 -0.140255 0.147029 0.075136 -0.175058
UKKIN~B -0.413504 -0.378794 -0.063369 0.055238 -0.255311 -0.029896 0.130450 -0.151003 -0.327200 0.382140 -0.049110 -0.025174 -0.147657 -0.017291 0.126857 -0.251715 0.005971 0.181223 -0.031495 0.022077 0.172142 0.050233 0.118144 -0.195247 0.056661 0.037441 0.010909 0.154525 -0.157001 -0.021329 -0.134718 -0.156271
|SILA3~AXSZE~A@T| -0.141643 0.180288 0.231655 0.107940 0.016224 -0.005442 -0.018280 0.135545 0.092575 -0.116135 0.136421 0.158133 0.021049 -0.092914 0.065640 0.031249 -0.275973 -0.222081 -0.115561 0.309919 -0.065134 0.035104 -0.130525 0.004326 -0.051354 -0.076424 -0.379799 0.162287 -0.533735 0.204253 -0.004520 -0.141396
SI -0.102987 -0.038318 0.104829 0.100000 0.166648 -0.198830 -0.030657 0.145065 -0.170381 -0.137599 0.070463 0.151311 0.054188 0.215762 -0.352948 0.221589 0.105459 0.273109 0.299894 0.156766 -0.016088 -0.119479 0.149756 -0.011863 0.233923 0.441131 -0.151418 -0.163922 -0.090575 -0.099373 -0.054283 -0.145594
GA2~A2 0.146116 0.083922 -0.292720 0.266305 0.229361 0.023588 0.009156 -0.023488 0.328299 -0.199147 0.128830 0.231887 0.084204 0.069567 -0.133629 0.110630 0.222196 -0.003365 -0.296444 0.043353 -0.051834 -0.082115 -0.010974 0.095813 0.446853 -0.258968 0.021943 0.007886 -0.107042 -0.068724 -0.002402 -0.245007
GURUSZDA 0.156574 0.073087 -0.283031 0.109348 0.304098 0.093713 -0.172819 -0.241618 -0.001541 -0.101925 -0.054357 0.121739 0.038206 0.427050 0.072398 -0.071248 0.130665 -0.196361 -0.128623 -0.152798 0.234944 -0.008314 -0.059460 0.249889 -0.130764 -0.088262 -0.180891 0.173367 0.241213 0.006114 0.232946 -0.222123
|SZU&SZU| -0.283662 -0.423291 -0.257206 -0.108572 -0.153727 0.029599 0.197970 -0.220175 0.031285 0.201989 -0.207100 -0.121777 -0.087928 0.203893 -0.068212 -0.247827 -0.184126 0.051370 -0.005040 0.114601 0.104525 0.139589 0.165001 -0.269084 -0.086631 0.089020 -0.131892 -0.209491 0.122638 0.199898 -0.110145 -0.108549
TI 0.097650 0.210672 -0.038290 -0.037027 -0.129815 -0.233709 0.198490 0.072249 -0.114442 -0.008092 -0.396727 -0.388826 -0.268333 -0.088574 0.082298 0.122995 -0.113260 0.227483 -0.116832 -0.017389 -0.213043 0.060825 0.069509 -0.120800 -0.050074 -0.101401 -0.229654 0.183010 -0.254688 0.137580 0.088467 -0.256870
|GISZXSZU2~A| -0.227810 -0.213716 -0.101559 0.001819 0.356491 0.066052 0.405534 -0.132720 0.277085 0.068473 -0.187971 0.248364 -0.122566 0.015942 -0.171195 -0.106976 -0.150936 -0.244259 0.110710 -0.146645 -0.076301 -0.114506 -0.090766 0.076349 -0.071196 0.005535 0.006394 0.100588 0.086293 0.133809 0.331233 -0.211063
IM~B 0.200698 0.140207 -0.071044 0.174767 -0.097108 0.080306 0.165685 0.222901 -0.337485 0.032101 -0.437926 0.296859 -0.318349 -0.045195 0.160343 0.201516 0.106839 0.064387 -0.107962 -0.080881 0.254205 0.122905 0.068327 0.006265 -0.085860 -0.080785 0.153159 0.131056 -0.159515 -0.063209 0.087700 -0.192519
TU~A -0.016545 -0.071142 -0.085125 0.178090 -0.136376 -0.011231 0.181628 -0.144651 0.156410 0.009222 0.110184 0.290023 -0.030646 -0.202149 0.033459 -0.012411 0.149033 -0.413771 0.384445 0.370429 0.038178 -0.173654 -0.199764 0.095504 0.103015 0.039997 -0.123300 0.149478 0.166996 0.216705 0.018183 -0.187550
MAH~A 0.000963 0.078529 -0.123407 0.162563 -0.035996 0.173446 0.009781 0.152731 -0.453119 -0.048997 0.089201 0.036070 0.061326 -0.050958 0.071210 -0.063103 -0.176381 -0.245580 -0.132674 -0.267094 0.020107 0.265398 0.328768 0.238047 0.390099 -0.074899 0.091748 -0.196032 -0.006769 -0.028041 0.147758 -0.147422
MUD3~A -0.299831 -0.284903 -0.045029 0.045870 0.315843 -0.023521 0.291732 -0.189143 0.084651 0.174175 -0.192413 0.248874 0.009135 -0.182078 -0.300896 -0.184950 -0.067763 -0.290680 0.080793 -0.118220 -0.135326 -0.133701 -0.282485 0.067626 -0.014273 -0.058425 0.004103 -0.226501 0.078284 0.110412 -0.019120 -0.073423
TAK4~A 0.059130 0.205650 0.398481 -0.009479 -0.185254 0.083417 0.039323 0.128453 -0.086452 -0.036783 -0.191423 -0.267013 -0.113635 0.071252 0.057881 0.043033 -0.327277 0.233834 0.041562 0.083898 0.245270 0.067938 -0.162480 0.143635 -0.010066 -0.184887 0.089556 -0.167044 0.013047 -0.368942 0.219918 -0.242558
ZATU703 -0.357939 -0.158847 0.246722 0.122395 -0.106421 -0.351700 -0.039328 0.016128 0.147523 -0.353692 -0.290776 -0.034533 -0.042718 -0.090403 0.064934 -0.253741 -0.138963 0.083575 -0.207441 -0.000167 0.067530 -0.120433 0.178226 -0.124523 0.143213 -0.047161 0.015464 -0.192101 0.202803 0.201858 0.156439 -0.144499
|MAXMA| -0.527535 0.096164 0.127335 0.071204 0.046255 0.058066 0.200271 -0.245058 -0.377655 0.083556 0.012312 -0.026799 0.101892 -0.082446 0.171280 0.057605 0.022915 0.168900 -0.119010 -0.200193 -0.294983 -0.000992 -0.105155 0.122793 0.132144 -0.128439 -0.110347 0.242978 0.261877 0.022732 -0.004868 -0.120225
KASZ~D -0.156614 -0.043240 0.075679 0.302348 -0.253575 0.091414 0.099208 0.124944 -0.034075 -0.187589 0.274114 0.263700 -0.072422 -0.055626 0.062600 0.021896 0.113358 0.305852 -0.073062 -0.042676 -0.102601 0.193230 -0.351129 -0.017203 -0.156962 0.205596 0.329111 0.027122 0.118167 0.226263 0.221940 -0.095950
|SILA3~AXKASZ~D| 0.069658 0.169513 -0.014051 0.180899 0.186293 -0.115153 0.173806 -0.047068 0.094922 -0.027448 0.108595 -0.053469 -0.132822 0.195758 -0.122264 -0.346491 -0.092738 0.208583 -0.253052 0.396869 -0.043964 -0.238706 -0.097110 0.144764 0.029002 -0.301368 0.244584 -0.287707 -0.035219 -0.167742 0.085625 -0.061659
|SILA3~AXHASZHUR| 0.121291 0.124878 -0.088495 -0.153966 0.110200 0.229857 -0.178148 -0.079219 -0.219910 0.143634 0.502951 -0.216238 0.097532 0.139785 0.165517 0.098090 0.273327 0.072961 0.048952 0.266813 0.167251 0.125986 0.093287 -0.322156 -0.154441 0.098546 0.051397 0.149869 0.143918 0.080865 -0.060076 -0.030195
|DUG~CXNAGAR~A 0.037188 0.341156 -0.014918 -0.227537 -0.151881 -0.134231 -0.209493 0.375812 0.178737 0.031181 -0.421508 0.250560 -0.070082 0.098606 -0.042009 0.034335 -0.037278 -0.167558 0.143529 -0.166864 0.274153 -0.249516 -0.042738 -0.073026 0.070775 -0.055649 0.141078 0.086496 -0.155972 0.113299 0.063162 -0.118106
SZA@G 0.262308 -0.169924 0.317303 -0.138375 0.178749 0.046958 0.066848 -0.243966 -0.330194 -0.073543 -0.376782 -0.177186 0.087825 0.251979 0.167809 0.192886 0.089605 -0.073741 -0.114035 0.149461 0.020261 -0.206020 -0.107469 0.221548 -0.112103 -0.242541 0.025052 -0.089374 0.073341 -0.012958 0.079975 -0.125424
|(SZAXHI@G~A)~A| 0.004654 -0.098371 0.068846 -0.341715 0.353561 0.055076 0.497762 0.003853 -0.059012 0.148264 -0.000913 0.090917 0.072597 0.189048 0.014080 0.127268 -0.099277 -0.040993 0.045965 -0.137168 -0.071546 -0.490905 -0.029938 0.115057 -0.087919 -0.167655 0.075176 0.042312 -0.069915 0.150708 0.162631 -0.108631
GA'AR~A2 0.089060 0.136642 -0.050435 -0.389567 0.020281 -0.097319 -0.374898 0.272538 0.153541 0.053150 -0.021916 -0.201897 0.018691 -0.025905 0.081246 -0.114993 -0.162403 -0.137461 0.086524 -0.220137 -0.114400 -0.021456 0.208042 0.445628 -0.153363 0.099728 -0.009277 0.139753 -0.126415 0.152319 -0.171635 -0.165961
URUDU~A 0.155211 0.275631 -0.096457 -0.103126 -0.157440 -0.282364 -0.024007 -0.352961 -0.145820 0.063265 -0.155051 -0.033276 -0.198269 -0.100497 -0.463499 0.034726 -0.104275 0.141954 -0.294116 0.041763 -0.148528 -0.217277 -0.171649 0.024813 0.065081 -0.201661 -0.080383 0.084787 0.054779 -0.143875 -0.027189 -0.181241
|SAR~AXSZE~A| -0.183647 -0.132482 -0.377687 0.251872 -0.013275 0.014613 0.025740 -0.255308 -0.119461 -0.140200 -0.213924 -0.060988 0.081640 -0.261615 -0.109829 0.253753 -0.059711 -0.275610 0.041037 0.045528 0.232548 0.104072 -0.151629 0.186983 -0.004962 -0.042104 0.076452 0.177243 -0.038616 -0.195536 0.341262 -0.200102
HAL 0.229347 0.214106 -0.413635 0.448205 -0.092410 -0.029913 0.000074 0.150900 0.294500 0.085145 -0.149869 0.062585 0.183581 0.011292 -0.117860 -0.067211 0.233035 0.180439 -0.040191 -0.174972 -0.062231 -0.097540 0.153845 -0.158940 0.143118 -0.022608 -0.036722 0.095194 -0.240708 0.058018 -0.059938 -0.216937
|(U8XTAR)~B| 0.341649 -0.010572 -0.166227 0.058096 -0.308089 0.053155 -0.314921 -0.255482 0.225423 0.019964 -0.064880 0.178845 -0.242636 -0.166017 -0.074629 0.057065 0.413863 -0.033432 -0.003336 0.069755 0.031739 -0.092039 0.120981 0.233382 0.023653 -0.187790 0.100403 0.023929 -0.186986 -0.150277 -0.159421 -0.148321
NA2~A -0.197454 -0.157046 -0.460553 0.049271 0.138837 0.002859 -0.301699 -0.120044 0.013277 0.033222 0.091359 0.031802 -0.007435 -0.153367 -0.130629 0.046863 -0.451059 -0.201694 -0.123217 -0.085806 0.243319 0.085394 -0.042139 0.090637 -0.219267 0.222046 -0.088127 0.118657 0.154069 -0.058183 -0.025102 -0.231240
TUG2~A -0.270495 0.052014 0.287187 0.132688 0.006191 -0.449365 0.062099 -0.224190 0.320314 0.167090 -0.074567 -0.139261 -0.062785 -0.177958 0.284290 0.074160 0.351913 0.163205 -0.112515 -0.014283 0.026922 0.008747 0.004714 -0.090210 0.068975 0.029521 -0.037373 0.097647 0.110501 -0.176256 -0.178493 -0.162952
BUR2 0.130824 0.054977 -0.143318 0.336986 -0.211312 -0.005556 -0.000149 0.122069 0.005190 0.278301 0.142583 -0.335484 -0.125578 0.045281 -0.049252 -0.188130 0.322664 0.018693 -0.026671 -0.105566 0.045036 -0.018335 -0.028563 -0.064989 0.118297 0.167874 -0.343126 0.044562 -0.034498 -0.255156 0.293489 -0.286589
ZATU778 -0.127375 -0.172066 0.138930 -0.268097 -0.173239 -0.156763 -0.123851 -0.372669 0.241179 -0.164439 -0.209427 -0.203478 0.266887 -0.094582 -0.346042 0.001286 -0.227339 0.082105 -0.207100 0.211739 -0.065892 -0.150763 0.063050 0.175557 -0.041818 -0.016687 0.137799 -0.088899 0.111346 0.081808 -0.134070 -0.098961
SUG5 -0.026669 -0.143920 0.192791 0.065051 -0.019615 -0.168302 0.184885 0.406269 0.093130 0.133876 0.198134 -0.175270 0.088808 -0.086492 -0.023611 0.165107 0.430916 -0.090704 0.044787 0.278745 0.166035 0.039003 0.108678 -0.266075 -0.046625 -0.096203 0.137353 0.227913 0.166768 0.143487 0.057192 -0.224152
KAL~B2 0.030361 0.206911 0.172677 0.164847 -0.027384 0.029371 -0.211224 -0.185762 0.042645 -0.114093 -0.225631 0.463122 -0.138200 0.324076 0.061125 -0.224807 0.080788 -0.321341 0.012224 0.012603 -0.133514 0.063025 0.095344 0.087501 -0.028521 -0.021690 -0.045045 0.345162 0.018642 0.189427 0.106678 -0.203010
GARA2~A 0.224625 -0.331519 -0.156758 0.170330 -0.039444 -0.289358 -0.193774 0.239072 0.047778 0.333896 -0.167562 0.094195 -0.159178 -0.312579 0.155849 -0.011101 -0.110849 -0.149244 0.139450 0.057877 0.146215 -0.324600 -0.156691 0.007487 -0.035573 0.006624 0.097209 0.062543 -0.007858 0.235818 0.002247 -0.169806
SZEN~E -0.052399 0.015328 0.035583 0.134745 -0.200822 0.110287 -0.020354 0.025745 -0.025097 -0.248353 0.370910 0.114020 -0.146657 -0.030918 0.004139 -0.124292 0.104312 0.335396 -0.035484 -0.120753 -0.246333 0.202795 -0.389959 0.075924 -0.156871 0.252934 0.277095 0.044803 0.081635 0.280392 0.136198 -0.056194
|SILA3~AXNI~A| -0.172105 0.155234 0.040203 -0.118806 0.030273 -0.457927 -0.014061 0.199870 0.159165 -0.107925 -0.011017 0.077015 0.472556 -0.013980 0.256641 -0.092187 -0.109310 0.201543 -0.172415 -0.298438 0.220758 -0.151302 -0.083854 -0.124464 0.119373 -0.003317 0.004318 0.106075 0.100967 0.090183 0.067848 -0.157857
ABGAL -0.171839 -0.156957 0.062124 0.059494 -0.231596 0.022534 -0.399299 0.033188 -0.123917 -0.024327 0.214182 -0.033324 -0.258822 0.337946 0.070883 -0.349994 -0.246614 0.050180 0.172069 -0.196278 -0.176521 0.049931 -0.024593 0.007638 -0.024298 0.329442 0.144708 -0.021192 0.078327 0.027508 -0.041830 -0.217173
|U4XGU4 -0.191418 0.005388 -0.321854 -0.048665 0.462197 0.231167 0.290719 0.056575 -0.000831 0.169288 -0.052863 0.220093 0.183202 -0.123392 0.141979 -0.131676 -0.087319 0.056070 0.020447 -0.093777 0.069368 -0.364537 -0.210897 0.092719 -0.131987 -0.088366 0.039389 0.154171 -0.171184 0.164168 0.020173 -0.135803
UTUL~A -0.333758 0.048512 -0.011755 -0.096409 0.008207 -0.194072 0.053872 0.149294 -0.045349 -0.299714 -0.070225 -0.126530 0.050419 -0.002041 0.377818 -0.006233 0.026212 0.038690 -0.339553 0.098362 0.021634 0.147415 -0.148562 -0.083239 -0.122118 -0.165887 -0.463781 0.025476 -0.228263 0.180351 -0.058391 -0.176558
BAN~A -0.204680 0.018500 -0.234118 -0.036484 0.114703 -0.116952 0.111593 0.044166 -0.099230 0.057719 0.193095 0.005304 0.038241 -0.279267 -0.107953 -0.082729 0.023435 0.005627 -0.207303 -0.278198 0.115994 0.284132 0.392579 0.208240 0.186479 0.054456 -0.163966 -0.172530 0.188113 -0.111346 0.347253 -0.191213
|SILA3~AXHI| 0.009802 0.031121 0.058437 0.082302 -0.021304 -0.124022 0.053784 0.050869 0.010544 0.001499 0.143782 0.050386 -0.049061 0.091853 0.187329 0.214101 -0.052002 0.018707 -0.226173 0.271830 -0.209769 0.194217 -0.060284 -0.141099 0.014370 -0.120257 -0.442871 0.046875 -0.614440 0.080417 0.075303 -0.127632
ZATU629 0.219698 0.193171 0.161675 0.089736 -0.234652 -0.236021 0.398005 -0.325827 -0.324782 0.112506 -0.121886 -0.204968 -0.007880 0.038536 -0.310285 0.154966 0.064273 0.000086 -0.007071 0.026086 0.017596 0.052621 0.109567 -0.162031 0.130772 0.246262 -0.111391 0.082752 0.037156 -0.150428 -0.079865 -0.185614
ZI~A 0.105431 -0.384899 0.361299 0.029774 0.004760 -0.051351 0.061491 -0.035367 -0.103884 -0.099462 0.165151 0.218878 0.196139 -0.239779 0.301453 -0.084604 0.085080 -0.061591 0.356102 0.174483 -0.020222 -0.029786 0.161479 -0.168635 -0.204129 -0.145465 -0.053579 0.009123 -0.069437 0.117224 0.158246 -0.279781
SUMASZ 0.056699 0.274650 -0.019628 0.052735 -0.116900 0.195603 -0.054439 -0.123508 -0.198669 0.077363 0.073700 -0.034052 0.059966 0.019156 -0.279982 0.474532 -0.254474 0.214342 -0.371772 -0.126317 -0.058804 0.065721 0.213637 0.224170 -0.072484 -0.011659 0.075692 0.214729 0.130545 -0.000940 -0.201019 -0.072414
|ZATU759XKU6~A| 0.419635 0.192462 -0.044968 -0.246751 -0.239603 0.002894 0.138266 0.096620 0.054970 0.054015 0.020513 -0.107516 -0.431098 0.037829 0.044631 -0.103332 0.392869 0.196486 0.064010 -0.029675 0.303612 -0.020329 0.034701 -0.216187 0.024443 0.057204 -0.083995 0.102848 -0.179627 0.102109 -0.041011 -0.126008
GIR3~A 0.107463 0.220758 -0.030198 0.136783 -0.129579 0.312932 -0.049150 -0.234209 0.254975 0.025335 -0.299728 0.237253 -0.265640 0.291835 -0.206464 -0.202267 0.048341 -0.266872 0.008248 0.044155 -0.162305 -0.022928 0.113648 0.234730 0.045982 0.162730 0.111831 0.225234 -0.013692 0.146484 0.025689 -0.111640
ZATU717 -0.423321 0.140052 0.431430 0.260783 0.102998 -0.246378 0.008652 -0.182742 -0.073426 0.094642 -0.088377 -0.046933 0.237767 -0.081741 0.011154 0.084419 0.205353 0.342503 0.074078 -0.012617 -0.181867 -0.039298 0.193239 0.018360 0.068992 0.275692 -0.000839 0.088663 0.040019 0.029296 -0.101046 -0.093363
NU 0.101066 0.104130 0.091301 0.262106 -0.139246 0.364871 -0.085248 0.059596 -0.191271 -0.008780 -0.119728 0.288031 0.279183 0.093073 -0.048338 0.134029 -0.055765 -0.230643 -0.123144 -0.166466 0.111903 0.201186 0.386814 0.051690 0.018540 -0.043702 0.028125 -0.071187 0.092473 -0.047314 0.371102 -0.191333
SUKKAL 0.127552 -0.304333 0.299149 -0.105019 -0.071908 0.335828 -0.046341 -0.099061 -0.052878 -0.072590 0.198608 -0.121123 -0.009862 -0.312695 -0.190171 -0.087174 0.104964 -0.269884 0.137395 0.104110 0.000982 -0.077327 -0.279553 -0.295354 -0.119001 0.183597 0.029293 0.011714 -0.076024 0.078917 0.108618 -0.315045
BU~B 0.116480 -0.103767 -0.184155 0.159978 0.182018 -0.064674 0.251689 0.002455 -0.062364 -0.080660 0.067920 0.084325 0.007014 0.150459 0.225532 -0.147269 -0.016178 0.268180 -0.084682 0.382141 -0.174267 -0.238990 -0.148648 0.098227 0.067553 -0.231240 0.298094 -0.322360 -0.019239 -0.269199 -0.019268 -0.171747
|(UDU~AXTAR)~B| 0.252119 -0.136171 0.224822 0.041910 -0.210532 -0.018685 -0.091852 -0.003784 -0.439021 0.289570 0.192992 -0.168038 -0.084605 0.258545 0.180100 -0.017670 -0.340418 -0.008051 0.079511 -0.166159 0.116567 -0.057864 -0.043779 0.245888 0.095880 -0.085738 -0.169172 -0.075977 0.210950 0.038002 -0.038929 -0.189880
TUM~C 0.007444 -0.034484 0.221144 -0.332268 0.107071 -0.062662 0.064223 -0.024915 -0.270087 0.070725 0.224557 0.004424 -0.014570 -0.188414 0.135041 0.043969 0.161950 -0.022765 -0.081832 -0.183772 -0.013970 0.022749 0.463709 0.189601 0.407662 -0.200073 0.169304 -0.204067 -0.022913 0.112503 0.105985 -0.123269
|BU~A+DU6~A| 0.020348 -0.058923 -0.062595 0.227621 -0.054919 -0.019283 0.255330 0.048555 0.375216 0.110226 -0.072690 -0.090404 0.146594 -0.193189 -0.168104 -0.311182 -0.186634 -0.090042 0.359254 -0.170604 -0.009380 -0.335420 0.052672 -0.175917 -0.086891 -0.126794 0.019230 0.138937 0.015305 0.204904 0.243259 -0.164402
ZATU751~B 0.299677 0.089518 0.066568 -0.054510 -0.102292 0.116639 -0.101795 -0.439392 0.184372 -0.118349 -0.180421 0.367853 -0.209994 0.245139 0.029371 -0.163780 0.037619 -0.154682 0.011352 -0.058672 -0.237499 0.115118 0.222108 0.230213 0.005283 0.166005 0.087983 0.184477 0.011572 0.165906 0.068022 -0.130357
GAN~C -0.463693 0.143221 -0.109324 -0.324210 0.027027 -0.210345 0.476537 0.004493 -0.019797 0.019843 -0.324633 -0.103364 0.024266 0.042742 -0.083452 -0.109860 -0.135167 0.265650 -0.146818 -0.128944 0.107676 0.013446 -0.071563 -0.025925 -0.036186 0.049514 0.217206 0.068967 -0.003988 0.071742 0.043280 -0.172339
|SILA3~AXSZU2| 0.016492 -0.050527 -0.179964 -0.039498 0.100128 -0.019163 -0.011653 0.009207 0.206014 0.048934 0.058719 -0.126725 0.008320 -0.094840 -0.047592 -0.083801 -0.092224 0.036306 0.101271 -0.038316 0.114791 0.218033 0.097240 0.106836 -0.274035 0.127845 -0.246751 0.010993 0.112144 -0.397295 0.657495 -0.107803
URI3~A 0.082430 -0.222050 0.144089 0.144598 -0.325288 -0.064953 -0.086839 0.343297 0.088820 -0.102995 0.261929 -0.122173 0.032757 -0.214461 -0.073390 -0.149434 -0.179039 -0.340607 0.194801 -0.075691 -0.087638 -0.121136 -0.163443 -0.033480 0.138830 -0.056426 0.112620 -0.039067 0.023465 0.303866 0.222000 -0.263099
LA2 0.071107 -0.288456 0.040154 -0.272031 -0.397415 -0.049999 -0.048425 -0.296957 0.250799 -0.153315 -0.023860 -0.188011 0.165671 -0.035624 -0.252483 0.295367 0.044684 -0.032083 -0.022533 0.257590 -0.022195 -0.169523 -0.212148 0.152126 0.070093 -0.182087 0.152421 -0.139849 0.035319 -0.115329 0.016781 -0.142034
LAM~B 0.001893 0.070624 0.278437 0.292736 0.003854 -0.131051 0.127879 -0.012742 -0.186078 0.053711 -0.097578 0.222639 0.279747 0.000405 -0.059931 -0.142917 0.095581 -0.071659 0.005201 -0.261854 0.002331 0.061685 -0.272717 -0.123401 -0.162135 0.089684 0.072103 0.019541 0.115094 0.249009 0.469467 -0.295578
DUB~A -0.258059 0.001286 -0.029901 0.214548 -0.179199 -0.047441 -0.034082 -0.007375 0.030333 -0.111755 0.035817 -0.041605 0.095748 -0.273545 0.274148 -0.066780 -0.106409 0.067676 0.032852 0.225687 -0.110644 -0.053228 0.124688 -0.005261 0.150625 -0.170485 -0.414741 0.121512 -0.320275 0.364476 0.158132 -0.270823
GASZU 0.510923 -0.072159 -0.112936 -0.084134 0.139625 0.110853 0.254183 0.051141 0.075784 -0.174908 -0.076053 -0.099453 0.094598 -0.370094 0.008027 -0.315046 0.017288 0.224382 -0.108121 0.045093 0.389879 0.049078 -0.021955 0.068122 -0.012194 0.211656 -0.075316 0.025108 0.025361 0.091415 -0.178343 -0.041214
ZATU651@G -0.016068 0.458365 0.132657 -0.027602 0.084197 -0.140316 0.282264 -0.204025 -0.184246 -0.029345 0.057378 0.039918 0.157220 -0.391750 0.151005 0.053495 -0.068961 -0.194617 0.220482 0.152028 0.327284 -0.055623 -0.232622 0.164898 0.027668 0.105789 0.010275 0.095162 -0.015192 0.188264 -0.014397 -0.129593
UH3~A 0.321571 0.189099 0.354011 0.183327 -0.192678 -0.110347 0.111557 -0.330134 -0.403977 0.056294 -0.099572 -0.035490 0.122263 0.007381 0.012679 0.307860 -0.034280 0.085776 -0.200840 -0.113962 -0.086627 0.049326 0.192423 -0.007574 -0.110780 -0.133392 -0.000727 0.193571 0.213496 -0.000265 0.040098 -0.141712
ANSZE~E 0.076568 -0.197525 -0.287446 0.142687 -0.180283 0.033195 -0.117166 0.163449 0.078891 -0.025774 0.129049 -0.413251 0.006604 0.002171 -0.298861 0.275179 0.306138 -0.267875 -0.111127 0.173864 -0.022867 -0.095450 -0.000943 -0.277733 0.096493 -0.130333 0.153386 0.184088 0.028967 0.103929 0.096029 -0.138852
KALAM~B 0.194387 0.085162 -0.239590 -0.188574 0.073691 0.087733 0.001999 0.071982 -0.058497 0.262845 0.049463 -0.030452 -0.164053 -0.125776 0.051348 -0.013990 0.079043 0.235933 0.206574 0.081886 0.159640 -0.161829 0.149368 -0.537142 -0.148691 -0.118824 0.173603 0.143189 -0.026076 0.326642 0.131404 -0.192170
RAD~A@G 0.165734 0.020694 0.239922 0.086063 -0.065417 -0.102292 -0.090758 -0.153790 -0.458800 0.110636 0.011088 -0.166284 0.159748 0.117082 0.091798 0.174158 0.159617 0.126470 -0.182101 0.121506 -0.047885 -0.036825 0.286302 -0.326415 -0.126541 -0.236641 0.076715 0.188539 0.248017 0.161763 0.150828 -0.163012
ZABALAM~A -0.294309 -0.195066 -0.271505 -0.280559 0.084681 0.051319 0.350219 0.210161 -0.231617 -0.275249 -0.202161 0.125152 0.069144 0.047385 0.274075 0.052257 -0.102149 -0.158837 -0.077994 -0.099768 -0.004437 -0.047006 0.002858 -0.030271 -0.202726 -0.053528 0.052470 -0.282128 0.059403 0.211304 0.056647 -0.207148
MUD 0.134063 -0.058476 -0.103782 0.001133 -0.270135 0.369945 -0.068264 -0.150145 0.175146 -0.234298 0.303548 0.005196 -0.170284 0.111387 -0.116588 0.009963 0.110000 0.178689 0.216708 -0.037104 -0.004760 0.084114 -0.245032 0.024696 -0.065212 0.220593 0.158608 0.062363 0.141807 0.141345 0.374428 -0.274961
UDUNITA~A 0.207040 0.286452 -0.095299 0.170343 0.059382 -0.337969 0.066380 -0.176224 0.155465 -0.135657 -0.007335 0.292329 -0.173757 -0.015191 -0.143720 -0.137966 0.180702 -0.019172 0.137386 0.118197 -0.038344 0.274773 -0.197379 0.001335 -0.064978 0.080443 -0.042790 0.127164 0.345658 0.226840 -0.205167 -0.249111
GESZTIN~A 0.071102 0.040482 0.197259 -0.225991 0.044211 0.132611 -0.084744 0.070826 -0.075834 0.274676 -0.167573 -0.017442 0.353888 -0.110383 -0.422510 -0.058032 0.394236 -0.135778 -0.210910 -0.096572 -0.188968 -0.194520 -0.259924 -0.119048 0.050132 0.067892 -0.131343 -0.044596 -0.058436 -0.059926 0.124279 -0.104586
KAR2~A -0.061121 -0.292648 -0.126272 -0.005449 0.033337 0.172911 0.252126 0.010801 0.030744 -0.146155 0.274106 0.235532 -0.240496 -0.104831 0.113600 -0.047950 0.036632 0.351659 0.049849 -0.052874 -0.231787 0.034690 -0.295750 -0.037625 -0.073320 0.281215 0.296343 0.014528 -0.021395 0.250535 0.158676 -0.167377
KASKAL -0.168116 -0.187842 0.484933 0.218472 0.071901 -0.074216 0.408752 -0.163457 -0.136893 -0.091163 -0.112798 -0.029757 0.140266 0.077779 0.110443 -0.008068 -0.141996 0.037700 -0.211444 0.091975 0.136598 0.235873 0.125637 -0.098467 -0.091664 0.003085 -0.209863 0.041760 0.004579 0.285469 -0.032184 -0.243242
AK~A 0.000268 -0.102857 0.076267 0.079278 -0.474034 -0.124194 -0.058921 0.151677 0.178057 0.156997 0.254956 -0.257987 0.062214 -0.047356 -0.122672 0.005500 -0.246456 -0.237068 0.302353 -0.060084 -0.134575 -0.186353 -0.188678 -0.083996 0.228304 -0.227959 -0.007388 -0.000677 0.241828 0.052468 -0.019444 -0.168488
ALAN~A 0.338942 0.031214 -0.305949 0.114522 -0.191712 0.122071 -0.209153 -0.107542 -0.067941 0.004922 -0.384965 0.443955 -0.201758 0.213787 0.052335 0.020082 -0.039911 -0.194861 -0.077623 0.051578 -0.062189 0.095028 0.094651 0.271455 0.016793 0.025640 0.082292 0.191598 -0.013606 0.057901 0.115814 -0.160645
|U4XGI -0.150194 -0.032756 -0.140664 0.333024 0.225254 -0.274466 0.149288 -0.107920 -0.144774 0.229755 -0.140613 -0.074336 0.261286 0.125721 0.017173 -0.118556 -0.269798 -0.291533 -0.127416 -0.148661 0.261562 0.166363 -0.129748 -0.183312 0.000442 0.180545 0.005111 0.085665 0.018545 0.288157 0.066616 -0.133335
KID~B 0.331383 -0.204131 0.257119 -0.230435 0.075769 -0.045750 -0.113954 0.248732 0.058241 -0.484168 0.103028 0.126750 0.196899 0.064404 0.027292 -0.046476 -0.105570 0.101468 -0.244425 -0.030832 0.004249 -0.248090 -0.008895 -0.043328 0.064112 0.158184 -0.165307 0.053624 0.049679 0.055924 -0.221112 -0.277175
KAK~A -0.072696 -0.321641 -0.041288 -0.065421 0.290660 0.236098 0.239256 -0.214875 -0.059165 0.306721 -0.077970 0.239192 0.254678 -0.266110 -0.172288 -0.127666 -0.042009 -0.150055 0.021828 -0.095851 -0.157650 -0.191360 -0.325570 0.001630 0.034822 0.241971 -0.030874 -0.072824 -0.081995 0.044992 -0.019400 -0.150173
LAM~A -0.371201 0.212726 0.112677 -0.141004 -0.290071 -0.248147 -0.274021 0.188429 0.253259 0.230255 -0.034309 0.062608 0.238896 0.054910 0.195190 -0.090518 0.017040 -0.169152 -0.090605 -0.136319 -0.265820 -0.141500 -0.070529 -0.166181 0.248221 -0.010761 -0.002008 -0.113143 0.158661 0.064008 0.060593 -0.113974
TU... 0.140591 -0.159440 0.447309 0.123663 0.271601 -0.094753 -0.187090 -0.020503 0.025157 -0.356627 -0.095545 -0.004887 -0.109660 0.077748 0.303591 0.100453 0.208219 -0.023532 0.200360 -0.002444 -0.144182 -0.166339 0.256020 0.052135 0.013932 -0.138283 -0.156185 -0.216801 0.091044 0.215594 0.020261 -0.131514
AL -0.102308 -0.303992 0.043954 -0.307928 0.244072 -0.005227 -0.019790 0.035227 0.416783 0.182436 0.008305 -0.082885 0.210262 0.101983 0.021320 -0.190335 0.256899 0.103904 0.114294 -0.044705 0.065469 -0.108221 0.059023 0.089311 0.009475 0.228395 -0.049875 0.123301 -0.020087 -0.017660 0.306223 -0.387520
IN~B 0.157665 -0.022489 -0.037042 0.006027 0.145264 0.209768 0.083721 -0.137444 0.063131 -0.095140 -0.068920 0.024980 0.338995 0.123031 0.209337 0.146812 0.049277 0.243046 0.448444 -0.242781 0.074384 -0.445948 -0.012488 -0.111846 0.061326 -0.010013 0.015452 -0.141438 -0.155433 0.087765 0.072647 -0.261773
SZUM 0.139915 -0.087192 0.213569 0.099207 0.503593 0.054029 -0.270471 0.005702 -0.128521 -0.141842 0.066387 -0.035230 0.174143 0.422651 0.102429 0.169272 0.102296 -0.124728 -0.117388 -0.019268 0.218656 -0.005729 0.078788 -0.125397 -0.075122 -0.090506 -0.064942 0.012904 0.217101 0.303927 0.091648 -0.145589
BALAG -0.213640 0.200436 -0.245761 -0.355275 0.046210 0.379465 -0.306823 0.027328 -0.252566 0.052439 -0.274728 0.124372 -0.064030 0.043823 -0.078128 0.135009 -0.087812 -0.087507 0.184071 0.005522 0.168801 -0.138624 -0.261115 0.030651 0.270083 -0.018182 0.047147 -0.050398 -0.051722 0.130408 0.144675 -0.118113
DARA4~A1 -0.435751 -0.011408 0.291304 -0.167352 -0.124684 -0.075549 -0.070333 -0.206667 -0.087569 -0.298874 -0.080035 -0.114195 0.201761 0.163703 -0.141758 -0.106804 0.062607 -0.056913 -0.334795 0.031171 -0.101376 -0.064672 0.045888 0.058887 0.174238 0.002616 -0.133285 -0.345828 0.103838 0.199608 -0.013547 -0.232331
KALAM~A -0.202278 -0.047002 -0.016202 -0.162767 0.306009 0.124541 -0.318715 0.194074 -0.102909 0.078821 0.126419 -0.045842 0.120122 0.130545 0.039134 0.081247 -0.043305 0.092509 -0.080150 0.294969 -0.055737 -0.130807 0.182723 -0.468635 -0.142403 -0.109130 0.132563 0.134198 0.039086 0.331068 0.163700 -0.156346
UMBIN~A -0.030244 0.154730 -0.354893 0.139808 0.379203 0.300635 0.113298 0.011888 0.175927 -0.174224 -0.041918 -0.159551 -0.022363 -0.153860 -0.095897 0.016066 0.058594 -0.065324 -0.183035 -0.158961 0.159094 0.032137 -0.143070 0.035345 -0.129098 0.060253 -0.353031 0.001021 0.284407 -0.229107 0.183978 -0.183476
