? 32
M131~e -0.015267 0.092274 -0.018240 -0.043681 -0.260451 0.180900 -0.000181 -0.135939 -0.213472 -0.196123 -0.267537 -0.186795 -0.027248 -0.102042 -0.004800 -0.234433 -0.112156 -0.072449 0.302631 -0.360281 0.024575 0.251521 0.129650 0.112232 0.078730 0.122824 0.076267 -0.133793 -0.121910 0.058636 -0.411000 0.220505
M136~i -0.417862 -0.068805 -0.283079 0.061542 0.092084 -0.001993 -0.223197 -0.159617 0.528338 0.180133 -0.100227 0.045920 -0.316338 0.012355 0.030618 -0.103939 -0.058670 0.159875 -0.208681 0.024076 -0.133562 -0.185581 -0.119673 -0.167840 0.034694 -0.141319 0.010073 -0.078462 -0.102890 -0.010501 -0.099518 0.036325
M157 -0.155793 0.027353 -0.072209 -0.073811 0.046870 -0.169058 0.155994 0.050654 0.101457 0.226296 -0.073517 0.016117 -0.133840 -0.209388 0.024689 -0.121134 -0.099707 -0.025013 0.180320 0.232376 0.581371 0.066178 -0.069568 0.160802 0.363175 -0.245213 -0.182348 0.016486 0.074040 0.122566 0.203677 -0.068895
M388 0.000943 0.021491 -0.055040 -0.006729 -0.046877 0.018848 -0.063278 -0.024702 -0.007969 -0.070070 -0.033144 -0.037706 0.132772 -0.120528 -0.015113 0.019700 -0.012765 -0.009671 0.021830 -0.017509 -0.057160 0.027124 0.000886 -0.376518 -0.031034 0.135739 0.038406 0.033470 0.451490 0.615788 0.262724 0.358016
M206~d 0.090300 -0.143537 -0.129799 -0.048996 0.035309 0.048797 -0.033417 -0.126508 -0.013331 -0.030835 0.028778 -0.052555 -0.109899 -0.064320 -0.078073 0.036104 0.239589 -0.124404 -0.161739 0.023061 -0.180673 0.169162 -0.065170 -0.401427 -0.203784 0.366873 0.226344 -0.365729 -0.436781 -0.108210 -0.041985 0.106448
M066 0.170291 -0.001824 0.423553 -0.018517 0.311144 0.169223 -0.126390 -0.179864 0.224415 -0.076944 -0.153790 -0.106447 -0.354938 -0.224648 -0.159452 -0.172543 0.089885 -0.038640 0.055022 0.271920 0.082656 0.012252 0.054967 -0.007616 0.137826 0.063021 0.022775 -0.253855 -0.167360 -0.036253 0.142439 0.245831
M352~o 0.044942 0.058147 0.126575 -0.562325 0.190990 0.015631 0.155814 -0.353578 0.059493 0.216142 0.371566 -0.045612 -0.073523 0.000061 0.220149 0.092189 -0.077210 -0.213331 0.117076 0.058617 -0.192139 0.123891 -0.034347 0.087907 -0.037794 -0.033961 -0.086090 -0.020170 0.154297 -0.135753 0.077841 0.187348
M370 0.007139 -0.205261 -0.002509 -0.031332 -0.003404 -0.258013 -0.014592 -0.008353 0.460069 -0.127646 -0.023308 -0.126428 0.167324 -0.201115 0.176397 0.090945 -0.067318 0.126369 0.183712 -0.051261 0.119463 -0.572105 0.093035 0.150371 -0.182172 0.033317 -0.054170 -0.132276 -0.097369 0.043862 -0.153322 0.135231
M218 -0.194350 -0.023629 -0.119571 -0.015313 -0.049260 -0.073538 0.062278 0.151894 -0.073203 0.052685 0.212655 0.063789 0.206949 -0.194431 -0.056495 0.069083 0.305543 -0.011756 -0.114327 -0.032345 -0.170856 0.091479 -0.163754 0.146126 0.378454 0.169639 -0.212440 -0.400514 -0.361587 0.147098 0.124152 0.166278
M096~d 0.040864 -0.010721 -0.161341 -0.021133 0.111955 -0.016283 0.043371 -0.108704 -0.036864 -0.123301 -0.020077 -0.135782 -0.039300 0.116742 0.032568 -0.019526 -0.143459 0.039444 -0.361277 -0.185540 -0.224731 -0.238259 -0.385681 -0.374814 0.141882 -0.504405 0.034567 0.009063 -0.138064 -0.042813 -0.072138 0.087775
M347 0.092635 -0.008659 -0.118560 0.380746 0.029223 0.164034 -0.167159 -0.309716 0.345183 0.145412 0.297953 0.356119 -0.213247 -0.088781 0.225533 0.134322 -0.074512 0.074166 0.118438 -0.046284 -0.033370 0.136896 -0.013340 -0.088170 0.127076 0.028960 -0.244262 0.104687 -0.068317 -0.052680 0.078252 0.215246
M259 0.221865 -0.116107 -0.251076 -0.035564 0.054831 0.124055 -0.090183 0.250874 0.171811 -0.356674 -0.234979 0.179181 -0.201243 -0.167502 -0.164089 -0.009614 -0.012444 0.008686 0.023781 0.037332 -0.342467 0.037062 0.028241 0.377472 -0.170212 -0.073150 -0.099669 0.130797 -0.136637 0.032257 0.091036 0.300671
M263 0.271697 -0.380361 0.216085 -0.322216 -0.045073 0.182738 -0.029168 -0.004298 0.075563 0.044669 0.075053 -0.002942 -0.309485 -0.142865 -0.270216 -0.206447 0.147594 0.040056 -0.164299 -0.063383 -0.187456 -0.000663 0.150494 0.356251 0.098602 -0.179715 -0.088837 0.011186 -0.007554 0.062857 0.111568 0.209583
M329 0.011965 0.380793 -0.170462 0.019806 -0.400210 0.189336 -0.256477 -0.279864 0.142673 -0.162123 -0.218230 -0.163287 -0.119134 -0.196674 -0.019338 -0.114084 -0.013729 0.119541 0.277685 -0.193462 -0.014763 -0.293148 0.011407 0.142164 0.007600 0.088722 -0.093706 -0.132326 -0.083169 0.016390 -0.053325 0.135409
M387 0.056363 0.084020 -0.194138 -0.028085 0.235820 -0.004634 0.051455 0.059701 -0.002594 0.070466 0.018232 -0.077840 -0.085633 0.340377 -0.166094 0.298852 0.113563 0.291708 0.185825 0.037162 0.207864 0.346641 0.317786 0.023154 -0.131710 -0.340174 -0.046322 -0.166730 -0.098360 0.148378 0.066206 0.200277
M110 -0.085092 -0.302627 0.010562 0.105110 0.189701 -0.124449 -0.017170 -0.128623 -0.096131 0.067174 0.063078 -0.262487 0.232739 0.080772 -0.136925 -0.202163 0.386913 0.251219 -0.150570 -0.067374 0.073228 -0.049715 0.145711 -0.114521 0.077163 0.169599 -0.172823 0.421632 -0.119098 -0.027505 0.065150 0.266482
M316~e2 -0.297231 -0.137041 -0.176236 0.031781 0.015392 -0.119256 0.059827 -0.007242 -0.027253 0.164378 0.146615 0.064941 -0.238436 -0.101848 -0.354846 -0.296656 -0.118002 -0.072228 0.147945 -0.000603 -0.164755 0.104081 -0.037935 -0.354959 -0.245482 0.305842 0.282833 -0.082776 -0.192921 -0.101320 -0.098459 0.061851
M296 -0.332872 0.071239 0.052255 0.260913 0.449772 -0.192285 0.187509 0.282261 0.214578 -0.045166 0.381093 -0.196366 -0.114925 -0.097007 0.286071 -0.064450 -0.092214 -0.093932 0.100019 0.116111 0.010978 -0.020784 -0.027962 0.018793 -0.104030 -0.040521 0.073231 -0.159308 -0.052600 0.038670 -0.010409 0.169280
N45 0.186339 -0.032502 -0.328675 -0.071544 -0.052522 0.452979 0.468001 0.105474 0.136461 0.481357 -0.076484 -0.001415 0.063286 -0.263326 -0.168917 -0.017784 0.048260 0.035949 0.112603 -0.009522 0.053844 -0.150737 -0.010639 -0.058202 -0.047585 0.062523 0.021465 0.005973 -0.027753 0.005485 -0.036180 0.017642
M201 0.006786 -0.010914 0.055122 -0.014212 -0.033634 -0.006042 0.002889 -0.031999 0.009992 -0.010260 -0.041714 0.105912 0.004373 0.007219 0.047255 -0.006303 0.040274 -0.002749 -0.182460 -0.003018 -0.106142 0.178683 0.107189 0.079431 0.164632 0.137542 -0.086234 0.011848 0.265914 0.133270 -0.849651 0.137799
M203~a -0.130187 0.068728 -0.213350 -0.029208 0.079167 -0.224716 -0.148902 0.036821 0.515837 0.045127 0.196114 -0.289589 0.229557 -0.132273 0.219230 -0.023463 -0.296001 0.095189 0.055726 -0.137594 0.148966 -0.052056 0.016986 0.031769 -0.175409 0.117339 0.028957 -0.084320 0.023011 0.016799 -0.363293 0.110545
M371 0.344654 0.374949 0.415696 0.232087 0.141870 -0.365355 -0.224471 0.117427 -0.061326 -0.083147 -0.089342 0.098337 0.053642 0.023266 0.042318 -0.013409 -0.055691 0.122300 0.025519 0.140978 -0.128884 -0.261311 -0.047596 -0.039395 0.047501 0.066510 -0.027211 -0.300934 -0.128795 0.051661 0.019457 0.132444
M288 0.207224 -0.037165 0.088247 0.121638 0.131184 0.368342 0.191070 0.235278 0.303766 0.337469 -0.157941 -0.177215 0.178710 -0.079712 -0.015682 -0.031467 -0.090827 0.038692 0.012712 -0.176646 0.086878 0.193245 0.022765 0.091548 -0.033691 0.276578 0.020635 0.026113 -0.024291 0.003585 0.438220 -0.141517
N24 -0.220035 -0.032121 0.105402 -0.020047 0.009177 -0.231716 -0.185109 0.130692 -0.183094 0.161910 0.345984 0.177797 -0.243409 -0.296171 -0.441440 -0.386310 -0.187871 0.045243 0.207492 -0.024722 -0.063298 -0.002195 -0.032763 -0.150168 -0.074621 -0.053698 0.076263 0.070967 0.024869 -0.033648 -0.045787 0.000829
M301 -0.047650 0.124941 -0.091488 0.177613 -0.054210 -0.014591 -0.151456 -0.002855 0.004816 0.096416 -0.145175 0.190991 0.279854 0.474389 -0.070853 -0.310280 -0.052765 -0.197260 0.324896 -0.305006 0.145854 -0.054657 -0.013124 0.112243 0.214652 0.079007 0.164639 0.020094 -0.120120 0.047548 0.029470 0.264340
M317 0.378095 0.295695 -0.034295 -0.146535 0.193148 0.449141 0.225365 0.306311 0.082819 0.137621 -0.151663 -0.002469 -0.142240 -0.061327 -0.298921 0.038755 0.000305 0.056867 -0.196083 0.151423 0.184123 -0.152897 0.163763 -0.100255 -0.033763 -0.025618 -0.100426 -0.014265 -0.047883 0.053576 -0.036712 0.149330
M149~a1 -0.005959 0.478099 -0.048428 -0.163599 -0.222760 0.074292 0.090757 -0.241173 -0.270796 -0.177505 -0.158187 -0.219412 -0.055738 -0.034980 0.176211 -0.333789 0.028634 -0.029425 0.191400 -0.112010 -0.070472 0.095443 0.021635 0.172034 0.096032 0.076089 -0.029700 -0.063059 0.079897 0.094787 -0.381986 0.140632
M219 -0.046373 0.135374 -0.219057 0.045375 0.073393 -0.149354 -0.028859 -0.338812 0.089534 -0.098587 -0.190964 -0.374658 -0.203408 -0.236261 -0.046038 -0.313117 0.413888 -0.198264 0.015332 -0.083316 -0.133170 0.015894 0.123946 0.272734 -0.130885 -0.130713 0.042655 0.024597 0.002338 0.016221 0.040620 0.173639
N08A -0.199297 0.162113 -0.465157 0.095687 0.094268 -0.231612 -0.073208 -0.282061 0.176637 0.281677 -0.194832 -0.312368 0.133961 -0.032386 -0.069417 -0.133467 0.189162 -0.335262 0.159276 0.079346 0.120615 -0.132439 0.024329 0.105084 -0.098301 -0.145829 0.030429 0.006721 -0.078057 -0.019526 0.023795 0.103977
M346 -0.158315 0.016698 0.443154 0.102025 0.183172 -0.139522 0.131644 -0.058278 0.209342 -0.123989 -0.075413 -0.050102 0.081465 -0.231555 0.124733 -0.049481 -0.085366 -0.038596 0.120628 0.218333 0.344171 0.003379 0.101886 0.057918 0.038359 -0.514066 -0.019773 -0.098785 -0.103062 0.073539 0.213630 0.087817
M039~c 0.276139 -0.282963 -0.315583 0.069980 0.406102 0.073557 -0.380013 0.349320 -0.255173 0.128061 -0.203758 -0.059547 -0.037088 0.070759 -0.168356 0.045253 -0.081005 0.075764 0.254098 0.004414 0.022899 0.110426 -0.065006 0.135927 0.016026 0.008152 -0.091819 -0.029844 -0.086473 0.043561 -0.052499 0.070653
M299~m 0.157840 0.008783 -0.250677 0.060642 0.143973 0.382205 0.496916 0.193124 0.183146 0.519586 -0.214067 -0.033804 0.097028 -0.245742 -0.071488 0.003994 -0.020477 -0.068181 0.017825 -0.001610 0.019861 -0.141489 -0.038180 -0.058002 -0.030531 -0.012043 -0.003507 0.001671 -0.016746 0.001638 0.000359 0.007219
N48 0.314298 0.136085 -0.042916 0.140752 -0.012774 0.355173 0.533790 0.200124 0.175725 0.475696 -0.142334 -0.056137 0.103446 -0.271817 -0.103453 -0.077844 -0.012074 -0.083864 0.005026 -0.046954 -0.010305 -0.092962 -0.049820 -0.060358 -0.041179 0.025256 -0.005534 0.022196 -0.012614 -0.013675 -0.016006 0.009314
N34 0.346523 0.164376 0.005194 0.154611 -0.057309 0.340298 0.529546 0.194108 0.172143 0.455787 -0.116780 -0.063573 0.103850 -0.274789 -0.112032 -0.098507 -0.007994 -0.083210 0.007451 -0.057466 -0.014425 -0.080303 -0.051541 -0.058780 -0.044998 0.036387 -0.004939 0.026658 -0.012170 -0.017228 -0.020909 0.010193
n -0.088190 -0.081959 0.011762 0.061483 -0.003904 -0.232275 -0.258188 0.122824 -0.248953 0.170193 0.313776 0.166049 -0.204742 -0.314063 -0.418587 -0.382901 -0.227037 0.016206 0.231462 -0.004708 -0.047338 -0.053427 -0.037734 -0.168848 -0.099189 -0.060266 0.080154 0.020354 -0.005755 -0.042239 -0.056837 0.026977
M054 0.130469 -0.248834 -0.019147 0.244759 0.062594 0.068217 -0.335211 -0.069672 0.060013 0.002187 0.058437 -0.389199 0.273138 0.304255 -0.285946 0.007317 -0.175722 0.067574 -0.121265 0.193357 0.245553 -0.051440 -0.066979 0.158942 0.172964 -0.022213 -0.006619 -0.165326 -0.031032 0.113606 -0.227882 0.153912
M123~b -0.076646 -0.047957 0.122942 0.041043 -0.169130 0.279384 0.225848 -0.154111 -0.121860 -0.005588 0.144356 -0.001259 -0.009340 -0.101193 -0.215930 0.358098 0.173177 -0.003137 0.200328 -0.151997 -0.019636 -0.485815 0.137143 -0.002378 -0.043241 0.070155 -0.075461 -0.015937 0.093098 0.046835 -0.436384 0.101081
M365 0.339147 0.035230 0.067337 0.037543 0.110143 0.217539 0.271300 0.154782 0.040435 0.388535 -0.359503 0.101360 0.108153 -0.261556 -0.136900 0.028506 0.035945 -0.025746 -0.073407 -0.067416 -0.090220 0.094873 0.112522 0.007250 -0.060905 -0.095590 -0.031078 0.019973 0.087089 0.061134 -0.493982 0.133083
M297 -0.390305 -0.012954 -0.077468 -0.034832 0.228796 -0.083522 -0.272474 0.013658 -0.061490 -0.047186 0.362394 0.184103 -0.233804 -0.253159 -0.118139 -0.187987 -0.193197 0.090660 0.190122 0.109440 0.014916 -0.048217 -0.087862 0.073034 0.038933 -0.031019 0.385415 0.253775 -0.064518 -0.054092 -0.013785 0.187818
M377 0.240159 -0.088447 -0.251600 0.175203 0.004237 0.032216 0.007480 0.009030 -0.545097 0.178909 0.247687 -0.137068 -0.139834 -0.017844 0.334760 0.000488 -0.283583 0.045110 0.234431 -0.201847 0.120677 -0.003280 -0.167706 0.203630 -0.030218 0.068624 0.000640 -0.059976 0.003947 0.058989 -0.049505 0.143571
M251 0.067538 0.022380 -0.042726 -0.063065 -0.082663 0.125629 -0.068724 0.008496 0.013555 0.016947 0.033044 -0.009920 -0.014637 -0.121707 0.131964 0.142197 0.120649 0.170649 -0.018706 0.150105 0.257280 -0.038220 -0.059524 0.116982 0.325568 0.100445 0.629433 0.447294 -0.075493 -0.076005 0.022824 0.177829
M146 0.079582 0.106764 -0.045429 0.289763 -0.087657 -0.042120 -0.101870 -0.400647 0.135528 0.027792 0.106995 0.069073 0.162181 0.151709 -0.254918 0.240218 -0.134641 -0.061874 0.070394 0.066723 0.117308 0.162747 -0.343091 0.135019 0.051310 0.143329 -0.079112 0.397333 -0.075402 -0.132908 0.037557 0.298161
M240 0.153991 -0.044652 -0.005970 -0.050224 0.169581 0.321906 -0.107245 -0.186985 0.350442 -0.037336 0.395953 0.350865 -0.171815 0.033385 0.079092 0.028553 0.074417 -0.122896 0.229142 -0.168259 0.116800 -0.023772 -0.139781 0.095481 0.048502 0.013325 -0.161161 -0.124612 0.166503 -0.255114 0.062272 0.257015
M096 0.001114 0.551483 0.132612 -0.014378 0.210065 -0.013527 -0.057122 -0.139684 -0.114480 -0.170214 -0.202319 -0.065271 -0.131850 -0.055806 -0.063693 -0.039790 -0.220563 -0.054799 0.135543 -0.002313 -0.148452 0.070531 -0.093906 0.055407 0.230825 0.161485 0.089253 -0.298320 -0.382054 -0.014592 0.032048 0.255194
M177~a 0.006786 -0.010914 0.055122 -0.014212 -0.033634 -0.006042 0.002889 -0.031999 0.009992 -0.010260 -0.041714 0.105912 0.004373 0.007219 0.047255 -0.006303 0.040274 -0.002749 -0.182460 -0.003018 -0.106142 0.178683 0.107189 0.079431 0.164632 0.137542 -0.086234 0.011848 0.265914 0.133270 -0.849651 0.137799
M328~b -0.179293 -0.103007 0.229631 0.047246 0.094478 0.083224 0.120052 -0.018465 -0.137777 -0.111278 -0.141067 0.167538 -0.043961 0.104667 -0.080052 0.034812 0.198807 0.146855 0.031657 0.077128 0.201531 0.102645 -0.650905 0.154682 -0.266450 0.124885 -0.137752 0.034739 0.086354 0.076966 -0.274162 0.098580
M145~e -0.213788 -0.118176 -0.159994 -0.139346 -0.211899 -0.109484 0.001672 0.128332 -0.071774 0.172742 0.181009 0.145234 -0.270739 -0.354945 -0.351993 -0.370685 -0.319232 -0.137457 0.068703 -0.059163 -0.012089 -0.103631 -0.001628 -0.173833 -0.178358 -0.062524 0.051692 0.211643 0.070883 -0.090565 -0.077063 0.005743
M297~b -0.067991 0.020447 -0.013479 0.205615 0.439151 -0.051629 -0.052707 0.243589 -0.057654 0.182292 0.213330 -0.032614 -0.088688 -0.507198 -0.124320 -0.324066 -0.191110 0.101311 0.224228 0.057239 0.186437 -0.130771 -0.083051 -0.034950 -0.080132 -0.121966 -0.031999 -0.133475 -0.058485 0.017529 -0.079974 0.124780
M134 -0.171560 -0.119802 0.026285 -0.017007 -0.036520 -0.188675 -0.327285 0.118224 -0.321015 0.165009 0.301760 0.266327 -0.215303 -0.226619 -0.416680 -0.350613 -0.133595 0.032997 0.222355 0.074121 -0.007842 -0.058130 -0.042094 -0.107952 -0.052024 -0.110995 0.017793 0.004006 0.001172 -0.012517 -0.062722 0.022141
M346~d -0.039404 -0.379877 -0.479674 -0.161329 0.176351 0.515927 0.032027 -0.200998 0.037108 0.124373 -0.089448 -0.316225 -0.029646 0.071870 0.190749 0.017617 -0.088060 0.021072 0.020197 0.107376 0.200289 0.002058 0.013360 -0.030750 0.073444 0.015309 0.062161 0.075281 0.019227 0.097040 0.016770 0.071609
M346~e -0.043294 -0.416034 -0.511527 -0.169631 0.184970 0.524826 0.032291 -0.201224 0.036416 0.118799 -0.084451 -0.291549 -0.026618 0.063128 0.167341 0.015094 -0.073951 0.016970 0.015927 0.083246 0.148577 0.001522 0.009535 -0.020840 0.047544 0.009765 0.034690 0.040403 0.009424 0.042628 0.005951 0.015625
M124 -0.088965 -0.018099 0.041656 -0.014629 -0.053242 0.094008 -0.114249 -0.010135 -0.133367 0.186888 -0.067481 0.117329 -0.212805 0.089182 0.010602 0.022179 -0.220453 -0.327793 -0.524044 0.003601 0.381586 -0.168126 0.161784 0.225206 -0.188240 0.069884 -0.108491 -0.019023 -0.091385 0.154164 0.158508 0.221272
N23 -0.094592 -0.225184 -0.242959 -0.143663 0.074363 0.127768 -0.227094 -0.251169 0.010560 -0.333498 -0.183915 -0.154294 0.100148 0.383047 0.413963 0.339752 0.119824 0.044341 -0.124394 0.095343 0.139211 0.042234 0.061188 0.143620 0.102682 0.021247 -0.038787 -0.066616 -0.018543 0.068735 0.053505 0.018932
M006 0.076844 0.119672 -0.122351 0.155974 -0.274620 -0.033157 -0.326785 -0.184376 0.591388 0.085895 -0.006408 0.255313 0.028548 -0.055000 0.143755 0.035027 -0.151653 0.234486 0.146418 -0.124638 0.087662 -0.082972 0.006537 0.053898 -0.016696 0.033735 -0.090315 -0.081667 0.052273 0.000389 -0.312150 0.161915
|M351+N14| -0.143424 -0.159861 0.248365 0.193934 0.211140 0.134288 -0.054443 -0.028863 -0.182860 0.255187 -0.102138 -0.228097 -0.135748 -0.225345 0.153095 0.192959 0.216822 -0.020516 0.069544 0.027025 -0.105861 -0.325998 0.053550 -0.158532 -0.097546 0.232787 0.200742 -0.118020 -0.038911 -0.045741 -0.354562 0.227018
M319 -0.212583 0.013434 0.187117 0.069829 0.071315 -0.064278 -0.199035 0.081050 0.158371 0.074211 -0.023298 0.038219 0.265931 0.011009 0.025305 -0.035525 0.020086 0.168561 -0.005739 -0.127036 -0.089246 0.040428 -0.404067 0.230950 -0.668219 0.038768 0.057469 0.010534 -0.071669 -0.022934 -0.058331 0.149369
M009 -0.229575 -0.170944 0.298137 -0.255322 -0.165604 0.009824 -0.072283 0.204562 -0.060561 0.126003 -0.369319 -0.292669 -0.118418 -0.035934 0.442014 0.107647 -0.125117 -0.078105 0.119856 0.068877 -0.138174 -0.092788 -0.047828 0.027472 0.120363 0.136264 -0.269404 0.051354 -0.097959 -0.014774 0.091589 0.165685
M001 0.171128 -0.163690 0.181843 -0.111106 0.222738 -0.075890 -0.156385 -0.192362 0.265236 -0.338036 -0.142289 0.048023 -0.096289 0.207663 0.212034 0.133795 -0.077418 0.067233 0.059106 0.373165 0.117953 -0.020299 0.005545 -0.108730 0.091579 -0.000610 -0.068143 -0.258421 -0.110852 0.083447 -0.297981 0.303249
M320 -0.394798 -0.229630 -0.422332 0.174382 -0.157790 0.100502 -0.104376 -0.306145 -0.142867 0.102308 -0.059937 -0.097951 0.053699 -0.122162 0.067796 0.084741 0.159832 -0.091072 -0.125086 -0.071215 -0.134299 -0.214988 0.006391 -0.137022 -0.037820 -0.141454 0.064311 -0.110353 0.047618 -0.266857 -0.037551 0.345094
M125 -0.068180 0.265503 -0.336097 -0.176245 -0.161716 -0.182928 0.136486 0.284346 -0.014769 -0.169002 -0.045407 0.307567 -0.340193 -0.105266 -0.092415 0.223606 -0.073124 -0.066479 -0.064139 0.095882 0.092620 -0.449348 0.168719 0.067828 -0.116841 0.004501 -0.076790 0.024946 -0.014627 0.020234 -0.132092 0.077796
M263~a 0.012095 -0.105779 -0.096556 -0.111033 -0.293153 -0.097247 -0.215957 0.091961 0.315378 0.278698 -0.214361 0.161890 -0.259111 -0.206251 0.061015 -0.037175 0.135101 0.227934 0.034009 0.133869 -0.267669 -0.217331 0.067418 0.313547 0.146137 -0.134266 -0.171588 -0.090075 -0.128802 -0.005387 0.056969 0.211240
M032 0.227620 -0.073166 0.027463 -0.594687 0.093316 -0.117077 -0.046453 0.147239 -0.096494 -0.043220 -0.023526 -0.174291 0.018960 -0.005687 -0.062554 -0.125848 0.386201 0.073223 -0.013969 0.048166 0.207720 -0.102480 -0.363555 0.010059 -0.093101 -0.034234 -0.051611 0.115767 -0.011153 -0.200167 0.077556 0.254679
M059 -0.093041 -0.097021 -0.388023 -0.023768 0.419149 0.139735 0.299660 0.217743 0.073556 0.251109 -0.222851 -0.075849 -0.092011 -0.247930 -0.038615 0.254252 -0.014541 0.039363 0.043982 -0.056432 -0.033595 -0.365815 -0.118467 -0.181676 0.057753 -0.154771 -0.023915 -0.006170 -0.081459 -0.019449 -0.076294 0.093956
M024 0.117496 -0.302645 0.110010 -0.146515 -0.213957 0.332736 -0.325880 0.391975 0.094092 -0.120970 -0.004244 -0.256460 -0.034880 0.011347 -0.239499 -0.113478 -0.048556 0.038086 0.029582 0.198013 -0.092972 0.030319 0.107277 0.005060 0.074095 0.036523 -0.341702 0.141459 -0.185110 -0.011019 0.052247 0.195288
|M218+M288| 0.178843 -0.162606 0.038554 0.021535 -0.054372 0.128921 -0.062398 0.074936 0.036711 0.036661 -0.185750 -0.130404 0.156574 -0.087312 -0.302657 0.259450 -0.099653 -0.147996 0.149664 0.021934 -0.197489 0.252196 0.039098 0.074752 -0.076599 0.169809 0.500191 0.178287 -0.281016 -0.108084 -0.011214 0.305600
M377~e -0.102252 0.174501 0.275741 0.066055 0.129942 0.095088 0.029845 -0.089536 -0.263267 0.261023 0.438068 0.077567 0.471673 0.089289 -0.150096 0.147811 -0.079451 0.038834 -0.225724 -0.062836 -0.165515 -0.081827 0.186825 0.206356 -0.132018 -0.023588 0.004529 -0.018097 -0.005297 0.014928 0.065470 0.191072
M371~c 0.075135 0.078488 0.026444 -0.041085 -0.110836 0.052931 -0.075331 0.038447 0.008425 -0.001087 0.047267 0.037034 -0.010596 -0.135822 0.106920 0.143426 0.137229 0.172115 -0.022283 0.137872 0.233715 -0.039578 -0.063196 0.124908 0.323109 0.100819 0.636908 0.447718 -0.080581 -0.093450 0.020765 0.171045
M248~c -0.044964 -0.035940 -0.156068 -0.090220 -0.054329 0.054188 -0.059300 0.143382 -0.041483 -0.101832 -0.091163 0.019145 0.117485 -0.070317 -0.050158 -0.022728 0.094371 -0.002756 -0.073117 -0.093752 0.123022 0.017228 -0.004499 -0.070609 0.053964 -0.006723 -0.037858 -0.312775 0.534541 -0.649022 0.091555 0.175012
M222 0.071156 0.089773 0.162962 0.189277 0.072788 0.049868 0.067067 0.135821 -0.103667 0.264652 -0.038407 0.084527 0.129576 -0.199975 -0.073658 -0.157437 0.045759 0.002143 -0.038355 -0.186202 -0.340477 0.149754 0.189235 -0.138026 -0.518051 -0.050127 -0.062513 0.305301 -0.195489 -0.196470 -0.028851 0.200644
M057~b -0.258389 0.496816 0.160906 -0.174832 0.048017 0.141198 0.184559 -0.125850 -0.271074 -0.111198 -0.098588 -0.125696 0.026217 -0.045631 0.101187 -0.200672 0.095367 0.068604 0.211853 -0.162311 -0.038079 0.149294 -0.258862 0.287167 -0.292241 -0.115864 0.031503 -0.023432 -0.032920 0.063952 -0.020441 0.170186
M325 -0.309932 -0.174148 0.225043 -0.081333 0.146852 0.151743 -0.004194 -0.066224 -0.155831 0.100786 -0.080194 -0.048594 0.036547 -0.139426 -0.271073 0.454126 0.218416 0.043036 0.372905 -0.119745 0.167087 -0.247273 0.099858 -0.002016 -0.063510 -0.146299 -0.049328 -0.108202 -0.074664 0.051231 -0.248049 0.111099
|M218+X| -0.018618 0.013952 0.280210 0.093843 0.234804 -0.030148 -0.240313 0.010550 -0.017494 0.177590 -0.192211 0.166805 0.301208 -0.042452 0.045769 -0.087439 -0.027330 0.047093 -0.178491 0.026408 -0.266708 -0.148379 0.153534 0.327964 -0.514027 -0.173395 0.073169 -0.004572 -0.025682 0.046036 0.045671 0.187129
M038~f -0.138969 0.127812 -0.076860 0.152475 0.035375 0.209543 -0.211267 -0.163342 0.027379 0.147627 0.017501 0.266421 -0.175382 -0.014334 0.024619 0.125246 -0.055683 -0.206860 -0.354793 -0.030878 0.370139 0.099089 0.055560 -0.133067 -0.166853 0.115077 -0.221489 0.006510 0.132863 0.406914 0.160968 0.194862
M110~a 0.101294 -0.154985 0.004119 -0.248401 0.223538 0.031914 0.055737 -0.094607 -0.055733 -0.116170 0.083416 -0.110251 0.128251 0.098340 -0.047609 -0.228068 0.098306 0.255309 -0.189403 -0.140963 -0.118885 -0.174712 -0.058062 -0.428707 0.122111 -0.124572 -0.316670 0.365305 -0.234789 -0.113187 0.003070 0.174141
M242~b -0.076222 -0.126980 0.245301 -0.041701 -0.027023 -0.147674 0.155160 0.369561 -0.261752 0.065772 -0.118096 -0.241824 -0.061069 0.021401 0.139342 0.071685 0.050207 0.105823 0.020631 0.090976 0.105196 0.002683 -0.099853 -0.046350 0.159653 0.097604 0.127731 -0.154385 0.414138 -0.453866 0.099540 0.225314
|M136+M365| 0.200982 -0.219664 -0.033726 -0.243295 0.166420 0.120174 -0.183056 -0.007125 0.146818 0.382768 -0.231976 -0.026449 0.266366 -0.254012 0.009639 -0.210216 0.020144 -0.029262 0.189730 0.301056 0.223043 -0.269424 0.021874 -0.089440 0.009849 -0.123152 -0.009744 -0.160984 -0.184765 0.015754 -0.168212 0.101614
M029~a 0.072178 0.046966 -0.144987 -0.170492 -0.229437 0.227347 0.195207 -0.082188 0.168183 0.097523 0.099466 0.250566 0.097727 0.057707 -0.295507 0.135918 0.127749 0.431779 0.168037 -0.087673 -0.034001 -0.365524 0.160004 -0.184555 -0.031961 0.241541 -0.079422 -0.036527 -0.150700 0.022448 -0.005145 0.202011
M136~p 0.001594 -0.369829 -0.064898 0.174246 0.283952 -0.046192 0.024388 -0.058806 -0.081940 0.057020 -0.193278 0.033506 -0.005510 0.146172 -0.193004 0.024943 0.082584 0.248430 -0.020588 0.052427 0.225095 0.142198 -0.548429 -0.002863 -0.305160 0.269238 -0.019049 -0.030704 0.026721 0.081217 -0.114289 0.058750
M327 -0.354609 -0.050848 -0.082963 0.111759 0.098963 0.182228 -0.268720 -0.174789 0.400095 0.346861 -0.051968 0.130222 -0.236553 -0.038253 -0.093749 -0.170785 0.077361 0.277612 0.006676 0.273303 -0.038069 -0.030967 0.072832 0.081431 0.114890 -0.083057 -0.063985 -0.108007 -0.021071 0.059894 -0.277900 0.147835
M005 -0.209054 -0.092625 0.251687 0.203535 0.144237 -0.063125 0.110383 0.153490 -0.209344 0.031066 -0.193669 -0.043085 -0.144159 -0.011824 0.073590 0.077988 0.073096 0.213326 0.086117 0.149457 0.140287 0.011876 -0.679380 0.128853 -0.228344 0.114499 -0.070661 -0.017762 0.048764 -0.001490 -0.010317 0.119188
M003~b -0.196538 -0.305038 -0.307674 0.132237 0.325064 0.346048 0.030517 -0.005955 0.047815 -0.176769 0.245864 0.011323 -0.287045 -0.182882 -0.208742 0.149998 0.052231 -0.060845 -0.004381 -0.049758 -0.126789 -0.256391 0.027658 0.088927 -0.001263 -0.055625 -0.160745 -0.053409 -0.103032 0.078093 -0.194736 0.260644
M351~d 0.262693 0.085914 -0.192619 -0.238512 0.119848 0.351907 0.161660 0.095664 0.134316 0.345802 -0.283913 -0.149846 -0.098510 -0.382211 -0.237301 -0.052573 0.148709 0.053007 0.232738 0.033053 0.083435 -0.185700 -0.143468 0.008029 0.039636 0.109132 -0.057272 -0.124073 -0.138138 0.005151 -0.033936 0.076786
M348 0.115280 -0.223374 -0.258787 0.003789 -0.269726 0.050954 0.129270 -0.141074 -0.018991 0.176951 -0.048691 0.103060 0.039441 -0.068004 0.098968 -0.087647 0.130418 -0.180477 0.070185 0.344710 0.032116 -0.007319 0.087844 -0.320687 -0.336014 0.180138 0.199220 -0.232481 -0.312790 -0.109768 -0.207242 0.112454
M057 -0.403752 -0.161883 -0.109455 0.243921 0.177915 0.050214 0.485410 -0.090953 0.077746 -0.070481 -0.118428 -0.062794 -0.239599 0.279855 0.006547 -0.214922 -0.269342 0.214361 0.111552 0.121112 -0.051036 -0.032130 0.067650 0.021748 0.130241 0.163432 0.103220 -0.067799 -0.069364 0.003679 0.024303 0.177918
M206~b 0.335144 -0.209933 -0.147965 0.056748 0.280297 -0.062939 -0.233477 0.068637 -0.184245 -0.019204 -0.219772 -0.175161 0.061513 0.010290 -0.170536 0.181090 -0.343904 -0.137106 0.298912 0.246183 -0.089570 0.178954 -0.071442 -0.042848 0.039380 0.054101 -0.230334 0.242562 -0.099215 -0.053301 -0.012323 0.185650
M383 -0.260060 -0.189107 0.023422 -0.217161 0.117292 0.133582 -0.320770 -0.022802 0.071420 0.464176 -0.213625 -0.063417 0.134179 -0.057484 -0.195385 -0.050691 0.023439 0.038475 0.090929 0.105755 0.121709 0.047894 0.101496 0.041157 0.104967 -0.061483 -0.009050 -0.039066 0.038759 0.075239 -0.539452 0.128266
M072 0.116354 -0.195347 -0.138963 0.195521 0.111260 0.243837 0.179392 -0.222831 -0.011600 0.019733 -0.301091 -0.173277 0.307433 0.172289 0.330650 0.067824 0.209926 -0.074069 -0.030637 0.421837 0.171961 -0.030823 0.073953 -0.053147 0.071863 0.019166 -0.182633 -0.086510 -0.221699 -0.005295 0.012235 0.121681
M041~j 0.173676 -0.124669 -0.212991 0.008837 0.430287 -0.086668 -0.419985 0.168368 -0.353711 0.248778 -0.149906 -0.035614 -0.126953 -0.033661 -0.225390 -0.076464 -0.092698 0.083375 0.374459 0.012127 0.133433 0.020080 -0.140898 0.049353 0.019281 -0.013573 -0.039886 -0.097064 -0.087841 0.030015 -0.067874 0.074960
|M036+N14| -0.245723 0.145798 -0.028711 0.031448 -0.152761 -0.148318 -0.177438 0.038522 -0.059445 0.051269 0.260813 0.081264 -0.284194 -0.384883 -0.392590 -0.417872 -0.236294 0.043373 0.248807 -0.048934 -0.067554 -0.104765 -0.004362 -0.179916 -0.110613 -0.006763 0.056004 0.078322 0.079296 0.015577 -0.032006 0.027630
M260~1 0.130838 -0.058431 -0.139457 -0.045813 0.251605 -0.029717 0.291715 -0.068518 0.003585 -0.095542 -0.110584 -0.083724 -0.065212 -0.218925 -0.215177 -0.133056 0.216797 -0.252807 -0.179110 -0.045475 0.042237 -0.034464 0.235751 0.076502 -0.147367 -0.109988 -0.020561 -0.145495 0.369919 -0.416356 0.080401 0.279013
M125~a 0.002991 0.105341 -0.283760 -0.045884 0.061244 -0.278831 -0.016116 0.050790 0.156829 0.140100 0.222765 -0.293968 0.183320 -0.129259 0.273279 -0.005647 -0.333631 0.138957 0.059795 -0.269077 0.219633 0.087618 0.025419 0.109629 -0.045707 -0.000883 -0.056258 -0.055627 0.054292 0.074604 -0.456628 0.126853
M376 -0.068559 -0.036686 -0.204471 0.085225 0.200483 -0.071809 0.076386 0.112644 0.377846 0.395972 -0.078797 -0.350103 0.237971 -0.279889 0.069446 -0.048099 -0.154342 -0.029509 0.271380 0.004609 0.258663 -0.224908 -0.147661 0.053747 -0.215019 -0.017339 0.008110 -0.072581 -0.097147 -0.022741 0.030755 0.085149
M310 -0.186618 -0.080424 0.061926 -0.050472 -0.168000 -0.164427 0.024503 -0.077964 0.360205 -0.115661 0.137214 -0.197931 0.095541 -0.172411 0.049191 0.263180 -0.072539 0.099149 0.266347 -0.160750 0.144668 -0.605124 0.096696 0.065779 -0.189584 0.039304 -0.048734 -0.067988 -0.069759 -0.012658 -0.109339 0.067805
M149~a -0.066805 0.025440 0.270714 0.292690 0.068749 -0.110084 0.221098 0.017604 0.260658 -0.264884 0.143741 0.011314 -0.079629 0.011459 0.184630 0.009055 -0.057980 0.075982 -0.037131 0.271023 -0.031650 -0.038064 0.199211 -0.034153 -0.039579 0.114756 -0.033869 -0.136642 0.146806 0.057852 -0.595635 0.169875
M381 -0.019590 0.400228 0.037660 -0.124487 0.142811 -0.207988 0.262605 0.170604 0.290166 0.177838 0.003402 -0.256657 0.256273 -0.264826 0.111682 0.039231 0.025397 0.042346 0.127282 -0.190205 0.207734 0.171399 0.095386 -0.105819 -0.089772 -0.074923 -0.246397 0.103432 -0.114178 -0.015063 -0.239535 0.160942
M039~b 0.006786 -0.010914 0.055122 -0.014212 -0.033634 -0.006042 0.002889 -0.031999 0.009992 -0.010260 -0.041714 0.105912 0.004373 0.007219 0.047255 -0.006303 0.040274 -0.002749 -0.182460 -0.003018 -0.106142 0.178683 0.107189 0.079431 0.164632 0.137542 -0.086234 0.011848 0.265914 0.133270 -0.849651 0.137799
|M175+M288| 0.098789 -0.209775 -0.404835 0.016803 -0.099416 -0.090401 0.153239 -0.255468 -0.241617 -0.063848 -0.079307 0.052589 0.130716 -0.036521 0.057625 -0.085590 0.112411 -0.109090 -0.142851 0.210372 -0.086064 -0.096582 -0.218658 -0.350708 0.024700 -0.459323 0.039123 -0.125173 -0.237182 -0.029031 -0.061990 0.090619
|M305+M111~c| -0.146045 0.112554 0.000291 0.112539 -0.208408 0.489429 -0.162649 0.322800 0.071806 -0.147717 0.365728 -0.413343 0.067224 0.137330 -0.121432 -0.086316 -0.053191 0.143678 -0.089367 0.276861 0.128590 0.095212 0.015004 -0.015165 -0.031008 -0.136711 -0.047084 -0.039576 -0.031253 0.026149 -0.048491 0.030570
M264~a 0.155970 0.161557 0.327158 0.103915 -0.172734 0.227457 0.469539 0.128610 0.142121 0.305185 -0.253361 0.087438 0.083167 -0.353285 -0.042391 0.045339 -0.058483 -0.047775 -0.003044 -0.257064 0.153937 0.135919 -0.026205 -0.140070 -0.003705 -0.217876 0.042384 0.001052 -0.085589 -0.008660 -0.016415 0.034436
N30C -0.223928 -0.039394 0.092752 -0.021074 -0.000498 -0.235817 -0.197432 0.140707 -0.197562 0.158169 0.349853 0.185083 -0.232978 -0.291040 -0.446075 -0.381955 -0.176344 0.044917 0.204241 -0.017556 -0.063427 -0.004160 -0.037780 -0.143739 -0.065860 -0.057512 0.067759 0.057948 0.018103 -0.031329 -0.046062 0.004651
|M305+M324~c| -0.146045 0.112554 0.000291 0.112539 -0.208408 0.489429 -0.162649 0.322800 0.071806 -0.147717 0.365728 -0.413343 0.067224 0.137330 -0.121432 -0.086316 -0.053191 0.143678 -0.089367 0.276861 0.128590 0.095212 0.015004 -0.015165 -0.031008 -0.136711 -0.047084 -0.039576 -0.031253 0.026149 -0.048491 0.030570
M302~t 0.104908 0.086527 -0.103401 -0.145887 -0.186585 -0.144875 0.226461 -0.214493 -0.250592 -0.072316 0.105767 0.024094 0.182887 -0.040398 0.160788 -0.229189 0.267792 -0.267190 0.214956 0.518677 0.098842 0.032107 0.021306 -0.074791 -0.167716 -0.254676 0.047814 -0.107391 -0.080014 0.002123 -0.063243 0.103863
M340 0.065923 -0.057036 0.020120 0.222947 -0.087915 0.016965 0.011919 -0.267793 -0.171027 -0.080214 0.143235 -0.177693 0.123168 0.043636 -0.416831 0.431504 0.010985 -0.170455 0.215813 -0.114430 0.112559 -0.486707 0.084749 0.032033 -0.011997 0.018696 -0.067699 -0.002996 -0.006199 -0.007278 -0.176982 0.120495
M372 0.047221 0.620826 0.232146 -0.093023 0.077818 0.092457 -0.267983 -0.249712 -0.075047 -0.109634 -0.247279 -0.093556 -0.080172 -0.069793 0.039093 -0.264801 -0.063179 0.040065 -0.075380 -0.039069 -0.088968 -0.103611 -0.102142 -0.121086 0.077998 0.080073 0.060185 -0.288491 -0.235250 -0.022115 -0.083790 0.108528
M354 -0.087323 -0.127993 -0.146150 0.071794 0.285182 0.247014 -0.146187 0.162356 -0.094026 0.673749 0.084600 -0.049482 -0.002530 -0.275110 -0.230057 -0.266099 -0.098430 0.021439 0.151650 0.118261 0.084369 -0.072630 -0.014731 -0.094345 -0.031791 -0.057807 -0.030836 0.015564 -0.078383 -0.053879 -0.060116 0.027255
M153 -0.292751 -0.157159 -0.122244 0.033505 -0.132300 0.038630 0.082566 -0.030884 0.063006 0.299412 -0.169692 0.190186 0.357317 0.250028 -0.006755 -0.154703 0.027081 -0.438878 0.328560 0.188318 -0.045145 -0.180890 -0.108798 -0.161794 0.045204 -0.161232 0.000022 0.005104 -0.013426 -0.047758 -0.013062 0.183793
M387~c 0.074628 -0.129965 0.295876 0.019648 -0.016524 0.209302 0.085212 0.229461 -0.069226 -0.258950 0.121107 0.029024 -0.176283 0.307812 0.021801 0.133368 0.119501 -0.275764 0.053646 0.103029 0.017522 -0.509859 0.096955 -0.228145 -0.029804 -0.066651 -0.037752 0.085351 -0.048895 0.049962 -0.225078 0.243011
M266~b -0.120541 0.036952 0.296818 -0.070436 -0.291278 0.123092 0.029599 0.002479 -0.059305 -0.204048 0.015915 0.102082 -0.108549 -0.260864 -0.070333 0.025677 -0.144495 0.013415 -0.146045 -0.312081 0.197602 0.262608 -0.050384 -0.252903 0.060368 -0.284324 0.334475 -0.036692 -0.304781 -0.080750 -0.066436 0.181879
M228~b -0.435459 0.018602 -0.263993 -0.074562 -0.039008 0.018238 0.049311 0.063740 0.023195 0.097574 -0.276826 0.208328 0.251366 0.250217 -0.070188 -0.241077 0.015884 0.063577 0.066417 -0.054919 0.069723 -0.068097 0.050662 -0.094110 0.101258 0.065750 -0.000870 -0.186253 0.346770 -0.414829 0.083753 0.161993
|M296+M296| -0.251532 -0.050865 -0.285413 0.043133 0.482462 0.266705 -0.075316 -0.013923 0.183233 -0.023184 0.286428 0.191039 -0.080545 -0.178889 0.229348 0.071172 0.094693 -0.204258 -0.056755 -0.082983 0.194453 -0.026067 0.025472 0.025987 0.153196 0.055871 0.162242 0.161459 0.057857 -0.170414 0.071599 0.274126
M305 -0.042348 -0.061323 -0.057184 -0.147585 0.557431 0.045269 -0.094382 0.026552 -0.175802 0.215628 -0.241626 -0.073532 0.135007 0.012539 -0.008312 0.156858 0.115966 0.051874 0.267882 0.007395 0.290120 0.175867 0.126071 0.064421 0.184065 -0.210134 0.051231 0.010001 0.062042 0.168358 -0.308233 0.178028
M128~d 0.238644 -0.060106 -0.162657 -0.074154 0.035147 0.028048 -0.201334 0.144538 -0.205187 -0.156604 -0.001792 0.011265 0.182814 -0.128259 0.134097 -0.119741 0.103601 0.039482 -0.054066 -0.168525 0.181490 -0.002316 0.084666 -0.184512 -0.012245 0.129806 -0.369175 0.000896 0.308863 -0.490795 0.117478 0.271925
M387~ee -0.095320 -0.018710 0.052104 0.100929 0.229571 0.046927 -0.209085 0.170308 0.060343 0.078877 0.005636 0.063134 0.050002 0.312772 0.242154 -0.176360 0.182435 -0.332911 -0.071052 -0.277750 -0.186487 -0.222096 -0.236092 -0.154010 0.065955 -0.382930 0.167343 0.065377 -0.034456 0.046998 -0.168905 0.202563
M057~a -0.462780 0.201543 0.066991 -0.198313 0.068892 0.013533 0.018186 -0.162712 -0.024489 0.263574 -0.288183 0.318063 0.141088 0.284143 -0.057918 -0.286749 -0.172573 0.056491 -0.119548 0.131702 0.059157 -0.115711 0.153289 -0.049864 -0.081643 0.159539 0.046690 -0.204634 -0.168907 -0.024838 0.009857 0.127505
M066~a -0.022040 -0.124067 -0.155445 0.427914 0.272713 -0.230223 0.053537 -0.085015 0.171836 -0.174893 -0.038283 0.102336 -0.254162 -0.157819 0.130646 -0.340591 0.202754 -0.209284 -0.055302 0.279779 0.158374 -0.242664 0.208529 0.013197 0.007605 -0.025468 -0.002572 -0.078943 -0.065751 0.042875 0.012642 0.193942
M101 -0.101411 0.120641 -0.350236 0.008669 -0.163058 0.270382 -0.058078 -0.215550 -0.132984 -0.096206 -0.211866 -0.173722 -0.087770 -0.245877 0.144723 -0.206130 0.200121 -0.063525 0.114136 0.113274 0.024519 -0.075964 0.017772 0.129264 0.090000 0.147431 0.472340 0.193024 -0.172895 -0.029168 0.000497 0.234544
M263~1 -0.002356 -0.159053 0.074444 0.055993 -0.475420 -0.342998 0.023025 -0.034832 0.043306 0.513745 0.155273 -0.117224 -0.283984 0.057700 0.154012 0.080932 0.106323 0.223755 -0.169785 -0.002708 -0.168029 0.028509 -0.010602 0.066421 0.063598 -0.130312 -0.071608 -0.011192 0.014158 -0.033211 0.076287 0.213354
M033 0.052061 0.013297 0.105532 0.044572 -0.330791 0.010261 -0.190952 -0.008539 -0.021853 -0.059397 -0.185875 -0.092014 -0.032646 -0.248020 0.208662 -0.273948 -0.025736 0.125252 0.298118 -0.202680 0.190525 0.058455 0.205230 -0.014689 0.223474 0.044910 -0.236427 0.248524 -0.293751 -0.084597 -0.174927 0.296168
M317~a -0.135545 -0.244272 0.101869 0.241294 -0.014045 -0.119213 0.128395 -0.032393 -0.449433 0.124186 -0.219126 -0.107379 -0.028846 -0.076395 0.312426 -0.034453 0.126659 -0.027498 0.236826 0.513127 0.008563 -0.083920 -0.105325 -0.113439 -0.024368 -0.108934 0.073186 -0.177307 -0.068568 -0.055689 -0.056931 0.106915
M024~1 -0.020787 -0.259696 0.242936 0.017088 -0.405996 -0.003048 -0.105285 0.236599 0.097625 -0.069781 -0.166067 -0.236762 -0.072650 0.146080 -0.064581 0.142553 -0.176737 -0.108871 0.185569 0.168516 -0.239186 0.083642 0.079168 -0.140225 0.069107 0.120479 -0.354155 0.271664 -0.177613 -0.119605 0.023273 0.175489
M004 -0.029959 -0.305879 -0.090197 0.216562 0.035822 -0.038907 0.086105 0.503865 -0.017847 -0.296424 -0.060223 0.261660 0.184166 -0.124177 0.097822 0.007886 -0.291620 -0.116612 0.032610 -0.123807 -0.224237 0.033066 0.113101 0.250028 -0.124231 -0.126220 0.091087 0.021292 -0.082479 0.085492 0.073106 0.256678
M102~d -0.214607 -0.057620 -0.005827 -0.240833 0.008108 0.170936 0.002069 -0.132963 0.128543 0.007808 -0.032954 0.052971 0.024022 0.089251 -0.107208 0.298942 -0.508928 -0.333633 0.041458 0.211684 -0.145442 0.091563 -0.112926 0.108233 0.115140 0.106568 -0.099302 -0.025806 0.179259 -0.339825 0.098269 0.229081
M318~a3 0.005355 0.444641 -0.275960 -0.010890 0.066399 -0.239345 0.054195 0.277242 -0.136668 -0.036043 -0.027575 0.163033 -0.046553 -0.086463 0.087390 0.065524 0.128677 0.101543 -0.019602 0.130586 0.076178 -0.031594 0.183881 -0.203511 -0.052213 0.070305 -0.399608 0.386373 -0.150980 -0.159611 0.015972 0.155263
M223 0.072166 0.012391 0.258880 0.276140 -0.193449 0.180660 -0.440922 -0.028394 0.014794 0.253503 -0.071777 0.317889 0.047133 -0.103950 0.200375 0.052275 0.111626 0.268731 0.057582 -0.082834 -0.283816 -0.055999 -0.072904 0.271273 -0.027274 -0.033300 0.180065 0.035338 -0.069377 -0.025495 0.061454 0.239333
M386~a 0.228031 -0.253881 0.157428 -0.345786 0.039244 0.064409 0.281776 -0.093549 -0.079413 -0.141371 0.044571 0.043116 0.249460 0.185264 -0.039047 -0.359630 -0.176673 0.405306 -0.026891 -0.130675 0.099829 -0.170614 0.157165 0.135585 0.135111 0.132520 0.093715 0.046469 -0.095527 0.029506 0.052005 0.181395
M230 -0.026535 0.171030 -0.172323 -0.172246 -0.051310 0.021578 -0.025817 0.379693 -0.150107 -0.035606 -0.068067 0.197252 0.073959 -0.064292 -0.202676 -0.069930 -0.043590 0.133456 -0.187475 -0.006409 0.010220 -0.078992 0.152319 0.069749 -0.171933 -0.104007 -0.020950 -0.149393 0.394779 -0.503310 0.094810 0.263119
M295~y -0.051932 -0.136538 -0.106764 0.352153 0.178900 0.077008 -0.201561 0.036205 0.278496 0.092580 -0.059874 0.198985 -0.102210 -0.069501 0.084293 -0.069136 0.097910 0.161231 -0.129423 -0.000144 -0.412192 -0.006183 0.193295 0.360433 -0.322170 -0.211484 0.031855 0.027406 -0.006753 0.056951 0.084412 0.238028
|M106+M288| -0.035172 -0.098400 -0.031672 0.099235 0.085380 0.118465 -0.249780 -0.059735 -0.115552 0.070998 -0.025424 -0.089439 0.073296 -0.132361 0.175522 0.039176 0.257292 0.118504 -0.319976 -0.079362 -0.210600 -0.124608 -0.057028 -0.009024 -0.056398 -0.093111 0.605948 0.312391 -0.085381 -0.055133 0.012567 0.263511
M246~ca 0.645594 -0.212450 -0.113522 -0.141955 0.055896 0.064986 -0.247781 0.084138 -0.240906 -0.084511 0.166646 0.113284 0.042172 -0.029698 0.138830 -0.165266 -0.116293 0.092741 -0.069300 -0.176180 0.162864 -0.209874 0.031512 0.246159 -0.036883 0.092157 -0.104152 -0.195503 -0.057764 0.010195 0.048907 0.138932
M005~a -0.153452 0.069534 -0.301433 -0.046599 0.331036 -0.189619 -0.122401 0.065213 0.300314 -0.063821 -0.265793 0.006221 -0.083715 -0.100333 0.041054 -0.054637 -0.195727 0.158072 -0.013012 -0.011175 0.150388 -0.228038 -0.448231 0.063538 -0.134635 -0.054605 -0.082606 -0.128905 -0.074702 0.070656 -0.298625 0.199158
M175 0.112361 -0.372877 0.092018 -0.168173 -0.014609 -0.431664 0.259787 -0.050442 0.352319 -0.145816 0.088048 -0.242272 -0.021015 -0.014230 -0.118085 -0.023625 0.287123 0.132581 -0.052914 0.029845 0.123293 0.009960 -0.259772 0.152881 -0.250448 0.056510 0.124414 0.084457 0.046190 0.091656 0.028459 0.135228
M250~ba 0.009051 0.056329 0.092681 0.114300 -0.005694 -0.029182 -0.059893 -0.093353 -0.346807 -0.073118 0.151244 -0.113981 0.215598 -0.079517 0.036183 -0.035698 0.248000 -0.147892 -0.036213 -0.302109 -0.093786 -0.227991 0.271810 0.376119 -0.356422 -0.213835 0.126979 0.001666 -0.047681 0.094906 0.024475 0.303614
M044 -0.250170 0.071022 -0.328078 -0.030161 -0.046217 -0.225895 -0.074431 -0.182432 -0.006490 0.045764 0.009503 -0.189175 -0.337597 -0.406393 -0.280245 -0.468959 0.089597 -0.186099 0.062456 -0.069828 -0.083310 -0.053615 0.064015 0.042841 -0.152060 -0.100629 0.041688 0.102313 0.033531 -0.034052 -0.024622 0.026636
|M218+M099| -0.077932 0.019495 -0.011007 -0.022095 0.123871 -0.000557 0.193019 -0.031547 -0.080027 -0.028293 -0.059458 0.052462 0.071057 0.170576 0.142159 -0.195231 -0.005827 0.285572 0.062470 -0.025797 0.074272 0.074712 0.274287 -0.256685 -0.062709 0.178368 -0.492303 0.452206 -0.205905 -0.178242 0.043721 0.190603
|M327+M044~c| 0.083045 -0.049012 -0.097679 -0.043845 -0.034774 0.054496 -0.076542 -0.034428 0.023408 -0.002890 0.022048 -0.065704 -0.127360 0.116690 -0.020849 0.104712 0.061844 -0.083993 -0.106383 -0.121983 -0.137749 0.181737 0.035950 -0.403647 -0.405479 0.469333 0.306833 -0.220048 -0.326194 -0.147022 -0.084867 0.075098
M338 0.059679 0.656815 -0.252768 -0.153930 -0.221017 -0.276951 0.182693 0.199079 -0.007229 -0.006236 -0.085545 0.223160 -0.260698 -0.032099 -0.071265 0.103236 0.005369 0.062252 0.040933 0.247233 0.127577 -0.070655 0.101255 -0.004498 -0.053622 -0.011069 -0.045105 -0.007535 0.040657 0.033198 0.035217 0.172100
M320~f -0.068135 0.131340 0.328518 0.452334 0.174996 -0.051770 0.318587 0.080408 0.157491 -0.307290 0.215533 -0.002737 -0.156202 0.072183 0.170107 -0.068963 -0.101355 0.078675 0.050622 0.446591 0.028737 -0.038292 0.144211 -0.100085 -0.092487 -0.048550 0.000897 -0.147749 0.029424 -0.024327 -0.022610 0.095030
M139 0.031968 -0.015554 -0.227916 -0.206397 0.034510 -0.027326 0.118861 0.147741 -0.050495 -0.114797 -0.186910 0.186613 -0.033502 -0.061256 -0.195700 0.216671 -0.056657 0.049269 -0.107823 0.121517 0.000491 0.096552 -0.591201 0.110579 -0.046927 -0.011621 -0.168385 0.030934 0.014574 0.111257 -0.439521 0.224000
M295~a -0.067506 0.056282 0.130792 0.172245 0.120394 -0.018863 -0.100624 0.029954 -0.139445 0.046361 -0.022039 0.025123 0.265736 -0.035909 0.195642 -0.081477 0.155195 0.049362 -0.065225 -0.098124 -0.276456 0.110130 0.227827 0.015609 -0.365147 -0.068068 -0.343566 0.493878 -0.133168 -0.197987 0.032191 0.202731
|M157+X| 0.048431 -0.052331 0.083977 0.089964 -0.195031 -0.016966 0.249633 0.064002 -0.025176 -0.352432 0.042120 0.091572 -0.031498 -0.095939 -0.017228 -0.088419 -0.137782 -0.157445 0.036006 -0.329001 0.054902 0.383934 0.201036 0.157381 0.173041 -0.022063 -0.009542 -0.033842 0.047605 0.100623 -0.517508 0.202319
N1@b -0.372791 0.081211 -0.129986 0.100691 0.142273 -0.134002 -0.177520 0.341344 -0.198761 0.122253 0.381163 0.030062 -0.222008 -0.261017 -0.359956 -0.340043 -0.153994 0.116179 0.032615 0.088377 0.019297 -0.074437 -0.017448 -0.074221 -0.055614 -0.110886 0.011134 -0.022189 0.033153 -0.036880 -0.032285 0.024394
|M260+N14| -0.303495 -0.130905 0.126110 0.246312 0.399705 0.079442 -0.167388 0.194879 -0.244814 0.404519 0.156338 -0.122479 -0.191470 -0.388594 -0.104641 -0.120127 0.011394 0.051997 0.123810 0.072316 -0.009198 -0.210109 0.002598 -0.116908 -0.070181 0.039780 0.070383 -0.056818 -0.017012 -0.021357 -0.089513 0.036156
N01@b -0.363823 0.014748 -0.036297 0.191829 0.289327 -0.021043 -0.150075 0.374672 -0.228847 0.232388 0.331805 -0.062265 -0.207386 -0.292030 -0.273937 -0.248328 -0.101338 0.135669 0.024633 0.114136 0.019356 -0.143890 -0.011028 -0.100077 -0.067144 -0.074516 0.035465 -0.053553 0.026717 -0.049499 -0.065675 0.041350
|M157+M131| 0.000013 0.043136 0.186240 -0.175181 0.212714 0.198454 0.055871 -0.285593 0.050453 0.423737 0.051857 0.206213 -0.159706 -0.090031 0.078219 -0.010391 -0.131796 -0.445767 -0.167430 0.335851 0.248612 -0.114767 0.023691 0.138357 -0.134946 0.017696 -0.050708 -0.085286 -0.032269 0.012614 0.018462 0.121653
M157~a 0.269912 -0.174794 -0.169537 0.006957 0.221240 0.102372 -0.317443 0.038221 -0.140665 0.162007 -0.278257 0.050258 -0.135803 -0.035077 -0.087922 0.048790 -0.051580 0.163083 0.254996 0.091820 0.297053 0.035527 -0.444761 -0.007738 -0.248876 0.186076 -0.032510 -0.142395 -0.159266 0.020400 0.044194 0.121074
M343 0.006786 -0.010914 0.055122 -0.014212 -0.033634 -0.006042 0.002889 -0.031999 0.009992 -0.010260 -0.041714 0.105912 0.004373 0.007219 0.047255 -0.006303 0.040274 -0.002749 -0.182460 -0.003018 -0.106142 0.178683 0.107189 0.079431 0.164632 0.137542 -0.086234 0.011848 0.265914 0.133270 -0.849651 0.137799
|M218+M101| -0.019140 -0.037325 0.055348 0.063289 -0.049723 -0.055758 -0.076233 0.063982 -0.050177 -0.061375 -0.031852 -0.154120 -0.015685 0.035381 0.177954 0.013012 0.104675 -0.027135 0.027661 -0.057976 -0.046966 0.187422 0.149312 -0.450705 -0.205832 0.331964 -0.372421 0.396259 -0.312637 -0.252190 -0.020672 0.150541
M352~c 0.104917 0.242020 -0.385777 -0.086368 -0.243661 -0.179807 0.181506 0.035301 -0.224461 -0.000665 -0.047583 0.321133 0.052468 -0.032047 0.045612 -0.004956 0.122905 -0.020331 0.080922 0.577846 0.117206 -0.131084 0.128534 -0.113206 -0.115672 -0.179515 0.027326 -0.035296 -0.110758 -0.023755 -0.033815 0.093706
M057~a1 0.106071 -0.185733 -0.202872 0.018495 -0.236376 0.003383 0.059501 -0.241038 -0.173946 -0.005368 0.010801 0.100171 0.097130 0.036745 0.099559 -0.090782 0.197904 -0.194395 0.059172 0.398902 -0.001595 0.084276 0.067085 -0.349865 -0.338477 0.111615 0.227416 -0.226940 -0.305540 -0.112587 -0.089380 0.089439
M391 0.050118 0.134023 0.014153 -0.165491 -0.004670 -0.068931 0.336735 0.025695 -0.062082 -0.308491 0.120919 0.245826 -0.099329 -0.012350 0.038614 -0.037049 0.076197 -0.067633 0.054736 0.510746 0.157892 -0.026376 -0.357813 0.117271 -0.379413 -0.047758 -0.080395 -0.053981 -0.006837 0.006415 -0.133828 0.175792
M038~a2 0.007212 -0.011596 0.058423 -0.015043 -0.035594 -0.006377 0.003047 -0.033723 0.010512 -0.010769 -0.043742 0.110843 0.004566 0.007525 0.049258 -0.006558 0.041841 -0.002848 -0.188685 -0.003117 -0.109297 0.183959 0.110092 0.081312 0.168059 0.140282 -0.087299 0.011971 0.267472 0.133401 -0.843572 0.134983
M387~ef -0.215463 0.096732 0.316699 -0.199638 -0.141488 -0.028756 0.201233 0.050665 -0.048219 -0.107203 -0.131345 0.122638 -0.103686 -0.197989 0.041588 0.138271 -0.081192 -0.085639 -0.147414 -0.404686 0.332053 0.238243 -0.037895 -0.121003 0.125132 -0.335447 0.221259 0.037148 -0.183307 0.040835 0.003008 0.164100
M057~a4 -0.159514 -0.340595 0.079469 -0.092078 -0.383869 -0.052073 0.163566 0.151751 0.172350 -0.078932 -0.088719 -0.170959 -0.172789 0.131811 0.241301 0.007774 -0.241979 0.193854 0.033203 -0.064280 -0.104848 -0.031599 0.133400 -0.275808 -0.177248 0.371437 0.177807 -0.047336 -0.174212 -0.067909 -0.025320 0.138897
M246~g 0.101216 0.415392 -0.220345 -0.147982 -0.117488 -0.107410 0.027836 0.249676 -0.042292 0.001767 -0.010512 0.205435 -0.108964 -0.092288 0.017945 0.225941 0.069422 0.221275 -0.046233 0.226540 0.196931 -0.127214 0.038899 0.068501 0.189288 0.049822 0.420630 0.350022 -0.065662 -0.065366 0.014976 0.165706
M207~a 0.006786 -0.010914 0.055122 -0.014212 -0.033634 -0.006042 0.002889 -0.031999 0.009992 -0.010260 -0.041714 0.105912 0.004373 0.007219 0.047255 -0.006303 0.040274 -0.002749 -0.182460 -0.003018 -0.106142 0.178683 0.107189 0.079431 0.164632 0.137542 -0.086234 0.011848 0.265914 0.133270 -0.849651 0.137799
M323 -0.315487 0.088307 -0.132731 -0.109284 -0.078507 -0.084099 -0.115846 -0.049020 0.484471 0.331790 -0.020086 -0.130270 0.434623 -0.080937 0.110533 -0.140921 -0.193213 0.085673 0.057507 0.068588 0.097790 -0.084386 0.055270 0.011504 -0.101423 0.021961 -0.020582 -0.060899 0.041506 0.062299 -0.373360 0.109083
M128 0.077278 0.250144 0.057861 0.191930 -0.285793 0.037046 0.012474 -0.166980 0.141036 -0.077185 0.086071 0.160057 -0.152201 0.136784 -0.035367 0.135563 0.120397 0.236046 0.164600 0.037386 0.002465 -0.228903 0.090268 -0.112951 -0.021176 -0.060575 -0.090784 -0.306666 0.415508 -0.362732 -0.082129 0.265371
M207 -0.106655 0.076188 0.113602 -0.002464 -0.063766 0.060895 0.307373 0.269266 0.256138 0.229886 -0.122445 0.236071 -0.150323 -0.210519 0.261513 -0.052947 -0.202997 -0.456651 -0.104085 -0.207130 0.311128 -0.144041 -0.102988 -0.028897 -0.060125 -0.008583 -0.010978 0.017929 -0.059945 0.096378 -0.028233 0.132639
|M175+M131~d| -0.028537 -0.035633 -0.031463 -0.006899 0.046168 0.014679 0.005860 -0.083985 -0.002373 0.017566 -0.102936 0.083866 -0.013714 -0.039088 -0.005913 0.030320 0.086145 -0.016217 -0.199037 -0.036436 -0.113102 0.187752 0.056385 0.103040 0.148325 0.095486 -0.075028 0.016735 0.225312 0.102789 -0.857736 0.149309
|M157~a+M131| -0.109990 0.131514 -0.180145 -0.089755 0.003900 -0.271525 -0.187275 0.043460 0.539603 0.056860 0.133986 -0.336446 0.316731 -0.140230 0.177249 -0.020569 -0.310236 0.106222 0.103825 -0.133684 0.197436 -0.111581 -0.010693 0.053807 -0.202286 0.000953 0.013734 -0.055008 -0.038871 -0.018973 -0.061938 0.039460
M048~c 0.026616 0.362072 -0.094200 0.159838 0.074977 -0.017838 0.159429 0.197089 0.049430 -0.113640 0.252002 0.226650 0.063145 0.019689 0.109325 0.022692 -0.298283 0.262751 -0.172934 0.094845 0.035615 -0.024038 0.206393 -0.091285 -0.172890 0.070320 0.046852 -0.357480 0.004496 -0.318378 0.021026 0.316477
M217 -0.072721 0.165730 0.048850 0.047072 0.021627 -0.243419 -0.071468 -0.253756 0.274969 0.031224 0.224033 -0.128037 0.333715 0.120689 -0.073033 0.128001 -0.409557 -0.338242 -0.162665 -0.240587 0.120591 0.040877 -0.102388 -0.056453 0.069134 0.081828 0.047956 -0.062020 -0.131981 -0.042020 -0.226460 0.241135
M097~h 0.105816 -0.027862 -0.148870 -0.368840 0.018704 0.174594 0.016113 0.141863 0.043753 -0.171157 -0.007682 0.119482 -0.039849 -0.137591 -0.102660 0.216013 -0.246661 -0.268506 0.082803 0.289944 -0.455719 0.057202 -0.068848 0.317064 -0.114039 -0.079277 0.063648 0.170330 -0.049241 -0.015595 0.053236 0.239590
M203~c 0.089912 -0.422623 -0.090666 -0.193247 -0.044488 -0.178376 -0.069146 0.334608 0.031690 -0.014349 0.026816 0.185171 0.009731 -0.261980 0.234711 0.121398 0.008558 -0.265001 0.021572 -0.132828 0.218854 0.120880 -0.104031 -0.089509 -0.024327 0.221112 0.280390 -0.106972 -0.206309 0.068882 -0.200235 0.213848
M305~h -0.109990 0.131514 -0.180145 -0.089755 0.003900 -0.271525 -0.187275 0.043460 0.539603 0.056860 0.133986 -0.336446 0.316731 -0.140230 0.177249 -0.020569 -0.310236 0.106222 0.103825 -0.133684 0.197436 -0.111581 -0.010693 0.053807 -0.202286 0.000953 0.013734 -0.055008 -0.038871 -0.018973 -0.061938 0.039460
M038~e 0.081867 -0.287920 0.029438 -0.051007 -0.247160 -0.260827 0.305658 0.159224 0.045969 -0.390095 0.105514 0.171467 0.161824 -0.217567 0.233654 -0.084578 0.029446 -0.345094 0.180296 -0.005531 0.151537 0.224457 0.059472 -0.081226 -0.098564 -0.148661 0.125739 -0.116206 -0.119398 0.048926 -0.012514 0.122608
M311~b -0.254158 -0.071390 0.024815 -0.078989 -0.190463 -0.303485 -0.060950 0.162388 0.121659 0.129550 0.139505 0.235394 -0.313220 -0.322719 -0.171585 -0.276147 -0.266183 -0.023156 0.060885 -0.040785 -0.030235 -0.111378 0.076140 -0.054180 -0.048234 0.068365 -0.012495 0.077877 0.082361 -0.009197 -0.472035 0.094132
M376~b -0.199297 0.162113 -0.465157 0.095687 0.094268 -0.231612 -0.073208 -0.282061 0.176637 0.281677 -0.194832 -0.312368 0.133961 -0.032386 -0.069417 -0.133467 0.189162 -0.335262 0.159276 0.079346 0.120615 -0.132439 0.024329 0.105084 -0.098301 -0.145829 0.030429 0.006721 -0.078057 -0.019526 0.023795 0.103977
M146~d -0.213640 0.131713 -0.001152 0.062912 -0.162456 0.283287 -0.129179 0.212475 0.250963 -0.158907 0.255165 -0.292456 0.163621 0.062036 -0.067461 -0.074549 -0.076370 0.238628 -0.074240 0.169918 0.262336 0.124069 -0.345493 0.127345 -0.224588 0.008385 -0.117455 -0.008770 0.056932 0.070499 -0.292363 0.099740
M321~b -0.103127 -0.005498 0.091132 0.036893 0.002393 0.065855 0.110870 -0.049414 -0.033812 -0.128816 -0.078218 0.171896 -0.013763 0.032937 -0.121860 -0.009189 0.120121 0.191074 0.010546 0.065097 0.263223 0.087408 -0.742895 0.182502 -0.360541 0.107075 -0.136671 0.063904 0.025551 0.048959 -0.019169 0.077013
M374~c 0.025469 0.364234 -0.241133 -0.207875 -0.025380 -0.131533 0.123954 0.130891 0.097298 0.132437 0.032132 0.019758 0.042768 -0.139049 0.043538 -0.004647 -0.137982 0.060765 0.014648 0.098599 0.433745 -0.088954 -0.405659 0.181310 -0.443197 0.053140 -0.077524 0.005294 -0.010433 0.078076 -0.048856 0.152809
M323~a -0.218800 -0.067445 -0.017766 -0.044007 -0.266388 -0.331664 0.006389 0.188302 0.453669 0.022352 -0.134432 0.158974 -0.261029 -0.182510 0.278995 0.055894 -0.211978 -0.009733 0.044353 0.004709 0.143170 -0.368540 0.095733 0.090274 -0.061170 0.093096 -0.077557 -0.086511 -0.169622 -0.047018 -0.114391 0.078538
M056~f 0.257105 0.011154 -0.127270 -0.008199 0.000359 0.279556 0.443748 0.063665 0.188151 0.335360 -0.112376 -0.117528 0.059255 -0.074161 -0.108441 -0.041569 0.005943 -0.019689 -0.003331 -0.092528 -0.074291 0.032326 0.001373 -0.325941 -0.264198 0.350955 0.202972 -0.136437 -0.219545 -0.054043 -0.083935 0.094001
|M054+M384~i+M054~i| -0.091334 0.012951 0.359621 0.023966 -0.021927 -0.077800 0.009885 -0.136732 0.137263 -0.173457 -0.163697 0.133112 0.193103 -0.232727 0.132251 -0.015816 0.011453 -0.031246 -0.195691 0.077452 -0.045795 0.264135 0.178236 -0.169402 0.173079 0.062323 -0.060000 0.000751 0.408955 0.388998 -0.289412 0.127015
M111~e 0.006786 -0.010914 0.055122 -0.014212 -0.033634 -0.006042 0.002889 -0.031999 0.009992 -0.010260 -0.041714 0.105912 0.004373 0.007219 0.047255 -0.006303 0.040274 -0.002749 -0.182460 -0.003018 -0.106142 0.178683 0.107189 0.079431 0.164632 0.137542 -0.086234 0.011848 0.265914 0.133270 -0.849651 0.137799
M075~g 0.052349 -0.114819 -0.108260 0.060032 0.273090 0.018241 -0.115059 0.027777 -0.195881 0.073189 -0.178123 0.095489 -0.014470 0.145220 -0.142337 0.032588 0.033829 0.164728 0.114167 0.020209 0.253835 0.156503 -0.592524 0.038507 -0.419209 0.234707 -0.012332 -0.065897 -0.119472 0.017425 -0.083306 0.112199
M387~l 0.019100 -0.011233 -0.191652 -0.212800 0.300902 -0.021933 0.019673 0.176105 -0.096588 0.152575 -0.285026 -0.061999 -0.060174 -0.136716 -0.425460 0.463294 0.167021 0.063398 0.229027 -0.034158 0.189150 -0.169090 0.144455 -0.017510 -0.021445 -0.107520 -0.052486 -0.094545 -0.059006 0.059373 -0.199387 0.133624
|M195+M038| -0.041743 0.079088 -0.194509 0.167579 0.053072 -0.076339 -0.004358 0.034205 0.161204 -0.171303 0.022290 0.105078 -0.024652 0.067604 -0.037897 -0.166640 0.358541 -0.296451 -0.057479 -0.140523 -0.213559 0.154567 -0.087789 0.187863 0.169707 0.045533 -0.136224 0.016596 0.105598 0.107623 -0.600944 0.171589
M056~e 0.083045 -0.049012 -0.097679 -0.043845 -0.034774 0.054496 -0.076542 -0.034428 0.023408 -0.002890 0.022048 -0.065704 -0.127360 0.116690 -0.020849 0.104712 0.061844 -0.083993 -0.106383 -0.121983 -0.137749 0.181737 0.035950 -0.403647 -0.405479 0.469333 0.306833 -0.220048 -0.326194 -0.147022 -0.084867 0.075098
M075~ga 0.006786 -0.010914 0.055122 -0.014212 -0.033634 -0.006042 0.002889 -0.031999 0.009992 -0.010260 -0.041714 0.105912 0.004373 0.007219 0.047255 -0.006303 0.040274 -0.002749 -0.182460 -0.003018 -0.106142 0.178683 0.107189 0.079431 0.164632 0.137542 -0.086234 0.011848 0.265914 0.133270 -0.849651 0.137799
M057~b1 -0.256260 0.409879 0.009881 -0.145897 0.274193 0.178541 0.088720 0.143735 -0.206642 0.000095 0.362376 -0.249268 0.054028 0.086487 0.143454 -0.034481 0.143101 -0.036227 0.119052 -0.020771 -0.262304 0.172524 0.010428 0.133103 -0.315557 -0.043473 0.217379 -0.034854 -0.072775 -0.019642 -0.015578 0.179973
M086 -0.138828 0.072936 0.079835 0.034328 -0.090762 0.164220 -0.085553 0.141565 -0.035189 -0.035146 0.161970 -0.017887 0.012243 0.000196 -0.055115 -0.070162 0.006217 0.056083 -0.162818 0.049666 -0.081179 0.219794 0.121047 0.062842 0.135791 0.090942 -0.065977 0.014332 0.251581 0.130632 -0.795851 0.132230
M318~a 0.082328 0.337216 -0.001750 -0.184984 0.185840 -0.104587 0.067851 0.099430 -0.222461 -0.084555 0.043340 0.124610 0.177514 0.113799 0.007471 0.074634 0.029168 0.204497 -0.328467 -0.043429 0.127021 -0.183808 0.035198 -0.284905 0.200038 -0.038551 -0.031497 0.412491 -0.273620 -0.114553 0.023909 0.274243
M262~1 0.160252 -0.382252 0.241592 0.145108 0.134485 -0.050004 -0.071033 0.023952 -0.042434 -0.033155 -0.225979 -0.334784 -0.204732 -0.098235 -0.111222 0.053720 0.028349 0.128696 -0.241855 0.108013 -0.056882 -0.083001 -0.197410 -0.091747 0.221792 -0.009071 0.274687 -0.049227 0.195583 -0.309179 0.066852 0.281428
M380 -0.008907 0.177783 -0.115509 0.143178 0.091937 -0.224223 0.165035 0.055129 -0.103709 -0.202202 0.247608 -0.134038 0.023499 -0.092084 0.082797 -0.120209 0.078211 -0.161090 -0.037813 -0.318877 -0.082699 0.197914 -0.089315 -0.325119 0.044063 -0.214198 -0.340633 0.282812 -0.250387 -0.110291 -0.024258 0.264694
M329~a 0.006786 -0.010914 0.055122 -0.014212 -0.033634 -0.006042 0.002889 -0.031999 0.009992 -0.010260 -0.041714 0.105912 0.004373 0.007219 0.047255 -0.006303 0.040274 -0.002749 -0.182460 -0.003018 -0.106142 0.178683 0.107189 0.079431 0.164632 0.137542 -0.086234 0.011848 0.265914 0.133270 -0.849651 0.137799
M226~c -0.114559 0.072676 0.179085 0.045118 0.039896 0.003407 0.015793 -0.035072 -0.052645 -0.126573 -0.143894 0.117406 0.140270 0.054991 -0.082373 0.133219 -0.130440 -0.007191 0.029668 0.168117 -0.095395 0.158134 -0.520912 0.150871 -0.388167 0.068660 -0.327821 0.366751 -0.107824 -0.107433 0.013092 0.220823
M218~b 0.085424 0.118215 -0.029067 0.197609 -0.104101 -0.188831 -0.277658 -0.151464 -0.051818 0.183463 -0.010617 -0.142841 0.408145 0.024191 -0.391077 0.222006 0.092644 -0.068885 0.011754 -0.018453 0.175759 0.018635 -0.042216 0.160258 0.333415 0.101017 0.278862 0.180191 -0.073369 0.008498 -0.106925 0.212245
M054~a 0.006786 -0.010914 0.055122 -0.014212 -0.033634 -0.006042 0.002889 -0.031999 0.009992 -0.010260 -0.041714 0.105912 0.004373 0.007219 0.047255 -0.006303 0.040274 -0.002749 -0.182460 -0.003018 -0.106142 0.178683 0.107189 0.079431 0.164632 0.137542 -0.086234 0.011848 0.265914 0.133270 -0.849651 0.137799
M007~a -0.055920 0.145295 -0.062304 -0.111940 0.024670 0.040250 -0.160401 0.089251 -0.022773 -0.098198 -0.184945 0.073786 0.112928 -0.084770 -0.063036 -0.109411 0.082156 0.034651 -0.094493 -0.060888 0.112589 -0.035950 -0.035089 -0.073416 0.085369 0.033814 -0.046778 -0.405197 0.448823 -0.614658 0.086598 0.187102
|M153+M342| 0.078564 -0.050111 -0.057948 -0.047092 -0.049457 0.045566 -0.066978 -0.048085 0.026303 -0.008096 -0.002775 -0.001617 -0.110733 0.107303 0.006786 0.089304 0.076128 -0.075493 -0.190519 -0.108860 -0.176945 0.253850 0.088028 -0.310355 -0.266457 0.480285 0.220143 -0.183606 -0.142427 -0.056997 -0.507329 0.132782
M149~a2 0.072069 -0.019842 0.200433 0.058503 -0.181202 0.314047 0.256624 -0.005248 -0.042136 0.076704 0.012767 -0.089935 -0.045343 -0.073512 -0.103865 0.298932 0.134488 -0.133176 0.057711 -0.173185 -0.139553 -0.285262 0.111611 -0.262079 -0.199151 0.316118 0.048204 -0.089163 -0.013040 0.031123 -0.452494 0.151861
|M305+X| -0.192720 0.156264 -0.096054 0.259525 0.070422 0.055569 0.183144 0.231843 0.137307 -0.184143 0.374150 -0.354257 -0.120674 0.138496 -0.068531 -0.096689 -0.094790 0.230832 -0.298923 0.268943 0.047106 -0.073958 -0.085337 -0.127693 0.019901 -0.247516 -0.000464 -0.054428 -0.010167 0.037606 -0.207708 0.189658
|M305+M342| 0.102673 0.043235 0.061068 -0.111426 0.158952 0.013684 -0.042430 -0.246677 -0.069472 0.088608 -0.165705 -0.062712 -0.061763 -0.089032 0.053089 0.000005 -0.066954 0.094852 -0.242884 -0.110389 0.046060 0.059461 -0.115242 -0.303109 0.226189 -0.505941 -0.019916 -0.093907 -0.089482 0.064682 -0.511006 0.198922
M496 0.068657 0.070612 0.135445 0.059501 -0.018549 0.070497 -0.114558 0.357694 0.217243 0.056579 0.104265 0.135771 -0.045822 0.544384 0.077755 -0.190216 0.258140 -0.398203 0.291398 -0.184065 0.021120 -0.118864 -0.112905 -0.060790 0.089923 -0.059713 0.087631 0.034111 0.028023 0.046359 -0.007157 0.056183
M035 -0.065188 0.087335 -0.083233 -0.221965 -0.153507 0.137055 -0.012945 0.105032 -0.080126 -0.063085 -0.020890 -0.161128 -0.065282 0.029805 0.018921 0.320856 -0.122701 -0.030384 0.208210 0.169415 -0.153900 0.158700 -0.145652 0.035028 0.123489 0.233083 0.559572 0.312325 -0.133677 -0.073347 0.031996 0.263176
M038~bx 0.158982 -0.041985 -0.083508 -0.268084 -0.099861 -0.155373 0.113010 -0.187340 -0.247008 0.152174 -0.084253 0.139307 0.109798 -0.124936 -0.018263 -0.208641 0.112877 -0.322391 0.031508 0.422596 0.286606 0.033401 0.055010 -0.164573 -0.335317 -0.148202 0.078235 -0.174618 -0.160009 0.003189 -0.076654 0.133442
M325~d -0.032392 -0.210059 0.122510 0.106981 -0.067164 -0.110679 0.173926 -0.127159 0.101706 -0.013959 -0.081471 -0.020695 -0.020011 0.137584 -0.173597 -0.013630 0.124806 0.254546 -0.203300 0.019733 0.154668 0.131000 -0.477204 0.062325 -0.271464 0.337483 -0.035727 0.005985 0.061719 0.069865 -0.405867 0.202079
M122 -0.108932 -0.183186 0.145072 -0.133494 0.039577 0.209600 0.098358 -0.148476 -0.176922 -0.109723 0.239785 -0.060009 0.045975 -0.026653 -0.228728 0.191382 0.307030 0.066896 0.122874 -0.170885 0.017462 -0.472810 0.205000 -0.193412 -0.076563 0.187119 -0.247843 0.163080 -0.191981 -0.055641 -0.026706 0.162460
M342 0.184286 -0.106472 -0.000627 -0.066504 0.083189 0.137604 -0.056952 -0.077905 -0.020734 0.269080 -0.135129 0.106439 -0.048991 0.037523 -0.042357 -0.061874 -0.041035 -0.184315 -0.351221 0.164684 0.119172 0.099891 0.149463 0.075849 -0.034230 0.102345 -0.081561 -0.062086 0.151666 0.153593 -0.685881 0.160230
|M327+M342| -0.023226 -0.042432 0.069317 0.017901 0.009075 0.034807 0.030801 -0.053104 -0.008789 -0.114828 -0.069465 0.177415 0.038053 0.013579 -0.056756 -0.015746 0.095670 0.183891 -0.082026 0.039460 0.199374 0.150515 -0.600493 0.219292 -0.270218 0.172732 -0.160713 0.048517 0.152928 0.112322 -0.471805 0.144314
M057~f 0.083045 -0.049012 -0.097679 -0.043845 -0.034774 0.054496 -0.076542 -0.034428 0.023408 -0.002890 0.022048 -0.065704 -0.127360 0.116690 -0.020849 0.104712 0.061844 -0.083993 -0.106383 -0.121983 -0.137749 0.181737 0.035950 -0.403647 -0.405479 0.469333 0.306833 -0.220048 -0.326194 -0.147022 -0.084867 0.075098
M321~h 0.123877 -0.000940 0.076485 -0.036027 0.062033 -0.096433 0.034659 0.020121 -0.190778 -0.060320 -0.446743 0.229206 -0.211640 -0.126252 -0.169176 0.209847 -0.062441 0.049449 0.061680 -0.147857 0.131869 0.270403 0.155070 -0.255328 -0.116290 -0.500940 0.029445 -0.013645 -0.201561 -0.010010 -0.071394 0.118815
M109 -0.315778 0.009144 0.038459 0.147285 0.078672 0.147850 -0.207674 0.303617 -0.237431 0.063712 -0.052667 -0.218966 0.096566 -0.186610 0.245479 0.106110 0.246126 0.160533 -0.069197 0.087819 -0.002331 -0.058765 -0.014282 0.086252 0.081618 0.032322 0.452099 0.152392 0.194946 -0.236907 0.060322 0.209297
|M195+M057| -0.107368 0.188945 -0.067551 0.052224 0.127252 -0.142545 0.020868 0.016463 0.395795 -0.085082 -0.108767 0.037810 0.017022 -0.039116 0.010744 -0.125813 0.264003 -0.109637 -0.047659 -0.115913 -0.095384 0.045135 -0.033329 0.177842 0.066825 0.121528 -0.171594 -0.049293 0.119389 0.171495 -0.661965 0.197677
|M195+M038~a| 0.079754 -0.239392 -0.028177 0.209739 0.127409 -0.096512 0.177350 -0.191045 0.104755 -0.053983 -0.277849 -0.124266 -0.015869 -0.030920 -0.378405 0.044133 -0.190551 -0.220121 0.000439 0.288777 -0.190819 0.187885 0.017067 0.079695 0.207260 0.166329 0.037922 0.024183 0.144056 0.067906 -0.418948 0.158545
M249~n1 0.066927 -0.044196 -0.035825 -0.042561 -0.048958 0.036785 -0.055471 -0.047586 0.024357 -0.009143 -0.011813 0.022695 -0.092596 0.092468 0.016479 0.074289 0.073784 -0.064895 -0.203861 -0.093585 -0.175517 0.257838 0.099841 -0.248891 -0.192347 0.445676 0.171619 -0.157064 -0.064003 -0.019726 -0.641265 0.150026
M158 -0.132482 -0.056474 0.038421 0.028411 -0.131270 -0.023177 0.122702 -0.087762 0.054451 0.023608 -0.069434 0.181272 -0.126010 0.097089 -0.095918 0.006898 0.152206 0.300784 -0.035971 0.070689 0.175397 0.074306 -0.724535 0.185723 -0.323194 0.064417 -0.131894 0.085100 0.025122 0.046558 -0.020251 0.092654
M180 0.122896 -0.096118 -0.012152 0.121360 -0.218400 0.056468 0.137259 0.063053 -0.046030 -0.337266 0.057315 -0.015347 -0.080567 -0.039665 -0.074637 -0.020291 -0.169587 -0.165950 0.109974 -0.387753 -0.001797 0.367016 0.141752 -0.168615 -0.201801 0.216444 0.254410 -0.199565 -0.342816 -0.082523 -0.060723 0.177560
M250~n -0.025178 -0.049983 0.166831 0.333769 -0.041158 -0.022691 0.206083 -0.105462 -0.073943 -0.121350 0.085712 0.185598 0.170939 0.024259 0.214067 -0.167331 0.092017 -0.026998 -0.016191 0.519393 -0.176569 0.033797 0.229808 0.061194 -0.266889 -0.204096 0.049853 -0.089689 0.046592 -0.000641 -0.324217 0.193411
M380~b -0.126644 -0.111254 0.019418 0.117831 0.053183 0.297971 -0.081150 -0.111851 -0.006213 -0.092964 0.278513 0.022784 -0.134399 -0.196766 -0.011570 0.150731 0.315800 0.024507 0.016258 -0.099416 -0.058818 -0.077917 0.180009 -0.152245 0.096998 0.105971 -0.540749 0.296497 -0.147003 -0.062171 -0.105477 0.258957
|M157~a+M131~a| 0.040864 -0.010721 -0.161341 -0.021133 0.111955 -0.016283 0.043371 -0.108704 -0.036864 -0.123301 -0.020077 -0.135782 -0.039300 0.116742 0.032568 -0.019526 -0.143459 0.039444 -0.361277 -0.185540 -0.224731 -0.238259 -0.385681 -0.374814 0.141882 -0.504405 0.034567 0.009063 -0.138064 -0.042813 -0.072138 0.087775
|M153+M106~a| 0.112492 0.032069 -0.040278 -0.060527 -0.110730 0.076727 -0.108557 0.009151 0.021486 -0.002690 0.051764 -0.011666 -0.088649 -0.035432 0.072584 0.180869 0.148922 0.085102 -0.084815 0.033744 0.100648 0.082653 -0.028032 -0.153916 0.003806 0.376195 0.703644 0.220394 -0.269886 -0.167438 -0.036767 0.184371
M387~a -0.063244 -0.059654 0.293410 0.074123 -0.168751 0.002832 -0.030445 -0.113530 0.064632 0.025400 -0.245131 0.227012 0.092279 -0.205464 0.034746 0.201155 -0.040110 0.162274 0.158722 -0.236495 0.229077 0.332834 0.084467 -0.202319 -0.019276 -0.510488 0.004019 -0.114410 -0.188813 -0.003400 -0.033251 0.135944
M314 0.091953 -0.060315 -0.001718 0.264996 -0.237681 -0.145095 -0.108994 -0.185064 0.128669 0.217382 -0.110369 0.032588 -0.232123 0.132614 0.069326 0.016967 0.158651 0.424997 -0.112229 -0.010552 -0.117280 -0.077536 -0.441545 -0.018552 -0.044437 -0.107350 0.020375 -0.009537 0.235156 -0.072565 0.044297 0.360955
M066~1 -0.008267 -0.166380 0.208386 0.415651 0.328704 0.049863 0.122618 -0.414494 0.262844 0.098003 0.126268 0.037157 -0.326707 -0.043037 -0.112849 -0.036761 -0.048979 -0.238834 -0.063144 0.256073 0.129039 -0.034517 0.080454 0.056787 0.182251 0.121046 0.005906 -0.066196 -0.004811 -0.005859 0.086703 0.153601
M362 0.241911 -0.258366 -0.400754 0.124872 0.134976 0.270422 0.007927 -0.006024 -0.413675 0.383449 0.128727 -0.247181 -0.074172 -0.041532 0.223580 -0.040023 -0.240243 0.025901 0.194409 -0.069523 0.162132 -0.021597 -0.100234 0.096167 -0.003296 0.022803 0.021883 -0.016554 -0.021827 0.031840 -0.026160 0.043756
M332~d 0.130117 -0.023169 -0.008726 0.171500 0.116322 0.366499 -0.210540 -0.063121 0.271149 -0.117816 0.145307 0.340441 0.029227 0.021126 -0.054096 0.133934 -0.200823 0.138715 -0.088928 -0.016137 -0.447044 0.011446 -0.094760 0.160241 -0.028367 -0.155441 0.175040 0.109728 -0.169193 -0.125583 0.058991 0.303974
M066~2 0.014672 -0.211210 0.141666 0.553770 0.261302 -0.028501 0.088528 -0.329161 0.259815 -0.004178 -0.012155 -0.040837 -0.340637 -0.046635 -0.223629 -0.125764 -0.022545 -0.106702 -0.129593 0.180284 0.177508 -0.002677 0.115649 0.046961 0.189404 0.129023 0.024003 -0.054654 -0.015715 0.025220 0.092778 0.126239
M352~n 0.026599 0.224633 0.354922 -0.011551 0.280894 -0.128965 0.219196 -0.096787 -0.082267 0.007471 0.110849 0.007607 0.046580 -0.052324 0.050469 0.276232 -0.270991 -0.164532 0.107164 0.536661 -0.160725 0.045122 -0.026682 0.017150 0.065485 0.006497 0.141471 -0.020121 0.167731 -0.144811 0.045688 0.249083
M387~ca 0.569542 -0.241015 -0.128178 -0.309031 0.031484 -0.152037 -0.093775 0.250235 -0.147087 -0.264873 0.020870 0.086926 0.099699 -0.035319 0.116505 -0.177774 -0.184436 -0.093465 -0.143871 0.038427 0.081083 -0.233340 -0.007920 0.003162 0.023470 -0.101402 -0.099683 -0.078858 -0.049948 0.097358 -0.234872 0.183815
M357 -0.132415 -0.053519 0.186485 0.044109 -0.139680 0.157057 0.097602 -0.179926 -0.145704 -0.119620 0.139037 0.025491 -0.023986 -0.027968 -0.150270 0.350831 0.160996 -0.010224 0.123277 -0.137782 -0.052282 -0.388940 0.158088 0.029977 0.008673 0.078814 -0.095862 -0.016007 0.154452 0.074737 -0.594970 0.122456
M099 -0.147613 -0.042421 -0.292957 0.039076 0.197007 0.004407 0.116414 0.042051 -0.230304 -0.199771 -0.188229 -0.101531 -0.315858 -0.003940 -0.159208 -0.235818 -0.010249 -0.215948 -0.211631 -0.127157 -0.069756 -0.050075 0.255493 -0.114631 -0.175599 -0.106078 -0.284942 0.228338 -0.020928 -0.147228 0.082817 0.342937
M249~p 0.083045 -0.049012 -0.097679 -0.043845 -0.034774 0.054496 -0.076542 -0.034428 0.023408 -0.002890 0.022048 -0.065704 -0.127360 0.116690 -0.020849 0.104712 0.061844 -0.083993 -0.106383 -0.121983 -0.137749 0.181737 0.035950 -0.403647 -0.405479 0.469333 0.306833 -0.220048 -0.326194 -0.147022 -0.084867 0.075098
M136 -0.039177 0.089039 0.034006 0.051646 0.042328 0.034748 -0.046019 -0.251663 -0.258187 0.205908 0.164841 0.084026 0.043021 0.245466 -0.000049 0.090686 -0.319534 -0.104583 -0.232444 -0.284410 0.222312 0.162208 0.058666 -0.138869 -0.078953 0.404296 0.099566 -0.240408 -0.282021 -0.072236 0.002449 0.189909
M214~c -0.126162 0.082845 -0.034845 0.025877 0.037500 -0.162610 -0.202874 0.052064 0.355189 0.121279 0.078485 -0.172622 0.442853 -0.096965 0.176117 -0.048653 -0.199022 0.124390 -0.018250 -0.170539 -0.169727 -0.070094 0.116639 0.280950 -0.472898 -0.161780 0.088796 0.034411 -0.014375 -0.042550 -0.024704 0.125014
M329~c 0.083045 -0.049012 -0.097679 -0.043845 -0.034774 0.054496 -0.076542 -0.034428 0.023408 -0.002890 0.022048 -0.065704 -0.127360 0.116690 -0.020849 0.104712 0.061844 -0.083993 -0.106383 -0.121983 -0.137749 0.181737 0.035950 -0.403647 -0.405479 0.469333 0.306833 -0.220048 -0.326194 -0.147022 -0.084867 0.075098
M217~e 0.136890 -0.125235 0.056744 0.248573 -0.137392 0.199232 0.245131 -0.018148 -0.190221 -0.270217 0.148239 0.065107 -0.073908 0.072224 -0.047135 -0.082096 -0.482334 -0.047160 0.054479 -0.331390 0.297260 0.198702 0.144525 0.213396 0.033526 0.028147 -0.046407 -0.064348 -0.158013 0.017306 0.029769 0.224127
M247~g -0.042745 0.080950 -0.286143 0.101017 -0.090441 -0.223240 -0.144015 -0.044286 0.363352 0.112906 0.193515 -0.146027 0.019068 -0.059629 0.266898 0.103302 -0.401883 0.024217 0.046177 -0.196144 0.204265 -0.072633 0.039261 -0.049523 -0.301733 0.256542 0.075759 -0.158489 -0.223346 -0.104294 -0.110013 0.123196
M136~b -0.167627 -0.220300 -0.080974 -0.282481 0.166385 -0.042636 -0.293404 0.062428 0.349895 0.335906 -0.198244 -0.368452 0.202507 -0.127095 0.067177 0.051469 -0.136413 -0.074031 0.219218 -0.052729 0.124373 -0.103303 -0.026692 -0.149882 -0.195650 0.060497 0.080089 -0.122938 -0.188542 -0.053849 -0.095820 0.086903
M361~b 0.014567 -0.058517 -0.184093 -0.098746 -0.064553 0.076433 -0.093921 0.093631 -0.018913 -0.083122 -0.059435 -0.024653 0.016433 0.014767 -0.052754 0.045509 0.113007 -0.053272 -0.123106 -0.149079 0.014540 0.124267 0.018264 -0.301849 -0.203427 0.279998 0.156315 -0.383708 0.228769 -0.607973 0.021552 0.185499
M302~s -0.036051 0.073736 -0.201395 -0.097405 -0.018110 -0.180677 -0.194135 0.013261 0.439289 0.043027 0.118967 -0.305032 0.171901 -0.039376 0.126914 0.047582 -0.206694 0.032506 0.016979 -0.179604 0.071608 0.022813 0.013475 -0.203493 -0.406327 0.286638 0.197721 -0.177367 -0.229313 -0.104500 -0.100482 0.076827
M317~e 0.089761 -0.057055 -0.049178 -0.038788 0.062330 0.083647 -0.079407 -0.063688 0.036393 -0.049266 -0.034011 -0.100027 -0.228119 0.073416 -0.064887 0.044957 0.072235 -0.116826 -0.120084 -0.091459 -0.124662 0.175478 0.072883 -0.407485 -0.396319 0.445326 0.274614 -0.220831 -0.331957 -0.152447 -0.063940 0.092305
n(N14) 0.375702 -0.230203 0.284568 -0.037888 0.359767 0.183946 -0.036531 -0.044407 0.502250 -0.126095 -0.254954 -0.067820 0.019215 0.150411 0.194343 0.106432 -0.125132 0.081035 0.057809 0.218110 0.140102 0.084070 0.015659 -0.036109 0.048541 0.122309 -0.032602 -0.137971 -0.065772 0.039764 -0.005256 0.047805
M111~b 0.007219 -0.011607 0.058475 -0.015057 -0.035625 -0.006382 0.003049 -0.033750 0.010520 -0.010777 -0.043773 0.110919 0.004569 0.007530 0.049289 -0.006562 0.041865 -0.002849 -0.188780 -0.003119 -0.109345 0.184039 0.110136 0.081341 0.168111 0.140323 -0.087315 0.011972 0.267494 0.133402 -0.843477 0.134941
M247~f 0.038834 0.021254 -0.306991 0.158120 -0.040654 0.081454 -0.055434 -0.023044 -0.187460 0.002306 0.106015 0.059287 0.051831 -0.013016 0.055404 0.052876 -0.132884 -0.008278 -0.051400 -0.170497 0.225796 0.068834 -0.002387 -0.003841 0.045515 0.049854 -0.067925 -0.290991 0.447468 -0.598595 0.077078 0.211586
|M157+M288| -0.096943 0.183346 0.279322 0.448806 0.197504 -0.086842 0.308235 0.120003 0.141795 -0.298634 0.229024 0.026114 -0.168777 0.030742 0.133977 -0.077315 -0.120048 0.093764 0.066795 0.442650 0.028600 -0.048136 0.134805 -0.139446 -0.102584 -0.029410 0.006610 -0.131435 0.056684 0.015032 -0.013793 0.095427
N30D -0.272262 -0.076873 0.061153 -0.016490 0.031818 -0.176416 -0.287302 0.212300 -0.247039 0.188960 0.330351 0.182713 -0.212592 -0.274570 -0.420528 -0.350110 -0.159401 0.056495 0.174391 0.042225 0.002010 -0.034436 -0.038428 -0.114434 -0.051910 -0.112907 0.034791 -0.001618 -0.001610 -0.023588 -0.051189 0.023581
N39C -0.202323 -0.150019 -0.054795 -0.137401 -0.007642 -0.084904 -0.245504 0.122399 -0.133329 0.361387 0.215801 0.190824 -0.207934 -0.348068 -0.368336 -0.373253 -0.221736 -0.047045 0.191171 0.029864 -0.000189 -0.074056 -0.024110 -0.158035 -0.103366 -0.112746 0.040656 0.087011 0.017574 -0.051065 -0.075886 0.016273
M016 -0.054625 -0.069021 -0.022673 -0.049385 -0.029390 -0.094789 -0.145223 0.023394 -0.070305 0.125066 0.217438 0.047107 -0.240308 -0.096836 -0.297149 -0.172785 -0.054881 -0.045998 0.049638 -0.102122 -0.163795 0.153226 0.011151 -0.431643 -0.374895 0.339830 0.299629 -0.117728 -0.236137 -0.139383 -0.099299 0.054494
|M175+M175| 0.083045 -0.049012 -0.097679 -0.043845 -0.034774 0.054496 -0.076542 -0.034428 0.023408 -0.002890 0.022048 -0.065704 -0.127360 0.116690 -0.020849 0.104712 0.061844 -0.083993 -0.106383 -0.121983 -0.137749 0.181737 0.035950 -0.403647 -0.405479 0.469333 0.306833 -0.220048 -0.326194 -0.147022 -0.084867 0.075098
M242~ab 0.125128 0.017763 -0.113936 -0.358520 0.137473 -0.150913 0.225101 -0.107166 -0.101684 -0.185728 0.043954 -0.154121 -0.052612 -0.076790 -0.110465 -0.222771 0.200873 -0.187720 -0.115959 -0.052398 0.192858 0.026383 0.155251 0.060829 -0.002922 -0.056220 -0.047021 -0.180743 0.377606 -0.454044 0.054572 0.224553
M373 -0.155088 0.311275 0.056256 -0.051170 -0.380006 0.235898 0.052279 -0.335304 -0.207922 -0.177793 -0.133758 -0.176125 -0.121145 -0.098309 0.096646 -0.087020 0.004579 0.083802 0.401198 -0.205251 0.003929 -0.350356 0.040863 0.107566 -0.002170 0.099263 -0.058095 -0.110895 -0.044020 0.045941 -0.028728 0.128495
M046 -0.213177 -0.147902 0.299729 0.290831 0.237523 -0.192039 0.037160 0.320203 -0.302658 0.220613 -0.217439 -0.296172 -0.219248 -0.062380 0.279789 0.139807 -0.036466 0.100510 0.126627 0.159041 -0.111420 -0.093261 -0.144761 -0.025873 0.093080 0.047326 0.060299 -0.108881 0.045054 -0.063536 0.007653 0.089314
|M370~b+M072| -0.038866 -0.374856 -0.475081 -0.160089 0.175053 0.514196 0.031956 -0.200734 0.037152 0.124933 -0.089975 -0.318977 -0.029994 0.072892 0.193488 0.017916 -0.089742 0.021567 0.020713 0.110304 0.206599 0.002123 0.013829 -0.031968 0.076635 0.015992 0.065564 0.079607 0.020445 0.103813 0.018119 0.078610
M053~a 0.006786 -0.010914 0.055122 -0.014212 -0.033634 -0.006042 0.002889 -0.031999 0.009992 -0.010260 -0.041714 0.105912 0.004373 0.007219 0.047255 -0.006303 0.040274 -0.002749 -0.182460 -0.003018 -0.106142 0.178683 0.107189 0.079431 0.164632 0.137542 -0.086234 0.011848 0.265914 0.133270 -0.849651 0.137799
M145~a 0.092983 0.187618 0.032438 0.286538 -0.059301 -0.186204 0.022647 -0.303479 -0.113943 0.062629 0.317356 0.002389 0.361667 0.080318 -0.122934 0.130255 -0.147182 -0.147177 -0.015815 -0.131465 0.174659 0.123836 0.040299 0.021007 0.228543 0.162687 -0.103293 0.356557 -0.192250 -0.183203 0.036372 0.241094
M220 -0.181340 -0.033641 -0.044050 0.047226 -0.085840 0.094888 0.168381 -0.049758 -0.343252 -0.159712 0.097842 0.180340 0.178874 0.039320 -0.148664 -0.062353 0.301873 -0.049598 0.277411 0.026388 -0.050415 -0.146098 -0.311848 0.194361 -0.417121 -0.148497 -0.044670 -0.121142 0.144261 -0.174467 -0.007836 0.274738
M073~a -0.031013 0.095393 0.036965 0.101132 0.111661 -0.080775 -0.049918 0.013606 -0.113527 -0.043390 0.001171 -0.074952 0.077046 -0.058719 0.199732 -0.062628 0.156552 0.005848 0.042874 -0.035896 0.061337 0.125400 0.132559 -0.298668 -0.052610 0.126665 -0.553696 0.545475 -0.194105 -0.221587 0.012880 0.138837
M041 0.457215 -0.121737 -0.274446 -0.089982 0.064630 -0.166483 -0.350149 0.068877 0.155070 -0.000185 0.176720 -0.217168 0.229136 -0.083472 0.171925 -0.066373 -0.333527 0.086611 0.060160 -0.083640 0.233192 -0.134494 -0.031273 0.041755 -0.240275 0.098338 0.006774 -0.176466 -0.132509 -0.021983 -0.076227 0.103029
M115~a -0.524224 0.045722 -0.230657 -0.146312 -0.299387 0.008888 -0.045112 0.031660 0.108253 0.257138 -0.366198 0.284850 0.057834 0.183081 -0.048411 -0.128835 -0.085623 0.061369 0.000404 0.025423 -0.022744 -0.066221 0.042000 -0.000677 0.095128 0.111220 -0.052369 -0.174069 0.175585 -0.252037 0.096651 0.174035
M281~c -0.048817 -0.039000 -0.168670 -0.097298 -0.058570 0.058156 -0.063561 0.153527 -0.044293 -0.108322 -0.096820 0.020268 0.123947 -0.073976 -0.052760 -0.023836 0.098728 -0.002869 -0.075925 -0.097163 0.126874 0.017762 -0.004620 -0.072137 0.054884 -0.006828 -0.037995 -0.312900 0.531019 -0.639806 0.089101 0.166764
M195~d -0.023570 -0.032841 -0.099024 0.012816 0.066396 -0.080768 0.097759 0.024077 0.163086 0.029889 0.083684 -0.146832 -0.148994 0.066813 -0.044942 0.046418 0.180880 -0.060385 -0.283511 -0.043920 -0.076854 0.263685 0.147953 -0.149430 -0.198969 0.304185 0.101508 -0.177449 -0.030604 0.088677 -0.648401 0.197426
M036 -0.198272 0.038288 -0.048188 -0.074682 0.104207 -0.249216 0.045810 0.079997 -0.108278 0.111237 0.253367 0.015898 -0.166553 -0.267363 -0.328656 -0.299064 -0.245917 0.059965 -0.012684 -0.166267 -0.031779 -0.112381 -0.211451 -0.218629 0.114777 -0.495178 -0.031657 0.135847 0.005935 -0.006412 -0.080732 0.046721
M318~n 0.239424 -0.153111 0.187802 -0.689575 0.207559 0.010854 0.306198 -0.324170 -0.003380 -0.030793 0.238171 -0.025149 0.080973 0.110319 0.100220 -0.171935 -0.107156 0.074820 0.030667 -0.010707 -0.002320 -0.020549 0.079044 0.095286 0.046634 0.032615 -0.006621 -0.026991 0.049298 -0.065795 0.020652 0.068340
M152 0.017180 -0.018754 0.203165 -0.359227 0.444016 0.220609 0.026095 -0.300096 0.168859 0.071457 0.539696 0.125721 0.187185 0.055693 -0.108331 -0.046634 -0.053091 0.083806 -0.003730 0.028923 -0.062606 -0.048379 0.051778 -0.024970 0.090573 0.132718 -0.065141 0.128872 -0.046091 -0.032885 0.066445 0.158692
M383~j 0.310661 -0.382701 -0.020328 -0.165093 0.103863 -0.252467 0.220102 0.077047 0.336447 -0.462011 -0.074305 -0.043438 -0.075485 -0.164304 -0.106143 0.010055 0.193781 -0.035472 0.118599 0.110017 0.071106 0.200494 0.060195 -0.013186 -0.177675 -0.082231 0.047466 -0.072650 0.054079 0.178864 0.080333 0.145160
M111 -0.257968 0.062151 0.032290 -0.084859 0.002935 0.157857 -0.110320 -0.084958 0.075566 0.242181 -0.028292 0.091181 0.063794 0.033479 -0.041234 -0.141750 -0.037309 0.093103 -0.174149 0.132691 -0.029284 0.149346 0.130062 0.062995 0.175958 0.056883 -0.042027 -0.024457 0.174551 0.104732 -0.760706 0.133632
|M106~2+M288| -0.246971 -0.059630 0.271956 -0.140040 0.164218 -0.050963 -0.007909 -0.026296 -0.084394 0.073104 -0.007268 -0.011783 0.173422 0.158508 -0.207411 -0.027617 -0.000216 -0.056933 -0.289353 -0.099808 0.027585 0.099520 0.003112 -0.192233 0.081146 0.454634 0.100777 -0.406273 -0.370334 0.020283 0.030056 0.168553
N02 -0.220443 -0.119385 0.285309 0.347298 0.420154 -0.020326 0.111243 -0.090692 0.106283 -0.116669 -0.089154 -0.173223 -0.043243 0.129927 -0.200826 -0.165398 -0.113620 0.145478 -0.032835 0.238890 -0.015969 -0.077097 -0.010819 -0.036641 0.251811 0.232229 0.007192 -0.328818 -0.155931 0.136042 0.046279 0.133929
|M106+X| 0.026302 0.077773 -0.285778 0.151436 0.162894 0.011381 0.231983 0.086720 0.383380 0.506138 -0.139835 -0.333379 0.222569 -0.276702 -0.003676 -0.088022 -0.061307 -0.105533 0.191097 0.001644 0.159514 -0.167074 -0.086543 0.029726 -0.127151 -0.021874 0.006296 -0.022550 -0.045301 -0.011730 0.007220 0.018953
M387~eh -0.054867 -0.077829 -0.076404 -0.194600 -0.172817 0.062620 -0.018552 0.031364 0.128496 -0.117185 -0.190472 -0.034887 0.034251 0.075406 -0.234804 0.314380 -0.476998 -0.249701 0.225598 0.279076 -0.386520 0.143060 -0.175327 0.106872 0.073505 0.027491 -0.050013 0.141201 -0.084453 -0.070203 0.022879 0.108082
M249~m 0.140808 0.109424 -0.135550 0.039436 0.066637 -0.064439 -0.091723 -0.140373 -0.004520 -0.160056 -0.086273 -0.117937 -0.001643 0.073026 -0.017585 -0.002850 -0.137584 0.079602 -0.333661 -0.183685 -0.253209 -0.277061 -0.404018 -0.366549 0.151200 -0.447610 0.035743 -0.017512 -0.082915 0.001682 -0.043196 0.128729
M057~a2 0.097411 -0.275856 -0.220309 -0.003179 -0.237094 0.014172 0.020864 -0.262788 -0.195805 0.075924 -0.021757 0.095770 0.128278 -0.001804 0.059450 -0.115822 0.214539 -0.201692 0.102520 0.422945 0.021794 0.069978 0.064230 -0.325636 -0.300624 0.058499 0.194496 -0.200245 -0.264024 -0.089380 -0.081230 0.071755
|M218~d+M288| -0.128267 0.152530 0.106341 0.071557 -0.028525 0.225110 -0.164977 0.191967 -0.107091 0.051591 0.128953 -0.056194 0.184171 -0.094914 0.146412 0.091368 0.180855 0.209163 -0.092899 0.096963 -0.068479 0.008841 0.050513 0.283262 -0.016006 -0.057660 0.578974 0.385595 -0.032731 -0.102283 0.031679 0.199022
M295~ka -0.246217 -0.068969 0.015582 0.222505 0.211149 0.090567 -0.210065 -0.018532 -0.150152 0.127753 -0.070156 -0.009715 0.264182 -0.105038 0.152712 -0.079763 0.276594 0.016963 -0.194961 -0.096094 -0.340312 -0.082209 0.172158 0.284654 -0.355916 -0.183839 0.225487 0.176924 0.050129 -0.001419 0.029272 0.173080
M254~b1 -0.039789 -0.314418 0.074305 -0.125832 -0.092389 -0.382173 0.121850 -0.074278 0.512872 -0.169005 0.101478 -0.256244 0.110875 -0.152938 0.031275 0.137162 0.057267 0.135565 0.151554 -0.074959 0.133176 -0.397654 -0.024068 0.111472 -0.187797 0.036956 0.006440 -0.026180 -0.025411 0.024039 -0.037194 0.033627
M417~h -0.039425 -0.380078 -0.479908 -0.161402 0.176430 0.516109 0.032037 -0.201057 0.037116 0.124383 -0.089449 -0.316187 -0.029637 0.071839 0.190665 0.017606 -0.087993 0.021049 0.020171 0.107226 0.199931 0.002054 0.013332 -0.030669 0.073218 0.015260 0.061879 0.074911 0.019115 0.096375 0.016623 0.070725
M295~u -0.185865 -0.065646 -0.078381 0.252121 -0.459189 -0.387556 0.073486 -0.139981 -0.032336 0.463852 0.252763 -0.011416 0.261235 0.088790 -0.092306 0.091964 0.111492 -0.131159 -0.042652 -0.007233 -0.076015 0.036737 -0.089246 0.057129 0.226109 0.021173 -0.097929 -0.036018 -0.116692 -0.016067 0.036018 0.067556
M290 0.083045 -0.049012 -0.097679 -0.043845 -0.034774 0.054496 -0.076542 -0.034428 0.023408 -0.002890 0.022048 -0.065704 -0.127360 0.116690 -0.020849 0.104712 0.061844 -0.083993 -0.106383 -0.121983 -0.137749 0.181737 0.035950 -0.403647 -0.405479 0.469333 0.306833 -0.220048 -0.326194 -0.147022 -0.084867 0.075098
M262 0.101513 -0.183831 0.312483 0.111987 -0.094815 -0.201788 0.011108 0.040064 -0.120660 0.117905 -0.044771 -0.192288 0.177621 0.275500 -0.472127 -0.065595 -0.045948 -0.106586 -0.350851 -0.060979 0.136289 -0.009444 0.080302 0.166059 0.032432 0.056236 -0.056186 -0.130254 0.186019 -0.209360 0.123258 0.285032
M038~b1 0.113438 0.104789 0.118739 0.141768 -0.022796 0.229927 0.389832 0.073563 0.065997 0.130218 -0.138628 0.109514 0.046982 -0.116710 -0.154858 -0.065718 0.090506 0.103662 -0.001731 0.020660 0.204078 0.038845 -0.649533 0.120413 -0.318558 0.101895 -0.116898 0.067052 0.016504 0.028557 -0.022835 0.063154
M224 -0.006450 -0.048849 0.070836 0.092459 0.023427 0.084551 -0.121569 0.004403 -0.051828 0.096922 -0.015726 0.064294 0.183055 0.078364 0.041300 0.018671 0.079723 0.007250 -0.182796 -0.157943 -0.480244 0.122464 0.177579 0.069696 -0.636539 0.066088 0.275489 -0.031331 -0.169185 -0.120248 -0.021204 0.163079
M281~f 0.104482 -0.023235 -0.237435 0.159272 0.089520 0.373425 -0.236889 -0.143867 0.346835 -0.093032 -0.051895 0.342450 -0.192158 -0.089100 -0.092381 -0.029173 0.133620 0.060197 0.033057 -0.090755 0.070593 0.008830 -0.029564 0.004174 0.094207 -0.042460 -0.088179 -0.231145 0.282306 -0.368734 0.093276 0.215310
M075~m 0.239160 0.032070 -0.380845 -0.002921 0.358719 0.493147 -0.096077 0.086778 0.260359 0.050031 -0.233415 0.273792 -0.205180 -0.136390 -0.248996 0.116925 0.145137 0.058964 -0.052699 -0.030055 0.066007 -0.012643 0.014684 -0.009124 0.058902 -0.013717 -0.067305 -0.095442 0.097961 -0.085286 -0.051953 0.045576
M318~a1 0.081163 0.279193 -0.190412 -0.237358 -0.022322 -0.121386 -0.071716 0.355974 -0.134141 -0.004306 -0.072017 0.037772 -0.066290 -0.063435 0.152760 0.049221 0.037857 0.039042 -0.062547 0.161034 0.126019 -0.074961 0.169178 -0.196791 -0.062852 0.075091 -0.473881 0.419825 -0.188896 -0.144129 0.017364 0.167816
M332~c 0.048493 0.039872 -0.078937 0.136898 -0.203956 -0.168304 -0.042216 -0.202284 0.086867 -0.022434 -0.120660 -0.166393 0.217207 0.185646 -0.463928 0.267319 -0.411192 -0.347272 0.095046 0.139949 -0.130473 0.107094 -0.124661 0.124992 0.141554 0.066846 -0.028365 0.125351 -0.056864 -0.085881 0.003649 0.101179
M131 -0.049667 0.063349 0.068595 0.098916 0.010951 0.082850 0.208759 0.076809 -0.224275 -0.195261 -0.009635 -0.194067 0.033079 0.169881 -0.059738 -0.096829 -0.141041 -0.082067 0.003601 -0.352090 -0.443975 0.208968 0.088499 0.215821 -0.207842 -0.393190 0.071271 0.029779 -0.059182 0.042891 -0.124710 0.288148
M240~b 0.068657 0.070612 0.135445 0.059501 -0.018549 0.070497 -0.114558 0.357694 0.217243 0.056579 0.104265 0.135771 -0.045822 0.544384 0.077755 -0.190216 0.258140 -0.398203 0.291398 -0.184065 0.021120 -0.118864 -0.112905 -0.060790 0.089923 -0.059713 0.087631 0.034111 0.028023 0.046359 -0.007157 0.056183
M251~c -0.010467 0.291645 -0.210898 -0.258419 -0.258665 -0.101781 -0.005329 0.291524 0.019611 0.055413 -0.162815 0.210751 -0.054448 -0.038717 -0.086178 0.311200 -0.156843 0.088725 0.007795 0.286854 -0.279125 -0.030922 0.015171 0.254303 0.028033 -0.035683 0.211619 0.287877 -0.099481 -0.086985 0.047804 0.223898
M044~a -0.193595 0.013596 -0.120986 -0.141735 -0.022502 0.109933 -0.095610 -0.046540 0.049741 0.188434 -0.134308 0.068376 -0.118390 0.246898 -0.053924 0.047203 -0.019815 -0.095019 -0.213239 -0.072673 -0.023691 0.113923 0.125946 -0.353692 -0.381757 0.420522 0.231906 -0.242705 -0.287248 -0.104890 -0.095192 0.101944
M029~b 0.242773 0.200477 0.068267 -0.278614 -0.117905 -0.219621 0.080822 0.250274 0.084771 0.120402 0.091704 -0.115193 -0.237644 0.544108 -0.083419 -0.119013 0.385285 -0.139754 0.195632 -0.115315 -0.058218 0.057911 -0.067596 0.026846 -0.068958 -0.040181 0.045863 -0.042259 0.050844 0.061914 -0.055407 0.137628
M281~a -0.177050 -0.126272 0.092218 0.133665 0.123087 -0.092534 -0.017092 0.322292 -0.237546 0.078774 -0.215194 -0.190722 -0.067412 -0.093683 0.157972 0.080798 0.042332 0.068172 0.036064 0.044061 0.010018 -0.053139 -0.105148 -0.068934 0.104669 0.028742 0.015944 -0.302375 0.415895 -0.511556 0.071263 0.191633
M230~a 0.122834 0.257173 -0.118036 0.006865 -0.209320 -0.294008 -0.016166 -0.084226 -0.086960 -0.016812 0.040992 -0.202659 0.243924 0.151273 -0.407910 0.023470 0.055636 -0.342753 -0.076045 -0.084648 0.191901 0.053503 -0.026018 0.056869 0.094123 0.010266 -0.050221 -0.152649 0.299658 -0.359861 0.050527 0.183042
M049~c -0.266096 0.510404 0.050889 -0.025249 0.124373 0.389029 0.026547 0.130458 -0.207574 0.000784 0.231915 -0.288061 0.206058 0.143934 -0.114715 0.070560 0.062024 0.221692 0.095809 0.005093 0.044077 0.228605 0.075579 0.029834 -0.183624 -0.130732 0.016052 -0.045225 0.065940 0.170252 0.059856 0.081964
M240~a 0.068657 0.070612 0.135445 0.059501 -0.018549 0.070497 -0.114558 0.357694 0.217243 0.056579 0.104265 0.135771 -0.045822 0.544384 0.077755 -0.190216 0.258140 -0.398203 0.291398 -0.184065 0.021120 -0.118864 -0.112905 -0.060790 0.089923 -0.059713 0.087631 0.034111 0.028023 0.046359 -0.007157 0.056183
M151~e -0.287839 0.137343 0.339253 -0.148025 -0.142410 0.112390 0.093057 0.043611 -0.091958 0.041453 -0.198388 0.209335 -0.184442 -0.141944 0.070771 0.018333 -0.157855 -0.325175 -0.375051 -0.197436 0.432231 0.022903 -0.047222 -0.068911 -0.116035 -0.025300 -0.028271 0.051540 0.013991 0.172527 0.071301 0.087803
M295~da -0.069474 -0.026341 0.161824 0.149512 0.055181 0.067138 -0.097717 0.030553 -0.082063 0.123359 -0.035515 0.127172 0.318047 0.013741 0.065908 -0.051356 0.054174 0.068031 -0.148106 -0.106622 -0.485101 0.021443 0.188984 0.362161 -0.480258 -0.243300 0.115940 0.111829 0.021860 -0.040943 0.031501 0.133162
M089 0.007460 -0.011993 0.060335 -0.015524 -0.036727 -0.006569 0.003137 -0.034712 0.010809 -0.011059 -0.044894 0.113636 0.004676 0.007698 0.050385 -0.006701 0.042717 -0.002902 -0.192132 -0.003172 -0.111029 0.186853 0.111676 0.082331 0.169902 0.141751 -0.087854 0.012033 0.268238 0.133435 -0.840137 0.133492
|M327+X| -0.185911 -0.169891 0.261728 0.026189 0.272544 0.011494 -0.337654 0.262154 -0.075139 0.246325 -0.182927 0.105875 0.024806 0.035388 0.004719 0.096022 0.217690 -0.025246 0.038356 -0.061377 -0.200147 0.039871 -0.054009 0.099686 0.086990 0.066594 -0.074091 -0.093030 0.080871 0.118324 -0.560846 0.138322
|M175+M038~a| -0.033953 0.104368 0.040229 0.109761 0.121130 -0.087114 -0.053747 0.014631 -0.121627 -0.046261 0.001246 -0.079421 0.081275 -0.061717 0.209887 -0.065561 0.163364 0.006063 0.044314 -0.037008 0.062842 0.128425 0.135094 -0.302322 -0.052949 0.127252 -0.547899 0.537570 -0.189598 -0.214343 0.012258 0.128671
M214~a -0.189834 -0.088368 0.032851 0.130344 -0.050894 0.080110 -0.052874 -0.039369 -0.017795 0.259797 -0.098901 0.165761 0.475171 0.016085 0.085857 -0.123322 0.049830 -0.048229 -0.055220 0.020161 -0.414493 -0.025808 0.163304 0.248498 -0.449246 -0.241671 0.107709 0.089058 0.043453 0.000916 0.023684 0.140262
M295~k 0.010961 -0.181817 -0.137737 0.169922 0.079349 0.348038 0.165467 -0.017290 0.242659 -0.409281 0.184373 0.229680 -0.239894 -0.162350 -0.080169 -0.018890 -0.134650 -0.063303 0.171213 -0.280349 -0.036864 0.279214 0.103548 0.190776 0.166464 -0.099799 0.000203 -0.060854 -0.163385 -0.010326 0.035233 0.184770
M058 -0.046991 -0.021841 -0.041951 0.194705 0.191940 0.015273 0.006364 0.204207 0.238115 -0.083306 0.067109 0.092569 -0.149689 0.395203 0.123412 -0.264319 0.137802 -0.519069 0.086923 -0.248537 0.000397 -0.149973 -0.222667 -0.101963 0.135285 -0.220504 0.078404 0.016941 -0.050775 0.047321 -0.007653 0.141347
M009~a 0.040595 -0.098198 -0.351641 -0.132535 0.427967 0.161322 -0.005109 0.177041 -0.001218 0.146490 -0.330115 0.129481 -0.109111 -0.155063 -0.262478 0.295548 0.170889 0.032532 -0.060295 -0.051477 -0.027436 0.048834 -0.019550 0.029161 0.085959 0.028783 -0.077225 -0.060704 0.081715 0.042318 -0.437473 0.094408
M352~n2 0.340830 -0.136069 0.291542 -0.157091 0.189749 0.234872 -0.372551 -0.287960 0.053234 0.301590 -0.190060 0.090648 -0.051310 -0.271533 -0.038165 -0.116245 0.036987 0.014071 0.082298 0.282010 0.154792 -0.097609 0.027721 -0.140263 0.091951 -0.123676 0.059316 -0.123240 -0.111666 -0.009427 -0.106895 0.071118
M228~ga -0.083683 0.094062 0.070159 0.167384 -0.294537 0.404250 0.000111 0.321112 -0.018889 -0.206582 0.431568 -0.406147 0.066814 0.087892 -0.138057 -0.081821 -0.160195 0.075940 -0.039409 0.121657 0.135541 0.216007 0.078446 0.039022 0.004801 -0.157196 -0.031918 -0.063321 -0.036492 0.025633 -0.022962 0.113911
|M175+M136| 0.055358 -0.004107 -0.234285 -0.023750 0.147573 -0.407093 0.270337 -0.012859 0.043477 -0.008339 0.158301 -0.126870 -0.272377 -0.178663 -0.193270 0.017937 0.174450 -0.168655 -0.211957 -0.235398 0.369216 0.192328 0.267444 0.023771 0.049628 -0.224644 -0.081410 -0.024322 -0.015698 0.033262 0.005457 0.166338
M038~a1 -0.054818 0.412505 -0.122365 -0.041151 -0.278548 0.195580 0.009580 -0.285555 -0.293802 -0.164638 -0.269288 -0.255039 -0.088331 -0.043339 0.156248 -0.363474 -0.082326 0.071745 0.280360 -0.201725 -0.047128 -0.027738 -0.016856 0.162026 0.097575 0.094496 0.003690 -0.077974 -0.067462 0.031692 -0.007167 0.067850
|M228~b+M101| -0.018279 -0.131797 -0.187272 -0.111233 -0.040590 0.026261 0.033438 0.046383 0.063527 -0.222061 -0.160100 -0.070366 0.029116 0.110533 -0.126812 0.208030 -0.473491 -0.164163 -0.077361 0.052569 -0.441046 -0.053086 -0.354686 -0.138843 0.125884 -0.318336 -0.002392 0.100547 -0.147931 -0.065423 -0.024954 0.128432
|M228~b+M320| 0.032452 0.171820 0.099420 0.142234 0.127781 -0.139936 -0.102017 0.028147 -0.126223 -0.070944 -0.019418 -0.067297 0.109614 -0.076906 0.202738 -0.060827 0.145725 0.020450 0.049128 -0.020182 0.036389 0.095643 0.124643 -0.345300 -0.050089 0.146623 -0.533298 0.502933 -0.156467 -0.159896 0.029351 0.147021
M285~c 0.503196 -0.181222 -0.148376 -0.129090 0.013314 0.083914 -0.225332 0.032957 -0.148553 -0.060117 0.130330 0.030423 -0.062860 0.063733 0.080303 -0.037995 -0.035272 0.003130 -0.124284 -0.208925 0.012528 -0.013097 0.047557 -0.121971 -0.317655 0.401647 0.149689 -0.292893 -0.274834 -0.098994 -0.027600 0.149546
M295~l -0.065641 -0.024902 0.153656 0.142291 0.052537 0.064232 -0.093618 0.029303 -0.078948 0.119158 -0.034365 0.123476 0.309963 0.013433 0.064440 -0.050373 0.053278 0.067269 -0.146833 -0.105928 -0.484495 0.021424 0.189590 0.365404 -0.486909 -0.247045 0.119240 0.115409 0.022731 -0.042927 0.033487 0.144795
M251~i -0.031013 0.095393 0.036965 0.101132 0.111661 -0.080775 -0.049918 0.013606 -0.113527 -0.043390 0.001171 -0.074952 0.077046 -0.058719 0.199732 -0.062628 0.156552 0.005848 0.042874 -0.035896 0.061337 0.125400 0.132559 -0.298668 -0.052610 0.126665 -0.553696 0.545475 -0.194105 -0.221587 0.012880 0.138837
M214~e -0.109990 0.131514 -0.180145 -0.089755 0.003900 -0.271525 -0.187275 0.043460 0.539603 0.056860 0.133986 -0.336446 0.316731 -0.140230 0.177249 -0.020569 -0.310236 0.106222 0.103825 -0.133684 0.197436 -0.111581 -0.010693 0.053807 -0.202286 0.000953 0.013734 -0.055008 -0.038871 -0.018973 -0.061938 0.039460
M103~2 -0.149172 0.069675 0.340327 0.231732 0.014972 -0.131239 -0.137305 -0.163983 -0.067603 0.151100 -0.216925 0.082981 0.357853 -0.168797 0.085146 -0.010652 0.073381 -0.091912 -0.047237 -0.063207 -0.232608 0.054588 0.229113 0.193504 -0.406279 -0.344718 0.102373 0.019349 0.032032 0.075838 0.050976 0.153998
M217~n 0.061801 0.010162 0.239006 0.047575 -0.288185 -0.326074 0.199746 0.172422 0.195311 -0.238486 0.217963 -0.003152 0.093151 -0.270820 0.276654 0.072843 0.150833 0.043201 0.000262 0.167775 0.257491 0.025677 0.007263 0.121676 0.137593 -0.008304 0.398853 0.230032 -0.053658 -0.034112 0.008214 0.039865
M249~n 0.110496 0.502103 0.071361 -0.398604 0.040222 -0.243484 0.261074 -0.008675 -0.146676 -0.141781 0.222264 -0.224183 0.032668 -0.015612 0.108123 -0.163980 0.229286 -0.258307 0.190858 0.131217 0.039739 0.111510 -0.042490 0.048155 -0.152212 -0.168785 0.016292 -0.034055 0.041210 0.044015 -0.048105 0.106271
M243~j -0.068974 -0.061543 -0.209650 -0.045722 -0.016929 -0.133374 -0.008466 -0.043305 0.216689 -0.079480 -0.075026 -0.068342 -0.215052 0.065223 0.137615 0.031181 -0.192450 0.017067 -0.341866 -0.191975 -0.189286 -0.305097 -0.282693 -0.424648 -0.037032 -0.239083 0.098639 -0.105897 -0.293904 -0.101053 -0.138678 0.126088
|M305+M009| 0.042393 -0.233991 -0.261084 0.013347 0.160592 0.118003 -0.058358 -0.033786 -0.274665 0.051826 -0.026760 -0.066670 -0.153377 0.010455 0.016367 0.216647 0.080990 -0.082339 0.000993 -0.087784 -0.142736 0.178247 -0.131295 -0.208295 -0.378552 0.370189 0.238607 -0.235808 -0.291323 -0.142046 -0.173916 0.121369
M049~e 0.098891 0.102386 0.127091 0.026403 -0.077271 0.088020 -0.137067 0.318106 0.184865 0.046314 0.112861 0.133275 -0.043917 0.375622 0.124185 -0.077662 0.290703 -0.234128 0.229216 -0.075662 0.148017 -0.120674 -0.128921 0.019332 0.254991 0.006775 0.428309 0.278285 -0.021755 -0.013734 0.005659 0.142101
M147~a 0.070727 -0.520911 -0.128941 -0.250016 -0.041016 -0.247649 -0.040628 0.391558 0.059358 0.036997 0.011693 0.195531 -0.019213 -0.302073 0.235824 0.091311 -0.012094 -0.242364 0.052922 -0.071282 0.282471 0.110621 -0.093798 -0.040968 0.038270 0.117826 0.146687 -0.060394 -0.101127 0.045161 -0.059484 0.046025
M295~b -0.185865 -0.065646 -0.078381 0.252121 -0.459189 -0.387556 0.073486 -0.139981 -0.032336 0.463852 0.252763 -0.011416 0.261235 0.088790 -0.092306 0.091964 0.111492 -0.131159 -0.042652 -0.007233 -0.076015 0.036737 -0.089246 0.057129 0.226109 0.021173 -0.097929 -0.036018 -0.116692 -0.016067 0.036018 0.067556
|M327+M059| 0.276927 -0.138073 -0.228133 -0.024566 0.017061 -0.067290 0.046631 -0.301755 -0.263759 -0.053721 0.027632 0.038406 0.114577 0.048640 0.142774 -0.132974 -0.110722 -0.114674 -0.131063 0.344556 -0.058841 -0.135403 -0.163757 -0.260260 0.050207 -0.403741 -0.007793 -0.112486 -0.078968 -0.017770 -0.365836 0.170333
|M057+M291| 0.005604 0.029394 0.116592 0.218881 0.334530 0.128339 -0.155560 -0.209993 0.258592 -0.126847 -0.193271 0.030140 -0.430153 -0.104361 -0.029064 -0.343707 0.202631 -0.375298 -0.152809 0.065944 0.221144 -0.104325 0.010377 0.029014 -0.044376 -0.008779 -0.048534 -0.064893 0.005281 0.073633 0.084323 0.115251
M147~e -0.165932 -0.055985 0.335866 0.119021 0.028247 0.021490 -0.248846 0.088279 -0.072895 0.219615 -0.174371 0.187726 0.186142 0.094926 0.109826 -0.050019 0.126901 -0.070257 -0.161522 -0.082413 -0.345547 0.036878 0.035289 0.191326 -0.244639 -0.052152 -0.004539 0.050893 0.188594 0.141223 -0.455852 0.230095
M295~ee 0.175822 0.038847 0.051889 -0.081075 0.142774 0.002289 0.057168 -0.042400 -0.146509 -0.080647 0.210814 0.105554 0.307405 0.166300 -0.090226 0.015519 0.042869 0.131403 -0.196948 -0.200425 -0.184663 0.017792 0.091596 -0.295932 -0.223515 0.449185 0.228151 -0.148923 -0.362093 -0.137213 -0.040223 0.113175
M045~b -0.157706 -0.304585 0.009921 -0.131968 0.253622 0.038363 0.495021 -0.104680 -0.005195 -0.128483 -0.043162 0.058371 0.157086 0.287714 -0.032518 -0.394594 -0.192483 0.357586 0.056172 -0.024621 0.020831 -0.134021 0.135963 0.016008 0.131217 0.151909 0.014265 0.040149 -0.076627 -0.001896 0.018733 0.053557
M032~a 0.229478 0.180871 -0.019110 0.228610 0.036723 0.118945 0.586071 0.231380 0.287547 0.385754 0.005746 -0.243084 0.026821 -0.278454 -0.127874 -0.119020 0.085829 -0.100599 -0.099126 -0.036596 0.034556 -0.015557 -0.021814 0.005126 -0.107641 -0.018973 -0.012342 -0.029871 -0.034776 0.045841 -0.009991 0.055733
M073~b -0.110506 -0.147332 -0.032393 -0.186564 0.305782 -0.053387 0.211465 -0.019404 -0.014027 -0.058737 -0.013628 0.179872 0.420333 0.202019 -0.049467 -0.390452 0.011047 0.295201 0.062370 -0.070085 0.009571 -0.185304 0.179059 -0.138895 0.155953 0.202467 -0.186719 0.210634 -0.171592 -0.051784 0.032497 0.143615
M063~a -0.049881 -0.414631 -0.000102 -0.214794 0.157470 0.063155 -0.356574 0.002149 -0.058307 0.402556 -0.290410 -0.182514 0.186992 -0.127840 -0.230503 0.055390 0.118902 -0.110716 0.330286 0.062820 0.205225 -0.034703 0.033179 -0.048704 -0.051942 -0.118912 0.043475 -0.049976 -0.116892 0.007250 -0.088238 0.062924
