? 32
M131~E -0.012853 0.092917 0.010297 -0.124281 -0.239774 0.186999 0.024142 -0.105755 0.172197 0.219943 -0.283837 -0.167506 -0.017400 -0.010962 0.121961 -0.238382 -0.104389 0.017815 0.315446 -0.356415 -0.012434 -0.247435 0.141032 0.115949 -0.080406 0.121505 0.075412 -0.134533 0.122382 -0.058389 0.410124 -0.220414
M136~I 0.379497 0.098323 -0.296890 0.038171 0.060246 0.027754 -0.147422 -0.209451 -0.523558 -0.251067 -0.107902 0.050227 -0.320431 0.039779 -0.010806 -0.099479 -0.043727 0.119287 -0.229369 0.021299 -0.109550 0.208061 -0.129776 -0.172650 -0.029992 -0.142196 0.008423 -0.079287 0.104503 0.010642 0.100568 -0.036820
M157 0.150282 0.050990 -0.073303 -0.067824 0.061019 -0.183170 0.131072 0.067923 -0.054391 -0.251451 -0.063228 0.026599 -0.123105 0.071177 0.205264 -0.120743 -0.098437 -0.000291 0.140685 0.232653 0.553261 -0.209419 -0.083653 0.144564 -0.367403 -0.247712 -0.182656 0.019001 -0.073787 -0.122537 -0.202971 0.069004
M388 -0.002961 0.024846 -0.049129 -0.024122 -0.044663 0.021600 -0.056248 -0.027967 -0.008083 0.077154 -0.037762 -0.041045 0.136010 0.007049 0.113822 0.019690 -0.011752 -0.003688 0.024943 -0.015057 -0.064278 -0.021411 -0.003760 -0.371352 0.043059 0.138199 0.040097 0.031977 -0.449870 -0.617932 -0.263043 -0.358394
M206~D -0.041377 -0.142443 -0.123977 -0.052215 0.045596 0.070481 -0.012029 -0.134306 0.015314 0.026423 0.025879 -0.054529 -0.112083 -0.056936 0.082383 0.043604 0.234801 -0.161435 -0.108452 0.024434 -0.239189 -0.123047 -0.062777 -0.385307 0.217146 0.369479 0.221563 -0.369983 0.439111 0.108171 0.041699 -0.106741
M066 -0.097222 -0.001946 0.428682 0.094804 0.312226 0.186631 -0.077325 -0.179363 -0.233058 0.033335 -0.151796 -0.080241 -0.361359 -0.105317 0.283351 -0.159073 0.089385 -0.035237 0.051246 0.271783 0.084598 -0.026291 0.054116 -0.009515 -0.136709 0.062093 0.017729 -0.254694 0.168976 0.035256 -0.143030 -0.246126
M352~O -0.080351 0.057562 0.160853 -0.482742 0.337666 0.029061 0.217027 -0.317334 -0.038498 -0.202489 0.356147 -0.085079 -0.056374 0.243820 -0.055370 0.079686 -0.080026 -0.153725 0.185797 0.060816 -0.211850 -0.070670 -0.020709 0.095470 0.039241 -0.033645 -0.085901 -0.018796 -0.152750 0.133791 -0.077617 -0.186316
M370 0.026881 -0.146566 0.015076 -0.056704 0.007836 -0.269390 0.007051 -0.056359 -0.459550 0.053252 -0.044572 -0.168313 0.153370 0.210052 0.135029 0.078105 -0.050978 0.145689 0.105348 -0.048109 0.312036 0.539650 0.074788 0.130718 0.172534 0.042957 -0.063303 -0.137878 0.098587 -0.042843 0.165352 -0.141941
M218 0.183376 0.013079 -0.130474 -0.028375 -0.042574 -0.091860 0.031125 0.148668 0.080330 -0.025968 0.222108 0.037974 0.223371 -0.000320 0.182804 0.078439 0.298645 -0.060649 -0.103623 -0.032516 -0.197455 -0.045926 -0.154479 0.147018 -0.377399 0.168214 -0.222949 -0.398276 0.363663 -0.148500 -0.124333 -0.166224
M096~D -0.054749 -0.019493 -0.164300 -0.007959 0.109069 -0.007982 0.059115 -0.097073 0.029960 0.118165 -0.042665 -0.132432 -0.057814 -0.003459 -0.120059 -0.023458 -0.150286 -0.022573 -0.324073 -0.185613 -0.217318 0.266512 -0.402825 -0.378988 -0.126043 -0.504315 0.033477 0.009252 0.139009 0.042259 0.071811 -0.087914
M347 -0.117740 -0.018422 -0.157386 0.354998 -0.077790 0.188875 -0.080768 -0.319754 -0.347796 -0.167292 0.304848 0.311528 -0.188738 0.297240 0.031779 0.122307 -0.051415 0.119626 0.109287 -0.042349 -0.061640 -0.129881 -0.010440 -0.087126 -0.122473 0.030522 -0.243771 0.108142 0.068654 0.051297 -0.078244 -0.214621
M259 -0.159401 -0.160533 -0.241561 -0.032325 0.056062 0.098184 -0.124930 0.266239 -0.203742 0.322948 -0.224716 0.206455 -0.209511 -0.106470 0.215178 0.005442 -0.004609 0.024767 0.033696 0.038777 -0.325398 0.060373 0.053464 0.392421 0.164730 -0.071318 -0.099113 0.134556 0.137255 -0.032835 -0.091915 -0.302473
M263 -0.062004 -0.425507 0.265646 -0.306127 0.050260 0.187498 -0.035769 0.006291 -0.059620 -0.063100 0.102944 0.018694 -0.315947 -0.222366 0.231056 -0.180499 0.138375 -0.012827 -0.166792 -0.067474 -0.178200 0.067092 0.165617 0.358025 -0.107304 -0.182158 -0.090572 0.013170 0.008493 -0.064386 -0.112477 -0.211196
M329 -0.152934 0.329417 -0.149541 -0.107333 -0.400586 0.189987 -0.175825 -0.264668 -0.216556 0.168323 -0.240549 -0.154095 -0.096375 0.026519 0.223398 -0.113993 -0.006002 0.183733 0.235793 -0.198162 0.087815 0.295015 0.011442 0.141254 -0.011882 0.089568 -0.097050 -0.131225 0.083691 -0.016568 0.053449 -0.136112
M387 -0.115962 0.072960 -0.206042 0.018043 0.228766 -0.002473 0.041036 0.054491 0.019980 -0.075610 0.020946 -0.071337 -0.097765 -0.229894 -0.284795 0.301122 0.136932 0.317975 0.090113 0.035306 0.155694 -0.368860 0.328402 0.030289 0.135850 -0.336749 -0.050641 -0.164714 0.099147 -0.148052 -0.066043 -0.199178
M110 0.126468 -0.294078 -0.023636 0.153161 0.158307 -0.105459 0.005465 -0.155268 0.098662 -0.047099 0.053958 -0.266885 0.223832 -0.191436 -0.046805 -0.193787 0.377766 0.158049 -0.232117 -0.072957 0.090874 0.039889 0.141231 -0.116646 -0.075264 0.170883 -0.167727 0.421487 0.118661 0.026588 -0.065090 -0.265780
M316~E2 0.313481 -0.044181 -0.206750 0.026860 0.010512 -0.117147 0.046802 -0.027662 0.064248 -0.163278 0.186810 0.078573 -0.233424 -0.315918 0.211904 -0.264296 -0.103859 -0.000191 0.187370 0.003505 -0.185949 -0.063459 -0.034043 -0.333350 0.251855 0.304998 0.280067 -0.085402 0.191170 0.099909 0.096779 -0.061184
M296 0.282170 0.116579 -0.024854 0.396000 0.365313 -0.244007 0.144430 0.303553 -0.191686 0.023823 0.347206 -0.233053 -0.119056 0.303528 0.018030 -0.082231 -0.095780 -0.066138 0.114516 0.116058 0.023076 0.014755 -0.026204 0.021960 0.104336 -0.039995 0.069540 -0.160055 0.052627 -0.038370 0.010109 -0.168693
N45 -0.192309 -0.107361 -0.317973 -0.115348 -0.041247 0.411071 0.446892 0.237813 -0.074499 -0.484909 -0.040960 0.009096 0.095681 -0.098424 0.307182 -0.004684 0.048020 0.055233 0.093151 -0.011130 0.098148 0.133934 -0.015295 -0.057612 0.048150 0.062894 0.021759 0.005851 0.027600 -0.005392 0.035995 -0.017572
M201 -0.002722 -0.011155 0.056546 -0.017531 -0.026782 -0.004735 0.011495 -0.033844 -0.012173 0.008170 -0.034695 0.106244 0.005972 0.043555 -0.021573 -0.009208 0.041167 -0.041965 -0.164287 -0.002570 -0.159227 -0.144579 0.112958 0.074446 -0.168236 0.134856 -0.084214 0.011733 -0.266145 -0.132590 0.850230 -0.138281
M203~A 0.128333 0.073883 -0.223085 -0.010763 0.078068 -0.253006 -0.134479 0.032926 -0.512697 -0.079997 0.160436 -0.316204 0.220979 0.227851 0.058432 -0.039883 -0.298541 0.098249 0.009175 -0.134802 0.167436 0.008965 0.013115 0.032362 0.169362 0.117059 0.028456 -0.083500 -0.023237 -0.015882 0.359010 -0.109363
M371 -0.415933 0.246243 0.406772 0.302111 0.080559 -0.366706 -0.263285 0.059360 0.046940 0.086249 -0.091468 0.099998 0.054859 0.037539 -0.032658 -0.017632 -0.050768 0.128952 -0.002260 0.138367 -0.055662 0.284079 -0.050535 -0.041135 -0.045684 0.066937 -0.033661 -0.301051 0.129185 -0.052261 -0.020120 -0.132135
M288 -0.185966 -0.107838 0.084060 0.153798 0.091244 0.330696 0.165939 0.311783 -0.262248 -0.370188 -0.143894 -0.161825 0.178896 -0.029186 0.081153 -0.038371 -0.094786 0.035567 -0.006251 -0.174056 0.044538 -0.209643 0.028571 0.095513 0.029953 0.275915 0.021286 0.025583 0.023808 -0.003648 -0.437874 0.141821
N24 0.194130 0.026124 0.077032 0.012531 0.025804 -0.226857 -0.216855 0.037751 0.194326 -0.124556 0.404336 0.187707 -0.223989 -0.347035 0.422348 -0.343090 -0.171395 0.119041 0.206952 -0.025411 -0.055332 0.014339 -0.031474 -0.144218 0.080310 -0.050500 0.078772 0.071487 -0.024806 0.033744 0.046038 -0.000893
M301 -0.010365 0.132751 -0.108060 0.147310 -0.104502 -0.002692 -0.142897 -0.039772 -0.015542 -0.090068 -0.121717 0.209444 0.259219 -0.216758 -0.439282 -0.309981 -0.059143 -0.107292 0.359722 -0.300967 0.170759 0.017500 -0.016797 0.107199 -0.219321 0.077462 0.165750 0.018399 0.120700 -0.047747 -0.029807 -0.264221
M317 -0.435969 0.197793 -0.009178 -0.092473 0.217242 0.415049 0.171534 0.383509 -0.051423 -0.162921 -0.122452 0.038940 -0.153428 -0.272415 0.139466 0.062322 -0.013399 -0.011149 -0.220693 0.146269 0.206732 0.109101 0.148804 -0.109706 0.032124 -0.025499 -0.099413 -0.012309 0.047778 -0.053033 0.036603 -0.148500
M149~A1 -0.144026 0.455990 -0.012423 -0.231855 -0.175054 0.078961 0.123182 -0.194368 0.234308 0.210891 -0.191199 -0.218364 -0.041228 0.149018 0.015391 -0.349950 0.032927 0.024724 0.198333 -0.112628 -0.073012 -0.069067 0.033764 0.176154 -0.097737 0.074567 -0.030113 -0.063333 -0.079516 -0.094927 0.382255 -0.141039
M219 -0.033922 0.112438 -0.238432 0.045721 0.053088 -0.131726 0.032012 -0.326941 -0.104012 0.079326 -0.224722 -0.361817 -0.198930 -0.018015 0.265847 -0.306730 0.392637 -0.222603 0.054394 -0.088158 -0.115892 0.036354 0.140168 0.281454 0.127081 -0.130922 0.042844 0.024048 -0.001898 -0.016683 -0.040830 -0.174036
N08A 0.105562 0.174451 -0.496050 0.075439 0.051708 -0.210221 -0.028413 -0.287737 -0.158155 -0.301263 -0.215982 -0.301938 0.135711 -0.087497 0.053729 -0.129471 0.157868 -0.312350 0.220893 0.077486 0.161795 0.108750 0.022823 0.106555 0.096359 -0.146387 0.030926 0.006994 0.078542 0.019572 -0.023941 -0.104326
M346 0.155136 0.026201 0.406990 0.196204 0.158409 -0.171732 0.158561 -0.021645 -0.223164 0.104911 -0.087739 -0.051127 0.085210 0.165782 0.189689 -0.058605 -0.092425 -0.028887 0.091526 0.216718 0.346319 -0.085085 0.093397 0.049396 -0.037885 -0.512219 -0.022855 -0.097004 0.102800 -0.073351 -0.212867 -0.087042
M039~C -0.178004 -0.344866 -0.313347 0.148151 0.360925 0.103028 -0.463995 0.275090 0.253492 -0.108576 -0.200128 -0.036196 -0.030674 -0.183205 -0.018972 0.054064 -0.065114 0.148818 0.230652 0.005160 0.016029 -0.109610 -0.054204 0.143132 -0.016077 0.008824 -0.093180 -0.028219 0.086487 -0.043662 0.052205 -0.070472
M299~M -0.153191 -0.054720 -0.251494 0.063735 0.110064 0.338942 0.455557 0.330501 -0.106330 -0.545800 -0.190912 -0.016295 0.122277 -0.016122 0.261277 0.008549 -0.030898 -0.064986 0.032356 -0.002467 0.051250 0.130802 -0.044324 -0.059875 0.031544 -0.011822 -0.003470 0.001813 0.016731 -0.001592 -0.000350 -0.007228
N48 -0.345960 0.034547 -0.036579 0.117467 -0.057770 0.307988 0.492586 0.335263 -0.098661 -0.498160 -0.116738 -0.041305 0.124681 -0.047024 0.293613 -0.069507 -0.022937 -0.083895 0.025090 -0.047083 0.008463 0.090005 -0.053626 -0.059954 0.042224 0.025842 -0.005004 0.022405 0.012536 0.013655 0.015959 -0.009304
N34 -0.386686 0.054950 0.013118 0.123531 -0.102777 0.292810 0.489408 0.325045 -0.096781 -0.475777 -0.090914 -0.049956 0.123714 -0.055871 0.298012 -0.088985 -0.018501 -0.082959 0.027082 -0.057325 0.001723 0.078521 -0.054560 -0.057606 0.045926 0.036998 -0.004290 0.026822 0.012061 0.017157 0.020799 -0.010161
N 0.082968 -0.074415 -0.005720 0.070658 -0.025904 -0.191185 -0.314966 0.008730 0.279288 -0.157177 0.349277 0.202007 -0.219007 -0.316224 0.413261 -0.333304 -0.258578 0.026382 0.172503 -0.006895 0.024442 0.070826 -0.020088 -0.136828 0.125829 -0.049505 0.071614 0.017132 0.016281 0.031795 0.048094 -0.036167
M054 -0.081424 -0.263729 -0.037273 0.245807 -0.006954 0.109022 -0.303447 -0.136430 -0.081304 -0.002052 0.037513 -0.374175 0.224311 -0.381266 -0.240711 0.024986 -0.196330 0.022216 -0.155828 0.191926 0.242878 -0.006344 -0.074317 0.151813 -0.178869 -0.024852 -0.008880 -0.165620 0.031325 -0.113331 0.227561 -0.153682
M123~B 0.093483 -0.022400 0.116095 0.007201 -0.168434 0.271490 0.261982 -0.091099 0.108886 0.038829 0.151468 -0.007276 0.009727 -0.141241 0.151815 0.376405 0.163741 0.030324 0.187562 -0.157216 0.123608 0.483857 0.126229 -0.012057 0.039169 0.070746 -0.075284 -0.014863 -0.093521 -0.046273 0.436372 -0.101241
M365 -0.335429 -0.055068 0.079362 0.062602 0.092322 0.199783 0.232661 0.223894 0.011609 -0.401305 -0.322086 0.133361 0.135261 -0.080569 0.290407 0.037409 0.032865 -0.042750 -0.058495 -0.067970 -0.111758 -0.066561 0.117675 0.008048 0.061459 -0.095614 -0.030038 0.020102 -0.086986 -0.060602 0.493300 -0.133124
M297 0.372117 0.098966 -0.116511 0.038328 0.233389 -0.069974 -0.273962 -0.056058 0.046332 0.066777 0.383589 0.167773 -0.217564 -0.025060 0.286728 -0.168252 -0.173460 0.147230 0.158358 0.111031 0.039414 0.041686 -0.084228 0.076706 -0.040396 -0.030226 0.385132 0.246100 0.064206 0.053053 0.012275 -0.186505
M377 -0.181803 -0.125534 -0.238308 0.136665 -0.052266 0.078149 -0.052782 0.000707 0.574587 -0.124087 0.210675 -0.167482 -0.114588 0.352870 -0.058523 -0.021383 -0.277987 0.119543 0.217106 -0.202388 0.132510 -0.029518 -0.164220 0.209403 0.025907 0.068369 -0.000433 -0.060221 -0.003932 -0.059037 0.049566 -0.144024
M251 -0.061980 0.012310 -0.023704 -0.080842 -0.062655 0.132998 -0.069512 0.017103 -0.016882 -0.011602 0.025545 -0.030879 0.005338 0.172543 0.082330 0.134257 0.135834 0.142426 -0.085665 0.149431 0.257436 -0.026816 -0.068667 0.105515 -0.331278 0.094987 0.634948 0.434714 0.074677 0.076647 -0.023213 -0.177213
M146 -0.156885 0.080457 -0.077362 0.246320 -0.161827 -0.010732 -0.010025 -0.417295 -0.152240 -0.027724 0.108930 0.062482 0.144358 -0.253524 -0.097810 0.257332 -0.136427 -0.031303 0.085764 0.072049 0.063487 -0.188043 -0.334827 0.145015 -0.052754 0.142944 -0.072243 0.395452 0.074866 0.130989 -0.037454 -0.295720
M240 -0.156247 -0.077287 -0.014664 -0.007837 0.176413 0.318914 -0.028940 -0.173020 -0.376557 0.022391 0.411718 0.313529 -0.166498 0.116680 -0.050039 0.028682 0.077251 -0.064403 0.250795 -0.164881 0.126131 -0.007176 -0.140731 0.096695 -0.051120 0.013940 -0.163769 -0.121545 -0.165348 0.253303 -0.062618 -0.256564
M096 -0.115989 0.570426 0.141311 0.039372 0.197100 0.000494 -0.039404 -0.133629 0.085066 0.165636 -0.213645 -0.043931 -0.131097 -0.044083 0.080750 -0.034450 -0.209779 0.009317 0.160495 0.000779 -0.153983 -0.032526 -0.083372 0.057222 -0.222239 0.156123 0.080622 -0.291314 0.373806 0.012493 -0.032150 -0.247800
M177~A -0.002722 -0.011155 0.056546 -0.017531 -0.026782 -0.004735 0.011495 -0.033844 -0.012173 0.008170 -0.034695 0.106244 0.005972 0.043555 -0.021573 -0.009208 0.041167 -0.041965 -0.164287 -0.002570 -0.159227 -0.144579 0.112958 0.074446 -0.168236 0.134856 -0.084214 0.011733 -0.266145 -0.132590 0.850230 -0.138281
M328~B 0.218150 -0.051541 0.207991 0.093588 0.085944 0.079348 0.126921 -0.003999 0.127382 0.119113 -0.122614 0.181413 -0.043938 -0.103381 -0.075117 0.036556 0.212033 0.137231 -0.015877 0.077139 0.160273 -0.153079 -0.642078 0.180829 0.268086 0.126583 -0.137189 0.036466 -0.086020 -0.076687 0.273600 -0.098558
M145~E 0.224725 -0.060020 -0.159463 -0.194848 -0.164064 -0.115724 -0.038569 0.095569 0.103577 -0.165607 0.230662 0.170362 -0.259670 -0.248297 0.451018 -0.331253 -0.321680 -0.092669 0.112052 -0.057557 0.004996 0.097246 -0.008800 -0.171066 0.178974 -0.059352 0.056625 0.210666 -0.071002 0.090207 0.076522 -0.005700
M297~B -0.018157 0.033432 -0.044304 0.332853 0.381835 -0.039214 -0.067107 0.204051 0.057259 -0.166310 0.199764 -0.056147 -0.052200 0.024076 0.536324 -0.300947 -0.185770 0.144056 0.172945 0.055445 0.245305 0.075018 -0.094278 -0.032238 0.083965 -0.122772 -0.038654 -0.141368 0.063170 -0.019393 0.084266 -0.133282
M134 0.130022 -0.082697 0.014169 -0.010991 -0.032556 -0.162965 -0.353921 -0.024459 0.317632 -0.101905 0.358020 0.292297 -0.191086 -0.342577 0.347400 -0.312714 -0.117980 0.107192 0.232605 0.074164 0.014768 0.059248 -0.045132 -0.109085 0.059516 -0.114726 0.019271 0.004947 -0.000307 0.012837 0.068397 -0.024389
M346~D 0.088753 -0.344920 -0.459776 -0.166940 0.194371 0.547170 0.091115 -0.144283 -0.044577 -0.126009 -0.132984 -0.318699 -0.028175 0.158950 -0.114953 0.003313 -0.089603 0.019989 -0.001896 0.105178 0.194736 -0.051197 0.006819 -0.033832 -0.072680 0.013846 0.064006 0.073816 -0.018813 -0.096252 -0.016623 -0.071062
M346~E 0.097853 -0.378703 -0.491333 -0.175897 0.203950 0.557599 0.092032 -0.144980 -0.043896 -0.120709 -0.125988 -0.294641 -0.025372 0.140182 -0.101144 0.002841 -0.075510 0.016171 -0.001506 0.081584 0.144990 -0.037975 0.004871 -0.022986 -0.047116 0.008835 0.035836 0.039671 -0.009225 -0.042295 -0.005902 -0.015526
M124 0.089514 -0.007335 0.050331 -0.034457 -0.051234 0.117247 -0.120636 -0.035779 0.142172 -0.187285 -0.062191 0.149208 -0.226754 0.007262 -0.094371 0.031612 -0.272236 -0.452727 -0.432699 -0.002980 0.359267 0.078750 0.137864 0.204221 0.167869 0.066327 -0.104270 -0.016981 0.090613 -0.152779 -0.158537 -0.224696
N23 0.144302 -0.185252 -0.218443 -0.150295 0.098072 0.164053 -0.155895 -0.260484 -0.074651 0.325327 -0.250035 -0.169451 0.078998 0.308210 -0.490805 0.299769 0.114621 -0.005598 -0.147999 0.092292 0.124014 -0.070536 0.059343 0.135319 -0.105940 0.018233 -0.039416 -0.065723 0.018211 -0.067688 -0.052654 -0.018610
M006 -0.134608 0.057940 -0.129590 0.068253 -0.309069 -0.043911 -0.245910 -0.207284 -0.617832 -0.123811 0.007869 0.238451 0.045743 0.170787 0.020935 0.023412 -0.129866 0.266641 0.075924 -0.123332 0.122208 0.056735 0.004641 0.051744 0.014034 0.034086 -0.091143 -0.079440 -0.051817 -0.000191 0.309311 -0.160759
|M351+N14| 0.177036 -0.125923 0.228559 0.253632 0.154723 0.159081 -0.044938 -0.042403 0.187101 -0.231331 -0.126790 -0.232367 -0.094897 0.212336 0.185357 0.183967 0.216412 -0.012803 0.075173 0.019473 -0.015417 0.342950 0.046154 -0.163205 0.100285 0.233626 0.198808 -0.124334 0.038584 0.047223 0.356399 -0.228644
M319 0.236005 0.048708 0.156569 0.123797 0.056729 -0.078795 -0.195929 0.052397 -0.177359 -0.066508 -0.008591 0.037677 0.272747 0.004777 -0.022175 -0.039807 0.022161 0.153289 -0.050881 -0.127443 -0.087383 -0.013301 -0.379288 0.264006 0.661484 0.043171 0.057056 0.010574 0.070528 0.023140 0.057541 -0.147860
M009 0.277256 -0.105271 0.321527 -0.250773 -0.081710 0.005437 -0.106848 0.190352 0.063164 -0.127543 -0.399600 -0.279264 -0.092359 0.417843 -0.069348 0.069354 -0.114906 -0.026008 0.148016 0.068476 -0.107209 0.117270 -0.046062 0.023043 -0.123397 0.140851 -0.284270 0.059584 0.103538 0.015693 -0.098219 -0.179835
M001 -0.144787 -0.248941 0.160427 -0.010354 0.244602 -0.082121 -0.084446 -0.192836 -0.321253 0.306740 -0.166073 0.048190 -0.106630 0.163143 -0.248332 0.112658 -0.065019 0.083998 0.030969 0.365044 0.122870 -0.008265 0.001240 -0.108428 -0.084213 -0.001976 -0.070650 -0.252653 0.109794 -0.082290 0.291859 -0.297384
M320 0.397441 -0.142076 -0.452321 0.079216 -0.211633 0.141875 -0.047450 -0.320107 0.125184 -0.079555 -0.079904 -0.096903 0.069236 0.098778 0.096839 0.082426 0.136133 -0.137822 -0.099458 -0.076384 -0.083813 0.244576 0.002288 -0.137707 0.045343 -0.141518 0.059507 -0.112561 -0.045772 0.266207 0.035797 -0.348210
M125 -0.009311 0.259269 -0.304525 -0.242360 -0.121747 -0.215389 0.058771 0.297375 0.031015 0.139083 -0.033391 0.327927 -0.344708 -0.010354 0.124756 0.237194 -0.089074 -0.091152 -0.059518 0.090362 0.200285 0.416322 0.151333 0.053119 0.106443 0.004782 -0.074769 0.026635 0.013566 -0.019113 0.131038 -0.076943
M263~A 0.058139 -0.089067 -0.061992 -0.192036 -0.255023 -0.095472 -0.235251 0.058469 -0.283030 -0.321511 -0.184274 0.173044 -0.224551 0.121102 0.208198 -0.039689 0.159869 0.230344 -0.020105 0.129369 -0.183527 0.286837 0.079172 0.309166 -0.151520 -0.135456 -0.175483 -0.086832 0.128713 0.004757 -0.057228 -0.211172
M032 -0.198485 -0.146764 0.083560 -0.535538 0.253111 -0.127151 -0.089850 0.133080 0.099709 0.053148 -0.020349 -0.169898 0.018854 -0.087295 0.028146 -0.123188 0.381842 0.028725 -0.056402 0.044510 0.220484 0.047719 -0.366389 0.019958 0.095874 -0.033197 -0.050426 0.115742 0.011521 0.198262 -0.077590 -0.253499
M059 0.098355 -0.092742 -0.404230 0.049052 0.395502 0.107137 0.245598 0.296956 -0.025885 -0.271599 -0.222640 -0.062240 -0.066756 0.041446 0.253961 0.254480 -0.013676 0.052728 0.037777 -0.058651 0.050925 0.352443 -0.132752 -0.188555 -0.052089 -0.153610 -0.025160 -0.005693 0.081110 0.019295 0.075662 -0.093470
M024 0.002932 -0.336627 0.150922 -0.187953 -0.161371 0.309629 -0.367205 0.354409 -0.123093 0.113934 0.000619 -0.234539 -0.057509 -0.260266 0.054171 -0.098926 -0.047103 0.046571 0.021153 0.196223 -0.087045 -0.002715 0.111621 0.003877 -0.072391 0.037883 -0.338095 0.145611 0.183244 0.010063 -0.051746 -0.193301
|M218+M288| -0.105264 -0.211309 0.055974 0.008470 -0.057012 0.125949 -0.072545 0.085868 -0.041418 -0.036288 -0.180213 -0.113994 0.156692 -0.266448 0.153094 0.278340 -0.096740 -0.082243 0.199127 0.028429 -0.242344 -0.191962 0.056894 0.088483 0.075937 0.169518 0.503443 0.171124 0.280936 0.108135 0.010448 -0.305214
M377~E 0.057878 0.234675 0.249972 0.128351 0.116380 0.117453 0.034187 -0.101358 0.270497 -0.193519 0.451802 0.050406 0.466249 -0.148099 -0.079746 0.161920 -0.103151 -0.024313 -0.222484 -0.064533 -0.139601 0.131373 0.190720 0.202542 0.122048 -0.022511 0.003662 -0.017349 0.005165 -0.014403 -0.064595 -0.188386
M371~C -0.076705 0.063196 0.043263 -0.058493 -0.093061 0.055713 -0.084951 0.038975 -0.010725 0.006871 0.046121 0.016001 0.009720 0.153414 0.101941 0.137499 0.153179 0.143358 -0.087764 0.137546 0.234780 -0.019718 -0.071630 0.113680 -0.329246 0.095486 0.642617 0.435235 0.079730 0.094080 -0.021192 -0.170563
M248~C 0.049858 -0.024300 -0.144571 -0.112757 -0.030734 0.045916 -0.082598 0.136886 0.027237 0.107676 -0.084583 0.025358 0.115845 -0.048363 0.073931 -0.020481 0.091746 -0.034922 -0.079108 -0.093429 0.104833 -0.052416 -0.013262 -0.077687 -0.055247 -0.007930 -0.042705 -0.312804 -0.534397 0.648535 -0.092429 -0.175613
M222 -0.081323 0.074867 0.147123 0.218092 0.022584 0.045963 0.030063 0.141638 0.131035 -0.246193 -0.009780 0.090775 0.153991 -0.036906 0.215032 -0.150337 0.045103 -0.001056 -0.018828 -0.186811 -0.356046 -0.054869 0.207217 -0.117359 0.524061 -0.043812 -0.057704 0.306754 0.194534 0.195906 0.028469 -0.200378
M057~B 0.114234 0.556587 0.175901 -0.150159 0.092519 0.134793 0.203406 -0.073565 0.242835 0.147024 -0.115784 -0.124751 0.043439 0.086898 0.033649 -0.209041 0.102825 0.113210 0.183958 -0.161861 -0.050015 -0.128588 -0.235141 0.309738 0.290455 -0.112742 0.029654 -0.023254 0.033069 -0.063688 0.019988 -0.169106
M325 0.370479 -0.068704 0.210319 -0.014844 0.172619 0.159269 0.011100 -0.062436 0.145307 -0.068097 -0.063848 -0.039473 0.064551 -0.198900 0.201614 0.466382 0.222320 0.113115 0.329543 -0.121886 0.257589 0.202638 0.092588 -0.006009 0.063217 -0.144254 -0.051594 -0.106325 0.074193 -0.050523 0.245814 -0.110259
|M218+X| 0.046892 0.037843 0.269926 0.175126 0.203886 -0.006237 -0.242764 -0.037637 0.013030 -0.168431 -0.173765 0.177260 0.310330 0.037544 0.018911 -0.089623 -0.039962 -0.005321 -0.183441 0.022185 -0.210727 0.222153 0.167773 0.335368 0.501264 -0.169555 0.072400 -0.004224 0.024128 -0.044454 -0.045529 -0.185934
M038~F 0.067545 0.163048 -0.094180 0.135593 -0.013701 0.242698 -0.161741 -0.197370 -0.041046 -0.151251 0.028521 0.276109 -0.175787 0.059380 -0.003625 0.132350 -0.083030 -0.298340 -0.299450 -0.033230 0.293124 -0.188596 0.036668 -0.140769 0.162973 0.115136 -0.218865 0.009804 -0.133287 -0.406670 -0.159881 -0.194876
M110~A -0.056615 -0.188915 0.012512 -0.176765 0.284813 0.028129 0.072447 -0.076360 0.041830 0.130072 0.077562 -0.118111 0.116656 -0.095163 -0.077550 -0.227207 0.101610 0.194810 -0.237970 -0.142400 -0.090061 0.190834 -0.070999 -0.431102 -0.108013 -0.120764 -0.311731 0.369180 0.234352 0.111264 -0.003283 -0.173622
M242~B 0.146552 -0.096155 0.255780 -0.017136 -0.005268 -0.162306 0.056459 0.364717 0.300420 -0.055319 -0.128432 -0.236764 -0.052814 0.107271 -0.051430 0.054915 0.066791 0.107526 -0.011940 0.089564 0.097277 -0.036856 -0.105269 -0.052017 -0.158169 0.093756 0.124781 -0.156914 -0.411355 0.450415 -0.099652 -0.224383
|M136+M365| -0.132612 -0.241842 0.004075 -0.209147 0.223897 0.140734 -0.184123 -0.023867 -0.119914 -0.392044 -0.208127 -0.016570 0.290594 0.033553 0.247918 -0.215043 0.017112 -0.002924 0.162091 0.300008 0.298218 0.203845 0.007001 -0.098584 -0.009022 -0.123173 -0.012944 -0.160326 0.184663 -0.015331 0.167976 -0.101507
M029~A -0.117401 -0.022318 -0.138813 -0.225617 -0.174850 0.188331 0.232404 -0.012657 -0.176839 -0.083980 0.141596 0.246539 0.115659 -0.267644 0.026738 0.156069 0.148994 0.446223 0.046060 -0.091887 0.089020 0.370106 0.151991 -0.185170 0.034607 0.243518 -0.080673 -0.034563 0.150713 -0.023025 0.004763 -0.201135
M136~P 0.083143 -0.346424 -0.101342 0.238377 0.226719 -0.016318 0.028820 -0.081914 0.101271 -0.066161 -0.179289 0.056516 -0.016044 -0.233307 -0.090105 0.034706 0.099364 0.224950 -0.095464 0.053156 0.173813 -0.199500 -0.543601 0.024021 0.309056 0.271555 -0.018868 -0.030469 -0.026185 -0.081002 0.114207 -0.058769
M327 0.360003 0.094434 -0.103014 0.117003 0.062721 0.210720 -0.203996 -0.208951 -0.376406 -0.384088 -0.019431 0.134774 -0.217933 -0.074380 0.084751 -0.160790 0.101731 0.270407 -0.061790 0.267474 -0.017030 0.048682 0.076179 0.078661 -0.113937 -0.082790 -0.066139 -0.106167 0.021578 -0.059265 0.274557 -0.146406
M005 0.251699 -0.034235 0.222452 0.254317 0.090212 -0.066816 0.068590 0.148920 0.226132 -0.025960 -0.194804 -0.029541 -0.130868 0.067267 0.003640 0.066337 0.094832 0.226108 0.024710 0.147562 0.127195 -0.056259 -0.671354 0.152271 0.231788 0.115511 -0.073092 -0.017814 -0.048873 0.001566 0.010214 -0.118997
M003~B 0.251930 -0.231634 -0.350777 0.189600 0.270598 0.345510 0.058262 0.023404 -0.074033 0.176327 0.234825 0.003761 -0.287535 -0.107829 0.230036 0.177513 0.040244 -0.064807 0.016298 -0.053036 -0.058352 0.286839 0.026405 0.087013 -0.001855 -0.054040 -0.161753 -0.051130 0.103149 -0.078546 0.194280 -0.260340
M351~D -0.294493 0.003588 -0.171087 -0.209709 0.172534 0.329644 0.150474 0.171578 -0.105704 -0.355619 -0.257168 -0.118238 -0.059586 -0.149022 0.452958 -0.034901 0.156273 0.094563 0.198569 0.029570 0.144534 0.160068 -0.145517 0.011001 -0.037207 0.108942 -0.059509 -0.123074 0.138276 -0.005550 0.033852 -0.076700
M348 -0.076114 -0.225392 -0.237953 -0.105372 -0.267432 0.073063 0.144901 -0.124078 0.051208 -0.180875 -0.039317 0.096732 0.052435 0.107453 0.041566 -0.094324 0.127714 -0.165075 0.105884 0.345499 0.036292 -0.000485 0.083722 -0.311515 0.343906 0.182653 0.197326 -0.235127 0.313394 0.110471 0.206949 -0.112500
M057 0.413529 -0.048362 -0.163086 0.265434 0.102963 0.027384 0.508498 -0.005645 -0.048328 0.035317 -0.130775 -0.047795 -0.261801 -0.069316 -0.246427 -0.219693 -0.245857 0.265395 0.065399 0.122014 -0.028813 0.046494 0.069615 0.019515 -0.131565 0.162412 0.102326 -0.069247 0.069914 -0.003954 -0.024586 -0.177819
M206~B -0.248893 -0.305138 -0.136116 0.107932 0.246112 -0.037378 -0.265740 0.030209 0.170251 0.029985 -0.243102 -0.156756 0.054873 -0.162372 0.029871 0.188994 -0.337556 -0.020699 0.342357 0.252407 -0.118031 -0.155856 -0.060674 -0.033752 -0.033911 0.056079 -0.226858 0.245984 0.099287 0.051999 0.012119 -0.185518
M383 0.323893 -0.077330 0.043032 -0.181922 0.172748 0.167055 -0.309919 -0.076366 -0.048877 -0.456787 -0.177652 -0.041476 0.152438 -0.196565 0.111831 -0.040323 0.029366 0.058235 0.071980 0.104082 0.114163 -0.071038 0.099042 0.035303 -0.105505 -0.062676 -0.008546 -0.038959 -0.038176 -0.073810 0.533921 -0.127173
M072 -0.068136 -0.189364 -0.130171 0.177081 0.040511 0.273030 0.227725 -0.161385 0.009045 -0.028220 -0.348940 -0.181629 0.298023 0.250089 -0.268181 0.039296 0.194379 -0.112473 -0.041958 0.416441 0.179659 -0.008319 0.067512 -0.056372 -0.069942 0.018346 -0.183578 -0.086348 0.222056 0.004030 -0.012383 -0.122841
M041~J -0.162596 -0.160253 -0.221431 0.109667 0.409522 -0.032201 -0.472500 0.058881 0.351596 -0.208960 -0.149619 -0.014292 -0.098980 -0.206974 0.098845 -0.052136 -0.069402 0.185711 0.342917 0.009486 0.150159 -0.054798 -0.137984 0.059308 -0.017716 -0.011430 -0.042797 -0.097626 0.089709 -0.031032 0.068361 -0.075970
|M036+N14| 0.149205 0.188537 -0.051437 0.001741 -0.160725 -0.154853 -0.171650 -0.027262 0.036163 -0.018142 0.294160 0.088144 -0.265539 -0.276756 0.507803 -0.380817 -0.226371 0.127635 0.250021 -0.054678 -0.030568 0.118652 -0.004738 -0.178937 0.119157 -0.000043 0.060246 0.081940 -0.082336 -0.017216 0.032529 -0.028868
M260~1 -0.121586 -0.091039 -0.150414 0.010941 0.250276 -0.036547 0.288721 -0.012660 0.019174 0.071870 -0.110775 -0.058665 -0.080726 -0.167165 0.268052 -0.111356 0.180173 -0.324571 -0.127780 -0.047818 0.044960 0.035690 0.233766 0.071955 0.141436 -0.110033 -0.022249 -0.144622 -0.369288 0.415524 -0.080916 -0.279439
M125~A 0.013204 0.083662 -0.281698 -0.040359 0.063214 -0.293368 -0.046158 0.056973 -0.134667 -0.144130 0.184593 -0.322482 0.187768 0.287441 0.046485 -0.025936 -0.337237 0.145008 0.003823 -0.267307 0.203349 -0.140957 0.024798 0.108691 0.041761 -0.001195 -0.056189 -0.054695 -0.054099 -0.073745 0.454512 -0.126506
M376 0.082882 -0.040065 -0.221195 0.118642 0.161595 -0.095123 0.056595 0.146929 -0.325678 -0.430126 -0.093018 -0.350866 0.248965 0.106170 0.248041 -0.055786 -0.165191 0.015101 0.232756 0.004569 0.329602 0.148044 -0.153321 0.058161 0.212702 -0.014767 0.005766 -0.071569 0.096681 0.022311 -0.031717 -0.084972
M310 0.206687 -0.020664 0.063462 -0.085734 -0.144397 -0.187535 0.060821 -0.069086 -0.367326 0.087565 0.113866 -0.220660 0.094542 0.105208 0.143467 0.259168 -0.076219 0.135975 0.198809 -0.163651 0.324811 0.548894 0.079207 0.052816 0.180345 0.041933 -0.050162 -0.065953 0.068263 0.013744 0.109330 -0.067580
M149~A 0.044555 0.016866 0.223506 0.335743 -0.004738 -0.148464 0.239226 0.057504 -0.264883 0.229861 0.123111 -0.010543 -0.095861 0.183913 -0.061339 -0.004448 -0.050850 0.063407 -0.061946 0.270934 -0.012901 0.046449 0.197373 -0.039831 0.036760 0.114368 -0.035096 -0.136220 -0.146815 -0.057044 0.594028 -0.169639
M381 -0.064012 0.384805 0.040903 -0.071143 0.169466 -0.258318 0.227764 0.225202 -0.247628 -0.203821 -0.007986 -0.270528 0.266382 0.145332 0.215255 0.026674 0.023268 0.045594 0.084709 -0.188497 0.178642 -0.221995 0.094818 -0.103559 0.093852 -0.072460 -0.244985 0.107034 0.113666 0.014598 0.238978 -0.160631
M039~B -0.002722 -0.011155 0.056546 -0.017531 -0.026782 -0.004735 0.011495 -0.033844 -0.012173 0.008170 -0.034695 0.106244 0.005972 0.043555 -0.021573 -0.009208 0.041167 -0.041965 -0.164287 -0.002570 -0.159227 -0.144579 0.112958 0.074446 -0.168236 0.134856 -0.084214 0.011733 -0.266145 -0.132590 0.850230 -0.138281
|M175+M288| -0.070065 -0.215636 -0.407278 -0.048072 -0.106002 -0.061642 0.174366 -0.240355 0.245607 0.083824 -0.083408 0.048492 0.134220 0.051264 0.018715 -0.091192 0.105304 -0.137200 -0.098573 0.210136 -0.090159 0.104287 -0.228526 -0.348565 -0.008632 -0.456861 0.035412 -0.124705 0.237404 0.028471 0.061449 -0.090371
|M305+M111~C| 0.113803 0.156611 0.000370 0.055350 -0.229465 0.464921 -0.184184 0.322598 -0.103293 0.159006 0.350974 -0.422655 0.031522 -0.180728 -0.108569 -0.081481 -0.058077 0.105866 -0.137147 0.274942 0.102275 -0.119827 0.015385 -0.013470 0.033508 -0.136333 -0.048869 -0.039142 0.031505 -0.026124 0.048412 -0.030588
M264~A -0.182763 0.095933 0.335827 0.076304 -0.191741 0.179374 0.450242 0.239973 -0.094251 -0.323581 -0.221821 0.109660 0.111234 0.036998 0.353187 0.048037 -0.061300 -0.051044 0.002910 -0.255265 0.108114 -0.178189 -0.031843 -0.140510 0.009064 -0.217728 0.042540 0.000787 0.085936 0.008535 0.016305 -0.034478
N30C 0.199052 0.018837 0.065918 0.007985 0.015840 -0.230869 -0.231038 0.043377 0.207379 -0.118641 0.408745 0.195838 -0.214422 -0.353191 0.417827 -0.338493 -0.161360 0.115415 0.202901 -0.019116 -0.054625 0.016482 -0.036112 -0.137738 0.072197 -0.054119 0.070079 0.058955 -0.017795 0.031266 0.046345 -0.004956
|M305+M324~C| 0.113803 0.156611 0.000370 0.055350 -0.229465 0.464921 -0.184184 0.322598 -0.103293 0.159006 0.350974 -0.422655 0.031522 -0.180728 -0.108569 -0.081481 -0.058077 0.105866 -0.137147 0.274942 0.102275 -0.119827 0.015385 -0.013470 0.033508 -0.136333 -0.048869 -0.039142 0.031505 -0.026124 0.048412 -0.030588
M302~T -0.125845 0.070546 -0.081477 -0.201799 -0.139856 -0.135149 0.233775 -0.184478 0.259964 0.102565 0.099583 0.000171 0.190362 0.146125 -0.000655 -0.242350 0.256638 -0.228877 0.254970 0.519348 0.105337 -0.048142 0.024099 -0.066875 0.174410 -0.253306 0.045252 -0.107768 0.080715 -0.002356 0.062938 -0.103935
M340 -0.055624 -0.064060 -0.003087 0.194439 -0.142760 0.042819 0.056410 -0.268033 0.149017 0.110866 0.131533 -0.169751 0.108356 -0.376996 0.047250 0.463510 -0.020549 -0.130112 0.235560 -0.117125 0.246409 0.450486 0.069354 0.020795 0.006298 0.019268 -0.067605 -0.001335 0.006033 0.007521 0.176544 -0.120388
M372 -0.186690 0.612584 0.259866 -0.068108 0.094982 0.122120 -0.213036 -0.263721 0.033018 0.108935 -0.254124 -0.074076 -0.075830 0.029723 0.074089 -0.260425 -0.060901 0.029298 -0.068859 -0.038581 -0.072048 0.113601 -0.103733 -0.117942 -0.071570 0.076929 0.053393 -0.279881 0.228251 0.021329 0.080791 -0.104948
M354 -0.059058 -0.111011 -0.129265 0.108870 0.256143 0.379196 -0.074106 0.082251 0.071709 -0.699566 0.008284 -0.094688 0.090233 -0.107840 0.289991 -0.199441 -0.080456 0.039140 0.130861 0.115895 0.121897 0.045667 -0.015736 -0.091872 0.033247 -0.050420 -0.035475 0.017773 0.091814 0.059399 0.066729 -0.030537
M153 0.340302 -0.071522 -0.124285 -0.021156 -0.137805 0.035200 0.089244 -0.015538 -0.038509 -0.294824 -0.140580 0.193439 0.356718 -0.089465 -0.241995 -0.159514 0.014621 -0.325801 0.438183 0.191998 0.001948 0.179715 -0.115331 -0.161926 -0.038815 -0.159595 0.000514 0.005761 0.014138 0.046479 0.012614 -0.182553
M387~C -0.041598 -0.184823 0.276510 0.066808 -0.011951 0.173730 0.064706 0.255110 0.032865 0.269660 0.113514 0.036034 -0.193731 -0.032385 -0.302454 0.133844 0.096590 -0.257975 0.118186 0.096673 0.137266 0.489500 0.075266 -0.239331 0.032391 -0.066546 -0.033699 0.085371 0.048374 -0.049602 0.223705 -0.241466
M266~B 0.132933 0.063178 0.308954 -0.112973 -0.251267 0.107309 0.039630 0.017210 0.030341 0.214608 0.031858 0.112648 -0.102277 0.001687 0.271395 0.034059 -0.141725 -0.015986 -0.143371 -0.308394 0.100861 -0.314659 -0.059706 -0.253237 -0.051961 -0.285102 0.334433 -0.041005 0.305474 0.080831 0.065955 -0.181812
M228~B 0.409506 0.136718 -0.268947 -0.109123 -0.024223 0.007590 0.042343 0.069303 -0.017976 -0.100485 -0.245514 0.230457 0.244292 -0.163163 -0.220474 -0.241873 0.022479 0.077691 0.046036 -0.053903 0.087032 0.047326 0.042687 -0.100642 -0.101395 0.064972 -0.003458 -0.185793 -0.344984 0.412599 -0.084147 -0.161909
|M296+M296| 0.221517 0.015286 -0.330989 0.145903 0.446341 0.266257 -0.043969 -0.002624 -0.201530 0.016507 0.279245 0.156259 -0.069523 0.299693 0.102569 0.063564 0.080372 -0.230541 -0.017101 -0.082106 0.182108 -0.026149 0.013484 0.014235 -0.159857 0.053647 0.165890 0.158848 -0.058141 0.170820 -0.071994 -0.274789
M305 0.047512 -0.053100 -0.066500 -0.001560 0.573818 0.065658 -0.109508 0.011594 0.179978 -0.193328 -0.242501 -0.063459 0.156965 -0.020818 -0.010459 0.150677 0.126713 0.102745 0.226065 0.007239 0.265240 -0.237517 0.126486 0.059289 -0.183506 -0.212508 0.050595 0.008239 -0.061481 -0.168285 0.308076 -0.178281
M128~D -0.209240 -0.123543 -0.136504 -0.078718 0.049182 0.037124 -0.239458 0.114694 0.176228 0.185088 -0.014023 -0.001783 0.188772 0.141951 0.080310 -0.129719 0.097609 -0.001965 -0.080937 -0.169352 0.174105 -0.048280 0.072822 -0.191511 0.012642 0.131804 -0.369843 0.006014 -0.309293 0.489681 -0.118001 -0.272301
M387~EE 0.091720 -0.012635 0.027533 0.168335 0.193751 0.044562 -0.224638 0.131351 -0.072562 -0.078888 0.004115 0.059133 0.043453 0.137492 -0.365530 -0.196506 0.162747 -0.332430 0.040626 -0.279513 -0.157835 0.252029 -0.245602 -0.157033 -0.057659 -0.384880 0.168226 0.062691 0.035010 -0.046912 0.168839 -0.203140
M057~A 0.394882 0.352215 0.070349 -0.175703 0.114260 0.034217 0.043293 -0.169505 0.042900 -0.262384 -0.239847 0.346316 0.127753 -0.144634 -0.245993 -0.276694 -0.173437 0.030671 -0.127945 0.125946 0.079187 0.101214 0.141688 -0.053011 0.076100 0.154881 0.043257 -0.199024 0.164248 0.024540 -0.009494 -0.123758
M066~A 0.031025 -0.136385 -0.215183 0.464329 0.138921 -0.226475 0.063263 -0.088814 -0.159292 0.123250 -0.052119 0.108163 -0.269049 0.157861 0.130268 -0.341524 0.174965 -0.255530 -0.031743 0.274646 0.216852 0.205118 0.195372 0.001043 -0.012391 -0.025827 -0.004786 -0.078601 0.065561 -0.042448 -0.012666 -0.193023
M101 0.039395 0.129804 -0.337709 -0.075017 -0.170602 0.288658 -0.015517 -0.177835 0.094912 0.115945 -0.240780 -0.175130 -0.060147 0.184466 0.223031 -0.215977 0.200562 -0.047356 0.116346 0.111643 0.054956 0.074851 0.019638 0.128897 -0.095067 0.145047 0.477108 0.185508 0.173190 0.030095 -0.000927 -0.235339
M263~1 0.084657 -0.136834 0.105523 -0.076003 -0.467623 -0.315030 -0.009475 -0.073503 0.047110 -0.530228 0.156367 -0.135062 -0.261965 0.154136 -0.080531 0.071041 0.122393 0.182613 -0.204189 -0.006694 -0.175063 0.018514 -0.003200 0.067492 -0.061289 -0.130325 -0.072792 -0.010417 -0.013374 0.032183 -0.076020 -0.212273
M033 -0.033016 -0.002475 0.143315 -0.053375 -0.327605 0.015463 -0.189934 -0.023966 0.000280 0.061942 -0.198523 -0.095444 -0.007964 0.233818 0.205601 -0.290360 -0.007545 0.183236 0.236862 -0.200042 0.201211 -0.104383 0.200617 -0.024162 -0.222625 0.045044 -0.231799 0.250068 0.290966 0.083311 0.173159 -0.293637
M317~A 0.216938 -0.183210 0.083392 0.230432 -0.073207 -0.090121 0.095397 -0.040267 0.474065 -0.089495 -0.236541 -0.111510 0.004772 0.300432 0.008470 -0.064884 0.143408 0.036085 0.234032 0.509641 0.042528 0.075192 -0.105449 -0.110679 0.032414 -0.109556 0.067839 -0.179430 0.068457 0.055723 0.056509 -0.106671
M024~1 0.092561 -0.297931 0.262292 -0.073564 -0.383767 -0.032423 -0.123768 0.215052 -0.113961 0.055686 -0.177494 -0.212963 -0.085058 -0.104561 -0.120169 0.137212 -0.165080 -0.024658 0.228287 0.167597 -0.237268 -0.025187 0.086357 -0.134786 -0.060681 0.119841 -0.343776 0.271355 0.173763 0.115925 -0.022827 -0.171914
M004 0.126111 -0.226090 -0.110924 0.225075 -0.023918 -0.042202 -0.010492 0.506240 0.068572 0.280562 -0.045624 0.284626 0.161050 0.105087 0.064574 -0.004957 -0.297250 -0.103716 0.061510 -0.120103 -0.246208 -0.016017 0.127084 0.256867 0.113940 -0.134748 0.100444 0.029010 0.084446 -0.090666 -0.084409 -0.280561
M102~D 0.181130 -0.031732 -0.003089 -0.235724 0.073406 0.160234 0.058096 -0.112047 -0.157565 -0.008203 -0.031386 0.065588 0.014287 -0.096797 -0.071224 0.309369 -0.521353 -0.254606 0.163333 0.220439 -0.187836 -0.061568 -0.110122 0.106020 -0.120425 0.104907 -0.098459 -0.023795 -0.180749 0.342169 -0.099016 -0.231112
M318~A3 -0.122670 0.424398 -0.264335 -0.014621 0.055164 -0.255379 -0.028483 0.272570 0.156564 0.035553 -0.031022 0.155413 -0.037484 0.122701 0.055662 0.062369 0.134378 0.073999 -0.059461 0.128764 0.090729 0.013638 0.177937 -0.207051 0.055555 0.073895 -0.394508 0.392655 0.150213 0.158713 -0.015927 -0.155165
M223 -0.054795 -0.015336 0.237695 0.258045 -0.251542 0.204896 -0.417993 -0.086753 -0.049028 -0.219266 -0.037210 0.307683 0.105122 0.235897 0.060614 0.038381 0.140461 0.285400 0.002366 -0.086897 -0.241953 0.131151 -0.054108 0.280516 0.025531 -0.034334 0.179899 0.032446 0.069333 0.025279 -0.061743 -0.239151
M386~A -0.160570 -0.322048 0.175088 -0.297025 0.138780 0.042007 0.296513 -0.032959 0.067988 0.161234 0.055771 0.045542 0.234490 -0.112386 -0.160425 -0.356574 -0.166223 0.374119 -0.146344 -0.132139 0.156807 0.148202 0.151769 0.125912 -0.142246 0.131043 0.094052 0.045335 0.095064 -0.029272 -0.051923 -0.180229
M230 -0.041342 0.164403 -0.150373 -0.186671 -0.011113 0.004018 -0.091018 0.364544 0.138132 0.058062 -0.051366 0.217176 0.080346 -0.176297 0.096907 -0.041095 -0.043070 0.070736 -0.228372 -0.012285 0.026418 0.079776 0.152502 0.068558 0.166656 -0.102220 -0.023303 -0.149676 -0.398379 0.507458 -0.096727 -0.265874
M295~Y 0.090036 -0.096711 -0.145670 0.377115 0.074235 0.090453 -0.190368 0.006174 -0.272297 -0.128573 -0.047046 0.194386 -0.092081 0.108111 0.052488 -0.072778 0.110435 0.127952 -0.152362 -0.002669 -0.381868 0.123165 0.218305 0.371054 0.314887 -0.209349 0.030675 0.028214 0.006174 -0.056596 -0.084973 -0.238622
|M106+M288| 0.067780 -0.092458 -0.039527 0.117216 0.053961 0.147735 -0.238038 -0.089068 0.093197 -0.045103 -0.040923 -0.102656 0.097766 0.197509 0.080128 0.028712 0.251355 0.022145 -0.332010 -0.084121 -0.192168 0.174686 -0.055984 -0.006584 0.057035 -0.094403 0.608015 0.300803 0.084829 0.055908 -0.013177 -0.262782
M246~CA -0.559130 -0.394742 -0.072019 -0.132167 0.086373 0.081365 -0.279355 0.051273 0.210526 0.119157 0.156994 0.098001 0.046563 0.146744 -0.006996 -0.167246 -0.127095 0.057010 -0.104595 -0.177507 0.208807 0.166795 0.024161 0.234936 0.024211 0.090326 -0.105987 -0.190663 0.056575 -0.009361 -0.047944 -0.136696
M005~A 0.134193 0.135018 -0.308292 0.009075 0.320203 -0.191756 -0.130248 0.041088 -0.291616 0.005726 -0.274875 0.024174 -0.095429 0.053728 0.091190 -0.059862 -0.187158 0.150206 -0.064153 -0.010085 0.190067 0.169766 -0.458724 0.068322 0.133675 -0.053062 -0.085245 -0.126899 0.074500 -0.070186 0.298994 -0.199498
M175 -0.073465 -0.365591 0.092655 -0.151240 0.043946 -0.452396 0.279399 -0.050139 -0.311464 0.090383 0.081848 -0.257862 -0.048095 -0.132749 0.039933 -0.016030 0.298315 0.080290 -0.115272 0.030864 0.122536 -0.040283 -0.258551 0.169694 0.250375 0.059427 0.128180 0.084421 -0.047014 -0.092655 -0.029079 -0.137041
M250~BA -0.035434 0.005103 0.078791 0.118704 -0.034975 -0.021548 -0.056438 -0.099411 0.308163 0.136198 0.129753 -0.126269 0.229375 0.052851 0.059238 -0.033153 0.207338 -0.190680 -0.011699 -0.311509 -0.012407 0.268897 0.281977 0.379189 0.345476 -0.213423 0.125900 -0.000112 0.047305 -0.093891 -0.024565 -0.304413
M044 0.127403 0.098424 -0.357246 -0.072310 -0.051861 -0.207708 -0.012270 -0.239108 -0.019114 -0.035121 -0.023828 -0.189895 -0.325078 -0.172609 0.491088 -0.434703 0.089779 -0.191555 0.104859 -0.082485 -0.066732 0.080762 0.074482 0.055724 0.156835 -0.099089 0.046095 0.108039 -0.034888 0.035115 0.024927 -0.027840
|M218+M099| 0.072027 0.045521 -0.016333 0.007472 0.124363 -0.008031 0.193006 0.002585 0.085791 0.032995 -0.064564 0.047036 0.069700 0.078541 -0.193109 -0.210622 0.011888 0.285121 -0.021283 -0.026948 0.075807 -0.087153 0.272272 -0.256847 0.067881 0.182782 -0.485506 0.459271 0.205057 0.176709 -0.043606 -0.190315
|M327+M044~C| -0.071246 -0.064975 -0.085329 -0.064323 -0.024632 0.068240 -0.067540 -0.046648 -0.023422 -0.005117 0.015019 -0.064552 -0.136285 -0.041227 -0.107778 0.105923 0.060874 -0.095798 -0.063496 -0.120597 -0.191841 -0.144997 0.038995 -0.384237 0.415229 0.472217 0.306109 -0.224388 0.326798 0.147335 0.084587 -0.075139
M338 -0.231416 0.610706 -0.223767 -0.220221 -0.182246 -0.306849 0.111374 0.221728 0.042311 -0.017618 -0.067043 0.241120 -0.258375 -0.030806 0.058207 0.112059 0.011820 0.063727 0.009404 0.244894 0.152429 0.044220 0.098065 -0.006024 0.052944 -0.010680 -0.044623 -0.006436 -0.040187 -0.033465 -0.035196 -0.171939
M320~F 0.017160 0.086426 0.252751 0.529916 0.054565 -0.106341 0.318931 0.148402 -0.168859 0.284988 0.188907 -0.022494 -0.171932 0.159836 -0.106555 -0.079746 -0.095022 0.090799 0.020904 0.442129 0.050419 0.036423 0.142670 -0.098419 0.095291 -0.047387 -0.001951 -0.146815 -0.028478 0.023757 0.022218 -0.094441
M139 -0.038216 -0.058373 -0.211910 -0.206691 0.081485 -0.052710 0.082101 0.174731 0.048334 0.107998 -0.170729 0.208466 -0.036155 -0.152987 0.103629 0.230436 -0.051832 0.033215 -0.104949 0.123875 -0.050798 -0.101661 -0.582741 0.128237 0.050960 -0.010845 -0.167977 0.033432 -0.013830 -0.111095 0.438124 -0.223665
M295~A 0.070472 0.087516 0.116290 0.209587 0.071615 -0.005133 -0.111315 0.007464 0.128947 -0.019720 -0.030228 0.007962 0.280823 0.179793 -0.025230 -0.096689 0.152236 0.020295 -0.071081 -0.099846 -0.277053 -0.029805 0.244740 0.027723 0.365624 -0.062355 -0.336143 0.497931 0.131291 0.196708 -0.032197 -0.201919
|M157+X| -0.016028 -0.059833 0.081394 0.042016 -0.209372 -0.045905 0.239914 0.104686 0.012869 0.344230 0.041872 0.096274 -0.050195 0.002537 0.092992 -0.085506 -0.144242 -0.140655 0.073910 -0.323824 -0.036137 -0.386292 0.210810 0.153820 -0.178253 -0.023905 -0.009013 -0.033655 -0.047246 -0.100498 0.518185 -0.202963
N1@B 0.193178 0.217068 -0.195729 0.181993 0.124799 -0.129733 -0.143376 0.308445 0.144861 -0.035345 0.417253 -0.041076 -0.231268 -0.282055 0.379936 -0.322676 -0.169495 0.149518 -0.043733 0.099287 0.049290 0.083593 -0.020795 -0.087000 0.076216 -0.142228 0.014440 -0.033090 -0.049576 0.054450 0.045340 -0.037522
|M260+N14| 0.212551 -0.081637 0.123195 0.391399 0.350900 0.155339 -0.147465 0.114300 0.246476 -0.390299 0.114103 -0.172047 -0.141064 0.046065 0.426666 -0.077044 0.036526 0.077403 0.110400 0.069208 0.057416 0.231634 -0.001263 -0.130564 0.081186 0.052899 0.079630 -0.067770 0.020018 0.024524 0.103087 -0.041908
N01@B 0.213444 0.103112 -0.063618 0.344702 0.278896 0.035626 -0.137054 0.346553 0.216129 -0.201417 0.329214 -0.145948 -0.191490 -0.157305 0.380257 -0.199962 -0.090442 0.158935 -0.046734 0.129054 0.070901 0.171436 -0.015538 -0.121253 0.086914 -0.082521 0.045958 -0.073961 -0.035054 0.066180 0.087508 -0.056571
|M157+M131| 0.028772 0.037122 0.196968 -0.107978 0.249587 0.219641 0.101171 -0.251658 -0.019441 -0.428047 0.066380 0.213472 -0.146600 0.131134 0.069062 -0.005732 -0.173878 -0.472189 -0.055286 0.332249 0.240484 0.058711 0.011091 0.129829 0.124284 0.015291 -0.049520 -0.084022 0.031656 -0.011340 -0.017569 -0.120972
M157~A -0.209937 -0.239114 -0.163995 0.051790 0.203835 0.140268 -0.336312 -0.011711 0.133585 -0.152859 -0.265318 0.079207 -0.115292 -0.073044 0.072097 0.052368 -0.031695 0.220408 0.190592 0.091131 0.290175 -0.112232 -0.442444 0.014028 0.253670 0.187776 -0.034730 -0.141369 0.159649 -0.020698 -0.044429 -0.120855
M343 -0.002722 -0.011155 0.056546 -0.017531 -0.026782 -0.004735 0.011495 -0.033844 -0.012173 0.008170 -0.034695 0.106244 0.005972 0.043555 -0.021573 -0.009208 0.041167 -0.041965 -0.164287 -0.002570 -0.159227 -0.144579 0.112958 0.074446 -0.168236 0.134856 -0.084214 0.011733 -0.266145 -0.132590 0.850230 -0.138281
|M218+M101| 0.035457 -0.036559 0.065751 0.041551 -0.066123 -0.052114 -0.087009 0.043270 0.042881 0.061283 -0.059662 -0.165054 -0.017184 0.150723 -0.082492 -0.004051 0.108480 -0.022121 0.038157 -0.056769 -0.088231 -0.175859 0.148800 -0.440771 0.216938 0.336372 -0.365436 0.400523 0.311028 0.250400 0.020601 -0.149980
M352~C -0.173534 0.215519 -0.359841 -0.179941 -0.220951 -0.179613 0.134217 0.053240 0.249642 0.014134 -0.028844 0.315989 0.065167 0.067369 0.018423 -0.006570 0.127200 -0.013419 0.064479 0.576045 0.158476 0.105525 0.122040 -0.115363 0.118490 -0.178220 0.026478 -0.035030 0.110826 0.023865 0.033659 -0.093606
M057~A1 -0.060890 -0.183742 -0.191797 -0.068864 -0.234598 0.035858 0.087249 -0.239737 0.179064 0.023759 0.013508 0.087610 0.102718 0.079698 -0.061496 -0.099826 0.194970 -0.180274 0.103016 0.400858 -0.020788 -0.079259 0.066817 -0.336897 0.349755 0.114215 0.225342 -0.230258 0.306681 0.112960 0.089205 -0.089596
M391 -0.086273 0.092304 0.015499 -0.146013 0.041392 -0.109285 0.320865 0.092276 0.055050 0.308304 0.126038 0.239998 -0.107807 0.062397 0.004900 -0.036511 0.071210 -0.065587 0.052170 0.511316 0.160389 -0.007157 -0.352713 0.138644 0.381434 -0.045317 -0.081582 -0.052252 0.007244 -0.006399 0.133847 -0.176152
M038~A2 -0.002894 -0.011855 0.059945 -0.018561 -0.028344 -0.004998 0.012124 -0.035679 -0.012810 0.008578 -0.036393 0.111216 0.006239 0.045421 -0.022494 -0.009581 0.042781 -0.043478 -0.169983 -0.002655 -0.164004 -0.148878 0.116026 0.076222 -0.171755 0.137548 -0.085269 0.011855 -0.267710 -0.132723 0.844165 -0.135459
M387~EF 0.212983 0.142342 0.328982 -0.196594 -0.075178 -0.051168 0.188801 0.081474 0.049258 0.099802 -0.119439 0.142304 -0.098874 0.094692 0.174973 0.137105 -0.088707 -0.127232 -0.133996 -0.400537 0.238225 -0.322394 -0.050039 -0.127092 -0.120783 -0.336274 0.222138 0.034356 0.183152 -0.040453 -0.003108 -0.163442
M057~A4 0.214118 -0.333983 0.104358 -0.206812 -0.340025 -0.097073 0.158480 0.168266 -0.170482 0.049071 -0.112010 -0.159043 -0.179429 0.181942 -0.176590 -0.017997 -0.222854 0.213299 -0.001454 -0.065418 -0.084051 0.047778 0.128266 -0.267574 0.178112 0.363883 0.168870 -0.051772 0.169204 0.067554 0.024369 -0.135652
M246~G -0.199894 0.369800 -0.187941 -0.183041 -0.081033 -0.126044 -0.042354 0.258920 0.060311 -0.005269 0.000405 0.198104 -0.092523 0.076812 0.082867 0.228926 0.086993 0.189892 -0.121260 0.224865 0.225157 0.077979 0.028882 0.057627 -0.195653 0.046921 0.426892 0.343047 0.065138 0.066113 -0.015310 -0.165706
M207~A -0.002722 -0.011155 0.056546 -0.017531 -0.026782 -0.004735 0.011495 -0.033844 -0.012173 0.008170 -0.034695 0.106244 0.005972 0.043555 -0.021573 -0.009208 0.041167 -0.041965 -0.164287 -0.002570 -0.159227 -0.144579 0.112958 0.074446 -0.168236 0.134856 -0.084214 0.011733 -0.266145 -0.132590 0.850230 -0.138281
M323 0.315865 0.175803 -0.130538 -0.126916 -0.047676 -0.099300 -0.083298 -0.047467 -0.461313 -0.351472 -0.013429 -0.138608 0.435203 0.088575 0.039450 -0.150924 -0.193214 0.088634 0.015210 0.067754 0.126573 0.055491 0.051173 0.009720 0.097914 0.021979 -0.020036 -0.059481 -0.041160 -0.060705 0.367147 -0.107354
M128 -0.168461 0.183912 0.047443 0.118952 -0.326958 0.021737 0.061843 -0.142614 -0.166793 0.076263 0.092786 0.147919 -0.142894 -0.032183 -0.109494 0.137154 0.141259 0.271318 0.101499 0.034113 0.078832 0.228384 0.084834 -0.116564 0.024217 -0.060060 -0.096937 -0.306477 -0.415434 0.362518 0.081515 -0.266684
M207 0.076875 0.084892 0.120952 -0.023917 -0.066166 0.017782 0.258164 0.324895 -0.197357 -0.281399 -0.106019 0.251276 -0.147018 0.308697 0.130340 -0.064702 -0.235608 -0.471167 -0.000333 -0.203879 0.302977 0.048790 -0.124353 -0.040832 0.053538 -0.009896 -0.007774 0.018928 0.058584 -0.094523 0.028490 -0.131305
|M175+M131~D| 0.025136 -0.033890 -0.039310 0.003750 0.046365 0.021221 0.022982 -0.080887 0.000110 -0.019471 -0.095772 0.090152 -0.008296 0.005021 0.038370 0.031572 0.084761 -0.061155 -0.175858 -0.036353 -0.170829 -0.150977 0.063470 0.100337 -0.151446 0.092764 -0.073114 0.016569 -0.225403 -0.102064 0.858297 -0.149815
|M157~A+M131| 0.105417 0.117598 -0.179788 -0.081563 0.022858 -0.305017 -0.174392 0.039382 -0.540476 -0.088709 0.099672 -0.354450 0.306727 0.181748 0.076166 -0.035465 -0.315132 0.115408 0.046171 -0.131263 0.232575 0.055420 -0.015202 0.054502 0.195964 0.002481 0.012988 -0.053742 0.037879 0.019111 0.060901 -0.038828
M048~C -0.117235 0.328747 -0.115996 0.182860 0.025249 -0.056099 0.116575 0.238066 -0.047741 0.113009 0.252365 0.205518 0.055343 0.127337 -0.057009 0.018966 -0.293093 0.217417 -0.238194 0.093884 0.041053 0.018803 0.201642 -0.092683 0.170867 0.071475 0.040906 -0.356220 -0.003411 0.316843 -0.021548 -0.315637
M217 0.008115 0.155693 0.021084 0.064616 0.008891 -0.242159 -0.010168 -0.270293 -0.285057 -0.042903 0.206763 -0.133170 0.296419 -0.097541 -0.130464 0.135709 -0.451262 -0.354622 -0.068509 -0.234577 0.072868 -0.078783 -0.113265 -0.061347 -0.070757 0.080121 0.048887 -0.061737 0.132017 0.042165 0.225621 -0.240482
M097~H -0.075450 -0.075455 -0.108169 -0.359425 0.111139 0.141764 -0.004646 0.183675 -0.071093 0.172129 -0.006851 0.123171 -0.037394 -0.027602 0.154045 0.227389 -0.251725 -0.196101 0.183122 0.293968 -0.451274 0.063722 -0.043224 0.329528 0.110045 -0.078340 0.065797 0.169914 0.049099 0.015358 -0.053384 -0.239043
M203~C 0.035454 -0.422980 -0.059445 -0.205178 0.010421 -0.188986 -0.151152 0.302634 -0.003481 -0.002003 0.033825 0.170505 0.021664 0.305037 0.178505 0.109226 0.003093 -0.264942 0.073262 -0.128680 0.170813 -0.186986 -0.114149 -0.090598 0.023281 0.222290 0.284084 -0.112021 0.208530 -0.068711 0.202015 -0.216024
M305~H 0.105417 0.117598 -0.179788 -0.081563 0.022858 -0.305017 -0.174392 0.039382 -0.540476 -0.088709 0.099672 -0.354450 0.306727 0.181748 0.076166 -0.035465 -0.315132 0.115408 0.046171 -0.131263 0.232575 0.055420 -0.015202 0.054502 0.195964 0.002481 0.012988 -0.053742 0.037879 0.019111 0.060901 -0.038828
M038~E -0.011910 -0.314241 0.031258 -0.098090 -0.216873 -0.308873 0.269983 0.197565 -0.050162 0.380541 0.101344 0.148069 0.156748 0.268955 0.134638 -0.100064 0.018850 -0.304284 0.240955 0.001080 0.100382 -0.260734 0.060351 -0.077000 0.101906 -0.147355 0.124161 -0.116863 0.119580 -0.048857 0.012167 -0.122243
M311~B 0.248699 -0.003341 0.018490 -0.120060 -0.156129 -0.319358 -0.100027 0.106340 -0.084500 -0.151478 0.187512 0.250101 -0.302585 -0.077139 0.374799 -0.254878 -0.257867 0.012638 0.073673 -0.039594 -0.003099 0.110170 0.070236 -0.059450 0.044887 0.069199 -0.009536 0.078391 -0.083016 0.010045 0.470989 -0.093982
M376~B 0.105562 0.174451 -0.496050 0.075439 0.051708 -0.210221 -0.028413 -0.287737 -0.158155 -0.301263 -0.215982 -0.301938 0.135711 -0.087497 0.053729 -0.129471 0.157868 -0.312350 0.220893 0.077486 0.161795 0.108750 0.022823 0.106555 0.096359 -0.146387 0.030926 0.006994 0.078542 0.019572 -0.023941 -0.104326
M146~D 0.189489 0.176119 -0.009678 0.027229 -0.171487 0.246469 -0.128639 0.221272 -0.283879 0.152809 0.244832 -0.301481 0.134511 -0.109186 -0.051578 -0.074137 -0.077144 0.193290 -0.156927 0.169172 0.221106 -0.185114 -0.340675 0.142986 0.224286 0.009845 -0.117814 -0.007194 -0.056711 -0.070021 0.291609 -0.099645
M321~B 0.103015 0.022659 0.077207 0.045207 -0.004331 0.058686 0.126765 -0.030372 0.022906 0.128306 -0.059188 0.183695 -0.018021 -0.125385 0.002473 -0.002131 0.131046 0.170426 -0.055248 0.065751 0.223032 -0.155036 -0.735814 0.213474 0.362208 0.110396 -0.136381 0.066381 -0.025453 -0.049073 0.019249 -0.077095
M374~C -0.085022 0.320787 -0.216831 -0.222964 0.020983 -0.165393 0.076545 0.173479 -0.070751 -0.145292 0.033150 0.021241 0.047740 0.084704 0.122416 -0.004822 -0.152034 0.039191 -0.036754 0.097407 0.442776 -0.020004 -0.412914 0.199018 0.440410 0.055946 -0.076833 0.007421 0.010132 -0.077723 0.049433 -0.153551
M323~A 0.209231 -0.012796 0.002375 -0.134528 -0.251561 -0.364920 -0.019348 0.167913 -0.418544 -0.101973 -0.135978 0.164346 -0.262990 0.332206 0.108614 0.037853 -0.211254 -0.003467 0.026030 0.003531 0.238280 0.316421 0.080027 0.073931 0.050639 0.093575 -0.079041 -0.084654 0.168774 0.048636 0.115126 -0.078525
M056~F -0.269961 -0.062738 -0.116600 -0.027183 -0.003711 0.248032 0.433714 0.171666 -0.128005 -0.358782 -0.096550 -0.105568 0.066075 -0.102001 0.104416 -0.035794 0.005680 -0.014940 0.008592 -0.091005 -0.083399 -0.017216 0.000011 -0.312279 0.270790 0.351937 0.202114 -0.138513 0.219069 0.053926 0.083314 -0.093628
|M054+M384~I+M054~I| 0.097813 0.023520 0.348998 0.055913 -0.017970 -0.092380 0.055400 -0.122648 -0.170526 0.166604 -0.162580 0.129920 0.201477 0.171385 0.178742 -0.025573 0.010331 -0.081650 -0.180836 0.080031 -0.121945 -0.248550 0.178462 -0.173430 -0.168425 0.060296 -0.058374 0.000074 -0.406530 -0.387711 0.289387 -0.126776
M111~E -0.002722 -0.011155 0.056546 -0.017531 -0.026782 -0.004735 0.011495 -0.033844 -0.012173 0.008170 -0.034695 0.106244 0.005972 0.043555 -0.021573 -0.009208 0.041167 -0.041965 -0.164287 -0.002570 -0.159227 -0.144579 0.112958 0.074446 -0.168236 0.134856 -0.084214 0.011733 -0.266145 -0.132590 0.850230 -0.138281
M075~G -0.018788 -0.117631 -0.119750 0.117472 0.242615 0.046430 -0.134010 -0.005892 0.198602 -0.062074 -0.164935 0.116515 -0.014664 -0.174639 -0.099470 0.039327 0.048289 0.183534 0.059033 0.021136 0.205423 -0.218903 -0.584976 0.071298 0.423826 0.238323 -0.013205 -0.065266 0.119904 -0.017402 0.083254 -0.112300
M387~L -0.012268 -0.005881 -0.185574 -0.135086 0.343476 -0.021633 -0.033920 0.175040 0.123630 -0.155490 -0.261789 -0.023891 -0.047414 -0.356428 0.239886 0.490790 0.170421 0.097436 0.184882 -0.037024 0.252545 0.123732 0.137345 -0.023090 0.021240 -0.107102 -0.054347 -0.093298 0.059193 -0.059206 0.199038 -0.133570
|M195+M038| -0.008116 0.085311 -0.226123 0.169080 0.003223 -0.087170 0.007768 0.026523 -0.172701 0.150677 0.025263 0.099563 -0.037621 -0.062104 -0.058759 -0.159279 0.343497 -0.309747 0.033131 -0.137797 -0.255479 -0.092993 -0.074505 0.190235 -0.170888 0.043863 -0.134913 0.017877 -0.104432 -0.106930 0.597088 -0.170911
M056~E -0.071246 -0.064975 -0.085329 -0.064323 -0.024632 0.068240 -0.067540 -0.046648 -0.023422 -0.005117 0.015019 -0.064552 -0.136285 -0.041227 -0.107778 0.105923 0.060874 -0.095798 -0.063496 -0.120597 -0.191841 -0.144997 0.038995 -0.384237 0.415229 0.472217 0.306109 -0.224388 0.326798 0.147335 0.084587 -0.075139
M075~GA -0.002722 -0.011155 0.056546 -0.017531 -0.026782 -0.004735 0.011495 -0.033844 -0.012173 0.008170 -0.034695 0.106244 0.005972 0.043555 -0.021573 -0.009208 0.041167 -0.041965 -0.164287 -0.002570 -0.159227 -0.144579 0.112958 0.074446 -0.168236 0.134856 -0.084214 0.011733 -0.266145 -0.132590 0.850230 -0.138281
M057~B1 0.119006 0.465872 0.004488 -0.075344 0.303883 0.157088 0.071378 0.166410 0.191874 0.047533 0.339833 -0.282767 0.060304 0.111261 -0.124497 -0.047509 0.139567 -0.004374 0.141105 -0.024016 -0.278908 -0.093410 0.035595 0.155786 0.322644 -0.042178 0.214819 -0.040624 0.073600 0.020484 0.015218 -0.182275
M086 0.105176 0.113399 0.072200 0.018277 -0.092977 0.155531 -0.093708 0.122711 0.019051 0.051314 0.173809 -0.020603 0.007164 -0.064274 0.009784 -0.065821 0.007826 0.018625 -0.162557 0.049308 -0.141356 -0.190353 0.128523 0.059730 -0.138255 0.088881 -0.064980 0.013605 -0.252232 -0.130156 0.797745 -0.132930
M318~A -0.175395 0.307676 0.003330 -0.111256 0.228537 -0.108425 0.027959 0.101993 0.218286 0.110230 0.046509 0.121547 0.170501 -0.015497 -0.127396 0.076036 0.023335 0.100275 -0.379579 -0.046383 0.141681 0.142247 0.013417 -0.298462 -0.195368 -0.038689 -0.024360 0.411888 0.272654 0.113806 -0.023917 -0.273464
M262~1 0.005835 -0.387352 0.238739 0.200334 0.098670 -0.025721 -0.089319 0.001210 0.059525 0.010565 -0.244765 -0.312084 -0.214085 -0.100224 0.134981 0.060109 0.034443 0.070367 -0.260696 0.107346 -0.063501 0.087365 -0.206276 -0.097422 -0.219776 -0.012540 0.275518 -0.054478 -0.195574 0.309873 -0.067898 -0.283195
M380 -0.035124 0.201113 -0.133214 0.153368 0.048829 -0.228522 0.134885 0.057266 0.118331 0.202543 0.221560 -0.160264 0.007926 0.090763 0.057887 -0.124509 0.069121 -0.169488 0.013038 -0.313247 -0.145156 -0.185425 -0.090410 -0.319651 -0.030515 -0.209648 -0.337513 0.288078 0.250212 0.108325 0.023760 -0.264056
M329~A -0.002722 -0.011155 0.056546 -0.017531 -0.026782 -0.004735 0.011495 -0.033844 -0.012173 0.008170 -0.034695 0.106244 0.005972 0.043555 -0.021573 -0.009208 0.041167 -0.041965 -0.164287 -0.002570 -0.159227 -0.144579 0.112958 0.074446 -0.168236 0.134856 -0.084214 0.011733 -0.266145 -0.132590 0.850230 -0.138281
M226~C 0.096596 0.081659 0.170715 0.067004 0.028951 -0.006333 0.030915 -0.026649 0.024991 0.135640 -0.142032 0.126665 0.135286 -0.086164 -0.040969 0.136191 -0.126477 0.019697 0.045425 0.172216 -0.141203 -0.134679 -0.503499 0.181198 0.391371 0.073662 -0.323280 0.372939 0.107161 0.106945 -0.013040 -0.220959
M218~B -0.133942 0.097469 -0.042133 0.165850 -0.150584 -0.149398 -0.258289 -0.217683 0.049868 -0.158796 0.000180 -0.136397 0.399675 -0.387779 0.051804 0.248915 0.075769 -0.083143 0.012285 -0.016326 0.163029 -0.057409 -0.046295 0.151556 -0.338531 0.096995 0.281089 0.174850 0.073540 -0.008204 0.106015 -0.211552
M054~A -0.002722 -0.011155 0.056546 -0.017531 -0.026782 -0.004735 0.011495 -0.033844 -0.012173 0.008170 -0.034695 0.106244 0.005972 0.043555 -0.021573 -0.009208 0.041167 -0.041965 -0.164287 -0.002570 -0.159227 -0.144579 0.112958 0.074446 -0.168236 0.134856 -0.084214 0.011733 -0.266145 -0.132590 0.850230 -0.138281
M007~A 0.023200 0.169068 -0.044967 -0.109831 0.050838 0.041057 -0.172463 0.066785 0.000855 0.099167 -0.173273 0.088192 0.111432 -0.062686 0.095585 -0.106126 0.079656 -0.004290 -0.108778 -0.061015 0.105812 0.001797 -0.045135 -0.080749 -0.086231 0.032466 -0.053462 -0.404117 -0.447142 0.612393 -0.087237 -0.187165
|M153+M342| -0.065733 -0.064638 -0.046105 -0.067289 -0.036622 0.058597 -0.054282 -0.060016 -0.027492 -0.000173 -0.005249 -0.000469 -0.117826 -0.013283 -0.107079 0.088835 0.075742 -0.106756 -0.143100 -0.107405 -0.252433 -0.203557 0.093683 -0.296119 0.273153 0.481319 0.220642 -0.187422 0.142959 0.057682 0.506965 -0.132994
M149~A2 -0.061466 -0.035778 0.201053 0.029742 -0.185078 0.298346 0.268506 0.064168 0.046832 -0.062797 0.018123 -0.083563 -0.030744 -0.062035 0.096579 0.307432 0.122812 -0.117560 0.096247 -0.176974 -0.061100 0.311366 0.103996 -0.261885 0.203620 0.317530 0.049956 -0.090345 0.012894 -0.030734 0.453080 -0.152218
|M305+X| 0.089551 0.180932 -0.140476 0.273638 -0.004858 0.020589 0.167898 0.261684 -0.137389 0.170491 0.338706 -0.374279 -0.158590 -0.104517 -0.126482 -0.085139 -0.096543 0.144782 -0.356571 0.266225 0.041886 0.059703 -0.093833 -0.129634 -0.015147 -0.247913 -0.002194 -0.054715 0.011221 -0.038091 0.208512 -0.190981
|M305+M342| -0.123319 0.023069 0.070475 -0.068667 0.182701 0.041724 -0.001059 -0.249740 0.066119 -0.084077 -0.171377 -0.051766 -0.049645 0.064778 0.080064 -0.005918 -0.063394 0.045690 -0.243039 -0.111040 -0.006380 -0.080514 -0.128606 -0.311234 -0.212539 -0.506913 -0.021985 -0.093770 0.090572 -0.064545 0.509644 -0.198848
M496 -0.064112 0.040603 0.137313 0.071105 -0.032040 0.040608 -0.157434 0.333732 -0.210740 -0.078719 0.121608 0.131322 -0.070776 -0.070415 -0.542110 -0.199832 0.250470 -0.312170 0.391455 -0.181885 0.051389 0.107276 -0.118650 -0.061827 -0.087538 -0.060355 0.089220 0.033016 -0.027533 -0.046657 0.007030 -0.056331
M035 0.030260 0.084882 -0.043513 -0.277134 -0.093604 0.119695 -0.021515 0.118439 0.057478 0.079120 -0.042583 -0.166589 -0.057403 0.029656 -0.035578 0.313854 -0.104362 0.057109 0.233576 0.172819 -0.182212 -0.121138 -0.133581 0.042893 -0.121455 0.230234 0.561008 0.300697 0.133083 0.074204 -0.032678 -0.263062
M038~BX -0.118343 -0.071205 -0.049490 -0.297148 -0.025765 -0.130624 0.103920 -0.184008 0.277012 -0.134850 -0.062814 0.154474 0.116274 -0.003812 0.127135 -0.205318 0.084683 -0.330581 0.084552 0.421787 0.268888 -0.095800 0.047692 -0.157540 0.340037 -0.146806 0.076465 -0.175117 0.160487 -0.002812 0.076654 -0.133428
M325~D 0.071251 -0.186728 0.101289 0.097750 -0.086830 -0.106191 0.203235 -0.121269 -0.079147 -0.011599 -0.068660 -0.005479 -0.039868 -0.215369 -0.088306 -0.003504 0.134468 0.180744 -0.272768 0.019401 0.098686 -0.168276 -0.472552 0.084991 0.271786 0.339166 -0.033969 0.006395 -0.061576 -0.069494 0.405865 -0.202314
M122 0.164663 -0.160292 0.138987 -0.098302 0.082695 0.205650 0.133099 -0.114964 0.146139 0.154087 0.240192 -0.072873 0.054345 -0.187543 0.082088 0.210531 0.293385 0.062034 0.087207 -0.177165 0.154817 0.463431 0.189832 -0.201065 0.076714 0.190099 -0.245445 0.166782 0.191369 0.055067 0.026734 -0.162151
M342 -0.129925 -0.154949 0.011020 -0.046990 0.093282 0.161392 -0.050776 -0.080602 0.041120 -0.276057 -0.116894 0.134762 -0.053891 -0.052172 -0.026950 -0.054317 -0.070422 -0.269884 -0.294712 0.161252 0.062601 -0.116256 0.144402 0.068706 0.027311 0.099030 -0.079062 -0.061707 -0.151408 -0.151692 0.684215 -0.159915
|M327+M342| 0.040534 -0.043498 0.059394 0.029027 0.006412 0.029775 0.047124 -0.044647 -0.008012 0.116198 -0.053812 0.184873 0.036259 -0.059307 0.000946 -0.012786 0.102979 0.143004 -0.138405 0.039795 0.142735 -0.197783 -0.591391 0.244757 0.269251 0.174395 -0.159619 0.050553 -0.152881 -0.111936 0.471837 -0.144588
M057~F -0.071246 -0.064975 -0.085329 -0.064323 -0.024632 0.068240 -0.067540 -0.046648 -0.023422 -0.005117 0.015019 -0.064552 -0.136285 -0.041227 -0.107778 0.105923 0.060874 -0.095798 -0.063496 -0.120597 -0.191841 -0.144997 0.038995 -0.384237 0.415229 0.472217 0.306109 -0.224388 0.326798 0.147335 0.084587 -0.075139
M321~H -0.120214 -0.048692 0.079314 -0.014437 0.068178 -0.091324 0.017272 0.012108 0.185031 0.057614 -0.421352 0.278189 -0.196610 -0.120155 0.175642 0.219255 -0.046952 0.074961 0.051053 -0.147292 0.065289 -0.296574 0.154720 -0.251890 0.128544 -0.499347 0.028694 -0.012990 0.202172 0.009703 0.071140 -0.118850
M109 0.282332 0.066771 0.014356 0.144558 0.030984 0.138883 -0.247774 0.260872 0.205818 -0.017030 -0.076134 -0.222359 0.130403 0.253871 0.113064 0.081621 0.252814 0.114770 -0.119739 0.077138 0.020469 0.054708 -0.015088 0.078890 -0.089194 0.029196 0.467514 0.134031 -0.230283 0.281580 -0.069675 -0.237673
|M195+M057| 0.004814 0.233992 -0.087572 0.080569 0.104096 -0.151288 0.063105 0.000456 -0.395962 0.038732 -0.113256 0.032902 0.010902 0.003029 0.021138 -0.118681 0.264407 -0.136927 -0.024003 -0.114898 -0.105065 -0.023451 -0.026790 0.175110 -0.072684 0.120687 -0.169780 -0.046392 -0.118700 -0.169060 0.655197 -0.195741
|M195+M038~A| 0.028367 -0.237165 -0.048673 0.228727 0.065660 -0.088975 0.205915 -0.161157 -0.084858 0.016308 -0.281132 -0.090119 -0.043320 -0.365999 0.129207 0.070599 -0.199635 -0.184696 0.079104 0.297526 -0.242543 -0.133946 0.027214 0.080714 -0.210555 0.165377 0.040274 0.023282 -0.144338 -0.068497 0.421639 -0.160022
M249~N1 -0.055316 -0.056339 -0.025620 -0.060182 -0.036680 0.047994 -0.042877 -0.057999 -0.025847 0.001710 -0.012300 0.023735 -0.098218 -0.001349 -0.095539 0.073235 0.073651 -0.100402 -0.159263 -0.092249 -0.252142 -0.207037 0.106004 -0.237777 0.197317 0.445995 0.172509 -0.160422 0.064437 0.020491 0.641097 -0.150332
M158 0.153365 -0.010915 0.034409 -0.008137 -0.131749 -0.023325 0.138400 -0.076014 -0.036873 -0.040386 -0.045317 0.189724 -0.126185 -0.108171 -0.058667 0.011763 0.173357 0.271480 -0.119831 0.070264 0.140265 -0.118739 -0.713974 0.215842 0.325058 0.067444 -0.131272 0.087353 -0.024848 -0.046725 0.020237 -0.092612
M180 -0.077058 -0.124613 -0.004332 0.050516 -0.248351 0.049486 0.123190 0.086806 0.035718 0.321553 0.043620 -0.000437 -0.116137 -0.061658 0.048295 -0.011502 -0.188832 -0.146928 0.131946 -0.383268 -0.067813 -0.357409 0.157754 -0.146072 0.214133 0.222230 0.249804 -0.203417 0.348339 0.078872 0.056919 -0.181278
M250~N 0.034124 -0.055015 0.122020 0.337192 -0.122032 -0.032474 0.223541 -0.068144 0.064496 0.137250 0.084543 0.163094 0.175907 0.195112 -0.079914 -0.182154 0.090494 -0.034130 -0.011303 0.515786 -0.161617 0.025757 0.242040 0.068103 0.266940 -0.201977 0.047812 -0.090111 -0.046169 0.001007 0.322554 -0.192834
M380~B 0.195767 -0.032664 0.009378 0.123023 0.021200 0.309950 -0.044824 -0.103986 -0.017691 0.106956 0.269400 -0.007172 -0.118650 0.071219 0.190609 0.155722 0.310531 0.003350 0.006091 -0.101331 -0.027747 0.094536 0.175942 -0.156561 -0.092870 0.108277 -0.534881 0.302331 0.146003 0.060369 0.104823 -0.257321
|M157~A+M131~A| -0.054749 -0.019493 -0.164300 -0.007959 0.109069 -0.007982 0.059115 -0.097073 0.029960 0.118165 -0.042665 -0.132432 -0.057814 -0.003459 -0.120059 -0.023458 -0.150286 -0.022573 -0.324073 -0.185613 -0.217318 0.266512 -0.402825 -0.378988 -0.126043 -0.504315 0.033477 0.009252 0.139009 0.042259 0.071811 -0.087914
|M153+M106~A| -0.106313 0.009962 -0.018820 -0.087344 -0.090188 0.087570 -0.110609 0.002016 -0.023314 0.002306 0.046461 -0.027669 -0.077738 0.097312 0.014207 0.176896 0.161211 0.054984 -0.110329 0.034751 0.068111 -0.106846 -0.033042 -0.149895 -0.003749 0.373075 0.708153 0.208645 0.269147 0.168024 0.036077 -0.184124
M387~A 0.079024 -0.059306 0.287074 0.054151 -0.173997 -0.004433 0.008099 -0.111181 -0.088124 -0.019005 -0.220889 0.235632 0.125049 0.088920 0.189661 0.192948 -0.015754 0.198847 0.105725 -0.233819 0.153322 -0.385125 0.084498 -0.199277 0.031069 -0.509087 0.000599 -0.113892 0.189767 0.002778 0.032834 -0.135892
M314 -0.082243 -0.084963 -0.010053 0.186628 -0.299397 -0.117388 -0.079265 -0.215663 -0.102537 -0.239786 -0.103355 0.029967 -0.215141 0.043701 -0.122984 0.008150 0.193626 0.394088 -0.199900 -0.013857 -0.107572 0.099577 -0.436881 -0.004271 0.052326 -0.106534 0.018582 -0.010259 -0.233586 0.071190 -0.044931 -0.361095
M066~1 0.058520 -0.126902 0.146794 0.494688 0.207589 0.082582 0.210157 -0.396390 -0.232010 -0.147360 0.123581 0.041199 -0.345540 -0.069073 0.078276 -0.020565 -0.069151 -0.249030 -0.006238 0.256775 0.121345 0.007446 0.072332 0.046358 -0.187828 0.118629 0.005439 -0.066258 0.005443 0.005722 -0.086442 -0.153403
M362 -0.170814 -0.281841 -0.380401 0.099795 0.079696 0.331184 -0.028528 0.000696 0.453882 -0.341633 0.090970 -0.266856 -0.048225 0.238211 -0.011135 -0.051500 -0.238640 0.081738 0.174899 -0.070945 0.175243 -0.020957 -0.100841 0.099290 0.001346 0.022713 0.021820 -0.016911 0.022038 -0.031889 0.026114 -0.043891
M332~D -0.139435 -0.066284 -0.037535 0.202351 0.065961 0.355649 -0.150161 -0.056848 -0.323081 0.115776 0.165410 0.323533 0.034015 -0.017682 -0.010862 0.140070 -0.182852 0.152501 -0.081164 -0.013162 -0.439822 0.099916 -0.076782 0.168488 0.028155 -0.153454 0.173951 0.107601 0.168508 0.124586 -0.059326 -0.302305
M066~2 0.055764 -0.164357 0.074176 0.606602 0.104556 0.006247 0.156478 -0.329835 -0.227944 -0.059683 -0.013246 -0.017822 -0.374098 -0.197387 0.113622 -0.103869 -0.039513 -0.148731 -0.113211 0.181032 0.162956 -0.035003 0.107184 0.036193 -0.195800 0.127267 0.023745 -0.055148 0.016382 -0.025372 -0.092866 -0.126541
M352~N -0.064587 0.185274 0.344728 0.100080 0.282360 -0.144444 0.221950 -0.051558 0.090772 0.005626 0.093244 -0.012810 0.053382 0.100858 0.028948 0.274914 -0.270937 -0.096521 0.166079 0.543523 -0.168838 -0.004055 -0.020046 0.019314 -0.064421 0.005266 0.141628 -0.022665 -0.167504 0.144650 -0.046413 -0.250328
M387~CA -0.482480 -0.404537 -0.081113 -0.287673 0.107959 -0.161323 -0.161511 0.225052 0.127632 0.268088 0.013989 0.090325 0.080908 0.106286 -0.004002 -0.179966 -0.202241 -0.131538 -0.125379 0.036729 0.119577 0.198904 -0.020834 -0.007620 -0.026161 -0.100126 -0.098636 -0.075401 0.048886 -0.095134 0.230791 -0.180546
M357 0.154616 -0.007209 0.177116 0.024463 -0.138592 0.159632 0.138096 -0.152576 0.117791 0.151730 0.138462 0.017551 -0.013071 -0.097134 0.061046 0.363522 0.152141 0.008366 0.118986 -0.142084 0.062018 0.397266 0.149754 0.019363 -0.013533 0.078449 -0.095242 -0.014988 -0.154668 -0.073958 0.594228 -0.122535
M099 0.163999 0.020038 -0.292637 0.043967 0.165251 0.020092 0.082737 0.048102 0.241929 0.177608 -0.203482 -0.060530 -0.347763 -0.165750 0.056888 -0.219059 -0.039471 -0.265821 -0.144421 -0.128207 -0.069110 0.071717 0.249202 -0.118876 0.173826 -0.102543 -0.279761 0.232698 0.020727 0.145477 -0.082367 -0.341021
M249~P -0.071246 -0.064975 -0.085329 -0.064323 -0.024632 0.068240 -0.067540 -0.046648 -0.023422 -0.005117 0.015019 -0.064552 -0.136285 -0.041227 -0.107778 0.105923 0.060874 -0.095798 -0.063496 -0.120597 -0.191841 -0.144997 0.038995 -0.384237 0.415229 0.472217 0.306109 -0.224388 0.326798 0.147335 0.084587 -0.075139
M136 -0.002581 0.128236 0.015447 0.065020 0.026079 0.086451 -0.016227 -0.280819 0.263554 -0.173065 0.166409 0.093530 0.026810 -0.043551 -0.247856 0.093523 -0.338609 -0.147987 -0.196280 -0.278658 0.147611 -0.209708 0.048515 -0.135700 0.076024 0.395149 0.096767 -0.236858 0.277101 0.071097 -0.002212 -0.186172
M214~C 0.135826 0.088528 -0.046971 0.049580 0.027809 -0.183637 -0.194341 0.039572 -0.363875 -0.125982 0.061259 -0.190308 0.442732 0.168853 0.032122 -0.061992 -0.207283 0.108137 -0.056787 -0.169959 -0.121185 0.117565 0.130686 0.288904 0.459160 -0.156173 0.087553 0.033675 0.013298 0.042676 0.024060 -0.123120
M329~C -0.071246 -0.064975 -0.085329 -0.064323 -0.024632 0.068240 -0.067540 -0.046648 -0.023422 -0.005117 0.015019 -0.064552 -0.136285 -0.041227 -0.107778 0.105923 0.060874 -0.095798 -0.063496 -0.120597 -0.191841 -0.144997 0.038995 -0.384237 0.415229 0.472217 0.306109 -0.224388 0.326798 0.147335 0.084587 -0.075139
M217~E -0.095747 -0.134604 0.041590 0.201955 -0.198483 0.196790 0.246699 0.023491 0.177783 0.278690 0.141797 0.076865 -0.104158 -0.054963 -0.061778 -0.074928 -0.493105 -0.022481 0.051324 -0.327112 0.245637 -0.265058 0.143200 0.207172 -0.043667 0.027502 -0.046475 -0.062075 0.157776 -0.016940 -0.029655 -0.223662
M247~G 0.024582 0.080310 -0.288145 0.045998 -0.124510 -0.226500 -0.133175 -0.061542 -0.348672 -0.147712 0.160121 -0.169204 0.013498 0.287014 -0.020131 0.085150 -0.409305 0.038657 0.023280 -0.194361 0.221377 0.014492 0.031016 -0.047077 0.296371 0.257372 0.074493 -0.158010 0.221944 0.104809 0.109531 -0.122588
M136~B 0.248525 -0.180925 -0.068801 -0.220860 0.235161 -0.045883 -0.288712 0.034711 -0.338567 -0.353399 -0.203821 -0.355480 0.217134 0.061222 0.106211 0.038826 -0.138341 -0.016772 0.216536 -0.052500 0.159194 0.062477 -0.032214 -0.144675 0.198591 0.060462 0.079469 -0.122623 0.186763 0.053634 0.094966 -0.086095
M361~B -0.003535 -0.058950 -0.167402 -0.129207 -0.039539 0.078203 -0.107077 0.080947 0.007502 0.082890 -0.058419 -0.019029 0.009591 -0.063719 -0.006539 0.048102 0.110326 -0.086192 -0.101828 -0.148016 -0.033014 -0.130107 0.013138 -0.295885 0.208566 0.281040 0.152177 -0.386401 -0.227964 0.607669 -0.022349 -0.185995
M302~S 0.040664 0.054150 -0.194672 -0.103833 0.003253 -0.201212 -0.179603 0.003054 -0.443992 -0.073645 0.088362 -0.320980 0.161345 0.119552 -0.004732 0.035974 -0.213720 0.033734 -0.001754 -0.177452 0.068717 -0.043780 0.011537 -0.189461 0.407416 0.288080 0.195794 -0.178689 0.228123 0.104465 0.099680 -0.076403
M317~E -0.060011 -0.062744 -0.036933 -0.033721 0.067163 0.102399 -0.065379 -0.074029 -0.036516 0.029923 -0.043644 -0.088814 -0.243072 -0.076553 -0.048884 0.050144 0.067286 -0.134425 -0.070917 -0.090440 -0.177834 -0.140641 0.075122 -0.389750 0.406265 0.448631 0.273834 -0.224777 0.332914 0.152705 0.063689 -0.092429
N(N14) -0.317008 -0.380985 0.249100 0.100198 0.345474 0.141516 0.022972 0.005708 -0.519675 0.073969 -0.262982 -0.054322 0.006789 0.136663 -0.185504 0.080966 -0.112700 0.091805 0.022800 0.209502 0.119127 -0.111023 0.014622 -0.034138 -0.044343 0.115956 -0.033301 -0.132021 0.063385 -0.038302 0.004965 -0.045777
M111~B -0.002897 -0.011866 0.059998 -0.018577 -0.028368 -0.005002 0.012134 -0.035708 -0.012820 0.008584 -0.036419 0.111293 0.006243 0.045450 -0.022508 -0.009587 0.042805 -0.043501 -0.170070 -0.002656 -0.164076 -0.148943 0.116072 0.076249 -0.171808 0.137588 -0.085284 0.011857 -0.267732 -0.132724 0.844071 -0.135417
M247~F -0.056725 0.026160 -0.312872 0.109671 -0.090269 0.104193 -0.064659 -0.033758 0.183567 0.019471 0.099278 0.050069 0.051988 0.067570 -0.010981 0.050894 -0.139409 -0.023190 -0.055251 -0.169194 0.191100 -0.127181 -0.011723 -0.011095 -0.049788 0.048435 -0.072139 -0.289783 -0.446443 0.597192 -0.077601 -0.211791
|M157+M288| 0.027472 0.141597 0.201122 0.531690 0.076166 -0.143477 0.298582 0.182519 -0.151399 0.278667 0.206801 0.006944 -0.181931 0.138141 -0.057308 -0.084301 -0.111469 0.110666 0.033071 0.438865 0.053055 0.044678 0.132592 -0.136870 0.106347 -0.027964 0.004146 -0.130851 -0.055510 -0.015369 0.013481 -0.094930
N30D 0.221587 -0.019476 0.050040 0.014881 0.040553 -0.167437 -0.325325 0.091826 0.244994 -0.138336 0.390486 0.201261 -0.193183 -0.344216 0.405095 -0.316866 -0.151077 0.119708 0.176555 0.039040 0.015978 0.030332 -0.042528 -0.119544 0.060809 -0.119874 0.039263 -0.001583 0.002914 0.025853 0.057136 -0.026742
N39C 0.177889 -0.109568 -0.058374 -0.140473 0.030006 -0.061383 -0.264755 0.027614 0.144368 -0.338513 0.268489 0.211720 -0.177695 -0.266065 0.461095 -0.339871 -0.220225 0.019550 0.215575 0.028530 0.021740 0.070626 -0.028417 -0.161272 0.113059 -0.114727 0.045117 0.092223 -0.018389 0.053762 0.079976 -0.017266
M016 0.063565 -0.043577 -0.032037 -0.048348 -0.008334 -0.080860 -0.159770 -0.032279 0.087906 -0.113836 0.252031 0.054868 -0.234934 -0.255892 0.185864 -0.145923 -0.045079 -0.006856 0.085129 -0.098923 -0.201592 -0.111142 0.014708 -0.408454 0.383842 0.341592 0.298118 -0.120914 0.235269 0.138491 0.098225 -0.054242
|M175+M175| -0.071246 -0.064975 -0.085329 -0.064323 -0.024632 0.068240 -0.067540 -0.046648 -0.023422 -0.005117 0.015019 -0.064552 -0.136285 -0.041227 -0.107778 0.105923 0.060874 -0.095798 -0.063496 -0.120597 -0.191841 -0.144997 0.038995 -0.384237 0.415229 0.472217 0.306109 -0.224388 0.326798 0.147335 0.084587 -0.075139
M242~AB -0.134819 -0.028571 -0.093387 -0.317527 0.227384 -0.156839 0.222152 -0.073147 0.110800 0.181554 0.033421 -0.144235 -0.073739 -0.108979 0.105978 -0.210969 0.171400 -0.246398 -0.088882 -0.054067 0.176038 -0.064302 0.149277 0.053697 -0.002625 -0.057468 -0.049241 -0.179841 -0.376823 0.453160 -0.055025 -0.224918
M373 0.050572 0.343900 0.077871 -0.152405 -0.352554 0.244459 0.121286 -0.285096 0.154025 0.216371 -0.159577 -0.173648 -0.093402 0.116371 0.099543 -0.096993 0.014491 0.179881 0.360988 -0.209743 0.130248 0.344240 0.039577 0.105175 -0.000862 0.099742 -0.060009 -0.110009 0.044075 -0.046209 0.028684 -0.128764
M046 0.283936 -0.087080 0.268415 0.363139 0.155566 -0.187715 -0.052697 0.286203 0.343481 -0.210216 -0.243434 -0.287509 -0.191048 0.272517 0.002750 0.111020 -0.014643 0.147988 0.111093 0.154612 -0.079914 0.107444 -0.142370 -0.027030 -0.088238 0.044833 0.055430 -0.111404 -0.045216 0.063373 -0.007824 -0.088731
|M370~B+M072| 0.087499 -0.340248 -0.455254 -0.165615 0.192935 0.545222 0.090895 -0.144030 -0.044612 -0.126535 -0.133717 -0.321379 -0.028497 0.161144 -0.116569 0.003369 -0.091284 0.020450 -0.001943 0.108044 0.200810 -0.052813 0.007058 -0.035166 -0.075832 0.014464 0.067499 0.078054 -0.020006 -0.102972 -0.017961 -0.078011
M053~A -0.002722 -0.011155 0.056546 -0.017531 -0.026782 -0.004735 0.011495 -0.033844 -0.012173 0.008170 -0.034695 0.106244 0.005972 0.043555 -0.021573 -0.009208 0.041167 -0.041965 -0.164287 -0.002570 -0.159227 -0.144579 0.112958 0.074446 -0.168236 0.134856 -0.084214 0.011733 -0.266145 -0.132590 0.850230 -0.138281
M145~A -0.154481 0.181763 0.005134 0.260947 -0.131341 -0.151760 0.062747 -0.321863 0.118590 -0.033611 0.308693 -0.022452 0.343015 -0.122791 -0.076383 0.142135 -0.169453 -0.152843 0.011892 -0.125884 0.130755 -0.163593 0.034604 0.013741 -0.231573 0.161353 -0.096973 0.356230 0.190922 0.181447 -0.036309 -0.239655
M220 0.175370 0.040967 -0.057262 0.022170 -0.092275 0.099964 0.176167 -0.035878 0.318432 0.213091 0.111077 0.169500 0.189878 -0.148731 -0.005973 -0.048005 0.303090 -0.000274 0.271607 0.024610 0.009928 0.159639 -0.298518 0.217603 0.416448 -0.143042 -0.048470 -0.119026 -0.143288 0.173262 0.007019 -0.274379
M073~A 0.016608 0.114891 0.033026 0.125041 0.079585 -0.069282 -0.061397 -0.003479 0.109761 0.053573 -0.020827 -0.093322 0.083647 0.192815 0.001049 -0.079247 0.158343 -0.001733 0.030127 -0.035402 0.036129 -0.140892 0.129348 -0.296891 0.060218 0.130869 -0.544771 0.552275 0.192493 0.219613 -0.012724 -0.138269
M041 -0.380857 -0.283390 -0.248325 -0.081949 0.076241 -0.166273 -0.367262 0.032049 -0.176931 0.003633 0.141174 -0.234737 0.222737 0.177013 0.026399 -0.076992 -0.345176 0.087943 0.011677 -0.083850 0.267840 0.071882 -0.037475 0.044562 0.234026 0.098873 0.004226 -0.174135 0.131056 0.022248 0.075373 -0.101932
M115~A 0.500306 0.192963 -0.216900 -0.240564 -0.252893 0.006060 -0.046027 0.020181 -0.091041 -0.270630 -0.318375 0.318974 0.063573 -0.106513 -0.152533 -0.127812 -0.075228 0.073158 -0.007482 0.024501 -0.006415 0.069910 0.038980 -0.005872 -0.095413 0.108428 -0.053639 -0.171177 -0.172828 0.248111 -0.095707 -0.172115
M281~C 0.054160 -0.026379 -0.156293 -0.121641 -0.033135 0.049290 -0.088555 0.146648 0.029096 0.114584 -0.089873 0.026856 0.122263 -0.050905 0.077794 -0.021482 0.096021 -0.036370 -0.082214 -0.096833 0.108157 -0.054056 -0.013622 -0.079386 -0.056196 -0.008054 -0.042869 -0.312956 -0.530879 0.639321 -0.089951 -0.167338
M195~D -0.017158 -0.046946 -0.118502 0.029801 0.059970 -0.091383 0.102554 0.032453 -0.142792 -0.054521 0.075342 -0.147123 -0.162419 -0.059987 -0.055886 0.052133 0.170970 -0.134379 -0.250650 -0.045209 -0.156780 -0.229511 0.153417 -0.139711 0.200992 0.303081 0.101531 -0.179275 0.031110 -0.087536 0.646446 -0.197113
M036 0.165661 0.089992 -0.075427 -0.032166 0.125669 -0.254779 0.009636 0.046759 0.137528 -0.096350 0.286259 0.027259 -0.160374 -0.252524 0.355856 -0.265603 -0.240231 0.076131 -0.010100 -0.164177 -0.024114 0.103727 -0.220101 -0.219063 -0.104083 -0.489863 -0.030649 0.136178 -0.005329 0.005683 0.079732 -0.046491
M318~N -0.215727 -0.222340 0.224555 -0.582871 0.390573 0.003047 0.360975 -0.256548 0.003977 0.046896 0.230940 -0.044234 0.077046 0.068185 -0.125936 -0.176281 -0.107303 0.081205 0.006731 -0.010861 0.013195 0.026426 0.081137 0.093151 -0.049181 0.031858 -0.006866 -0.026488 -0.048478 0.064795 -0.020632 -0.067825
M152 -0.046101 -0.053676 0.184613 -0.199716 0.534780 0.209796 0.112999 -0.269553 -0.194316 -0.042331 0.557598 0.086616 0.187542 -0.092876 -0.033685 -0.034006 -0.057419 0.082891 -0.019423 0.029601 -0.046149 0.068092 0.052054 -0.025648 -0.090948 0.133641 -0.063910 0.129985 0.046709 0.032211 -0.066568 -0.158802
M383~J -0.228450 -0.434755 -0.019919 -0.119483 0.152877 -0.293961 0.222014 0.108328 -0.342466 0.410061 -0.080280 -0.040425 -0.100343 -0.073880 0.186647 0.016880 0.202463 -0.030777 0.100995 0.114842 0.041706 -0.210828 0.070695 -0.000996 0.184355 -0.081003 0.047077 -0.073884 -0.053680 -0.182081 -0.081720 -0.147326
M111 0.241802 0.169216 0.036440 -0.082989 0.026432 0.176069 -0.081723 -0.102019 -0.064727 -0.239830 -0.002614 0.096812 0.068297 -0.060276 -0.019014 -0.136963 -0.032229 0.053506 -0.183553 0.130608 -0.073525 -0.131027 0.131433 0.055893 -0.176850 0.053423 -0.040349 -0.024712 -0.172433 -0.102773 0.752038 -0.132446
|M106~2+M288| 0.250782 0.013248 0.249979 -0.051668 0.205522 -0.039627 0.002361 -0.057730 0.085197 -0.060853 0.011196 0.015162 0.151203 -0.260247 -0.117306 -0.010484 -0.023964 -0.138094 -0.268847 -0.101440 -0.023028 -0.104302 -0.002222 -0.190890 -0.077797 0.454716 0.095972 -0.409550 0.372939 -0.020656 -0.030186 -0.169115
N02 0.253658 -0.046386 0.218915 0.471333 0.316576 -0.018790 0.145083 -0.079585 -0.108111 0.089639 -0.101426 -0.151352 -0.076056 -0.245255 -0.067639 -0.152042 -0.114320 0.133868 -0.071570 0.237457 0.004859 0.081454 -0.013187 -0.039354 -0.250089 0.230918 0.001068 -0.329565 0.157256 -0.136844 -0.046554 -0.133955
|M106+X| -0.055674 0.034630 -0.304329 0.161571 0.103820 -0.018499 0.213659 0.159524 -0.314847 -0.543484 -0.146318 -0.327826 0.237357 0.034531 0.267913 -0.089176 -0.078116 -0.074207 0.186685 0.001228 0.210670 0.120656 -0.090705 0.032436 0.126127 -0.020482 0.005525 -0.022157 0.045155 0.011582 -0.007487 -0.018939
M387~EH 0.055825 -0.100232 -0.049596 -0.246165 -0.116997 0.035499 -0.002612 0.050302 -0.156513 0.105804 -0.192824 -0.013823 0.020004 -0.221809 -0.019087 0.324310 -0.465122 -0.113890 0.328052 0.285930 -0.409171 -0.050032 -0.155370 0.115772 -0.070683 0.027562 -0.047674 0.141700 0.083822 0.069111 -0.022885 -0.107271
M249~M -0.186161 0.064353 -0.137567 0.042785 0.049132 -0.051376 -0.067534 -0.146789 -0.018498 0.155310 -0.106955 -0.111019 -0.016753 -0.040597 -0.064316 -0.003296 -0.141815 0.022256 -0.307212 -0.183568 -0.231005 0.310962 -0.419351 -0.368695 -0.135051 -0.446446 0.034125 -0.017375 0.083944 -0.002482 0.042694 -0.128651
M057~A2 -0.026418 -0.263597 -0.207209 -0.092490 -0.228569 0.055269 0.049039 -0.270608 0.207316 -0.053551 -0.011602 0.086056 0.139968 0.045515 -0.011637 -0.122854 0.212960 -0.178007 0.145373 0.425509 0.008247 -0.070994 0.063494 -0.314711 0.311794 0.060842 0.192857 -0.203322 0.265368 0.089782 0.081194 -0.071974
|M218~D+M288| 0.087471 0.186658 0.103698 0.071439 -0.045401 0.219792 -0.185173 0.173612 0.081155 -0.013378 0.127791 -0.076540 0.207492 0.157965 0.043536 0.079642 0.186766 0.162156 -0.152294 0.092441 -0.057210 0.016873 0.061454 0.285302 0.008534 -0.060750 0.584490 0.375942 0.031398 0.105046 -0.032494 -0.200514
M295~KA 0.242753 -0.024065 -0.024207 0.274491 0.143107 0.110285 -0.199975 -0.052292 0.122615 -0.090104 -0.076389 -0.014973 0.292127 0.153968 0.054487 -0.090211 0.259724 -0.054644 -0.190661 -0.104466 -0.301175 0.181945 0.192316 0.295767 0.352548 -0.183985 0.227197 0.173564 -0.051491 0.002611 -0.029771 -0.174415
M254~B1 0.088375 -0.256601 0.084800 -0.147367 -0.048014 -0.412028 0.164429 -0.089146 -0.502868 0.107112 0.083042 -0.294481 0.093758 0.058142 0.128841 0.137074 0.068188 0.139721 0.076112 -0.076449 0.261866 0.356697 -0.037448 0.107551 0.184501 0.041592 0.006006 -0.025507 0.024440 -0.023825 0.038258 -0.034438
M417~H 0.088800 -0.345101 -0.459999 -0.167016 0.194457 0.547363 0.091144 -0.144327 -0.044586 -0.126019 -0.132987 -0.318664 -0.028167 0.158885 -0.114904 0.003311 -0.089537 0.019968 -0.001894 0.105030 0.194393 -0.051105 0.006805 -0.033744 -0.072457 0.013801 0.063718 0.073454 -0.018704 -0.095592 -0.016477 -0.070185
M295~U 0.209830 0.003428 -0.084763 0.108354 -0.506992 -0.359818 0.066190 -0.179697 0.102775 -0.450421 0.266111 -0.035694 0.264677 -0.102465 -0.081260 0.100744 0.097577 -0.140987 -0.000730 -0.005560 -0.093232 -0.016509 -0.086865 0.055060 -0.225142 0.020211 -0.099867 -0.034541 0.117055 0.015359 -0.036008 -0.067420
M290 -0.071246 -0.064975 -0.085329 -0.064323 -0.024632 0.068240 -0.067540 -0.046648 -0.023422 -0.005117 0.015019 -0.064552 -0.136285 -0.041227 -0.107778 0.105923 0.060874 -0.095798 -0.063496 -0.120597 -0.191841 -0.144997 0.038995 -0.384237 0.415229 0.472217 0.306109 -0.224388 0.326798 0.147335 0.084587 -0.075139
M262 -0.035861 -0.173867 0.305111 0.113178 -0.111449 -0.175134 -0.014561 -0.014138 0.159321 -0.124777 -0.024247 -0.145590 0.123633 -0.557307 -0.163509 -0.030190 -0.084530 -0.210282 -0.326108 -0.062827 0.110423 -0.015867 0.073829 0.157345 -0.042348 0.054391 -0.057143 -0.128625 -0.185148 0.208633 -0.123079 -0.284588
M038~B1 -0.138996 0.067196 0.110606 0.135505 -0.060374 0.198042 0.380529 0.161611 -0.033506 -0.144428 -0.109855 0.127531 0.052715 -0.130297 0.157035 -0.055518 0.093065 0.083693 -0.042061 0.021371 0.175685 -0.094414 -0.645664 0.146649 0.320779 0.105063 -0.116430 0.069276 -0.016472 -0.028681 0.022898 -0.063260
M224 0.030748 -0.037660 0.063964 0.104652 -0.000712 0.098583 -0.118869 -0.014281 0.042557 -0.078218 -0.009142 0.061208 0.190925 0.016700 -0.094347 0.016045 0.073928 -0.028293 -0.153356 -0.159808 -0.488639 0.013119 0.203675 0.094752 0.635827 0.070281 0.275296 -0.034508 0.168591 0.120816 0.020769 -0.162855
M281~F -0.120039 -0.054814 -0.260225 0.154986 0.035958 0.374448 -0.162832 -0.138913 -0.389698 0.065047 -0.024188 0.345601 -0.182598 -0.043682 0.121339 -0.019417 0.143817 0.061343 0.016875 -0.089988 0.065257 -0.024888 -0.032307 0.001521 -0.094142 -0.042647 -0.092413 -0.228646 -0.279773 0.365721 -0.093383 -0.214625
M075~M -0.266104 -0.042101 -0.394418 0.063649 0.330228 0.476619 -0.080138 0.122845 -0.271848 -0.080894 -0.191956 0.301745 -0.193525 -0.184263 0.202859 0.135074 0.148318 0.035502 -0.066955 -0.031011 0.062417 -0.001140 0.010783 -0.012467 -0.058622 -0.014118 -0.068444 -0.093517 -0.096311 0.083987 0.051205 -0.045123
M318~A1 -0.142792 0.241138 -0.151286 -0.245587 0.034595 -0.136843 -0.162732 0.337846 0.145139 0.007094 -0.076219 0.040205 -0.058595 0.165137 0.019453 0.038848 0.037811 0.007596 -0.085932 0.157773 0.142659 0.040932 0.159086 -0.203771 0.065182 0.077395 -0.466484 0.426795 0.187340 0.143409 -0.016894 -0.167380
M332~C -0.084945 0.015736 -0.083579 0.062176 -0.236264 -0.155985 0.000194 -0.219867 -0.094813 0.010610 -0.124415 -0.134636 0.175343 -0.486928 -0.081395 0.297305 -0.431138 -0.271183 0.204312 0.147543 -0.164735 -0.074944 -0.117290 0.126185 -0.143766 0.065752 -0.025824 0.126165 0.056757 0.085264 -0.003722 -0.100878
M131 0.047507 0.087846 0.066617 0.095614 -0.016593 0.069828 0.187762 0.114009 0.213691 0.212601 -0.030911 -0.184168 0.013026 -0.116400 -0.145486 -0.095405 -0.147313 -0.047744 0.060756 -0.349776 -0.473124 -0.084675 0.115771 0.230560 0.209234 -0.390469 0.070107 0.029801 0.059781 -0.043018 0.123908 -0.287926
M240~B -0.064112 0.040603 0.137313 0.071105 -0.032040 0.040608 -0.157434 0.333732 -0.210740 -0.078719 0.121608 0.131322 -0.070776 -0.070415 -0.542110 -0.199832 0.250470 -0.312170 0.391455 -0.181885 0.051389 0.107276 -0.118650 -0.061827 -0.087538 -0.060355 0.089220 0.033016 -0.027533 -0.046657 0.007030 -0.056331
M251~C -0.050467 0.269035 -0.165147 -0.328410 -0.187632 -0.131454 -0.075104 0.299104 -0.007346 -0.062345 -0.143251 0.222898 -0.039365 -0.036072 0.057169 0.319509 -0.138430 0.118286 0.004332 0.287987 -0.254990 0.105474 0.030047 0.257281 -0.033281 -0.036693 0.216406 0.285391 0.099013 0.087214 -0.048170 -0.224037
M044~A 0.180885 0.078358 -0.107875 -0.160601 0.010767 0.128852 -0.081103 -0.064560 -0.037487 -0.202862 -0.120086 0.092968 -0.129630 -0.110009 -0.222372 0.050473 -0.028784 -0.132074 -0.167272 -0.073310 -0.072031 -0.102759 0.121337 -0.341480 0.385489 0.420413 0.230647 -0.244977 0.286480 0.105241 0.094915 -0.101494
M029~B -0.273668 0.128743 0.116341 -0.295930 -0.037649 -0.241483 0.020812 0.236197 -0.035979 -0.146297 0.099584 -0.112607 -0.263238 -0.224180 -0.486271 -0.117860 0.389381 -0.089318 0.234213 -0.115669 -0.059294 -0.033106 -0.058481 0.038036 0.072352 -0.039578 0.045331 -0.042823 -0.049733 -0.062259 0.055011 -0.137467
M281~A 0.228965 -0.076678 0.080144 0.167906 0.084516 -0.096033 -0.095164 0.294388 0.255898 -0.068195 -0.228547 -0.180923 -0.049840 0.154872 0.054695 0.062713 0.055288 0.078629 0.021371 0.041836 0.018578 0.038250 -0.110003 -0.074617 -0.102153 0.026231 0.009245 -0.303366 -0.414175 0.509004 -0.071715 -0.191229
M230~A -0.199358 0.223419 -0.105894 -0.061517 -0.205719 -0.278088 -0.021260 -0.118697 0.098050 0.020505 0.042055 -0.180634 0.200987 -0.450120 -0.063230 0.053300 0.014752 -0.368947 0.000909 -0.081851 0.154043 -0.096978 -0.033585 0.050469 -0.098632 0.008560 -0.051719 -0.150864 -0.297315 0.357205 -0.050569 -0.182320
M049~C 0.091124 0.587752 0.042883 0.007599 0.124868 0.375606 0.020989 0.146972 0.181847 0.046772 0.221530 -0.294358 0.197062 -0.164062 -0.116827 0.071190 0.067755 0.224887 0.027171 0.003239 0.011787 -0.221191 0.088188 0.042573 0.185999 -0.127242 0.013445 -0.045450 -0.064365 -0.168427 -0.059237 -0.081055
M240~A -0.064112 0.040603 0.137313 0.071105 -0.032040 0.040608 -0.157434 0.333732 -0.210740 -0.078719 0.121608 0.131322 -0.070776 -0.070415 -0.542110 -0.199832 0.250470 -0.312170 0.391455 -0.181885 0.051389 0.107276 -0.118650 -0.061827 -0.087538 -0.060355 0.089220 0.033016 -0.027533 -0.046657 0.007030 -0.056331
M151~E 0.265704 0.189246 0.353429 -0.159483 -0.094340 0.103871 0.082479 0.059692 0.094582 -0.051454 -0.181765 0.243445 -0.186228 0.109920 0.110921 0.020953 -0.195360 -0.415707 -0.293640 -0.195802 0.359182 -0.133202 -0.069542 -0.078049 0.108619 -0.026669 -0.023557 0.051572 -0.014263 -0.168567 -0.069255 -0.086146
M295~DA 0.091640 -0.000339 0.143666 0.179589 0.017057 0.074785 -0.100732 0.015809 0.070285 -0.094022 -0.022179 0.122222 0.333461 0.049902 -0.039882 -0.055234 0.047717 0.032756 -0.142228 -0.109748 -0.456919 0.116605 0.217892 0.377682 0.472142 -0.239323 0.116271 0.110598 -0.022601 0.041436 -0.031667 -0.132666
M089 -0.002994 -0.012263 0.061915 -0.019156 -0.029247 -0.005149 0.012485 -0.036733 -0.013175 0.008810 -0.037358 0.114035 0.006389 0.046472 -0.023011 -0.009791 0.043683 -0.044319 -0.173141 -0.002702 -0.166627 -0.151238 0.117700 0.077185 -0.173648 0.138991 -0.085819 0.011918 -0.268481 -0.132758 0.840737 -0.133964
|M327+X| 0.251123 -0.132882 0.229406 0.145151 0.265920 0.017082 -0.379866 0.190437 0.068478 -0.223912 -0.151701 0.120058 0.054325 -0.010056 -0.031040 0.092010 0.226795 -0.006981 0.062130 -0.063825 -0.201039 0.013175 -0.043089 0.102771 -0.085174 0.064046 -0.074341 -0.092702 -0.080379 -0.117546 0.558613 -0.138023
|M175+M038~A| 0.018184 0.125691 0.035937 0.135685 0.086290 -0.074701 -0.066089 -0.003742 0.117597 0.057113 -0.022160 -0.098874 0.088228 0.202673 0.001102 -0.082924 0.165225 -0.001797 0.031153 -0.036480 0.037012 -0.144259 0.131758 -0.300438 0.060579 0.131402 -0.538921 0.544013 0.187915 0.212307 -0.012102 -0.128070
M214~A 0.239066 -0.020948 0.018986 0.117720 -0.081804 0.088111 -0.043721 -0.040330 0.018497 -0.231101 -0.076375 0.159297 0.491727 0.056509 -0.048776 -0.129819 0.038639 -0.057242 -0.027446 0.018117 -0.375188 0.140981 0.185184 0.261126 0.441774 -0.236413 0.107483 0.087470 -0.043576 -0.000470 -0.023736 -0.139011
M295~K 0.052054 -0.157732 -0.166692 0.171511 0.028159 0.318551 0.206241 0.048333 -0.279331 0.382713 0.190687 0.222514 -0.252914 -0.006224 0.183724 -0.007857 -0.127180 -0.006923 0.188969 -0.275031 -0.088995 -0.260654 0.117166 0.192901 -0.169940 -0.100125 -0.002190 -0.060010 0.164898 0.009674 -0.035809 -0.185550
M058 0.048611 -0.003477 -0.073820 0.238313 0.129839 -0.001667 -0.011789 0.194782 -0.226226 0.039069 0.066688 0.094112 -0.187998 0.007407 -0.410863 -0.273467 0.115229 -0.476909 0.227676 -0.244824 0.011984 0.133956 -0.235128 -0.107454 -0.131964 -0.221472 0.079641 0.016670 0.051297 -0.047521 0.007473 -0.141412
M009~A -0.031807 -0.124749 -0.363915 -0.035416 0.436446 0.154127 -0.042654 0.193187 0.014986 -0.157007 -0.299122 0.162816 -0.090474 -0.195971 0.217624 0.311803 0.174174 0.013899 -0.059635 -0.052324 -0.043812 -0.037948 -0.017572 0.028067 -0.085069 0.027188 -0.077387 -0.059829 -0.080743 -0.041717 0.434075 -0.093925
M352~N2 -0.279949 -0.195067 0.324242 -0.092300 0.226889 0.287561 -0.304349 -0.331421 -0.066137 -0.293532 -0.167637 0.102554 -0.016079 0.026948 0.285036 -0.110342 0.042554 0.028103 0.065331 0.277994 0.175428 0.056038 0.017183 -0.145606 -0.087323 -0.123696 0.056468 -0.123635 0.111506 0.009370 0.106017 -0.070747
M228~GA 0.075865 0.133935 0.072657 0.089289 -0.323879 0.375322 -0.036355 0.336934 0.000862 0.219906 0.412853 -0.416599 0.026624 -0.179000 -0.059416 -0.073886 -0.167614 0.057165 -0.070647 0.122314 0.083262 -0.238254 0.082270 0.040497 -0.003707 -0.156297 -0.033996 -0.062457 0.036952 -0.025790 0.022690 -0.113484
|M175+M136| -0.051875 -0.029253 -0.252897 0.001644 0.142344 -0.407957 0.233250 -0.004713 0.017896 -0.031586 0.154034 -0.111184 -0.296381 -0.133737 0.217071 0.040235 0.138294 -0.261889 -0.197540 -0.235843 0.301874 -0.266038 0.257258 0.013965 -0.052421 -0.224196 -0.081174 -0.022535 0.016429 -0.033300 -0.005339 -0.165382
M038~A1 -0.088527 0.407511 -0.092973 -0.138547 -0.264535 0.212104 0.057229 -0.242460 0.244285 0.202018 -0.305469 -0.244561 -0.068133 0.129141 0.036748 -0.379560 -0.070264 0.151777 0.259102 -0.203276 -0.013263 0.042195 -0.008271 0.165256 -0.099576 0.093625 0.002506 -0.078238 0.067901 -0.032052 0.007117 -0.068015
|M228~B+M101| 0.027942 -0.132460 -0.172099 -0.144177 -0.014535 0.012811 0.036931 0.058730 -0.080958 0.202946 -0.174820 -0.054397 -0.000023 -0.143729 -0.084348 0.212205 -0.468723 -0.108335 0.022923 0.061123 -0.453733 0.137366 -0.353034 -0.137340 -0.116798 -0.317473 -0.001874 0.102183 0.147966 0.065055 0.024493 -0.128355
|M228~B+M320| -0.060711 0.168679 0.094946 0.174801 0.084860 -0.127720 -0.118514 0.000423 0.116767 0.083107 -0.042762 -0.086186 0.117038 0.199250 0.016788 -0.077989 0.148442 0.014769 0.033456 -0.019743 0.019457 -0.107446 0.120562 -0.343178 0.059202 0.151007 -0.525247 0.509555 0.155163 0.157973 -0.029220 -0.146477
M285~C -0.437898 -0.319658 -0.110918 -0.137501 0.042133 0.105152 -0.241652 0.002086 0.128908 0.078788 0.119385 0.021603 -0.065342 0.072028 -0.081995 -0.039901 -0.044367 -0.029130 -0.117830 -0.209159 0.007153 0.011617 0.044633 -0.112495 0.314000 0.400545 0.145793 -0.292562 0.273090 0.098995 0.027377 -0.148378
M295~L 0.086566 -0.000320 0.136418 0.170922 0.016244 0.071556 -0.096516 0.015160 0.067607 -0.090815 -0.021458 0.118668 0.324975 0.048774 -0.038992 -0.054189 0.046925 0.032382 -0.140932 -0.109069 -0.456327 0.116506 0.218653 0.381109 0.478798 -0.243090 0.119593 0.114170 -0.023510 0.043460 -0.033675 -0.144307
M251~I 0.016608 0.114891 0.033026 0.125041 0.079585 -0.069282 -0.061397 -0.003479 0.109761 0.053573 -0.020827 -0.093322 0.083647 0.192815 0.001049 -0.079247 0.158343 -0.001733 0.030127 -0.035402 0.036129 -0.140892 0.129348 -0.296891 0.060218 0.130869 -0.544771 0.552275 0.192493 0.219613 -0.012724 -0.138269
M214~E 0.105417 0.117598 -0.179788 -0.081563 0.022858 -0.305017 -0.174392 0.039382 -0.540476 -0.088709 0.099672 -0.354450 0.306727 0.181748 0.076166 -0.035465 -0.315132 0.115408 0.046171 -0.131263 0.232575 0.055420 -0.015202 0.054502 0.195964 0.002481 0.012988 -0.053742 0.037879 0.019111 0.060901 -0.038828
M103~2 0.134334 0.056179 0.309194 0.267867 -0.039766 -0.125051 -0.107079 -0.177876 0.040199 -0.118156 -0.212266 0.085449 0.391618 0.111072 0.134487 -0.016673 0.057548 -0.106267 -0.017414 -0.066536 -0.223855 0.019935 0.247706 0.205043 0.404899 -0.343347 0.102743 0.018499 -0.032188 -0.075548 -0.051109 -0.154239
M217~N -0.057543 -0.062838 0.224391 0.028533 -0.270995 -0.378347 0.161219 0.213596 -0.193797 0.226600 0.196077 -0.046907 0.107451 0.339353 0.177080 0.056664 0.152182 0.010879 -0.045433 0.164923 0.244632 -0.084454 0.002413 0.113766 -0.140022 -0.011143 0.396036 0.219170 0.052270 0.033835 -0.008223 -0.039072
M249~N -0.233844 0.445337 0.110311 -0.367192 0.147190 -0.272256 0.233134 0.035773 0.157239 0.159020 0.196719 -0.247792 0.026998 0.093642 -0.009288 -0.172635 0.212950 -0.224192 0.237838 0.132291 0.026991 -0.111141 -0.033056 0.060477 0.156762 -0.168083 0.015090 -0.034319 -0.040569 -0.044600 0.047973 -0.106769
M243~J 0.052349 -0.035343 -0.201159 -0.081449 -0.012411 -0.131929 0.005329 -0.051199 -0.206665 0.033089 -0.098028 -0.063086 -0.234752 0.122403 -0.095564 0.021419 -0.196864 -0.040833 -0.306600 -0.192888 -0.161342 0.322268 -0.304186 -0.429876 0.049562 -0.238819 0.097148 -0.106477 0.294960 0.101482 0.138721 -0.126386
|M305+M009| 0.022861 -0.237988 -0.262247 0.030255 0.144600 0.149648 -0.072567 -0.040713 0.275310 -0.028043 -0.042196 -0.067699 -0.139885 0.035684 -0.011508 0.215309 0.083126 -0.064328 0.042474 -0.086669 -0.189274 -0.138241 -0.121079 -0.183772 0.385585 0.371450 0.235864 -0.238690 0.291290 0.141936 0.173135 -0.121191
M049~E -0.096110 0.069061 0.138012 0.026123 -0.078707 0.064871 -0.178048 0.298338 -0.180607 -0.061366 0.126602 0.117767 -0.053188 0.027654 -0.391990 -0.088487 0.293370 -0.178274 0.275121 -0.073593 0.174173 0.077825 -0.138449 0.012496 -0.257072 0.003518 0.434116 0.271310 0.021879 0.014078 -0.006054 -0.142273
M147~A 0.085779 -0.515410 -0.091643 -0.263149 0.028259 -0.264085 -0.140022 0.360625 -0.017053 -0.061316 0.021351 0.182997 -0.005234 0.316236 0.219709 0.079361 -0.017265 -0.238317 0.091669 -0.067008 0.239921 -0.190734 -0.104285 -0.044121 -0.040414 0.117636 0.148833 -0.062982 0.102101 -0.045187 0.059928 -0.046463
M295~B 0.209830 0.003428 -0.084763 0.108354 -0.506992 -0.359818 0.066190 -0.179697 0.102775 -0.450421 0.266111 -0.035694 0.264677 -0.102465 -0.081260 0.100744 0.097577 -0.140987 -0.000730 -0.005560 -0.093232 -0.016509 -0.086865 0.055060 -0.225142 0.020211 -0.099867 -0.034541 0.117055 0.015359 -0.036008 -0.067420
|M327+M059| -0.243954 -0.198154 -0.217889 -0.045936 0.017320 -0.028917 0.071972 -0.296696 0.260202 0.079319 0.011077 0.028600 0.111635 0.121833 -0.084233 -0.143652 -0.122743 -0.128997 -0.085923 0.345303 -0.051749 0.139292 -0.174838 -0.263059 -0.038424 -0.404253 -0.010376 -0.112185 0.080078 0.017546 0.365642 -0.170708
|M057+M291| 0.000152 0.029967 0.082219 0.300331 0.259188 0.147464 -0.094403 -0.216942 -0.274464 0.069385 -0.196748 0.064154 -0.449434 -0.013218 0.129982 -0.333296 0.166609 -0.428186 -0.069792 0.062830 0.217755 0.052639 -0.002428 0.022254 0.039238 -0.009977 -0.048049 -0.063822 -0.005101 -0.072969 -0.083536 -0.114745
M147~E 0.204653 -0.019466 0.314935 0.164654 0.005160 0.032378 -0.258968 0.037357 0.061072 -0.195384 -0.147364 0.197953 0.207645 0.067605 -0.122041 -0.059499 0.121576 -0.097974 -0.114582 -0.085712 -0.349063 0.058129 0.052697 0.201118 0.241934 -0.052191 -0.002126 0.050516 -0.188882 -0.140330 0.455582 -0.230085
M295~EE -0.188569 -0.002340 0.045009 -0.021803 0.164612 0.003238 0.059272 -0.036125 0.131681 0.116662 0.220166 0.088973 0.297957 -0.126047 -0.154657 0.023078 0.038065 0.076918 -0.213112 -0.200176 -0.191670 0.030031 0.092261 -0.283971 0.228564 0.450814 0.226720 -0.151430 0.361954 0.136893 0.039765 -0.113003
M045~B 0.212265 -0.269288 -0.017830 -0.054444 0.282417 0.003461 0.515341 -0.012530 0.012861 0.126726 -0.035164 0.065376 0.136171 -0.131906 -0.253077 -0.394622 -0.174647 0.363858 -0.041063 -0.025223 0.071429 0.129770 0.132156 0.009925 -0.133521 0.151006 0.014792 0.039961 0.076346 0.001656 -0.018749 -0.053266
M032~A -0.313253 0.081872 -0.039066 0.225076 -0.030029 0.058510 0.536524 0.350483 -0.200183 -0.418145 0.013838 -0.233127 0.032942 -0.073787 0.298977 -0.104466 0.065743 -0.138945 -0.079216 -0.037744 0.029620 0.008738 -0.022558 0.007942 0.105726 -0.018009 -0.012314 -0.029087 0.034408 -0.045008 0.009959 -0.054885
M073~B 0.135778 -0.130160 -0.049423 -0.095011 0.346165 -0.079011 0.214591 0.018039 0.008859 0.074390 0.008096 0.175583 0.409187 -0.133719 -0.181777 -0.389862 0.019081 0.285199 -0.026961 -0.070551 0.074500 0.180476 0.170976 -0.146009 -0.154797 0.203773 -0.183546 0.212833 0.170949 0.050605 -0.032583 -0.143003
M063~A 0.178897 -0.378253 0.022733 -0.167330 0.212315 0.099775 -0.363398 -0.056757 0.071719 -0.381621 -0.265044 -0.158616 0.211267 -0.215241 0.187544 0.064456 0.119136 -0.034965 0.330248 0.062493 0.227846 -0.014843 0.028734 -0.047976 0.053539 -0.117508 0.042540 -0.049738 0.115985 -0.006948 0.087334 -0.062323
