? 32
M131~e -0.240490 0.122395 -0.108062 0.032241 0.071548 0.086376 0.241537 0.163818 -0.027384 0.189924 0.059062 0.313756 -0.286252 -0.122469 0.094583 0.200107 0.024855 0.080520 -0.237881 -0.331222 -0.102686 -0.228927 0.120434 0.141043 -0.052365 0.137388 0.082304 -0.137145 0.111009 -0.055612 -0.393882 0.208630
M157 0.106159 -0.058357 -0.078606 -0.112535 0.094256 0.061983 -0.057106 -0.221065 0.111215 -0.091728 0.118948 0.058657 0.014717 0.119758 0.148167 0.060376 0.031689 -0.005001 -0.060754 0.304157 0.339800 -0.505646 -0.094809 0.233000 -0.390065 -0.155691 -0.176932 0.013804 -0.092170 -0.117114 0.232889 -0.084321
M388 0.004355 -0.042843 -0.027249 0.035927 0.078199 -0.014579 0.025074 0.040548 0.004311 -0.017084 -0.010352 0.064917 -0.056824 -0.174732 0.082444 -0.029827 0.035594 0.006016 -0.033733 -0.021099 -0.070810 0.042635 -0.007997 -0.374543 -0.013833 0.114110 0.028199 0.045191 -0.479111 -0.599811 0.249602 0.351704
M206~d 0.235778 -0.212592 0.192948 0.052279 0.116890 -0.005622 -0.065535 0.086195 0.097434 0.056774 -0.026972 0.056608 -0.084334 0.046182 -0.017539 -0.133457 -0.208042 -0.165844 0.032043 -0.003858 -0.261802 0.057461 -0.078922 -0.408692 0.176331 0.306672 0.218634 -0.364373 0.387281 0.085457 -0.031216 0.094442
M066 -0.047009 -0.496348 0.080084 0.088107 -0.364698 0.073010 -0.250498 0.239818 0.151181 -0.140037 -0.012528 0.313348 -0.198614 0.161601 0.064324 -0.046002 -0.160519 -0.063288 -0.002109 0.255701 0.051002 -0.081963 0.036419 0.030743 -0.117134 0.088161 0.040220 -0.234421 0.131404 0.023392 0.136371 0.211670
M352~o -0.117694 0.125945 -0.019773 0.118285 -0.040391 0.547750 -0.210195 0.025226 0.413562 0.134378 -0.138856 -0.355034 0.000834 0.187691 0.163072 0.031127 0.066755 -0.069556 -0.217244 0.050502 -0.219680 0.054558 -0.026946 0.104173 0.040855 -0.034113 -0.080431 -0.016191 -0.146594 0.133545 0.075388 0.189177
M370 -0.287527 -0.043162 0.060914 -0.021895 0.031432 -0.007933 -0.060659 -0.293364 0.166633 -0.375749 -0.129023 0.020103 -0.101450 -0.152312 0.249161 -0.046324 0.095135 0.166126 -0.071497 -0.021671 0.530402 0.264969 0.118471 0.120902 0.198097 0.033791 -0.042336 -0.134294 0.085954 -0.039143 -0.161543 0.138253
M218 0.204561 0.050122 -0.051088 -0.179621 0.150898 -0.002172 0.025324 -0.135046 -0.077847 0.028777 -0.083294 -0.210367 0.100554 -0.217330 0.085360 -0.216757 -0.277842 -0.086614 0.117996 -0.035898 -0.178247 0.034749 -0.151068 0.202222 -0.318542 0.246716 -0.148387 -0.419915 0.304775 -0.150112 0.119384 0.149860
M096~d 0.055522 0.086782 0.033818 0.040092 0.078545 -0.060191 -0.135066 -0.044229 0.056158 0.122411 -0.033122 0.043703 -0.134578 0.052960 -0.078289 0.101557 0.169531 -0.086197 0.272590 -0.208200 -0.018258 0.407984 -0.397019 -0.297305 -0.250751 -0.479302 0.028707 -0.018131 0.153232 0.034936 -0.072388 0.088417
M347 -0.126643 0.099572 0.087921 0.057337 0.000744 -0.391420 0.017477 0.323973 0.321703 -0.236300 -0.255805 -0.122944 0.299382 0.305983 0.262421 -0.036298 0.049115 0.143207 -0.077554 -0.047354 -0.115283 -0.077973 -0.012008 -0.064896 -0.140718 0.053846 -0.262676 0.072314 0.076752 0.042951 0.074516 0.214747
M259 -0.074328 -0.302948 0.141757 0.197027 0.241282 -0.083739 -0.188051 0.037093 -0.275277 -0.148192 -0.158159 0.446638 0.055819 0.039465 0.045975 -0.074874 -0.029843 0.005160 0.001425 0.016691 -0.219032 0.186220 0.065419 0.372033 0.202919 -0.070533 -0.115296 0.092736 0.141144 -0.048382 0.089707 0.286863
M263 0.101870 -0.557565 0.404497 0.124784 -0.015666 0.315909 0.013858 0.183629 0.032134 -0.065934 -0.048934 0.123657 -0.083257 0.130407 -0.064569 -0.054572 -0.181250 -0.093342 0.187963 -0.029494 -0.073205 0.084682 0.139640 0.360580 -0.078263 -0.126577 -0.070807 -0.005466 0.005368 -0.071041 0.092027 0.175788
M329 0.287258 0.320000 -0.323884 0.223008 0.108491 -0.078037 0.256307 0.272558 0.142324 -0.159189 0.010489 0.317527 -0.286344 -0.035095 0.140779 0.022858 -0.041957 0.212241 -0.116762 -0.155170 0.236781 0.149742 0.032880 0.175144 0.004160 0.100284 -0.079988 -0.137037 0.067842 -0.016606 -0.041315 0.126148
M387 0.099464 0.188966 -0.046447 0.067683 0.062914 -0.067357 -0.277924 -0.046613 -0.066254 0.071546 0.016894 -0.149317 0.011579 0.137515 -0.361106 -0.224329 -0.030817 0.352264 -0.045381 0.044872 -0.078210 -0.399018 0.293438 -0.033153 0.099398 -0.364646 -0.049408 -0.185700 0.077664 -0.144104 0.063092 0.188931
M110 0.065125 0.345619 0.269471 -0.188788 -0.124826 -0.074459 -0.045918 -0.088936 0.127993 0.056815 0.077359 -0.140269 -0.203843 -0.259340 -0.189358 0.023525 -0.353243 0.065048 0.253956 -0.065471 0.079009 -0.017240 0.141162 -0.142868 -0.067469 0.151799 -0.200303 0.379149 0.144769 0.005486 0.058236 0.256707
M316~e2 0.132621 -0.185201 0.073096 -0.286967 0.337125 -0.105238 -0.080588 -0.029198 0.188180 0.069436 -0.015308 0.144869 -0.048672 0.116544 -0.174257 0.091104 -0.010827 -0.043645 -0.122200 0.021057 -0.211927 0.035057 -0.020437 -0.369346 0.255557 0.372143 0.285762 -0.182774 0.266826 0.085693 -0.089451 0.080568
M296 0.177834 0.153117 -0.133583 -0.346510 -0.230496 -0.248701 -0.387142 -0.321812 -0.094272 -0.121185 -0.280743 -0.300319 -0.166239 0.164360 0.260750 0.111896 0.026125 -0.064449 -0.102767 0.123538 0.039660 0.000380 -0.022465 0.028685 0.095826 -0.048624 0.070684 -0.169180 0.042262 -0.043796 -0.007247 0.168435
M201 0.041587 -0.019487 -0.003012 0.012417 -0.050671 0.032901 0.042060 -0.005846 0.006801 -0.005025 0.012800 0.026094 0.115378 0.025288 0.014018 0.012008 -0.041385 -0.075909 0.135942 -0.018398 -0.211184 -0.044877 0.105400 0.067117 -0.129367 0.147305 -0.062466 0.032361 -0.266586 -0.108737 -0.862493 0.135556
M203~a 0.367633 -0.238379 -0.067218 -0.025967 0.181392 -0.075354 -0.180240 -0.180016 0.197168 -0.481598 -0.101690 -0.215248 -0.222230 -0.130460 0.197051 0.134785 0.266063 0.068204 0.021554 -0.098472 0.142427 -0.070283 0.020322 0.001186 0.162473 0.078768 0.023006 -0.062668 -0.026071 -0.006286 -0.302829 0.088001
M371 -0.198925 0.134893 -0.211262 0.422936 -0.548924 -0.215421 -0.057254 -0.162427 -0.147327 -0.090826 0.167288 0.018019 0.096309 -0.061270 0.078417 0.005893 0.017189 0.099822 0.050477 0.121598 0.120492 0.277048 -0.034970 -0.018066 -0.043478 0.100965 0.002744 -0.320990 0.098104 -0.050285 0.023162 0.125025
M288 -0.061880 0.115625 0.121593 -0.175405 -0.216978 0.008889 -0.159892 0.111729 -0.149095 -0.312094 0.067369 -0.087756 -0.116767 -0.064707 -0.066403 0.088390 0.129637 0.073626 0.040806 -0.180034 -0.152736 -0.329275 0.053958 0.119282 0.081050 0.302811 0.034474 0.046388 -0.004448 -0.011974 0.585003 -0.202333
M301 -0.081124 0.164744 -0.143473 0.053882 0.011922 -0.219247 0.035130 0.101958 -0.010267 -0.095050 0.216777 -0.038798 0.224887 -0.205555 -0.354943 0.406058 -0.014924 0.005538 -0.365519 -0.277780 0.191632 -0.100589 -0.016269 0.141134 -0.188051 0.117461 0.159918 0.025275 0.122982 -0.057190 0.026800 0.262846
M317 0.022778 -0.153302 -0.036961 0.248379 0.067874 0.236294 -0.387196 0.310289 -0.307313 -0.005683 -0.023194 0.190030 -0.009321 0.172780 -0.270011 -0.218154 0.029397 -0.054426 0.252013 0.247919 0.262950 -0.052029 0.213123 -0.131441 -0.007318 -0.054940 -0.118784 -0.053520 0.062679 -0.070476 -0.020066 0.178961
M149~a1 0.037044 0.222696 -0.444722 0.217257 0.040026 0.131145 0.175640 0.070897 0.059542 0.321453 0.067503 0.184418 -0.294073 -0.027376 0.138941 0.320572 -0.141773 0.075115 -0.130784 -0.115663 -0.065953 -0.051597 0.032944 0.193190 -0.058972 0.096122 -0.012826 -0.060447 -0.080150 -0.083131 -0.379732 0.137571
M219 0.070908 0.328416 -0.071571 0.030056 0.074900 -0.100881 -0.058268 -0.061028 0.340236 0.002818 0.035670 0.297210 -0.456801 0.027886 0.076248 0.050137 -0.451327 -0.219506 -0.045458 -0.096153 -0.074696 0.057465 0.140664 0.269299 0.148681 -0.128956 0.035404 0.020227 0.000354 -0.027089 0.036773 0.167839
M346 -0.212195 0.062405 -0.149963 -0.130544 -0.405583 0.026694 0.018552 -0.269949 0.097186 -0.119455 -0.118075 0.118938 0.002548 -0.113455 0.274313 0.057009 0.063572 -0.057127 -0.074879 0.210288 0.248389 -0.225979 0.062816 0.108258 -0.086194 -0.517216 -0.042166 -0.060631 0.062078 -0.056387 0.232039 0.055763
M039~c -0.019528 0.075246 0.428067 0.105123 0.160595 -0.233607 -0.465078 0.170077 -0.387896 -0.016980 0.390960 0.050344 -0.074843 -0.040222 -0.106890 -0.071847 0.055491 0.202870 -0.163333 0.012667 -0.035877 -0.121193 -0.053951 0.161981 0.004545 0.019097 -0.094418 -0.045206 0.080060 -0.047374 -0.052516 0.071992
M054 -0.339332 0.204983 0.220572 0.085411 -0.086329 -0.265627 0.031235 0.193694 0.016060 -0.147824 0.046167 -0.203086 -0.277168 -0.280456 -0.390421 0.022194 0.209311 -0.053997 0.161697 0.181392 0.155514 -0.117914 -0.080924 0.159989 -0.143134 -0.019866 0.038574 -0.123043 -0.014582 -0.093058 -0.238922 0.130484
M123~b -0.024820 -0.146023 -0.030328 -0.157161 -0.084937 0.057665 0.213587 0.162195 0.080601 0.245374 -0.221056 -0.034825 -0.002973 -0.051058 -0.047875 -0.435152 -0.033554 0.099448 -0.194717 -0.133929 0.351640 0.330977 0.163972 0.002112 0.034760 0.045059 -0.073568 -0.014907 -0.101898 -0.034782 -0.449096 0.099088
M365 -0.196019 0.008790 0.202562 -0.002817 -0.008307 0.136196 -0.191308 0.069643 -0.003660 -0.023531 0.326115 0.264807 0.190229 -0.091631 0.018827 -0.190205 -0.027941 0.020173 0.067180 -0.043752 -0.171325 -0.080113 0.185900 0.012660 0.013273 -0.157506 -0.032903 -0.002200 -0.118223 -0.087059 -0.669386 0.168603
M297 0.157246 -0.023152 -0.115177 -0.180975 0.006929 -0.105532 -0.373691 0.221530 -0.026663 0.005848 -0.239247 -0.045792 0.091948 0.113874 0.294422 -0.004904 0.036461 0.135382 0.000255 0.195935 0.106297 -0.023606 -0.099300 0.230413 -0.141890 0.020510 0.451945 0.328792 0.151582 0.011836 0.024737 0.266658
M377 -0.006477 -0.131617 0.214347 0.136640 0.187854 -0.242642 0.020714 0.104699 -0.137014 0.458016 0.191900 -0.348058 -0.138151 0.198309 0.295367 0.139281 0.215058 0.159080 -0.141866 -0.183973 0.126375 -0.116271 -0.154092 0.207003 0.061832 0.077447 -0.002500 -0.061355 -0.009986 -0.058767 -0.048146 0.140763
M251 0.077457 -0.052213 -0.053707 0.092282 0.022927 0.031541 0.069761 0.054703 -0.061908 -0.049695 -0.025378 -0.061930 0.035974 0.032566 0.164134 -0.166474 -0.102905 0.126672 0.121014 0.142189 0.167975 -0.156122 -0.074261 0.084072 -0.228197 0.110913 0.620280 0.521889 0.130980 0.076113 0.020172 0.176601
M146 0.009169 0.226366 -0.059698 0.148564 -0.097692 -0.307172 0.131113 0.140033 0.355872 -0.033072 -0.088350 -0.072163 0.105915 -0.123958 -0.240473 -0.176729 0.219102 0.009323 -0.114451 0.075252 -0.062359 -0.175768 -0.336237 0.116526 -0.001256 0.145930 -0.112636 0.385583 0.112743 0.112986 0.032634 0.297445
M240 -0.042262 0.079761 0.150895 0.138008 -0.014159 0.061550 -0.168983 0.373307 0.179912 -0.190702 -0.455964 -0.122422 0.283548 0.215173 0.077384 0.010513 -0.087349 -0.009632 -0.246909 -0.149278 0.124530 -0.078947 -0.137751 0.126401 -0.047791 0.029832 -0.147917 -0.113087 -0.164733 0.261927 0.062547 0.261822
M096 -0.301938 -0.324284 -0.466113 0.214018 -0.117052 -0.041730 -0.242014 0.096743 0.040428 0.137315 0.074341 0.237085 -0.116864 0.027596 0.048696 0.023320 0.122196 0.035702 -0.101456 -0.007032 -0.102428 0.026885 -0.077257 0.097746 -0.161224 0.203050 0.095737 -0.278276 0.322496 -0.006539 0.035107 0.212801
M177~a 0.041587 -0.019487 -0.003012 0.012417 -0.050671 0.032901 0.042060 -0.005846 0.006801 -0.005025 0.012800 0.026094 0.115378 0.025288 0.014018 0.012008 -0.041385 -0.075909 0.135942 -0.018398 -0.211184 -0.044877 0.105400 0.067117 -0.129367 0.147305 -0.062466 0.032361 -0.266586 -0.108737 -0.862493 0.135556
M328~b 0.087660 -0.098140 0.037798 -0.248995 -0.233378 0.060207 0.014439 0.023662 -0.079627 0.167169 -0.006970 0.159614 0.167326 0.006452 -0.129968 -0.070354 -0.178379 0.131030 0.049818 0.059765 0.084198 -0.182928 -0.642186 0.097063 0.326650 0.094813 -0.149208 0.035708 -0.084403 -0.068406 -0.269645 0.097720
M297~b 0.240487 -0.055928 0.155064 -0.029759 -0.054175 -0.247109 -0.526106 -0.006212 0.047784 -0.035136 0.030593 0.068561 -0.133617 -0.117402 0.437814 0.112101 0.041411 0.136344 -0.083359 0.118817 0.345495 -0.167895 -0.079297 0.099985 0.039413 -0.107013 -0.088879 -0.232118 0.085135 -0.063263 -0.081072 0.174432
M124 0.038950 0.184760 -0.007892 -0.105636 -0.014379 0.066094 0.080287 0.165747 -0.043218 0.038678 0.238875 -0.031625 0.137628 0.289934 -0.072456 -0.011927 0.260129 -0.559484 0.251800 0.025267 0.314168 -0.105302 0.143613 0.126716 0.197030 0.061514 -0.100411 -0.027189 0.075761 -0.158002 0.154300 0.213703
M006 0.235429 0.211514 -0.057449 0.200631 0.048151 -0.219025 0.197444 0.141730 0.272259 -0.605517 -0.070874 0.042836 0.213338 0.046147 0.142926 0.048780 0.125162 0.261258 -0.000575 -0.102499 0.137429 -0.023016 0.010706 0.046996 0.021537 0.038264 -0.075003 -0.076866 -0.048123 0.011777 -0.275420 0.144554
|M351+N14| -0.046416 0.129847 0.119279 -0.311813 -0.295421 -0.025454 -0.071591 0.154599 0.018753 0.065692 0.275685 -0.082038 -0.198034 0.094689 0.249383 -0.282895 -0.191740 0.046196 -0.089566 0.013877 0.140546 0.284425 0.064366 -0.187973 0.113724 0.194838 0.217635 -0.097333 0.031996 0.046489 -0.353773 0.226859
M319 0.262587 -0.207120 -0.047898 -0.187271 -0.152130 -0.039843 -0.046459 0.018407 0.022487 -0.277654 0.077048 -0.074413 0.082555 -0.224122 -0.003110 0.063595 -0.012290 0.109234 0.090524 -0.144412 -0.048132 0.043986 -0.347070 0.135367 0.678361 -0.033564 0.019885 0.008319 0.066799 0.012279 -0.054491 0.140972
M009 0.008440 0.001408 -0.028467 -0.326646 -0.177178 0.354835 0.138773 -0.123868 -0.205031 -0.141059 0.427691 -0.013305 -0.250651 0.193905 0.303227 0.057071 0.111813 0.070338 -0.182961 0.059203 -0.045469 0.181040 -0.053939 0.046486 -0.107029 0.152447 -0.275762 0.040225 0.096207 0.012330 0.102513 0.182316
M001 0.426827 0.168729 0.216167 0.133029 -0.357545 0.037688 -0.180737 -0.085555 0.079830 -0.166247 -0.087501 0.168740 0.024647 0.150848 0.024303 0.066467 0.102091 0.095528 -0.074327 0.343027 0.092021 -0.010304 -0.031847 -0.161955 -0.086300 0.028489 -0.047485 -0.242857 0.071338 -0.066300 -0.327274 0.304176
M320 0.180025 0.401191 0.117833 -0.426160 0.343129 -0.137782 0.238823 0.157095 0.189760 0.085726 0.100002 0.014737 -0.065656 -0.030637 0.086252 -0.113392 -0.063096 -0.086957 0.055736 -0.080663 0.022326 0.263272 -0.000913 -0.119555 -0.021039 -0.127029 0.074770 -0.095540 -0.043759 0.255250 -0.023788 0.330741
M125 0.027533 0.050821 -0.301062 0.172687 0.383946 0.031777 0.001525 -0.247166 -0.255299 0.037202 -0.079736 0.228464 0.237397 0.299273 0.041222 -0.281083 0.112447 -0.106557 0.009483 0.122662 0.380375 0.239477 0.176010 0.052929 0.104606 0.001216 -0.079671 0.006786 0.023223 -0.021217 -0.125890 0.076244
M263~a -0.214147 -0.284389 0.014478 0.054767 0.258016 0.050516 0.158951 -0.005532 0.083925 -0.395461 0.204730 0.151473 0.127110 0.220310 0.173706 -0.085014 -0.215719 0.189965 0.124543 0.137420 0.015222 0.263469 0.083842 0.368328 -0.153240 -0.084474 -0.161296 -0.095007 0.102181 -0.006242 0.055139 0.191594
M032 0.032850 0.173106 0.162522 0.260025 0.061512 0.504122 -0.166558 -0.181304 -0.128329 0.015990 0.082052 -0.018344 -0.181673 -0.093898 -0.080371 -0.035273 -0.382880 -0.002397 0.075176 0.048924 0.217179 -0.050919 -0.364590 -0.014271 0.111386 -0.045382 -0.069628 0.114897 0.035873 0.192089 0.091307 0.257875
M059 -0.484731 0.292500 0.108690 -0.305300 0.250859 0.019955 -0.412201 -0.091142 -0.040251 -0.012940 0.118893 0.106708 -0.050228 0.070179 0.118892 -0.273416 0.064334 0.094118 -0.024696 -0.042323 0.198211 0.258184 -0.107431 -0.133070 -0.111568 -0.151825 -0.025339 -0.021712 0.085206 0.017567 -0.076176 0.093200
M024 -0.013279 0.049785 0.325530 0.003351 0.008084 0.221643 0.169499 0.266256 -0.450015 -0.324336 -0.042468 0.073440 -0.323697 -0.082829 -0.157657 -0.002398 0.017753 0.023917 0.011050 0.222920 -0.089779 0.052941 0.103823 0.060221 -0.093727 0.051788 -0.347895 0.081511 0.187758 -0.008920 0.050906 0.195211
|M218+M288| -0.083464 -0.031452 0.213412 0.008729 0.019242 0.013986 0.015128 0.102782 -0.053512 -0.079445 0.085664 0.128202 -0.117484 -0.223977 -0.134430 -0.282722 0.175753 0.025340 -0.234756 0.028727 -0.345489 -0.055358 0.049871 0.059949 0.137454 0.148214 0.493470 0.194986 0.313399 0.080475 -0.008124 0.311472
M377~e -0.288597 -0.098085 -0.193025 -0.071633 -0.233676 0.011748 -0.050105 0.187407 0.081772 0.236739 -0.036189 -0.533757 0.216475 -0.358206 -0.125482 -0.109757 0.136037 -0.083800 0.199176 -0.057544 -0.061678 0.149391 0.199442 0.161758 0.143404 -0.024001 0.004050 -0.017428 0.008178 -0.018561 0.061178 0.185022
M371~c 0.077457 -0.052213 -0.053707 0.092282 0.022927 0.031541 0.069761 0.054703 -0.061908 -0.049695 -0.025378 -0.061930 0.035974 0.032566 0.164134 -0.166474 -0.102905 0.126672 0.121014 0.142189 0.167975 -0.156122 -0.074261 0.084072 -0.228197 0.110913 0.620280 0.521889 0.130980 0.076113 0.020172 0.176601
M248~c 0.037878 0.063636 0.005445 -0.028968 0.200487 0.050581 0.002892 -0.000754 -0.168753 -0.022306 0.003527 0.095618 0.004967 -0.153021 -0.007387 -0.027588 -0.070123 -0.061052 0.069962 -0.088698 0.062983 -0.090509 -0.015038 -0.071826 -0.065258 -0.008834 0.001736 -0.246436 -0.521809 0.684645 0.093575 0.186272
M222 0.011637 -0.108941 -0.022353 -0.054268 -0.149563 -0.102946 -0.028428 0.072952 -0.063156 0.039224 0.175528 -0.024348 0.103366 -0.155861 0.078613 0.042197 -0.111313 -0.021428 0.051402 -0.221833 -0.373698 0.123957 0.275551 -0.164520 0.519316 -0.151397 -0.160575 0.268472 0.263467 0.173224 -0.009955 0.229960
M057~b 0.086201 -0.002605 -0.550272 -0.071997 -0.115099 0.237293 -0.025123 0.082021 0.015532 0.345641 0.013286 0.115356 -0.154239 -0.092446 0.095294 0.193647 -0.160200 0.150894 -0.102280 -0.178359 -0.068112 -0.112599 -0.229985 0.267976 0.326066 -0.136949 0.019762 -0.031082 0.034036 -0.070760 -0.022880 0.172365
M325 -0.077073 -0.141938 0.052907 -0.406260 -0.069402 0.181252 -0.084241 0.144806 0.069726 0.118810 0.071104 0.033468 -0.013410 -0.163140 -0.037237 -0.546800 -0.080833 0.228311 -0.296391 -0.088694 0.329309 0.013311 0.095785 -0.002607 0.043241 -0.152364 -0.042994 -0.124851 0.073635 -0.045841 -0.233176 0.106845
|M218+X| -0.119217 -0.128294 -0.022675 -0.078632 -0.286379 -0.052184 -0.162721 0.107872 0.017484 -0.139645 0.311817 -0.009458 0.227503 -0.259866 0.067531 0.100701 0.012084 -0.066493 0.175650 -0.005458 -0.060776 0.274276 0.190827 0.251370 0.532735 -0.218800 0.056686 -0.003504 0.022336 -0.052704 0.044531 0.185815
M038~f 0.146111 0.230340 -0.117446 -0.087894 0.028333 -0.124891 -0.002901 0.346611 0.081893 -0.050650 0.071425 0.002243 0.245913 0.232310 0.018155 -0.121400 0.126971 -0.363263 0.151473 -0.015822 0.124155 -0.267437 0.025267 -0.227560 0.135790 0.088257 -0.223099 -0.005768 -0.162834 -0.390498 0.148251 0.189710
M110~a 0.136748 0.071514 0.235700 0.077850 -0.057285 0.219744 -0.187902 -0.015396 0.033633 0.099384 -0.084089 -0.014069 -0.133532 -0.165177 -0.108776 0.176744 -0.119180 0.105562 0.267354 -0.149073 0.034315 0.246971 -0.057874 -0.386715 -0.206583 -0.111736 -0.358054 0.306079 0.267616 0.088189 0.003216 0.174421
M242~b -0.047825 -0.202921 0.016151 -0.192575 -0.169647 0.122097 0.042221 -0.301415 -0.334806 0.140528 0.221451 -0.111287 -0.182229 0.072233 0.049069 -0.048360 -0.059848 0.109097 0.035219 0.082349 0.057270 -0.075976 -0.109914 -0.055252 -0.124145 0.095183 0.150615 -0.088166 -0.396504 0.471935 0.099416 0.232346
|M136+M365| -0.538147 0.155474 0.237802 -0.005734 0.081909 0.204067 -0.192442 0.145839 0.138576 -0.231992 0.290233 0.040365 -0.007546 -0.243238 0.143864 0.107749 -0.074205 0.027144 -0.083654 0.295446 0.288740 0.007483 0.010425 -0.047303 -0.054840 -0.101947 -0.001138 -0.159335 0.150855 -0.015236 -0.132689 0.082962
M029~a 0.395707 0.166957 0.067438 0.083964 0.093926 0.183811 0.201497 0.084447 0.095771 -0.097982 -0.218395 0.023506 0.224483 -0.095311 -0.227396 -0.190809 -0.051519 0.438547 0.073313 -0.059868 0.241799 0.241477 0.177468 -0.164562 0.010203 0.222595 -0.080538 -0.064715 0.139587 -0.031597 0.002587 0.197180
M136~p -0.008312 0.008647 0.364008 -0.190223 -0.093776 -0.186181 -0.182308 -0.049393 0.050634 0.090973 0.143544 0.138739 0.072055 -0.012487 -0.253427 -0.066145 -0.060528 0.196542 0.152037 0.038568 0.061335 -0.231287 -0.546424 -0.047136 0.359200 0.222438 -0.037470 -0.027130 -0.020448 -0.060919 -0.121038 0.054964
M327 -0.243183 -0.227114 -0.063637 -0.293449 0.187445 -0.088417 -0.116156 0.328862 0.318765 -0.370782 0.049736 0.094585 0.103810 0.179032 -0.025835 0.043094 -0.189290 0.218019 0.169756 0.276930 0.019164 0.009655 0.090459 0.136145 -0.107482 -0.041667 -0.055573 -0.116806 0.018729 -0.052756 -0.261154 0.145788
M005 -0.073263 -0.100936 -0.005482 -0.283866 -0.295463 -0.077940 -0.030836 -0.104484 -0.184889 0.127429 0.208649 0.059053 -0.021217 0.095236 0.072125 -0.109924 -0.099029 0.213754 0.052554 0.127767 0.099475 -0.094766 -0.673860 0.091623 0.293649 0.085071 -0.084456 -0.010517 -0.054375 0.003782 -0.012774 0.120656
M003~b 0.027794 -0.026800 0.221102 -0.248808 0.351890 -0.135422 -0.303605 0.237516 -0.042420 0.084518 -0.433615 0.088987 -0.042407 0.173952 0.061361 -0.318778 -0.029815 -0.085314 -0.033994 -0.080353 0.095922 0.248306 0.066335 0.155017 0.039040 -0.064643 -0.158080 -0.050899 0.078356 -0.070262 -0.189355 0.243628
M351~d 0.199812 -0.165306 -0.030654 0.157253 -0.033649 0.147173 -0.468380 0.107191 -0.002563 -0.172728 0.284919 0.356188 -0.307734 0.015232 0.097471 -0.198758 -0.207790 0.122650 -0.103595 0.088275 0.175657 0.000428 -0.188300 0.124527 -0.091989 0.117800 -0.087159 -0.220376 0.159526 -0.013290 0.001306 0.094340
M348 -0.008228 0.022327 0.175816 0.060524 0.245367 -0.038141 0.279231 -0.029554 0.148874 0.090378 0.056313 0.028394 0.123224 0.027301 0.099498 0.102400 -0.154092 -0.134605 -0.167359 0.338466 -0.046376 0.022695 0.075537 -0.411223 0.329797 0.132909 0.211401 -0.257993 0.313072 0.108712 -0.181819 0.106081
M057 -0.021242 -0.078908 -0.020422 -0.520385 0.108781 -0.149359 -0.105645 -0.178109 0.169934 0.220283 -0.236854 0.219969 -0.040578 0.265251 -0.232908 0.364855 0.167194 0.267776 0.033918 0.101289 0.013903 0.015657 0.094582 0.040873 -0.090767 0.177221 0.095870 -0.050075 0.069717 -0.010884 0.025602 0.157225
M206~b 0.100511 -0.011838 0.340619 0.196025 0.010757 -0.176152 -0.302584 0.019481 -0.130640 0.058517 0.291145 0.125974 -0.185248 -0.132305 -0.049611 -0.096485 0.353988 0.092026 -0.343710 0.251201 -0.211375 -0.052907 -0.076355 -0.002666 -0.042298 0.057133 -0.248074 0.206598 0.115331 0.038495 -0.014862 0.186816
M383 -0.393818 -0.029634 0.087905 -0.292347 0.184410 0.226837 -0.142838 0.242469 0.168236 -0.245190 0.362095 -0.001835 -0.010261 -0.161547 -0.082359 -0.045943 -0.041759 0.067148 -0.014687 0.113235 0.047315 -0.125800 0.085357 0.056828 -0.099489 -0.037807 0.002131 -0.039224 -0.030417 -0.057072 -0.503094 0.116270
M072 0.100766 -0.143181 0.119998 0.038579 0.153071 -0.115759 0.220447 -0.020815 0.144803 0.281025 0.091672 -0.023010 0.124855 -0.207037 0.192936 0.210965 -0.290213 -0.086532 -0.201459 0.487809 0.037594 -0.070124 0.077852 -0.281038 0.068348 -0.152234 -0.216863 0.097600 0.218789 0.110518 -0.036511 0.105305
M041~j 0.055121 0.055705 0.244627 0.157336 0.045693 -0.218637 -0.551973 0.124385 -0.172068 0.053888 0.514858 0.047172 -0.135825 -0.008468 -0.050710 -0.065244 0.026520 0.243556 -0.215909 -0.002558 0.102623 -0.174239 -0.135754 0.114751 -0.019327 0.038653 -0.044532 -0.118128 0.084280 -0.039597 -0.052467 0.075495
|M036+N14| 0.417063 0.350538 -0.384803 0.150567 -0.021873 -0.229661 0.210133 0.182852 0.099751 -0.136721 -0.154188 0.290302 -0.278565 -0.037876 0.189339 0.059127 0.011119 0.192067 -0.103494 -0.004090 0.162942 0.123143 0.046275 -0.051187 0.015767 0.090116 -0.030698 -0.083175 -0.098666 -0.141594 0.028908 0.074080
M260~1 0.015148 0.030844 0.153779 0.023951 0.088061 0.031409 -0.241604 -0.156384 0.115188 0.186440 -0.095443 0.282654 -0.141912 -0.025675 -0.057036 -0.089409 -0.200637 -0.368117 0.054107 -0.016791 0.056234 -0.027314 0.255760 0.061918 0.115895 -0.133915 -0.008765 -0.116555 -0.364123 0.436139 0.085331 0.294467
M125~a 0.456852 -0.342121 -0.022185 0.063648 0.219993 -0.075463 -0.134930 -0.205013 0.105364 -0.154882 0.037965 -0.280148 -0.196771 -0.061360 0.219407 0.118082 0.269383 0.093686 0.042910 -0.196170 0.098162 -0.196871 0.022240 0.072057 0.047818 -0.002020 -0.040971 -0.046432 -0.045733 -0.051106 -0.372527 0.102142
M376 0.180328 -0.166907 0.107919 -0.237983 0.162289 -0.039760 -0.252710 -0.154985 0.173375 -0.422841 0.103007 -0.175517 -0.254895 -0.195636 0.224643 0.049411 0.193877 0.173301 -0.167267 0.057589 0.366158 -0.117100 -0.112017 0.060564 0.237538 0.003622 0.006877 -0.103249 0.091675 0.017149 0.078479 0.064822
M310 -0.019474 -0.127842 -0.075443 -0.127803 0.039030 0.059940 0.115920 -0.192280 0.210340 -0.284662 -0.222551 -0.078374 -0.187544 -0.111902 0.164538 -0.233735 0.160383 0.192386 -0.170614 -0.119270 0.574086 0.278601 0.117881 0.039088 0.192703 0.027152 -0.045553 -0.071682 0.067235 0.017351 -0.111089 0.066683
M149~a 0.174806 0.041449 -0.073955 -0.148860 -0.394418 -0.200033 0.025019 -0.241294 0.003600 -0.071105 -0.342252 0.009952 0.008980 0.133352 0.109877 0.086466 0.047555 0.043855 0.051754 0.263098 0.012311 0.051623 0.188735 -0.056440 0.039672 0.091967 -0.018924 -0.116222 -0.154243 -0.040976 -0.577042 0.160937
M381 0.358604 -0.325868 -0.330006 -0.001141 0.028143 0.118311 -0.227684 -0.340466 0.106607 -0.218363 -0.002561 -0.139691 -0.165144 -0.178518 0.178408 -0.046209 0.010095 0.081497 -0.058676 -0.149716 0.029083 -0.289594 0.097764 -0.117537 0.045687 -0.100253 -0.245356 0.056725 0.116407 0.004694 -0.222682 0.150629
M039~b 0.041587 -0.019487 -0.003012 0.012417 -0.050671 0.032901 0.042060 -0.005846 0.006801 -0.005025 0.012800 0.026094 0.115378 0.025288 0.014018 0.012008 -0.041385 -0.075909 0.135942 -0.018398 -0.211184 -0.044877 0.105400 0.067117 -0.129367 0.147305 -0.062466 0.032361 -0.266586 -0.108737 -0.862493 0.135556
|M175+M288| 0.395481 -0.054543 0.243043 0.068165 0.311114 -0.115019 0.074481 -0.079532 0.151288 0.309497 0.066509 0.083344 0.056581 -0.129731 0.048573 0.084498 -0.100668 -0.127889 0.045321 0.174771 -0.030292 0.181187 -0.226316 -0.294022 -0.115973 -0.409006 0.039904 -0.149841 0.222915 0.019860 -0.056819 0.082678
|M305+M111~c| -0.244903 0.093254 -0.176313 -0.104043 0.074951 -0.035682 0.134910 0.384131 -0.381512 -0.138250 -0.323517 -0.278878 -0.395281 -0.080294 -0.183264 0.083141 0.043095 0.034589 0.169000 0.294913 0.009553 -0.135562 0.000272 -0.025099 0.013832 -0.137987 -0.045237 -0.051569 0.029783 -0.025699 -0.048654 0.030575
M264~a 0.125917 -0.102996 -0.128894 -0.170357 -0.290761 0.263331 0.303771 -0.044495 0.039505 -0.047398 0.038413 0.265025 0.199718 -0.027874 0.202313 -0.180833 0.140419 0.031803 0.007372 -0.317286 -0.007972 -0.400754 -0.009457 -0.147651 -0.111208 -0.380599 0.077414 -0.053999 0.131066 -0.017861 -0.006447 0.047559
|M305+M324~c| -0.244903 0.093254 -0.176313 -0.104043 0.074951 -0.035682 0.134910 0.384131 -0.381512 -0.138250 -0.323517 -0.278878 -0.395281 -0.080294 -0.183264 0.083141 0.043095 0.034589 0.169000 0.294913 0.009553 -0.135562 0.000272 -0.025099 0.013832 -0.137987 -0.045237 -0.051569 0.029783 -0.025699 -0.048654 0.030575
M302~t 0.078092 -0.084042 -0.040638 0.200549 0.160033 0.085419 0.177889 -0.137688 0.163738 0.345732 -0.016618 -0.065165 0.034242 -0.187417 0.137785 0.220905 -0.317166 -0.148386 -0.287040 0.509165 0.042172 -0.069430 -0.000922 -0.100295 0.129863 -0.266016 0.049979 -0.119454 0.079884 -0.001372 -0.065627 0.102541
M340 -0.075569 -0.065299 0.061004 0.040646 -0.038902 -0.212578 0.150446 0.118026 0.192199 0.232345 -0.094997 -0.077782 -0.144824 -0.226802 -0.253268 -0.485917 0.161101 -0.032159 -0.294490 -0.072117 0.434942 0.239445 0.090520 0.034866 0.009014 0.021836 -0.062348 -0.002671 0.013487 0.014115 -0.170292 0.118528
M372 -0.297358 -0.046911 -0.537340 0.286946 -0.237903 0.066309 -0.116575 0.283600 0.091960 0.041225 0.172634 0.254637 -0.169282 -0.003190 0.086041 0.184148 -0.037722 -0.013235 0.104833 -0.044234 0.022596 0.128627 -0.092924 -0.079948 -0.076899 0.108399 0.078268 -0.286165 0.203837 0.017569 -0.069405 0.097626
M354 -0.045240 -0.088720 -0.115134 -0.013935 -0.073581 -0.107251 -0.070354 -0.048660 -0.047895 0.064021 0.067956 -0.058799 -0.083305 -0.064394 0.173994 0.078676 -0.163182 -0.010224 -0.058029 -0.055159 -0.062628 -0.109927 0.118220 -0.336995 0.008399 0.093868 -0.603852 0.479907 0.232395 0.193843 0.010407 0.134789
M153 -0.038689 -0.129191 0.006443 -0.355935 0.233771 0.026878 0.113669 0.006108 0.140274 -0.066741 0.220490 -0.058488 0.303252 -0.239866 -0.184495 0.280902 -0.043284 -0.118964 -0.513856 0.202927 0.084373 0.166171 -0.119946 -0.109875 -0.109412 -0.141978 0.003566 -0.009875 0.018855 0.036264 -0.005370 0.178214
M387~c 0.380294 0.066714 0.143844 -0.086971 -0.303360 0.097234 0.089205 0.005401 -0.327161 0.060596 -0.217375 -0.035103 0.011067 0.210031 -0.187755 -0.055935 -0.017322 -0.159401 -0.239672 0.096962 0.333897 0.349227 0.074382 -0.201227 -0.024548 -0.063123 -0.031402 0.050833 0.045909 -0.053380 -0.201026 0.214114
M266~b -0.089280 -0.146027 -0.098579 -0.027978 -0.133622 0.212776 0.325743 0.130604 -0.072563 0.036221 -0.168761 0.226188 0.001298 0.004757 0.160410 -0.093993 0.164237 -0.113842 0.146859 -0.298084 -0.056834 -0.304425 -0.083625 -0.230198 -0.123498 -0.282630 0.317761 -0.063585 0.324773 0.059542 -0.059308 0.184852
M228~b -0.160357 0.057014 -0.211456 -0.306490 0.353244 0.048387 -0.024485 -0.032917 -0.009405 -0.059939 0.190778 0.127499 0.250657 -0.204176 -0.243733 0.290685 -0.058188 0.103323 -0.017303 -0.051516 0.107595 -0.009778 0.050294 -0.084822 -0.108036 0.077217 0.022445 -0.138095 -0.325802 0.426572 0.083213 0.167843
|M296+M296| -0.060920 0.326734 0.030129 -0.275343 0.192837 -0.078761 -0.447218 0.232491 0.038194 -0.085793 -0.291626 -0.125998 0.167512 0.141454 0.269698 -0.050130 -0.063666 -0.228474 -0.050893 -0.071799 0.131493 -0.114399 0.014846 0.007811 -0.127403 0.056509 0.153720 0.194714 -0.032808 0.159445 0.068475 0.274759
M305 0.054882 0.257252 0.114255 -0.167919 -0.028928 0.100794 -0.508348 0.040443 -0.023355 0.102902 0.342042 -0.013612 0.012293 -0.113632 -0.017731 -0.126511 -0.065764 0.188271 -0.180452 0.037079 0.087850 -0.358038 0.098409 0.057152 -0.199681 -0.196172 0.048654 0.024788 -0.074467 -0.159605 -0.311757 0.169401
M128~d 0.068075 0.098550 0.147279 0.216718 0.152152 -0.010275 -0.057235 0.049716 -0.265075 0.066861 0.052631 -0.007417 -0.026518 -0.212732 0.186933 0.085683 -0.109279 -0.060470 0.077704 -0.170918 0.123220 -0.115666 0.073794 -0.216447 -0.015972 0.118998 -0.370396 0.014479 -0.290557 0.509807 0.117584 0.283746
M387~ee 0.100187 0.180978 0.014295 -0.162387 -0.139990 -0.098954 -0.181542 0.070899 -0.144452 -0.161211 0.097288 -0.169388 0.107079 0.078790 -0.093997 0.285844 -0.192877 -0.268042 -0.169406 -0.304183 0.035786 0.333220 -0.243759 -0.116319 -0.129039 -0.366824 0.164458 0.063134 0.048625 -0.052047 -0.164307 0.200455
M057~a -0.218735 -0.143497 -0.375928 -0.238188 0.054117 0.219498 -0.101577 0.098990 0.182072 0.005311 0.348244 0.102906 0.354951 -0.045826 -0.230238 0.333243 0.092549 -0.010362 0.136608 0.121820 0.121673 0.036719 0.147066 -0.078872 0.076843 0.167850 0.054639 -0.208160 0.152434 0.021097 0.011156 0.121306
M066~a 0.119369 0.228912 0.172025 -0.115022 -0.076703 -0.456904 -0.160083 -0.176900 0.116167 -0.055731 -0.093003 0.262279 0.000224 0.194043 0.170984 0.183845 -0.284259 -0.294278 -0.006977 0.290683 0.283817 0.052091 0.197642 0.011106 -0.025566 -0.011570 -0.001111 -0.081227 0.059199 -0.046357 0.011078 0.191503
M101 0.257326 0.245761 -0.146191 -0.042735 0.269153 -0.063783 0.095403 0.224860 0.055569 0.138644 0.075456 0.266480 -0.263428 -0.009589 0.243445 0.109444 -0.255963 -0.008076 -0.077820 0.100751 0.062340 0.009108 0.025389 0.121048 -0.023242 0.141551 0.456470 0.230510 0.191612 0.012570 0.004234 0.232902
M263~1 -0.264704 -0.202262 0.066600 -0.016018 0.097374 -0.017346 0.460026 -0.209437 0.219129 -0.134118 0.271128 -0.363090 -0.040555 0.377915 0.032584 -0.099561 -0.118397 0.122482 0.238770 -0.014568 -0.134614 0.099365 -0.002330 0.084643 -0.063896 -0.112481 -0.066817 -0.025004 -0.010268 0.021279 0.071731 0.208174
M033 -0.374131 0.156096 -0.029477 0.057625 -0.029496 0.028838 0.326283 0.081704 -0.061637 -0.129585 0.130688 0.175691 -0.193836 -0.056300 0.303312 0.190087 -0.074816 0.174926 -0.116373 -0.156838 0.114426 -0.200648 0.173206 0.021880 -0.209479 0.073732 -0.236659 0.171896 0.294581 0.058583 -0.154300 0.268623
M317~a 0.043638 -0.149324 0.142738 -0.233020 -0.156999 -0.152611 0.123032 -0.104237 -0.061310 0.340528 0.419520 -0.036622 -0.070593 0.001224 0.292766 0.054321 -0.207315 0.105279 -0.206552 0.479414 0.057822 0.060877 -0.126572 -0.117061 0.018833 -0.115147 0.084302 -0.175856 0.061342 0.059263 -0.057702 0.104370
M024~1 0.332039 0.272890 0.254050 -0.149552 -0.166983 0.179139 0.462265 -0.081398 -0.229661 -0.269230 0.050424 0.094938 -0.188547 0.094437 -0.193407 -0.078441 0.238683 0.068531 -0.205401 0.159853 -0.182591 0.147894 0.018472 0.034453 -0.072557 0.066070 -0.102830 0.024864 0.082917 0.021309 0.012699 0.093870
M004 -0.416825 -0.250207 0.165778 -0.134269 0.097848 -0.212857 -0.055810 -0.174859 -0.440775 -0.029021 -0.135137 0.124762 0.223324 -0.170856 0.171744 0.091986 0.234264 -0.081491 -0.066205 -0.128322 -0.142430 0.100593 0.121321 0.227632 0.127750 -0.110437 0.069822 0.007582 0.074853 -0.088037 0.064042 0.231042
M102~d 0.071579 0.370953 -0.036226 -0.176713 0.048730 0.261881 -0.039067 0.104596 0.113538 -0.037615 -0.068377 0.036539 0.086348 0.042386 -0.102235 -0.084303 0.536285 -0.139205 -0.237414 0.210597 -0.209651 0.063665 -0.106409 0.142569 -0.083543 0.116834 -0.071254 -0.006197 -0.148823 0.319160 0.090622 0.221042
M318~a3 0.044036 -0.063294 -0.377235 0.202246 0.227183 -0.126493 -0.141071 -0.246560 -0.223227 0.070285 0.077657 0.023485 0.146110 0.063517 0.136045 -0.083529 -0.126130 0.033720 0.045776 0.118690 0.060862 -0.021671 0.181253 -0.247553 0.022053 0.048611 -0.453541 0.354398 0.190612 0.149738 0.013145 0.160339
M223 0.194267 -0.047521 0.036443 0.021071 -0.270290 -0.235221 0.221616 0.388330 -0.018804 -0.263512 0.237153 -0.073344 0.305637 -0.007457 0.239738 -0.040592 -0.150276 0.272092 0.093044 -0.111200 -0.112446 0.199344 -0.038679 0.264597 0.083743 -0.026078 0.170160 0.042839 0.073990 0.012092 0.059490 0.238233
M386~a 0.120281 0.047524 0.334383 0.129638 -0.155945 0.390807 0.000216 -0.093986 0.009674 0.207218 -0.146562 0.006069 0.048017 -0.228862 -0.151249 0.380775 0.085108 0.290457 0.284090 -0.103878 0.237104 0.004530 0.172666 0.132971 -0.102241 0.160756 0.086578 0.052909 0.103600 -0.037413 0.055618 0.181703
M230 0.078197 -0.026712 -0.127333 0.124870 0.190926 0.122210 -0.031909 -0.026605 -0.345050 0.014112 0.074767 0.116777 0.199708 -0.143647 -0.093857 -0.043807 0.010039 -0.017941 0.240415 -0.020376 0.053858 0.032538 0.172854 0.064058 0.152884 -0.105627 -0.012493 -0.131344 -0.390409 0.549664 0.115275 0.286644
M295~y -0.101694 -0.053560 0.108516 -0.157194 0.030162 -0.373549 -0.161134 0.151344 0.034552 -0.294565 -0.003966 0.077917 0.189024 0.112469 0.104130 0.043482 -0.152338 0.067263 0.193907 -0.037013 -0.246147 0.266674 0.238205 0.329500 0.342373 -0.234575 0.014289 0.019974 0.010180 -0.068026 0.081222 0.240689
|M106+M288| 0.174885 0.123619 0.115693 -0.121775 -0.016818 -0.105570 -0.039261 0.199883 -0.008571 -0.013852 0.155753 -0.085514 -0.070082 -0.058331 0.175662 -0.080961 -0.213321 -0.045133 0.299673 -0.115741 -0.076320 0.255807 -0.045332 -0.059207 0.087200 -0.124174 0.572964 0.362080 0.118550 0.031664 0.012715 0.265026
M246~ca 0.136651 0.246743 0.467856 0.505742 0.040712 0.038089 -0.057389 0.143433 -0.244640 0.112343 0.030534 -0.136106 0.071132 -0.036943 0.159163 0.151074 0.058228 -0.024973 0.148957 -0.155434 0.285631 0.007220 0.043546 0.228377 0.065160 0.114876 -0.083750 -0.197693 0.042081 -0.005569 0.046879 0.136774
M005~a 0.097328 -0.150271 -0.139676 -0.053827 0.208667 -0.143018 -0.464170 -0.152838 0.050574 -0.266442 0.120653 0.263484 -0.019519 0.060163 0.085812 0.065275 0.159850 0.106273 0.118532 -0.000239 0.266022 0.057387 -0.411556 0.062228 0.136649 -0.041412 -0.074408 -0.139245 0.064924 -0.063585 -0.285624 0.190302
M175 -0.531166 0.182131 0.195971 0.064373 -0.052910 0.122647 0.001326 -0.488773 0.208108 -0.125409 -0.226887 0.005785 -0.188019 -0.020012 -0.110874 -0.085363 -0.219867 0.026631 0.111256 0.021907 0.077478 -0.081080 -0.205955 0.079497 0.245400 0.017449 0.084726 0.081293 -0.039141 -0.082669 0.022992 0.114416
M250~ba 0.036034 0.364853 -0.011807 -0.010334 -0.122392 -0.066784 0.131683 0.045571 -0.021638 0.248092 0.025543 -0.168985 -0.083983 -0.248797 0.086607 -0.039625 -0.188493 -0.194477 -0.021885 -0.286152 0.136440 0.183051 0.281939 0.292155 0.353528 -0.226414 0.113103 0.002015 0.048947 -0.097428 0.018762 0.288562
M044 0.099012 0.443758 -0.093821 0.038829 0.095950 -0.124858 -0.070878 -0.071456 0.385570 0.003181 0.038869 0.306752 -0.466804 0.027682 0.071865 0.046349 -0.407104 -0.189634 -0.038142 -0.077897 -0.057462 0.043775 0.101801 0.187966 0.096165 -0.081500 0.019149 0.010475 0.000163 -0.010905 0.011685 0.031948
|M218+M099| 0.046645 -0.108800 -0.046738 -0.092178 -0.022328 0.038110 -0.088551 -0.099163 -0.006001 0.152910 0.001741 0.013385 0.057231 -0.005945 -0.029119 0.290871 -0.046254 0.253737 0.078176 -0.038071 0.006923 -0.105262 0.270469 -0.301460 0.025995 0.152951 -0.542943 0.391545 0.243574 0.155141 0.041481 0.191811
|M327+M044~c| -0.032833 0.030764 0.088441 0.084291 0.092681 0.012267 0.004832 0.090727 0.010148 -0.022311 -0.012550 -0.011586 -0.082765 0.144267 -0.110963 -0.073564 -0.012055 -0.084627 -0.029677 -0.158157 -0.254339 0.021246 0.028978 -0.488509 0.409049 0.392059 0.294902 -0.219448 0.311346 0.134458 -0.078349 0.068138
M338 -0.024100 -0.176409 -0.564907 0.392360 0.297741 -0.022429 0.076950 -0.283606 -0.085975 0.019598 0.040254 0.180543 0.191128 0.260050 -0.010281 -0.143283 -0.005890 0.057159 0.001774 0.267342 0.147484 -0.045369 0.104664 -0.025613 0.052969 -0.014059 -0.049245 -0.011561 -0.038726 -0.030123 0.032932 0.183553
M320~f 0.273644 0.108365 -0.101493 -0.182334 -0.504154 -0.305929 -0.014860 -0.219425 -0.081500 0.051511 -0.393258 0.003230 -0.022003 0.192822 0.068735 0.163674 0.054448 0.069775 -0.002979 0.408458 0.045780 0.018853 0.124421 -0.108224 0.067690 -0.050475 0.008734 -0.138654 -0.029481 0.025919 -0.021063 0.088443
M139 0.087940 0.185280 0.062479 0.020455 0.223378 0.145840 -0.090204 -0.137708 -0.145272 0.058870 0.002852 0.242096 0.171795 -0.015164 -0.078606 -0.232627 0.111042 0.021115 0.101731 0.111266 -0.088199 -0.035122 -0.575608 0.123539 0.082244 0.000575 -0.164694 0.012836 -0.014505 -0.106477 -0.443581 0.220574
M295~a -0.034849 -0.120411 -0.092757 -0.098751 -0.160051 -0.136656 -0.043854 0.033651 -0.056738 0.036705 0.136433 -0.118566 0.065134 -0.215641 0.151394 0.124649 -0.161293 -0.011070 0.047589 -0.140189 -0.256744 0.118724 0.247006 -0.057152 0.341209 -0.126677 -0.404371 0.449336 0.174866 0.171394 0.029127 0.202746
|M157+X| -0.189219 -0.216492 0.023495 0.049027 -0.031737 -0.009393 0.234021 -0.119468 -0.128799 0.126988 -0.297389 0.189637 0.007617 -0.037776 0.080633 0.088960 0.111055 -0.154718 -0.086865 -0.305703 -0.202048 -0.320200 0.178745 0.170222 -0.151357 0.006425 0.005893 -0.035088 -0.042931 -0.088898 -0.507007 0.196604
|M157+M131| 0.290878 -0.238956 0.024865 -0.069873 -0.178407 0.235760 -0.149384 0.239660 0.335077 0.018660 0.171990 -0.095171 0.224836 0.239606 0.107425 0.023572 0.115354 -0.443493 -0.063463 0.337033 0.181048 -0.073942 0.010606 0.094725 0.129390 0.015012 -0.037460 -0.085012 0.019514 -0.014207 0.017503 0.113470
M157~a -0.000680 0.033261 0.321294 0.128816 0.072917 -0.136607 -0.268722 0.230347 -0.078656 -0.052346 0.366649 0.181470 -0.005111 0.056032 0.010881 -0.082940 0.035612 0.262862 -0.108244 0.103503 0.206720 -0.232336 -0.435835 -0.034118 0.268770 0.156473 -0.042681 -0.152523 0.145144 -0.024660 0.078519 0.114446
M343 0.041587 -0.019487 -0.003012 0.012417 -0.050671 0.032901 0.042060 -0.005846 0.006801 -0.005025 0.012800 0.026094 0.115378 0.025288 0.014018 0.012008 -0.041385 -0.075909 0.135942 -0.018398 -0.211184 -0.044877 0.105400 0.067117 -0.129367 0.147305 -0.062466 0.032361 -0.266586 -0.108737 -0.862493 0.135556
|M218+M101| 0.088661 0.080720 0.054915 -0.072552 -0.085655 0.005342 0.153032 -0.065865 -0.129224 -0.060531 0.062201 -0.021392 -0.182507 0.058985 0.053705 0.035034 -0.054100 0.002025 -0.112014 -0.074742 -0.200518 -0.039883 0.127970 -0.492820 0.162133 0.268564 -0.407558 0.325644 0.336578 0.219795 -0.019549 0.148271
M352~c 0.127382 -0.116644 -0.157532 0.275403 0.400202 -0.049838 0.145876 -0.175029 -0.032212 0.233754 0.089694 0.060790 0.317828 -0.027119 0.078577 0.013628 -0.142465 0.003526 -0.077067 0.571146 0.153051 0.026561 0.109289 -0.143524 0.082360 -0.189152 0.024108 -0.047354 0.119943 0.025319 -0.035923 0.092649
M057~a1 0.087945 -0.075427 0.205926 0.091076 0.222160 -0.054903 0.228548 0.055159 0.155274 0.214640 0.048468 -0.004732 0.095303 -0.074438 0.038876 0.115390 -0.205727 -0.125609 -0.177710 0.368789 -0.094959 -0.007237 0.041355 -0.417367 0.306561 0.060974 0.222651 -0.236485 0.295338 0.104440 -0.085332 0.083411
M391 0.218564 -0.027555 -0.094451 0.115605 -0.010144 0.134885 -0.005886 -0.220662 -0.081032 0.244263 -0.311664 0.131244 0.209290 0.090318 0.056526 0.044009 -0.082480 -0.057443 -0.058491 0.498011 0.131675 -0.049899 -0.351000 0.068468 0.388067 -0.080391 -0.095704 -0.062455 0.006544 -0.006587 -0.122551 0.173204
M038~a2 0.044389 -0.020758 -0.003202 0.013189 -0.053797 0.034856 0.044512 -0.006173 0.007167 -0.005294 0.013456 0.027345 0.120837 0.026440 0.014613 0.012504 -0.043034 -0.078745 0.140795 -0.019018 -0.217704 -0.046239 0.108309 0.068842 -0.132192 0.150353 -0.063301 0.032731 -0.268326 -0.108872 -0.856570 0.132825
M387~ef 0.188166 -0.171984 -0.190510 -0.138105 -0.142250 0.334537 0.174055 -0.105993 -0.054184 0.060831 -0.019448 0.193355 0.089274 0.080587 0.150589 -0.142321 0.152082 -0.180943 0.078475 -0.373171 0.053029 -0.377178 -0.073821 -0.113074 -0.168401 -0.322634 0.206991 0.027528 0.186543 -0.053247 0.002874 0.160873
M057~a4 0.140059 0.310777 0.207224 -0.272778 -0.014603 0.224940 0.404599 -0.225428 -0.139665 -0.164164 -0.049087 0.046289 -0.172790 0.236100 -0.002750 0.133391 0.224046 0.214685 0.008671 -0.048527 -0.054310 0.105754 0.107623 -0.245890 0.149256 0.274167 0.166442 -0.055369 0.136109 0.042495 -0.018481 0.113723
M246~g 0.079424 -0.064044 -0.323098 0.291575 0.251627 0.029256 -0.012762 -0.130342 -0.205782 -0.012793 0.018715 0.013708 0.200015 0.140031 0.093729 -0.243207 -0.030866 0.156362 0.151087 0.232158 0.209488 -0.063843 0.032583 0.028255 -0.130059 0.051527 0.409546 0.404823 0.109866 0.056014 0.013094 0.172493
M207~a 0.041587 -0.019487 -0.003012 0.012417 -0.050671 0.032901 0.042060 -0.005846 0.006801 -0.005025 0.012800 0.026094 0.115378 0.025288 0.014018 0.012008 -0.041385 -0.075909 0.135942 -0.018398 -0.211184 -0.044877 0.105400 0.067117 -0.129367 0.147305 -0.062466 0.032361 -0.266586 -0.108737 -0.862493 0.135556
M323 0.266849 -0.431698 -0.165757 -0.179718 0.233289 0.069741 -0.034776 -0.048166 0.297089 -0.457206 0.108379 -0.157510 -0.022113 -0.274134 0.078903 0.195157 0.140824 0.067910 0.025885 0.077438 0.109047 -0.018912 0.051387 -0.008171 0.087468 0.012695 -0.009855 -0.051580 -0.034497 -0.041353 -0.313800 0.089586
M128 0.205112 0.205818 -0.186989 0.164838 -0.111156 -0.170136 0.284770 0.061721 0.103441 -0.058471 -0.190243 0.034705 0.114480 0.159276 -0.083999 -0.097292 -0.089879 0.292536 -0.039082 0.041324 0.189248 0.146700 0.088510 -0.105340 -0.004828 -0.061911 -0.057654 -0.262573 -0.393839 0.376149 -0.072470 0.263787
M207 -0.155419 0.281671 -0.132347 -0.267387 0.011811 0.178124 0.053873 -0.141896 -0.094029 -0.193384 0.036733 0.071792 0.259914 0.326160 0.254699 0.102212 0.218789 -0.444584 -0.140106 -0.161282 0.302855 -0.138780 -0.104366 -0.028852 0.028678 -0.022156 -0.004762 -0.003492 0.055237 -0.113261 -0.027021 0.136989
|M175+M131~d| -0.003079 0.104756 0.036338 -0.047384 -0.012917 0.018761 -0.023405 0.023150 0.061258 0.016155 0.050480 0.082572 0.094461 0.022094 0.001861 -0.055614 -0.068219 -0.091168 0.144658 -0.052196 -0.223702 -0.045957 0.057038 0.095142 -0.110888 0.104158 -0.053123 0.035100 -0.220167 -0.076415 -0.868488 0.145265
|M157~a+M131| 0.403754 -0.272670 -0.104645 0.022021 0.168338 -0.028804 -0.127894 -0.196962 0.197360 -0.516203 -0.040259 -0.193168 -0.247072 -0.206268 0.168911 0.120186 0.276952 0.084155 -0.001249 -0.087192 0.201663 -0.062814 -0.003737 0.016701 0.178580 -0.011745 0.009673 -0.047358 0.031921 0.020001 -0.053015 0.032770
M048~c 0.067143 -0.151511 -0.261596 0.089432 -0.009383 -0.214916 -0.103911 -0.101524 -0.163062 0.029258 -0.293091 -0.117680 0.237104 0.053892 0.089156 0.120235 0.284556 0.114755 0.281105 0.098888 0.046903 -0.001664 0.207952 -0.140049 0.157212 0.065697 0.063970 -0.355311 -0.000962 0.327594 0.022135 0.323762
M217 0.250736 0.049575 -0.138302 0.064919 -0.134378 -0.074302 -0.001934 -0.095475 0.348470 -0.218606 -0.070638 -0.259339 -0.040996 -0.212586 -0.132526 0.013449 0.494964 -0.347190 -0.067898 -0.199108 0.015355 -0.065487 -0.119827 -0.046141 -0.067969 0.097271 0.061968 -0.067427 0.126969 0.037731 -0.218480 0.232398
M097~h 0.160392 -0.051703 0.051030 0.139942 0.246684 0.287005 -0.157440 0.052135 -0.170337 0.003996 -0.151791 0.157681 0.091376 -0.000025 0.075157 -0.152218 0.261682 -0.100405 -0.227305 0.277414 -0.367506 0.281629 -0.037372 0.349201 0.152890 -0.081006 0.047408 0.152776 0.064997 -0.003218 0.052303 0.239135
M203~c -0.539291 0.149518 0.306503 -0.021739 0.202826 0.109350 -0.007536 -0.213025 -0.198129 -0.127547 0.010421 -0.023239 0.140308 0.011171 0.292773 -0.085997 0.022134 -0.200540 -0.132637 -0.110328 0.041679 -0.192649 -0.108116 -0.112043 0.050071 0.178934 0.238785 -0.091724 0.169422 -0.064443 -0.164124 0.177349
M305~h 0.403754 -0.272670 -0.104645 0.022021 0.168338 -0.028804 -0.127894 -0.196962 0.197360 -0.516203 -0.040259 -0.193168 -0.247072 -0.206268 0.168911 0.120186 0.276952 0.084155 -0.001249 -0.087192 0.201663 -0.062814 -0.003737 0.016701 0.178580 -0.011745 0.009673 -0.047358 0.031921 0.020001 -0.053015 0.032770
M038~e -0.445464 0.086774 0.166125 0.059620 0.063128 0.054210 0.246210 -0.416961 -0.119233 0.038512 -0.306975 0.089729 0.114807 -0.162522 0.291660 0.123639 -0.029440 -0.225844 -0.276967 -0.002709 -0.038443 -0.227250 0.028802 -0.084812 0.060974 -0.142905 0.112958 -0.113255 0.099731 -0.047939 -0.011305 0.108246
M311~b -0.226158 0.240307 -0.099617 -0.096640 0.023300 0.052170 0.163195 -0.251937 -0.006295 -0.315213 0.033926 0.103534 0.155798 0.239538 0.207865 0.004305 0.101705 -0.049952 0.066003 0.010975 0.104748 0.058140 0.138589 0.101056 -0.037103 0.167453 -0.084986 -0.048424 -0.061550 -0.037622 -0.646269 0.139233
M146~d 0.024967 -0.078260 -0.204142 -0.131290 0.073489 -0.015541 0.089156 0.214580 -0.200832 -0.290968 -0.313806 -0.185500 -0.280856 -0.158899 -0.113961 0.093683 0.082367 0.109245 0.225134 0.195672 0.096084 -0.250667 -0.346526 0.073439 0.256015 -0.015525 -0.124176 -0.013127 -0.057469 -0.062729 -0.295220 0.099659
M321~b 0.015585 -0.023258 -0.025049 -0.110476 -0.080706 0.024500 0.053147 0.026148 -0.009260 0.093637 -0.101246 0.179250 0.152127 -0.029013 -0.110402 -0.042875 -0.104901 0.135238 0.118033 0.059407 0.133715 -0.222250 -0.731503 0.122991 0.420053 0.074614 -0.163136 0.060928 -0.026142 -0.050229 -0.021244 0.079169
M374~c 0.289765 -0.279587 -0.253469 0.162951 0.231984 0.076668 -0.094119 -0.178749 0.027638 -0.104351 0.053825 -0.051707 0.034654 0.008076 0.109774 0.030295 0.152426 -0.020774 0.069816 0.119104 0.338558 -0.230609 -0.385763 0.102394 0.455346 0.005647 -0.096830 -0.003897 0.005181 -0.073377 -0.044383 0.145387
M323~a -0.337644 0.337139 -0.130047 -0.139591 0.075403 0.040679 0.180538 -0.330447 -0.014340 -0.415446 0.033980 0.115053 0.106489 0.296908 0.264590 -0.004780 0.171703 -0.000066 -0.031120 0.030728 0.324433 0.116734 0.092304 0.075834 0.063856 0.094056 -0.058501 -0.092833 0.151444 0.045101 -0.105589 0.066757
M056~f 0.148711 -0.035800 0.135873 -0.022046 0.140377 0.107863 -0.113616 -0.039066 0.126262 0.003758 -0.031254 0.026866 -0.083340 0.049793 -0.182986 0.025579 0.018547 0.076800 -0.019913 -0.111255 -0.186795 0.015693 0.048864 -0.499085 0.352380 0.410067 0.290704 -0.232036 0.295314 0.057760 -0.097320 0.119755
|M054+M384~i+M054~i| -0.065768 -0.039045 -0.156047 -0.042454 -0.385293 0.088078 0.135776 -0.181589 0.089011 -0.111089 -0.063734 0.179537 0.188213 -0.149338 0.250761 0.035952 -0.010606 -0.154262 0.155445 0.072360 -0.220843 -0.156038 0.170486 -0.055085 -0.201602 0.006357 -0.066857 0.027187 -0.375764 -0.282550 -0.380876 0.106770
M111~e 0.041587 -0.019487 -0.003012 0.012417 -0.050671 0.032901 0.042060 -0.005846 0.006801 -0.005025 0.012800 0.026094 0.115378 0.025288 0.014018 0.012008 -0.041385 -0.075909 0.135942 -0.018398 -0.211184 -0.044877 0.105400 0.067117 -0.129367 0.147305 -0.062466 0.032361 -0.266586 -0.108737 -0.862493 0.135556
M075~g -0.015938 0.048912 0.176969 -0.019076 0.009805 -0.120070 -0.246228 0.092969 -0.081425 0.110532 0.229215 0.098331 0.097398 -0.012300 -0.180313 -0.040280 -0.019715 0.195597 -0.007868 0.007917 0.076949 -0.268139 -0.587478 -0.030177 0.471626 0.185988 -0.037476 -0.068949 0.107647 -0.021310 -0.083130 0.110875
M387~l -0.210213 -0.027110 0.080298 -0.079175 0.214887 0.117359 -0.376260 -0.048901 -0.052093 0.028688 0.238970 0.187664 -0.035011 -0.083219 -0.172303 -0.606552 -0.030350 0.164458 -0.164912 -0.000431 0.265528 -0.055550 0.139537 -0.010740 -0.003256 -0.118339 -0.049302 -0.107665 0.053772 -0.054956 -0.193715 0.130483
|M195+M038| 0.239139 -0.096944 -0.073320 0.009883 0.072439 -0.230351 -0.089575 -0.081798 -0.015044 -0.087797 -0.179164 0.079195 0.072741 0.000247 -0.097923 0.071253 -0.366721 -0.281423 -0.109328 -0.167768 -0.237573 0.045040 -0.080465 0.206616 -0.129478 0.072497 -0.115971 0.017311 -0.099057 -0.094168 -0.587189 0.167321
M056~e -0.032833 0.030764 0.088441 0.084291 0.092681 0.012267 0.004832 0.090727 0.010148 -0.022311 -0.012550 -0.011586 -0.082765 0.144267 -0.110963 -0.073564 -0.012055 -0.084627 -0.029677 -0.158157 -0.254339 0.021246 0.028978 -0.488509 0.409049 0.392059 0.294902 -0.219448 0.311346 0.134458 -0.078349 0.068138
M075~ga 0.041587 -0.019487 -0.003012 0.012417 -0.050671 0.032901 0.042060 -0.005846 0.006801 -0.005025 0.012800 0.026094 0.115378 0.025288 0.014018 0.012008 -0.041385 -0.075909 0.135942 -0.018398 -0.211184 -0.044877 0.105400 0.067117 -0.129367 0.147305 -0.062466 0.032361 -0.266586 -0.108737 -0.862493 0.135556
M057~b1 0.056682 0.124632 -0.431396 -0.116634 -0.019506 0.141496 -0.288464 0.101526 -0.168697 0.243176 -0.179138 -0.382761 -0.213889 -0.021477 0.035597 0.093652 -0.168868 0.053325 -0.132614 -0.048726 -0.269423 0.052400 0.033924 0.096633 0.342023 -0.087764 0.207286 -0.026821 0.075198 0.007669 -0.015555 0.183636
M086 -0.078438 0.049841 -0.142310 -0.067434 -0.031096 0.013053 0.070811 0.167499 -0.186574 -0.026912 -0.114800 -0.114228 -0.036751 -0.028970 -0.041550 0.020493 -0.034600 -0.042227 0.178402 0.049341 -0.218497 -0.098124 0.119847 0.062223 -0.110871 0.100527 -0.049591 0.025057 -0.247980 -0.110105 -0.798450 0.129571
M318~a 0.171424 -0.022756 -0.249273 0.224414 -0.064493 0.096322 -0.210994 -0.118082 -0.161671 0.205593 0.041728 -0.120436 0.171833 -0.116148 -0.071679 -0.046062 0.028725 -0.014158 0.337589 -0.057555 0.179277 0.078702 0.019020 -0.313124 -0.224468 -0.028049 -0.070795 0.392201 0.317244 0.092313 0.020865 0.275891
M262~1 -0.017582 -0.407025 0.351126 -0.047522 -0.256729 -0.108210 -0.091013 -0.025683 -0.028944 -0.009853 0.186398 0.164625 -0.325980 0.075860 -0.019881 -0.167781 -0.028704 -0.009007 0.250581 0.092677 -0.011059 0.112382 -0.190334 -0.054939 -0.190030 -0.000478 0.264448 0.005188 -0.166570 0.290555 0.063281 0.268406
M380 -0.023036 -0.261565 -0.160639 0.067507 0.059741 -0.206819 -0.084711 -0.223812 -0.034728 0.176153 -0.202518 -0.093233 -0.165064 -0.062246 0.125523 0.089023 -0.087957 -0.190077 -0.055404 -0.318614 -0.186034 -0.043367 -0.098819 -0.267368 -0.134526 -0.200741 -0.382906 0.208779 0.269283 0.079716 -0.021332 0.257340
M329~a 0.041587 -0.019487 -0.003012 0.012417 -0.050671 0.032901 0.042060 -0.005846 0.006801 -0.005025 0.012800 0.026094 0.115378 0.025288 0.014018 0.012008 -0.041385 -0.075909 0.135942 -0.018398 -0.211184 -0.044877 0.105400 0.067117 -0.129367 0.147305 -0.062466 0.032361 -0.266586 -0.108737 -0.862493 0.135556
M226~c 0.068113 0.077038 -0.119125 -0.101974 -0.198187 0.027552 0.023611 -0.007679 -0.039061 0.054878 0.015022 0.138143 0.132583 -0.135145 -0.068601 -0.045769 0.170928 0.043221 -0.058090 0.144288 -0.192177 -0.002965 -0.504121 0.103628 0.421041 0.025810 -0.374570 0.327089 0.135064 0.086789 0.009315 0.222497
M218~b -0.107546 0.184072 -0.093176 0.143012 -0.006908 -0.275240 0.087566 0.050345 0.194598 -0.068405 0.229688 -0.178004 -0.041414 -0.445933 -0.265068 -0.329602 0.016409 -0.060201 -0.031894 0.006332 0.084819 -0.154385 -0.050290 0.160931 -0.260301 0.135032 0.275347 0.206518 0.096318 -0.014437 -0.100626 0.210892
M054~a 0.041587 -0.019487 -0.003012 0.012417 -0.050671 0.032901 0.042060 -0.005846 0.006801 -0.005025 0.012800 0.026094 0.115378 0.025288 0.014018 0.012008 -0.041385 -0.075909 0.135942 -0.018398 -0.211184 -0.044877 0.105400 0.067117 -0.129367 0.147305 -0.062466 0.032361 -0.266586 -0.108737 -0.862493 0.135556
M007~a -0.040349 0.005218 -0.169354 0.046518 0.102045 0.061556 -0.090218 0.070776 -0.130652 -0.066170 0.094874 0.184390 0.040135 -0.166356 0.004741 0.026660 -0.092116 -0.051970 0.122921 -0.058210 0.100894 -0.050347 -0.042647 -0.065791 -0.091361 0.047542 0.002119 -0.347988 -0.444755 0.648607 0.089240 0.197397
|M153+M342| -0.007911 0.017721 0.078904 0.083223 0.057478 0.028482 0.026542 0.079005 0.012735 -0.022783 -0.004606 0.003218 -0.014106 0.142589 -0.091983 -0.059512 -0.032236 -0.114693 0.043890 -0.149956 -0.334082 -0.004285 0.079727 -0.396486 0.293508 0.419536 0.225686 -0.174814 0.135685 0.061534 -0.497015 0.124495
M149~a2 0.037816 -0.094833 0.036607 -0.128481 -0.082164 0.123181 0.209689 0.158138 -0.011766 0.153312 -0.139100 -0.021156 -0.069927 0.064522 -0.060467 -0.360789 -0.019719 0.005094 -0.190654 -0.168555 0.107375 0.310287 0.153267 -0.312578 0.199276 0.285384 0.064808 -0.104741 0.000187 -0.035289 -0.487875 0.157286
|M305+X| -0.068304 0.248469 -0.192866 -0.159300 -0.036741 -0.240500 -0.055844 -0.111862 -0.152606 -0.006518 -0.410965 -0.201900 -0.339424 0.136948 -0.175587 0.100633 0.076461 0.014824 0.367081 0.272102 0.058304 0.055954 -0.092917 -0.118185 -0.061282 -0.235036 0.001490 -0.065671 0.022496 -0.039749 -0.206992 0.189906
|M305+M342| 0.134745 0.040459 0.021530 0.093900 -0.134104 0.101506 -0.138930 0.084402 0.202026 0.082040 0.190665 0.110697 -0.069321 0.044028 0.086724 -0.006455 0.068278 -0.017396 0.232703 -0.112253 -0.034085 -0.034458 -0.142469 -0.243603 -0.323469 -0.475038 -0.008257 -0.125618 0.095922 -0.061443 -0.504202 0.196755
M496 0.112945 -0.142786 -0.038437 0.037844 -0.138504 -0.028480 -0.017253 0.029344 -0.277547 -0.295548 -0.053657 -0.217712 0.164517 0.174463 -0.343789 0.296508 -0.286989 -0.155941 -0.502111 -0.188178 0.131674 0.076452 -0.125828 -0.032006 -0.106915 -0.050717 0.091631 0.038720 -0.024362 -0.048241 -0.008161 0.058220
M035 0.164584 0.133789 -0.119960 -0.014794 0.160019 0.214544 0.069519 0.035627 -0.176768 0.053955 -0.010151 -0.026972 -0.155325 0.079792 0.009981 -0.188349 0.174146 0.183821 -0.234086 0.153245 -0.236181 -0.000485 -0.141046 0.028865 -0.037254 0.209619 0.530090 0.346787 0.160248 0.048053 0.031167 0.259152
M038~bx 0.144347 -0.220348 0.127747 0.203625 0.123349 0.179530 0.071389 -0.070466 0.204089 0.223574 0.252801 0.051902 0.137704 -0.150997 0.066385 0.110583 -0.155810 -0.295018 -0.145957 0.423865 0.141004 -0.198323 0.023278 -0.194786 0.258791 -0.174596 0.066626 -0.209233 0.149340 -0.016024 -0.066061 0.126926
M325~d -0.031784 -0.029091 0.153695 -0.126999 -0.141241 -0.035702 0.142267 -0.155320 0.165963 0.001045 -0.051366 0.096048 0.010224 0.018462 -0.265955 -0.047787 -0.092429 0.099288 0.303353 0.006556 0.005941 -0.171185 -0.466280 -0.013634 0.338551 0.295668 -0.048462 0.019548 -0.065366 -0.064043 -0.410358 0.202461
M122 0.102210 -0.004266 0.165339 -0.155179 -0.075886 0.229181 0.047548 0.162912 0.049285 0.228419 -0.228928 -0.083316 -0.083425 -0.152471 -0.101570 -0.327440 -0.198940 0.088191 -0.089814 -0.147925 0.375156 0.305206 0.216462 -0.206231 0.045840 0.165953 -0.272024 0.130467 0.200048 0.040073 -0.026228 0.160571
M342 0.315370 -0.148588 0.187263 0.068379 -0.046238 0.067081 -0.067917 0.155406 0.080018 -0.017716 0.249528 -0.000906 0.148343 0.103662 -0.083381 0.032216 0.037977 -0.320771 0.185354 0.156721 -0.034648 -0.123805 0.128164 0.027687 0.046847 0.088375 -0.056505 -0.058125 -0.147184 -0.125510 -0.648878 0.146918
|M327+M342| 0.133855 -0.032600 0.048550 -0.038068 -0.070222 0.017299 0.033916 0.021844 -0.004231 0.028576 -0.064314 0.131458 0.165385 -0.056986 -0.054237 -0.015303 -0.079050 0.088331 0.182647 0.028230 0.043746 -0.220861 -0.586780 0.152281 0.343799 0.144632 -0.170202 0.055353 -0.151698 -0.099166 -0.472534 0.143678
M057~f -0.032833 0.030764 0.088441 0.084291 0.092681 0.012267 0.004832 0.090727 0.010148 -0.022311 -0.012550 -0.011586 -0.082765 0.144267 -0.110963 -0.073564 -0.012055 -0.084627 -0.029677 -0.158157 -0.254339 0.021246 0.028978 -0.488509 0.409049 0.392059 0.294902 -0.219448 0.311346 0.134458 -0.078349 0.068138
M321~h 0.232164 -0.052955 0.084097 0.125538 -0.107530 0.066437 -0.013815 -0.050528 -0.085929 0.124585 0.229611 0.463899 0.145611 0.100696 -0.002244 -0.242517 0.110024 0.075309 -0.057054 -0.143938 -0.099695 -0.260630 0.122003 -0.247911 0.010922 -0.513682 0.010570 -0.051121 0.200120 -0.001323 -0.068105 0.115713
M109 0.103358 0.249627 -0.118728 -0.353762 -0.050169 -0.069308 -0.027808 0.106599 -0.358139 -0.011723 0.205457 -0.172045 -0.174446 -0.092794 0.258062 -0.140330 -0.214740 0.095754 0.135661 0.065838 0.025751 0.028304 -0.014887 0.033230 -0.017061 0.011715 0.437947 0.220522 -0.156148 0.226015 0.056276 0.206058
|M195+M057| 0.299636 -0.202110 -0.201572 -0.013100 -0.027786 -0.084239 -0.171534 -0.158247 0.096154 -0.249753 -0.097339 0.118134 0.035216 -0.024584 -0.019630 0.036102 -0.252312 -0.123224 -0.014501 -0.123371 -0.084527 0.012605 -0.019390 0.162336 -0.026879 0.129513 -0.141668 -0.046682 -0.121630 -0.150118 -0.651482 0.194510
|M195+M038~a| 0.133548 -0.485268 0.179570 -0.073370 -0.034746 -0.208737 -0.137325 -0.097549 0.222762 0.064426 0.051376 0.311828 -0.112831 -0.076275 -0.200405 -0.082577 0.174146 -0.119178 -0.098603 0.259117 -0.259818 -0.001149 0.017689 0.104396 -0.145219 0.163053 0.046773 0.035026 -0.118841 -0.050659 -0.360471 0.137437
M249~n1 0.003422 0.009992 0.064646 0.071971 0.035549 0.031543 0.032143 0.064449 0.012260 -0.020228 -0.000790 0.008945 0.015773 0.125916 -0.074170 -0.047332 -0.037133 -0.115247 0.069737 -0.131720 -0.334875 -0.014389 0.093269 -0.322869 0.220774 0.395435 0.180035 -0.143541 0.054124 0.027704 -0.643501 0.143230
M158 -0.069390 -0.087130 -0.014117 -0.120831 0.031728 0.020091 0.161855 -0.032751 0.098517 0.006417 -0.034633 0.117591 0.179749 0.122915 -0.147632 -0.052311 -0.145879 0.224030 0.204504 0.057144 0.081944 -0.147668 -0.704299 0.135348 0.377582 0.035216 -0.158415 0.079933 -0.022649 -0.049945 -0.022662 0.095613
M180 -0.251557 -0.178279 0.074563 0.077967 0.038868 -0.026042 0.238308 -0.012138 -0.143339 0.106733 -0.296160 0.179431 -0.102041 0.005720 -0.002939 0.040038 0.148412 -0.103070 -0.177562 -0.378774 -0.251584 -0.250456 0.123558 -0.175789 0.186001 0.184636 0.231348 -0.190897 0.314665 0.061385 -0.053063 0.161807
M250~n 0.242780 -0.040678 0.036871 -0.130506 -0.264890 -0.242742 0.160588 -0.084292 0.040826 0.172084 -0.131761 -0.034816 0.203359 -0.092893 0.127332 0.245784 -0.137875 -0.036659 -0.003785 0.475424 -0.137862 0.110452 0.222352 0.006167 0.246226 -0.221934 0.051830 -0.087961 -0.039363 0.006662 -0.314845 0.185639
M380~b -0.054068 -0.370263 0.037474 -0.149388 0.093052 -0.071317 -0.034635 0.304418 0.041902 0.047987 -0.259482 -0.060402 -0.034892 0.049006 0.149119 -0.246924 -0.250078 -0.011245 -0.012537 -0.090466 0.017246 0.081712 0.163967 -0.138905 -0.114554 0.100245 -0.524893 0.225368 0.159238 0.046441 -0.093185 0.238639
|M157~a+M131~a| 0.055522 0.086782 0.033818 0.040092 0.078545 -0.060191 -0.135066 -0.044229 0.056158 0.122411 -0.033122 0.043703 -0.134578 0.052960 -0.078289 0.101557 0.169531 -0.086197 0.272590 -0.208200 -0.018258 0.407984 -0.397019 -0.297305 -0.250751 -0.479302 0.028707 -0.018131 0.153232 0.034936 -0.072388 0.088417
|M153+M106~a| 0.041247 -0.022343 0.012951 0.127219 0.076995 0.033016 0.058914 0.101201 -0.043149 -0.053906 -0.028260 -0.056918 -0.023559 0.117349 0.061219 -0.179838 -0.090023 0.047885 0.078120 0.013789 -0.026416 -0.111565 -0.041127 -0.241751 0.076078 0.336853 0.683234 0.279037 0.301856 0.146011 -0.033418 0.184513
M387~a -0.011808 0.023109 0.004141 -0.096759 -0.249536 0.051792 0.251000 0.032816 0.102827 -0.119855 0.072031 0.221723 0.218833 -0.113445 0.185469 -0.162758 0.093532 0.212784 -0.056661 -0.225634 -0.061256 -0.399841 0.047181 -0.188073 -0.080975 -0.514888 0.000882 -0.156767 0.188475 -0.006834 -0.026282 0.134578
M314 -0.071975 0.093379 0.068881 0.081087 -0.039263 -0.262167 0.268431 -0.006587 0.217489 -0.161077 0.178019 -0.001781 0.040604 0.264901 -0.058817 -0.029205 -0.182229 0.337408 0.294711 -0.044179 -0.012182 0.161673 -0.424935 -0.021241 0.055386 -0.110914 0.009215 0.009082 -0.223626 0.073259 0.046945 0.367493
M066~1 0.006446 -0.265189 0.196165 -0.204398 -0.328747 -0.313697 -0.179498 0.138017 0.468106 -0.001398 -0.178252 0.097855 -0.003728 0.307982 -0.048310 -0.034197 0.023867 -0.239511 -0.039965 0.268854 0.084283 -0.073370 0.072325 0.069851 -0.155964 0.147930 0.021337 -0.053802 0.001089 0.005217 0.081869 0.148595
M362 -0.008115 -0.161196 0.257018 0.162171 0.221629 -0.279353 0.023554 0.115822 -0.148009 0.493329 0.201413 -0.350845 -0.138223 0.194122 0.277936 0.129129 0.195639 0.139940 -0.121975 -0.153860 0.101423 -0.092583 -0.117734 0.153575 0.043092 0.052949 -0.001500 -0.035462 -0.005222 -0.027276 -0.018079 0.032894
M332~d 0.124249 0.106389 0.120090 0.085664 -0.094906 -0.182371 -0.120847 0.396884 -0.014424 -0.214635 -0.314477 0.045780 0.304084 -0.005019 0.008728 -0.034335 0.196286 0.137909 0.109055 -0.040070 -0.303947 0.306896 -0.060588 0.195812 0.047012 -0.145439 0.151285 0.101678 0.186458 0.101603 0.058343 0.302278
M066~2 -0.052533 -0.352944 0.221068 -0.181664 -0.258971 -0.457770 -0.116496 0.073577 0.371015 -0.036511 -0.134410 0.237156 -0.099265 0.248956 -0.128906 -0.018405 -0.012569 -0.190574 0.088162 0.191603 0.101941 -0.128591 0.101969 0.056224 -0.156525 0.150012 0.033099 -0.042233 0.012618 -0.023255 0.084224 0.118269
M352~n 0.144519 -0.036665 -0.172015 0.003017 -0.445614 0.077544 -0.216620 -0.149860 0.111560 0.207268 -0.043206 -0.115810 0.063939 0.013095 0.127629 -0.127733 0.290950 -0.016429 -0.197150 0.518801 -0.178956 0.096892 -0.034241 0.023650 -0.042053 0.012134 0.149480 0.007983 -0.149347 0.143757 0.047063 0.247096
M387~ca -0.071798 0.209079 0.420438 0.501313 0.103497 0.151296 -0.089025 -0.201441 -0.329543 0.039796 -0.008446 0.047809 0.048873 -0.115018 0.132793 0.195785 0.143012 -0.194058 0.089707 0.048626 0.219632 0.127018 -0.010001 0.015192 -0.045313 -0.072719 -0.089832 -0.099485 0.047325 -0.092495 -0.233491 0.181582
M357 -0.012689 -0.135630 -0.027930 -0.138267 -0.087972 0.059379 0.201514 0.144304 0.073951 0.219189 -0.195557 -0.025250 0.023964 -0.040014 -0.039757 -0.388001 -0.039686 0.071783 -0.143478 -0.124518 0.267028 0.286864 0.171580 0.017390 0.001352 0.074467 -0.080485 -0.005916 -0.153045 -0.056336 -0.602393 0.120274
M099 0.219084 -0.128000 0.015156 -0.134769 0.199588 -0.112075 -0.203588 -0.040249 -0.127565 0.280071 0.046052 0.362716 -0.210334 0.182767 -0.127796 0.101966 -0.035169 -0.305866 0.058421 -0.105719 -0.007472 0.097456 0.255715 -0.086192 0.080131 -0.126773 -0.325941 0.177131 0.043277 0.109498 0.086801 0.340201
M249~p -0.032833 0.030764 0.088441 0.084291 0.092681 0.012267 0.004832 0.090727 0.010148 -0.022311 -0.012550 -0.011586 -0.082765 0.144267 -0.110963 -0.073564 -0.012055 -0.084627 -0.029677 -0.158157 -0.254339 0.021246 0.028978 -0.488509 0.409049 0.392059 0.294902 -0.219448 0.311346 0.134458 -0.078349 0.068138
M136 0.174992 -0.068199 -0.055872 0.041776 -0.089822 -0.061273 0.012732 0.205716 0.139506 0.247918 0.171256 -0.292428 0.151284 0.084264 -0.140207 0.031442 0.353430 -0.203721 0.104919 -0.269261 0.018022 -0.237160 0.033783 -0.182226 0.090830 0.378769 0.097143 -0.235087 0.254813 0.064112 0.003519 0.181223
M214~c 0.318373 -0.264803 -0.089122 -0.062189 0.038433 -0.073767 -0.093353 -0.092730 0.137398 -0.418652 0.045098 -0.219819 -0.080331 -0.313782 0.151663 0.153830 0.185079 0.063602 0.081559 -0.157541 -0.028777 0.132690 0.138310 0.193713 0.442932 -0.188271 0.062659 0.033645 0.020639 0.034466 -0.023042 0.112695
M329~c -0.032833 0.030764 0.088441 0.084291 0.092681 0.012267 0.004832 0.090727 0.010148 -0.022311 -0.012550 -0.011586 -0.082765 0.144267 -0.110963 -0.073564 -0.012055 -0.084627 -0.029677 -0.158157 -0.254339 0.021246 0.028978 -0.488509 0.409049 0.392059 0.294902 -0.219448 0.311346 0.134458 -0.078349 0.068138
M217~e -0.178884 -0.212648 0.165414 0.028977 -0.082006 -0.142003 0.223978 0.117512 -0.149371 0.314674 -0.283749 0.063552 0.005418 0.060579 -0.028280 0.182972 0.435445 -0.056669 -0.032159 -0.280572 0.088485 -0.367063 0.126534 0.206588 -0.017928 0.060246 -0.046257 -0.081007 0.154979 -0.021507 0.025826 0.219590
M247~g 0.123418 -0.068857 -0.071004 0.051695 0.238883 -0.219312 -0.003374 -0.118677 0.200356 -0.366796 -0.026328 -0.248629 -0.124814 0.113820 0.219942 0.079304 0.422473 0.032497 -0.035380 -0.171894 0.192602 -0.093763 0.039019 -0.110019 0.312721 0.224401 0.069311 -0.163806 0.215894 0.103132 -0.108449 0.118399
M136~b -0.068081 -0.079312 0.165871 -0.256540 0.187462 0.221134 -0.262293 -0.008668 0.195924 -0.502749 0.310915 -0.082794 -0.290749 -0.184937 0.104666 0.000299 0.152271 0.056858 -0.208601 -0.032402 0.150755 -0.012208 -0.033012 -0.158699 0.167460 0.033545 0.073294 -0.129041 0.174698 0.047844 -0.088469 0.080709
M361~b 0.010253 0.069593 0.058251 0.028226 0.216667 0.047888 0.005255 0.054691 -0.128644 -0.031419 -0.004830 0.069335 -0.046472 -0.034336 -0.073527 -0.066875 -0.063374 -0.100354 0.037811 -0.167255 -0.104684 -0.059366 0.005646 -0.355107 0.197154 0.231881 0.181114 -0.330637 -0.227162 0.628957 0.027014 0.190352
M302~s 0.319038 -0.210667 -0.038115 0.065404 0.192333 -0.017226 -0.104164 -0.113973 0.170558 -0.443743 -0.040636 -0.167858 -0.252589 -0.091892 0.079252 0.059396 0.224678 0.023122 -0.017592 -0.161046 0.026664 -0.040635 0.013037 -0.258460 0.377313 0.208817 0.172533 -0.161943 0.200291 0.091691 -0.087986 0.065377
M317~e 0.085349 -0.560657 0.063517 -0.032811 -0.254096 -0.007410 -0.354370 0.141590 0.057347 0.045239 0.003117 0.465833 -0.272045 0.209372 0.007281 0.028416 -0.120618 -0.200346 0.019539 0.128966 0.050071 -0.025446 0.135202 -0.009682 -0.035216 -0.044898 -0.092426 -0.044891 0.064547 0.031967 0.062422 0.076448
M111~b 0.044434 -0.020778 -0.003205 0.013202 -0.053847 0.034888 0.044551 -0.006178 0.007172 -0.005299 0.013467 0.027364 0.120923 0.026458 0.014622 0.012512 -0.043060 -0.078789 0.140870 -0.019028 -0.217805 -0.046260 0.108354 0.068869 -0.132235 0.150399 -0.063313 0.032736 -0.268351 -0.108873 -0.856477 0.132784
M247~f -0.003963 0.047020 0.022842 0.041739 0.251692 -0.232717 0.029777 0.127234 -0.068669 0.170410 -0.003457 -0.105055 0.059042 -0.008092 0.058577 0.007090 0.157723 -0.046494 0.046037 -0.155838 0.099580 -0.205213 -0.015432 -0.014674 -0.046263 0.055888 -0.036126 -0.235405 -0.432408 0.631414 0.076904 0.222728
|M157+M288| 0.294989 0.109924 -0.139217 -0.170077 -0.466736 -0.326328 -0.048597 -0.235629 -0.099616 0.050694 -0.386783 0.017039 -0.008304 0.185061 0.080891 0.145347 0.062548 0.082925 -0.001503 0.407617 0.054616 0.022919 0.116905 -0.136707 0.070881 -0.034296 0.008911 -0.126608 -0.053343 -0.009206 -0.012646 0.088312
M016 -0.041011 0.027047 0.127088 0.065171 0.129248 0.015251 0.015356 0.114811 0.042693 -0.018220 0.014972 -0.007925 -0.073598 0.126178 -0.108301 -0.067822 -0.038562 -0.087750 -0.037832 -0.123996 -0.254893 0.018579 0.028743 -0.497907 0.403278 0.374958 0.292623 -0.226955 0.312464 0.129848 -0.085013 0.067769
|M175+M175| -0.032833 0.030764 0.088441 0.084291 0.092681 0.012267 0.004832 0.090727 0.010148 -0.022311 -0.012550 -0.011586 -0.082765 0.144267 -0.110963 -0.073564 -0.012055 -0.084627 -0.029677 -0.158157 -0.254339 0.021246 0.028978 -0.488509 0.409049 0.392059 0.294902 -0.219448 0.311346 0.134458 -0.078349 0.068138
M242~ab 0.136410 0.082007 0.090546 0.179309 0.112317 0.281007 -0.143993 -0.206585 0.098789 0.243764 -0.112862 0.125793 -0.207989 -0.039460 -0.061536 0.057792 -0.207769 -0.297908 0.047237 -0.034071 0.117653 -0.151432 0.147953 0.047549 -0.008960 -0.056556 -0.026406 -0.134432 -0.360597 0.472521 0.054229 0.234758
M373 0.003268 0.118771 -0.380288 0.018343 0.011369 0.094743 0.359069 0.246508 0.133085 0.262923 -0.012206 0.226890 -0.276101 -0.002320 0.169772 0.079678 -0.054754 0.282739 -0.256113 -0.185318 0.321130 0.178555 0.064374 0.134653 0.018951 0.119064 -0.047192 -0.120382 0.037102 -0.043970 -0.029372 0.129089
M046 -0.141963 -0.136339 0.023826 -0.323218 -0.381164 -0.160196 -0.120065 -0.205267 -0.290275 0.086590 0.471645 -0.135713 -0.230998 0.191862 0.258528 -0.122450 -0.025175 0.170834 -0.066320 0.129042 -0.010951 0.130895 -0.146792 -0.009819 -0.063915 0.040700 0.071041 -0.092354 -0.052337 0.067757 0.006329 0.087418
M053~a 0.041587 -0.019487 -0.003012 0.012417 -0.050671 0.032901 0.042060 -0.005846 0.006801 -0.005025 0.012800 0.026094 0.115378 0.025288 0.014018 0.012008 -0.041385 -0.075909 0.135942 -0.018398 -0.211184 -0.044877 0.105400 0.067117 -0.129367 0.147305 -0.062466 0.032361 -0.266586 -0.108737 -0.862493 0.135556
M145~a -0.212564 -0.062083 -0.150433 0.179326 -0.114089 -0.298231 0.125339 0.005197 0.275271 0.177642 -0.063659 -0.332942 0.079746 -0.288168 -0.096255 -0.073520 0.208430 -0.149964 -0.066062 -0.106062 0.003580 -0.199361 0.024437 0.010207 -0.193466 0.182146 -0.128946 0.333344 0.223009 0.158309 0.032522 0.236574
M220 0.101560 -0.210219 -0.053654 -0.153779 0.103090 -0.009252 0.114020 0.042481 -0.053218 0.379902 -0.156529 0.024376 0.148300 -0.257313 -0.092014 -0.011110 -0.291045 0.066977 -0.225965 -0.001388 0.112766 0.120537 -0.280639 0.168906 0.426861 -0.163751 -0.052617 -0.109722 -0.135414 0.175047 -0.001206 0.277134
|M370~b+M388| 0.444065 -0.282147 -0.078065 -0.029881 0.207622 -0.084375 -0.199574 -0.194437 0.208430 -0.507760 -0.104725 -0.213670 -0.219106 -0.126084 0.183679 0.123938 0.240427 0.059757 0.018490 -0.082340 0.114631 -0.056155 0.015625 0.000887 0.114632 0.054585 0.014093 -0.037067 -0.014021 -0.003017 -0.118558 0.021726
M073~a -0.043744 -0.085911 -0.111638 -0.013520 -0.071419 -0.104257 -0.068442 -0.047415 -0.046735 0.062482 0.066422 -0.057602 -0.081644 -0.063186 0.171093 0.077425 -0.160746 -0.010089 -0.057327 -0.054566 -0.062077 -0.109000 0.117447 -0.335235 0.008378 0.093706 -0.605945 0.482231 0.234339 0.196210 0.010596 0.138584
M041 0.406545 -0.054787 0.324710 0.384575 0.178363 -0.090976 -0.150090 -0.047133 -0.001568 -0.282202 0.047139 -0.215698 -0.193645 -0.170608 0.183217 0.150810 0.287819 0.046559 0.022575 -0.051856 0.248939 -0.064136 -0.025780 0.005345 0.223361 0.076220 0.006011 -0.164250 0.106280 0.020454 -0.067675 0.090827
M115~a -0.205355 -0.109363 -0.299923 -0.309372 0.426969 0.115088 0.166112 0.027216 0.063688 -0.207268 0.332687 0.168807 0.313049 -0.001567 -0.170634 0.173286 0.039378 0.089548 0.031404 0.027688 0.032676 0.053930 0.045712 0.013800 -0.084497 0.129306 -0.028094 -0.147081 -0.164046 0.251144 0.093415 0.174392
M281~c 0.041423 0.069356 0.005916 -0.031427 0.217317 0.054635 0.003118 -0.000810 -0.180681 -0.023874 0.003762 0.101449 0.005265 -0.161750 -0.007770 -0.028968 -0.073466 -0.063712 0.072820 -0.092037 0.065062 -0.093418 -0.015454 -0.073597 -0.066460 -0.008981 0.001745 -0.246885 -0.518713 0.674888 0.091059 0.177455
M195~d 0.041568 0.290277 0.020639 -0.041338 0.018734 -0.023545 -0.080330 -0.159440 0.058503 -0.074313 -0.097480 -0.073857 -0.114947 0.175716 -0.134357 -0.099192 -0.131913 -0.171878 0.155685 -0.062087 -0.255556 -0.095656 0.138724 -0.206885 0.208128 0.242807 0.106594 -0.168771 0.015140 -0.075137 -0.624824 0.182420
M036 0.267004 -0.090822 -0.116212 -0.035607 0.059923 -0.006475 -0.186745 -0.229403 0.067502 0.115399 -0.057248 -0.006281 -0.103140 -0.031375 0.023402 0.016180 0.134600 -0.039133 0.228861 -0.173063 0.117626 0.107350 -0.279783 -0.017824 -0.389793 -0.621767 -0.148839 0.050456 0.028143 -0.056986 -0.054723 0.068810
M318~n 0.084547 0.159334 0.261822 0.223238 -0.148292 0.684858 -0.186718 -0.095952 0.290944 0.244885 -0.204283 -0.162899 -0.008404 -0.017690 -0.003084 0.239577 0.053743 0.072773 0.036395 -0.004286 0.034394 0.003720 0.085326 0.099002 -0.032656 0.046119 -0.003387 -0.016074 -0.046136 0.066433 0.021516 0.070979
M152 0.161658 0.319448 0.147888 0.062872 -0.273252 0.368910 -0.350019 0.246055 0.288891 -0.004310 -0.358114 -0.323418 0.129561 -0.140058 -0.061485 0.034371 0.039184 0.051577 0.053693 0.043551 -0.006799 0.072342 0.059376 -0.008448 -0.080385 0.138694 -0.079204 0.114451 0.058101 0.022268 0.062125 0.154401
M383~j -0.516076 -0.040658 0.288138 0.224340 0.029771 0.061008 -0.137483 -0.412607 -0.009197 -0.107003 -0.336098 0.295124 -0.099081 -0.054370 0.033370 -0.096086 -0.159951 -0.028078 -0.092613 0.092314 -0.064788 -0.173038 0.047049 -0.038167 0.151703 -0.096575 0.035752 -0.068961 -0.059513 -0.158579 0.069682 0.130349
M111 -0.169391 -0.195495 -0.159783 -0.166448 0.102903 0.124819 -0.026543 0.208557 0.139632 -0.111775 0.099763 -0.032145 0.119997 -0.022199 -0.057800 0.116752 -0.013742 -0.013352 0.209632 0.120863 -0.132838 -0.080552 0.121906 0.065455 -0.149174 0.077201 -0.020039 -0.010962 -0.165099 -0.079231 -0.744490 0.126126
|M106~2+M288| 0.381751 -0.023979 -0.050129 -0.083799 -0.113045 0.287509 -0.022484 0.000781 -0.001846 0.036902 0.175970 -0.168907 0.120743 -0.166495 -0.199753 -0.085209 0.013185 -0.261377 0.167716 -0.193913 -0.092664 -0.087124 -0.011007 -0.215188 0.014086 0.401661 0.121913 -0.332469 0.309273 0.011215 0.020880 0.133869
M387~eh 0.092353 0.245825 0.017035 -0.017455 0.124243 0.193889 0.095104 -0.022102 -0.058858 -0.109383 -0.007586 0.200784 -0.032780 -0.052377 -0.157615 -0.146795 0.510637 0.039841 -0.362742 0.272812 -0.395075 0.186789 -0.162910 0.180756 -0.049982 0.039783 -0.045464 0.114845 0.095041 0.056072 0.021142 0.106677
M249~m 0.039549 0.147268 -0.046157 0.197402 0.025610 -0.147846 -0.107400 -0.006174 0.068998 0.043520 0.010535 0.109596 -0.132720 -0.022877 -0.063006 0.051866 0.162172 -0.044664 0.274799 -0.206606 -0.003203 0.446641 -0.407588 -0.283638 -0.249714 -0.415866 0.032354 -0.040907 0.092660 -0.007161 -0.043005 0.130033
M057~a2 0.038290 -0.059936 0.296004 0.041610 0.277054 -0.029439 0.225755 0.093601 0.197938 0.203162 0.123830 0.002606 0.092771 -0.126939 0.041990 0.105028 -0.229767 -0.113173 -0.202922 0.396462 -0.062423 -0.021249 0.038609 -0.373372 0.258851 0.014269 0.185902 -0.209647 0.251735 0.080369 -0.076247 0.066057
|M218~d+M288| 0.035268 0.033052 -0.200382 -0.126070 -0.062168 -0.021788 0.024034 0.214938 -0.245674 -0.031686 0.002395 -0.250532 -0.012720 -0.139285 0.153839 -0.087411 -0.156883 0.128374 0.189222 0.080056 -0.052741 0.014422 0.064785 0.210900 0.101719 -0.082867 0.554650 0.447531 0.077870 0.083905 0.030144 0.203427
M295~ka 0.123783 0.287776 0.018614 -0.331292 -0.106704 -0.166504 -0.083611 0.154679 -0.018384 -0.004230 0.203824 -0.102652 0.045968 -0.232646 0.136922 0.036996 -0.254068 -0.092430 0.161223 -0.131435 -0.154411 0.275974 0.200343 0.207309 0.369756 -0.224183 0.196734 0.192448 -0.030807 -0.009461 0.026151 0.170364
M254~b1 -0.418786 -0.000040 0.098282 -0.031918 0.005376 0.098641 0.030154 -0.453554 0.276498 -0.331339 -0.267109 -0.033711 -0.222067 -0.124931 0.092834 -0.151216 -0.002831 0.143155 -0.041048 -0.047949 0.387036 0.140332 -0.007463 0.072454 0.197260 0.020969 0.004782 -0.021284 0.020413 -0.022556 -0.036126 0.033106
M295~u -0.210548 -0.192917 -0.090715 -0.130433 0.188666 -0.239069 0.452863 -0.215461 0.329258 -0.012192 0.194881 -0.461035 0.129585 -0.153513 -0.128591 -0.118487 -0.066799 -0.111944 -0.028096 0.000922 -0.093271 0.023207 -0.086647 0.096762 -0.209275 0.063246 -0.083535 -0.047570 0.110832 0.008625 0.034835 0.066537
M290 -0.032833 0.030764 0.088441 0.084291 0.092681 0.012267 0.004832 0.090727 0.010148 -0.022311 -0.012550 -0.011586 -0.082765 0.144267 -0.110963 -0.073564 -0.012055 -0.084627 -0.029677 -0.158157 -0.254339 0.021246 0.028978 -0.488509 0.409049 0.392059 0.294902 -0.219448 0.311346 0.134458 -0.078349 0.068138
M262 -0.058137 -0.199583 0.166927 0.009610 -0.286372 -0.044301 0.175112 -0.120697 0.003708 0.045544 0.211034 -0.086837 -0.101156 -0.193286 -0.542820 -0.068891 0.097792 -0.309723 0.242921 -0.033277 0.078664 -0.077973 0.073100 0.152640 -0.015713 0.069972 -0.033328 -0.110311 -0.177572 0.212625 0.118241 0.287761
M038~b1 0.016583 -0.024659 -0.026472 -0.116571 -0.085083 0.025735 0.055725 0.027307 -0.009638 0.097421 -0.104962 0.184818 0.156697 -0.029799 -0.112823 -0.043734 -0.106753 0.137068 0.119307 0.059856 0.134103 -0.222703 -0.729728 0.122314 0.415111 0.073598 -0.158998 0.059195 -0.025195 -0.047991 -0.020028 0.073019
M224 -0.020451 -0.050866 0.042019 -0.062847 -0.079221 -0.064214 0.013756 0.140424 -0.020419 -0.027045 0.100376 -0.100279 0.113451 -0.127550 -0.038630 0.039808 -0.054576 -0.052837 0.098346 -0.214722 -0.409568 0.267222 0.214165 -0.028506 0.656865 -0.024821 0.246449 -0.026734 0.172543 0.103362 -0.018608 0.160478
M281~f 0.125077 0.112642 0.134548 0.071414 0.160012 -0.208014 -0.129149 0.436348 0.095331 -0.283093 -0.229566 0.295383 0.228207 0.131561 0.014378 -0.054816 -0.147468 0.046553 0.019871 -0.083263 0.057331 -0.063267 -0.029854 0.030858 -0.100993 -0.023772 -0.063849 -0.198986 -0.272016 0.379931 0.092671 0.221344
M075~m 0.025740 0.180826 0.231915 0.039392 0.294725 -0.062886 -0.463549 0.453710 -0.057810 -0.228226 -0.065815 0.367616 0.208604 0.135786 -0.086252 -0.260119 -0.118115 0.026133 0.079771 -0.016281 0.056273 -0.050924 0.016907 0.004438 -0.067604 -0.008945 -0.055939 -0.093527 -0.099084 0.095184 -0.051652 0.048964
M318~a1 -0.027409 -0.011703 -0.217826 0.227767 0.221459 0.121100 -0.083073 -0.153539 -0.325757 -0.032135 0.164384 -0.016413 0.026310 0.090498 0.153202 -0.032181 -0.035953 -0.039136 0.046398 0.155031 0.110745 -0.011258 0.158085 -0.241039 0.027815 0.051939 -0.524017 0.371646 0.225951 0.129459 0.014003 0.170535
M332~c -0.024219 0.095485 -0.067740 0.130368 0.031325 -0.188130 0.173880 -0.061746 0.218093 -0.037997 0.086253 0.076412 -0.106303 -0.249681 -0.412647 -0.195002 0.506566 -0.167528 -0.296244 0.163683 -0.213128 0.032291 -0.127377 0.181602 -0.117812 0.091190 -0.025727 0.118451 0.072282 0.078115 0.002459 0.104596
M131 -0.000250 -0.190542 -0.086092 -0.084544 -0.090015 -0.030933 0.047394 -0.031719 -0.175915 0.280593 -0.087334 0.041672 -0.202944 -0.066962 -0.154069 0.176981 0.120481 -0.022377 -0.080256 -0.364341 -0.403797 0.159218 0.111082 0.247868 0.186307 -0.396976 0.063773 0.000088 0.070880 -0.056748 -0.118456 0.286400
M240~b 0.112945 -0.142786 -0.038437 0.037844 -0.138504 -0.028480 -0.017253 0.029344 -0.277547 -0.295548 -0.053657 -0.217712 0.164517 0.174463 -0.343789 0.296508 -0.286989 -0.155941 -0.502111 -0.188178 0.131674 0.076452 -0.125828 -0.032006 -0.106915 -0.050717 0.091631 0.038720 -0.024362 -0.048241 -0.008161 0.058220
M251~c 0.036577 -0.092759 -0.297568 0.185605 0.335167 0.158576 0.086833 -0.146817 -0.213502 -0.119220 0.133729 0.097357 0.229426 0.082750 0.001649 -0.249392 0.192675 0.147118 0.005450 0.275471 -0.188468 0.209789 0.034799 0.261074 0.030331 -0.036171 0.196004 0.300039 0.134926 0.070333 0.045555 0.228392
M044~a -0.060019 0.013043 -0.087323 -0.118701 0.186672 0.127883 -0.039411 0.153590 0.060326 -0.090386 0.196524 0.016344 0.095505 0.193893 -0.236355 0.010177 0.061516 -0.144513 0.056258 -0.098078 -0.134000 -0.008848 0.113337 -0.444664 0.375028 0.353843 0.225784 -0.247597 0.271204 0.097991 -0.090905 0.095799
M029~b -0.005787 -0.142695 -0.127145 0.349521 -0.001276 0.217241 0.016981 -0.264303 -0.131081 -0.085970 0.038578 -0.219309 -0.075745 0.300470 -0.477165 0.118150 -0.408273 0.012462 -0.282609 -0.131621 -0.037508 0.004962 -0.067951 0.028356 0.070415 -0.055888 0.045957 -0.041602 -0.054472 -0.063668 -0.052447 0.139742
M281~a -0.069847 -0.047787 0.020232 -0.242550 -0.118359 -0.074078 -0.080657 -0.142314 -0.321596 0.043993 0.329764 -0.026095 -0.157360 0.024449 0.175693 -0.105548 -0.067820 0.076539 0.003293 0.027697 0.037288 0.028029 -0.115071 -0.058361 -0.092361 0.022811 0.052471 -0.242980 -0.411203 0.539133 0.071585 0.198520
M230~a -0.041518 -0.040660 -0.218446 0.311395 0.129333 -0.127571 0.154352 -0.152602 0.127946 0.083678 0.081448 -0.076369 -0.143229 -0.296690 -0.396193 -0.128813 0.028609 -0.356397 -0.104731 -0.057286 0.069870 -0.155387 -0.040821 0.063542 -0.092416 0.023473 -0.025257 -0.111852 -0.282466 0.370905 0.048663 0.187349
M049~c -0.111094 0.156859 -0.556064 -0.111850 -0.049012 0.065189 -0.150668 0.298938 -0.224878 0.210366 -0.126436 -0.298690 -0.207250 -0.193063 -0.182002 -0.040042 -0.030653 0.223724 0.036823 0.012805 -0.106997 -0.203603 0.076659 -0.004482 0.169674 -0.157081 0.008626 -0.050607 -0.071079 -0.160695 0.054634 0.079808
M240~a 0.112945 -0.142786 -0.038437 0.037844 -0.138504 -0.028480 -0.017253 0.029344 -0.277547 -0.295548 -0.053657 -0.217712 0.164517 0.174463 -0.343789 0.296508 -0.286989 -0.155941 -0.502111 -0.188178 0.131674 0.076452 -0.125828 -0.032006 -0.106915 -0.050717 0.091631 0.038720 -0.024362 -0.048241 -0.008161 0.058220
M151~e 0.156688 0.047528 -0.226875 -0.246565 -0.146606 0.333994 0.193267 0.080935 -0.079886 0.045548 0.144927 0.193467 0.175389 0.212514 0.106413 -0.036998 0.211117 -0.494289 0.141408 -0.164457 0.226395 -0.265828 -0.073195 -0.122073 0.082260 -0.042540 -0.034895 0.040969 -0.018507 -0.165120 0.064474 0.084384
M295~da -0.002023 -0.087754 -0.011263 -0.141774 -0.168616 -0.090344 0.013891 0.111218 -0.032965 -0.017845 0.134537 -0.116400 0.200019 -0.260671 0.031001 0.100944 -0.058437 -0.005108 0.140556 -0.150266 -0.318117 0.307772 0.237266 0.302182 0.501649 -0.297096 0.090173 0.116211 -0.007487 0.029930 0.029948 0.134313
M089 0.046062 -0.021513 -0.003315 0.013647 -0.055645 0.036008 0.045954 -0.006364 0.007380 -0.005451 0.013838 0.028067 0.123988 0.027103 0.014953 0.012787 -0.043974 -0.080353 0.143536 -0.019368 -0.221353 -0.047000 0.109926 0.069797 -0.133740 0.152018 -0.063745 0.032926 -0.269204 -0.108914 -0.853145 0.131351
|M327+X| 0.129553 -0.016094 0.143210 -0.324057 -0.250578 0.009815 -0.228796 0.115506 -0.198626 -0.199500 0.362874 -0.055882 0.155283 -0.033577 -0.017910 -0.146992 -0.215846 0.031941 -0.076678 -0.090109 -0.135085 0.107655 -0.046620 0.112183 -0.047276 0.072840 -0.048958 -0.091881 -0.087172 -0.103570 -0.553461 0.135685
|M175+M038~a| -0.048274 -0.094387 -0.122153 -0.014765 -0.077906 -0.113209 -0.074150 -0.051115 -0.050169 0.067039 0.070947 -0.061109 -0.086507 -0.066711 0.179503 0.081043 -0.167768 -0.010476 -0.059330 -0.056248 -0.063624 -0.111595 0.119579 -0.340017 0.008431 0.094085 -0.599452 0.475211 0.228653 0.189415 0.010063 0.128135
M214~a 0.100458 -0.275186 -0.009521 -0.249680 0.023942 -0.064152 0.090124 0.107290 0.103225 -0.070671 0.214417 -0.125122 0.261191 -0.367104 0.032736 0.194784 -0.062352 -0.045296 0.008141 -0.009649 -0.235843 0.282131 0.192145 0.187963 0.429282 -0.277441 0.081289 0.085755 -0.029589 -0.008135 0.020195 0.134213
M295~k -0.185115 -0.312839 0.158313 -0.057377 0.163339 -0.128854 -0.075917 0.207397 -0.039833 -0.002658 -0.586057 0.265519 0.082172 0.121223 0.110088 0.006076 0.085028 -0.000923 -0.130576 -0.246221 -0.169887 -0.192500 0.096313 0.231606 -0.143735 -0.052243 0.002080 -0.073260 0.154407 -0.000813 0.032689 0.175720
M058 0.043362 -0.090793 0.022987 -0.114499 -0.049714 -0.207768 -0.194690 -0.042193 -0.128420 -0.176293 -0.153065 -0.039362 0.084450 0.242045 -0.227713 0.358446 -0.175333 -0.374162 -0.379138 -0.254159 0.123137 0.134536 -0.234864 -0.048824 -0.178558 -0.192317 0.080777 0.009582 0.056533 -0.054426 -0.009100 0.143862
M009~a -0.140802 0.223747 0.231270 -0.152178 0.261695 0.055774 -0.475804 0.100647 -0.090624 -0.050714 0.195117 0.267618 0.130213 0.026849 -0.080642 -0.412450 -0.088305 0.026395 0.046803 -0.049893 -0.057415 -0.025351 -0.016366 0.035509 -0.069357 0.031143 -0.059489 -0.058473 -0.079619 -0.026613 -0.428795 0.091062
M352~n2 -0.253518 -0.023752 0.297576 0.199752 -0.281824 0.210861 -0.136597 0.452785 0.277933 -0.177905 0.283241 0.168960 0.026691 -0.030850 0.183370 -0.027270 -0.102206 0.018278 -0.009387 0.287523 0.152284 -0.044202 0.008287 -0.105249 -0.128319 -0.100509 0.069546 -0.132899 0.106258 0.006285 -0.101456 0.070219
M228~ga -0.369246 -0.091506 -0.152210 -0.063761 0.036867 -0.051661 0.239522 0.273729 -0.369069 -0.005702 -0.381691 -0.270369 -0.389543 -0.095563 -0.136643 0.084821 0.133628 -0.007516 0.102924 0.151371 -0.055154 -0.224094 0.055077 0.037941 -0.019140 -0.141170 -0.028725 -0.074732 0.034340 -0.026391 -0.024217 0.107843
|M175+M136| 0.252977 -0.092802 0.097854 0.089178 0.182467 -0.064569 -0.129803 -0.390686 0.169042 0.085106 -0.096714 0.029967 -0.164396 0.194852 -0.049170 -0.240635 -0.112371 -0.370297 0.129973 -0.189328 0.118595 -0.399057 0.243230 0.017123 -0.092065 -0.219613 -0.085952 -0.041111 0.018281 -0.036772 0.002742 0.169705
M038~a1 0.042288 0.282291 -0.400656 0.132708 0.078436 0.028038 0.226985 0.203743 0.054556 0.306399 0.134918 0.274153 -0.356324 -0.023542 0.141328 0.351165 -0.056792 0.203006 -0.140051 -0.191259 0.046794 -0.001302 0.001871 0.202910 -0.062960 0.121143 0.012516 -0.083984 0.062600 -0.032486 -0.007728 0.067102
|M228~b+M101| 0.001268 0.184313 0.077318 -0.017964 0.171818 0.053769 -0.034896 -0.085837 -0.101060 -0.003714 -0.056428 0.200926 -0.069973 -0.035644 -0.133922 -0.021514 0.519752 -0.042194 -0.090182 0.036491 -0.311622 0.410830 -0.351822 -0.032885 -0.177328 -0.291188 -0.005123 0.067177 0.165515 0.051148 -0.025502 0.129645
|M228~b+M320| -0.080504 -0.074520 -0.157982 0.067695 -0.149972 -0.146026 -0.073936 -0.065978 -0.069812 0.045711 0.090854 -0.043326 -0.078837 -0.103904 0.196552 0.073314 -0.152610 0.003681 -0.055958 -0.042547 -0.057459 -0.069761 0.110933 -0.380567 0.002141 0.115250 -0.585764 0.445036 0.192158 0.139537 0.026253 0.146891
M285~c 0.072076 0.194142 0.389516 0.413018 0.094295 0.035312 -0.036635 0.164626 -0.163596 0.062582 0.012399 -0.103265 -0.009157 0.076738 0.032266 0.053198 0.032087 -0.077582 0.082911 -0.220929 0.018668 0.020141 0.050999 -0.187735 0.336211 0.358848 0.151115 -0.293994 0.250658 0.091672 -0.022953 0.143923
M295~l -0.001900 -0.082713 -0.010652 -0.134299 -0.159875 -0.085986 0.013246 0.106493 -0.031675 -0.017154 0.129813 -0.112954 0.194296 -0.253970 0.030363 0.099059 -0.057486 -0.005046 0.139245 -0.149362 -0.317732 0.307677 0.238298 0.304474 0.508788 -0.301910 0.092785 0.119970 -0.007794 0.031440 0.031898 0.146358
M251~i -0.043744 -0.085911 -0.111638 -0.013520 -0.071419 -0.104257 -0.068442 -0.047415 -0.046735 0.062482 0.066422 -0.057602 -0.081644 -0.063186 0.171093 0.077425 -0.160746 -0.010089 -0.057327 -0.054566 -0.062077 -0.109000 0.117447 -0.335235 0.008378 0.093706 -0.605945 0.482231 0.234339 0.196210 0.010596 0.138584
M214~e 0.403754 -0.272670 -0.104645 0.022021 0.168338 -0.028804 -0.127894 -0.196962 0.197360 -0.516203 -0.040259 -0.193168 -0.247072 -0.206268 0.168911 0.120186 0.276952 0.084155 -0.001249 -0.087192 0.201663 -0.062814 -0.003737 0.016701 0.178580 -0.011745 0.009673 -0.047358 0.031921 0.020001 -0.053015 0.032770
M103~2 0.038411 0.233587 -0.104772 -0.197846 -0.375926 -0.097471 0.134472 -0.001822 0.181630 -0.061072 0.267760 0.030817 0.144514 -0.333875 0.173923 0.021113 -0.046148 -0.107109 -0.010579 -0.084010 -0.172426 0.107113 0.238101 0.135861 0.366475 -0.377160 0.083817 0.009519 -0.026538 -0.080307 0.047111 0.149500
M217~n -0.220656 0.208534 -0.085931 0.081536 -0.159600 -0.016858 0.290582 -0.486734 -0.068761 -0.137684 -0.306747 -0.105326 0.002631 -0.054788 0.331957 -0.059309 -0.108917 -0.020307 0.042051 0.159328 0.136365 -0.196508 -0.003173 0.070335 -0.066267 -0.014823 0.356155 0.246644 0.071710 0.023051 0.007432 0.038447
M249~n -0.057307 0.013893 -0.417668 0.361495 0.001628 0.321317 -0.085051 -0.302226 0.045051 0.276261 -0.152386 -0.144470 -0.225371 -0.068698 0.076204 0.142209 -0.266160 -0.160601 -0.277713 0.131199 -0.029558 -0.102622 -0.048281 0.033188 0.146657 -0.193167 0.014934 -0.038974 -0.043512 -0.044509 -0.054305 0.111332
M243~j -0.118893 0.242383 -0.001937 -0.002236 0.133904 -0.029734 -0.032700 -0.162433 0.045748 -0.093098 -0.017279 0.087825 -0.095228 0.231182 0.018160 0.062556 0.223962 -0.102998 0.214165 -0.219352 0.051627 0.417766 -0.294768 -0.384112 -0.056082 -0.247404 0.094175 -0.130548 0.305843 0.095351 -0.137856 0.130513
|M305+M009| 0.045772 0.072745 0.290849 -0.070385 0.181054 -0.069338 -0.144076 0.150461 -0.064903 0.238966 0.140651 -0.019268 -0.071604 0.139105 0.016160 -0.188147 -0.024482 -0.014465 -0.106867 -0.123959 -0.237013 0.011657 -0.129903 -0.272211 0.409023 0.304006 0.231764 -0.233455 0.276610 0.136722 -0.170835 0.115175
M049~e 0.136381 -0.147367 -0.061397 0.082041 -0.102633 -0.006405 0.023875 0.054380 -0.264763 -0.273043 -0.058533 -0.215009 0.156543 0.162948 -0.195999 0.155392 -0.295080 -0.060289 -0.351305 -0.078599 0.201557 -0.021960 -0.145344 0.019447 -0.213963 0.018592 0.416091 0.318171 0.051507 0.001583 0.004265 0.145190
M147~a -0.625560 0.163035 0.336062 -0.049085 0.250147 0.133899 -0.020033 -0.270676 -0.183588 -0.149792 0.033165 -0.011732 0.137279 0.031753 0.289266 -0.066234 0.024513 -0.169717 -0.118637 -0.042228 0.081381 -0.219647 -0.092104 -0.048189 -0.015821 0.097627 0.117530 -0.049147 0.075781 -0.038309 -0.042914 0.035846
M295~b -0.210548 -0.192917 -0.090715 -0.130433 0.188666 -0.239069 0.452863 -0.215461 0.329258 -0.012192 0.194881 -0.461035 0.129585 -0.153513 -0.128591 -0.118487 -0.066799 -0.111944 -0.028096 0.000922 -0.093271 0.023207 -0.086647 0.096762 -0.209275 0.063246 -0.083535 -0.047570 0.110832 0.008625 0.034835 0.066537
|M327+M059| 0.188082 0.010991 0.254560 0.242319 0.139201 -0.089023 -0.019705 -0.006331 0.174316 0.327803 0.086534 -0.024758 0.038939 -0.081343 0.084740 0.227587 0.077652 -0.129999 0.034847 0.326513 0.022200 0.201860 -0.187287 -0.223904 -0.129694 -0.377014 0.001145 -0.132657 0.086217 0.021951 -0.361271 0.167355
|M057+M291| 0.121899 -0.072311 0.069413 -0.060807 -0.243982 -0.183970 -0.258244 0.248112 0.177105 -0.172504 -0.024396 0.413061 -0.103049 0.315336 0.022871 0.137717 -0.266658 -0.474790 -0.021717 0.075785 0.217320 -0.064623 -0.006684 0.019850 0.029695 -0.000499 -0.045154 -0.071162 -0.011569 -0.072477 0.081569 0.115227
M147~e 0.101023 -0.059822 -0.008702 -0.239303 -0.296739 -0.021036 0.053626 0.136799 -0.078279 -0.139438 0.328078 -0.075336 0.259784 -0.115032 -0.004454 0.086224 -0.133592 -0.111482 0.061877 -0.127080 -0.247477 0.226319 0.056830 0.141022 0.268195 -0.082198 -0.006967 0.059843 -0.189348 -0.135624 -0.464656 0.231152
M295~ee -0.141542 0.007261 0.049579 0.196145 -0.110188 0.053533 -0.111993 0.017857 -0.030009 0.181979 -0.137592 -0.199365 0.148965 -0.263631 -0.160279 0.011343 -0.001095 0.023043 0.181848 -0.228568 -0.147427 0.142856 0.099842 -0.357666 0.237725 0.402305 0.212506 -0.147451 0.350086 0.119815 -0.034288 0.108047
M045~b -0.055271 0.051941 0.228526 -0.300527 -0.020212 0.206848 -0.170424 -0.217659 0.116141 0.266504 -0.227827 0.121264 0.082414 -0.119705 -0.246270 0.492610 0.083676 0.332131 0.175546 -0.017330 0.150286 0.037985 0.160364 0.025712 -0.112726 0.179599 0.006609 0.041665 0.086482 -0.004215 0.020334 0.055186
M032~a -0.029815 0.539511 -0.083453 -0.153084 0.017699 -0.139465 -0.155736 -0.445766 0.127466 -0.116373 -0.235221 -0.155656 -0.322329 0.107937 -0.069764 -0.110709 -0.192598 -0.146678 0.159158 0.051232 0.023684 -0.148697 0.063426 0.086138 0.143083 -0.095699 -0.002333 -0.126710 0.043119 -0.125407 0.004647 0.094441
M073~b -0.230977 0.158443 0.113497 -0.105853 -0.002149 0.190020 -0.242330 -0.149833 0.033881 0.084568 -0.057126 0.002166 0.206573 -0.392399 -0.166914 0.394467 -0.095735 0.242206 0.126360 -0.063345 0.166054 0.093572 0.191027 -0.129224 -0.158894 0.223699 -0.206933 0.183026 0.190800 0.037559 0.031326 0.144078
M063~a -0.349456 0.176257 0.383586 -0.240551 0.148811 0.196266 -0.147271 0.181789 0.112729 -0.166297 0.435450 0.032982 -0.129810 -0.272104 -0.046097 -0.162940 -0.087074 0.062855 -0.278501 0.082818 0.155472 -0.125799 0.017081 -0.033814 0.023435 -0.106585 0.036920 -0.061364 0.108505 -0.008351 -0.079612 0.056317
M254~a -0.086525 -0.249364 0.175100 0.009102 -0.055995 -0.412212 0.043463 -0.222231 0.232592 0.122889 -0.009618 0.164312 -0.324565 -0.066655 -0.427946 -0.186241 0.051299 -0.260327 0.027180 0.025256 0.021709 -0.199663 0.113488 0.159167 -0.147105 0.049709 0.080129 0.037827 -0.063506 0.129402 0.062444 0.210688
M390 0.007180 0.064073 -0.064928 0.120659 0.173778 0.071641 0.169476 -0.061361 0.164954 -0.257525 0.191131 -0.034680 0.231744 0.170829 -0.386171 0.109026 -0.151341 0.488867 0.086637 0.044986 -0.177795 0.218400 0.184455 0.051472 0.070234 -0.071727 -0.058860 0.192690 0.041672 -0.021700 0.095191 0.291096
M128~de 0.037878 0.063636 0.005445 -0.028968 0.200487 0.050581 0.002892 -0.000754 -0.168753 -0.022306 0.003527 0.095618 0.004967 -0.153021 -0.007387 -0.027588 -0.070123 -0.061052 0.069962 -0.088698 0.062983 -0.090509 -0.015038 -0.071826 -0.065258 -0.008834 0.001736 -0.246436 -0.521809 0.684645 0.093575 0.186272
|M157+M377~e+M377~e| 0.041587 -0.019487 -0.003012 0.012417 -0.050671 0.032901 0.042060 -0.005846 0.006801 -0.005025 0.012800 0.026094 0.115378 0.025288 0.014018 0.012008 -0.041385 -0.075909 0.135942 -0.018398 -0.211184 -0.044877 0.105400 0.067117 -0.129367 0.147305 -0.062466 0.032361 -0.266586 -0.108737 -0.862493 0.135556
M372~m -0.043744 -0.085911 -0.111638 -0.013520 -0.071419 -0.104257 -0.068442 -0.047415 -0.046735 0.062482 0.066422 -0.057602 -0.081644 -0.063186 0.171093 0.077425 -0.160746 -0.010089 -0.057327 -0.054566 -0.062077 -0.109000 0.117447 -0.335235 0.008378 0.093706 -0.605945 0.482231 0.234339 0.196210 0.010596 0.138584
M029~c 0.048845 -0.384250 0.495698 0.180103 -0.180047 -0.026614 0.157551 0.419190 -0.019570 -0.166001 0.003532 0.136501 -0.063434 0.177674 -0.104908 -0.044054 -0.067665 -0.212936 0.225162 -0.086747 0.036350 0.099910 0.058791 0.250987 -0.090636 -0.032270 -0.060836 -0.039781 -0.041555 0.117304 0.063209 0.151993
M291 0.143845 -0.221338 -0.146191 0.165308 0.095302 -0.006741 0.024430 -0.156021 -0.028127 0.251226 0.007623 0.151761 -0.023010 0.126438 -0.100505 -0.326618 -0.209360 -0.208745 0.005128 -0.068990 0.179848 0.017358 0.329142 -0.118691 -0.004299 0.022280 -0.364791 0.238615 0.020445 0.036194 -0.364767 0.233863
M377~g -0.001900 -0.082713 -0.010652 -0.134299 -0.159875 -0.085986 0.013246 0.106493 -0.031675 -0.017154 0.129813 -0.112954 0.194296 -0.253970 0.030363 0.099059 -0.057486 -0.005046 0.139245 -0.149362 -0.317732 0.307677 0.238298 0.304474 0.508788 -0.301910 0.092785 0.119970 -0.007794 0.031440 0.031898 0.146358
M223~a 0.077457 -0.052213 -0.053707 0.092282 0.022927 0.031541 0.069761 0.054703 -0.061908 -0.049695 -0.025378 -0.061930 0.035974 0.032566 0.164134 -0.166474 -0.102905 0.126672 0.121014 0.142189 0.167975 -0.156122 -0.074261 0.084072 -0.228197 0.110913 0.620280 0.521889 0.130980 0.076113 0.020172 0.176601
M270~m 0.090801 0.411441 -0.087853 0.036530 0.090513 -0.119065 -0.067952 -0.069303 0.377581 0.003119 0.038496 0.308440 -0.470644 0.028128 0.074016 0.047971 -0.423945 -0.199564 -0.040418 -0.083216 -0.062099 0.047409 0.111461 0.207341 0.107678 -0.091657 0.022133 0.012193 0.000193 -0.013158 0.014490 0.041336
M371~a 0.315155 0.020406 0.616415 0.357498 0.080567 -0.252559 -0.081153 0.218853 0.020624 0.017125 0.261236 -0.125050 -0.066568 -0.140851 -0.144407 0.073237 0.138426 -0.177968 0.114938 0.169719 0.018956 -0.042833 0.007526 0.011428 0.075540 -0.009839 0.014589 -0.079158 0.007601 -0.035176 -0.150005 0.036499
M361~d 0.004726 -0.215845 0.202848 -0.110932 0.254487 -0.144180 -0.380985 0.374922 0.117009 -0.143804 -0.499148 0.161108 0.175241 0.270460 0.079514 -0.091177 -0.059989 0.056883 -0.001255 -0.025508 -0.134270 0.032175 0.014667 0.179035 -0.123530 -0.004126 -0.051531 -0.041918 0.080415 0.025162 0.051230 0.111654
M281~d 0.037878 0.063636 0.005445 -0.028968 0.200487 0.050581 0.002892 -0.000754 -0.168753 -0.022306 0.003527 0.095618 0.004967 -0.153021 -0.007387 -0.027588 -0.070123 -0.061052 0.069962 -0.088698 0.062983 -0.090509 -0.015038 -0.071826 -0.065258 -0.008834 0.001736 -0.246436 -0.521809 0.684645 0.093575 0.186272
M049~n 0.263324 -0.162791 0.242681 -0.048542 0.231898 0.027308 -0.192513 -0.054003 -0.015838 0.393588 0.125517 -0.171764 0.053392 0.131305 -0.040013 0.352430 0.262574 0.459005 0.070208 -0.096132 0.159525 -0.154908 0.163502 0.087822 0.021000 0.082253 -0.016086 -0.053117 0.028817 -0.050834 -0.024269 0.100544
M038~i -0.120266 0.039214 0.042388 -0.062892 -0.011189 0.202884 0.322710 -0.081247 -0.106101 -0.063694 -0.076919 0.265323 0.133027 -0.119659 0.159032 -0.132212 0.032103 -0.074807 -0.031903 -0.305058 -0.094749 -0.339405 0.008737 -0.356044 0.073797 -0.113829 0.172322 -0.277276 -0.070765 0.397105 0.012862 0.142258
M096~4 -0.337644 0.337139 -0.130047 -0.139591 0.075403 0.040679 0.180538 -0.330447 -0.014340 -0.415446 0.033980 0.115053 0.106489 0.296908 0.264590 -0.004780 0.171703 -0.000066 -0.031120 0.030728 0.324433 0.116734 0.092304 0.075834 0.063856 0.094056 -0.058501 -0.092833 0.151444 0.045101 -0.105589 0.066757
M146~5 -0.300174 -0.422109 -0.138722 0.381646 0.024591 -0.200155 -0.325051 0.088836 -0.259189 0.036619 -0.209238 0.224312 0.179357 -0.301003 0.087644 -0.011941 0.047962 0.055685 0.143043 -0.086806 -0.151958 0.214898 0.010974 0.041107 0.010700 0.021351 0.041140 0.008539 -0.003393 -0.056247 0.054531 0.080176
M048~i 0.116167 0.016818 0.047840 -0.092056 0.201682 -0.112663 -0.066932 0.028831 -0.238066 0.069550 0.097020 -0.025979 0.126966 -0.248101 0.107503 0.012888 -0.117414 -0.072736 0.112595 -0.137993 -0.130302 0.101748 0.106394 0.162362 0.216093 -0.133860 0.016290 -0.169597 -0.391862 0.566700 0.087480 0.252926
M352~s -0.109863 -0.126443 -0.089715 -0.033794 -0.058747 -0.137448 -0.077953 -0.072800 -0.107888 0.059695 0.049540 -0.042391 -0.054255 -0.085404 0.193649 0.089145 -0.134596 -0.019438 -0.065016 -0.068738 -0.077111 -0.098656 0.129506 -0.312225 0.020110 0.083124 -0.593192 0.476416 0.235630 0.186508 0.013612 0.140915
|M325+X| 0.043143 -0.046334 -0.470083 0.374842 0.387397 0.012500 -0.099575 -0.275703 -0.268178 0.034994 0.059336 0.092305 0.287934 0.193266 -0.031045 -0.211797 0.065280 0.114031 0.111744 0.221021 0.154731 0.071097 0.137198 -0.048344 0.043580 -0.040375 -0.026453 0.076673 0.032819 0.006213 -0.001229 0.084255
M513 -0.001900 -0.082713 -0.010652 -0.134299 -0.159875 -0.085986 0.013246 0.106493 -0.031675 -0.017154 0.129813 -0.112954 0.194296 -0.253970 0.030363 0.099059 -0.057486 -0.005046 0.139245 -0.149362 -0.317732 0.307677 0.238298 0.304474 0.508788 -0.301910 0.092785 0.119970 -0.007794 0.031440 0.031898 0.146358
M295 -0.087183 -0.132155 -0.059376 0.176143 -0.023945 -0.067124 -0.182198 0.047607 -0.177513 0.125840 -0.101700 -0.036499 0.195230 -0.399389 0.027002 0.033956 0.000155 0.046879 0.383415 -0.206405 -0.071363 0.321729 -0.062046 0.010360 -0.044070 -0.207016 0.296181 0.150562 -0.029403 0.310901 0.054404 0.285078
M292~i 0.037778 0.068481 0.035475 -0.062184 -0.035504 -0.072433 -0.094294 0.033964 0.053114 0.082384 0.067734 0.015925 0.058695 -0.077828 -0.036375 0.091540 0.050494 -0.110719 0.334207 -0.242718 -0.293594 0.404972 -0.116959 0.000275 0.019918 -0.415694 0.035654 0.066605 -0.024469 -0.004895 -0.514245 0.212796
|M317+M260| -0.045018 -0.145714 -0.030731 -0.171888 -0.067016 0.046174 0.207020 0.174251 0.082214 0.261889 -0.239666 -0.048617 -0.055185 -0.065429 -0.056978 -0.465837 -0.016837 0.139460 -0.267338 -0.133409 0.467309 0.370438 0.125955 -0.028036 0.095126 -0.018763 -0.049666 -0.030368 0.012422 0.012241 -0.086167 0.043703
