? 32
M131~E -0.233561 0.154577 -0.109902 0.033541 -0.061714 0.113530 0.237917 -0.165274 0.001516 -0.176460 0.053783 0.290068 -0.307346 -0.137597 0.094386 0.201647 0.021172 0.079143 0.235152 0.327284 -0.128829 -0.214717 0.124130 0.141566 0.054542 -0.135819 -0.080543 0.137950 0.111165 -0.055884 0.392100 0.207757
M157 0.082897 -0.071303 -0.076381 -0.106538 -0.107468 0.062599 -0.060491 0.223310 0.091140 0.107766 0.129843 0.059371 0.005799 0.118550 0.144999 0.061336 0.023576 -0.007677 0.054285 -0.303459 0.279052 -0.541938 -0.091732 0.233602 0.389375 0.160116 0.176901 -0.017490 -0.092068 -0.117124 -0.233043 -0.084456
M388 -0.000668 -0.044400 -0.023526 0.042299 -0.074060 -0.009132 0.027012 -0.037110 -0.009116 0.021146 -0.009204 0.059261 -0.059886 -0.176579 0.079201 -0.028551 0.032164 0.004617 0.031960 0.018222 -0.072008 0.043959 -0.015117 -0.375360 0.011881 -0.112923 -0.031763 -0.043715 -0.479461 -0.599511 -0.249766 0.351976
M206~D 0.228172 -0.244047 0.192216 0.055483 -0.099771 -0.000835 -0.060989 -0.104881 0.104977 -0.027424 -0.012623 0.042126 -0.095390 0.047026 -0.023021 -0.140560 -0.204457 -0.165330 -0.028586 0.001516 -0.254018 0.085402 -0.081364 -0.399303 -0.178257 -0.305691 -0.210101 0.367382 0.386401 0.084403 0.030888 0.093903
M066 -0.080812 -0.485357 0.036653 0.034823 0.387744 0.057148 -0.251008 -0.245527 0.089359 0.186390 0.004176 0.285028 -0.239384 0.157502 0.063866 -0.053336 -0.162085 -0.063033 0.002192 -0.254116 0.045689 -0.084494 0.037669 0.031385 0.117193 -0.086177 -0.034796 0.235256 0.132275 0.022709 -0.136323 0.211315
M352~O -0.074938 0.137830 -0.018814 0.123669 0.065851 0.536832 -0.244749 -0.056689 0.431837 -0.009892 -0.111691 -0.359904 0.019508 0.177605 0.178095 0.036281 0.069474 -0.069118 0.215263 -0.053092 -0.209281 0.080204 -0.022094 0.106642 -0.041735 0.033827 0.080712 0.014654 -0.145580 0.132667 -0.074960 0.188875
M370 -0.184218 0.008162 0.036013 0.005656 -0.016527 0.017725 -0.057034 0.290254 0.122519 0.413172 -0.091459 -0.013339 -0.133098 -0.146746 0.245429 -0.053144 0.077701 0.178514 0.069701 0.018307 0.592270 0.200302 0.107882 0.099425 -0.193215 -0.046940 0.053209 0.141482 0.088186 -0.038475 0.176882 0.146806
M218 0.207825 0.034897 -0.045109 -0.164470 -0.174780 -0.008169 0.021902 0.140134 -0.053717 -0.054939 -0.087567 -0.201633 0.123047 -0.211160 0.073477 -0.224327 -0.272102 -0.089385 -0.110382 0.036215 -0.173305 0.058492 -0.148001 0.202679 0.321853 -0.242057 0.158720 0.416782 0.305940 -0.151177 -0.119421 0.149454
M096~D 0.071894 0.076118 0.046910 0.057953 -0.078059 -0.065502 -0.129360 0.030857 0.092883 -0.103543 -0.022232 0.030765 -0.140546 0.049717 -0.074823 0.106708 0.165848 -0.084777 -0.271553 0.207333 0.018925 0.400754 -0.406215 -0.296872 0.238931 0.483473 -0.028786 0.018161 0.153772 0.034567 0.072352 0.088405
M347 -0.117603 0.102054 0.097923 0.087867 -0.007423 -0.384848 0.046948 -0.326423 0.232763 0.336785 -0.229649 -0.106371 0.276751 0.318027 0.281919 -0.033443 0.045513 0.140794 0.076441 0.044086 -0.128452 -0.067267 -0.013376 -0.065967 0.141574 -0.052801 0.261125 -0.078065 0.077174 0.042010 -0.074233 0.214389
M259 -0.134985 -0.316840 0.152779 0.199462 -0.215049 -0.093267 -0.181177 -0.008351 -0.306477 0.070759 -0.171883 0.437964 0.001651 0.047738 0.051552 -0.078011 -0.032114 0.007034 -0.000587 -0.017379 -0.188063 0.214544 0.072878 0.368341 -0.197517 0.065666 0.112415 -0.095811 0.139422 -0.048053 -0.088887 0.283818
M263 -0.010647 -0.592423 0.378800 0.056116 0.066152 0.325977 -0.003676 -0.178259 -0.009317 0.080578 -0.044121 0.107987 -0.101274 0.126069 -0.058878 -0.062277 -0.175693 -0.090012 -0.180914 0.032574 -0.052004 0.103285 0.145920 0.357471 0.079117 0.125726 0.070916 0.003478 0.005985 -0.071280 -0.091263 0.174384
M329 0.355414 0.298388 -0.276573 0.261631 -0.103273 -0.056390 0.257979 -0.239583 0.048413 0.214519 0.016823 0.286778 -0.312366 -0.053356 0.150642 0.022703 -0.035223 0.209630 0.118987 0.157581 0.250988 0.121548 0.031484 0.168015 0.000491 -0.099228 0.082499 0.132989 0.067173 -0.016684 0.040559 0.124302
M387 0.156086 0.179367 -0.026427 0.103683 -0.067477 -0.086202 -0.270092 0.031365 -0.025963 -0.095856 0.016383 -0.146021 0.028104 0.143252 -0.358574 -0.224309 -0.014443 0.349601 0.045068 -0.042656 -0.115123 -0.379127 0.297433 -0.028098 -0.105646 0.359154 0.054440 0.182617 0.077896 -0.142965 -0.062674 0.187132
M110 0.091338 0.331055 0.272968 -0.203345 0.106625 -0.081639 -0.041720 0.072860 0.149187 -0.027060 0.089090 -0.156628 -0.175723 -0.263624 -0.206796 0.011172 -0.350842 0.065167 -0.245612 0.070838 0.079828 -0.021543 0.138837 -0.145094 0.069633 -0.152308 0.192698 -0.383154 0.144674 0.005097 -0.058145 0.257341
M316~E2 0.113157 -0.198408 0.064791 -0.251666 -0.364297 -0.100604 -0.069328 0.001402 0.214081 -0.019120 0.000849 0.136435 -0.069181 0.122178 -0.171223 0.089023 -0.011829 -0.040050 0.121427 -0.025491 -0.208159 0.057358 -0.023104 -0.362965 -0.256129 -0.374064 -0.283865 0.188527 0.267271 0.085459 0.089327 0.080534
M296 0.169277 0.148757 -0.139569 -0.355280 0.163876 -0.306927 -0.379190 0.339176 -0.087068 0.078937 -0.259478 -0.323105 -0.154159 0.159531 0.255928 0.116190 0.020411 -0.067627 0.099985 -0.123181 0.039191 -0.006645 -0.021837 0.028775 -0.095954 0.047600 -0.065500 0.170717 0.042188 -0.043410 0.007108 0.167958
M201 0.050983 -0.021540 -0.005065 0.010625 0.052236 0.032507 0.038764 0.004969 0.009555 0.005947 0.005677 0.036709 0.112225 0.029926 0.010843 0.009376 -0.046283 -0.076731 -0.136122 0.017324 -0.212874 -0.017701 0.108532 0.066666 0.131432 -0.145231 0.060733 -0.032290 -0.266007 -0.109530 0.862166 0.135600
M203~A 0.309430 -0.287530 -0.049933 -0.017678 -0.195400 -0.092504 -0.178858 0.213917 0.053023 0.514020 -0.069685 -0.240478 -0.203349 -0.142266 0.197247 0.145895 0.257769 0.065455 -0.026963 0.097774 0.129982 -0.089606 0.018594 -0.000072 -0.159482 -0.081333 -0.021549 0.062878 -0.026203 -0.006308 0.302630 0.087887
M371 -0.207524 0.151960 -0.201926 0.369317 0.572271 -0.223361 -0.045645 0.188489 -0.175247 0.040781 0.162275 0.032371 0.099045 -0.059827 0.080392 0.007157 0.017246 0.099088 -0.048692 -0.117913 0.151036 0.259488 -0.039118 -0.022778 0.046002 -0.100045 0.005173 0.321129 0.097977 -0.050545 -0.023634 0.124271
M288 -0.045861 0.130946 0.102107 -0.209905 0.201268 -0.011451 -0.161929 -0.087404 -0.231904 0.258555 0.060317 -0.093437 -0.096872 -0.065569 -0.080438 0.093641 0.124756 0.070205 -0.045200 0.177111 -0.191721 -0.310080 0.059166 0.122700 -0.075517 -0.304098 -0.035644 -0.045604 -0.005370 -0.011160 -0.584641 -0.202456
M301 -0.064594 0.173445 -0.128543 0.084713 -0.022386 -0.217218 0.050392 -0.094458 -0.044056 0.091652 0.196526 -0.001067 0.250322 -0.194550 -0.355889 0.406062 -0.014555 0.011382 0.367926 0.275232 0.176286 -0.121005 -0.017663 0.139283 0.191461 -0.115002 -0.162648 -0.023006 0.123026 -0.056991 -0.026831 0.262710
M317 0.005472 -0.155321 -0.030203 0.252320 -0.036461 0.207763 -0.400977 -0.298639 -0.313392 -0.068537 -0.048429 0.188256 -0.026104 0.176446 -0.268563 -0.219741 0.038529 -0.051946 -0.250564 -0.242061 0.262410 -0.076784 0.210282 -0.134375 0.006047 0.054388 0.119999 0.050456 0.063446 -0.070765 0.019683 0.178694
M149~A1 0.093306 0.237038 -0.420264 0.251520 -0.029993 0.149343 0.168246 -0.079404 0.121648 -0.280932 0.070759 0.160486 -0.307469 -0.047275 0.140915 0.316625 -0.148092 0.075033 0.131604 0.116566 -0.067609 -0.040791 0.037940 0.194065 0.060460 -0.094628 0.013373 0.060654 -0.079488 -0.083446 0.378970 0.137380
M219 0.070628 0.316986 -0.042140 0.053901 -0.089148 -0.106028 -0.052521 0.049547 0.318397 0.093018 0.068321 0.246918 -0.491485 0.007882 0.070536 0.034706 -0.450703 -0.219948 0.053761 0.101102 -0.056733 0.076014 0.149879 0.273707 -0.150203 0.127246 -0.035620 -0.019486 0.000610 -0.027479 -0.036896 0.168723
M346 -0.235716 0.088535 -0.164878 -0.167433 0.372065 -0.002069 0.006341 0.289346 0.077575 0.138591 -0.121279 0.114283 -0.011384 -0.116824 0.270658 0.058922 0.053782 -0.058987 0.068616 -0.206475 0.219865 -0.250844 0.063409 0.106213 0.079407 0.511094 0.044290 0.057939 0.061174 -0.055544 -0.229642 0.054789
M039~C -0.042094 0.054837 0.439394 0.073905 -0.135320 -0.243977 -0.439138 -0.157940 -0.416479 -0.094605 0.385668 0.056583 -0.062407 -0.043143 -0.109059 -0.067736 0.064521 0.202119 0.162616 -0.012916 -0.048392 -0.115084 -0.049095 0.164141 -0.003726 -0.019283 0.095688 0.042790 0.080032 -0.047498 0.052288 0.071773
M054 -0.323292 0.227339 0.222599 0.082848 0.094483 -0.258298 0.051804 -0.197356 -0.036212 0.148128 0.054711 -0.221515 -0.236228 -0.283314 -0.400045 0.029380 0.214348 -0.050958 -0.163183 -0.180224 0.143422 -0.130317 -0.078482 0.161871 0.143514 0.021840 -0.036301 0.124084 -0.014257 -0.093329 0.238043 0.129963
M123~B -0.034634 -0.133632 -0.052830 -0.159866 0.069546 0.058189 0.206307 -0.175908 0.144499 -0.196728 -0.230902 -0.037223 -0.003472 -0.056708 -0.029831 -0.433532 -0.004074 0.102008 0.203840 0.139900 0.390095 0.290329 0.157270 -0.007767 -0.030483 -0.046203 0.074233 0.013444 -0.101817 -0.035075 0.448941 0.099042
M365 -0.223268 0.017504 0.193365 -0.021992 0.022255 0.128734 -0.196787 -0.073558 -0.025571 0.019907 0.304755 0.289521 0.178586 -0.089717 0.015549 -0.192161 -0.025426 0.018499 -0.067251 0.043668 -0.174753 -0.058186 0.188696 0.012707 -0.015730 0.156518 0.032712 0.002220 -0.117151 -0.087261 0.665963 0.167732
M297 0.192820 -0.015926 -0.123536 -0.164467 -0.037336 -0.140245 -0.362938 -0.219909 -0.032938 0.000875 -0.229649 -0.047579 0.073614 0.114789 0.304749 -0.005557 0.025774 0.134084 -0.005472 -0.195733 0.101835 -0.035563 -0.096641 0.227523 0.143979 -0.017952 -0.456134 -0.316637 0.148335 0.013023 -0.024790 0.263894
M377 -0.027305 -0.142123 0.217840 0.126167 -0.159597 -0.214604 0.047003 -0.133968 -0.042916 -0.478307 0.215806 -0.352228 -0.108390 0.177410 0.309894 0.152657 0.216883 0.156075 0.139023 0.184759 0.109892 -0.132039 -0.151082 0.209460 -0.059288 -0.078265 0.004357 0.061408 -0.009949 -0.058750 0.048080 0.140782
M251 0.097700 -0.045578 -0.054796 0.081514 -0.010563 0.033010 0.066169 -0.050560 -0.089853 0.029122 -0.020558 -0.068267 0.032965 0.029354 0.166362 -0.173549 -0.108447 0.125433 -0.124677 -0.140888 0.147605 -0.173460 -0.074065 0.084230 0.227496 -0.105908 -0.630866 -0.504760 0.128285 0.077607 -0.020034 0.175714
M146 0.051396 0.221557 -0.037879 0.184087 0.092184 -0.299622 0.150536 -0.155357 0.329160 0.140750 -0.075521 -0.062087 0.111020 -0.114538 -0.226061 -0.168560 0.228297 0.012939 0.112119 -0.080122 -0.084782 -0.165120 -0.330108 0.124827 0.002330 -0.145892 0.102501 -0.386606 0.112201 0.111792 -0.032183 0.295869
M240 -0.041275 0.064740 0.164292 0.148915 0.028423 0.050449 -0.172111 -0.362460 0.115929 0.261557 -0.449917 -0.108035 0.263844 0.230477 0.095582 0.009335 -0.082492 -0.008499 0.250605 0.147452 0.111337 -0.091890 -0.137583 0.127668 0.050283 -0.030158 0.151433 0.109596 -0.163188 0.260616 -0.062237 0.261506
M096 -0.312092 -0.280064 -0.477826 0.236235 0.125853 -0.051236 -0.234518 -0.105002 0.061291 -0.111653 0.078095 0.228452 -0.139739 0.021483 0.056521 0.028200 0.123316 0.036585 0.099968 0.005149 -0.098530 0.038640 -0.075465 0.098403 0.162681 -0.200466 -0.089630 0.279679 0.323665 -0.008104 -0.035726 0.211917
M177~A 0.050983 -0.021540 -0.005065 0.010625 0.052236 0.032507 0.038764 0.004969 0.009555 0.005947 0.005677 0.036709 0.112225 0.029926 0.010843 0.009376 -0.046283 -0.076731 -0.136122 0.017324 -0.212874 -0.017701 0.108532 0.066666 0.131432 -0.145231 0.060733 -0.032290 -0.266007 -0.109530 0.862166 0.135600
M328~B 0.063199 -0.094701 0.007636 -0.278548 0.209583 0.044005 0.006606 -0.032420 -0.014237 -0.180902 -0.031848 0.176831 0.154437 0.016695 -0.132601 -0.078996 -0.176282 0.131758 -0.047945 -0.058979 0.060027 -0.191812 -0.636758 0.113931 -0.329168 -0.099215 0.149779 -0.038667 -0.083959 -0.068929 0.269663 0.097869
M297~B 0.260370 -0.083447 0.153615 -0.040913 0.049835 -0.272999 -0.503133 0.002017 0.025295 0.046334 0.059640 0.053479 -0.147141 -0.123389 0.433878 0.115292 0.027233 0.130868 0.078526 -0.118299 0.317555 -0.212682 -0.082474 0.096135 -0.036196 0.104925 0.096025 0.229226 0.085013 -0.063003 0.080662 0.173946
M124 0.070075 0.189597 -0.008616 -0.106025 0.005723 0.074922 0.078140 -0.162539 -0.046145 -0.042441 0.221693 -0.004887 0.148073 0.284803 -0.066328 -0.000257 0.267035 -0.557944 -0.250984 -0.020208 0.308615 -0.131732 0.146298 0.127223 -0.193999 -0.065504 0.101107 0.024053 0.076174 -0.158324 -0.154256 0.213375
M006 0.254419 0.169594 -0.013456 0.230918 -0.045729 -0.205431 0.208738 -0.094925 0.075599 0.670676 -0.062793 0.059252 0.198114 0.051169 0.155822 0.052207 0.120134 0.259129 -0.001136 0.102759 0.130660 -0.040240 0.009071 0.044212 -0.018844 -0.038973 0.076946 0.074715 -0.047450 0.011417 0.273797 0.143832
|M351+N14| -0.030078 0.148504 0.085972 -0.348112 0.270455 -0.032491 -0.067233 -0.166223 0.018298 -0.055836 0.283211 -0.092476 -0.182265 0.075098 0.243988 -0.284919 -0.176046 0.041492 0.095442 -0.007225 0.173610 0.263080 0.058764 -0.193744 -0.112630 -0.195115 -0.213678 0.105371 0.031345 0.047437 0.354488 0.227391
M319 0.204174 -0.227344 -0.062909 -0.216484 0.123837 -0.067839 -0.051244 0.009889 -0.064994 0.277889 0.062927 -0.060269 0.104854 -0.227908 -0.005708 0.063099 -0.013890 0.109240 -0.089886 0.146326 -0.041440 0.051169 -0.340063 0.149196 -0.681743 0.024046 -0.018403 -0.008786 0.066667 0.012488 0.054557 0.141262
M009 0.058534 0.036808 -0.069044 -0.357109 0.156073 0.341707 0.108984 0.135989 -0.243068 0.060000 0.417154 -0.027072 -0.234406 0.169171 0.296415 0.065130 0.108752 0.066161 0.181416 -0.059445 -0.028325 0.182092 -0.056594 0.040516 0.114749 -0.156545 0.290978 -0.050301 0.102339 0.013220 -0.110013 0.198125
M001 0.439816 0.113396 0.234956 0.096566 0.359634 -0.005972 -0.192755 0.107042 0.037133 0.184508 -0.092868 0.166789 0.001346 0.149199 0.033365 0.067749 0.097442 0.096505 0.069143 -0.340873 0.091796 -0.023070 -0.033692 -0.160715 0.082777 -0.026067 0.051913 0.240885 0.072180 -0.067086 0.325725 0.302643
M320 0.217298 0.380963 0.136524 -0.371396 -0.394131 -0.119293 0.250460 -0.168223 0.197130 -0.018347 0.101097 0.016019 -0.060263 -0.041396 0.087879 -0.112839 -0.053951 -0.088198 -0.050760 0.084261 0.053315 0.259564 -0.004517 -0.122392 0.017981 0.128252 -0.070636 0.098594 -0.042785 0.255681 0.023873 0.331908
M125 0.023979 0.035126 -0.258857 0.225917 -0.376463 0.043231 -0.001026 0.274226 -0.220145 -0.110552 -0.095765 0.246534 0.199662 0.307038 0.059511 -0.276366 0.125025 -0.104045 -0.006404 -0.117001 0.409294 0.197072 0.170917 0.044253 -0.099983 -0.003883 0.079977 -0.009242 0.023025 -0.021203 0.125318 0.075924
M263~A -0.266986 -0.271254 0.009337 0.060923 -0.236685 0.075327 0.157916 0.022383 -0.047317 0.393288 0.212270 0.155463 0.104548 0.217860 0.176813 -0.095456 -0.217823 0.188533 -0.121506 -0.131536 0.052663 0.262610 0.086883 0.359005 0.156235 0.085828 0.163518 0.090152 0.101393 -0.006674 -0.054713 0.190030
M032 0.056270 0.153926 0.184045 0.233651 -0.012312 0.501679 -0.199969 0.187169 -0.120338 -0.065166 0.081867 -0.038759 -0.171297 -0.099700 -0.095287 -0.050395 -0.381126 -0.002382 -0.069864 -0.044609 0.209835 -0.074690 -0.363783 -0.006047 -0.114777 0.044017 0.067903 -0.115957 0.036415 0.191386 -0.091169 0.257750
M059 -0.534140 0.307638 0.103795 -0.280867 -0.266132 -0.001088 -0.389625 0.086956 -0.041265 -0.003919 0.119010 0.097556 -0.058145 0.060978 0.118666 -0.255454 0.071453 0.087842 0.025259 0.042727 0.210426 0.216713 -0.108979 -0.131100 0.103432 0.145665 0.025063 0.020113 0.080841 0.016617 0.072189 0.088301
M024 -0.011634 0.044462 0.315236 -0.053053 0.023180 0.244340 0.156572 -0.216381 -0.541331 0.194525 -0.055942 0.043938 -0.320285 -0.084523 -0.170537 -0.000994 0.019361 0.024243 -0.010742 -0.221894 -0.079783 0.064479 0.104553 0.056369 0.096095 -0.051256 0.345250 -0.089241 0.187143 -0.009841 -0.050558 0.194239
|M218+M288| -0.113407 -0.028526 0.204006 -0.029099 -0.003000 0.021572 0.015961 -0.094424 -0.096434 0.063837 0.085184 0.117401 -0.119309 -0.226124 -0.129414 -0.276842 0.185406 0.028124 0.229711 -0.035519 -0.347014 -0.013439 0.055583 0.065596 -0.136987 -0.148824 -0.498649 -0.184720 0.311714 0.081099 0.008030 0.310427
M377~E -0.278472 -0.040871 -0.227106 -0.077843 0.220310 -0.007261 -0.052900 -0.213796 0.135159 -0.195864 -0.047460 -0.501954 0.283327 -0.357245 -0.120586 -0.102389 0.145448 -0.081891 -0.195006 0.059214 -0.037769 0.162928 0.202236 0.159217 -0.140289 0.020554 -0.002385 0.016967 0.008352 -0.018439 -0.061143 0.184730
M371~C 0.097700 -0.045578 -0.054796 0.081514 -0.010563 0.033010 0.066169 -0.050560 -0.089853 0.029122 -0.020558 -0.068267 0.032965 0.029354 0.166362 -0.173549 -0.108447 0.125433 -0.124677 -0.140888 0.147605 -0.173460 -0.074065 0.084230 0.227496 -0.105908 -0.630866 -0.504760 0.128285 0.077607 -0.020034 0.175714
M248~C 0.051582 0.059565 0.015494 -0.013788 -0.200968 0.054408 -0.000201 0.010849 -0.167402 -0.026898 -0.009766 0.096781 0.002424 -0.149275 -0.018455 -0.030989 -0.073506 -0.062890 -0.069645 0.088337 0.048406 -0.099286 -0.017803 -0.072686 0.065558 0.009627 0.005861 0.247663 -0.520133 0.684445 -0.093065 0.186700
M222 0.010039 -0.098711 -0.040054 -0.074376 0.142745 -0.109615 -0.021378 -0.073664 -0.063508 -0.053798 0.164001 -0.006623 0.117567 -0.157467 0.072799 0.039664 -0.113429 -0.023363 -0.048330 0.221655 -0.353284 0.168344 0.279335 -0.161727 -0.522073 0.143104 0.155331 -0.272683 0.262656 0.172647 0.010101 0.229682
M057~B 0.132722 0.026642 -0.559871 -0.051170 0.094103 0.227974 -0.041080 -0.093869 0.101078 -0.314719 0.003374 0.105391 -0.158328 -0.104826 0.095348 0.188441 -0.161505 0.149519 0.103509 0.178561 -0.077529 -0.100749 -0.219180 0.276968 -0.326646 0.131566 -0.017707 0.030931 0.033932 -0.070259 0.022692 0.171475
M325 -0.089399 -0.110240 0.007322 -0.428974 0.038434 0.162951 -0.096867 -0.160483 0.091398 -0.087988 0.059754 0.035534 -0.005868 -0.169596 -0.030729 -0.545206 -0.050918 0.227169 0.300791 0.092878 0.328125 -0.025594 0.092037 -0.007026 -0.043562 0.150740 0.046531 0.123208 0.073670 -0.045830 0.231861 0.106307
|M218+X| -0.116338 -0.099801 -0.054812 -0.116222 0.280272 -0.068225 -0.158232 -0.102814 -0.042968 0.140437 0.297073 0.025058 0.248883 -0.259910 0.064177 0.101241 0.006388 -0.066105 -0.174053 0.008735 -0.020850 0.285827 0.196672 0.250206 -0.531056 0.209882 -0.054173 0.003445 0.021266 -0.051855 -0.044862 0.185735
M038~F 0.210235 0.227739 -0.106711 -0.048319 -0.049801 -0.120916 0.009055 -0.343973 0.050308 0.088517 0.060171 0.032085 0.239626 0.236221 0.021723 -0.113467 0.130684 -0.361855 -0.149715 0.016498 0.091734 -0.276239 0.023843 -0.221308 -0.135938 -0.089981 0.220923 0.000881 -0.160827 -0.387213 -0.146903 0.188133
M110~A 0.125896 0.040736 0.244071 0.049182 0.079140 0.210241 -0.202549 0.010944 0.060161 -0.084382 -0.078743 -0.027734 -0.129370 -0.166196 -0.112527 0.171913 -0.125491 0.106974 -0.262542 0.151169 0.056813 0.239110 -0.068451 -0.391882 0.203252 0.113959 0.351157 -0.315024 0.268373 0.087035 -0.002973 0.174699
M242~B -0.052296 -0.171607 -0.026503 -0.246710 0.164440 0.116952 0.031631 0.293085 -0.267511 -0.256269 0.217215 -0.126599 -0.161425 0.062948 0.032481 -0.051526 -0.063389 0.105279 -0.039199 -0.081193 0.044765 -0.087352 -0.111406 -0.055412 0.123678 -0.091672 -0.147452 0.093396 -0.395113 0.471324 -0.098756 0.232226
|M136+M365| -0.533030 0.197398 0.223216 -0.019751 -0.055690 0.214100 -0.196218 -0.148434 0.041323 0.258342 0.296805 0.045139 0.003198 -0.246667 0.133957 0.104288 -0.082409 0.026139 0.080801 -0.291344 0.285581 -0.028928 0.005906 -0.051242 0.054117 0.102132 0.005146 0.157812 0.149900 -0.015202 0.131475 0.082180
M029~A 0.387627 0.108976 0.104032 0.094610 -0.088415 0.188039 0.184663 -0.060675 0.063834 0.139151 -0.239827 0.042486 0.221739 -0.087275 -0.210028 -0.196937 -0.037394 0.447884 -0.066936 0.065872 0.272847 0.216985 0.171654 -0.173783 -0.005759 -0.225869 0.082849 0.062888 0.141598 -0.032356 -0.002663 0.199280
M136~P -0.031978 0.000661 0.347019 -0.210888 0.079807 -0.202769 -0.168857 0.021258 0.089210 -0.084233 0.141357 0.146574 0.065507 -0.002630 -0.258539 -0.072344 -0.060278 0.197456 -0.152793 -0.038812 0.030354 -0.238129 -0.542140 -0.030615 -0.360002 -0.226488 0.038408 0.026291 -0.019806 -0.060797 0.120903 0.054889
M327 -0.253902 -0.184175 -0.096141 -0.269725 -0.216025 -0.088076 -0.104206 -0.336472 0.185035 0.456170 0.068757 0.097308 0.083975 0.185380 -0.019570 0.032549 -0.195086 0.220498 -0.168870 -0.273975 0.027990 0.013315 0.093762 0.135620 0.107843 0.042997 0.059093 0.116237 0.019694 -0.053289 0.261300 0.146105
M005 -0.101204 -0.077804 -0.045036 -0.322965 0.266316 -0.089379 -0.026590 0.097434 -0.130323 -0.184531 0.197800 0.062591 -0.020200 0.092701 0.062766 -0.112880 -0.097095 0.209545 -0.053303 -0.125049 0.083072 -0.110361 -0.667959 0.105219 -0.295310 -0.087872 0.087575 0.010155 -0.054492 0.004041 0.012843 0.120446
M003~B 0.014168 -0.042404 0.226858 -0.210788 -0.379606 -0.159346 -0.292697 -0.238127 -0.014657 -0.071864 -0.427019 0.072147 -0.075748 0.175912 0.078329 -0.316347 -0.011991 -0.083171 0.041197 0.082528 0.127425 0.240084 0.065836 0.151206 -0.036688 0.062475 0.158337 0.047425 0.078156 -0.070959 0.188071 0.242253
M351~D 0.223896 -0.175685 -0.029412 0.151039 0.052107 0.111903 -0.473678 -0.099314 -0.080521 0.163359 0.288180 0.325362 -0.329608 -0.002315 0.088838 -0.205735 -0.199897 0.119889 0.104286 -0.083513 0.175028 -0.021175 -0.185978 0.124533 0.092027 -0.114517 0.091557 0.217505 0.159063 -0.013870 -0.001226 0.093707
M348 0.023696 0.011551 0.186382 0.090885 -0.225547 0.000062 0.286037 0.004919 0.171017 -0.051440 0.065180 0.036950 0.115205 0.031746 0.096979 0.095826 -0.162407 -0.133397 0.165056 -0.339415 -0.042147 0.024629 0.071624 -0.406881 -0.332549 -0.135936 -0.205905 0.261594 0.313056 0.108356 0.180942 0.105628
M057 -0.044580 -0.067301 -0.044590 -0.486562 -0.174461 -0.168741 -0.097930 0.146605 0.271934 -0.167840 -0.229248 0.209684 -0.077668 0.273262 -0.218039 0.366312 0.157057 0.272934 -0.037580 -0.101986 0.018104 0.016254 0.094036 0.038419 0.093840 -0.175657 -0.095774 0.051623 0.069954 -0.010919 -0.025644 0.156958
M206~B 0.068687 -0.049184 0.355556 0.156666 0.021268 -0.175652 -0.283433 -0.014560 -0.140875 -0.094484 0.302683 0.120010 -0.184332 -0.139057 -0.043150 -0.081067 0.362325 0.093108 0.337779 -0.257604 -0.218592 -0.031649 -0.074092 -0.000390 0.042334 -0.056734 0.242486 -0.212514 0.115419 0.037578 0.015101 0.186802
M383 -0.390181 0.027818 0.051493 -0.301183 -0.189553 0.232420 -0.148973 -0.249120 0.060924 0.280602 0.364101 0.005289 0.009590 -0.165653 -0.088162 -0.048076 -0.039653 0.067072 0.013589 -0.111452 0.035477 -0.127799 0.086623 0.056293 0.098172 0.039069 -0.001820 0.039434 -0.029637 -0.057113 0.499610 0.115506
M072 0.115396 -0.154117 0.119835 0.058199 -0.139914 -0.087379 0.230529 -0.015362 0.212842 -0.231668 0.096743 -0.009431 0.129563 -0.203328 0.183356 0.199905 -0.302262 -0.086627 0.199926 -0.488997 0.031893 -0.076005 0.074450 -0.278862 -0.073388 0.152611 0.211965 -0.099480 0.219525 0.109581 0.037369 0.106348
M041~J 0.068212 0.040774 0.255296 0.140156 -0.024230 -0.238224 -0.526699 -0.131584 -0.192490 -0.106305 0.520862 0.049135 -0.120151 -0.019820 -0.052547 -0.062058 0.036513 0.242006 0.214451 0.003715 0.081333 -0.186074 -0.132250 0.117898 0.018982 -0.037679 0.047176 0.116847 0.084348 -0.039816 0.052324 0.075274
|M036+N14| 0.476063 0.322838 -0.337206 0.181293 0.004673 -0.224531 0.217510 -0.145110 0.027408 0.181504 -0.143903 0.256098 -0.309479 -0.051986 0.198599 0.059777 0.011240 0.189300 0.102830 0.006304 0.173597 0.100887 0.041937 -0.053967 -0.013636 -0.088817 0.031975 0.081553 -0.096939 -0.139372 -0.028515 0.073042
M260~1 -0.005672 0.010267 0.166905 0.031412 -0.085636 0.014496 -0.244373 0.136599 0.178242 -0.151683 -0.088379 0.261954 -0.173396 -0.026904 -0.060539 -0.097600 -0.196687 -0.366743 -0.049002 0.018877 0.060802 -0.025733 0.258330 0.061157 -0.115908 0.131097 0.013244 0.116374 -0.362260 0.435263 -0.084928 0.294776
M125~A 0.391240 -0.403719 -0.003787 0.065149 -0.218730 -0.081761 -0.130943 0.219858 0.047076 0.170785 0.066629 -0.297382 -0.168332 -0.078128 0.222612 0.130777 0.264830 0.089917 -0.047921 0.196500 0.072450 -0.209162 0.023596 0.072626 -0.046828 0.001002 0.042113 0.045762 -0.045500 -0.051516 0.372963 0.102321
M376 0.132380 -0.188815 0.101109 -0.247476 -0.184471 -0.056306 -0.249767 0.172741 0.042390 0.443737 0.133828 -0.198798 -0.229935 -0.210480 0.219104 0.058459 0.189404 0.169609 0.161379 -0.056681 0.345160 -0.164996 -0.113766 0.059312 -0.234325 -0.007621 -0.003467 0.102561 0.091040 0.017772 -0.079104 0.064282
M310 0.004839 -0.119030 -0.087847 -0.115363 -0.051765 0.064688 0.109575 0.202777 0.143714 0.328556 -0.200330 -0.107080 -0.188970 -0.120562 0.172431 -0.227935 0.171718 0.192637 0.172746 0.124460 0.601410 0.206474 0.107743 0.024802 -0.185316 -0.031751 0.048548 0.069592 0.066534 0.018074 0.111528 0.066652
M149~A 0.191216 0.040882 -0.088079 -0.173776 0.358389 -0.229681 0.027991 0.250846 0.023570 0.064439 -0.335179 -0.001984 -0.012410 0.140648 0.111946 0.086161 0.036820 0.043581 -0.055269 -0.262765 0.019954 0.048863 0.185976 -0.061231 -0.036246 -0.092393 0.021726 0.115918 -0.153667 -0.041249 0.575067 0.160324
M381 0.333188 -0.352149 -0.327408 0.008520 -0.041925 0.094533 -0.239360 0.352518 0.058319 0.223018 0.015435 -0.157901 -0.147027 -0.185380 0.164813 -0.044221 0.006368 0.075509 0.055572 0.148509 -0.009220 -0.295625 0.096820 -0.117532 -0.046850 0.098663 0.243594 -0.062019 0.116166 0.003841 0.222137 0.150071
M039~B 0.050983 -0.021540 -0.005065 0.010625 0.052236 0.032507 0.038764 0.004969 0.009555 0.005947 0.005677 0.036709 0.112225 0.029926 0.010843 0.009376 -0.046283 -0.076731 -0.136122 0.017324 -0.212874 -0.017701 0.108532 0.066666 0.131432 -0.145231 0.060733 -0.032290 -0.266007 -0.109530 0.862166 0.135600
|M175+M288| 0.408977 -0.109978 0.263845 0.106368 -0.293671 -0.097122 0.083505 0.041994 0.231104 -0.255777 0.070511 0.088118 0.050394 -0.126062 0.044795 0.078357 -0.106130 -0.124607 -0.044203 -0.172235 -0.012737 0.175551 -0.227110 -0.285818 0.102715 0.403494 -0.035772 0.147408 0.219317 0.019093 0.055658 0.081042
|M305+M111~C| -0.228836 0.136432 -0.185717 -0.087608 -0.089700 -0.030288 0.136440 -0.356459 -0.412016 0.043393 -0.328695 -0.317718 -0.364661 -0.084623 -0.198154 0.085298 0.041318 0.034171 -0.170773 -0.292695 -0.002269 -0.133560 0.002770 -0.021982 -0.017287 0.137363 0.047473 0.050958 0.030028 -0.025756 0.048471 0.030519
M264~A 0.117286 -0.099576 -0.154840 -0.205233 0.275119 0.263143 0.278348 0.060814 0.032243 0.062379 0.007186 0.286296 0.178290 -0.028394 0.202142 -0.177105 0.137914 0.026097 -0.013459 0.314761 -0.061325 -0.403765 -0.009372 -0.143648 0.102505 0.382698 -0.077000 0.055320 0.131527 -0.017971 0.006390 0.047635
|M305+M324~C| -0.228836 0.136432 -0.185717 -0.087608 -0.089700 -0.030288 0.136440 -0.356459 -0.412016 0.043393 -0.328695 -0.317718 -0.364661 -0.084623 -0.198154 0.085298 0.041318 0.034171 -0.170773 -0.292695 -0.002269 -0.133560 0.002770 -0.021982 -0.017287 0.137363 0.047473 0.050958 0.030028 -0.025756 0.048471 0.030519
M302~T 0.074165 -0.103733 -0.022889 0.225090 -0.135037 0.107987 0.173410 0.106244 0.254862 -0.290528 -0.007623 -0.063113 0.040190 -0.188536 0.133185 0.209713 -0.325625 -0.146159 0.286031 -0.507811 0.039675 -0.072777 0.001041 -0.095361 -0.136306 0.263870 -0.046560 0.120088 0.080231 -0.001488 0.065405 0.102252
M340 -0.102367 -0.068635 0.062392 0.053997 0.035631 -0.207072 0.163138 -0.140006 0.240921 -0.157317 -0.089933 -0.086990 -0.127678 -0.234152 -0.235643 -0.473962 0.197431 -0.027364 0.300806 0.075656 0.459329 0.189432 0.083641 0.026686 -0.004966 -0.022885 0.062352 0.000557 0.013661 0.013851 0.169294 0.117929
M372 -0.221845 0.018879 -0.553003 0.300090 0.260456 0.074473 -0.113295 -0.291628 0.065732 -0.000379 0.180410 0.242949 -0.190724 -0.012390 0.085795 0.183049 -0.045366 -0.013516 -0.104125 0.045464 0.035542 0.124123 -0.096340 -0.080627 0.076968 -0.106895 -0.072133 0.288444 0.204948 0.017208 0.069312 0.097707
M354 -0.033817 -0.071105 -0.127748 -0.019897 0.069217 -0.107358 -0.060715 0.041921 -0.029771 -0.080382 0.079117 -0.066161 -0.077667 -0.066211 0.162643 0.075526 -0.169515 -0.014688 0.059676 0.054306 -0.080167 -0.107207 0.113154 -0.339731 -0.007561 -0.095583 0.593014 -0.493303 0.231998 0.192188 -0.009951 0.134535
M153 -0.062648 -0.117493 -0.014011 -0.339840 -0.261681 0.041556 0.114400 -0.012917 0.116196 0.100613 0.208331 -0.016469 0.325098 -0.226790 -0.183371 0.280291 -0.043277 -0.112551 0.513334 -0.206516 0.099989 0.151207 -0.124646 -0.110833 0.106076 0.143454 -0.004747 0.009227 0.019444 0.035499 0.005330 0.177563
M387~C 0.386591 0.035654 0.140777 -0.130348 0.289337 0.062299 0.069483 0.022038 -0.282944 -0.142280 -0.252230 -0.033387 0.012157 0.209311 -0.180268 -0.055048 -0.001181 -0.154750 0.244294 -0.092364 0.375390 0.307958 0.066004 -0.208203 0.022767 0.064353 0.028205 -0.051603 0.045931 -0.053889 0.201124 0.214086
M266~B -0.120669 -0.127259 -0.119579 -0.055896 0.138178 0.224975 0.306301 -0.116627 -0.063536 -0.040440 -0.188881 0.221082 -0.025469 0.001788 0.160566 -0.089814 0.156856 -0.117298 -0.152385 0.293330 -0.098794 -0.300109 -0.084813 -0.223469 0.113667 0.284532 -0.317021 0.069635 0.324299 0.059393 0.059000 0.184320
M228~B -0.174272 0.078356 -0.210387 -0.253392 -0.390059 0.050699 -0.026261 0.035936 -0.017304 0.051815 0.166162 0.161939 0.255998 -0.190345 -0.248398 0.285449 -0.065712 0.106358 0.018260 0.051017 0.103600 -0.022482 0.045951 -0.087518 0.109400 -0.075695 -0.018795 0.138541 -0.323257 0.424676 -0.082562 0.167552
|M296+M296| -0.045377 0.329334 0.043154 -0.232125 -0.236711 -0.116232 -0.441710 -0.228173 0.015174 0.110093 -0.287473 -0.118246 0.158034 0.147629 0.274580 -0.050216 -0.066135 -0.230829 0.051374 0.070767 0.114830 -0.129365 0.012617 0.006329 0.129144 -0.054901 -0.158480 -0.190845 -0.033000 0.159597 -0.068283 0.274751
M305 0.090609 0.257750 0.111624 -0.177807 0.013467 0.066668 -0.510263 -0.053579 -0.008730 -0.110197 0.335528 -0.000315 0.031952 -0.118672 -0.023628 -0.127014 -0.057672 0.185736 0.178377 -0.036302 0.047286 -0.365360 0.101105 0.058215 0.195655 0.198662 -0.049031 -0.022693 -0.074186 -0.159130 0.310657 0.168896
M128~D 0.088750 0.078133 0.170997 0.211030 -0.121023 0.001240 -0.052708 -0.036291 -0.254909 -0.136248 0.045888 -0.005970 -0.019310 -0.214045 0.174775 0.083906 -0.117067 -0.065171 -0.075583 0.171619 0.103002 -0.132891 0.067559 -0.219985 0.019041 -0.120193 0.371532 -0.021676 -0.289358 0.508360 -0.117002 0.283789
M387~EE 0.113949 0.177153 0.013014 -0.171524 0.112969 -0.123842 -0.177375 -0.051426 -0.182947 0.116036 0.083701 -0.150010 0.130966 0.082684 -0.102455 0.282792 -0.191906 -0.266541 0.176583 0.305130 0.069454 0.323837 -0.249308 -0.116473 0.121024 0.370268 -0.166627 -0.059239 0.048627 -0.051721 0.164349 0.200735
M057~A -0.181503 -0.091272 -0.408444 -0.199477 -0.081001 0.217966 -0.112734 -0.117587 0.176118 0.046611 0.326253 0.154287 0.367019 -0.036568 -0.229126 0.336065 0.084303 -0.006033 -0.138195 -0.120432 0.130306 0.026003 0.145918 -0.081241 -0.074893 -0.170096 -0.050384 0.210014 0.153886 0.020939 -0.011303 0.121913
M066~A 0.100598 0.194020 0.192614 -0.106839 0.045554 -0.472741 -0.131036 0.179607 0.119240 0.083209 -0.075632 0.256064 -0.043481 0.200855 0.170152 0.175018 -0.294512 -0.295231 0.011146 -0.287730 0.296623 0.023781 0.196301 0.005917 0.027665 0.011285 0.004270 0.081810 0.059749 -0.046602 -0.011221 0.192571
M101 0.310812 0.231377 -0.121090 -0.002307 -0.277747 -0.048336 0.101773 -0.225445 0.055460 -0.101976 0.083291 0.236953 -0.287324 -0.027087 0.241688 0.098939 -0.258671 -0.007738 0.077569 -0.097330 0.067069 0.004810 0.027473 0.120579 0.024330 -0.138321 -0.456951 -0.217186 0.188016 0.013725 -0.004249 0.230105
M263~1 -0.299090 -0.175193 0.045452 -0.035969 -0.076695 0.037982 0.463168 0.188421 0.166542 0.163434 0.309232 -0.368573 -0.013658 0.366320 0.034928 -0.103754 -0.114026 0.120160 -0.234437 0.018008 -0.116892 0.116727 0.001239 0.084928 0.060974 0.112522 0.067631 0.023908 -0.009516 0.020511 -0.070926 0.206317
M033 -0.359219 0.195267 -0.036627 0.032303 0.049054 0.072016 0.326600 -0.060751 -0.121214 0.111447 0.137494 0.156996 -0.207873 -0.067239 0.296196 0.187383 -0.084819 0.168993 0.113981 0.155885 0.086249 -0.213721 0.169543 0.015652 0.211220 -0.071275 0.230154 -0.175811 0.291822 0.057159 0.152888 0.265948
M317~A 0.042250 -0.138813 0.105893 -0.264337 0.144916 -0.140505 0.137159 0.068427 0.028871 -0.361334 0.424710 -0.032723 -0.054584 -0.012296 0.281527 0.049510 -0.212691 0.101683 0.204202 -0.477395 0.065689 0.047657 -0.127667 -0.116350 -0.023834 0.116968 -0.078274 0.179920 0.061321 0.059750 0.057822 0.104461
M024~1 0.359973 0.231884 0.254783 -0.199736 0.165367 0.204274 0.440636 0.127205 -0.285979 0.191304 0.034013 0.082128 -0.186851 0.090021 -0.190921 -0.067719 0.246279 0.069681 0.200446 -0.160235 -0.161350 0.164792 0.019676 0.032049 0.072363 -0.063748 0.100750 -0.026977 0.082138 0.020702 -0.012397 0.092807
M004 -0.407440 -0.209278 0.133956 -0.137493 -0.102934 -0.222032 -0.038352 0.163161 -0.418736 -0.143899 -0.157463 0.150274 0.226920 -0.149831 0.154414 0.107438 0.224429 -0.098543 0.059224 0.128938 -0.174447 0.109260 0.125042 0.231619 -0.123450 0.117195 -0.077572 -0.013465 0.077680 -0.094453 -0.074593 0.255051
M102~D 0.121920 0.367845 -0.024088 -0.152807 -0.070760 0.251209 -0.059284 -0.096554 0.103275 0.080663 -0.083174 0.051409 0.085016 0.043446 -0.086301 -0.063653 0.543014 -0.136172 0.229114 -0.217300 -0.201966 0.085766 -0.102931 0.143131 0.085356 -0.114969 0.070566 0.004004 -0.147484 0.317937 -0.090027 0.220931
M318~A3 0.019476 -0.065015 -0.351534 0.232022 -0.222815 -0.125742 -0.131396 0.259292 -0.193779 -0.142250 0.078975 0.035459 0.137435 0.070735 0.135772 -0.088056 -0.128641 0.031565 -0.043974 -0.117270 0.057611 -0.029947 0.176806 -0.252483 -0.020742 -0.050658 0.446529 -0.365298 0.190695 0.148726 -0.012842 0.160433
M223 0.192219 -0.053837 0.027399 -0.009059 0.262941 -0.244117 0.231559 -0.360673 -0.140515 0.265330 0.213036 -0.037471 0.319794 -0.014483 0.246468 -0.046968 -0.152001 0.269607 -0.091646 0.114958 -0.083854 0.212756 -0.032527 0.264559 -0.083354 0.025893 -0.170782 -0.038918 0.073225 0.012528 -0.059196 0.237585
M386~A 0.113868 0.015247 0.338715 0.089120 0.188646 0.378576 -0.031758 0.088709 0.078328 -0.194129 -0.166413 0.012931 0.055692 -0.229002 -0.145008 0.379967 0.071240 0.294498 -0.285022 0.107273 0.239096 -0.018016 0.170906 0.127038 0.108372 -0.160426 -0.088721 -0.051968 0.103561 -0.037184 -0.055781 0.181819
M230 0.071899 -0.033517 -0.110436 0.135998 -0.178300 0.118914 -0.041957 0.050059 -0.332345 -0.111050 0.039352 0.141254 0.200947 -0.136325 -0.098035 -0.046053 0.007806 -0.017507 -0.239802 0.023047 0.061579 0.030292 0.174107 0.061862 -0.151827 0.102479 0.017931 0.131204 -0.389344 0.549800 -0.114896 0.287095
M295~Y -0.097498 -0.038648 0.095393 -0.149387 -0.052926 -0.385370 -0.133979 -0.146742 -0.053286 0.296402 0.004343 0.089743 0.170396 0.123384 0.106945 0.036012 -0.160803 0.068005 -0.191610 0.039187 -0.206303 0.302427 0.246950 0.328594 -0.341430 0.228898 -0.012438 -0.020843 0.009572 -0.067665 -0.081790 0.241659
|M106+M288| 0.187657 0.110965 0.114274 -0.134489 0.004547 -0.111204 -0.031032 -0.197416 -0.043370 0.017354 0.158056 -0.089617 -0.055534 -0.070975 0.170815 -0.088628 -0.214144 -0.046457 -0.294712 0.118880 -0.043719 0.263685 -0.045363 -0.056793 -0.091264 0.123736 -0.578438 -0.346689 0.116317 0.033435 -0.012726 0.263993
M246~CA 0.147827 0.188789 0.514935 0.471271 0.029562 0.053139 -0.055813 -0.124346 -0.238719 -0.165298 0.022900 -0.122233 0.085631 -0.042602 0.166250 0.155854 0.056040 -0.026087 -0.145800 0.160095 0.286673 -0.021186 0.043897 0.225187 -0.058874 -0.117186 0.089790 0.195376 0.042539 -0.005751 -0.046962 0.136630
M005~A 0.133531 -0.154158 -0.136499 -0.013759 -0.222748 -0.160885 -0.449555 0.157644 -0.015230 0.258000 0.137994 0.259342 -0.048594 0.065238 0.084409 0.068712 0.149989 0.105213 -0.122464 0.000346 0.263041 0.020574 -0.415216 0.064314 -0.135879 0.038996 0.078432 0.136750 0.065051 -0.063774 0.285534 0.190234
M175 -0.458325 0.245364 0.195408 0.075792 0.073979 0.126805 -0.010556 0.480926 0.231420 0.151659 -0.204900 -0.035370 -0.209745 -0.014247 -0.129282 -0.102906 -0.235343 0.028622 -0.115932 -0.022870 0.069748 -0.092677 -0.212634 0.089265 -0.255296 -0.022203 -0.090536 -0.083633 -0.041379 -0.085770 -0.024119 0.119363
M250~BA 0.025236 0.352063 0.009512 -0.021482 0.109538 -0.066338 0.133832 -0.037768 0.029860 -0.232792 0.014492 -0.166221 -0.053515 -0.267488 0.089315 -0.040171 -0.173434 -0.196034 0.033486 0.296173 0.169461 0.178497 0.289964 0.292678 -0.355181 0.221706 -0.111142 0.000562 0.048944 -0.097373 -0.019098 0.290913
M044 0.099715 0.430728 -0.055469 0.070269 -0.114702 -0.132064 -0.064098 0.058381 0.363551 0.105447 0.075030 0.255875 -0.504538 0.007861 0.066967 0.032189 -0.408605 -0.190647 0.045274 0.082180 -0.043821 0.058166 0.108843 0.191868 -0.097522 0.080673 -0.019390 -0.010140 0.000282 -0.011092 -0.011760 0.032248
|M218+M099| 0.047763 -0.106330 -0.057800 -0.092600 0.012434 0.029286 -0.091445 0.088238 0.049432 -0.152225 -0.001323 0.021344 0.056003 -0.001609 -0.029122 0.288674 -0.057016 0.253386 -0.077812 0.039108 -0.006218 -0.106583 0.265663 -0.305896 -0.023370 -0.155200 0.533520 -0.403597 0.243431 0.153441 -0.041071 0.191570
|M327+M044~C| -0.036116 0.026368 0.095881 0.088620 -0.077653 0.022061 0.006972 -0.095670 -0.002190 0.025011 -0.003950 -0.022711 -0.086304 0.144163 -0.111032 -0.074204 -0.007189 -0.084083 0.030351 0.155244 -0.252790 0.047809 0.025895 -0.481001 -0.410721 -0.396152 -0.291672 0.225556 0.311895 0.134286 0.078247 0.068066
M338 -0.100623 -0.182138 -0.521240 0.444257 -0.278308 -0.011231 0.076423 0.297593 -0.072225 -0.052800 0.036207 0.192185 0.161528 0.264997 0.002176 -0.145936 -0.003118 0.058820 -0.003209 -0.263591 0.146050 -0.059221 0.104643 -0.026127 -0.053242 0.013064 0.049056 0.009990 -0.038033 -0.030203 -0.032689 0.182827
M320~F 0.252945 0.095743 -0.110084 -0.224133 0.454174 -0.353434 -0.008795 0.239300 -0.030060 -0.069191 -0.394478 -0.008723 -0.043806 0.196942 0.078531 0.165008 0.046716 0.071351 -0.000499 -0.407884 0.052992 0.014601 0.124123 -0.108791 -0.069769 0.049784 -0.004945 0.139364 -0.028806 0.025698 0.021081 0.088620
M139 0.052357 0.155669 0.092504 0.030609 -0.220987 0.142611 -0.102051 0.153806 -0.115501 -0.098747 -0.017469 0.260118 0.149579 -0.005396 -0.073072 -0.231583 0.116040 0.022049 -0.103303 -0.113960 -0.095635 -0.025285 -0.572512 0.136691 -0.085880 -0.001540 0.165388 -0.016573 -0.013632 -0.107786 0.445135 0.221480
M295~A -0.029300 -0.098308 -0.115903 -0.116527 0.145806 -0.145442 -0.034687 -0.035121 -0.055179 -0.051492 0.131917 -0.105404 0.087099 -0.217865 0.142529 0.121262 -0.167457 -0.013761 -0.043886 0.140862 -0.238598 0.149346 0.249618 -0.058452 -0.340763 0.119860 0.395518 -0.458606 0.173869 0.170556 -0.028820 0.202456
|M157+X| -0.252508 -0.210940 0.015108 0.037966 0.038626 0.004485 0.228161 0.122849 -0.061301 -0.153073 -0.306392 0.181724 -0.020154 -0.030504 0.077318 0.091809 0.101983 -0.154842 0.082432 0.296082 -0.236902 -0.290234 0.181222 0.167944 0.151230 -0.004938 -0.006284 0.034479 -0.041764 -0.088235 0.500041 0.194022
|M157+M131| 0.269079 -0.262099 0.004117 -0.100081 0.181327 0.226422 -0.162092 -0.252090 0.300426 0.090410 0.177023 -0.065821 0.230971 0.234955 0.123265 0.030895 0.120025 -0.441980 0.062929 -0.335546 0.180144 -0.088139 0.014437 0.098497 -0.129708 -0.017104 0.039960 0.084244 0.020243 -0.014663 -0.017523 0.113675
M157~A -0.035465 0.011283 0.332966 0.111697 -0.049963 -0.144048 -0.253315 -0.226360 -0.131975 0.033107 0.363083 0.189950 -0.011409 0.048631 0.014832 -0.081835 0.040377 0.261635 0.105205 -0.101967 0.175705 -0.257984 -0.432593 -0.022158 -0.270140 -0.158764 0.046433 0.150970 0.145499 -0.024942 -0.078868 0.114181
M343 0.050983 -0.021540 -0.005065 0.010625 0.052236 0.032507 0.038764 0.004969 0.009555 0.005947 0.005677 0.036709 0.112225 0.029926 0.010843 0.009376 -0.046283 -0.076731 -0.136122 0.017324 -0.212874 -0.017701 0.108532 0.066666 0.131432 -0.145231 0.060733 -0.032290 -0.266007 -0.109530 0.862166 0.135600
|M218+M101| 0.114053 0.075289 0.049317 -0.095399 0.085463 0.024329 0.153906 0.078110 -0.137157 0.016833 0.068838 -0.036603 -0.178995 0.055956 0.042991 0.036064 -0.054139 -0.001389 0.112323 0.072043 -0.208284 -0.022697 0.121640 -0.490411 -0.160781 -0.269905 0.397613 -0.332765 0.334553 0.217151 0.019796 0.147232
M352~C 0.106707 -0.141083 -0.122403 0.323608 -0.374529 -0.023969 0.151612 0.162392 0.032184 -0.242381 0.084027 0.089755 0.308351 -0.017423 0.085046 0.005952 -0.149131 0.006161 0.075317 -0.569471 0.161223 0.009877 0.107546 -0.144419 -0.086347 0.187915 -0.022678 0.047308 0.120249 0.025257 0.035894 0.092624
M057~A1 0.095224 -0.096356 0.214423 0.113500 -0.199404 -0.024804 0.235468 -0.087491 0.202235 -0.163448 0.054743 0.003146 0.094759 -0.071334 0.036133 0.106736 -0.211977 -0.123220 0.175766 -0.369031 -0.092445 0.001745 0.038870 -0.409481 -0.310801 -0.063579 -0.217035 0.239922 0.294677 0.103788 0.084854 0.082951
M391 0.185387 -0.061761 -0.073580 0.119576 0.011888 0.116359 -0.023562 0.229370 0.014794 -0.255429 -0.330409 0.143508 0.180655 0.100492 0.069133 0.039320 -0.087126 -0.054490 0.057433 -0.499377 0.131441 -0.061607 -0.346946 0.081250 -0.393713 0.075303 0.099207 0.060222 0.007398 -0.007146 0.122925 0.174136
M038~A2 0.054443 -0.022946 -0.005385 0.011289 0.055459 0.034443 0.041022 0.005247 0.010071 0.006265 0.005969 0.038468 0.117539 0.031290 0.011305 0.009763 -0.048130 -0.079593 -0.140977 0.017907 -0.219444 -0.018238 0.111523 0.068380 0.134299 -0.148228 0.061550 -0.032659 -0.267726 -0.109656 0.856179 0.132860
M387~EF 0.178986 -0.172842 -0.211676 -0.159154 0.130274 0.330268 0.145298 0.113866 -0.021454 -0.073864 -0.044300 0.201107 0.070464 0.077851 0.148615 -0.138224 0.149095 -0.185635 -0.084063 0.370624 0.001945 -0.385842 -0.074326 -0.108583 0.160320 0.325754 -0.209640 -0.023873 0.186803 -0.053081 -0.002938 0.160991
M057~A4 0.169189 0.274854 0.213618 -0.281364 0.001254 0.261844 0.386844 0.259069 -0.142813 0.114114 -0.057250 0.036661 -0.176679 0.232719 -0.006582 0.144612 0.224529 0.210640 -0.010040 0.049652 -0.044560 0.105238 0.102596 -0.247990 -0.145999 -0.273755 -0.160555 0.061683 0.134288 0.043567 0.018272 0.113114
M246~G 0.065377 -0.066543 -0.295067 0.312914 -0.230103 0.033846 -0.015391 0.147383 -0.212971 -0.052863 0.015349 0.023841 0.187367 0.144819 0.104518 -0.249442 -0.032538 0.157369 -0.154551 -0.230336 0.203118 -0.086249 0.031143 0.026583 0.130975 -0.049389 -0.420875 -0.396347 0.108641 0.057427 -0.013098 0.172792
M207~A 0.050983 -0.021540 -0.005065 0.010625 0.052236 0.032507 0.038764 0.004969 0.009555 0.005947 0.005677 0.036709 0.112225 0.029926 0.010843 0.009376 -0.046283 -0.076731 -0.136122 0.017324 -0.212874 -0.017701 0.108532 0.066666 0.131432 -0.145231 0.060733 -0.032290 -0.266007 -0.109530 0.862166 0.135600
M323 0.224193 -0.450288 -0.175695 -0.160095 -0.253884 0.064968 -0.040535 0.065083 0.149197 0.518139 0.122329 -0.155738 0.006517 -0.280152 0.073822 0.199515 0.129455 0.066922 -0.030514 -0.077295 0.105486 -0.033327 0.050064 -0.010179 -0.086113 -0.013915 0.010604 0.051161 -0.034387 -0.041367 0.313039 0.089308
M128 0.227992 0.188073 -0.159692 0.177211 0.108065 -0.162345 0.292402 -0.044500 0.079590 0.098837 -0.190450 0.039035 0.096495 0.164838 -0.065511 -0.101856 -0.079838 0.296443 0.043894 -0.037237 0.208177 0.125920 0.084495 -0.109291 0.004174 0.061967 0.065811 0.263071 -0.393153 0.376638 0.072862 0.264971
M207 -0.107433 0.308386 -0.137444 -0.253345 -0.041526 0.181100 0.040422 0.165538 -0.121047 0.155187 0.019693 0.099481 0.244492 0.331950 0.255950 0.112744 0.212368 -0.448592 0.135638 0.160140 0.278865 -0.178807 -0.108582 -0.030141 -0.028173 0.021731 0.003522 0.002212 0.055118 -0.113342 0.027019 0.137127
|M175+M131~D| -0.002836 0.104377 0.038412 -0.044399 0.006456 0.013112 -0.025603 -0.028664 0.064201 0.002261 0.044608 0.091721 0.087301 0.024994 -0.000550 -0.059224 -0.069868 -0.091945 -0.143918 0.051462 -0.225113 -0.016520 0.061415 0.096532 0.111943 -0.102381 0.051531 -0.034969 -0.219581 -0.077266 0.868750 0.145390
|M157~A+M131| 0.332594 -0.327762 -0.084367 0.024216 -0.177459 -0.043460 -0.130708 0.239026 0.037238 0.548410 -0.012243 -0.217831 -0.223927 -0.221461 0.169248 0.132080 0.271515 0.081856 -0.003737 0.087568 0.190522 -0.088703 -0.005244 0.015753 -0.177268 0.008752 -0.008241 0.047077 0.031815 0.020191 0.053010 0.032737
M048~C 0.016112 -0.152602 -0.250973 0.095615 -0.004180 -0.240870 -0.096334 0.122866 -0.138230 -0.067676 -0.300978 -0.099462 0.232813 0.063278 0.104191 0.128351 0.272940 0.114776 -0.284825 -0.098294 0.048061 -0.005407 0.204988 -0.141859 -0.155441 -0.068572 -0.054160 0.355426 0.000928 0.326010 -0.022000 0.323071
M217 0.243755 0.017955 -0.119080 0.080431 0.119732 -0.089955 -0.003002 0.104732 0.281643 0.310723 -0.058366 -0.256563 -0.005798 -0.217115 -0.127200 0.034198 0.501404 -0.346286 0.064026 0.193793 0.001800 -0.068628 -0.121898 -0.044177 0.068177 -0.096372 -0.062190 0.067832 0.127978 0.037183 0.218585 0.232677
M097~H 0.132559 -0.088619 0.076518 0.141583 -0.223543 0.279674 -0.177260 -0.022209 -0.177077 -0.037640 -0.167179 0.164965 0.068869 0.001198 0.094874 -0.141886 0.267688 -0.096375 0.223864 -0.282038 -0.325695 0.326785 -0.027964 0.351260 -0.151932 0.078575 -0.050780 -0.152666 0.064640 -0.003033 -0.052182 0.238890
M203~C -0.531636 0.190615 0.304240 -0.035234 -0.181865 0.123246 -0.012972 0.223429 -0.216046 0.050562 0.010377 -0.016024 0.136481 0.016421 0.286605 -0.085649 0.013602 -0.206017 0.128584 0.106574 0.011100 -0.204155 -0.111525 -0.110420 -0.049359 -0.179965 -0.240004 0.097027 0.170314 -0.064554 0.164775 0.178279
M305~H 0.332594 -0.327762 -0.084367 0.024216 -0.177459 -0.043460 -0.130708 0.239026 0.037238 0.548410 -0.012243 -0.217831 -0.223927 -0.221461 0.169248 0.132080 0.271515 0.081856 -0.003737 0.087568 0.190522 -0.088703 -0.005244 0.015753 -0.177268 0.008752 -0.008241 0.047077 0.031815 0.020191 0.053010 0.032737
M038~E -0.476249 0.098730 0.172792 0.056025 -0.051475 0.061439 0.229942 0.420948 -0.061518 -0.080470 -0.311252 0.088937 0.093615 -0.151599 0.278234 0.120299 -0.043646 -0.224098 0.266102 -0.002854 -0.067817 -0.222102 0.028077 -0.081103 -0.062683 0.139325 -0.109125 0.112524 0.097846 -0.046853 0.010948 0.105982
M311~B -0.158924 0.270983 -0.099398 -0.078495 -0.032881 0.073362 0.161671 0.275447 -0.067584 0.290083 0.036109 0.114935 0.136023 0.248981 0.208969 0.007378 0.094436 -0.053237 -0.069560 -0.010173 0.110626 0.044159 0.137675 0.093964 0.044131 -0.169074 0.086874 0.047134 -0.062298 -0.038287 0.652192 0.140293
M146~D -0.003693 -0.070163 -0.208341 -0.118800 -0.097478 -0.022227 0.085701 -0.177505 -0.274834 0.237625 -0.318661 -0.215729 -0.260213 -0.161317 -0.126152 0.096082 0.076407 0.108055 -0.228685 -0.194775 0.066670 -0.259325 -0.340928 0.084732 -0.258128 0.011763 0.125961 0.010795 -0.056955 -0.063085 0.294912 0.099652
M321~B -0.000030 -0.022310 -0.034191 -0.111183 0.066035 0.018026 0.048630 -0.029775 0.031789 -0.087290 -0.119599 0.191519 0.133052 -0.018018 -0.110073 -0.049577 -0.106092 0.136023 -0.117604 -0.058996 0.103573 -0.236454 -0.725264 0.142134 -0.422465 -0.080731 0.163501 -0.064911 -0.025840 -0.050547 0.021277 0.079290
M374~C 0.206854 -0.325053 -0.229713 0.174880 -0.225094 0.075955 -0.100969 0.204434 -0.013982 0.106614 0.060980 -0.046896 0.039913 0.002429 0.118807 0.036562 0.151837 -0.021559 -0.073544 -0.117675 0.312923 -0.269264 -0.384702 0.115397 -0.460120 -0.012863 0.099090 0.000991 0.005560 -0.074144 0.044695 0.146671
M323~A -0.258616 0.382740 -0.128845 -0.114772 -0.090629 0.069479 0.182386 0.365123 -0.099181 0.383889 0.043390 0.121512 0.082560 0.307392 0.270704 0.001549 0.167911 -0.003099 0.027887 -0.029074 0.337974 0.075006 0.088066 0.066701 -0.057827 -0.097512 0.062472 0.091989 0.153287 0.046165 0.107278 0.067475
M056~F 0.155849 -0.056848 0.140003 -0.008749 -0.135238 0.103777 -0.119355 0.021507 0.133383 0.025427 -0.021582 0.015053 -0.086950 0.051457 -0.183444 0.023944 0.018324 0.078273 0.018509 0.108004 -0.186808 0.032962 0.043898 -0.492533 -0.352125 -0.412196 -0.287136 0.237151 0.294929 0.057505 0.096909 0.119318
|M054+M384~I+M054~I| -0.068040 -0.022502 -0.172115 -0.073973 0.371583 0.069746 0.120152 0.200939 0.071326 0.131605 -0.081608 0.194358 0.171596 -0.143644 0.243267 0.034058 -0.027144 -0.158348 -0.160488 -0.075356 -0.237398 -0.131027 0.172115 -0.053987 0.201070 -0.002524 0.065174 -0.027112 -0.373940 -0.280927 0.382048 0.106378
M111~E 0.050983 -0.021540 -0.005065 0.010625 0.052236 0.032507 0.038764 0.004969 0.009555 0.005947 0.005677 0.036709 0.112225 0.029926 0.010843 0.009376 -0.046283 -0.076731 -0.136122 0.017324 -0.212874 -0.017701 0.108532 0.066666 0.131432 -0.145231 0.060733 -0.032290 -0.266007 -0.109530 0.862166 0.135600
M075~G -0.031585 0.042037 0.177127 -0.029139 -0.008494 -0.129932 -0.233969 -0.104192 -0.059193 -0.129925 0.220817 0.115727 0.098049 -0.007060 -0.180233 -0.042168 -0.015190 0.196521 0.007470 -0.008285 0.041900 -0.276856 -0.582357 -0.011230 -0.474224 -0.192112 0.039932 0.067641 0.108175 -0.021671 0.083103 0.110943
M387~L -0.257691 -0.010825 0.075799 -0.074514 -0.212634 0.095768 -0.377392 0.037616 -0.048375 -0.051513 0.230759 0.184936 -0.039110 -0.084994 -0.169008 -0.601379 -0.002361 0.162960 0.166530 0.004255 0.256824 -0.084386 0.135991 -0.014189 0.002718 0.116798 0.051581 0.105044 0.053571 -0.054628 0.191357 0.128977
|M195+M038| 0.231600 -0.120209 -0.060068 0.038779 -0.089818 -0.247543 -0.078061 0.085071 -0.016115 0.076733 -0.179365 0.077957 0.056585 0.014253 -0.107854 0.058066 -0.365223 -0.278532 0.116557 0.164808 -0.228174 0.076591 -0.075197 0.208166 0.130373 -0.070541 0.114354 -0.019202 -0.097732 -0.094633 0.583961 0.166580
M056~E -0.036116 0.026368 0.095881 0.088620 -0.077653 0.022061 0.006972 -0.095670 -0.002190 0.025011 -0.003950 -0.022711 -0.086304 0.144163 -0.111032 -0.074204 -0.007189 -0.084083 0.030351 0.155244 -0.252790 0.047809 0.025895 -0.481001 -0.410721 -0.396152 -0.291672 0.225556 0.311895 0.134286 0.078247 0.068066
M075~GA 0.050983 -0.021540 -0.005065 0.010625 0.052236 0.032507 0.038764 0.004969 0.009555 0.005947 0.005677 0.036709 0.112225 0.029926 0.010843 0.009376 -0.046283 -0.076731 -0.136122 0.017324 -0.212874 -0.017701 0.108532 0.066666 0.131432 -0.145231 0.060733 -0.032290 -0.266007 -0.109530 0.862166 0.135600
M057~B1 0.080152 0.133509 -0.430778 -0.080161 -0.012089 0.120378 -0.301000 -0.099273 -0.089653 -0.271827 -0.184071 -0.400152 -0.176665 -0.031093 0.028629 0.096542 -0.160510 0.051782 0.140388 0.051489 -0.258124 0.087828 0.042750 0.104478 -0.349105 0.084637 -0.204255 0.034472 0.075290 0.008995 0.015627 0.185969
M086 -0.055620 0.069336 -0.148991 -0.052694 0.018567 0.012737 0.068980 -0.157403 -0.183173 -0.018385 -0.129746 -0.116525 -0.023047 -0.026378 -0.053281 0.019828 -0.037747 -0.044246 -0.178975 -0.049716 -0.225657 -0.069804 0.124254 0.062655 0.112074 -0.098803 0.049162 -0.024186 -0.247986 -0.110880 0.799560 0.129863
M318~A 0.189427 -0.025727 -0.234991 0.229136 0.074427 0.065840 -0.221743 0.114804 -0.097417 -0.247939 0.023250 -0.100433 0.190713 -0.113098 -0.071070 -0.047362 0.025785 -0.013725 -0.335343 0.059914 0.183067 0.055967 0.010038 -0.316228 0.221103 0.030681 0.059637 -0.392891 0.315786 0.091481 -0.020549 0.274875
M262~1 -0.058467 -0.404988 0.307608 -0.116945 0.273757 -0.114278 -0.081207 0.007832 -0.038850 -0.012304 0.205524 0.128788 -0.338967 0.064685 -0.028215 -0.172530 -0.029966 -0.009723 -0.252716 -0.091877 0.000336 0.111422 -0.192494 -0.053636 0.187384 0.004766 -0.265015 0.001661 -0.166110 0.290900 -0.063028 0.268838
M380 -0.047846 -0.256478 -0.165293 0.084138 -0.062379 -0.207429 -0.069919 0.205302 0.040574 -0.190816 -0.179592 -0.117173 -0.167637 -0.059207 0.113977 0.088695 -0.094964 -0.194232 0.057574 0.314155 -0.201129 -0.028344 -0.104056 -0.267550 0.130403 0.201841 0.378561 -0.218472 0.270018 0.078429 0.021541 0.257566
M329~A 0.050983 -0.021540 -0.005065 0.010625 0.052236 0.032507 0.038764 0.004969 0.009555 0.005947 0.005677 0.036709 0.112225 0.029926 0.010843 0.009376 -0.046283 -0.076731 -0.136122 0.017324 -0.212874 -0.017701 0.108532 0.066666 0.131432 -0.145231 0.060733 -0.032290 -0.266007 -0.109530 0.862166 0.135600
M226~C 0.071360 0.079775 -0.126790 -0.117917 0.180326 0.019936 0.018887 0.017933 -0.017757 -0.057111 -0.003967 0.157219 0.125606 -0.128005 -0.063275 -0.039433 0.172708 0.044440 0.055953 -0.148208 -0.193972 0.018324 -0.497027 0.117456 -0.422256 -0.032652 0.368393 -0.336264 0.134857 0.085843 -0.009053 0.222387
M218~B -0.075738 0.201498 -0.079063 0.161369 0.008033 -0.267802 0.106532 -0.063066 0.145903 0.115070 0.238278 -0.174332 0.000455 -0.447361 -0.269290 -0.328679 0.032132 -0.057553 0.033518 -0.007492 0.066907 -0.158645 -0.048454 0.161770 0.261526 -0.130906 -0.281065 -0.199968 0.095877 -0.013890 0.100141 0.210405
M054~A 0.050983 -0.021540 -0.005065 0.010625 0.052236 0.032507 0.038764 0.004969 0.009555 0.005947 0.005677 0.036709 0.112225 0.029926 0.010843 0.009376 -0.046283 -0.076731 -0.136122 0.017324 -0.212874 -0.017701 0.108532 0.066666 0.131432 -0.145231 0.060733 -0.032290 -0.266007 -0.109530 0.862166 0.135600
M007~A -0.004890 0.019891 -0.166529 0.064135 -0.098485 0.063208 -0.091766 -0.060087 -0.151961 0.028959 0.080918 0.191552 0.031501 -0.161879 -0.006333 0.022158 -0.098085 -0.053685 -0.122019 0.058861 0.090990 -0.063413 -0.046192 -0.067135 0.092511 -0.046404 0.007972 0.349564 -0.443200 0.648723 -0.088868 0.197932
|M153+M342| -0.005930 0.012629 0.084587 0.086232 -0.042996 0.037160 0.026738 -0.083947 0.003037 0.025703 -0.000587 -0.001240 -0.018946 0.144908 -0.093708 -0.061448 -0.030427 -0.114613 -0.043362 0.146799 -0.333534 0.033228 0.078591 -0.390087 -0.293921 -0.422013 -0.223762 0.180169 0.136476 0.060995 0.496597 0.124426
M149~A2 0.038292 -0.088710 0.018277 -0.134194 0.072222 0.117835 0.196494 -0.166706 0.030775 -0.140152 -0.155406 -0.029444 -0.068086 0.055346 -0.052040 -0.360702 0.003341 0.006152 0.196170 0.172315 0.142969 0.293947 0.146021 -0.318689 -0.197930 -0.287406 -0.064822 0.106752 0.000305 -0.035830 0.489131 0.157594
|M305+X| -0.046229 0.270202 -0.186725 -0.135360 -0.005059 -0.263645 -0.046095 0.118046 -0.115666 -0.039421 -0.393616 -0.245062 -0.332870 0.135815 -0.179592 0.100967 0.070548 0.016253 -0.367247 -0.268738 0.066687 0.050541 -0.093860 -0.115511 0.054953 0.235099 0.000548 0.065695 0.023306 -0.039966 0.205966 0.189205
|M305+M342| 0.173194 0.031200 0.020454 0.088945 0.147267 0.097036 -0.141217 -0.103400 0.201560 -0.020517 0.197575 0.107412 -0.074752 0.034703 0.084810 -0.004618 0.063320 -0.020070 -0.232979 0.111676 -0.042653 -0.034755 -0.145180 -0.240010 0.308980 0.477109 0.010592 0.125143 0.096588 -0.061885 0.500236 0.195436
M496 0.095425 -0.148248 -0.045871 0.011567 0.140836 -0.037745 -0.018072 0.003879 -0.338914 0.203914 -0.068334 -0.200473 0.184572 0.191943 -0.350351 0.288713 -0.280354 -0.150489 0.509763 0.186869 0.137275 0.059679 -0.129402 -0.031804 0.105427 0.052777 -0.094424 -0.037124 -0.024264 -0.048199 0.008162 0.058362
M035 0.205915 0.117977 -0.104125 0.003985 -0.156123 0.232689 0.058177 -0.020023 -0.157791 -0.096093 -0.013710 -0.037778 -0.151953 0.074145 0.014085 -0.178631 0.184073 0.182479 0.229106 -0.156333 -0.235354 0.023167 -0.137297 0.032876 0.036971 -0.206068 -0.534460 -0.331140 0.157548 0.050091 -0.031039 0.258228
M038~BX 0.102889 -0.257473 0.138554 0.202265 -0.086321 0.199353 0.063229 0.045276 0.244521 -0.162084 0.251214 0.072582 0.144416 -0.153569 0.062455 0.105192 -0.160250 -0.293131 0.144240 -0.421808 0.123327 -0.211048 0.024885 -0.186900 -0.264908 0.171106 -0.061235 0.209829 0.149795 -0.016325 0.065782 0.126615
M325~D -0.025185 -0.025356 0.136611 -0.133467 0.130994 -0.035723 0.141478 0.131804 0.193227 0.032636 -0.049328 0.090148 0.000611 0.027925 -0.272937 -0.056636 -0.095687 0.100728 -0.303534 -0.006235 -0.015789 -0.169655 -0.462182 0.000974 -0.338135 -0.300070 0.047838 -0.020593 -0.064838 -0.064626 0.410312 0.202565
M122 0.076501 -0.018458 0.153800 -0.182011 0.070682 0.220964 0.028963 -0.170219 0.105480 -0.189157 -0.237509 -0.093095 -0.075483 -0.159079 -0.090867 -0.332420 -0.173284 0.091138 0.102730 0.155556 0.411476 0.263641 0.207048 -0.216471 -0.041121 -0.168406 0.269845 -0.137159 0.200559 0.039182 0.026389 0.160859
M342 0.308239 -0.187678 0.188462 0.051821 0.061764 0.063385 -0.070021 -0.159221 0.052510 0.043091 0.239482 0.022822 0.157966 0.102564 -0.084252 0.033529 0.037836 -0.319042 -0.185048 -0.154589 -0.040523 -0.112123 0.132302 0.030789 -0.046854 -0.088609 0.057065 0.057810 -0.145808 -0.125909 0.646561 0.146520
|M327+M342| 0.110085 -0.052530 0.049281 -0.045443 0.064100 0.009964 0.029552 -0.017500 0.011481 -0.022966 -0.081758 0.146891 0.153280 -0.048317 -0.054972 -0.020620 -0.082761 0.088353 -0.182898 -0.027931 0.016123 -0.223648 -0.580674 0.169345 -0.345269 -0.149891 0.170500 -0.058783 -0.151445 -0.100039 0.473397 0.144106
M057~F -0.036116 0.026368 0.095881 0.088620 -0.077653 0.022061 0.006972 -0.095670 -0.002190 0.025011 -0.003950 -0.022711 -0.086304 0.144163 -0.111032 -0.074204 -0.007189 -0.084083 0.030351 0.155244 -0.252790 0.047809 0.025895 -0.481001 -0.410721 -0.396152 -0.291672 0.225556 0.311895 0.134286 0.078247 0.068066
M321~H 0.216653 -0.090991 0.094280 0.109659 0.122296 0.066749 -0.018520 0.052548 -0.048174 -0.144039 0.202117 0.484055 0.107684 0.102729 0.000580 -0.240270 0.116010 0.072760 0.053279 0.142779 -0.130977 -0.251550 0.122894 -0.244332 -0.022933 0.514336 -0.009605 0.050409 0.200706 -0.001668 0.068132 0.115792
M109 0.136013 0.241970 -0.118807 -0.329164 -0.004930 -0.066564 -0.021055 -0.079566 -0.349717 -0.084692 0.182020 -0.165976 -0.136912 -0.110628 0.230070 -0.142447 -0.212280 0.084554 -0.136065 -0.056198 0.032260 0.018256 -0.015172 0.029328 0.019982 -0.009794 -0.455624 -0.204393 -0.188942 0.272009 -0.064331 0.234219
|M195+M057| 0.344487 -0.209503 -0.201309 0.021525 0.010049 -0.104906 -0.166022 0.152684 0.055749 0.249367 -0.090168 0.109727 0.018227 -0.011714 -0.035973 0.024672 -0.254924 -0.122091 0.016914 0.119906 -0.082997 0.021610 -0.017711 0.157254 0.031264 -0.127343 0.139576 0.042880 -0.119320 -0.147907 0.639264 0.190769
|M195+M038~A| 0.065850 -0.507933 0.155219 -0.092445 0.032721 -0.213250 -0.120351 0.071508 0.240599 -0.006158 0.068753 0.298747 -0.141723 -0.071756 -0.195814 -0.078665 0.176493 -0.114781 0.095041 -0.264677 -0.255421 0.031812 0.021503 0.105860 0.146953 -0.160531 -0.049293 -0.033719 -0.118090 -0.051068 0.359885 0.137408
M249~N1 0.007319 0.005283 0.068849 0.074007 -0.023144 0.038658 0.031523 -0.068755 0.004824 0.022884 0.000869 0.007753 0.010983 0.128958 -0.076356 -0.049587 -0.036782 -0.115380 -0.069356 0.128771 -0.334813 0.024048 0.093063 -0.317436 -0.220569 -0.397054 -0.178728 0.148158 0.054880 0.027016 0.643193 0.143195
M158 -0.095133 -0.080096 -0.025498 -0.114784 -0.041362 0.031495 0.160091 0.022518 0.111720 0.018886 -0.038766 0.128648 0.160892 0.134784 -0.143733 -0.061826 -0.146840 0.225069 -0.202923 -0.055648 0.061940 -0.154692 -0.696019 0.153226 -0.379547 -0.040589 0.157860 -0.083605 -0.022248 -0.050173 0.022650 0.095532
M180 -0.311244 -0.168178 0.067437 0.068182 -0.023286 -0.004255 0.236063 0.015920 -0.090692 -0.134760 -0.298323 0.160586 -0.127934 0.009815 -0.002687 0.045119 0.144140 -0.102754 0.171976 0.366616 -0.280487 -0.219569 0.122689 -0.168694 -0.183344 -0.184399 -0.225578 0.191878 0.310805 0.060384 0.052149 0.159480
M250~N 0.237887 -0.055297 0.025764 -0.149790 0.237314 -0.259171 0.168255 0.077773 0.100313 -0.150884 -0.141629 -0.016603 0.201772 -0.087494 0.129774 0.239267 -0.151310 -0.034552 0.002245 -0.473436 -0.113370 0.130169 0.226490 0.007091 -0.249315 0.217909 -0.048471 0.089220 -0.038826 0.006521 0.313986 0.185246
M380~B -0.088606 -0.361338 0.010788 -0.146422 -0.102245 -0.070218 -0.026290 -0.313221 0.041816 -0.016241 -0.248402 -0.073294 -0.046479 0.050008 0.153649 -0.252929 -0.239315 -0.013379 0.021203 0.093013 0.026532 0.080743 0.159712 -0.144742 0.117514 -0.100436 0.520690 -0.236770 0.159811 0.044727 0.093362 0.238643
|M157~A+M131~A| 0.071894 0.076118 0.046910 0.057953 -0.078059 -0.065502 -0.129360 0.030857 0.092883 -0.103543 -0.022232 0.030765 -0.140546 0.049717 -0.074823 0.106708 0.165848 -0.084777 -0.271553 0.207333 0.018925 0.400754 -0.406215 -0.296872 0.238931 0.483473 -0.028786 0.018161 0.153772 0.034567 0.072352 0.088405
|M153+M106~A| 0.055677 -0.019973 0.016445 0.121313 -0.057431 0.040411 0.057523 -0.100904 -0.073524 0.039148 -0.018996 -0.069128 -0.027936 0.114446 0.063581 -0.186120 -0.091605 0.047707 -0.080971 -0.015258 -0.040839 -0.109134 -0.043143 -0.235584 -0.076251 -0.334760 -0.690391 -0.263090 0.299613 0.146963 0.033239 0.183989
M387~A -0.014955 0.028325 -0.010038 -0.121916 0.239531 0.054558 0.242341 -0.017672 0.063681 0.152140 0.049300 0.245963 0.203132 -0.111731 0.185922 -0.160295 0.091733 0.207301 0.051203 0.223196 -0.112890 -0.396675 0.047779 -0.183858 0.069951 0.516150 0.002964 0.156513 0.189279 -0.007315 0.026114 0.134528
M314 -0.063185 0.097920 0.073659 0.081240 0.046126 -0.234645 0.288910 -0.003733 0.155298 0.207102 0.201238 -0.003857 0.032364 0.265452 -0.053046 -0.039956 -0.183782 0.337992 -0.292013 0.047881 0.004623 0.161453 -0.424267 -0.013650 -0.060572 0.110990 -0.008163 -0.008077 -0.222632 0.072984 -0.046808 0.367727
M066~1 -0.014320 -0.262389 0.156793 -0.221206 0.303762 -0.333476 -0.156518 -0.177511 0.464183 0.139186 -0.144663 0.086587 -0.037547 0.314290 -0.034994 -0.034037 0.026695 -0.236212 0.040128 -0.269624 0.080132 -0.077519 0.073134 0.069161 0.158572 -0.146153 -0.020590 0.054252 0.001909 0.004902 -0.081834 0.148778
M362 -0.034423 -0.174502 0.261599 0.150487 -0.188606 -0.247840 0.053496 -0.148665 -0.046548 -0.516056 0.227471 -0.355586 -0.108654 0.174008 0.292784 0.141666 0.197764 0.137436 0.119684 0.154677 0.088338 -0.105347 -0.115566 0.155688 -0.041380 -0.053559 0.002623 0.035576 -0.005208 -0.027283 0.018071 0.032962
M332~D 0.133765 0.083737 0.135132 0.090526 0.091357 -0.204734 -0.111439 -0.367714 -0.088093 0.231479 -0.329912 0.069624 0.284126 0.008954 0.028922 -0.028961 0.193611 0.140389 -0.109239 0.036772 -0.264633 0.341536 -0.056463 0.195545 -0.047390 0.143719 -0.152268 -0.099194 0.185480 0.101512 -0.058114 0.301058
M066~2 -0.086135 -0.349507 0.182669 -0.191751 0.235689 -0.469613 -0.083093 -0.111060 0.366862 0.139384 -0.102758 0.216228 -0.141331 0.256428 -0.124083 -0.021471 -0.013030 -0.187847 -0.088071 -0.191698 0.090827 -0.134347 0.102526 0.055313 0.159424 -0.148444 -0.032732 0.042848 0.013295 -0.023442 -0.084244 0.118470
M352~N 0.127589 -0.031676 -0.191689 -0.053230 0.437601 0.045314 -0.226723 0.141895 0.164965 -0.168212 -0.033140 -0.110100 0.067123 0.010182 0.146430 -0.116464 0.294028 -0.014410 0.190387 -0.523639 -0.163973 0.116550 -0.031922 0.025156 0.040796 -0.010756 -0.149782 -0.004224 -0.148793 0.143828 -0.046999 0.247418
M387~CA -0.094904 0.159684 0.467127 0.473103 -0.034432 0.155421 -0.099200 0.227415 -0.305568 -0.134944 -0.024675 0.055976 0.048691 -0.114692 0.129354 0.199752 0.130953 -0.192932 -0.090853 -0.046968 0.229514 0.098701 -0.014017 0.010005 0.045991 0.072214 0.091222 0.096107 0.047242 -0.092063 0.231385 0.179993
M357 -0.019328 -0.125004 -0.048621 -0.141135 0.074535 0.059776 0.194259 -0.156850 0.131995 -0.175324 -0.206081 -0.024951 0.022812 -0.044020 -0.024288 -0.387226 -0.014354 0.073892 0.151633 0.129659 0.301191 0.256679 0.166335 0.008428 0.002990 -0.075056 0.080708 0.004614 -0.152914 -0.056812 0.602444 0.120290
M099 0.233804 -0.148317 0.013716 -0.113442 -0.209425 -0.104984 -0.187333 0.021598 -0.033374 -0.306103 0.050674 0.342710 -0.247628 0.182926 -0.129625 0.101415 -0.032891 -0.302553 -0.053099 0.106163 0.007707 0.101808 0.252910 -0.089750 -0.079318 0.122934 0.321174 -0.184464 0.043769 0.107454 -0.086140 0.338409
M249~P -0.036116 0.026368 0.095881 0.088620 -0.077653 0.022061 0.006972 -0.095670 -0.002190 0.025011 -0.003950 -0.022711 -0.086304 0.144163 -0.111032 -0.074204 -0.007189 -0.084083 0.030351 0.155244 -0.252790 0.047809 0.025895 -0.481001 -0.410721 -0.396152 -0.291672 0.225556 0.311895 0.134286 0.078247 0.068066
M136 0.221926 -0.069069 -0.059752 0.066254 0.085717 -0.069429 0.016810 -0.235308 0.188710 -0.190668 0.159185 -0.259623 0.189701 0.077340 -0.131357 0.045638 0.354547 -0.201249 -0.106415 0.264346 -0.010882 -0.234120 0.032757 -0.175121 -0.087794 -0.373983 -0.092096 0.233415 0.252368 0.062583 -0.003417 0.178748
M214~C 0.258409 -0.299238 -0.085218 -0.072328 -0.055196 -0.092986 -0.093462 0.128680 -0.000200 0.440168 0.055570 -0.221739 -0.045722 -0.325576 0.151195 0.161829 0.178738 0.062162 -0.083069 0.158572 -0.009435 0.137653 0.142661 0.193060 -0.440821 0.180470 -0.061556 -0.033077 0.019938 0.034984 0.022876 0.112335
M329~C -0.036116 0.026368 0.095881 0.088620 -0.077653 0.022061 0.006972 -0.095670 -0.002190 0.025011 -0.003950 -0.022711 -0.086304 0.144163 -0.111032 -0.074204 -0.007189 -0.084083 0.030351 0.155244 -0.252790 0.047809 0.025895 -0.481001 -0.410721 -0.396152 -0.291672 0.225556 0.311895 0.134286 0.078247 0.068066
M217~E -0.214103 -0.204815 0.149274 0.021458 0.089353 -0.128653 0.231495 -0.128646 -0.041454 -0.328518 -0.299055 0.065499 -0.007506 0.062629 -0.017809 0.198675 0.428926 -0.056620 0.025809 0.275536 0.043295 -0.371491 0.129311 0.205115 0.021985 -0.061151 0.047460 0.077858 0.154592 -0.021656 -0.025730 0.218283
M247~G 0.103275 -0.095139 -0.046263 0.082207 -0.243425 -0.208062 0.012909 0.140200 0.083600 0.404426 0.009171 -0.261040 -0.109031 0.102468 0.229987 0.097355 0.418904 0.029462 0.029168 0.170695 0.175398 -0.119491 0.035660 -0.110143 -0.307900 -0.228557 -0.065253 0.163816 0.215437 0.102831 0.108058 0.117903
M136~B -0.129832 -0.075744 0.150653 -0.275762 -0.197771 0.200557 -0.274434 0.029373 0.021418 0.525012 0.325161 -0.102535 -0.258388 -0.205673 0.095437 0.007355 0.151956 0.053872 0.201359 0.032482 0.143768 -0.035981 -0.035748 -0.157121 -0.167477 -0.034044 -0.071123 0.128850 0.172967 0.047257 0.087647 0.079760
M361~B 0.019195 0.063676 0.070848 0.043022 -0.207942 0.056929 0.004091 -0.049669 -0.135104 -0.006242 -0.010212 0.063487 -0.050690 -0.031374 -0.082453 -0.070012 -0.063122 -0.101527 -0.037144 0.165255 -0.115468 -0.050184 0.001565 -0.351392 -0.198067 -0.233877 -0.173176 0.335445 -0.225440 0.628816 -0.026653 0.190695
M302~S 0.258158 -0.259566 -0.016981 0.069836 -0.191955 -0.024033 -0.105494 0.146537 0.029941 0.472971 -0.012455 -0.195012 -0.235684 -0.104713 0.079545 0.069037 0.223218 0.021478 0.013849 0.160121 0.018061 -0.047497 0.010095 -0.255856 -0.378091 -0.214256 -0.170039 0.165561 0.201080 0.092010 0.088132 0.065470
M317~E 0.059957 -0.561139 0.019325 -0.073288 0.263177 -0.021126 -0.345375 -0.155457 0.063243 -0.021445 0.018890 0.432290 -0.326493 0.206092 0.005648 0.023498 -0.121480 -0.199013 -0.017519 -0.127165 0.051302 -0.027361 0.135016 -0.011013 0.034905 0.044552 0.093902 0.042514 0.064913 0.031274 -0.062224 0.076241
M111~B 0.054498 -0.022969 -0.005390 0.011300 0.055511 0.034474 0.041058 0.005252 0.010079 0.006271 0.005974 0.038496 0.117623 0.031312 0.011312 0.009769 -0.048159 -0.079638 -0.141053 0.017916 -0.219546 -0.018246 0.111569 0.068407 0.134342 -0.148273 0.061562 -0.032665 -0.267751 -0.109658 0.856084 0.132819
M247~F 0.011261 0.043142 0.039700 0.078273 -0.251848 -0.219714 0.049642 -0.138066 -0.029612 -0.177030 -0.003057 -0.095514 0.068529 -0.007845 0.061569 0.014421 0.157339 -0.048641 -0.047757 0.154748 0.071273 -0.216745 -0.016632 -0.014212 0.047858 -0.055796 0.043555 0.235331 -0.430278 0.630626 -0.076367 0.223042
|M157+M288| 0.268693 0.095536 -0.143959 -0.208073 0.415828 -0.376236 -0.041269 0.257863 -0.048908 -0.073981 -0.388393 0.006273 -0.031695 0.189873 0.091336 0.146932 0.054815 0.084472 -0.002160 -0.407524 0.061581 0.016990 0.115918 -0.137549 -0.072934 0.033626 -0.005589 0.127425 -0.052789 -0.009384 0.012661 0.088555
M016 -0.041952 0.023503 0.133019 0.071045 -0.113279 0.028233 0.018305 -0.124045 0.027646 0.030116 0.024904 -0.017892 -0.076469 0.126051 -0.109023 -0.069563 -0.034338 -0.087088 0.038539 0.121071 -0.253332 0.045213 0.025653 -0.490223 -0.405372 -0.378895 -0.289199 0.233035 0.313030 0.129646 0.084903 0.067698
|M175+M175| -0.036116 0.026368 0.095881 0.088620 -0.077653 0.022061 0.006972 -0.095670 -0.002190 0.025011 -0.003950 -0.022711 -0.086304 0.144163 -0.111032 -0.074204 -0.007189 -0.084083 0.030351 0.155244 -0.252790 0.047809 0.025895 -0.481001 -0.410721 -0.396152 -0.291672 0.225556 0.311895 0.134286 0.078247 0.068066
M242~AB 0.114792 0.043749 0.118005 0.183305 -0.087796 0.278923 -0.163683 0.189922 0.177860 -0.213883 -0.103801 0.100563 -0.223454 -0.044508 -0.068176 0.050147 -0.208969 -0.298166 -0.043561 0.036108 0.104883 -0.158657 0.150272 0.048222 0.009242 0.056041 0.031050 0.134712 -0.360052 0.473527 -0.054016 0.236006
M373 0.055381 0.144814 -0.377028 0.052831 -0.019093 0.114796 0.351665 -0.253711 0.170600 -0.192687 -0.015070 0.203471 -0.295988 -0.026547 0.184450 0.080149 -0.046930 0.283041 0.258992 0.190485 0.340530 0.139610 0.061444 0.127436 -0.014025 -0.119054 0.049528 0.118778 0.037041 -0.043964 0.029323 0.128766
M046 -0.167308 -0.099139 -0.029484 -0.386173 0.351601 -0.170042 -0.106740 0.197831 -0.253683 -0.187941 0.476178 -0.144828 -0.203735 0.173044 0.242015 -0.118437 -0.020799 0.163017 0.064032 -0.125040 0.001448 0.122971 -0.147081 -0.011942 0.062874 -0.037574 -0.065937 0.096289 -0.052821 0.068207 -0.006183 0.086937
M053~A 0.050983 -0.021540 -0.005065 0.010625 0.052236 0.032507 0.038764 0.004969 0.009555 0.005947 0.005677 0.036709 0.112225 0.029926 0.010843 0.009376 -0.046283 -0.076731 -0.136122 0.017324 -0.212874 -0.017701 0.108532 0.066666 0.131432 -0.145231 0.060733 -0.032290 -0.266007 -0.109530 0.862166 0.135600
M145~A -0.219296 -0.040554 -0.148314 0.200314 0.116336 -0.289305 0.145091 -0.035326 0.312609 -0.091626 -0.047670 -0.320470 0.116674 -0.284556 -0.090576 -0.063614 0.213788 -0.148535 0.065437 0.101294 -0.023091 -0.196627 0.023536 0.009743 0.196384 -0.180127 0.119699 -0.335602 0.222164 0.156952 -0.032168 0.235655
M220 0.098583 -0.210371 -0.068070 -0.132183 -0.119185 -0.007874 0.113174 -0.066962 0.067582 -0.373169 -0.176947 0.039358 0.149499 -0.248624 -0.091041 -0.020595 -0.283018 0.070121 0.233199 0.003097 0.127685 0.109355 -0.276684 0.176021 -0.427660 0.156658 0.057902 0.107726 -0.134405 0.174508 0.001297 0.276918
|M370~B+M388| 0.375774 -0.341033 -0.058059 -0.020430 -0.223952 -0.103850 -0.198175 0.231667 0.056247 0.542679 -0.072030 -0.239002 -0.200803 -0.137718 0.184509 0.134248 0.233394 0.057391 -0.023153 0.081819 0.104752 -0.071712 0.014309 -0.000054 -0.112657 -0.056401 -0.013245 0.037267 -0.014103 -0.003029 0.118558 0.021734
M073~A -0.032688 -0.068847 -0.123866 -0.019301 0.067181 -0.104348 -0.059065 0.040844 -0.029045 -0.078447 0.077316 -0.064813 -0.076115 -0.064966 0.159908 0.074326 -0.166975 -0.014494 0.058954 0.053723 -0.079460 -0.106300 0.112415 -0.337948 -0.007542 -0.095421 0.595020 -0.495678 0.233944 0.194541 -0.010132 0.138325
M041 0.336956 -0.146210 0.378630 0.362104 -0.134956 -0.090527 -0.144251 0.087473 -0.115672 0.275641 0.068517 -0.230071 -0.167274 -0.188080 0.189564 0.165210 0.285673 0.044866 -0.026202 0.053670 0.239946 -0.094000 -0.027171 0.006098 -0.222293 -0.080204 -0.001506 0.164689 0.107099 0.020429 0.067900 0.091226
M115~A -0.238778 -0.080216 -0.304088 -0.246118 -0.460071 0.129986 0.159100 -0.017286 -0.000322 0.213799 0.304813 0.209836 0.313175 0.006055 -0.169180 0.171134 0.034301 0.091920 -0.032415 -0.026827 0.040019 0.050385 0.044677 0.011195 0.086120 -0.127145 0.031112 0.145921 -0.162048 0.249277 -0.092630 0.173715
M281~C 0.056451 0.064929 0.016834 -0.014966 -0.217844 0.058782 -0.000217 0.011656 -0.179294 -0.028788 -0.010419 0.102680 0.002570 -0.157796 -0.019418 -0.032536 -0.077015 -0.065624 -0.072486 0.091654 0.050002 -0.102478 -0.018295 -0.074477 0.066761 0.009786 0.005890 0.248110 -0.516981 0.674579 -0.090549 0.177840
M195~D 0.085637 0.287464 0.037160 -0.023155 -0.033616 -0.040051 -0.082754 0.155104 0.057773 0.076499 -0.085690 -0.092462 -0.114389 0.175912 -0.141628 -0.104764 -0.128289 -0.171571 -0.153232 0.061680 -0.259741 -0.061618 0.141238 -0.199844 -0.208752 -0.243916 -0.103797 0.171405 0.016103 -0.075655 0.622663 0.181887
M036 0.263315 -0.116148 -0.107433 -0.017635 -0.074951 -0.025439 -0.188315 0.219520 0.115227 -0.100189 -0.048287 -0.016817 -0.102545 -0.035382 0.022904 0.020875 0.131500 -0.040349 -0.228560 0.173163 0.122096 0.088748 -0.283497 -0.018812 0.379325 0.625735 0.148171 -0.054121 0.028306 -0.057355 0.054533 0.068668
M318~N 0.107065 0.129894 0.273015 0.196254 0.193184 0.664356 -0.235356 0.071157 0.357467 -0.151177 -0.198876 -0.166805 0.001888 -0.024164 0.008490 0.239997 0.047342 0.075011 -0.037252 0.004969 0.037874 0.003151 0.086547 0.097487 0.034522 -0.045862 0.003593 0.015787 -0.045578 0.066020 -0.021410 0.070890
M152 0.172558 0.291888 0.162756 0.039776 0.282982 0.331847 -0.382335 -0.246959 0.273605 0.110672 -0.358462 -0.316841 0.153544 -0.137470 -0.046812 0.037413 0.043158 0.055100 -0.050903 -0.044001 0.003661 0.077525 0.058921 -0.010031 0.083742 -0.139619 0.077325 -0.117500 0.059094 0.022075 -0.062574 0.155946
M383~J -0.511521 -0.018846 0.297507 0.231145 0.002110 0.046744 -0.148299 0.414939 0.009292 0.081344 -0.331302 0.267362 -0.144972 -0.045445 0.025156 -0.107082 -0.168791 -0.028820 0.091323 -0.095850 -0.084554 -0.166566 0.050018 -0.034645 -0.155832 0.095340 -0.035212 0.070021 -0.059836 -0.160212 -0.070508 0.131868
M111 -0.155632 -0.157422 -0.187224 -0.146636 -0.115703 0.127573 -0.031408 -0.219792 0.093404 0.152072 0.096465 -0.018032 0.129256 -0.018934 -0.061484 0.114462 -0.022574 -0.013009 -0.212318 -0.121290 -0.137415 -0.061146 0.125638 0.065564 0.150458 -0.075155 0.019523 0.011728 -0.165066 -0.080222 0.747229 0.126663
|M106~2+M288| 0.423964 -0.042108 -0.056702 -0.082651 0.103108 0.259489 -0.047413 -0.006458 0.012942 -0.040257 0.146487 -0.143509 0.159154 -0.165421 -0.209908 -0.083469 0.018328 -0.258638 -0.163776 0.191052 -0.101828 -0.074174 -0.012258 -0.208325 -0.012796 -0.395197 -0.114514 0.330744 0.306288 0.010440 -0.020616 0.132090
M387~EH 0.112300 0.225782 0.038522 -0.010381 -0.121602 0.207377 0.081883 0.049087 -0.086920 0.094906 -0.018993 0.203161 -0.047097 -0.049438 -0.142520 -0.127316 0.519589 0.044010 0.354526 -0.281243 -0.371910 0.228414 -0.157639 0.182203 0.050600 -0.038526 0.041885 -0.116715 0.094815 0.055779 -0.020957 0.106474
M249~M 0.064608 0.137719 -0.021579 0.216259 -0.016562 -0.151124 -0.096195 0.002151 0.071460 -0.021030 0.020975 0.097133 -0.142389 -0.027069 -0.058119 0.056374 0.159634 -0.043210 -0.272939 0.206015 0.038218 0.437142 -0.416771 -0.283377 0.238882 0.419750 -0.032043 0.041033 0.093198 -0.007453 0.042926 0.129913
M057~A2 0.046499 -0.076266 0.300444 0.060758 -0.252855 0.004996 0.233353 -0.131189 0.233881 -0.141496 0.131875 0.011852 0.095715 -0.125307 0.038081 0.095775 -0.236094 -0.111080 0.201439 -0.397216 -0.061696 -0.015798 0.036496 -0.367175 -0.263903 -0.016554 -0.181357 0.212958 0.251762 0.080006 0.075993 0.065844
|M218~D+M288| 0.065062 0.048351 -0.210872 -0.117208 0.040718 -0.028185 0.024547 -0.197475 -0.258680 -0.028022 -0.015857 -0.246474 0.021341 -0.145907 0.142418 -0.091161 -0.156820 0.125039 -0.188638 -0.076044 -0.045239 0.023601 0.071052 0.212967 -0.102550 0.082590 -0.563542 -0.434092 0.075396 0.087516 -0.030376 0.204727
M295~KA 0.144946 0.284964 0.014959 -0.332545 0.059780 -0.186046 -0.074426 -0.146621 -0.036020 0.008329 0.188729 -0.084603 0.075508 -0.242466 0.127442 0.031711 -0.252320 -0.094696 -0.153866 0.137655 -0.112126 0.300432 0.207711 0.207846 -0.371653 0.219194 -0.197980 -0.187180 -0.032333 -0.007995 -0.026314 0.170980
M254~B1 -0.329465 0.056850 0.081846 -0.011523 0.005569 0.115632 0.024987 0.462632 0.246996 0.388963 -0.240525 -0.083026 -0.249593 -0.128110 0.086865 -0.165402 -0.009085 0.151444 0.041802 0.051590 0.419769 0.093788 -0.017068 0.066328 -0.201835 -0.027467 -0.003802 0.020946 0.020118 -0.023077 0.038234 0.034843
M295~U -0.248339 -0.168580 -0.103736 -0.106358 -0.199596 -0.192592 0.469816 0.184334 0.318351 0.083456 0.221475 -0.442020 0.182004 -0.149195 -0.130917 -0.118323 -0.057105 -0.110261 0.032244 -0.002276 -0.089670 0.036243 -0.084967 0.096807 0.209143 -0.060320 0.084410 0.045533 0.110885 0.008005 -0.034613 0.066223
M290 -0.036116 0.026368 0.095881 0.088620 -0.077653 0.022061 0.006972 -0.095670 -0.002190 0.025011 -0.003950 -0.022711 -0.086304 0.144163 -0.111032 -0.074204 -0.007189 -0.084083 0.030351 0.155244 -0.252790 0.047809 0.025895 -0.481001 -0.410721 -0.396152 -0.291672 0.225556 0.311895 0.134286 0.078247 0.068066
M262 -0.035989 -0.185732 0.136330 -0.022066 0.299824 -0.037860 0.177986 0.096510 0.035482 -0.061737 0.203800 -0.087048 -0.065568 -0.190729 -0.560476 -0.067617 0.108037 -0.306774 -0.241017 0.034773 0.074934 -0.078580 0.076350 0.153953 0.018599 -0.071032 0.036696 0.109648 -0.176763 0.212832 -0.118410 0.289006
M038~B1 -0.000032 -0.023660 -0.036138 -0.117394 0.069627 0.018942 0.050991 -0.031107 0.033103 -0.090830 -0.124048 0.197487 0.137070 -0.018509 -0.112533 -0.050571 -0.107985 0.137866 -0.118880 -0.059443 0.103882 -0.236964 -0.723522 0.141365 -0.417516 -0.079632 0.159390 -0.063072 -0.024904 -0.048292 0.020059 0.073129
M224 -0.026034 -0.042062 0.028865 -0.077104 0.073994 -0.069554 0.017413 -0.138595 -0.042638 0.025347 0.089049 -0.083073 0.133579 -0.128620 -0.038877 0.038184 -0.053555 -0.051600 -0.094751 0.214517 -0.368663 0.318089 0.220400 -0.023301 -0.657403 0.015523 -0.244586 0.031255 0.171909 0.103811 0.018455 0.160236
M281~F 0.117687 0.079249 0.163341 0.107327 -0.163480 -0.217138 -0.113765 -0.413597 -0.004388 0.327195 -0.237078 0.307499 0.180925 0.145969 0.024429 -0.061820 -0.146910 0.047130 -0.016360 0.083449 0.048993 -0.067341 -0.030178 0.031257 0.100867 0.024522 0.069857 0.197480 -0.269472 0.378173 -0.092096 0.221067
M075~M -0.033314 0.149014 0.263959 0.073205 -0.294838 -0.096502 -0.454435 -0.431369 -0.141945 0.226155 -0.085423 0.380422 0.163964 0.147271 -0.079460 -0.264936 -0.109292 0.026611 -0.075813 0.017920 0.051292 -0.054100 0.016795 0.004566 0.066867 0.009541 0.058580 0.092127 -0.097519 0.094086 0.051295 0.048703
M318~A1 -0.041218 -0.009713 -0.195277 0.238860 -0.198190 0.125857 -0.090175 0.176665 -0.331265 -0.071324 0.156051 -0.011545 0.030309 0.087836 0.146713 -0.032651 -0.039811 -0.042502 -0.047354 -0.152421 0.108556 -0.027067 0.153478 -0.246249 -0.026795 -0.053338 0.515166 -0.383489 0.225516 0.128030 -0.013558 0.170271
M332~C -0.015758 0.084554 -0.045991 0.162633 -0.029087 -0.168048 0.187447 0.055826 0.203302 0.096329 0.092012 0.075734 -0.096098 -0.246222 -0.403574 -0.175353 0.522864 -0.161203 0.291131 -0.171406 -0.208572 0.057657 -0.123203 0.183278 0.119495 -0.089507 0.021893 -0.119856 0.072367 0.077592 -0.002340 0.104405
M131 -0.013098 -0.182436 -0.105566 -0.096900 0.081947 -0.027202 0.049829 0.025924 -0.081543 -0.315578 -0.095290 0.028344 -0.200735 -0.071716 -0.152268 0.183671 0.124602 -0.020104 0.082741 0.361313 -0.378522 0.209867 0.119790 0.250659 -0.190608 0.393261 -0.062796 0.000267 0.071149 -0.056660 0.118097 0.286263
M240~B 0.095425 -0.148248 -0.045871 0.011567 0.140836 -0.037745 -0.018072 0.003879 -0.338914 0.203914 -0.068334 -0.200473 0.184572 0.191943 -0.350351 0.288713 -0.280354 -0.150489 0.509763 0.186869 0.137275 0.059679 -0.129402 -0.031804 0.105427 0.052777 -0.094424 -0.037124 -0.024264 -0.048199 0.008162 0.058362
M251~C 0.002172 -0.097499 -0.271882 0.207334 -0.317836 0.171705 0.075255 0.178230 -0.251701 0.048569 0.117588 0.118833 0.219855 0.086533 0.017036 -0.245981 0.196611 0.150105 -0.010020 -0.276712 -0.157017 0.233757 0.040684 0.260163 -0.029175 0.035978 -0.203642 -0.296700 0.133958 0.071036 -0.045433 0.228413
M044~A -0.045049 0.027698 -0.090781 -0.089647 -0.195874 0.132586 -0.044286 -0.158893 0.024921 0.105019 0.189353 0.032161 0.100906 0.196840 -0.235931 0.011675 0.066509 -0.142551 -0.055917 0.097442 -0.133152 0.006871 0.110708 -0.439096 -0.376687 -0.358134 -0.221882 0.252518 0.272297 0.097738 0.090901 0.095859
M029~B -0.006201 -0.147705 -0.115127 0.337466 0.046566 0.233898 0.004832 0.267838 -0.130653 0.023031 0.051055 -0.230927 -0.058207 0.309187 -0.482935 0.103151 -0.393966 0.018358 0.291208 0.132681 -0.031976 0.014094 -0.064541 0.034197 -0.073285 0.055240 -0.045514 0.042510 -0.053711 -0.063794 0.052235 0.139613
M281~A -0.077757 -0.025547 -0.009225 -0.275689 0.098803 -0.078570 -0.073939 0.144825 -0.295625 -0.149747 0.324454 -0.032084 -0.140667 0.014607 0.156783 -0.105409 -0.067115 0.070205 -0.004428 -0.025554 0.035582 0.016567 -0.117587 -0.060415 0.091894 -0.020112 -0.043522 0.246592 -0.409766 0.538541 -0.071000 0.198431
M230~A -0.049754 -0.050230 -0.187742 0.353267 -0.108667 -0.103933 0.164302 0.136850 0.153193 -0.054351 0.089284 -0.083501 -0.116260 -0.293081 -0.404643 -0.125911 0.043279 -0.351285 0.107922 0.054875 0.051628 -0.157567 -0.039523 0.065792 0.092660 -0.022716 0.028446 0.110829 -0.279306 0.368234 -0.048079 0.186616
M049~C -0.027623 0.210692 -0.564646 -0.060852 0.015452 0.045480 -0.154370 -0.303890 -0.160374 -0.249997 -0.141947 -0.309745 -0.164138 -0.198095 -0.192515 -0.038410 -0.021975 0.221610 -0.035850 -0.011222 -0.125396 -0.187256 0.081892 0.000964 -0.173169 0.154204 -0.006025 0.051400 -0.070725 -0.159811 -0.054510 0.079646
M240~A 0.095425 -0.148248 -0.045871 0.011567 0.140836 -0.037745 -0.018072 0.003879 -0.338914 0.203914 -0.068334 -0.200473 0.184572 0.191943 -0.350351 0.288713 -0.280354 -0.150489 0.509763 0.186869 0.137275 0.059679 -0.129402 -0.031804 0.105427 0.052777 -0.094424 -0.037124 -0.024264 -0.048199 0.008162 0.058362
M151~E 0.183560 0.058239 -0.246227 -0.259895 0.122845 0.337456 0.167770 -0.067479 -0.064430 -0.057303 0.111208 0.218184 0.160431 0.208837 0.105637 -0.027953 0.208891 -0.494008 -0.143503 0.163925 0.190719 -0.289246 -0.073898 -0.117052 -0.084367 0.041041 0.032712 -0.041989 -0.018155 -0.164076 -0.064058 0.083921
M295~DA -0.006798 -0.073135 -0.033372 -0.162887 0.150694 -0.104112 0.016941 -0.105287 -0.051906 0.013767 0.114069 -0.086949 0.227159 -0.261442 0.030620 0.099188 -0.060541 -0.004042 -0.136422 0.151944 -0.269591 0.350273 0.246531 0.302425 -0.500725 0.288089 -0.090277 -0.114690 -0.008332 0.030613 -0.029948 0.133933
M089 0.056510 -0.023783 -0.005574 0.011683 0.057366 0.035585 0.042350 0.005410 0.010372 0.006451 0.006139 0.039485 0.120606 0.032075 0.011570 0.009984 -0.049183 -0.081216 -0.143720 0.018235 -0.223121 -0.018538 0.113185 0.069328 0.135869 -0.149864 0.061984 -0.032854 -0.268591 -0.109693 0.852712 0.131380
|M327+X| 0.094121 -0.010830 0.111514 -0.380809 0.217161 -0.032697 -0.234626 -0.095570 -0.265329 0.133323 0.334224 -0.028724 0.181271 -0.036603 -0.028100 -0.153337 -0.206239 0.030436 0.080822 0.092533 -0.118674 0.123011 -0.042840 0.112915 0.046793 -0.070548 0.050148 0.091764 -0.086529 -0.103987 0.552142 0.135416
|M175+M038~A| -0.036111 -0.075664 -0.135550 -0.021094 0.073294 -0.113355 -0.063992 0.044048 -0.031196 -0.084179 0.082631 -0.068765 -0.080661 -0.068601 0.167847 0.077798 -0.174304 -0.015051 0.061016 0.055379 -0.081445 -0.108842 0.114455 -0.342797 -0.007590 -0.095802 0.588789 -0.488504 0.228254 0.187784 -0.009622 0.127888
M214~A 0.077699 -0.271013 -0.036269 -0.255724 -0.047512 -0.065909 0.093379 -0.106988 0.061413 0.101149 0.197234 -0.087046 0.294450 -0.366387 0.031136 0.193028 -0.067902 -0.043276 -0.005691 0.010303 -0.192983 0.312961 0.198559 0.188223 -0.429777 0.270062 -0.081480 -0.084441 -0.030156 -0.007481 -0.020219 0.133936
M295~K -0.267181 -0.315052 0.149734 -0.040063 -0.166958 -0.133469 -0.066826 -0.194834 -0.021122 0.015477 -0.579401 0.251649 0.025019 0.132798 0.121159 0.008561 0.079949 -0.001047 0.126769 0.236113 -0.188886 -0.166053 0.098870 0.226895 0.142590 0.052000 -0.000608 0.070645 0.151832 -0.001136 -0.032110 0.172194
M058 0.032288 -0.092499 0.014866 -0.109757 0.027826 -0.229741 -0.182542 0.050413 -0.143015 0.128176 -0.154062 -0.034844 0.077505 0.259541 -0.234651 0.354146 -0.177265 -0.370037 0.384457 0.250995 0.131331 0.116140 -0.240577 -0.049259 0.175237 0.195278 -0.083079 -0.008934 0.056810 -0.054480 0.009055 0.144007
M009~A -0.214745 0.214317 0.241115 -0.142195 -0.270085 0.021431 -0.469748 -0.095938 -0.111830 0.024035 0.175692 0.277214 0.108860 0.030720 -0.078921 -0.409191 -0.072497 0.025372 -0.042740 0.050159 -0.057413 -0.016430 -0.014248 0.036141 0.067572 -0.029332 0.059785 0.056886 -0.077364 -0.026677 0.420503 0.089395
M352~N2 -0.242150 -0.005984 0.274066 0.148176 0.331773 0.221011 -0.140620 -0.459665 0.165446 0.264963 0.291665 0.174660 0.015422 -0.038580 0.184740 -0.031327 -0.105605 0.017183 0.007916 -0.284441 0.147521 -0.062457 0.005906 -0.105640 0.124478 0.102642 -0.066202 0.134534 0.106482 0.006040 0.101063 0.070062
M228~GA -0.387642 -0.039911 -0.172099 -0.061251 -0.042004 -0.035726 0.240279 -0.255045 -0.352652 -0.083238 -0.381040 -0.308488 -0.361049 -0.098879 -0.147732 0.090073 0.130042 -0.008303 -0.105612 -0.151177 -0.077645 -0.212519 0.058273 0.040302 0.016384 0.139719 0.031026 0.073475 0.034542 -0.026345 0.023959 0.106841
|M175+M136| 0.179875 -0.152146 0.127233 0.105040 -0.181382 -0.068797 -0.127471 0.374291 0.219111 -0.054372 -0.070779 0.003672 -0.180051 0.193807 -0.055343 -0.245784 -0.104048 -0.374590 -0.127617 0.192312 0.076785 -0.406040 0.247815 0.018983 0.089242 0.220845 0.087633 0.039096 0.019525 -0.037583 -0.002721 0.170768
M038~A1 0.116173 0.301260 -0.377740 0.170990 -0.076324 0.051112 0.226764 -0.210508 0.099582 -0.260610 0.136084 0.246004 -0.372983 -0.047852 0.146346 0.348396 -0.062257 0.201851 0.139487 0.192004 0.047929 -0.005447 0.004758 0.200748 0.065343 -0.118968 -0.011263 0.083626 0.062347 -0.032404 0.007721 0.066651
|M228~B+M101| 0.042409 0.178563 0.091273 0.002740 -0.168303 0.064282 -0.035774 0.090224 -0.082027 -0.027989 -0.058567 0.196154 -0.089056 -0.028400 -0.127553 -0.003650 0.518897 -0.039294 0.083187 -0.045639 -0.273880 0.435789 -0.356343 -0.034668 0.172990 0.294282 0.002795 -0.069108 0.165458 0.051232 0.025492 0.129591
|M228~B+M320| -0.072096 -0.054326 -0.168070 0.054157 0.150549 -0.146351 -0.062020 0.064243 -0.059060 -0.068990 0.101443 -0.049568 -0.073483 -0.105903 0.185216 0.070615 -0.159459 -0.001048 0.057557 0.041764 -0.071325 -0.068973 0.104591 -0.384045 -0.001305 -0.116718 0.575728 -0.458102 0.191776 0.138002 -0.025851 0.146684
M285~C 0.077710 0.150805 0.428375 0.392669 -0.034557 0.052861 -0.034080 -0.155024 -0.168531 -0.097829 0.013208 -0.101650 -0.001492 0.072744 0.037308 0.056232 0.034084 -0.078054 -0.080392 0.222404 0.020707 0.019188 0.049123 -0.184626 -0.333325 -0.363748 -0.144661 0.297094 0.251604 0.091495 0.022809 0.143982
M295~L -0.006379 -0.068930 -0.031565 -0.154233 0.142896 -0.099077 0.016158 -0.100803 -0.049863 0.013236 0.110036 -0.084387 0.220681 -0.254743 0.029985 0.097359 -0.059559 -0.003994 -0.135176 0.151064 -0.269310 0.350210 0.247660 0.304764 -0.507952 0.292833 -0.092892 -0.118417 -0.008677 0.032168 -0.031907 0.145982
M251~I -0.032688 -0.068847 -0.123866 -0.019301 0.067181 -0.104348 -0.059065 0.040844 -0.029045 -0.078447 0.077316 -0.064813 -0.076115 -0.064966 0.159908 0.074326 -0.166975 -0.014494 0.058954 0.053723 -0.079460 -0.106300 0.112415 -0.337948 -0.007542 -0.095421 0.595020 -0.495678 0.233944 0.194541 -0.010132 0.138325
M214~E 0.332594 -0.327762 -0.084367 0.024216 -0.177459 -0.043460 -0.130708 0.239026 0.037238 0.548410 -0.012243 -0.217831 -0.223927 -0.221461 0.169248 0.132080 0.271515 0.081856 -0.003737 0.087568 0.190522 -0.088703 -0.005244 0.015753 -0.177268 0.008752 -0.008241 0.047077 0.031815 0.020191 0.053010 0.032737
M103~2 0.019227 0.243832 -0.115688 -0.242528 0.338113 -0.112882 0.132913 0.018239 0.132692 0.116978 0.250327 0.058036 0.162381 -0.343321 0.174391 0.021405 -0.045325 -0.107466 0.012577 0.085588 -0.149605 0.131263 0.244330 0.137478 -0.369078 0.369756 -0.082439 -0.008047 -0.026590 -0.079518 -0.046980 0.148825
M217~N -0.247255 0.222816 -0.069679 0.045681 0.148831 -0.033214 0.268965 0.509639 -0.082145 0.096352 -0.295535 -0.121313 -0.004011 -0.058540 0.326293 -0.065461 -0.119784 -0.021645 -0.046736 -0.156196 0.111341 -0.206394 -0.001624 0.070627 0.063929 0.016098 -0.356690 -0.234261 0.069348 0.023336 -0.007280 0.037691
M249~N -0.086936 0.009276 -0.389293 0.375067 0.025915 0.321434 -0.108059 0.297025 0.129830 -0.260269 -0.135952 -0.170776 -0.216816 -0.078219 0.072606 0.135841 -0.265888 -0.160047 0.280823 -0.131417 -0.036731 -0.096126 -0.043474 0.039779 -0.151616 0.191492 -0.013546 0.039401 -0.043075 -0.044647 0.054363 0.111548
M243~J -0.067108 0.250667 0.013531 0.027294 -0.135397 -0.018471 -0.027762 0.162974 0.035403 0.093053 -0.000940 0.075212 -0.113781 0.231509 0.021963 0.070111 0.220099 -0.103322 -0.215664 0.219431 0.088703 0.401733 -0.307768 -0.387300 0.048964 0.250204 -0.092025 0.131801 0.307126 0.095382 0.138205 0.130744
|M305+M009| 0.016234 0.056653 0.295033 -0.079040 -0.176354 -0.068450 -0.134360 -0.170274 -0.019642 -0.245438 0.147840 -0.023170 -0.070571 0.131613 0.021889 -0.187212 -0.013082 -0.014826 0.108452 0.122116 -0.235180 0.037571 -0.128595 -0.261661 -0.411349 -0.308185 -0.227187 0.238532 0.277482 0.136454 0.170820 0.115200
M049~E 0.132999 -0.148148 -0.068244 0.054480 0.111086 -0.013156 0.021430 -0.024617 -0.330788 0.185294 -0.068040 -0.203990 0.171355 0.175485 -0.199217 0.144098 -0.292417 -0.055855 0.354489 0.077543 0.195213 -0.045964 -0.148189 0.019975 0.212763 -0.014502 -0.425713 -0.308720 0.050490 0.002720 -0.004256 0.145186
M147~A -0.621812 0.207746 0.332393 -0.063303 -0.228451 0.149095 -0.026632 0.281766 -0.205619 0.073208 0.035328 -0.004527 0.131485 0.036482 0.282858 -0.065370 0.015715 -0.173931 0.113840 0.038803 0.049170 -0.233330 -0.093825 -0.046541 0.016501 -0.097133 -0.117851 0.051495 0.075811 -0.038230 0.042809 0.035880
M295~B -0.248339 -0.168580 -0.103736 -0.106358 -0.199596 -0.192592 0.469816 0.184334 0.318351 0.083456 0.221475 -0.442020 0.182004 -0.149195 -0.130917 -0.118323 -0.057105 -0.110261 0.032244 -0.002276 -0.089670 0.036243 -0.084967 0.096807 0.209143 -0.060320 0.084410 0.045533 0.110885 0.008005 -0.034613 0.066223
|M327+M059| 0.192389 -0.032975 0.280488 0.253877 -0.106526 -0.075331 -0.009007 -0.024922 0.243796 -0.263958 0.098412 -0.016353 0.042501 -0.084985 0.091239 0.229345 0.067285 -0.127146 -0.037044 -0.325483 0.044126 0.194188 -0.190724 -0.221322 0.119240 0.377685 0.001904 0.131963 0.086906 0.021102 0.359182 0.166497
|M057+M291| 0.101215 -0.087145 0.058903 -0.075425 0.229737 -0.205820 -0.244102 -0.246062 0.115119 0.230453 -0.014284 0.398132 -0.157293 0.316961 0.020737 0.128737 -0.269371 -0.474193 0.026750 -0.072893 0.214218 -0.084066 -0.006230 0.022125 -0.030236 -0.000282 0.046934 0.070258 -0.010863 -0.072922 -0.081698 0.115544
M147~E 0.094514 -0.046977 -0.040291 -0.281306 0.269695 -0.039664 0.050361 -0.121822 -0.132539 0.114762 0.296712 -0.035595 0.289202 -0.116247 -0.011310 0.082215 -0.134033 -0.111381 -0.058170 0.129089 -0.213263 0.257560 0.063196 0.143332 -0.269234 0.078815 0.005584 -0.059461 -0.189372 -0.135725 0.464341 0.231089
M295~EE -0.170381 0.010699 0.055091 0.183841 0.127638 0.033467 -0.119208 -0.026319 0.022768 -0.178274 -0.150435 -0.182624 0.173977 -0.256694 -0.157004 0.010224 -0.000081 0.025067 -0.177251 0.226657 -0.131004 0.159012 0.094501 -0.353980 -0.234539 -0.402996 -0.209515 0.150449 0.348755 0.118883 0.034006 0.107458
M045~B -0.102639 0.040181 0.216450 -0.305483 -0.006780 0.176885 -0.189044 0.196323 0.225663 -0.223567 -0.240660 0.128786 0.071009 -0.110280 -0.235760 0.488150 0.067863 0.335596 -0.175295 0.018762 0.154726 0.023712 0.156367 0.020033 0.116916 -0.177698 -0.008418 -0.041893 0.086036 -0.004277 -0.020233 0.054891
M032~A 0.034963 0.544861 -0.055285 -0.118171 -0.061277 -0.171904 -0.154673 0.441330 0.133872 0.124512 -0.204056 -0.199108 -0.315931 0.101565 -0.080215 -0.117242 -0.187234 -0.146336 -0.155153 -0.047574 0.013514 -0.143026 0.068497 0.090509 -0.144283 0.092795 0.005713 0.125832 0.043400 -0.124630 -0.004672 0.093825
M073~B -0.284389 0.154901 0.115911 -0.111694 -0.007026 0.163568 -0.254019 0.148352 0.072345 -0.070711 -0.074699 0.027676 0.215679 -0.374183 -0.164973 0.382251 -0.106791 0.241593 -0.120582 0.064021 0.171712 0.073933 0.180558 -0.135173 0.161777 -0.219144 0.198381 -0.184985 0.187495 0.036203 -0.030681 0.141517
M063~A -0.356060 0.208610 0.353455 -0.277142 -0.138720 0.201750 -0.149771 -0.185786 0.021382 0.184701 0.434864 0.030475 -0.105650 -0.278817 -0.052605 -0.161860 -0.075187 0.061810 0.273916 -0.080585 0.138022 -0.141756 0.016465 -0.032302 -0.025321 0.104538 -0.035179 0.060734 0.106841 -0.008252 0.078136 0.055284
M254~A -0.128625 -0.251909 0.161792 0.011595 0.053675 -0.402164 0.073239 0.177851 0.286517 -0.072058 0.020753 0.126949 -0.336195 -0.063664 -0.434055 -0.186486 0.062406 -0.255467 -0.025945 -0.027270 0.002429 -0.193321 0.116483 0.159398 0.149052 -0.048514 -0.081269 -0.036567 -0.062438 0.128722 -0.062151 0.210265
M390 -0.002903 0.052421 -0.044450 0.136810 -0.158046 0.098758 0.167880 0.070277 0.081895 0.286119 0.196774 -0.012536 0.236056 0.183050 -0.373632 0.098878 -0.148019 0.496542 -0.082361 -0.042118 -0.143252 0.245046 0.187966 0.050583 -0.070903 0.070187 0.054388 -0.194698 0.041802 -0.021952 -0.095194 0.291637
M128~DE 0.051582 0.059565 0.015494 -0.013788 -0.200968 0.054408 -0.000201 0.010849 -0.167402 -0.026898 -0.009766 0.096781 0.002424 -0.149275 -0.018455 -0.030989 -0.073506 -0.062890 -0.069645 0.088337 0.048406 -0.099286 -0.017803 -0.072686 0.065558 0.009627 0.005861 0.247663 -0.520133 0.684445 -0.093065 0.186700
|M157+M377~E+M377~E| 0.050983 -0.021540 -0.005065 0.010625 0.052236 0.032507 0.038764 0.004969 0.009555 0.005947 0.005677 0.036709 0.112225 0.029926 0.010843 0.009376 -0.046283 -0.076731 -0.136122 0.017324 -0.212874 -0.017701 0.108532 0.066666 0.131432 -0.145231 0.060733 -0.032290 -0.266007 -0.109530 0.862166 0.135600
M372~M -0.032688 -0.068847 -0.123866 -0.019301 0.067181 -0.104348 -0.059065 0.040844 -0.029045 -0.078447 0.077316 -0.064813 -0.076115 -0.064966 0.159908 0.074326 -0.166975 -0.014494 0.058954 0.053723 -0.079460 -0.106300 0.112415 -0.337948 -0.007542 -0.095421 0.595020 -0.495678 0.233944 0.194541 -0.010132 0.138325
M029~C -0.000494 -0.411315 0.473409 0.115010 0.228422 -0.007024 0.163738 -0.409522 -0.099879 0.171370 0.003614 0.127546 -0.081185 0.175133 -0.099501 -0.047433 -0.062696 -0.209990 -0.219447 0.089924 0.054544 0.104171 0.062361 0.249836 0.092604 0.032637 0.062594 0.038189 -0.040369 0.116697 -0.062904 0.151886
M291 0.092264 -0.246023 -0.134553 0.172905 -0.081924 0.003409 0.026225 0.144527 0.049364 -0.255796 0.009518 0.146436 -0.043194 0.127746 -0.097613 -0.334262 -0.191447 -0.208641 0.003837 0.074133 0.187141 0.002300 0.327137 -0.124986 0.006467 -0.024017 0.360409 -0.247417 0.020889 0.034837 0.366123 0.234583
M377~G -0.006379 -0.068930 -0.031565 -0.154233 0.142896 -0.099077 0.016158 -0.100803 -0.049863 0.013236 0.110036 -0.084387 0.220681 -0.254743 0.029985 0.097359 -0.059559 -0.003994 -0.135176 0.151064 -0.269310 0.350210 0.247660 0.304764 -0.507952 0.292833 -0.092892 -0.118417 -0.008677 0.032168 -0.031907 0.145982
M223~A 0.097700 -0.045578 -0.054796 0.081514 -0.010563 0.033010 0.066169 -0.050560 -0.089853 0.029122 -0.020558 -0.068267 0.032965 0.029354 0.166362 -0.173549 -0.108447 0.125433 -0.124677 -0.140888 0.147605 -0.173460 -0.074065 0.084230 0.227496 -0.105908 -0.630866 -0.504760 0.128285 0.077607 -0.020034 0.175714
M270~M 0.091124 0.398696 -0.051880 0.065928 -0.108069 -0.125707 -0.061398 0.056521 0.355270 0.103262 0.074152 0.257014 -0.508087 0.007978 0.068844 0.033288 -0.424973 -0.200466 0.047932 0.087720 -0.047312 0.062928 0.119075 0.211437 -0.109103 0.090660 -0.022383 -0.011791 0.000334 -0.013375 -0.014573 0.041694
M371~A 0.291725 -0.058417 0.648572 0.337769 -0.031006 -0.241887 -0.058171 -0.223573 -0.012755 -0.006245 0.263676 -0.117318 -0.035294 -0.146715 -0.145859 0.078616 0.138713 -0.174799 -0.114986 -0.167214 0.018460 -0.040511 0.009970 0.014564 -0.076038 0.008892 -0.012698 0.079096 0.007884 -0.035091 0.148469 0.036168
M361~D -0.047545 -0.238394 0.205816 -0.073479 -0.268999 -0.171300 -0.366510 -0.367806 0.073799 0.197435 -0.488917 0.158613 0.123180 0.283357 0.097710 -0.093651 -0.058201 0.057887 0.003718 0.023890 -0.126497 0.051438 0.017840 0.177541 0.123801 0.005106 0.052525 0.040061 0.080292 0.024483 -0.050788 0.110795
M281~D 0.051582 0.059565 0.015494 -0.013788 -0.200968 0.054408 -0.000201 0.010849 -0.167402 -0.026898 -0.009766 0.096781 0.002424 -0.149275 -0.018455 -0.030989 -0.073506 -0.062890 -0.069645 0.088337 0.048406 -0.099286 -0.017803 -0.072686 0.065558 0.009627 0.005861 0.247663 -0.520133 0.684445 -0.093065 0.186700
M049~N 0.228882 -0.204993 0.249208 -0.051576 -0.225742 0.022585 -0.191023 0.029153 0.084047 -0.384983 0.128855 -0.156414 0.072226 0.123382 -0.020130 0.362445 0.257755 0.461409 -0.073999 0.098982 0.143954 -0.169836 0.165136 0.086465 -0.018231 -0.083269 0.017292 0.052654 0.029284 -0.051032 0.024268 0.100749
M038~I -0.137180 0.044893 0.038603 -0.077085 0.012944 0.215201 0.302508 0.102539 -0.107150 0.033869 -0.105837 0.275145 0.109393 -0.115049 0.150469 -0.132183 0.026382 -0.079836 0.027270 0.299918 -0.141863 -0.333327 0.005887 -0.349802 -0.080136 0.113560 -0.165740 0.280520 -0.068937 0.395499 -0.012619 0.142045
M096~4 -0.258616 0.382740 -0.128845 -0.114772 -0.090629 0.069479 0.182386 0.365123 -0.099181 0.383889 0.043390 0.121512 0.082560 0.307392 0.270704 0.001549 0.167911 -0.003099 0.027887 -0.029074 0.337974 0.075006 0.088066 0.066701 -0.057827 -0.097512 0.062472 0.091989 0.153287 0.046165 0.107278 0.067475
M146~5 -0.364914 -0.394731 -0.126875 0.381049 -0.000052 -0.230208 -0.306854 -0.067159 -0.243576 -0.091824 -0.228227 0.230635 0.152896 -0.284241 0.090395 -0.012451 0.038990 0.055045 -0.138918 0.082782 -0.123504 0.225577 0.010290 0.038121 -0.009291 -0.021117 -0.040620 -0.008121 -0.003340 -0.054627 -0.053034 0.077922
M048~I 0.113356 0.005360 0.055013 -0.085547 -0.211165 -0.116328 -0.058908 -0.017934 -0.222075 -0.131925 0.078849 -0.006935 0.140799 -0.246338 0.099997 0.009671 -0.120205 -0.074241 -0.108924 0.138708 -0.114179 0.119721 0.110270 0.161923 -0.214533 0.129552 -0.009074 0.170092 -0.389696 0.565186 -0.086866 0.252579
M352~S -0.090419 -0.099459 -0.109732 -0.038090 0.055593 -0.135803 -0.065498 0.062150 -0.080782 -0.097698 0.060231 -0.048808 -0.051673 -0.082770 0.178886 0.086734 -0.145578 -0.024631 0.065375 0.066618 -0.096178 -0.096714 0.123903 -0.318341 -0.017660 -0.085754 0.584783 -0.491939 0.235722 0.185861 -0.013318 0.141050
|M325+X| -0.003531 -0.057728 -0.423679 0.422660 -0.367022 0.018174 -0.100684 0.300344 -0.248533 -0.120235 0.048688 0.116991 0.271119 0.205141 -0.017223 -0.213328 0.069861 0.116434 -0.112653 -0.219037 0.166553 0.055398 0.135621 -0.052102 -0.043240 0.039214 0.024905 -0.078256 0.032917 0.006247 0.001232 0.084598
M513 -0.006379 -0.068930 -0.031565 -0.154233 0.142896 -0.099077 0.016158 -0.100803 -0.049863 0.013236 0.110036 -0.084387 0.220681 -0.254743 0.029985 0.097359 -0.059559 -0.003994 -0.135176 0.151064 -0.269310 0.350210 0.247660 0.304764 -0.507952 0.292833 -0.092892 -0.118417 -0.008677 0.032168 -0.031907 0.145982
M295 -0.105698 -0.121310 -0.055607 0.172589 0.033411 -0.096647 -0.181687 -0.041651 -0.145397 -0.162949 -0.125151 -0.017000 0.206814 -0.392702 0.028019 0.030348 -0.009410 0.047837 -0.378958 0.205661 -0.035499 0.327308 -0.064241 0.008304 0.041184 0.206051 -0.297342 -0.143614 -0.029060 0.309232 -0.053844 0.283313
M292~I 0.047382 0.067689 0.034849 -0.058678 0.024391 -0.085476 -0.090261 -0.043069 0.070617 -0.062366 0.062045 0.026385 0.064137 -0.078920 -0.035583 0.092393 0.045878 -0.109650 -0.331251 0.242712 -0.245159 0.437795 -0.116137 0.001507 -0.027308 0.415448 -0.036761 -0.065824 -0.024084 -0.005180 0.513934 0.212750
|M317+M260| -0.059603 -0.131590 -0.053578 -0.173829 0.049989 0.046875 0.200671 -0.188241 0.148483 -0.210697 -0.246709 -0.055907 -0.054260 -0.073452 -0.036430 -0.462634 0.016555 0.142449 0.276897 0.140119 0.508437 0.314967 0.117370 -0.038264 -0.091479 0.016613 0.051115 0.028771 0.012250 0.012286 0.086056 0.043599
M295~F 0.139392 -0.084683 0.091690 -0.138523 -0.084307 0.219788 -0.073058 0.096226 0.136639 -0.153286 -0.125603 0.142281 0.223646 0.100565 -0.308009 0.409282 0.161807 0.486289 -0.236172 -0.014104 0.115233 -0.025473 0.306532 -0.020747 -0.030705 -0.131679 0.027268 0.051957 0.072265 -0.029461 -0.058937 0.129808
